{"learner":{"attributes":{},"feature_names":[],"feature_types":[],"gradient_booster":{"model":{"gbtree_model_param":{"num_parallel_tree":"1","num_trees":"164"},"iteration_indptr":[0,1,2,3,4,5,6,7,8,9,10,11,12,13,14,15,16,17,18,19,20,21,22,23,24,25,26,27,28,29,30,31,32,33,34,35,36,37,38,39,40,41,42,43,44,45,46,47,48,49,50,51,52,53,54,55,56,57,58,59,60,61,62,63,64,65,66,67,68,69,70,71,72,73,74,75,76,77,78,79,80,81,82,83,84,85,86,87,88,89,90,91,92,93,94,95,96,97,98,99,100,101,102,103,104,105,106,107,108,109,110,111,112,113,114,115,116,117,118,119,120,121,122,123,124,125,126,127,128,129,130,131,132,133,134,135,136,137,138,139,140,141,142,143,144,145,146,147,148,149,150,151,152,153,154,155,156,157,158,159,160,161,162,163,164],"tree_info":[0,0,0,0,0,0,0,0,0,0,0,0,0,0,0,0,0,0,0,0,0,0,0,0,0,0,0,0,0,0,0,0,0,0,0,0,0,0,0,0,0,0,0,0,0,0,0,0,0,0,0,0,0,0,0,0,0,0,0,0,0,0,0,0,0,0,0,0,0,0,0,0,0,0,0,0,0,0,0,0,0,0,0,0,0,0,0,0,0,0,0,0,0,0,0,0,0,0,0,0,0,0,0,0,0,0,0,0,0,0,0,0,0,0,0,0,0,0,0,0,0,0,0,0,0,0,0,0,0,0,0,0,0,0,0,0,0,0,0,0,0,0,0,0,0,0,0,0,0,0,0,0,0,0,0,0,0,0,0,0,0,0,0,0],"trees":[{"base_weights":[-1.3858203E-3,1.5889765E0,-6.584416E-1,1.9318985E0,7.619412E-1,-1.3087019E0,5.989304E-1,3.3937696E-2,-1.4610969E-2,7.7887904E-4,3.490654E-2,-2.6368745E-2,3.490314E-2,3.382595E-2,-3.4127146E-2],"categories":[],"categories_nodes":[],"categories_segments":[],"categories_sizes":[],"default_left":[0,0,0,0,0,0,0,0,0,0,0,0,0,0,0],"id":0,"left_children":[1,3,5,7,9,11,13,-1,-1,-1,-1,-1,-1,-1,-1],"loss_changes":[5.9845E4,4.7471523E3,3.3136223E4,3.7882812E2,4.355991E3,1.7785883E4,4.720152E4,0E0,0E0,0E0,0E0,0E0,0E0,0E0,0E0],"parents":[2147483647,0,0,1,1,2,2,3,3,4,4,5,5,6,6],"right_children":[2,4,6,8,10,12,14,-1,-1,-1,-1,-1,-1,-1,-1],"split_conditions":[-1.2603487E0,3.6294868E0,-1.3812049E-1,2.7364855E0,-1.3812098E-1,-2.507533E-1,-2.4928412E-1,3.3937696E-2,-1.4610969E-2,7.7887904E-4,3.490654E-2,-2.6368745E-2,3.490314E-2,3.382595E-2,-3.4127146E-2],"split_indices":[15,13,8,22,8,18,18,0,0,0,0,0,0,0,0],"split_type":[0,0,0,0,0,0,0,0,0,0,0,0,0,0,0],"sum_hessian":[5.7268316E4,1.6742566E4,4.052575E4,1.1834269E4,4.9082983E3,2.6711592E4,1.3814159E4,1.17855625E4,4.8705933E1,3.1073184E3,1.8009801E3,2.5179762E4,1.53183E3,9.064079E3,4.75008E3],"tree_param":{"num_deleted":"0","num_feature":"40","num_nodes":"15","size_leaf_vector":"1"}},{"base_weights":[-2.45934E-3,1.5608574E0,-6.4526665E-1,1.8975844E0,7.500852E-1,-1.2856578E0,5.9274346E-1,3.3382315E-2,-2.1898428E-2,7.4362673E-4,3.430782E-2,-7.7427924E-3,-3.432804E-2,3.1732082E-2,-2.4491237E-2],"categories":[],"categories_nodes":[],"categories_segments":[],"categories_sizes":[],"default_left":[0,0,0,0,0,0,0,0,0,0,0,0,0,0,0],"id":1,"left_children":[1,3,5,7,9,11,13,-1,-1,-1,-1,-1,-1,-1,-1],"loss_changes":[5.7519934E4,4.551789E3,3.2157877E4,5.231211E2,4.20666E3,1.531275E4,3.3784555E4,0E0,0E0,0E0,0E0,0E0,0E0,0E0,0E0],"parents":[2147483647,0,0,1,1,2,2,3,3,4,4,5,5,6,6],"right_children":[2,4,6,8,10,12,14,-1,-1,-1,-1,-1,-1,-1,-1],"split_conditions":[-1.2603487E0,3.6294868E0,-1.3812049E-1,1.2749523E0,-1.3812098E-1,-1.3812098E-1,-1.377843E-1,3.3382315E-2,-2.1898428E-2,7.4362673E-4,3.430782E-2,-7.7427924E-3,-3.432804E-2,3.1732082E-2,-2.4491237E-2],"split_indices":[15,13,8,20,8,8,8,0,0,0,0,0,0,0,0],"split_type":[0,0,0,0,0,0,0,0,0,0,0,0,0,0,0],"sum_hessian":[5.7236805E4,1.6676904E4,4.05599E4,1.1782215E4,4.894689E3,2.6732053E4,1.3827848E4,1.1730416E4,5.179842E1,3.0935928E3,1.801096E3,1.1942968E4,1.4789084E4,8.569346E3,5.2585024E3],"tree_param":{"num_deleted":"0","num_feature":"40","num_nodes":"15","size_leaf_vector":"1"}},{"base_weights":[-3.0105303E-3,1.5349354E0,-6.351642E-1,1.8651351E0,7.373091E-1,-1.2654343E0,5.849067E-1,3.2780245E-2,-3.3390958E-2,5.8256835E-4,3.3739433E-2,-7.6839733E-3,-3.3750698E-2,3.1179892E-2,-2.402525E-2],"categories":[],"categories_nodes":[],"categories_segments":[],"categories_sizes":[],"default_left":[0,0,0,0,0,0,0,0,0,0,0,0,0,0,0],"id":2,"left_children":[1,3,5,7,9,11,13,-1,-1,-1,-1,-1,-1,-1,-1],"loss_changes":[5.5524703E4,4.3803125E3,3.1124754E4,5.36625E2,4.0978687E3,1.4698461E4,3.245738E4,0E0,0E0,0E0,0E0,0E0,0E0,0E0,0E0],"parents":[2147483647,0,0,1,1,2,2,3,3,4,4,5,5,6,6],"right_children":[2,4,6,8,10,12,14,-1,-1,-1,-1,-1,-1,-1,-1],"split_conditions":[-1.2603487E0,-1.5032642E0,-1.3812049E-1,1.772034E0,-1.3812098E-1,-1.3812098E-1,-1.377843E-1,3.2780245E-2,-3.3390958E-2,5.8256835E-4,3.3739433E-2,-7.6839733E-3,-3.3750698E-2,3.1179892E-2,-2.402525E-2],"split_indices":[15,15,8,24,8,8,8,0,0,0,0,0,0,0,0],"split_type":[0,0,0,0,0,0,0,0,0,0,0,0,0,0,0],"sum_hessian":[5.710936E4,1.6635637E4,4.0473723E4,1.1764185E4,4.8714526E3,2.6687387E4,1.3786337E4,1.1727447E4,3.6737755E1,3.06599E3,1.8054625E3,1.1930659E4,1.4756727E4,8.550647E3,5.2356895E3],"tree_param":{"num_deleted":"0","num_feature":"40","num_nodes":"15","size_leaf_vector":"1"}},{"base_weights":[-1.4798414E-3,1.5109152E0,-6.260753E-1,1.8365835E0,7.246491E-1,-1.0012698E0,3.1602252E-1,3.22677E-2,-3.2808412E-2,4.823944E-3,3.3192888E-2,-1.5154263E-3,-3.2510087E-2,3.1887025E-2,-2.4027715E-2],"categories":[],"categories_nodes":[],"categories_segments":[],"categories_sizes":[],"default_left":[0,0,0,0,0,0,0,0,0,0,0,0,0,0,0],"id":3,"left_children":[1,3,5,7,9,11,13,-1,-1,-1,-1,-1,-1,-1,-1],"loss_changes":[5.3951625E4,4.273133E3,1.4287788E4,4.944414E2,2.5787854E3,2.2745307E4,2.9416754E4,0E0,0E0,0E0,0E0,0E0,0E0,0E0,0E0],"parents":[2147483647,0,0,1,1,2,2,3,3,4,4,5,5,6,6],"right_children":[2,4,6,8,10,12,14,-1,-1,-1,-1,-1,-1,-1,-1],"split_conditions":[-1.2603487E0,3.6294868E0,-2.507533E-1,1.772034E0,-2.3865697E-1,-2.5075614E-1,-2.4928412E-1,3.22677E-2,-3.2808412E-2,4.823944E-3,3.3192888E-2,-1.5154263E-3,-3.2510087E-2,3.1887025E-2,-2.4027715E-2],"split_indices":[15,13,18,24,17,18,18,0,0,0,0,0,0,0,0],"split_type":[0,0,0,0,0,0,0,0,0,0,0,0,0,0,0],"sum_hessian":[5.711172E4,1.669209E4,4.041963E4,1.180229E4,4.889799E3,2.8907166E4,1.1512465E4,1.1767333E4,3.4957283E1,3.5409797E3,1.3488191E3,1.4013551E4,1.4893614E4,6.0833613E3,5.4291035E3],"tree_param":{"num_deleted":"0","num_feature":"40","num_nodes":"15","size_leaf_vector":"1"}},{"base_weights":[-3.549103E-4,1.775227E0,-4.71503E-1,1.8016171E0,-3.6312854E-1,-1.0978498E0,7.2123474E-1,3.1697124E-2,-2.1969976E-2,-1.7781341E-2,9.084564E-3,-5.765911E-3,-3.280055E-2,2.2233967E-2,-2.9667024E-2],"categories":[],"categories_nodes":[],"categories_segments":[],"categories_sizes":[],"default_left":[0,0,0,0,0,0,0,0,0,0,0,0,0,0,0],"id":4,"left_children":[1,3,5,7,9,11,13,-1,-1,-1,-1,-1,-1,-1,-1],"loss_changes":[4.7786086E4,6.766328E2,3.3725875E4,4.9064844E2,8.551712E1,1.773339E4,2.0766625E4,0E0,0E0,0E0,0E0,0E0,0E0,0E0,0E0],"parents":[2147483647,0,0,1,1,2,2,3,3,4,4,5,5,6,6],"right_children":[2,4,6,8,10,12,14,-1,-1,-1,-1,-1,-1,-1,-1],"split_conditions":[-1.3909483E0,5.9500366E-1,-1.3812049E-1,1.2749523E0,-1.3812049E-1,-1.3812098E-1,7.807413E-1,3.1697124E-2,-2.1969976E-2,-1.7781341E-2,9.084564E-3,-5.765911E-3,-3.280055E-2,2.2233967E-2,-2.9667024E-2],"split_indices":[10,16,8,20,8,8,17,0,0,0,0,0,0,0,0],"split_type":[0,0,0,0,0,0,0,0,0,0,0,0,0,0,0],"sum_hessian":[5.7119996E4,1.1977706E4,4.514229E4,1.1831843E4,1.4586331E2,2.9598955E4,1.5543333E4,1.1780315E4,5.15268E1,8.36641E1,6.2199203E1,1.4922295E4,1.467666E4,1.2657006E4,2.886328E3],"tree_param":{"num_deleted":"0","num_feature":"40","num_nodes":"15","size_leaf_vector":"1"}},{"base_weights":[1.4849068E-3,1.5965335E0,-6.5350145E-1,1.9333243E0,7.99582E-1,-1.3085978E0,6.019236E-1,3.395075E-2,-1.6336683E-2,1.4524112E-3,3.490716E-2,-2.649993E-2,3.4893036E-2,3.3683375E-2,-3.4492455E-2],"categories":[],"categories_nodes":[],"categories_segments":[],"categories_sizes":[],"default_left":[0,0,0,0,0,0,0,0,0,0,0,0,0,0,0],"id":5,"left_children":[1,3,5,7,9,11,13,-1,-1,-1,-1,-1,-1,-1,-1],"loss_changes":[6.0113766E4,4.494211E3,3.3547375E4,3.6772656E2,4.2765586E3,1.8517984E4,4.7834227E4,0E0,0E0,0E0,0E0,0E0,0E0,0E0,0E0],"parents":[2147483647,0,0,1,1,2,2,3,3,4,4,5,5,6,6],"right_children":[2,4,6,8,10,12,14,-1,-1,-1,-1,-1,-1,-1,-1],"split_conditions":[-1.2603487E0,3.6294868E0,-1.3812049E-1,2.7364855E0,-1.3812098E-1,-1.5270771E-1,-2.4870272E-1,3.395075E-2,-1.6336683E-2,1.4524112E-3,3.490716E-2,-2.649993E-2,3.4893036E-2,3.3683375E-2,-3.4492455E-2],"split_indices":[15,13,8,22,8,17,18,0,0,0,0,0,0,0,0],"split_type":[0,0,0,0,0,0,0,0,0,0,0,0,0,0,0],"sum_hessian":[5.753772E4,1.6748842E4,4.078888E4,1.1772409E4,4.976433E3,2.6802803E4,1.3986075E4,1.1728442E4,4.3966713E1,3.1161272E3,1.8603057E3,2.5210703E4,1.5920996E3,9.232571E3,4.753504E3],"tree_param":{"num_deleted":"0","num_feature":"40","num_nodes":"15","size_leaf_vector":"1"}},{"base_weights":[2.2730279E-5,1.5975611E0,-6.6536075E-1,1.9326656E0,7.6352924E-1,-1.3242766E0,6.0693973E-1,3.3927765E-2,-1.5888114E-2,3.73081E-4,3.49067E-2,-2.6561005E-2,3.490253E-2,3.3812515E-2,-3.4214288E-2],"categories":[],"categories_nodes":[],"categories_segments":[],"categories_sizes":[],"default_left":[0,0,0,0,0,0,0,0,0,0,0,0,0,0,0],"id":6,"left_children":[1,3,5,7,9,11,13,-1,-1,-1,-1,-1,-1,-1,-1],"loss_changes":[6.1039414E4,4.717543E3,3.398589E4,3.5015625E2,4.4386025E3,1.746089E4,4.718853E4,0E0,0E0,0E0,0E0,0E0,0E0,0E0,0E0],"parents":[2147483647,0,0,1,1,2,2,3,3,4,4,5,5,6,6],"right_children":[2,4,6,8,10,12,14,-1,-1,-1,-1,-1,-1,-1,-1],"split_conditions":[-1.2603487E0,3.6294868E0,-1.3812049E-1,2.4131598E0,-1.3812098E-1,-2.507533E-1,-2.4915229E-1,3.3927765E-2,-1.5888114E-2,3.73081E-4,3.49067E-2,-2.6561005E-2,3.490253E-2,3.3812515E-2,-3.4214288E-2],"split_indices":[15,13,8,22,8,18,18,0,0,0,0,0,0,0,0],"split_type":[0,0,0,0,0,0,0,0,0,0,0,0,0,0,0],"sum_hessian":[5.7421152E4,1.688355E4,4.05376E4,1.2043353E4,4.840198E3,2.6706465E4,1.3831137E4,1.2000707E4,4.2645344E1,3.0243167E3,1.8158815E3,2.5214346E4,1.4921196E3,9.111545E3,4.7195923E3],"tree_param":{"num_deleted":"0","num_feature":"40","num_nodes":"15","size_leaf_vector":"1"}},{"base_weights":[-3.1765315E-3,1.5992522E0,-6.6578776E-1,1.9334286E0,7.9944533E-1,-1.30999E0,5.905079E-1,3.3928435E-2,-1.8090298E-2,1.1953417E-3,3.490728E-2,-2.6448335E-2,3.4892403E-2,3.3791274E-2,-3.435593E-2],"categories":[],"categories_nodes":[],"categories_segments":[],"categories_sizes":[],"default_left":[0,0,0,0,0,0,0,0,0,0,0,0,0,0,0],"id":7,"left_children":[1,3,5,7,9,11,13,-1,-1,-1,-1,-1,-1,-1,-1],"loss_changes":[6.0917266E4,4.484328E3,3.2849594E4,3.3420703E2,4.3381133E3,1.8158473E4,4.732187E4,0E0,0E0,0E0,0E0,0E0,0E0,0E0,0E0],"parents":[2147483647,0,0,1,1,2,2,3,3,4,4,5,5,6,6],"right_children":[2,4,6,8,10,12,14,-1,-1,-1,-1,-1,-1,-1,-1],"split_conditions":[-1.2603487E0,3.6294868E0,-1.3812049E-1,2.4131598E0,-1.3812098E-1,-2.507533E-1,-2.4918285E-1,3.3928435E-2,-1.8090298E-2,1.1953417E-3,3.490728E-2,-2.6448335E-2,3.4892403E-2,3.3791274E-2,-3.435593E-2],"split_indices":[15,13,8,22,8,18,18,0,0,0,0,0,0,0,0],"split_type":[0,0,0,0,0,0,0,0,0,0,0,0,0,0,0],"sum_hessian":[5.737038E4,1.6782627E4,4.0587754E4,1.1835913E4,4.946713E3,2.6829896E4,1.3757856E4,1.1798704E4,3.7209126E1,3.0742507E3,1.8724623E3,2.5268033E4,1.5618634E3,9.017921E3,4.739936E3],"tree_param":{"num_deleted":"0","num_feature":"40","num_nodes":"15","size_leaf_vector":"1"}},{"base_weights":[-4.140047E-4,1.5870562E0,-6.563922E-1,1.9320887E0,7.6504433E-1,-1.3072512E0,6.0170925E-1,3.395611E-2,-1.5530479E-2,5.988922E-4,3.4906987E-2,-2.6370147E-2,3.4892045E-2,3.3726618E-2,-3.453234E-2],"categories":[],"categories_nodes":[],"categories_segments":[],"categories_sizes":[],"default_left":[0,0,0,0,0,0,0,0,0,0,0,0,0,0,0],"id":8,"left_children":[1,3,5,7,9,11,13,-1,-1,-1,-1,-1,-1,-1,-1],"loss_changes":[5.971559E4,4.7541094E3,3.3227312E4,4.1408984E2,4.4711104E3,1.793005E4,4.744979E4,0E0,0E0,0E0,0E0,0E0,0E0,0E0,0E0],"parents":[2147483647,0,0,1,1,2,2,3,3,4,4,5,5,6,6],"right_children":[2,4,6,8,10,12,14,-1,-1,-1,-1,-1,-1,-1,-1],"split_conditions":[-1.2603487E0,3.6294868E0,-1.3812049E-1,2.7364855E0,-1.3812098E-1,-2.5075316E-1,-2.4905622E-1,3.395611E-2,-1.5530479E-2,5.988922E-4,3.4906987E-2,-2.6370147E-2,3.4892045E-2,3.3726618E-2,-3.453234E-2],"split_indices":[15,13,8,22,8,18,18,0,0,0,0,0,0,0,0],"split_type":[0,0,0,0,0,0,0,0,0,0,0,0,0,0,0],"sum_hessian":[5.734263E4,1.6766414E4,4.0576215E4,1.1808531E4,4.9578823E3,2.6741752E4,1.3834463E4,1.17572705E4,5.12611E1,3.1144216E3,1.8434607E3,2.519628E4,1.5454744E3,9.128692E3,4.7057705E3],"tree_param":{"num_deleted":"0","num_feature":"40","num_nodes":"15","size_leaf_vector":"1"}},{"base_weights":[-4.465448E-4,1.5970883E0,-6.624247E-1,1.9321771E0,7.873492E-1,-1.3134648E0,6.000516E-1,3.3934925E-2,-2.0078108E-2,8.719103E-4,3.490716E-2,-2.6513373E-2,3.489231E-2,3.3871107E-2,-3.3958312E-2],"categories":[],"categories_nodes":[],"categories_segments":[],"categories_sizes":[],"default_left":[0,0,0,0,0,0,0,0,0,0,0,0,0,0,0],"id":9,"left_children":[1,3,5,7,9,11,13,-1,-1,-1,-1,-1,-1,-1,-1],"loss_changes":[6.0651848E4,4.557625E3,3.3329344E4,4.0783984E2,4.39545E3,1.8147273E4,4.7032895E4,0E0,0E0,0E0,0E0,0E0,0E0,0E0,0E0],"parents":[2147483647,0,0,1,1,2,2,3,3,4,4,5,5,6,6],"right_children":[2,4,6,8,10,12,14,-1,-1,-1,-1,-1,-1,-1,-1],"split_conditions":[-1.2603487E0,3.6294868E0,-1.3812049E-1,2.4131598E0,-1.3812098E-1,-1.5670535E-1,-2.4931091E-1,3.3934925E-2,-2.0078108E-2,8.719103E-4,3.490716E-2,-2.6513373E-2,3.489231E-2,3.3871107E-2,-3.3958312E-2],"split_indices":[15,13,8,22,8,17,18,0,0,0,0,0,0,0,0],"split_type":[0,0,0,0,0,0,0,0,0,0,0,0,0,0,0],"sum_hessian":[5.7350195E4,1.6801691E4,4.0548504E4,1.1882891E4,4.9188003E3,2.6752566E4,1.3795937E4,1.1840713E4,4.2177975E1,3.058376E3,1.8604246E3,2.5194953E4,1.5576129E3,9.038269E3,4.7576685E3],"tree_param":{"num_deleted":"0","num_feature":"40","num_nodes":"15","size_leaf_vector":"1"}},{"base_weights":[-4.7829913E-4,1.5979002E0,-6.6253334E-1,1.932387E0,8.020081E-1,-1.3144921E0,5.991099E-1,3.391705E-2,-1.4395094E-2,1.2230919E-3,3.490744E-2,-2.6572028E-2,3.490377E-2,3.3820175E-2,-3.4315366E-2],"categories":[],"categories_nodes":[],"categories_segments":[],"categories_sizes":[],"default_left":[0,0,0,0,0,0,0,0,0,0,0,0,0,0,0],"id":10,"left_children":[1,3,5,7,9,11,13,-1,-1,-1,-1,-1,-1,-1,-1],"loss_changes":[6.079523E4,4.4779688E3,3.3415695E4,3.229922E2,4.36366E3,1.838396E4,4.7475348E4,0E0,0E0,0E0,0E0,0E0,0E0,0E0,0E0],"parents":[2147483647,0,0,1,1,2,2,3,3,4,4,5,5,6,6],"right_children":[2,4,6,8,10,12,14,-1,-1,-1,-1,-1,-1,-1,-1],"split_conditions":[-1.2603487E0,3.6294868E0,-1.3812049E-1,2.7364855E0,-1.3812098E-1,-1.5670535E-1,-2.4919237E-1,3.391705E-2,-1.4395094E-2,1.2230919E-3,3.490744E-2,-2.6572028E-2,3.490377E-2,3.3820175E-2,-3.4315366E-2],"split_indices":[15,13,8,22,8,17,18,0,0,0,0,0,0,0,0],"split_type":[0,0,0,0,0,0,0,0,0,0,0,0,0,0,0],"sum_hessian":[5.744876E4,1.6825668E4,4.0623094E4,1.1845833E4,4.979835E3,2.6782893E4,1.38402E4,1.1803991E4,4.1842148E1,3.0907727E3,1.8890624E3,2.5207555E4,1.5753384E3,9.095721E3,4.744479E3],"tree_param":{"num_deleted":"0","num_feature":"40","num_nodes":"15","size_leaf_vector":"1"}},{"base_weights":[-4.9701706E-4,1.5977229E0,-6.685288E-1,1.9304757E0,7.983429E-1,-1.3124001E0,5.903714E-1,3.3904284E-2,-2.0934947E-2,9.4146776E-4,3.490757E-2,-2.634517E-2,3.4890953E-2,3.3774346E-2,-3.4168556E-2],"categories":[],"categories_nodes":[],"categories_segments":[],"categories_sizes":[],"default_left":[0,0,0,0,0,0,0,0,0,0,0,0,0,0,0],"id":11,"left_children":[1,3,5,7,9,11,13,-1,-1,-1,-1,-1,-1,-1,-1],"loss_changes":[6.1242938E4,4.4961094E3,3.2790758E4,4.140547E2,4.4432295E3,1.7389371E4,4.6854004E4,0E0,0E0,0E0,0E0,0E0,0E0,0E0,0E0],"parents":[2147483647,0,0,1,1,2,2,3,3,4,4,5,5,6,6],"right_children":[2,4,6,8,10,12,14,-1,-1,-1,-1,-1,-1,-1,-1],"split_conditions":[-1.2603487E0,3.6294868E0,-1.3812049E-1,2.4131598E0,-1.3812098E-1,-2.507533E-1,-2.4918285E-1,3.3904284E-2,-2.0934947E-2,9.4146776E-4,3.490757E-2,-2.634517E-2,3.4890953E-2,3.3774346E-2,-3.4168556E-2],"split_indices":[15,13,8,22,8,18,18,0,0,0,0,0,0,0,0],"split_type":[0,0,0,0,0,0,0,0,0,0,0,0,0,0,0],"sum_hessian":[5.7359746E4,1.6907744E4,4.0452E4,1.1937275E4,4.970468E3,2.676358E4,1.3688421E4,1.189576E4,4.151568E1,3.0687485E3,1.9017194E3,2.5266402E4,1.4971777E3,8.961155E3,4.727266E3],"tree_param":{"num_deleted":"0","num_feature":"40","num_nodes":"15","size_leaf_vector":"1"}},{"base_weights":[-4.1262902E-4,1.3087273E0,-5.3742033E-1,1.6007625E0,6.223538E-1,-1.0671535E0,4.9730048E-1,2.8123315E-2,-1.1592242E-2,6.396518E-4,2.9204717E-2,-2.1841286E-2,3.3490404E-2,2.851486E-2,-2.9045107E-2],"categories":[],"categories_nodes":[],"categories_segments":[],"categories_sizes":[],"default_left":[0,0,0,0,0,0,0,0,0,0,0,0,0,0,0],"id":12,"left_children":[1,3,5,7,9,11,13,-1,-1,-1,-1,-1,-1,-1,-1],"loss_changes":[3.9181652E4,3.2485781E3,2.1663402E4,2.506875E2,2.9769883E3,1.4325387E4,3.283726E4,0E0,0E0,0E0,0E0,0E0,0E0,0E0,0E0],"parents":[2147483647,0,0,1,1,2,2,3,3,4,4,5,5,6,6],"right_children":[2,4,6,8,10,12,14,-1,-1,-1,-1,-1,-1,-1,-1],"split_conditions":[-1.2603487E0,3.6294868E0,-1.3812049E-1,2.7364855E0,-1.3812098E-1,-1.4471242E-1,-2.4928412E-1,2.8123315E-2,-1.1592242E-2,6.396518E-4,2.9204717E-2,-2.1841286E-2,3.3490404E-2,2.851486E-2,-2.9045107E-2],"split_indices":[15,13,8,22,8,17,18,0,0,0,0,0,0,0,0],"split_type":[0,0,0,0,0,0,0,0,0,0,0,0,0,0,0],"sum_hessian":[5.5731477E4,1.6210764E4,3.9520715E4,1.1371243E4,4.83952E3,2.6138754E4,1.3381962E4,1.1323068E4,4.817475E1,3.1072644E3,1.7322556E3,2.4624959E4,1.5137947E3,8.771777E3,4.610184E3],"tree_param":{"num_deleted":"0","num_feature":"40","num_nodes":"15","size_leaf_vector":"1"}},{"base_weights":[1.8391796E-4,1.317064E0,-5.413507E-1,1.6009507E0,6.5845585E-1,-1.0725827E0,4.972654E-1,2.8263744E-2,6.8114875E-3,1.0844823E-3,2.920347E-2,-2.2044094E-2,3.3484552E-2,2.8503697E-2,-2.9206438E-2],"categories":[],"categories_nodes":[],"categories_segments":[],"categories_sizes":[],"default_left":[0,0,0,0,0,0,0,0,0,0,0,0,0,0,0],"id":13,"left_children":[1,3,5,7,9,11,13,-1,-1,-1,-1,-1,-1,-1,-1],"loss_changes":[3.9868836E4,3.0448535E3,2.1858205E4,2.4121484E2,2.9677344E3,1.4873068E4,3.301741E4,0E0,0E0,0E0,0E0,0E0,0E0,0E0,0E0],"parents":[2147483647,0,0,1,1,2,2,3,3,4,4,5,5,6,6],"right_children":[2,4,6,8,10,12,14,-1,-1,-1,-1,-1,-1,-1,-1],"split_conditions":[-1.2603487E0,3.6294868E0,-1.3812049E-1,1.4550036E1,-1.3812098E-1,-1.5670535E-1,-2.4919237E-1,2.8263744E-2,6.8114875E-3,1.0844823E-3,2.920347E-2,-2.2044094E-2,3.3484552E-2,2.8503697E-2,-2.9206438E-2],"split_indices":[15,13,8,0,8,17,18,0,0,0,0,0,0,0,0],"split_type":[0,0,0,0,0,0,0,0,0,0,0,0,0,0,0],"sum_hessian":[5.5904336E4,1.6289883E4,3.9614453E4,1.1382245E4,4.9076377E3,2.6209016E4,1.3405437E4,1.121934E4,1.6290585E2,3.0907205E3,1.8169171E3,2.464556E4,1.5634562E3,8.801636E3,4.603801E3],"tree_param":{"num_deleted":"0","num_feature":"40","num_nodes":"15","size_leaf_vector":"1"}},{"base_weights":[-5.1524735E-4,1.3151741E0,-5.444889E-1,1.6012721E0,6.210387E-1,-1.0821911E0,5.0436985E-1,2.8279617E-2,8.244826E-3,2.349358E-4,2.9206084E-2,-2.202712E-2,3.3400774E-2,2.8499896E-2,-2.9102638E-2],"categories":[],"categories_nodes":[],"categories_segments":[],"categories_sizes":[],"default_left":[0,0,0,0,0,0,0,0,0,0,0,0,0,0,0],"id":14,"left_children":[1,3,5,7,9,11,13,-1,-1,-1,-1,-1,-1,-1,-1],"loss_changes":[3.9989324E4,3.244752E3,2.2294688E4,2.3619922E2,3.0483918E3,1.4025422E4,3.2801227E4,0E0,0E0,0E0,0E0,0E0,0E0,0E0,0E0],"parents":[2147483647,0,0,1,1,2,2,3,3,4,4,5,5,6,6],"right_children":[2,4,6,8,10,12,14,-1,-1,-1,-1,-1,-1,-1,-1],"split_conditions":[-1.2603487E0,3.6294868E0,-1.3812049E-1,1.4550036E1,-1.3812098E-1,-7.2754905E-2,-2.4915229E-1,2.8279617E-2,8.244826E-3,2.349358E-4,2.9206084E-2,-2.202712E-2,3.3400774E-2,2.8499896E-2,-2.9102638E-2],"split_indices":[15,13,8,0,8,17,18,0,0,0,0,0,0,0,0],"split_type":[0,0,0,0,0,0,0,0,0,0,0,0,0,0,0],"sum_hessian":[5.5872395E4,1.6342928E4,3.9529465E4,1.1572038E4,4.77089E3,2.6132492E4,1.3396972E4,1.1388705E4,1.8333243E2,3.0242666E3,1.7466234E3,2.4657883E4,1.474611E3,8.817223E3,4.5797495E3],"tree_param":{"num_deleted":"0","num_feature":"40","num_nodes":"15","size_leaf_vector":"1"}},{"base_weights":[1.349716E-4,1.306955E0,-5.360397E-1,1.6011492E0,6.237873E-1,-1.0661137E0,4.991126E-1,2.8142756E-2,-1.2352199E-2,4.5947108E-4,2.9207902E-2,-2.1847297E-2,3.3421572E-2,2.8424984E-2,-2.9417519E-2],"categories":[],"categories_nodes":[],"categories_segments":[],"categories_sizes":[],"default_left":[0,0,0,0,0,0,0,0,0,0,0,0,0,0,0],"id":15,"left_children":[1,3,5,7,9,11,13,-1,-1,-1,-1,-1,-1,-1,-1],"loss_changes":[3.9101805E4,3.2620098E3,2.1712895E4,2.7408008E2,3.0632195E3,1.4425791E4,3.303082E4,0E0,0E0,0E0,0E0,0E0,0E0,0E0,0E0],"parents":[2147483647,0,0,1,1,2,2,3,3,4,4,5,5,6,6],"right_children":[2,4,6,8,10,12,14,-1,-1,-1,-1,-1,-1,-1,-1],"split_conditions":[-1.2603487E0,3.6294868E0,-1.3812049E-1,2.7364855E0,-1.3812098E-1,-1.427136E-1,-2.4905622E-1,2.8142756E-2,-1.2352199E-2,4.5947108E-4,2.9207902E-2,-2.1847297E-2,3.3421572E-2,2.8424984E-2,-2.9417519E-2],"split_indices":[15,13,8,22,8,17,18,0,0,0,0,0,0,0,0],"split_type":[0,0,0,0,0,0,0,0,0,0,0,0,0,0,0],"sum_hessian":[5.5803207E4,1.6234174E4,3.956903E4,1.134661E4,4.8875635E3,2.6168705E4,1.3400327E4,1.1295929E4,5.0681534E1,3.1143672E3,1.773196E3,2.4640008E4,1.5286973E3,8.834526E3,4.565801E3],"tree_param":{"num_deleted":"0","num_feature":"40","num_nodes":"15","size_leaf_vector":"1"}},{"base_weights":[-2.176983E-3,1.3181105E0,-5.441641E-1,1.6018367E0,6.560477E-1,-1.068898E0,4.8973975E-1,2.8277595E-2,7.850036E-3,1.0564735E-3,2.9199854E-2,-2.1889662E-2,3.337857E-2,2.8471792E-2,-2.9240562E-2],"categories":[],"categories_nodes":[],"categories_segments":[],"categories_sizes":[],"default_left":[0,0,0,0,0,0,0,0,0,0,0,0,0,0,0],"id":16,"left_children":[1,3,5,7,9,11,13,-1,-1,-1,-1,-1,-1,-1,-1],"loss_changes":[3.9950664E4,3.0511328E3,2.147441E4,2.2800586E2,2.9504487E3,1.4446973E4,3.29E4,0E0,0E0,0E0,0E0,0E0,0E0,0E0,0E0],"parents":[2147483647,0,0,1,1,2,2,3,3,4,4,5,5,6,6],"right_children":[2,4,6,8,10,12,14,-1,-1,-1,-1,-1,-1,-1,-1],"split_conditions":[-1.2603487E0,3.6294868E0,-1.3812049E-1,1.4550036E1,-1.3812098E-1,-1.4871006E-1,-2.4918285E-1,2.8277595E-2,7.850036E-3,1.0564735E-3,2.9199854E-2,-2.1889662E-2,3.337857E-2,2.8471792E-2,-2.9240562E-2],"split_indices":[15,13,8,0,8,17,18,0,0,0,0,0,0,0,0],"split_type":[0,0,0,0,0,0,0,0,0,0,0,0,0,0,0],"sum_hessian":[5.5827863E4,1.6247447E4,3.9580414E4,1.1372399E4,4.875048E3,2.6255176E4,1.3325239E4,1.1202321E4,1.7007768E2,3.074198E3,1.8008497E3,2.472438E4,1.530796E3,8.726179E3,4.5990605E3],"tree_param":{"num_deleted":"0","num_feature":"40","num_nodes":"15","size_leaf_vector":"1"}},{"base_weights":[2.1387289E-4,1.3161776E0,-5.4581994E-1,1.5989913E0,6.537006E-1,-1.0704587E0,4.9041674E-1,2.8088413E-2,-1.770822E-2,8.022028E-4,2.9209778E-2,-2.1825265E-2,3.34617E-2,2.8464114E-2,-2.9056394E-2],"categories":[],"categories_nodes":[],"categories_segments":[],"categories_sizes":[],"default_left":[0,0,0,0,0,0,0,0,0,0,0,0,0,0,0],"id":17,"left_children":[1,3,5,7,9,11,13,-1,-1,-1,-1,-1,-1,-1,-1],"loss_changes":[4.0109082E4,3.065791E3,2.144737E4,2.8534766E2,3.033818E3,1.4030768E4,3.2556422E4,0E0,0E0,0E0,0E0,0E0,0E0,0E0,0E0],"parents":[2147483647,0,0,1,1,2,2,3,3,4,4,5,5,6,6],"right_children":[2,4,6,8,10,12,14,-1,-1,-1,-1,-1,-1,-1,-1],"split_conditions":[-1.2603487E0,3.6294868E0,-1.3812049E-1,2.4131598E0,-1.3812098E-1,-1.4071478E-1,-2.4918285E-1,2.8088413E-2,-1.770822E-2,8.022028E-4,2.9209778E-2,-2.1825265E-2,3.34617E-2,2.8464114E-2,-2.9056394E-2],"split_indices":[15,13,8,22,8,17,18,0,0,0,0,0,0,0,0],"split_type":[0,0,0,0,0,0,0,0,0,0,0,0,0,0,0],"sum_hessian":[5.581665E4,1.6367908E4,3.944874E4,1.1469939E4,4.897969E3,2.6189275E4,1.3259463E4,1.1428925E4,4.101475E1,3.0686953E3,1.8292742E3,2.4706258E4,1.4830176E3,8.672334E3,4.5871284E3],"tree_param":{"num_deleted":"0","num_feature":"40","num_nodes":"15","size_leaf_vector":"1"}},{"base_weights":[2.503169E-3,1.3165486E0,-5.333049E-1,1.6020316E0,6.5804857E-1,-1.066875E0,4.9980363E-1,2.81368E-2,-1.3339152E-2,1.3126194E-3,2.9206753E-2,-2.1967085E-2,3.3405457E-2,2.8397772E-2,-2.9372154E-2],"categories":[],"categories_nodes":[],"categories_segments":[],"categories_sizes":[],"default_left":[0,0,0,0,0,0,0,0,0,0,0,0,0,0,0],"id":18,"left_children":[1,3,5,7,9,11,13,-1,-1,-1,-1,-1,-1,-1,-1],"loss_changes":[3.942279E4,3.047789E3,2.192546E4,2.473457E2,2.901069E3,1.4933988E4,3.329351E4,0E0,0E0,0E0,0E0,0E0,0E0,0E0,0E0],"parents":[2147483647,0,0,1,1,2,2,3,3,4,4,5,5,6,6],"right_children":[2,4,6,8,10,12,14,-1,-1,-1,-1,-1,-1,-1,-1],"split_conditions":[-1.2603487E0,3.6294868E0,-1.3812049E-1,2.7364855E0,-1.3812098E-1,-1.5270771E-1,-2.4870272E-1,2.81368E-2,-1.3339152E-2,1.3126194E-3,2.9206753E-2,-2.1967085E-2,3.3405457E-2,2.8397772E-2,-2.9372154E-2],"split_indices":[15,13,8,22,8,17,18,0,0,0,0,0,0,0,0],"split_type":[0,0,0,0,0,0,0,0,0,0,0,0,0,0,0],"sum_hessian":[5.5990223E4,1.6217085E4,3.9773137E4,1.1311652E4,4.9054326E3,2.6227416E4,1.354572E4,1.1268175E4,4.34779E1,3.1160718E3,1.7893608E3,2.4647713E4,1.5797026E3,8.93379E3,4.6119297E3],"tree_param":{"num_deleted":"0","num_feature":"40","num_nodes":"15","size_leaf_vector":"1"}},{"base_weights":[7.424631E-5,1.315755E0,-5.4117846E-1,1.6008294E0,6.441474E-1,-1.0714905E0,4.9776936E-1,2.8120985E-2,-1.6889902E-2,7.3365326E-4,2.9208638E-2,-2.1976063E-2,3.3316273E-2,2.8544152E-2,-2.890341E-2],"categories":[],"categories_nodes":[],"categories_segments":[],"categories_sizes":[],"default_left":[0,0,0,0,0,0,0,0,0,0,0,0,0,0,0],"id":19,"left_children":[1,3,5,7,9,11,13,-1,-1,-1,-1,-1,-1,-1,-1],"loss_changes":[3.9741617E4,3.1133613E3,2.1786383E4,2.7990625E2,3.0026836E3,1.4583496E4,3.2707336E4,0E0,0E0,0E0,0E0,0E0,0E0,0E0,0E0],"parents":[2147483647,0,0,1,1,2,2,3,3,4,4,5,5,6,6],"right_children":[2,4,6,8,10,12,14,-1,-1,-1,-1,-1,-1,-1,-1],"split_conditions":[-1.2603487E0,3.6294868E0,-1.3812049E-1,2.4131598E0,-1.3812098E-1,-1.5670535E-1,-2.4931091E-1,2.8120985E-2,-1.6889902E-2,7.3365326E-4,2.9208638E-2,-2.1976063E-2,3.3316273E-2,2.8544152E-2,-2.890341E-2],"split_indices":[15,13,8,22,8,17,18,0,0,0,0,0,0,0,0],"split_type":[0,0,0,0,0,0,0,0,0,0,0,0,0,0,0],"sum_hessian":[5.5805812E4,1.6265673E4,3.954014E4,1.1417817E4,4.847855E3,2.6178014E4,1.3362125E4,1.1376141E4,4.167705E1,3.0583252E3,1.7895297E3,2.463291E4,1.545103E3,8.744856E3,4.617269E3],"tree_param":{"num_deleted":"0","num_feature":"40","num_nodes":"15","size_leaf_vector":"1"}},{"base_weights":[-1.059142E-3,1.1922194E0,-4.8781708E-1,1.4637928E0,5.802731E-1,-9.5195985E-1,4.456775E-1,2.5875354E-2,5.2613607E-3,9.4611826E-4,2.6751602E-2,-1.9692615E-2,3.191072E-2,2.5932362E-2,-2.6646717E-2],"categories":[],"categories_nodes":[],"categories_segments":[],"categories_sizes":[],"default_left":[0,0,0,0,0,0,0,0,0,0,0,0,0,0,0],"id":20,"left_children":[1,3,5,7,9,11,13,-1,-1,-1,-1,-1,-1,-1,-1],"loss_changes":[3.1122555E4,2.579123E3,1.64899E4,2.2372852E2,2.3897598E3,1.2416303E4,2.590137E4,0E0,0E0,0E0,0E0,0E0,0E0,0E0,0E0],"parents":[2147483647,0,0,1,1,2,2,3,3,4,4,5,5,6,6],"right_children":[2,4,6,8,10,12,14,-1,-1,-1,-1,-1,-1,-1,-1],"split_conditions":[-1.2603487E0,3.6294868E0,-1.3812049E-1,1.4550036E1,-1.3812098E-1,-2.507533E-1,-2.4918285E-1,2.5875354E-2,5.2613607E-3,9.4611826E-4,2.6751602E-2,-1.9692615E-2,3.191072E-2,2.5932362E-2,-2.6646717E-2],"split_indices":[15,13,8,0,8,18,18,0,0,0,0,0,0,0,0],"split_type":[0,0,0,0,0,0,0,0,0,0,0,0,0,0,0],"sum_hessian":[5.358018E4,1.55233955E4,3.805678E4,1.0750901E4,4.772494E3,2.5418455E4,1.2638328E4,1.0587288E4,1.6361395E2,3.07409E3,1.6984043E3,2.3907514E4,1.5109414E3,8.275927E3,4.362401E3],"tree_param":{"num_deleted":"0","num_feature":"40","num_nodes":"15","size_leaf_vector":"1"}},{"base_weights":[-3.780458E-4,1.1885862E0,-4.8880187E-1,1.4632679E0,5.4513854E-1,-9.651967E-1,4.5960498E-1,2.5878208E-2,5.6705223E-3,1.2455102E-4,2.6756454E-2,-3.6709034E-3,-2.777195E-2,2.5963914E-2,-2.650079E-2],"categories":[],"categories_nodes":[],"categories_segments":[],"categories_sizes":[],"default_left":[0,0,0,0,0,0,0,0,0,0,0,0,0,0,0],"id":21,"left_children":[1,3,5,7,9,11,13,-1,-1,-1,-1,-1,-1,-1,-1],"loss_changes":[3.1137244E4,2.7586367E3,1.7172076E4,2.3151367E2,2.481269E3,1.1939818E4,2.5811611E4,0E0,0E0,0E0,0E0,0E0,0E0,0E0,0E0],"parents":[2147483647,0,0,1,1,2,2,3,3,4,4,5,5,6,6],"right_children":[2,4,6,8,10,12,14,-1,-1,-1,-1,-1,-1,-1,-1],"split_conditions":[-1.2603487E0,3.6294868E0,-1.3812049E-1,1.4550036E1,-1.3812098E-1,-1.3812098E-1,-2.4915229E-1,2.5878208E-2,5.6705223E-3,1.2455102E-4,2.6756454E-2,-3.6709034E-3,-2.777195E-2,2.5963914E-2,-2.650079E-2],"split_indices":[15,13,8,0,8,8,18,0,0,0,0,0,0,0,0],"split_type":[0,0,0,0,0,0,0,0,0,0,0,0,0,0,0],"sum_hessian":[5.3616484E4,1.5611692E4,3.800479E4,1.0940166E4,4.6715264E3,2.5297545E4,1.2707245E4,1.0763801E4,1.7636494E2,3.0241606E3,1.6473656E3,1.1459326E4,1.383822E4,8.362761E3,4.3444844E3],"tree_param":{"num_deleted":"0","num_feature":"40","num_nodes":"15","size_leaf_vector":"1"}},{"base_weights":[1.0774728E-3,1.1899967E0,-4.8909095E-1,1.46089E0,5.770695E-1,-9.5325524E-1,4.466268E-1,2.5871893E-2,4.868616E-3,6.918373E-4,2.675952E-2,-3.2991942E-3,-2.7774364E-2,2.592144E-2,-2.6453722E-2],"categories":[],"categories_nodes":[],"categories_segments":[],"categories_sizes":[],"default_left":[0,0,0,0,0,0,0,0,0,0,0,0,0,0,0],"id":22,"left_children":[1,3,5,7,9,11,13,-1,-1,-1,-1,-1,-1,-1,-1],"loss_changes":[3.1219527E4,2.5957734E3,1.6475383E4,2.641797E2,2.4617744E3,1.2348793E4,2.560476E4,0E0,0E0,0E0,0E0,0E0,0E0,0E0,0E0],"parents":[2147483647,0,0,1,1,2,2,3,3,4,4,5,5,6,6],"right_children":[2,4,6,8,10,12,14,-1,-1,-1,-1,-1,-1,-1,-1],"split_conditions":[-1.2603487E0,3.6294868E0,-1.3812049E-1,1.4550036E1,-1.3812098E-1,-1.3812098E-1,-2.4918285E-1,2.5871893E-2,4.868616E-3,6.918373E-4,2.675952E-2,-3.2991942E-3,-2.7774364E-2,2.592144E-2,-2.6453722E-2],"split_indices":[15,13,8,0,8,8,18,0,0,0,0,0,0,0,0],"split_type":[0,0,0,0,0,0,0,0,0,0,0,0,0,0,0],"sum_hessian":[5.3568863E4,1.5637696E4,3.7931164E4,1.0843743E4,4.7939536E3,2.535417E4,1.2576995E4,1.0657409E4,1.8633414E2,3.0685872E3,1.7253663E3,1.1527934E4,1.3826237E4,8.225465E3,4.3515312E3],"tree_param":{"num_deleted":"0","num_feature":"40","num_nodes":"15","size_leaf_vector":"1"}},{"base_weights":[8.902765E-4,1.1912127E0,-4.8552823E-1,1.4628761E0,5.8256716E-1,-9.5567536E-1,4.527432E-1,2.586146E-2,4.182737E-3,9.741267E-4,2.6754497E-2,-3.374093E-3,-2.7764244E-2,2.596589E-2,-2.6611803E-2],"categories":[],"categories_nodes":[],"categories_segments":[],"categories_sizes":[],"default_left":[0,0,0,0,0,0,0,0,0,0,0,0,0,0,0],"id":23,"left_children":[1,3,5,7,9,11,13,-1,-1,-1,-1,-1,-1,-1,-1],"loss_changes":[3.106689E4,2.572875E3,1.6803332E4,2.3735742E2,2.4034111E3,1.2270693E4,2.5995885E4,0E0,0E0,0E0,0E0,0E0,0E0,0E0,0E0],"parents":[2147483647,0,0,1,1,2,2,3,3,4,4,5,5,6,6],"right_children":[2,4,6,8,10,12,14,-1,-1,-1,-1,-1,-1,-1,-1],"split_conditions":[-1.2603487E0,3.6294868E0,-1.3812049E-1,1.4550036E1,-1.3812098E-1,-1.3812098E-1,-2.4919237E-1,2.586146E-2,4.182737E-3,9.741267E-4,2.6754497E-2,-3.374093E-3,-2.7764244E-2,2.596589E-2,-2.6611803E-2],"split_indices":[15,13,8,0,8,8,18,0,0,0,0,0,0,0,0],"split_type":[0,0,0,0,0,0,0,0,0,0,0,0,0,0,0],"sum_hessian":[5.3654598E4,1.556465E4,3.808995E4,1.0760426E4,4.8042246E3,2.537505E4,1.2714897E4,1.0603711E4,1.5671469E2,3.0906118E3,1.7136128E3,1.1523148E4,1.3851903E4,8.347683E3,4.367215E3],"tree_param":{"num_deleted":"0","num_feature":"40","num_nodes":"15","size_leaf_vector":"1"}},{"base_weights":[7.9642655E-4,1.1811472E0,-4.8056075E-1,1.4633158E0,5.485824E-1,-9.4941986E-1,4.5399943E-1,2.5916502E-2,5.63337E-3,3.4909253E-4,2.675794E-2,-3.1787993E-3,-2.7774362E-2,2.5890758E-2,-2.6829377E-2],"categories":[],"categories_nodes":[],"categories_segments":[],"categories_sizes":[],"default_left":[0,0,0,0,0,0,0,0,0,0,0,0,0,0,0],"id":24,"left_children":[1,3,5,7,9,11,13,-1,-1,-1,-1,-1,-1,-1,-1],"loss_changes":[3.0432271E4,2.7685723E3,1.6671441E4,2.5369727E2,2.4894272E3,1.2463414E4,2.602618E4,0E0,0E0,0E0,0E0,0E0,0E0,0E0,0E0],"parents":[2147483647,0,0,1,1,2,2,3,3,4,4,5,5,6,6],"right_children":[2,4,6,8,10,12,14,-1,-1,-1,-1,-1,-1,-1,-1],"split_conditions":[-1.2603487E0,3.6294868E0,-1.3812049E-1,1.4550036E1,-1.3812098E-1,-1.3812098E-1,-2.4905622E-1,2.5916502E-2,5.63337E-3,3.4909253E-4,2.675794E-2,-3.1787993E-3,-2.7774362E-2,2.5890758E-2,-2.6829377E-2],"split_indices":[15,13,8,0,8,8,18,0,0,0,0,0,0,0,0],"split_type":[0,0,0,0,0,0,0,0,0,0,0,0,0,0,0],"sum_hessian":[5.355988E4,1.5514599E4,3.804528E4,1.0727889E4,4.78671E3,2.5334973E4,1.2710309E4,1.0535771E4,1.921171E2,3.1142573E3,1.6724524E3,1.1531807E4,1.3803166E4,8.379874E3,4.330435E3],"tree_param":{"num_deleted":"0","num_feature":"40","num_nodes":"15","size_leaf_vector":"1"}},{"base_weights":[5.135457E-4,1.1829065E0,-4.815251E-1,1.4627919E0,5.4806703E-1,-9.501488E-1,4.527311E-1,2.5868889E-2,4.7822446E-3,5.292807E-4,2.6755346E-2,-3.1419832E-3,-2.7761199E-2,2.5973689E-2,-2.645461E-2],"categories":[],"categories_nodes":[],"categories_segments":[],"categories_sizes":[],"default_left":[0,0,0,0,0,0,0,0,0,0,0,0,0,0,0],"id":25,"left_children":[1,3,5,7,9,11,13,-1,-1,-1,-1,-1,-1,-1,-1],"loss_changes":[3.0489385E4,2.7519316E3,1.6638043E4,2.3691992E2,2.4159844E3,1.2466604E4,2.5845979E4,0E0,0E0,0E0,0E0,0E0,0E0,0E0,0E0],"parents":[2147483647,0,0,1,1,2,2,3,3,4,4,5,5,6,6],"right_children":[2,4,6,8,10,12,14,-1,-1,-1,-1,-1,-1,-1,-1],"split_conditions":[-1.2603487E0,3.6294868E0,-1.3812049E-1,1.4550036E1,-1.3812098E-1,-1.3812098E-1,-2.4928412E-1,2.5868889E-2,4.7822446E-3,5.292807E-4,2.6755346E-2,-3.1419832E-3,-2.7761199E-2,2.5973689E-2,-2.645461E-2],"split_indices":[15,13,8,0,8,8,18,0,0,0,0,0,0,0,0],"split_type":[0,0,0,0,0,0,0,0,0,0,0,0,0,0,0],"sum_hessian":[5.349198E4,1.5491475E4,3.8000504E4,1.0750524E4,4.7409507E3,2.530665E4,1.26938545E4,1.0584991E4,1.6553261E2,3.1071548E3,1.6337957E3,1.148123E4,1.382542E4,8.319502E3,4.3743535E3],"tree_param":{"num_deleted":"0","num_feature":"40","num_nodes":"15","size_leaf_vector":"1"}},{"base_weights":[3.3603525E-3,1.1910963E0,-4.780422E-1,1.4640839E0,5.8318955E-1,-9.5045304E-1,4.556243E-1,2.5728347E-2,-1.3544986E-2,1.2022712E-3,2.6757058E-2,-3.069094E-3,-2.7781304E-2,2.5887022E-2,-2.6778651E-2],"categories":[],"categories_nodes":[],"categories_segments":[],"categories_sizes":[],"default_left":[0,0,0,0,0,0,0,0,0,0,0,0,0,0,0],"id":26,"left_children":[1,3,5,7,9,11,13,-1,-1,-1,-1,-1,-1,-1,-1],"loss_changes":[3.0725842E4,2.5711484E3,1.6866535E4,2.2213086E2,2.3451626E3,1.2597387E4,2.6242182E4,0E0,0E0,0E0,0E0,0E0,0E0,0E0,0E0],"parents":[2147483647,0,0,1,1,2,2,3,3,4,4,5,5,6,6],"right_children":[2,4,6,8,10,12,14,-1,-1,-1,-1,-1,-1,-1,-1],"split_conditions":[-1.2603487E0,3.6294868E0,-1.3812049E-1,2.7364855E0,-1.3812098E-1,-1.3812098E-1,-2.4870272E-1,2.5728347E-2,-1.3544986E-2,1.2022712E-3,2.6757058E-2,-3.069094E-3,-2.7781304E-2,2.5887022E-2,-2.6778651E-2],"split_indices":[15,13,8,22,8,8,18,0,0,0,0,0,0,0,0],"split_type":[0,0,0,0,0,0,0,0,0,0,0,0,0,0,0],"sum_hessian":[5.373526E4,1.5497564E4,3.8237695E4,1.0693925E4,4.80364E3,2.5390666E4,1.2847031E4,1.0650397E4,4.352772E1,3.1159617E3,1.6876783E3,1.1491192E4,1.3899474E4,8.473319E3,4.373712E3],"tree_param":{"num_deleted":"0","num_feature":"40","num_nodes":"15","size_leaf_vector":"1"}},{"base_weights":[8.496413E-4,1.1896194E0,-4.8512802E-1,1.4627918E0,5.681477E-1,-9.544019E-1,4.5322996E-1,2.5711803E-2,-1.7115168E-2,6.23285E-4,2.675855E-2,-3.380136E-3,-2.7746428E-2,2.5545198E-2,-2.7232205E-2],"categories":[],"categories_nodes":[],"categories_segments":[],"categories_sizes":[],"default_left":[0,0,0,0,0,0,0,0,0,0,0,0,0,0,0],"id":27,"left_children":[1,3,5,7,9,11,13,-1,-1,-1,-1,-1,-1,-1,-1],"loss_changes":[3.0941254E4,2.637625E3,1.674089E4,2.5383008E2,2.4369573E3,1.2233557E4,2.5756496E4,0E0,0E0,0E0,0E0,0E0,0E0,0E0,0E0],"parents":[2147483647,0,0,1,1,2,2,3,3,4,4,5,5,6,6],"right_children":[2,4,6,8,10,12,14,-1,-1,-1,-1,-1,-1,-1,-1],"split_conditions":[-1.2603487E0,3.6294868E0,-1.3812049E-1,2.4131598E0,-1.3812098E-1,-1.3812098E-1,-2.4787888E-1,2.5711803E-2,-1.7115168E-2,6.23285E-4,2.675855E-2,-3.380136E-3,-2.7746428E-2,2.5545198E-2,-2.7232205E-2],"split_indices":[15,13,8,22,8,8,18,0,0,0,0,0,0,0,0],"split_type":[0,0,0,0,0,0,0,0,0,0,0,0,0,0,0],"sum_hessian":[5.355595E4,1.5540428E4,3.801552E4,1.0794342E4,4.746085E3,2.5341959E4,1.2673561E4,1.0752614E4,4.172797E1,3.058218E3,1.6878672E3,1.152399E4,1.381797E4,8.440099E3,4.2334614E3],"tree_param":{"num_deleted":"0","num_feature":"40","num_nodes":"15","size_leaf_vector":"1"}},{"base_weights":[4.261407E-3,1.0915252E0,-4.3271866E-1,1.3598781E0,5.2039665E-1,-8.5233706E-1,4.227193E-1,2.3922853E-2,-1.5576958E-2,1.1073494E-3,2.4963109E-2,-1.7858144E-2,3.1726595E-2,2.400702E-2,-2.4873117E-2],"categories":[],"categories_nodes":[],"categories_segments":[],"categories_sizes":[],"default_left":[0,0,0,0,0,0,0,0,0,0,0,0,0,0,0],"id":28,"left_children":[1,3,5,7,9,11,13,-1,-1,-1,-1,-1,-1,-1,-1],"loss_changes":[2.426481E4,2.2433203E3,1.3077234E4,2.2645117E2,1.9450142E3,1.1111283E4,2.108514E4,0E0,0E0,0E0,0E0,0E0,0E0,0E0,0E0],"parents":[2147483647,0,0,1,1,2,2,3,3,4,4,5,5,6,6],"right_children":[2,4,6,8,10,12,14,-1,-1,-1,-1,-1,-1,-1,-1],"split_conditions":[-1.2603487E0,3.6294868E0,-1.3812049E-1,2.7364855E0,-1.3812098E-1,-2.5075376E-1,-2.4870272E-1,2.3922853E-2,-1.5576958E-2,1.1073494E-3,2.4963109E-2,-1.7858144E-2,3.1726595E-2,2.400702E-2,-2.4873117E-2],"split_indices":[15,13,8,22,8,18,18,0,0,0,0,0,0,0,0],"split_type":[0,0,0,0,0,0,0,0,0,0,0,0,0,0,0],"sum_hessian":[5.106971E4,1.4640564E4,3.642915E4,9.959549E3,4.681016E3,2.4440393E4,1.1988754E4,9.915724E3,4.382463E1,3.1158171E3,1.5651991E3,2.2975176E4,1.4652172E3,7.9113135E3,4.077441E3],"tree_param":{"num_deleted":"0","num_feature":"40","num_nodes":"15","size_leaf_vector":"1"}},{"base_weights":[1.2440714E-3,1.0912936E0,-4.4029534E-1,1.3585336E0,5.1886576E-1,-8.579201E-1,4.1942957E-1,2.4047377E-2,2.8464878E-3,8.791936E-4,2.4961088E-2,-1.7937751E-2,3.1912893E-2,2.4067426E-2,-2.4704773E-2],"categories":[],"categories_nodes":[],"categories_segments":[],"categories_sizes":[],"default_left":[0,0,0,0,0,0,0,0,0,0,0,0,0,0,0],"id":29,"left_children":[1,3,5,7,9,11,13,-1,-1,-1,-1,-1,-1,-1,-1],"loss_changes":[2.4544432E4,2.2482832E3,1.3031641E4,2.2163477E2,1.9966602E3,1.1105861E4,2.0870162E4,0E0,0E0,0E0,0E0,0E0,0E0,0E0,0E0],"parents":[2147483647,0,0,1,1,2,2,3,3,4,4,5,5,6,6],"right_children":[2,4,6,8,10,12,14,-1,-1,-1,-1,-1,-1,-1,-1],"split_conditions":[-1.2603487E0,3.6294868E0,-1.3812049E-1,1.4550036E1,-1.3812098E-1,-2.507533E-1,-2.4919237E-1,2.4047377E-2,2.8464878E-3,8.791936E-4,2.4961088E-2,-1.7937751E-2,3.1912893E-2,2.4067426E-2,-2.4704773E-2],"split_indices":[15,13,8,0,8,18,18,0,0,0,0,0,0,0,0],"split_type":[0,0,0,0,0,0,0,0,0,0,0,0,0,0,0],"sum_hessian":[5.099414E4,1.4700598E4,3.6293543E4,1.0020921E4,4.679676E3,2.4427504E4,1.1866039E4,9.867933E3,1.5298866E2,3.0904692E3,1.5892067E3,2.2979639E4,1.4478643E3,7.7927256E3,4.0733135E3],"tree_param":{"num_deleted":"0","num_feature":"40","num_nodes":"15","size_leaf_vector":"1"}},{"base_weights":[1.4483954E-3,1.0898392E0,-4.4326803E-1,1.3565589E0,5.126704E-1,-8.555005E-1,4.139179E-1,2.3870941E-2,-1.9923337E-2,5.968931E-4,2.4965173E-2,-1.7881494E-2,3.1735227E-2,2.3626074E-2,-2.535004E-2],"categories":[],"categories_nodes":[],"categories_segments":[],"categories_sizes":[],"default_left":[0,0,0,0,0,0,0,0,0,0,0,0,0,0,0],"id":30,"left_children":[1,3,5,7,9,11,13,-1,-1,-1,-1,-1,-1,-1,-1],"loss_changes":[2.4644521E4,2.2729434E3,1.2773033E4,2.6360742E2,2.0487278E3,1.0992383E4,2.056589E4,0E0,0E0,0E0,0E0,0E0,0E0,0E0,0E0],"parents":[2147483647,0,0,1,1,2,2,3,3,4,4,5,5,6,6],"right_children":[2,4,6,8,10,12,14,-1,-1,-1,-1,-1,-1,-1,-1],"split_conditions":[-1.2603487E0,3.6294868E0,-1.3812049E-1,2.4131598E0,-1.3812098E-1,-2.507533E-1,-2.475395E-1,2.3870941E-2,-1.9923337E-2,5.968931E-4,2.4965173E-2,-1.7881494E-2,3.1735227E-2,2.3626074E-2,-2.535004E-2],"split_indices":[15,13,8,22,8,18,18,0,0,0,0,0,0,0,0],"split_type":[0,0,0,0,0,0,0,0,0,0,0,0,0,0,0],"sum_hessian":[5.0913777E4,1.4768404E4,3.614537E4,1.0099773E4,4.668631E3,2.440748E4,1.1737892E4,1.0058389E4,4.1384975E1,3.068445E3,1.6001857E3,2.2960871E4,1.4466108E3,7.8080757E3,3.9298164E3],"tree_param":{"num_deleted":"0","num_feature":"40","num_nodes":"15","size_leaf_vector":"1"}},{"base_weights":[1.1546521E-3,1.0810757E0,-4.3551898E-1,1.3591766E0,4.8521104E-1,-8.516664E-1,4.2016187E-1,2.3933789E-2,-1.4596154E-2,2.5413127E-4,2.4963796E-2,-1.7915405E-2,3.175861E-2,2.3991778E-2,-2.4931077E-2],"categories":[],"categories_nodes":[],"categories_segments":[],"categories_sizes":[],"default_left":[0,0,0,0,0,0,0,0,0,0,0,0,0,0,0],"id":31,"left_children":[1,3,5,7,9,11,13,-1,-1,-1,-1,-1,-1,-1,-1],"loss_changes":[2.4008914E4,2.4285332E3,1.290973E4,2.5055273E2,2.073879E3,1.1350613E4,2.0907535E4,0E0,0E0,0E0,0E0,0E0,0E0,0E0,0E0],"parents":[2147483647,0,0,1,1,2,2,3,3,4,4,5,5,6,6],"right_children":[2,4,6,8,10,12,14,-1,-1,-1,-1,-1,-1,-1,-1],"split_conditions":[-1.2603487E0,3.6294868E0,-1.3812049E-1,2.7364855E0,-1.3812098E-1,-2.5075316E-1,-2.4905622E-1,2.3933789E-2,-1.4596154E-2,2.5413127E-4,2.4963796E-2,-1.7915405E-2,3.175861E-2,2.3991778E-2,-2.4931077E-2],"split_indices":[15,13,8,22,8,18,18,0,0,0,0,0,0,0,0],"split_type":[0,0,0,0,0,0,0,0,0,0,0,0,0,0,0],"sum_hessian":[5.0910402E4,1.4658227E4,3.625218E4,9.993019E3,4.665207E3,2.439032E4,1.1861858E4,9.941899E3,5.1119267E1,3.1141133E3,1.551094E3,2.2896865E4,1.4934541E3,7.823968E3,4.0378906E3],"tree_param":{"num_deleted":"0","num_feature":"40","num_nodes":"15","size_leaf_vector":"1"}},{"base_weights":[1.0783965E-3,1.0828109E0,-4.3615404E-1,1.358477E0,4.855004E-1,-8.5220706E-1,4.1933084E-1,2.3907501E-2,-1.384881E-2,4.3432805E-4,2.4961624E-2,-1.7912038E-2,3.188801E-2,2.3664994E-2,-2.5357578E-2],"categories":[],"categories_nodes":[],"categories_segments":[],"categories_sizes":[],"default_left":[0,0,0,0,0,0,0,0,0,0,0,0,0,0,0],"id":32,"left_children":[1,3,5,7,9,11,13,-1,-1,-1,-1,-1,-1,-1,-1],"loss_changes":[2.4048336E4,2.40925E3,1.2888373E4,2.2867188E2,2.0100907E3,1.1322895E4,2.0752588E4,0E0,0E0,0E0,0E0,0E0,0E0,0E0,0E0],"parents":[2147483647,0,0,1,1,2,2,3,3,4,4,5,5,6,6],"right_children":[2,4,6,8,10,12,14,-1,-1,-1,-1,-1,-1,-1,-1],"split_conditions":[-1.2603487E0,3.6294868E0,-1.3812049E-1,2.7364855E0,-1.3812098E-1,-2.507533E-1,-2.4788351E-1,2.3907501E-2,-1.384881E-2,4.3432805E-4,2.4961624E-2,-1.7912038E-2,3.188801E-2,2.3664994E-2,-2.5357578E-2],"split_indices":[15,13,8,22,8,18,18,0,0,0,0,0,0,0,0],"split_type":[0,0,0,0,0,0,0,0,0,0,0,0,0,0,0],"sum_hessian":[5.084353E4,1.4634832E4,3.62087E4,1.0012612E4,4.6222197E3,2.4361049E4,1.1847651E4,9.964055E3,4.85576E1,3.107011E3,1.5152086E3,2.2879432E4,1.481617E3,7.8982847E3,3.9493662E3],"tree_param":{"num_deleted":"0","num_feature":"40","num_nodes":"15","size_leaf_vector":"1"}},{"base_weights":[-5.130458E-4,1.0923374E0,-4.423336E-1,1.3595742E0,5.1665354E-1,-8.5441846E-1,4.1271266E-1,2.4062615E-2,3.950851E-3,8.511848E-4,2.495872E-2,-1.7992944E-2,3.179989E-2,2.4032032E-2,-2.4740126E-2],"categories":[],"categories_nodes":[],"categories_segments":[],"categories_sizes":[],"default_left":[0,0,0,0,0,0,0,0,0,0,0,0,0,0,0],"id":33,"left_children":[1,3,5,7,9,11,13,-1,-1,-1,-1,-1,-1,-1,-1],"loss_changes":[2.4590613E4,2.254957E3,1.277898E4,2.079082E2,1.9855225E3,1.1520834E4,2.0791621E4,0E0,0E0,0E0,0E0,0E0,0E0,0E0,0E0],"parents":[2147483647,0,0,1,1,2,2,3,3,4,4,5,5,6,6],"right_children":[2,4,6,8,10,12,14,-1,-1,-1,-1,-1,-1,-1,-1],"split_conditions":[-1.2603487E0,3.6294868E0,-1.3812049E-1,1.4550036E1,-1.3812098E-1,-2.507533E-1,-2.4918285E-1,2.4062615E-2,3.950851E-3,8.511848E-4,2.495872E-2,-1.7992944E-2,3.179989E-2,2.4032032E-2,-2.4740126E-2],"split_indices":[15,13,8,0,8,18,18,0,0,0,0,0,0,0,0],"split_type":[0,0,0,0,0,0,0,0,0,0,0,0,0,0,0],"sum_hessian":[5.0926707E4,1.4661003E4,3.6265703E4,1.0011996E4,4.649007E3,2.4471703E4,1.1794001E4,9.852272E3,1.5972389E2,3.073948E3,1.5750587E3,2.2962352E4,1.5093508E3,7.7256074E3,4.068394E3],"tree_param":{"num_deleted":"0","num_feature":"40","num_nodes":"15","size_leaf_vector":"1"}},{"base_weights":[-7.074765E-4,1.0880052E0,-4.4393656E-1,1.3590449E0,4.8112708E-1,-8.6769867E-1,4.2615256E-1,2.389736E-2,-1.5159798E-2,2.9580786E-5,2.4962548E-2,-1.8103294E-2,3.1741027E-2,2.4066422E-2,-2.4584753E-2],"categories":[],"categories_nodes":[],"categories_segments":[],"categories_sizes":[],"default_left":[0,0,0,0,0,0,0,0,0,0,0,0,0,0,0],"id":34,"left_children":[1,3,5,7,9,11,13,-1,-1,-1,-1,-1,-1,-1,-1],"loss_changes":[2.4587271E4,2.4242188E3,1.3351734E4,2.1485742E2,2.06999E3,1.1051039E4,2.0709422E4,0E0,0E0,0E0,0E0,0E0,0E0,0E0,0E0],"parents":[2147483647,0,0,1,1,2,2,3,3,4,4,5,5,6,6],"right_children":[2,4,6,8,10,12,14,-1,-1,-1,-1,-1,-1,-1,-1],"split_conditions":[-1.2603487E0,3.6294868E0,-1.3812049E-1,2.4131598E0,-1.3812098E-1,-2.507533E-1,-2.4915229E-1,2.389736E-2,-1.5159798E-2,2.9580786E-5,2.4962548E-2,-1.8103294E-2,3.1741027E-2,2.4066422E-2,-2.4584753E-2],"split_indices":[15,13,8,22,8,18,18,0,0,0,0,0,0,0,0],"split_type":[0,0,0,0,0,0,0,0,0,0,0,0,0,0,0],"sum_hessian":[5.0950883E4,1.4740944E4,3.6209938E4,1.0189114E4,4.5518296E3,2.4350463E4,1.1859476E4,1.0146607E4,4.250692E1,3.0240212E3,1.5278085E3,2.290953E4,1.4409321E3,7.807152E3,4.0523242E3],"tree_param":{"num_deleted":"0","num_feature":"40","num_nodes":"15","size_leaf_vector":"1"}},{"base_weights":[1.1105918E-3,1.089453E0,-4.3987966E-1,1.358518E0,5.042319E-1,-8.567225E-1,4.19907E-1,2.3905555E-2,-1.9116158E-2,5.283362E-4,2.496432E-2,-1.7912176E-2,3.168336E-2,2.3693288E-2,-2.5353784E-2],"categories":[],"categories_nodes":[],"categories_segments":[],"categories_sizes":[],"default_left":[0,0,0,0,0,0,0,0,0,0,0,0,0,0,0],"id":35,"left_children":[1,3,5,7,9,11,13,-1,-1,-1,-1,-1,-1,-1,-1],"loss_changes":[2.4430184E4,2.3105059E3,1.2982876E4,2.582871E2,2.0281746E3,1.1014662E4,2.0744303E4,0E0,0E0,0E0,0E0,0E0,0E0,0E0,0E0],"parents":[2147483647,0,0,1,1,2,2,3,3,4,4,5,5,6,6],"right_children":[2,4,6,8,10,12,14,-1,-1,-1,-1,-1,-1,-1,-1],"split_conditions":[-1.2603487E0,3.6294868E0,-1.3812049E-1,2.4131598E0,-1.3812098E-1,-2.5075328E-1,-2.4787888E-1,2.3905555E-2,-1.9116158E-2,5.283362E-4,2.496432E-2,-1.7912176E-2,3.168336E-2,2.3693288E-2,-2.5353784E-2],"split_indices":[15,13,8,22,8,18,18,0,0,0,0,0,0,0,0],"split_type":[0,0,0,0,0,0,0,0,0,0,0,0,0,0,0],"sum_hessian":[5.0899684E4,1.4676738E4,3.6222945E4,1.0053264E4,4.6234746E3,2.4395494E4,1.1827451E4,1.001122E4,4.20444E1,3.058077E3,1.5653975E3,2.294438E4,1.451115E3,7.882391E3,3.9450596E3],"tree_param":{"num_deleted":"0","num_feature":"40","num_nodes":"15","size_leaf_vector":"1"}},{"base_weights":[-4.5218924E-4,1.004644E0,-4.0618074E-1,1.277394E0,4.2578176E-1,-7.8535455E-1,3.999224E-1,2.2668142E-2,1.9222545E-3,-5.213646E-5,2.3601538E-2,-1.511251E-3,-2.461604E-2,2.218849E-2,-2.3922108E-2],"categories":[],"categories_nodes":[],"categories_segments":[],"categories_sizes":[],"default_left":[0,0,0,0,0,0,0,0,0,0,0,0,0,0,0],"id":36,"left_children":[1,3,5,7,9,11,13,-1,-1,-1,-1,-1,-1,-1,-1],"loss_changes":[1.9582408E4,2.1798018E3,1.0456816E4,2.2639551E2,1.7561682E3,1.0149774E4,1.6866693E4,0E0,0E0,0E0,0E0,0E0,0E0,0E0,0E0],"parents":[2147483647,0,0,1,1,2,2,3,3,4,4,5,5,6,6],"right_children":[2,4,6,8,10,12,14,-1,-1,-1,-1,-1,-1,-1,-1],"split_conditions":[-1.2603487E0,3.6294868E0,-1.3812049E-1,1.4550036E1,-1.3812098E-1,-1.3812098E-1,-2.476145E-1,2.2668142E-2,1.9222545E-3,-5.213646E-5,2.3601538E-2,-1.511251E-3,-2.461604E-2,2.218849E-2,-2.3922108E-2],"split_indices":[15,13,8,0,8,8,18,0,0,0,0,0,0,0,0],"split_type":[0,0,0,0,0,0,0,0,0,0,0,0,0,0,0],"sum_hessian":[4.801808E4,1.3808735E4,3.4209344E4,9.385325E3,4.42341E3,2.3265686E4,1.0943659E4,9.221874E3,1.6345119E2,3.0238655E3,1.3995448E3,1.0977876E4,1.2287809E4,7.3352495E3,3.6084092E3],"tree_param":{"num_deleted":"0","num_feature":"40","num_nodes":"15","size_leaf_vector":"1"}},{"base_weights":[4.243961E-4,1.0096797E0,-4.042337E-1,1.2779112E0,4.6186817E-1,-7.7239E-1,3.869163E-1,2.2664215E-2,1.4827531E-3,7.695096E-4,2.3598503E-2,-1.1679111E-3,-2.4628796E-2,2.255034E-2,-2.329268E-2],"categories":[],"categories_nodes":[],"categories_segments":[],"categories_sizes":[],"default_left":[0,0,0,0,0,0,0,0,0,0,0,0,0,0,0],"id":37,"left_children":[1,3,5,7,9,11,13,-1,-1,-1,-1,-1,-1,-1,-1],"loss_changes":[1.960557E4,2.0182246E3,9.980966E3,2.1920996E2,1.6787822E3,1.0525067E4,1.6937729E4,0E0,0E0,0E0,0E0,0E0,0E0,0E0,0E0],"parents":[2147483647,0,0,1,1,2,2,3,3,4,4,5,5,6,6],"right_children":[2,4,6,8,10,12,14,-1,-1,-1,-1,-1,-1,-1,-1],"split_conditions":[-1.2603487E0,3.6294868E0,-1.3812049E-1,1.4550036E1,-1.3812098E-1,-1.3812098E-1,-2.4918285E-1,2.2664215E-2,1.4827531E-3,7.695096E-4,2.3598503E-2,-1.1679111E-3,-2.4628796E-2,2.255034E-2,-2.329268E-2],"split_indices":[15,13,8,0,8,8,18,0,0,0,0,0,0,0,0],"split_type":[0,0,0,0,0,0,0,0,0,0,0,0,0,0,0],"sum_hessian":[4.8003414E4,1.3738017E4,3.42654E4,9.221466E3,4.516551E3,2.3383887E4,1.0881511E4,9.069832E3,1.5163383E2,3.0737893E3,1.4427616E3,1.110454E4,1.2279348E4,7.132824E3,3.748687E3],"tree_param":{"num_deleted":"0","num_feature":"40","num_nodes":"15","size_leaf_vector":"1"}},{"base_weights":[2.516708E-3,5.8627075E-1,-6.987127E-1,8.143055E-1,-1.4916812E0,-1.3982675E0,2.5385594E-1,1.1735916E-2,3.4131367E-2,-2.706358E-2,-2.492915E-2,-2.4977563E-2,2.4055194E-2,2.2743942E-2,-2.491357E-2],"categories":[],"categories_nodes":[],"categories_segments":[],"categories_sizes":[],"default_left":[0,0,0,0,0,0,0,0,0,0,0,0,0,0,0],"id":38,"left_children":[1,3,5,7,9,11,13,-1,-1,-1,-1,-1,-1,-1,-1],"loss_changes":[1.9645486E4,1.2411215E4,1.4528936E4,3.8268115E3,7.4379883E0,1.1202754E3,1.6270666E4,0E0,0E0,0E0,0E0,0E0,0E0,0E0,0E0],"parents":[2147483647,0,0,1,1,2,2,3,3,4,4,5,5,6,6],"right_children":[2,4,6,8,10,12,14,-1,-1,-1,-1,-1,-1,-1,-1],"split_conditions":[-2.5075614E-1,9.2885554E-2,-2.507533E-1,6.829755E-1,-1.3812098E-1,-1.3812049E-1,-1.3774294E-1,1.1735916E-2,3.4131367E-2,-2.706358E-2,-2.492915E-2,-2.4977563E-2,2.4055194E-2,2.2743942E-2,-2.491357E-2],"split_indices":[18,30,18,15,8,8,8,0,0,0,0,0,0,0,0],"split_type":[0,0,0,0,0,0,0,0,0,0,0,0,0,0,0],"sum_hessian":[4.799043E4,2.6188986E4,2.1801441E4,2.3599756E4,2.5892322E3,1.2569838E4,9.231604E3,2.0983309E4,2.616446E3,1.3465219E3,1.2427103E3,1.2426843E4,1.4299594E2,5.684795E3,3.546808E3],"tree_param":{"num_deleted":"0","num_feature":"40","num_nodes":"15","size_leaf_vector":"1"}},{"base_weights":[2.306603E-3,1.0086623E0,-4.01973E-1,1.2768395E0,4.6401873E-1,-7.7497613E-1,3.933384E-1,2.2648675E-2,3.2058242E-4,7.975209E-4,2.3600474E-2,-1.2011267E-3,-2.4606613E-2,2.2588205E-2,-2.3258122E-2],"categories":[],"categories_nodes":[],"categories_segments":[],"categories_sizes":[],"default_left":[0,0,0,0,0,0,0,0,0,0,0,0,0,0,0],"id":39,"left_children":[1,3,5,7,9,11,13,-1,-1,-1,-1,-1,-1,-1,-1],"loss_changes":[1.9557826E4,2.0116875E3,1.0173882E4,2.336543E2,1.6880819E3,1.0454058E4,1.7005967E4,0E0,0E0,0E0,0E0,0E0,0E0,0E0,0E0],"parents":[2147483647,0,0,1,1,2,2,3,3,4,4,5,5,6,6],"right_children":[2,4,6,8,10,12,14,-1,-1,-1,-1,-1,-1,-1,-1],"split_conditions":[-1.2603487E0,3.6294868E0,-1.3812049E-1,1.4550036E1,-1.3812098E-1,-1.3812098E-1,-2.4919237E-1,2.2648675E-2,3.2058242E-4,7.975209E-4,2.3600474E-2,-1.2011267E-3,-2.4606613E-2,2.2588205E-2,-2.3258122E-2],"split_indices":[15,13,8,0,8,8,18,0,0,0,0,0,0,0,0],"split_type":[0,0,0,0,0,0,0,0,0,0,0,0,0,0,0],"sum_hessian":[4.806945E4,1.3775986E4,3.4293465E4,9.229921E3,4.5460654E3,2.3344744E4,1.0948719E4,9.084682E3,1.4523975E2,3.0903096E3,1.4557559E3,1.1045022E4,1.2299722E4,7.194891E3,3.753828E3],"tree_param":{"num_deleted":"0","num_feature":"40","num_nodes":"15","size_leaf_vector":"1"}},{"base_weights":[5.6557884E-3,5.9002894E-1,-6.8448627E-1,8.237488E-1,-1.4915172E0,-1.4312136E0,2.8477818E-1,1.1841702E-2,3.3646364E-2,-2.7063658E-2,-2.492942E-2,-2.500882E-2,2.7273152E-2,2.2949541E-2,-2.4737667E-2],"categories":[],"categories_nodes":[],"categories_segments":[],"categories_sizes":[],"default_left":[0,0,0,0,0,0,0,0,0,0,0,0,0,0,0],"id":40,"left_children":[1,3,5,7,9,11,13,-1,-1,-1,-1,-1,-1,-1,-1],"loss_changes":[1.941514E4,1.26832E4,1.597616E4,3.7636904E3,7.59375E0,3.555078E1,1.6825645E4,0E0,0E0,0E0,0E0,0E0,0E0,0E0,0E0],"parents":[2147483647,0,0,1,1,2,2,3,3,4,4,5,5,6,6],"right_children":[2,4,6,8,10,12,14,-1,-1,-1,-1,-1,-1,-1,-1],"split_conditions":[-2.5075614E-1,9.2885554E-2,-2.5075376E-1,6.829755E-1,-1.3812098E-1,-1.5270771E-1,-1.3776776E-1,1.1841702E-2,3.3646364E-2,-2.7063658E-2,-2.492942E-2,-2.500882E-2,2.7273152E-2,2.2949541E-2,-2.4737667E-2],"split_indices":[18,30,18,15,8,17,8,0,0,0,0,0,0,0,0],"split_type":[0,0,0,0,0,0,0,0,0,0,0,0,0,0,0],"sum_hessian":[4.813862E4,2.6066842E4,2.207178E4,2.3436008E4,2.6308342E3,1.2466801E4,9.604978E3,2.0703756E4,2.7322527E3,1.3646082E3,1.2662262E3,1.24636045E4,3.196724E0,5.984366E3,3.620611E3],"tree_param":{"num_deleted":"0","num_feature":"40","num_nodes":"15","size_leaf_vector":"1"}},{"base_weights":[2.062903E-3,1.0065128E0,-4.0158522E-1,1.2768232E0,4.4910523E-1,-7.739664E-1,3.93747E-1,2.248394E-2,-1.8326394E-2,4.466459E-4,2.3603072E-2,-1.2091679E-3,-2.4587806E-2,2.221797E-2,-2.3925053E-2],"categories":[],"categories_nodes":[],"categories_segments":[],"categories_sizes":[],"default_left":[0,0,0,0,0,0,0,0,0,0,0,0,0,0,0],"id":41,"left_children":[1,3,5,7,9,11,13,-1,-1,-1,-1,-1,-1,-1,-1],"loss_changes":[1.9451814E4,2.0716416E3,1.0136165E4,2.3183789E2,1.7173184E3,1.0415233E4,1.6914457E4,0E0,0E0,0E0,0E0,0E0,0E0,0E0,0E0],"parents":[2147483647,0,0,1,1,2,2,3,3,4,4,5,5,6,6],"right_children":[2,4,6,8,10,12,14,-1,-1,-1,-1,-1,-1,-1,-1],"split_conditions":[-1.2603487E0,3.6294868E0,-1.3812049E-1,2.4131598E0,-1.3812098E-1,-1.3812098E-1,-2.4787888E-1,2.248394E-2,-1.8326394E-2,4.466459E-4,2.3603072E-2,-1.2091679E-3,-2.4587806E-2,2.221797E-2,-2.3925053E-2],"split_indices":[15,13,8,22,8,8,18,0,0,0,0,0,0,0,0],"split_type":[0,0,0,0,0,0,0,0,0,0,0,0,0,0,0],"sum_hessian":[4.7974547E4,1.3752049E4,3.4222496E4,9.260131E3,4.4919185E3,2.3309037E4,1.091346E4,9.218183E3,4.194791E1,3.0579192E3,1.4339993E3,1.1039624E4,1.2269414E4,7.285056E3,3.6284036E3],"tree_param":{"num_deleted":"0","num_feature":"40","num_nodes":"15","size_leaf_vector":"1"}},{"base_weights":[1.9132112E-3,5.822822E-1,-6.9001067E-1,8.129806E-1,-1.4919171E0,-1.3799127E0,2.5228634E-1,1.1671604E-2,3.3956148E-2,-2.7063811E-2,-2.4929203E-2,-2.4971155E-2,2.3936082E-2,2.2686325E-2,-2.4862548E-2],"categories":[],"categories_nodes":[],"categories_segments":[],"categories_sizes":[],"default_left":[0,0,0,0,0,0,0,0,0,0,0,0,0,0,0],"id":42,"left_children":[1,3,5,7,9,11,13,-1,-1,-1,-1,-1,-1,-1,-1],"loss_changes":[1.9273066E4,1.2490987E4,1.4232834E4,3.8423105E3,7.519043E0,1.7415293E3,1.623907E4,0E0,0E0,0E0,0E0,0E0,0E0,0E0,0E0],"parents":[2147483647,0,0,1,1,2,2,3,3,4,4,5,5,6,6],"right_children":[2,4,6,8,10,12,14,-1,-1,-1,-1,-1,-1,-1,-1],"split_conditions":[-2.5075614E-1,9.2885554E-2,-2.5075316E-1,6.829755E-1,-1.3812098E-1,-1.3812049E-1,-1.3773535E-1,1.1671604E-2,3.3956148E-2,-2.7063811E-2,-2.4929203E-2,-2.4971155E-2,2.3936082E-2,2.2686325E-2,-2.4862548E-2],"split_indices":[18,30,18,15,8,8,8,0,0,0,0,0,0,0,0],"split_type":[0,0,0,0,0,0,0,0,0,0,0,0,0,0,0],"sum_hessian":[4.7992152E4,2.6100143E4,2.189201E4,2.3488314E4,2.6118293E3,1.263837E4,9.253639E3,2.082786E4,2.6604534E3,1.3632411E3,1.2485884E3,1.2413041E4,2.2532956E2,5.6961196E3,3.557519E3],"tree_param":{"num_deleted":"0","num_feature":"40","num_nodes":"15","size_leaf_vector":"1"}},{"base_weights":[2.016922E-3,5.8581436E-1,-6.901933E-1,8.135887E-1,-1.4913689E0,-1.3961812E0,2.627871E-1,1.1618289E-2,3.4043204E-2,-2.7063241E-2,-2.4929037E-2,-2.5014853E-2,2.4074862E-2,2.2920184E-2,-2.4860652E-2],"categories":[],"categories_nodes":[],"categories_segments":[],"categories_sizes":[],"default_left":[0,0,0,0,0,0,0,0,0,0,0,0,0,0,0],"id":43,"left_children":[1,3,5,7,9,11,13,-1,-1,-1,-1,-1,-1,-1,-1],"loss_changes":[1.9370152E4,1.2303812E4,1.4754814E4,3.945503E3,7.3637695E0,1.2698652E3,1.6524322E4,0E0,0E0,0E0,0E0,0E0,0E0,0E0,0E0],"parents":[2147483647,0,0,1,1,2,2,3,3,4,4,5,5,6,6],"right_children":[2,4,6,8,10,12,14,-1,-1,-1,-1,-1,-1,-1,-1],"split_conditions":[-2.5075614E-1,9.2885554E-2,-2.507533E-1,6.829755E-1,-1.3812098E-1,-1.3812049E-1,-1.377843E-1,1.1618289E-2,3.4043204E-2,-2.7063241E-2,-2.4929037E-2,-2.5014853E-2,2.4074862E-2,2.2920184E-2,-2.4860652E-2],"split_indices":[18,30,18,15,8,8,8,0,0,0,0,0,0,0,0],"split_type":[0,0,0,0,0,0,0,0,0,0,0,0,0,0,0],"sum_hessian":[4.7930793E4,2.600164E4,2.1929154E4,2.3432725E4,2.5689158E3,1.2596751E4,9.332402E3,2.0728379E4,2.7043462E3,1.3295696E3,1.2393463E3,1.2434695E4,1.6205608E2,5.752158E3,3.5802444E3],"tree_param":{"num_deleted":"0","num_feature":"40","num_nodes":"15","size_leaf_vector":"1"}},{"base_weights":[5.3011617E-3,9.4406766E-1,-3.7176627E-1,1.2266392E0,3.9896792E-1,-7.1204E-1,3.7554E-1,2.1616817E-2,-1.6360579E-2,1.7389082E-4,2.2790542E-2,-1.004211E-3,-2.340714E-2,2.1384437E-2,-2.2353804E-2],"categories":[],"categories_nodes":[],"categories_segments":[],"categories_sizes":[],"default_left":[0,0,0,0,0,0,0,0,0,0,0,0,0,0,0],"id":44,"left_children":[1,3,5,7,9,11,13,-1,-1,-1,-1,-1,-1,-1,-1],"loss_changes":[1.6088029E4,2.0055938E3,8.245635E3,2.0949902E2,1.5678269E3,9.163392E3,1.4262691E4,0E0,0E0,0E0,0E0,0E0,0E0,0E0,0E0],"parents":[2147483647,0,0,1,1,2,2,3,3,4,4,5,5,6,6],"right_children":[2,4,6,8,10,12,14,-1,-1,-1,-1,-1,-1,-1,-1],"split_conditions":[-1.2603487E0,3.6294868E0,-1.3812049E-1,2.7364855E0,-1.3812098E-1,-1.3812098E-1,-2.4870272E-1,2.1616817E-2,-1.6360579E-2,1.7389082E-4,2.2790542E-2,-1.004211E-3,-2.340714E-2,2.1384437E-2,-2.2353804E-2],"split_indices":[15,13,8,22,8,8,18,0,0,0,0,0,0,0,0],"split_type":[0,0,0,0,0,0,0,0,0,0,0,0,0,0,0],"sum_hessian":[4.544721E4,1.3022993E4,3.2424217E4,8.576048E3,4.4469453E3,2.2279607E4,1.0144609E4,8.532198E3,4.3849472E1,3.1119417E3,1.3350034E3,1.0912946E4,1.1366662E4,6.7059604E3,3.4386494E3],"tree_param":{"num_deleted":"0","num_feature":"40","num_nodes":"15","size_leaf_vector":"1"}},{"base_weights":[-1.6357575E-3,1.2256707E0,-2.9618138E-1,1.247527E0,3.9583318E-2,-6.474952E-1,4.8485997E-1,2.197457E-2,-1.5956813E-2,-6.570945E-3,1.8004546E-2,-1.4629009E-3,-2.3397457E-2,2.1329157E-2,-2.2884194E-2],"categories":[],"categories_nodes":[],"categories_segments":[],"categories_sizes":[],"default_left":[0,0,0,0,0,0,0,0,0,0,0,0,0,0,0],"id":45,"left_children":[1,3,5,7,9,11,13,-1,-1,-1,-1,-1,-1,-1,-1],"loss_changes":[1.6390086E4,2.2743457E2,1.0033191E4,2.0275586E2,6.627707E1,9.843156E3,1.5002627E4,0E0,0E0,0E0,0E0,0E0,0E0,0E0,0E0],"parents":[2147483647,0,0,1,1,2,2,3,3,4,4,5,5,6,6],"right_children":[2,4,6,8,10,12,14,-1,-1,-1,-1,-1,-1,-1,-1],"split_conditions":[-1.5032642E0,1.4550036E1,-1.3812049E-1,2.4131598E0,2.914867E1,-1.3812098E-1,-2.476145E-1,2.197457E-2,-1.5956813E-2,-6.570945E-3,1.8004546E-2,-1.4629009E-3,-2.3397457E-2,2.1329157E-2,-2.2884194E-2],"split_indices":[15,0,8,22,0,8,18,0,0,0,0,0,0,0,0],"split_type":[0,0,0,0,0,0,0,0,0,0,0,0,0,0,0],"sum_hessian":[4.533739E4,8.774176E3,3.656321E4,8.615367E3,1.5880931E2,2.5219574E4,1.134364E4,8.572843E3,4.252428E1,1.12317444E2,4.6491867E1,1.3901585E4,1.1317989E4,8.043898E3,3.2997412E3],"tree_param":{"num_deleted":"0","num_feature":"40","num_nodes":"15","size_leaf_vector":"1"}},{"base_weights":[1.1427042E-3,1.225952E0,-2.8603634E-1,1.2503281E0,3.7075575E-2,-6.29773E-1,4.806564E-1,2.2063328E-2,-1.5379622E-2,-7.268559E-3,1.5891768E-2,-1.0417325E-3,-2.3398617E-2,2.1595603E-2,-2.2431985E-2],"categories":[],"categories_nodes":[],"categories_segments":[],"categories_sizes":[],"default_left":[0,0,0,0,0,0,0,0,0,0,0,0,0,0,0],"id":46,"left_children":[1,3,5,7,9,11,13,-1,-1,-1,-1,-1,-1,-1,-1],"loss_changes":[1.5942602E4,2.4943555E2,9.67651E3,2.3674707E2,6.922996E1,1.0263463E4,1.5169588E4,0E0,0E0,0E0,0E0,0E0,0E0,0E0,0E0],"parents":[2147483647,0,0,1,1,2,2,3,3,4,4,5,5,6,6],"right_children":[2,4,6,8,10,12,14,-1,-1,-1,-1,-1,-1,-1,-1],"split_conditions":[-1.5032642E0,1.4550036E1,-1.3812049E-1,2.7364855E0,2.914867E1,-1.3812098E-1,-2.4905622E-1,2.2063328E-2,-1.5379622E-2,-7.268559E-3,1.5891768E-2,-1.0417325E-3,-2.3398617E-2,2.1595603E-2,-2.2431985E-2],"split_indices":[15,0,8,22,0,8,18,0,0,0,0,0,0,0,0],"split_type":[0,0,0,0,0,0,0,0,0,0,0,0,0,0,0],"sum_hessian":[4.532301E4,8.607791E3,3.671522E4,8.434798E3,1.7299347E2,2.535004E4,1.1365181E4,8.383639E3,5.115939E1,1.142101E2,5.8783367E1,1.4061759E4,1.1288279E4,7.9574775E3,3.4077034E3],"tree_param":{"num_deleted":"0","num_feature":"40","num_nodes":"15","size_leaf_vector":"1"}},{"base_weights":[1.8613414E-3,9.4149375E-1,-3.812626E-1,1.2227846E0,3.8901064E-1,-7.1558183E-1,3.6736256E-1,2.177739E-2,-2.004534E-4,-3.371975E-4,2.2792136E-2,-1.2320578E-3,-2.340066E-2,2.10102E-2,-2.2883065E-2],"categories":[],"categories_nodes":[],"categories_segments":[],"categories_sizes":[],"default_left":[0,0,0,0,0,0,0,0,0,0,0,0,0,0,0],"id":47,"left_children":[1,3,5,7,9,11,13,-1,-1,-1,-1,-1,-1,-1,-1],"loss_changes":[1.6317035E4,2.039749E3,8.0586465E3,2.6066113E2,1.6574204E3,8.964977E3,1.3940075E4,0E0,0E0,0E0,0E0,0E0,0E0,0E0,0E0],"parents":[2147483647,0,0,1,1,2,2,3,3,4,4,5,5,6,6],"right_children":[2,4,6,8,10,12,14,-1,-1,-1,-1,-1,-1,-1,-1],"split_conditions":[-1.2603487E0,3.6294868E0,-1.3812049E-1,1.4550036E1,-1.3812098E-1,-1.3812098E-1,-2.475395E-1,2.177739E-2,-2.004534E-4,-3.371975E-4,2.2792136E-2,-1.2320578E-3,-2.340066E-2,2.10102E-2,-2.2883065E-2],"split_indices":[15,13,8,0,8,8,18,0,0,0,0,0,0,0,0],"split_type":[0,0,0,0,0,0,0,0,0,0,0,0,0,0,0],"sum_hessian":[4.532365E4,1.31271455E4,3.2196502E4,8.697629E3,4.429517E3,2.2257047E4,9.939455E3,8.529843E3,1.6778615E2,3.064631E3,1.3648859E3,1.0948534E4,1.1308512E4,6.6346733E3,3.3047822E3],"tree_param":{"num_deleted":"0","num_feature":"40","num_nodes":"15","size_leaf_vector":"1"}},{"base_weights":[1.2068817E-3,1.2250688E0,-2.8681275E-1,1.2469128E0,-1.675199E-2,-6.288754E-1,4.778215E-1,2.1986473E-2,-1.4635244E-2,-9.780147E-3,1.5889924E-2,-9.724235E-4,-2.3383575E-2,2.1318799E-2,-2.2894977E-2],"categories":[],"categories_nodes":[],"categories_segments":[],"categories_sizes":[],"default_left":[0,0,0,0,0,0,0,0,0,0,0,0,0,0,0],"id":48,"left_children":[1,3,5,7,9,11,13,-1,-1,-1,-1,-1,-1,-1,-1],"loss_changes":[1.595641E4,2.3394434E2,9.584477E3,2.1523633E2,7.6056526E1,1.0305801E4,1.5055611E4,0E0,0E0,0E0,0E0,0E0,0E0,0E0,0E0],"parents":[2147483647,0,0,1,1,2,2,3,3,4,4,5,5,6,6],"right_children":[2,4,6,8,10,12,14,-1,-1,-1,-1,-1,-1,-1,-1],"split_conditions":[-1.5032642E0,1.4550036E1,-1.3812049E-1,2.7364855E0,2.914867E1,-1.3812098E-1,-2.4788351E-1,2.1986473E-2,-1.4635244E-2,-9.780147E-3,1.5889924E-2,-9.724235E-4,-2.3383575E-2,2.1318799E-2,-2.2894977E-2],"split_indices":[15,0,8,22,0,8,18,0,0,0,0,0,0,0,0],"split_type":[0,0,0,0,0,0,0,0,0,0,0,0,0,0,0],"sum_hessian":[4.5264895E4,8.622527E3,3.6642367E4,8.473473E3,1.4905525E2,2.5316908E4,1.1325457E4,8.424888E3,4.8584618E1,9.4214134E1,5.4841118E1,1.401009E4,1.1306818E4,8.002204E3,3.3232537E3],"tree_param":{"num_deleted":"0","num_feature":"40","num_nodes":"15","size_leaf_vector":"1"}},{"base_weights":[1.3565022E-3,9.43415E-1,-3.7959623E-1,1.225042E0,3.9623466E-1,-7.183182E-1,3.7175608E-1,2.1764526E-2,-9.5594994E-4,-5.454746E-5,2.2789186E-2,-1.320205E-3,-2.3388842E-2,2.1435974E-2,-2.2185344E-2],"categories":[],"categories_nodes":[],"categories_segments":[],"categories_sizes":[],"default_left":[0,0,0,0,0,0,0,0,0,0,0,0,0,0,0],"id":49,"left_children":[1,3,5,7,9,11,13,-1,-1,-1,-1,-1,-1,-1,-1],"loss_changes":[1.6291385E4,2.0137998E3,8.226678E3,2.351084E2,1.6124932E3,8.892824E3,1.4117475E4,0E0,0E0,0E0,0E0,0E0,0E0,0E0,0E0],"parents":[2147483647,0,0,1,1,2,2,3,3,4,4,5,5,6,6],"right_children":[2,4,6,8,10,12,14,-1,-1,-1,-1,-1,-1,-1,-1],"split_conditions":[-1.2603487E0,3.6294868E0,-1.3812049E-1,1.4550036E1,-1.3812098E-1,-1.3812098E-1,-2.4919237E-1,2.1764526E-2,-9.5594994E-4,-5.454746E-5,2.2789186E-2,-1.320205E-3,-2.3388842E-2,2.1435974E-2,-2.2185344E-2],"split_indices":[15,13,8,0,8,8,18,0,0,0,0,0,0,0,0],"split_type":[0,0,0,0,0,0,0,0,0,0,0,0,0,0,0],"sum_hessian":[4.539311E4,1.3070235E4,3.2322875E4,8.628179E3,4.4420566E3,2.2279125E4,1.0043751E4,8.487063E3,1.4111507E2,3.0866309E3,1.355426E3,1.0948867E4,1.1330257E4,6.603078E3,3.440673E3],"tree_param":{"num_deleted":"0","num_feature":"40","num_nodes":"15","size_leaf_vector":"1"}},{"base_weights":[1.4319663E-3,9.4111985E-1,-3.7865347E-1,1.2250354E0,3.810309E-1,-7.167375E-1,3.722113E-1,2.159678E-2,-1.9918848E-2,-4.0583842E-4,2.2791404E-2,-1.310859E-3,-2.3365518E-2,2.1070948E-2,-2.2890734E-2],"categories":[],"categories_nodes":[],"categories_segments":[],"categories_sizes":[],"default_left":[0,0,0,0,0,0,0,0,0,0,0,0,0,0,0],"id":50,"left_children":[1,3,5,7,9,11,13,-1,-1,-1,-1,-1,-1,-1,-1],"loss_changes":[1.6181066E4,2.0743027E3,8.1889297E3,2.407168E2,1.640251E3,8.866947E3,1.4066466E4,0E0,0E0,0E0,0E0,0E0,0E0,0E0,0E0],"parents":[2147483647,0,0,1,1,2,2,3,3,4,4,5,5,6,6],"right_children":[2,4,6,8,10,12,14,-1,-1,-1,-1,-1,-1,-1,-1],"split_conditions":[-1.2603487E0,3.6294868E0,-1.3812049E-1,2.4131598E0,-1.3812098E-1,-1.3812098E-1,-2.4787888E-1,2.159678E-2,-1.9918848E-2,-4.0583842E-4,2.2791404E-2,-1.310859E-3,-2.3365518E-2,2.1070948E-2,-2.2890734E-2],"split_indices":[15,13,8,22,8,8,18,0,0,0,0,0,0,0,0],"split_type":[0,0,0,0,0,0,0,0,0,0,0,0,0,0,0],"sum_hessian":[4.5302598E4,1.3046403E4,3.2256193E4,8.656922E3,4.3894814E3,2.22417E4,1.0014493E4,8.614852E3,4.2070606E1,3.0542805E3,1.335201E3,1.094172E4,1.129998E4,6.695393E3,3.3191E3],"tree_param":{"num_deleted":"0","num_feature":"40","num_nodes":"15","size_leaf_vector":"1"}},{"base_weights":[-1.1724497E-4,9.4450045E-1,-3.8132548E-1,1.2262269E0,3.9408508E-1,-7.1554977E-1,3.658586E-1,2.1781659E-2,2.3958112E-4,-8.2589904E-5,2.2787448E-2,-1.2758016E-3,-2.3411598E-2,2.1397483E-2,-2.2217762E-2],"categories":[],"categories_nodes":[],"categories_segments":[],"categories_sizes":[],"default_left":[0,0,0,0,0,0,0,0,0,0,0,0,0,0,0],"id":51,"left_children":[1,3,5,7,9,11,13,-1,-1,-1,-1,-1,-1,-1,-1],"loss_changes":[1.6324595E4,2.0207588E3,8.06628E3,2.2032812E2,1.6035363E3,8.96285E3,1.4056881E4,0E0,0E0,0E0,0E0,0E0,0E0,0E0,0E0],"parents":[2147483647,0,0,1,1,2,2,3,3,4,4,5,5,6,6],"right_children":[2,4,6,8,10,12,14,-1,-1,-1,-1,-1,-1,-1,-1],"split_conditions":[-1.2603487E0,3.6294868E0,-1.3812049E-1,1.4550036E1,-1.3812098E-1,-1.3812098E-1,-2.4918285E-1,2.1781659E-2,2.3958112E-4,-8.2589904E-5,2.2787448E-2,-1.2758016E-3,-2.3411598E-2,2.1397483E-2,-2.2217762E-2],"split_indices":[15,13,8,0,8,8,18,0,0,0,0,0,0,0,0],"split_type":[0,0,0,0,0,0,0,0,0,0,0,0,0,0,0],"sum_hessian":[4.5332004E4,1.3033664E4,3.229834E4,8.620229E3,4.4134355E3,2.231612E4,9.982222E3,8.472901E3,1.4732756E2,3.070129E3,1.3433064E3,1.1005454E4,1.1310664E4,6.5473896E3,3.434832E3],"tree_param":{"num_deleted":"0","num_feature":"40","num_nodes":"15","size_leaf_vector":"1"}},{"base_weights":[5.8973143E-3,5.022309E-1,-6.160767E-1,7.135447E-1,-1.39948E0,-1.3178213E0,2.980897E-1,9.815785E-3,3.2149848E-2,-2.5950583E-2,-2.2533953E-2,-2.21591E-2,-2.5770925E-2,2.153538E-2,-2.3202224E-2],"categories":[],"categories_nodes":[],"categories_segments":[],"categories_sizes":[],"default_left":[0,0,0,0,0,0,0,0,0,0,0,0,0,0,0],"id":52,"left_children":[1,3,5,7,9,11,13,-1,-1,-1,-1,-1,-1,-1,-1],"loss_changes":[1.313689E4,9.512082E3,1.2116506E4,3.6364414E3,2.0436035E1,8.0646484E1,1.2479703E4,0E0,0E0,0E0,0E0,0E0,0E0,0E0,0E0],"parents":[2147483647,0,0,1,1,2,2,3,3,4,4,5,5,6,6],"right_children":[2,4,6,8,10,12,14,-1,-1,-1,-1,-1,-1,-1,-1],"split_conditions":[-2.5075614E-1,9.2885554E-2,-2.5075376E-1,6.829755E-1,-1.3812098E-1,3.1373057E0,-1.3776776E-1,9.815785E-3,3.2149848E-2,-2.5950583E-2,-2.2533953E-2,-2.21591E-2,-2.5770925E-2,2.153538E-2,-2.3202224E-2],"split_indices":[18,30,18,15,8,12,8,0,0,0,0,0,0,0,0],"split_type":[0,0,0,0,0,0,0,0,0,0,0,0,0,0,0],"sum_hessian":[4.2552613E4,2.366678E4,1.8885832E4,2.1300535E4,2.366243E3,1.0683999E4,8.201834E3,1.877943E4,2.5211064E3,1.3123782E3,1.0538647E3,8.16483E3,2.5191687E3,5.2082036E3,2.9936304E3],"tree_param":{"num_deleted":"0","num_feature":"40","num_nodes":"15","size_leaf_vector":"1"}},{"base_weights":[1.3279615E-3,8.800922E-1,-3.508506E-1,1.1671371E0,3.5773847E-1,-6.541103E-1,3.5359666E-1,2.07791E-2,-1.7078891E-3,1.8488707E-5,2.1916078E-2,-1.4389137E-2,2.9064115E-2,2.0426232E-2,-2.1260243E-2],"categories":[],"categories_nodes":[],"categories_segments":[],"categories_sizes":[],"default_left":[0,0,0,0,0,0,0,0,0,0,0,0,0,0,0],"id":53,"left_children":[1,3,5,7,9,11,13,-1,-1,-1,-1,-1,-1,-1,-1],"loss_changes":[1.3154806E4,1.8230107E3,6.4827964E3,2.2604102E2,1.3807197E3,8.355814E3,1.1710504E4,0E0,0E0,0E0,0E0,0E0,0E0,0E0,0E0],"parents":[2147483647,0,0,1,1,2,2,3,3,4,4,5,5,6,6],"right_children":[2,4,6,8,10,12,14,-1,-1,-1,-1,-1,-1,-1,-1],"split_conditions":[-1.2603487E0,3.6294868E0,-1.3812049E-1,1.4550036E1,-1.3812098E-1,-1.5670535E-1,-2.4919237E-1,2.07791E-2,-1.7078891E-3,1.8488707E-5,2.1916078E-2,-1.4389137E-2,2.9064115E-2,2.0426232E-2,-2.1260243E-2],"split_indices":[15,13,8,0,8,17,18,0,0,0,0,0,0,0,0],"split_type":[0,0,0,0,0,0,0,0,0,0,0,0,0,0,0],"sum_hessian":[4.2503895E4,1.2160137E4,3.0343756E4,7.8468716E3,4.313265E3,2.1212145E4,9.131611E3,7.708247E3,1.3862454E2,3.08709E3,1.2261752E3,1.976465E4,1.447494E3,6.0099487E3,3.1216628E3],"tree_param":{"num_deleted":"0","num_feature":"40","num_nodes":"15","size_leaf_vector":"1"}},{"base_weights":[-2.3799494E-3,1.1679167E0,-2.7342373E-1,1.191215E0,2.3633511E-4,-5.875334E-1,4.6253273E-1,2.100345E-2,-1.5681764E-2,-6.9459416E-3,1.710857E-2,-1.3176806E-3,-2.2340449E-2,2.0322753E-2,-2.1988675E-2],"categories":[],"categories_nodes":[],"categories_segments":[],"categories_sizes":[],"default_left":[0,0,0,0,0,0,0,0,0,0,0,0,0,0,0],"id":54,"left_children":[1,3,5,7,9,11,13,-1,-1,-1,-1,-1,-1,-1,-1],"loss_changes":[1.3463919E4,2.1714941E2,7.9673467E3,1.8955469E2,6.164827E1,8.556622E3,1.2448627E4,0E0,0E0,0E0,0E0,0E0,0E0,0E0,0E0],"parents":[2147483647,0,0,1,1,2,2,3,3,4,4,5,5,6,6],"right_children":[2,4,6,8,10,12,14,-1,-1,-1,-1,-1,-1,-1,-1],"split_conditions":[-1.5032642E0,1.4550036E1,-1.3812049E-1,2.4131598E0,2.914867E1,-1.3812098E-1,-2.476145E-1,2.100345E-2,-1.5681764E-2,-6.9459416E-3,1.710857E-2,-1.3176806E-3,-2.2340449E-2,2.0322753E-2,-2.1988675E-2],"split_indices":[15,0,8,22,0,8,18,0,0,0,0,0,0,0,0],"split_type":[0,0,0,0,0,0,0,0,0,0,0,0,0,0,0],"sum_hessian":[4.244393E4,7.9809507E3,3.446298E4,7.824804E3,1.561465E2,2.41541E4,1.0308882E4,7.7822886E3,4.2515743E1,1.11453415E2,4.469309E1,1.3880379E4,1.027372E4,7.325567E3,2.9833147E3],"tree_param":{"num_deleted":"0","num_feature":"40","num_nodes":"15","size_leaf_vector":"1"}},{"base_weights":[1.1562487E-3,1.1683716E0,-2.6295236E-1,1.1943965E0,-5.754306E-3,-5.6946963E-1,4.578942E-1,2.1101272E-2,-1.50921E-2,-7.6489723E-3,1.4908117E-2,-8.962084E-4,-2.234243E-2,2.0598177E-2,-2.151818E-2],"categories":[],"categories_nodes":[],"categories_segments":[],"categories_sizes":[],"default_left":[0,0,0,0,0,0,0,0,0,0,0,0,0,0,0],"id":55,"left_children":[1,3,5,7,9,11,13,-1,-1,-1,-1,-1,-1,-1,-1],"loss_changes":[1.3085484E4,2.3934082E2,7.6485996E3,2.210664E2,6.3841995E1,8.934583E3,1.2598249E4,0E0,0E0,0E0,0E0,0E0,0E0,0E0,0E0],"parents":[2147483647,0,0,1,1,2,2,3,3,4,4,5,5,6,6],"right_children":[2,4,6,8,10,12,14,-1,-1,-1,-1,-1,-1,-1,-1],"split_conditions":[-1.5032642E0,1.4550036E1,-1.3812049E-1,2.7364855E0,2.914867E1,-1.3812098E-1,-2.4905622E-1,2.1101272E-2,-1.50921E-2,-7.6489723E-3,1.4908117E-2,-8.962084E-4,-2.234243E-2,2.0598177E-2,-2.151818E-2],"split_indices":[15,0,8,22,0,8,18,0,0,0,0,0,0,0,0],"split_type":[0,0,0,0,0,0,0,0,0,0,0,0,0,0,0],"sum_hessian":[4.2445906E4,7.831508E3,3.46144E4,7.6616675E3,1.6984055E2,2.4287229E4,1.0327169E4,7.610516E3,5.1151096E1,1.1333153E2,5.6509026E1,1.4040776E4,1.0246452E4,7.237302E3,3.089867E3],"tree_param":{"num_deleted":"0","num_feature":"40","num_nodes":"15","size_leaf_vector":"1"}},{"base_weights":[1.294812E-3,1.1672022E0,-2.6447943E-1,1.1796561E0,-1.1258411E0,-5.7267284E-1,4.5958242E-1,2.1016493E-2,-3.639625E-4,-3.2799903E-2,2.932451E-2,-9.6773606E-4,-2.2306072E-2,2.0350534E-2,-2.199619E-2],"categories":[],"categories_nodes":[],"categories_segments":[],"categories_sizes":[],"default_left":[0,0,0,0,0,0,0,0,0,0,0,0,0,0,0],"id":56,"left_children":[1,3,5,7,9,11,13,-1,-1,-1,-1,-1,-1,-1,-1],"loss_changes":[1.3145144E4,2.2621973E2,7.709389E3,2.2414551E2,9.4017456E1,8.83256E3,1.2517008E4,0E0,0E0,0E0,0E0,0E0,0E0,0E0,0E0],"parents":[2147483647,0,0,1,1,2,2,3,3,4,4,5,5,6,6],"right_children":[2,4,6,8,10,12,14,-1,-1,-1,-1,-1,-1,-1,-1],"split_conditions":[-1.5032642E0,2.4131598E0,-1.3812049E-1,1.4550036E1,-2.3865697E-1,-1.3812098E-1,-2.4787888E-1,2.1016493E-2,-3.639625E-4,-3.2799903E-2,2.932451E-2,-9.6773606E-4,-2.2306072E-2,2.0350534E-2,-2.199619E-2],"split_indices":[15,22,8,0,17,8,18,0,0,0,0,0,0,0,0],"split_type":[0,0,0,0,0,0,0,0,0,0,0,0,0,0,0],"sum_hessian":[4.241974E4,7.874077E3,3.454566E4,7.832026E3,4.2051323E1,2.4231744E4,1.0313916E4,7.6795605E3,1.5246558E2,3.341795E1,8.633374E0,1.3974716E4,1.0257028E4,7.3123164E3,3.0016003E3],"tree_param":{"num_deleted":"0","num_feature":"40","num_nodes":"15","size_leaf_vector":"1"}},{"base_weights":[1.8299221E-3,4.9737218E-1,-6.294691E-1,7.0345694E-1,-1.3997384E0,-1.2883024E0,2.7022183E-1,9.691268E-3,3.2608528E-2,-2.595048E-2,-2.2533622E-2,-2.2998245E-2,2.2019126E-2,2.1361228E-2,-2.3432013E-2],"categories":[],"categories_nodes":[],"categories_segments":[],"categories_sizes":[],"default_left":[0,0,0,0,0,0,0,0,0,0,0,0,0,0,0],"id":57,"left_children":[1,3,5,7,9,11,13,-1,-1,-1,-1,-1,-1,-1,-1],"loss_changes":[1.3277707E4,9.297453E3,1.1063891E4,3.7058838E3,2.0075195E1,7.8916406E2,1.2124467E4,0E0,0E0,0E0,0E0,0E0,0E0,0E0,0E0],"parents":[2147483647,0,0,1,1,2,2,3,3,4,4,5,5,6,6],"right_children":[2,4,6,8,10,12,14,-1,-1,-1,-1,-1,-1,-1,-1],"split_conditions":[-2.5075614E-1,9.2885554E-2,-2.507533E-1,6.829755E-1,-1.3812098E-1,-1.3812049E-1,-1.3774294E-1,9.691268E-3,3.2608528E-2,-2.595048E-2,-2.2533622E-2,-2.2998245E-2,2.2019126E-2,2.1361228E-2,-2.3432013E-2],"split_indices":[18,30,18,15,8,8,8,0,0,0,0,0,0,0,0],"split_type":[0,0,0,0,0,0,0,0,0,0,0,0,0,0,0],"sum_hessian":[4.2441117E4,2.3777234E4,1.8663883E4,2.1447955E4,2.3292805E3,1.0773869E4,7.8900127E3,1.9022348E4,2.425606E3,1.2949855E3,1.0342949E3,1.0654523E4,1.1934586E2,4.958731E3,2.9312815E3],"tree_param":{"num_deleted":"0","num_feature":"40","num_nodes":"15","size_leaf_vector":"1"}},{"base_weights":[-1.2000673E-5,8.8119686E-1,-3.5236764E-1,1.1684281E0,3.556376E-1,-6.513944E-1,3.4786543E-1,2.079728E-2,-4.965018E-4,-9.549767E-6,2.1914588E-2,-1.4231176E-2,2.8817141E-2,2.0383766E-2,-2.1292394E-2],"categories":[],"categories_nodes":[],"categories_segments":[],"categories_sizes":[],"default_left":[0,0,0,0,0,0,0,0,0,0,0,0,0,0,0],"id":58,"left_children":[1,3,5,7,9,11,13,-1,-1,-1,-1,-1,-1,-1,-1],"loss_changes":[1.3181739E4,1.8301504E3,6.3503516E3,2.1125781E2,1.3730967E3,8.0006533E3,1.165598E4,0E0,0E0,0E0,0E0,0E0,0E0,0E0,0E0],"parents":[2147483647,0,0,1,1,2,2,3,3,4,4,5,5,6,6],"right_children":[2,4,6,8,10,12,14,-1,-1,-1,-1,-1,-1,-1,-1],"split_conditions":[-1.2603487E0,3.6294868E0,-1.3812049E-1,1.4550036E1,-1.3812098E-1,-1.4871006E-1,-2.4918285E-1,2.079728E-2,-4.965018E-4,-9.549767E-6,2.1914588E-2,-1.4231176E-2,2.8817141E-2,2.0383766E-2,-2.1292394E-2],"split_indices":[15,13,8,0,8,17,18,0,0,0,0,0,0,0,0],"split_type":[0,0,0,0,0,0,0,0,0,0,0,0,0,0,0],"sum_hessian":[4.2451418E4,1.2125403E4,3.0326014E4,7.839628E3,4.285775E3,2.1251055E4,9.074958E3,7.6949194E3,1.447087E2,3.0705857E3,1.2151893E3,1.9841826E4,1.4092289E3,5.9593486E3,3.1156096E3],"tree_param":{"num_deleted":"0","num_feature":"40","num_nodes":"15","size_leaf_vector":"1"}},{"base_weights":[1.3541972E-3,4.9679446E-1,-6.21622E-1,7.0248514E-1,-1.3992493E0,-1.2869637E0,2.7820262E-1,9.566342E-3,3.2529555E-2,-2.595015E-2,-2.2533523E-2,-2.30414E-2,2.2045339E-2,2.1535847E-2,-2.3397736E-2],"categories":[],"categories_nodes":[],"categories_segments":[],"categories_sizes":[],"default_left":[0,0,0,0,0,0,0,0,0,0,0,0,0,0,0],"id":59,"left_children":[1,3,5,7,9,11,13,-1,-1,-1,-1,-1,-1,-1,-1],"loss_changes":[1.3083628E4,9.209641E3,1.1242674E4,3.82204E3,1.9916504E1,8.9560547E2,1.2338108E4,0E0,0E0,0E0,0E0,0E0,0E0,0E0,0E0],"parents":[2147483647,0,0,1,1,2,2,3,3,4,4,5,5,6,6],"right_children":[2,4,6,8,10,12,14,-1,-1,-1,-1,-1,-1,-1,-1],"split_conditions":[-2.5075614E-1,9.2885554E-2,-2.507533E-1,6.829755E-1,-1.3812098E-1,-1.3812049E-1,-1.377843E-1,9.566342E-3,3.2529555E-2,-2.595015E-2,-2.2533523E-2,-2.30414E-2,2.2045339E-2,2.1535847E-2,-2.3397736E-2],"split_indices":[18,30,18,15,8,8,8,0,0,0,0,0,0,0,0],"split_type":[0,0,0,0,0,0,0,0,0,0,0,0,0,0,0],"sum_hessian":[4.2388195E4,2.361103E4,1.8777166E4,2.1300854E4,2.3101753E3,1.0794872E4,7.982295E3,1.8796564E4,2.504288E3,1.2786814E3,1.0314939E3,1.0659547E4,1.353255E2,5.0197256E3,2.9625693E3],"tree_param":{"num_deleted":"0","num_feature":"40","num_nodes":"15","size_leaf_vector":"1"}},{"base_weights":[6.044043E-3,1.1288108E0,-2.4128942E-1,1.141614E0,-9.444311E-1,-5.210232E-1,4.457852E-1,2.0317448E-2,1.2724935E-3,-3.270798E-2,2.8875368E-2,-5.2562926E-4,-2.1636786E-2,1.9843373E-2,-2.0702315E-2],"categories":[],"categories_nodes":[],"categories_segments":[],"categories_sizes":[],"default_left":[0,0,0,0,0,0,0,0,0,0,0,0,0,0,0],"id":60,"left_children":[1,3,5,7,9,11,13,-1,-1,-1,-1,-1,-1,-1,-1],"loss_changes":[1.1086556E4,1.9238086E2,6.2882046E3,1.671582E2,1.1112296E2,8.195252E3,1.066488E4,0E0,0E0,0E0,0E0,0E0,0E0,0E0,0E0],"parents":[2147483647,0,0,1,1,2,2,3,3,4,4,5,5,6,6],"right_children":[2,4,6,8,10,12,14,-1,-1,-1,-1,-1,-1,-1,-1],"split_conditions":[-1.5032642E0,2.7364855E0,-1.3812049E-1,1.4550036E1,-2.3865697E-1,-1.3812098E-1,-2.4870272E-1,2.0317448E-2,1.2724935E-3,-3.270798E-2,2.8875368E-2,-5.2562926E-4,-2.1636786E-2,1.9843373E-2,-2.0702315E-2],"split_indices":[15,22,8,0,17,8,18,0,0,0,0,0,0,0,0],"split_type":[0,0,0,0,0,0,0,0,0,0,0,0,0,0,0],"sum_hessian":[3.9921117E4,7.2060034E3,3.2715115E4,7.162223E3,4.3780266E1,2.324958E4,9.465533E3,7.01867E3,1.4355312E2,3.2458126E1,1.1322143E1,1.3808833E4,9.440748E3,6.6506143E3,2.8149192E3],"tree_param":{"num_deleted":"0","num_feature":"40","num_nodes":"15","size_leaf_vector":"1"}},{"base_weights":[9.180157E-4,1.1268506E0,-2.4919014E-1,1.1509863E0,-1.2537229E-1,-5.2969456E-1,4.439997E-1,2.0306636E-2,-1.469158E-2,-1.023165E-2,1.5565429E-2,-8.279124E-4,-2.1615492E-2,1.9891426E-2,-2.052868E-2],"categories":[],"categories_nodes":[],"categories_segments":[],"categories_sizes":[],"default_left":[0,0,0,0,0,0,0,0,0,0,0,0,0,0,0],"id":61,"left_children":[1,3,5,7,9,11,13,-1,-1,-1,-1,-1,-1,-1,-1],"loss_changes":[1.1232444E4,2.1925977E2,6.3463374E3,1.6895898E2,6.5136185E1,7.9349844E3,1.0586022E4,0E0,0E0,0E0,0E0,0E0,0E0,0E0,0E0],"parents":[2147483647,0,0,1,1,2,2,3,3,4,4,5,5,6,6],"right_children":[2,4,6,8,10,12,14,-1,-1,-1,-1,-1,-1,-1,-1],"split_conditions":[-1.5032642E0,1.4550036E1,-1.3812049E-1,2.7364855E0,2.914867E1,-1.3812098E-1,-2.4919237E-1,2.0306636E-2,-1.469158E-2,-1.023165E-2,1.5565429E-2,-8.279124E-4,-2.1615492E-2,1.9891426E-2,-2.052868E-2],"split_indices":[15,0,8,22,0,8,18,0,0,0,0,0,0,0,0],"split_type":[0,0,0,0,0,0,0,0,0,0,0,0,0,0,0],"sum_hessian":[3.9885246E4,7.2488765E3,3.2636371E4,7.1118804E3,1.369962E2,2.3234566E4,9.401805E3,7.070229E3,4.1650986E1,9.4579056E1,4.241715E1,1.3821677E4,9.41289E3,6.578716E3,2.8230886E3],"tree_param":{"num_deleted":"0","num_feature":"40","num_nodes":"15","size_leaf_vector":"1"}},{"base_weights":[8.939067E-4,1.1283319E0,-2.4946003E-1,1.1558964E0,-3.3137545E-2,-5.283299E-1,4.4125167E-1,2.0447468E-2,-1.55205745E-2,-7.8936545E-3,1.4289132E-2,-8.2760525E-4,-2.1626953E-2,1.9801753E-2,-2.080529E-2],"categories":[],"categories_nodes":[],"categories_segments":[],"categories_sizes":[],"default_left":[0,0,0,0,0,0,0,0,0,0,0,0,0,0,0],"id":62,"left_children":[1,3,5,7,9,11,13,-1,-1,-1,-1,-1,-1,-1,-1],"loss_changes":[1.124418E4,2.3178418E2,6.279199E3,2.1802246E2,6.056215E1,7.930974E3,1.0605E4,0E0,0E0,0E0,0E0,0E0,0E0,0E0,0E0],"parents":[2147483647,0,0,1,1,2,2,3,3,4,4,5,5,6,6],"right_children":[2,4,6,8,10,12,14,-1,-1,-1,-1,-1,-1,-1,-1],"split_conditions":[-1.5032642E0,1.4550036E1,-1.3812049E-1,2.7364855E0,2.914867E1,-1.3812098E-1,-2.4905622E-1,2.0447468E-2,-1.55205745E-2,-7.8936545E-3,1.4289132E-2,-8.2760525E-4,-2.1626953E-2,1.9801753E-2,-2.080529E-2],"split_indices":[15,0,8,22,0,8,18,0,0,0,0,0,0,0,0],"split_type":[0,0,0,0,0,0,0,0,0,0,0,0,0,0,0],"sum_hessian":[3.9834457E4,7.237548E3,3.259691E4,7.0697695E3,1.677783E2,2.3221594E4,9.375316E3,7.0186777E3,5.10919E1,1.1276628E2,5.501202E1,1.3845548E4,9.376046E3,6.582773E3,2.7925432E3],"tree_param":{"num_deleted":"0","num_feature":"40","num_nodes":"15","size_leaf_vector":"1"}},{"base_weights":[-3.100839E-3,1.1277794E0,-2.6013163E-1,1.1524317E0,-2.4889609E-2,-5.464107E-1,4.461688E-1,2.0341411E-2,-1.6111711E-2,-7.187095E-3,1.6551029E-2,-1.2409791E-3,-2.1625433E-2,1.9533118E-2,-2.1318488E-2],"categories":[],"categories_nodes":[],"categories_segments":[],"categories_sizes":[],"default_left":[0,0,0,0,0,0,0,0,0,0,0,0,0,0,0],"id":63,"left_children":[1,3,5,7,9,11,13,-1,-1,-1,-1,-1,-1,-1,-1],"loss_changes":[1.1575477E4,2.0959766E2,6.5612593E3,1.8686719E2,5.8839184E1,7.594599E3,1.0491417E4,0E0,0E0,0E0,0E0,0E0,0E0,0E0,0E0],"parents":[2147483647,0,0,1,1,2,2,3,3,4,4,5,5,6,6],"right_children":[2,4,6,8,10,12,14,-1,-1,-1,-1,-1,-1,-1,-1],"split_conditions":[-1.5032642E0,1.4550036E1,-1.3812049E-1,2.4131598E0,2.914867E1,-1.3812098E-1,-2.476145E-1,2.0341411E-2,-1.6111711E-2,-7.187095E-3,1.6551029E-2,-1.2409791E-3,-2.1625433E-2,1.9533118E-2,-2.1318488E-2],"split_indices":[15,0,8,22,0,8,18,0,0,0,0,0,0,0,0],"split_type":[0,0,0,0,0,0,0,0,0,0,0,0,0,0,0],"sum_hessian":[3.982129E4,7.373979E3,3.2447309E4,7.2195723E3,1.5440665E2,2.3089041E4,9.358268E3,7.177122E3,4.2450104E1,1.10897545E2,4.35091E1,1.3687362E4,9.401679E3,6.668721E3,2.6895464E3],"tree_param":{"num_deleted":"0","num_feature":"40","num_nodes":"15","size_leaf_vector":"1"}},{"base_weights":[1.0623274E-3,1.1269951E0,-2.4973428E-1,1.151782E0,-9.202096E-2,-5.2715063E-1,4.3857753E-1,2.0355657E-2,-1.479213E-2,-1.0435894E-2,1.4289221E-2,-7.6126267E-4,-2.1608835E-2,1.9506183E-2,-2.1332128E-2],"categories":[],"categories_nodes":[],"categories_segments":[],"categories_sizes":[],"default_left":[0,0,0,0,0,0,0,0,0,0,0,0,0,0,0],"id":64,"left_children":[1,3,5,7,9,11,13,-1,-1,-1,-1,-1,-1,-1,-1],"loss_changes":[1.1233543E4,2.1907812E2,6.2126934E3,1.9783496E2,6.738001E1,7.9642974E3,1.0528166E4,0E0,0E0,0E0,0E0,0E0,0E0,0E0,0E0],"parents":[2147483647,0,0,1,1,2,2,3,3,4,4,5,5,6,6],"right_children":[2,4,6,8,10,12,14,-1,-1,-1,-1,-1,-1,-1,-1],"split_conditions":[-1.5032642E0,1.4550036E1,-1.3812049E-1,2.7364855E0,2.914867E1,-1.3812098E-1,-2.4788351E-1,2.0355657E-2,-1.479213E-2,-1.0435894E-2,1.4289221E-2,-7.6126267E-4,-2.1608835E-2,1.9506183E-2,-2.1332128E-2],"split_indices":[15,0,8,22,0,8,18,0,0,0,0,0,0,0,0],"split_type":[0,0,0,0,0,0,0,0,0,0,0,0,0,0,0],"sum_hessian":[3.9779637E4,7.2459575E3,3.2533682E4,7.1016113E3,1.4434578E2,2.318818E4,9.345502E3,7.0531025E3,4.8508926E1,9.3023094E1,5.132269E1,1.37963955E4,9.391783E3,6.634575E3,2.7109265E3],"tree_param":{"num_deleted":"0","num_feature":"40","num_nodes":"15","size_leaf_vector":"1"}},{"base_weights":[-4.774344E-5,1.1282771E0,-2.5077778E-1,1.1521233E0,-5.538439E-2,-5.278286E-1,4.3897673E-1,2.0322308E-2,-1.803744E-2,-7.922911E-3,1.40954275E-2,-7.926224E-4,-2.1641886E-2,1.9853357E-2,-2.0560129E-2],"categories":[],"categories_nodes":[],"categories_segments":[],"categories_sizes":[],"default_left":[0,0,0,0,0,0,0,0,0,0,0,0,0,0,0],"id":65,"left_children":[1,3,5,7,9,11,13,-1,-1,-1,-1,-1,-1,-1,-1],"loss_changes":[1.1270665E4,2.0451074E2,6.2291924E3,1.813916E2,4.98381E1,7.982237E3,1.0538795E4,0E0,0E0,0E0,0E0,0E0,0E0,0E0,0E0],"parents":[2147483647,0,0,1,1,2,2,3,3,4,4,5,5,6,6],"right_children":[2,4,6,8,10,12,14,-1,-1,-1,-1,-1,-1,-1,-1],"split_conditions":[-1.5032642E0,1.4550036E1,-1.3812049E-1,2.4131598E0,2.914867E1,-1.3812098E-1,-2.4918285E-1,2.0322308E-2,-1.803744E-2,-7.922911E-3,1.40954275E-2,-7.926224E-4,-2.1641886E-2,1.9853357E-2,-2.0560129E-2],"split_indices":[15,0,8,22,0,8,18,0,0,0,0,0,0,0,0],"split_type":[0,0,0,0,0,0,0,0,0,0,0,0,0,0,0],"sum_hessian":[3.9837062E4,7.2422573E3,3.2594805E4,7.099261E3,1.4299629E2,2.3254502E4,9.340303E3,7.0621895E3,3.7071846E1,9.8147095E1,4.4849194E1,1.3858393E4,9.396108E3,6.5237485E3,2.8165544E3],"tree_param":{"num_deleted":"0","num_feature":"40","num_nodes":"15","size_leaf_vector":"1"}},{"base_weights":[1.1700947E-3,1.1269962E0,-2.5063348E-1,1.1403579E0,-1.1468202E0,-5.310968E-1,4.431381E-1,2.0355316E-2,-8.20168E-4,-3.2925043E-2,2.8393798E-2,-8.873878E-4,-2.1587143E-2,1.955869E-2,-2.1327773E-2],"categories":[],"categories_nodes":[],"categories_segments":[],"categories_sizes":[],"default_left":[0,0,0,0,0,0,0,0,0,0,0,0,0,0,0],"id":66,"left_children":[1,3,5,7,9,11,13,-1,-1,-1,-1,-1,-1,-1,-1],"loss_changes":[1.1284693E4,2.2236328E2,6.330007E3,2.1710254E2,9.113687E1,7.844798E3,1.0552793E4,0E0,0E0,0E0,0E0,0E0,0E0,0E0,0E0],"parents":[2147483647,0,0,1,1,2,2,3,3,4,4,5,5,6,6],"right_children":[2,4,6,8,10,12,14,-1,-1,-1,-1,-1,-1,-1,-1],"split_conditions":[-1.5032642E0,2.4131598E0,-1.3812049E-1,1.4550036E1,-2.3865697E-1,-1.3812098E-1,-2.4787888E-1,2.0355316E-2,-8.20168E-4,-3.2925043E-2,2.8393798E-2,-8.873878E-4,-2.1587143E-2,1.955869E-2,-2.1327773E-2],"split_indices":[15,22,8,0,17,8,18,0,0,0,0,0,0,0,0],"split_type":[0,0,0,0,0,0,0,0,0,0,0,0,0,0,0],"sum_hessian":[3.9804742E4,7.2748877E3,3.2529855E4,7.2328833E3,4.2004234E1,2.3165309E4,9.364548E3,7.08217E3,1.507134E2,3.342152E1,8.582712E0,1.3779816E4,9.385491E3,6.6575103E3,2.7070376E3],"tree_param":{"num_deleted":"0","num_feature":"40","num_nodes":"15","size_leaf_vector":"1"}},{"base_weights":[1.713711E-3,1.1244013E0,-2.506891E-1,1.1518867E0,-8.177789E-2,-5.2948886E-1,4.4249865E-1,2.0356447E-2,-2.0819396E-2,-1.0038671E-2,1.6990168E-2,-8.1491785E-4,-2.1629421E-2,1.952101E-2,-2.131742E-2],"categories":[],"categories_nodes":[],"categories_segments":[],"categories_sizes":[],"default_left":[0,0,0,0,0,0,0,0,0,0,0,0,0,0,0],"id":67,"left_children":[1,3,5,7,9,11,13,-1,-1,-1,-1,-1,-1,-1,-1],"loss_changes":[1.1287286E4,2.4248145E2,6.2852666E3,2.3273828E2,8.575745E1,7.9406333E3,1.047994E4,0E0,0E0,0E0,0E0,0E0,0E0,0E0,0E0],"parents":[2147483647,0,0,1,1,2,2,3,3,4,4,5,5,6,6],"right_children":[2,4,6,8,10,12,14,-1,-1,-1,-1,-1,-1,-1,-1],"split_conditions":[-1.5032642E0,1.4550036E1,-1.3812049E-1,2.4131598E0,2.914867E1,-1.3812098E-1,-2.475395E-1,2.0356447E-2,-2.0819396E-2,-1.0038671E-2,1.6990168E-2,-8.1491785E-4,-2.1629421E-2,1.952101E-2,-2.131742E-2],"split_indices":[15,0,8,22,0,8,18,0,0,0,0,0,0,0,0],"split_type":[0,0,0,0,0,0,0,0,0,0,0,0,0,0,0],"sum_hessian":[3.9830402E4,7.3103794E3,3.2520021E4,7.1475527E3,1.6282674E2,2.3192318E4,9.327703E3,7.106202E3,4.1350666E1,1.1126499E2,5.156175E1,1.3798222E4,9.394096E3,6.634202E3,2.6935012E3],"tree_param":{"num_deleted":"0","num_feature":"40","num_nodes":"15","size_leaf_vector":"1"}},{"base_weights":[1.1511286E-3,1.083485E0,-2.2985189E-1,1.1099447E0,-8.9533016E-2,-4.769026E-1,4.2145813E-1,1.9627962E-2,-1.2666039E-2,-9.301732E-3,1.3318916E-2,-6.4537144E-4,-2.089348E-2,1.9147955E-2,-1.9763397E-2],"categories":[],"categories_nodes":[],"categories_segments":[],"categories_sizes":[],"default_left":[0,0,0,0,0,0,0,0,0,0,0,0,0,0,0],"id":68,"left_children":[1,3,5,7,9,11,13,-1,-1,-1,-1,-1,-1,-1,-1],"loss_changes":[9.293407E3,2.0301855E2,4.9291577E3,1.6546924E2,5.521965E1,7.030412E3,8.833924E3,0E0,0E0,0E0,0E0,0E0,0E0,0E0,0E0],"parents":[2147483647,0,0,1,1,2,2,3,3,4,4,5,5,6,6],"right_children":[2,4,6,8,10,12,14,-1,-1,-1,-1,-1,-1,-1,-1],"split_conditions":[-1.5032642E0,1.4550036E1,-1.3812049E-1,2.7364855E0,2.914867E1,-1.3812098E-1,-2.4928412E-1,1.9627962E-2,-1.2666039E-2,-9.301732E-3,1.3318916E-2,-6.4537144E-4,-2.089348E-2,1.9147955E-2,-1.9763397E-2],"split_indices":[15,0,8,22,0,8,18,0,0,0,0,0,0,0,0],"split_type":[0,0,0,0,0,0,0,0,0,0,0,0,0,0,0],"sum_hessian":[3.71683E4,6.536888E3,3.063141E4,6.3927417E3,1.4414685E2,2.2207916E4,8.423496E3,6.344619E3,4.812241E1,9.5082855E1,4.9064E1,1.3782196E4,8.425719E3,5.871834E3,2.5516616E3],"tree_param":{"num_deleted":"0","num_feature":"40","num_nodes":"15","size_leaf_vector":"1"}},{"base_weights":[8.331504E-4,1.0831395E0,-2.2952262E-1,1.1088592E0,-1.1600261E-1,-4.7954226E-1,4.2712092E-1,1.9573435E-2,-1.25742005E-2,-9.101674E-3,1.4656511E-2,-7.120982E-4,-2.0900022E-2,1.9151058E-2,-1.9882297E-2],"categories":[],"categories_nodes":[],"categories_segments":[],"categories_sizes":[],"default_left":[0,0,0,0,0,0,0,0,0,0,0,0,0,0,0],"id":69,"left_children":[1,3,5,7,9,11,13,-1,-1,-1,-1,-1,-1,-1,-1],"loss_changes":[9.290805E3,2.0181885E2,5.0445537E3,1.4126172E2,5.3941242E1,7.003417E3,8.883747E3,0E0,0E0,0E0,0E0,0E0,0E0,0E0,0E0],"parents":[2147483647,0,0,1,1,2,2,3,3,4,4,5,5,6,6],"right_children":[2,4,6,8,10,12,14,-1,-1,-1,-1,-1,-1,-1,-1],"split_conditions":[-1.5032642E0,1.4550036E1,-1.3812049E-1,2.7364855E0,2.914867E1,-1.3812098E-1,-2.4919237E-1,1.9573435E-2,-1.25742005E-2,-9.101674E-3,1.4656511E-2,-7.120982E-4,-2.0900022E-2,1.9151058E-2,-1.9882297E-2],"split_indices":[15,0,8,22,0,8,18,0,0,0,0,0,0,0,0],"split_type":[0,0,0,0,0,0,0,0,0,0,0,0,0,0,0],"sum_hessian":[3.726325E4,6.5385835E3,3.0724664E4,6.40136E3,1.3722366E2,2.2252287E4,8.472377E3,6.3600347E3,4.132565E1,9.667327E1,4.055039E1,1.3807305E4,8.444983E3,5.934725E3,2.537652E3],"tree_param":{"num_deleted":"0","num_feature":"40","num_nodes":"15","size_leaf_vector":"1"}},{"base_weights":[1.0156718E-3,1.0834973E0,-2.3100482E-1,1.1098754E0,-3.6017388E-2,-4.8101753E-1,4.2616034E-1,1.9627582E-2,-1.7830897E-2,-4.719602E-3,9.551644E-3,-7.716452E-4,-2.0869538E-2,1.9221991E-2,-1.9711284E-2],"categories":[],"categories_nodes":[],"categories_segments":[],"categories_sizes":[],"default_left":[0,0,0,0,0,0,0,0,0,0,0,0,0,0,0],"id":70,"left_children":[1,3,5,7,9,11,13,-1,-1,-1,-1,-1,-1,-1,-1],"loss_changes":[9.340742E3,1.9389355E2,5.032086E3,1.9356543E2,2.0916178E1,6.920333E3,8.854881E3,0E0,0E0,0E0,0E0,0E0,0E0,0E0,0E0],"parents":[2147483647,0,0,1,1,2,2,3,3,4,4,5,5,6,6],"right_children":[2,4,6,8,10,12,14,-1,-1,-1,-1,-1,-1,-1,-1],"split_conditions":[-1.5032642E0,1.4550036E1,-1.3812049E-1,2.4131598E0,2.914867E1,-1.3812098E-1,-2.4931091E-1,1.9627582E-2,-1.7830897E-2,-4.719602E-3,9.551644E-3,-7.716452E-4,-2.0869538E-2,1.9221991E-2,-1.9711284E-2],"split_indices":[15,0,8,22,0,8,18,0,0,0,0,0,0,0,0],"split_type":[0,0,0,0,0,0,0,0,0,0,0,0,0,0,0],"sum_hessian":[3.7188715E4,6.5634673E3,3.0625246E4,6.4123867E3,1.5108046E2,2.2185309E4,8.4399375E3,6.3707666E3,4.1620464E1,1.0815824E2,4.2922215E1,1.3765323E4,8.419984E3,5.886485E3,2.553453E3],"tree_param":{"num_deleted":"0","num_feature":"40","num_nodes":"15","size_leaf_vector":"1"}},{"base_weights":[1.6689091E-3,4.3299466E-1,-5.8397114E-1,6.243047E-1,-1.3417759E0,-1.2225777E0,2.9445493E-1,8.153242E-3,3.192677E-2,-2.5016053E-2,-2.1076515E-2,-2.1804923E-2,2.0676017E-2,2.0632813E-2,-2.2855457E-2],"categories":[],"categories_nodes":[],"categories_segments":[],"categories_sizes":[],"default_left":[0,0,0,0,0,0,0,0,0,0,0,0,0,0,0],"id":71,"left_children":[1,3,5,7,9,11,13,-1,-1,-1,-1,-1,-1,-1,-1],"loss_changes":[9.400963E3,7.2776396E3,8.8550625E3,3.6658638E3,2.3794434E1,5.747207E2,9.452656E3,0E0,0E0,0E0,0E0,0E0,0E0,0E0,0E0],"parents":[2147483647,0,0,1,1,2,2,3,3,4,4,5,5,6,6],"right_children":[2,4,6,8,10,12,14,-1,-1,-1,-1,-1,-1,-1,-1],"split_conditions":[-2.5075614E-1,9.2885554E-2,-2.507533E-1,6.829755E-1,-1.3812098E-1,-1.3812049E-1,-1.3774294E-1,8.153242E-3,3.192677E-2,-2.5016053E-2,-2.1076515E-2,-2.1804923E-2,2.0676017E-2,2.0632813E-2,-2.2855457E-2],"split_indices":[18,30,18,15,8,8,8,0,0,0,0,0,0,0,0],"split_type":[0,0,0,0,0,0,0,0,0,0,0,0,0,0,0],"sum_hessian":[3.721456E4,2.1430896E4,1.5783664E4,1.9346143E4,2.0847544E3,9.139182E3,6.644482E3,1.7110348E4,2.2357944E3,1.2404136E3,8.443408E2,9.04175E3,9.743157E1,4.277851E3,2.366631E3],"tree_param":{"num_deleted":"0","num_feature":"40","num_nodes":"15","size_leaf_vector":"1"}},{"base_weights":[9.0174185E-4,1.0852838E0,-2.2992021E-1,1.1146071E0,-2.6550243E-2,-4.7827837E-1,4.2392164E-1,1.9729957E-2,-1.3376127E-2,-6.812021E-3,1.3317521E-2,-7.1178266E-4,-2.0913823E-2,1.9048646E-2,-2.0175463E-2],"categories":[],"categories_nodes":[],"categories_segments":[],"categories_sizes":[],"default_left":[0,0,0,0,0,0,0,0,0,0,0,0,0,0,0],"id":72,"left_children":[1,3,5,7,9,11,13,-1,-1,-1,-1,-1,-1,-1,-1],"loss_changes":[9.317532E3,2.1302783E2,4.984247E3,1.829414E2,4.873977E1,7.0005596E3,8.900093E3,0E0,0E0,0E0,0E0,0E0,0E0,0E0,0E0],"parents":[2147483647,0,0,1,1,2,2,3,3,4,4,5,5,6,6],"right_children":[2,4,6,8,10,12,14,-1,-1,-1,-1,-1,-1,-1,-1],"split_conditions":[-1.5032642E0,1.4550036E1,-1.3812049E-1,2.7364855E0,2.914867E1,-1.3812098E-1,-2.4905622E-1,1.9729957E-2,-1.3376127E-2,-6.812021E-3,1.3317521E-2,-7.1178266E-4,-2.0913823E-2,1.9048646E-2,-2.0175463E-2],"split_indices":[15,0,8,22,0,8,18,0,0,0,0,0,0,0,0],"split_type":[0,0,0,0,0,0,0,0,0,0,0,0,0,0,0],"sum_hessian":[3.7223582E4,6.5321924E3,3.069139E4,6.3643384E3,1.6785417E2,2.2242842E4,8.448551E3,6.313672E3,5.0666344E1,1.1526321E2,5.259097E1,1.3831297E4,8.411545E3,5.940376E3,2.5081746E3],"tree_param":{"num_deleted":"0","num_feature":"40","num_nodes":"15","size_leaf_vector":"1"}},{"base_weights":[-1.3140752E-5,1.0846784E0,-2.3092827E-1,1.1100373E0,-4.6712976E-2,-4.7771373E-1,4.2217758E-1,1.9590931E-2,-1.587183E-2,-6.8420344E-3,1.3119193E-2,-6.767716E-4,-2.0929273E-2,1.9108579E-2,-1.9913731E-2],"categories":[],"categories_nodes":[],"categories_segments":[],"categories_sizes":[],"default_left":[0,0,0,0,0,0,0,0,0,0,0,0,0,0,0],"id":73,"left_children":[1,3,5,7,9,11,13,-1,-1,-1,-1,-1,-1,-1,-1],"loss_changes":[9.323799E3,1.8751025E2,4.9469253E3,1.535044E2,4.0001747E1,7.047608E3,8.840239E3,0E0,0E0,0E0,0E0,0E0,0E0,0E0,0E0],"parents":[2147483647,0,0,1,1,2,2,3,3,4,4,5,5,6,6],"right_children":[2,4,6,8,10,12,14,-1,-1,-1,-1,-1,-1,-1,-1],"split_conditions":[-1.5032642E0,1.4550036E1,-1.3812049E-1,2.4131598E0,2.914867E1,-1.3812098E-1,-2.4918285E-1,1.9590931E-2,-1.587183E-2,-6.8420344E-3,1.3119193E-2,-6.767716E-4,-2.0929273E-2,1.9108579E-2,-1.9913731E-2],"split_indices":[15,0,8,22,0,8,18,0,0,0,0,0,0,0,0],"split_type":[0,0,0,0,0,0,0,0,0,0,0,0,0,0,0],"sum_hessian":[3.722296E4,6.5327207E3,3.069024E4,6.389525E3,1.4319571E2,2.2273969E4,8.416271E3,6.3527803E3,3.6744957E1,1.0032031E2,4.2875397E1,1.3843978E4,8.42999E3,5.885255E3,2.5310159E3],"tree_param":{"num_deleted":"0","num_feature":"40","num_nodes":"15","size_leaf_vector":"1"}},{"base_weights":[6.639692E-3,4.3886295E-1,-5.710202E-1,6.351025E-1,-1.3414863E0,-1.2495909E0,3.2024533E-1,8.299121E-3,3.1476952E-2,-2.5016172E-2,-2.1076929E-2,-2.0697957E-2,-2.490221E-2,2.07777E-2,-2.2545498E-2],"categories":[],"categories_nodes":[],"categories_segments":[],"categories_sizes":[],"default_left":[0,0,0,0,0,0,0,0,0,0,0,0,0,0,0],"id":74,"left_children":[1,3,5,7,9,11,13,-1,-1,-1,-1,-1,-1,-1,-1],"loss_changes":[9.312123E3,7.4543633E3,9.65441E3,3.5853457E3,2.4218018E1,1.01177734E2,9.670395E3,0E0,0E0,0E0,0E0,0E0,0E0,0E0,0E0],"parents":[2147483647,0,0,1,1,2,2,3,3,4,4,5,5,6,6],"right_children":[2,4,6,8,10,12,14,-1,-1,-1,-1,-1,-1,-1,-1],"split_conditions":[-2.5075614E-1,9.2885554E-2,-2.5075376E-1,6.829755E-1,-1.3812098E-1,3.1373057E0,-1.3776776E-1,8.299121E-3,3.1476952E-2,-2.5016172E-2,-2.1076929E-2,-2.0697957E-2,-2.490221E-2,2.07777E-2,-2.2545498E-2],"split_indices":[18,30,18,15,8,12,8,0,0,0,0,0,0,0,0],"split_type":[0,0,0,0,0,0,0,0,0,0,0,0,0,0,0],"sum_hessian":[3.729452E4,2.133285E4,1.5961668E4,1.9215463E4,2.1173875E3,9.061917E3,6.899751E3,1.6902297E4,2.313166E3,1.257072E3,8.603153E2,6.645744E3,2.416173E3,4.4814805E3,2.4182708E3],"tree_param":{"num_deleted":"0","num_feature":"40","num_nodes":"15","size_leaf_vector":"1"}},{"base_weights":[-3.9072707E-3,1.0843472E0,-2.4099806E-1,1.1104789E0,-1.1678053E-2,-4.9677247E-1,4.2939278E-1,1.9612014E-2,-1.3978705E-2,-6.1207903E-3,1.5685871E-2,-1.1256135E-3,-2.0911302E-2,1.876696E-2,-2.0723835E-2],"categories":[],"categories_nodes":[],"categories_segments":[],"categories_sizes":[],"default_left":[0,0,0,0,0,0,0,0,0,0,0,0,0,0,0],"id":75,"left_children":[1,3,5,7,9,11,13,-1,-1,-1,-1,-1,-1,-1,-1],"loss_changes":[9.597536E3,1.9059717E2,5.2374355E3,1.5719678E2,4.8393444E1,6.6971226E3,8.798273E3,0E0,0E0,0E0,0E0,0E0,0E0,0E0,0E0],"parents":[2147483647,0,0,1,1,2,2,3,3,4,4,5,5,6,6],"right_children":[2,4,6,8,10,12,14,-1,-1,-1,-1,-1,-1,-1,-1],"split_conditions":[-1.5032642E0,1.4550036E1,-1.3812049E-1,2.4131598E0,2.914867E1,-1.3812098E-1,-2.476145E-1,1.9612014E-2,-1.3978705E-2,-6.1207903E-3,1.5685871E-2,-1.1256135E-3,-2.0911302E-2,1.876696E-2,-2.0723835E-2],"split_indices":[15,0,8,22,0,8,18,0,0,0,0,0,0,0,0],"split_type":[0,0,0,0,0,0,0,0,0,0,0,0,0,0,0],"sum_hessian":[3.719556E4,6.653267E3,3.054229E4,6.49832E3,1.5494739E2,2.2107766E4,8.434523E3,6.4562153E3,4.2104744E1,1.13353096E2,4.1594288E1,1.3672915E4,8.434851E3,6.0280166E3,2.4065073E3],"tree_param":{"num_deleted":"0","num_feature":"40","num_nodes":"15","size_leaf_vector":"1"}},{"base_weights":[6.7787217E-3,1.051778E0,-2.0735185E-1,1.0651476E0,-7.569055E-1,-6.425249E-2,-1.2562954E0,1.903248E-2,1.0877331E-3,-2.938057E-2,3.04263E-2,-6.5416093E-3,2.0101463E-2,-2.4613103E-2,-2.0466788E-2],"categories":[],"categories_nodes":[],"categories_segments":[],"categories_sizes":[],"default_left":[0,0,0,0,0,0,0,0,0,0,0,0,0,0,0],"id":76,"left_children":[1,3,5,7,9,11,13,-1,-1,-1,-1,-1,-1,-1,-1],"loss_changes":[7.816428E3,1.4445605E2,4.3515244E3,1.4618457E2,1.0511291E2,9.622842E3,4.326953E1,0E0,0E0,0E0,0E0,0E0,0E0,0E0,0E0],"parents":[2147483647,0,0,1,1,2,2,3,3,4,4,5,5,6,6],"right_children":[2,4,6,8,10,12,14,-1,-1,-1,-1,-1,-1,-1,-1],"split_conditions":[-1.5032642E0,2.7364855E0,9.2885554E-2,1.4550036E1,-2.3865697E-1,6.829755E-1,-1.3812098E-1,1.903248E-2,1.0877331E-3,-2.938057E-2,3.04263E-2,-6.5416093E-3,2.0101463E-2,-2.4613103E-2,-2.0466788E-2],"split_indices":[15,22,30,0,17,15,8,0,0,0,0,0,0,0,0],"split_type":[0,0,0,0,0,0,0,0,0,0,0,0,0,0,0],"sum_hessian":[3.4929242E4,5.939484E3,2.898976E4,5.8963096E3,4.317403E1,2.5510604E4,3.4791555E3,5.754328E3,1.4198184E2,3.1744776E1,1.1429252E1,2.0321943E4,5.188659E3,1.2294427E3,2.2497126E3],"tree_param":{"num_deleted":"0","num_feature":"40","num_nodes":"15","size_leaf_vector":"1"}},{"base_weights":[2.7438605E-4,1.049278E0,-2.16352E-1,1.0767201E0,-1.2579998E-1,-7.684477E-2,-1.2557739E0,1.9019173E-2,-1.1444153E-2,-8.553389E-3,1.3714827E-2,-6.7495247E-3,2.0148363E-2,-2.461279E-2,-2.0466032E-2],"categories":[],"categories_nodes":[],"categories_segments":[],"categories_sizes":[],"default_left":[0,0,0,0,0,0,0,0,0,0,0,0,0,0,0],"id":77,"left_children":[1,3,5,7,9,11,13,-1,-1,-1,-1,-1,-1,-1,-1],"loss_changes":[7.9328354E3,1.9281104E2,4.1955503E3,1.2606543E2,4.590582E1,9.722161E3,4.243701E1,0E0,0E0,0E0,0E0,0E0,0E0,0E0,0E0],"parents":[2147483647,0,0,1,1,2,2,3,3,4,4,5,5,6,6],"right_children":[2,4,6,8,10,12,14,-1,-1,-1,-1,-1,-1,-1,-1],"split_conditions":[-1.5032642E0,1.4550036E1,9.2885554E-2,2.7364855E0,2.914867E1,6.829755E-1,-1.3812098E-1,1.9019173E-2,-1.1444153E-2,-8.553389E-3,1.3714827E-2,-6.7495247E-3,2.0148363E-2,-2.461279E-2,-2.0466032E-2],"split_indices":[15,0,30,22,0,15,8,0,0,0,0,0,0,0,0],"split_type":[0,0,0,0,0,0,0,0,0,0,0,0,0,0,0],"sum_hessian":[3.4907215E4,5.974093E3,2.8933123E4,5.837843E3,1.3624985E2,2.55103E4,3.422821E3,5.796732E3,4.1111187E1,9.768723E1,3.856261E1,2.0382225E4,5.128077E3,1.2024204E3,2.2204006E3],"tree_param":{"num_deleted":"0","num_feature":"40","num_nodes":"15","size_leaf_vector":"1"}},{"base_weights":[1.2823858E-3,1.0466926E0,-2.1730076E-1,1.0778809E0,-8.38779E-2,-7.633476E-2,-1.2559898E0,1.908003E-2,-1.7556239E-2,-8.363943E-3,1.5270668E-2,-6.689969E-3,2.0338796E-2,-2.4612974E-2,-2.0466348E-2],"categories":[],"categories_nodes":[],"categories_segments":[],"categories_sizes":[],"default_left":[0,0,0,0,0,0,0,0,0,0,0,0,0,0,0],"id":78,"left_children":[1,3,5,7,9,11,13,-1,-1,-1,-1,-1,-1,-1,-1],"loss_changes":[7.96752E3,2.127002E2,4.2223276E3,1.8102246E2,6.205664E1,9.667339E3,4.276709E1,0E0,0E0,0E0,0E0,0E0,0E0,0E0,0E0],"parents":[2147483647,0,0,1,1,2,2,3,3,4,4,5,5,6,6],"right_children":[2,4,6,8,10,12,14,-1,-1,-1,-1,-1,-1,-1,-1],"split_conditions":[-1.5032642E0,1.4550036E1,9.2885554E-2,2.4131598E0,2.914867E1,6.829755E-1,-1.3812098E-1,1.908003E-2,-1.7556239E-2,-8.363943E-3,1.5270668E-2,-6.689969E-3,2.0338796E-2,-2.4612974E-2,-2.0466348E-2],"split_indices":[15,0,30,22,0,15,8,0,0,0,0,0,0,0,0],"split_type":[0,0,0,0,0,0,0,0,0,0,0,0,0,0,0],"sum_hessian":[3.486542E4,6.0286436E3,2.8836777E4,5.8668457E3,1.6179774E2,2.5391795E4,3.4449817E3,5.8261562E3,4.0689293E1,1.14921524E2,4.6876225E1,2.035985E4,5.0319463E3,1.213151E3,2.2318308E3],"tree_param":{"num_deleted":"0","num_feature":"40","num_nodes":"15","size_leaf_vector":"1"}},{"base_weights":[6.040888E-4,1.0497632E0,-2.1762593E-1,1.0778385E0,-4.3850638E-2,-7.756206E-2,-1.2574769E0,