{"learner":{"attributes":{},"feature_names":[],"feature_types":[],"gradient_booster":{"model":{"gbtree_model_param":{"num_parallel_tree":"1","num_trees":"164"},"iteration_indptr":[0,1,2,3,4,5,6,7,8,9,10,11,12,13,14,15,16,17,18,19,20,21,22,23,24,25,26,27,28,29,30,31,32,33,34,35,36,37,38,39,40,41,42,43,44,45,46,47,48,49,50,51,52,53,54,55,56,57,58,59,60,61,62,63,64,65,66,67,68,69,70,71,72,73,74,75,76,77,78,79,80,81,82,83,84,85,86,87,88,89,90,91,92,93,94,95,96,97,98,99,100,101,102,103,104,105,106,107,108,109,110,111,112,113,114,115,116,117,118,119,120,121,122,123,124,125,126,127,128,129,130,131,132,133,134,135,136,137,138,139,140,141,142,143,144,145,146,147,148,149,150,151,152,153,154,155,156,157,158,159,160,161,162,163,164],"tree_info":[0,0,0,0,0,0,0,0,0,0,0,0,0,0,0,0,0,0,0,0,0,0,0,0,0,0,0,0,0,0,0,0,0,0,0,0,0,0,0,0,0,0,0,0,0,0,0,0,0,0,0,0,0,0,0,0,0,0,0,0,0,0,0,0,0,0,0,0,0,0,0,0,0,0,0,0,0,0,0,0,0,0,0,0,0,0,0,0,0,0,0,0,0,0,0,0,0,0,0,0,0,0,0,0,0,0,0,0,0,0,0,0,0,0,0,0,0,0,0,0,0,0,0,0,0,0,0,0,0,0,0,0,0,0,0,0,0,0,0,0,0,0,0,0,0,0,0,0,0,0,0,0,0,0,0,0,0,0,0,0,0,0,0,0],"trees":[{"base_weights":[4.466332E-3,-1.1462895E0,1.9532778E0,-1.3391681E0,1.9901278E0,1.9958758E0,-1.3023968E0,-1.3977417E0,1.9583485E0,4.0303048E-1,3.699759E-2,4.040716E-1,-3.272342E-1,3.6804694E-1,-1.8911706E0,-1.4398061E0,1.3472977E0,4.0140477E-1,-2.0211525E-1,-3.9688087E-1,3.4231108E-2,-1.4709693E0,3.9590186E-1,1.9518385E0,-3.8376313E-1,2.0726019E-1,-2.0211525E-1,-1.484096E0,1.8722595E0,4.002951E-1,-7.682519E-2,-1.4938178E0,1.6747578E0,3.699759E-2,3.9080626E-1,-1.5025935E0,3.8464743E-1,3.7825954E-1,-2.2457251E-1,-3.049344E-1,3.6361557E-1],"categories":[],"categories_nodes":[],"categories_segments":[],"categories_sizes":[],"default_left":[0,0,0,0,0,0,0,0,0,0,0,0,0,0,0,0,0,0,0,0,0,0,0,0,0,0,0,0,0,0,0,0,0,0,0,0,0,0,0,0,0],"id":0,"left_children":[1,3,5,7,9,11,13,15,17,-1,-1,-1,-1,-1,19,21,23,-1,-1,-1,25,27,-1,29,-1,-1,-1,31,33,-1,-1,35,37,-1,-1,39,-1,-1,-1,-1,-1],"loss_changes":[3.1157701E4,5.2871035E3,7.1795703E2,1.5923232E3,3.236206E0,6.467969E1,1.2706579E2,9.357158E2,1.3778076E1,0E0,0E0,0E0,0E0,0E0,8.027466E0,8.4649414E2,2.4422714E2,0E0,0E0,0E0,4.1544757E0,3.4918945E2,0E0,7.698639E0,0E0,0E0,0E0,2.4397656E2,2.8896637E0,0E0,0E0,2.3656055E2,1.5561333E1,0E0,0E0,1.6077344E2,0E0,0E0,0E0,0E0,0E0],"parents":[2147483647,0,0,1,1,2,2,3,3,4,4,5,5,6,6,7,7,8,8,14,14,15,15,16,16,20,20,21,21,23,23,27,27,28,28,31,31,32,32,35,35],"right_children":[2,4,6,8,10,12,14,16,18,-1,-1,-1,-1,-1,20,22,24,-1,-1,-1,26,28,-1,30,-1,-1,-1,32,34,-1,-1,36,38,-1,-1,40,-1,-1,-1,-1,-1],"split_conditions":[-2.5295842E-1,-6.719829E-2,2.7323263E0,-2.3559447E-1,1.9660392E-1,4.4990277E0,1.6663066E-1,-4.1926828E-1,1.9140513E0,4.0303048E-1,3.699759E-2,4.040716E-1,-3.272342E-1,3.6804694E-1,1.4061432E0,-7.243224E-2,8.9333194E-1,4.0140477E-1,-2.0211525E-1,-3.9688087E-1,-7.847859E-2,-9.330181E-2,3.9590186E-1,4.491483E0,-3.8376313E-1,2.0726019E-1,-2.0211525E-1,4.418784E0,-3.7113246E-1,4.002951E-1,-7.682519E-2,1.409981E1,-7.7975415E-2,3.699759E-2,3.9080626E-1,3.5808664E-2,3.8464743E-1,3.7825954E-1,-2.2457251E-1,-3.049344E-1,3.6361557E-1],"split_indices":[523,316,355,5,97,636,120,140,355,0,0,0,0,0,185,300,365,0,0,0,3,274,0,68,0,0,0,164,16,0,0,260,355,0,0,269,0,0,0,0,0],"split_type":[0,0,0,0,0,0,0,0,0,0,0,0,0,0,0,0,0,0,0,0,0,0,0,0,0,0,0,0,0,0,0,0,0,0,0,0,0,0,0,0,0],"sum_hessian":[1.3891524E4,8.734369E3,5.1571553E3,8.228895E3,5.0547482E2,5.090931E3,6.62239E1,8.085842E3,1.430525E2,5.0427335E2,1.2014939E0,5.086681E3,4.25E0,1.0171661E1,5.6052242E1,7.9642744E3,1.2156736E2,1.420525E2,1E0,5.4E1,2.0522408E0,7.892472E3,7.1802376E1,1.0281736E2,1.875E1,1.0522408E0,1E0,7.8621587E3,3.031349E1,1.01716606E2,1.1007469E0,7.8385615E3,2.3597057E1,1.2014939E0,2.9111996E1,7.81892E3,1.9641829E1,2.2347057E1,1.25E0,7.8049907E3,1.3929131E1],"tree_param":{"num_deleted":"0","num_feature":"779","num_nodes":"41","size_leaf_vector":"1"}},{"base_weights":[-3.2907347E-3,-9.4257456E-1,1.627939E0,-1.0987915E0,1.6595788E0,1.6642841E0,-1.0279411E0,-1.1481967E0,1.6395931E0,1.6635538E0,1.4353296E-3,1.6668384E0,-2.730446E-1,3.1229115E-1,-1.5352157E0,-1.1751341E0,1.6265754E0,3.3502856E-1,-7.643441E-2,3.3661646E-1,1.05216846E-1,3.369352E-1,9.7472265E-2,2.3166884E-1,-1.6232642E0,-1.2061372E0,1.0959072E0,3.3398762E-1,-6.3813943E-3,-3.3242258E-1,-5.6399174E-2,-9.7178125E-1,-1.3944865E0,1.631095E0,-3.210532E-1,-1.0561647E0,2.7435783E-1,-1.4062272E0,3.2082874E-1,3.337049E-1,1.5276106E-2,-1.0737109E0,1.7935519E0,1.1987752E0,-3.896271E-1,-1.41778E0,3.1958118E-1,-2.1887115E-1,4.265119E-1,-6.9006175E-2,3.9039E-1,1.5764125E-1,3.8405266E-1,-1.13341816E-1,1.7610535E-1,-2.8847578E-1,3.571536E-1],"categories":[],"categories_nodes":[],"categories_segments":[],"categories_sizes":[],"default_left":[0,0,0,0,0,0,0,0,0,0,0,0,0,0,0,0,0,0,0,0,0,0,0,0,0,0,0,0,0,0,0,0,0,0,0,0,0,0,0,0,0,0,0,0,0,0,0,0,0,0,0,0,0,0,0,0,0],"id":1,"left_children":[1,3,5,7,9,11,13,15,17,19,-1,21,-1,-1,23,25,27,-1,-1,-1,-1,-1,-1,-1,29,31,33,-1,-1,-1,-1,35,37,39,-1,41,43,45,-1,-1,-1,47,49,51,53,55,-1,-1,-1,-1,-1,-1,-1,-1,-1,-1,-1],"loss_changes":[2.058236E4,3.4671108E3,4.7553125E2,1.0899551E3,3.1618652E0,3.9551758E1,8.967309E1,5.9243945E2,5.8237305E0,1.8774414E-1,0E0,3.7890625E-1,0E0,0E0,1.5169708E1,5.5228906E2,3.3306732E0,0E0,0E0,0E0,0E0,0E0,0E0,0E0,1.1270142E0,3.394248E2,1.547471E2,0E0,0E0,0E0,0E0,3.6236548E2,1.5199707E2,2.6332397E0,0E0,1.6318652E2,1.3499509E2,1.4932715E2,0E0,0E0,0E0,9.611328E1,6.583267E0,2.5503479E1,2.8179039E1,1.310293E2,0E0,0E0,0E0,0E0,0E0,0E0,0E0,0E0,0E0,0E0,0E0],"parents":[2147483647,0,0,1,1,2,2,3,3,4,4,5,5,6,6,7,7,8,8,9,9,11,11,14,14,15,15,16,16,24,24,25,25,26,26,31,31,32,32,33,33,35,35,36,36,37,37,41,41,42,42,43,43,44,44,45,45],"right_children":[2,4,6,8,10,12,14,16,18,20,-1,22,-1,-1,24,26,28,-1,-1,-1,-1,-1,-1,-1,30,32,34,-1,-1,-1,-1,36,38,40,-1,42,44,46,-1,-1,-1,48,50,52,54,56,-1,-1,-1,-1,-1,-1,-1,-1,-1,-1,-1],"split_conditions":[-2.5295842E-1,-6.719829E-2,2.7323263E0,-2.3559447E-1,5.8693975E-1,4.4990277E0,1.6663066E-1,-7.243224E-2,-3.5301718E-1,5.3700266E0,1.4353296E-3,1.5983945E1,-2.730446E-1,3.1229115E-1,-5.0535154E-1,-2.3654322E-1,2.6315737E0,3.3502856E-1,-7.643441E-2,3.3661646E-1,1.05216846E-1,3.369352E-1,9.7472265E-2,2.3166884E-1,1.3764352E0,-2.4633762E-1,-1.299837E-1,3.3398762E-1,-6.3813943E-3,-3.3242258E-1,-5.6399174E-2,4.1297865E-1,7.3089504E0,8.431031E0,-3.210532E-1,-2.549755E-2,-4.5194077E-1,1.409981E1,3.2082874E-1,3.337049E-1,1.5276106E-2,9.147683E0,-2.9385614E-1,-2.4028313E-1,-2.402581E-1,-1.482175E-1,3.1958118E-1,-2.1887115E-1,4.265119E-1,-6.9006175E-2,3.9039E-1,1.5764125E-1,3.8405266E-1,-1.13341816E-1,1.7610535E-1,-2.8847578E-1,3.571536E-1],"split_indices":[523,316,355,5,169,636,120,300,6,32,0,262,0,0,6,140,46,0,0,0,0,0,0,0,52,6,365,0,0,0,0,745,164,94,0,359,6,260,0,0,0,492,16,5,5,374,0,0,0,0,0,0,0,0,0,0,0],"split_type":[0,0,0,0,0,0,0,0,0,0,0,0,0,0,0,0,0,0,0,0,0,0,0,0,0,0,0,0,0,0,0,0,0,0,0,0,0,0,0,0,0,0,0,0,0,0,0,0,0,0,0,0,0,0,0,0,0],"sum_hessian":[1.3431313E4,8.523685E3,4.907629E3,8.041501E3,4.821835E2,4.841744E3,6.588471E1,7.89956E3,1.4194089E2,4.810197E2,1.1637921E0,4.838093E3,3.6513753E0,1.0513096E1,5.5371616E1,7.8241797E3,7.538032E1,1.4086151E2,1.0793816E0,4.7975916E2,1.2605562E0,4.8368423E3,1.250499E0,1.3783107E0,5.3993305E1,7.719269E3,1.0491082E2,7.422499E1,1.1553259E0,5.292507E1,1.0682315E0,3.442303E3,4.276966E3,8.779864E1,1.7112185E1,3.2241301E3,2.1817267E2,4.2607183E3,1.6247707E1,8.662525E1,1.1733894E0,3.2050198E3,1.911055E1,9.0864E1,1.2730867E2,4.244828E3,1.5890075E1,3.1964517E3,8.567952E0,1.0705203E0,1.804003E1,5.8214638E1,3.264936E1,1.1258274E2,1.472593E1,4.23275E3,1.2078461E1],"tree_param":{"num_deleted":"0","num_feature":"779","num_nodes":"57","size_leaf_vector":"1"}},{"base_weights":[3.7139347E-3,-8.390428E-1,1.3376387E0,-9.429934E-1,1.4702481E0,1.4437046E0,-1.4354984E0,-9.747575E-1,2.9575863E-1,2.9770738E-1,7.673956E-2,1.4790674E0,-9.5487875E-1,-3.131425E-1,2.5992596E-1,-1.0007145E0,9.521047E-1,1.4823253E0,-2.7161884E-1,2.7731365E-1,-1.3908658E0,-7.999822E-1,-1.1814106E0,1.441188E0,-2.8444567E-1,1.4785514E0,1.8634156E0,2.070746E-1,-1.4662635E0,-8.957498E-1,1.456912E-1,-1.1895821E0,4.8190677E-1,2.9551044E-1,-5.8758073E-3,2.9887712E-1,1.08140215E-1,2.836182E-1,2.1931403E0,-3.005122E-1,-3.2963052E-2,-9.1192675E-1,3.2634097E-1,5.22652E-1,-4.6423042E-1,-1.2009661E0,2.8457838E-1,2.5661358E-1,2.4651833E0,-9.206811E-1,3.505881E-1,1.9839741E-1,1.2715162E0,-7.8794646E-1,8.490815E-1,-1.2121884E0,2.836864E-1,5.1919127E-1,1.8123193E-1,-1.8754496E-1,4.5859137E-1,9.881155E-2,-9.8879404E-2,2.6879627E-1,-1.7338154E-1,-1.6659917E-1,2.0607662E-1,4.4452153E-2,2.7774727E-1,-2.4626595E-1,4.8430982E-1],"categories":[],"categories_nodes":[],"categories_segments":[],"categories_sizes":[],"default_left":[0,0,0,0,0,0,0,0,0,0,0,0,0,0,0,0,0,0,0,0,0,0,0,0,0,0,0,0,0,0,0,0,0,0,0,0,0,0,0,0,0,0,0,0,0,0,0,0,0,0,0,0,0,0,0,0,0,0,0,0,0,0,0,0,0,0,0,0,0,0,0],"id":2,"left_children":[1,3,5,7,9,11,13,15,-1,-1,-1,17,19,-1,-1,21,23,25,-1,-1,27,29,31,33,-1,35,37,-1,39,41,43,45,-1,-1,-1,-1,-1,-1,47,-1,-1,49,-1,51,53,55,-1,-1,57,59,-1,61,63,65,67,69,-1,-1,-1,-1,-1,-1,-1,-1,-1,-1,-1,-1,-1,-1,-1],"loss_changes":[1.4097326E4,1.8461709E3,1.430168E3,5.635625E2,4.202881E-1,3.981084E2,5.7556152E1,3.6403174E2,0E0,0E0,0E0,4.4382812E1,7.1461395E1,0E0,0E0,2.5887793E2,1.13967354E2,3.866211E0,0E0,0E0,1.2107964E1,3.077434E2,1.12617676E2,2.526764E0,0E0,4.5898438E-2,3.1902008E0,0E0,1.2825546E0,1.26730225E2,7.225261E1,1.1286963E2,0E0,0E0,0E0,0E0,0E0,0E0,2.469719E0,0E0,0E0,7.2614746E1,0E0,4.686438E1,5.1755226E1,1.1113037E2,0E0,0E0,3.2187653E-1,7.257593E1,0E0,2.752291E1,8.408768E0,7.2052994E0,7.7071743E0,8.706885E1,0E0,0E0,0E0,0E0,0E0,0E0,0E0,0E0,0E0,0E0,0E0,0E0,0E0,0E0,0E0],"parents":[2147483647,0,0,1,1,2,2,3,3,4,4,5,5,6,6,7,7,11,11,12,12,15,15,16,16,17,17,20,20,21,21,22,22,23,23,25,25,26,26,28,28,29,29,30,30,31,31,38,38,41,41,43,43,44,44,45,45,48,48,49,49,51,51,52,52,53,53,54,54,55,55],"right_children":[2,4,6,8,10,12,14,16,-1,-1,-1,18,20,-1,-1,22,24,26,-1,-1,28,30,32,34,-1,36,38,-1,40,42,44,46,-1,-1,-1,-1,-1,-1,48,-1,-1,50,-1,52,54,56,-1,-1,58,60,-1,62,64,66,68,70,-1,-1,-1,-1,-1,-1,-1,-1,-1,-1,-1,-1,-1,-1,-1],"split_conditions":[-3.356183E-2,-6.719829E-2,2.261112E0,-2.3228237E-1,1.5380089E-1,2.7323263E0,3.063735E-1,-4.1926828E-1,2.9575863E-1,2.9770738E-1,7.673956E-2,4.4990277E0,1.6663066E-1,-3.131425E-1,2.5992596E-1,-2.1616998E-1,5.4303354E-1,6.561632E0,-2.7161884E-1,2.7731365E-1,-5.0535154E-1,-5.1624235E-2,1.1318801E1,6.583524E-2,-2.8444567E-1,8.000003E0,6.7247957E-1,2.070746E-1,1.8899955E-1,-9.330181E-2,-3.710575E-1,7.3089504E0,4.8190677E-1,2.9551044E-1,-5.8758073E-3,2.9887712E-1,1.08140215E-1,2.836182E-1,-4.9772364E-1,-3.005122E-1,-3.2963052E-2,1.6258806E1,3.2634097E-1,-1.376922E-1,-2.402581E-1,1.409981E1,2.8457838E-1,2.5661358E-1,-1.376922E-1,9.881604E-2,3.505881E-1,-4.5194077E-1,1.1943703E0,1.08337715E-1,3.3843964E-1,1.5121504E1,2.836864E-1,5.1919127E-1,1.8123193E-1,-1.8754496E-1,4.5859137E-1,9.881155E-2,-9.8879404E-2,2.6879627E-1,-1.7338154E-1,-1.6659917E-1,2.0607662E-1,4.4452153E-2,2.7774727E-1,-2.4626595E-1,4.8430982E-1],"split_indices":[563,316,445,5,97,355,140,140,0,0,0,636,120,0,0,6,365,532,0,0,6,748,0,237,0,262,7,0,364,274,6,164,0,0,0,0,0,0,526,0,0,359,0,4,5,260,0,0,4,345,0,6,16,65,202,491,0,0,0,0,0,0,0,0,0,0,0,0,0,0,0],"split_type":[0,0,0,0,0,0,0,0,0,0,0,0,0,0,0,0,0,0,0,0,0,0,0,0,0,0,0,0,0,0,0,0,0,0,0,0,0,0,0,0,0,0,0,0,0,0,0,0,0,0,0,0,0,0,0,0,0,0,0,0,0,0,0,0,0,0,0,0,0,0,0],"sum_hessian":[1.2538165E4,7.6839277E3,4.854237E3,7.353508E3,3.304199E2,4.675875E3,1.7836157E2,7.258291E3,9.521685E1,3.2925095E2,1.1689441E0,4.608317E3,6.755801E1,1.716145E2,6.7470784E0,7.1622876E3,9.600378E1,4.603479E3,4.837871E0,1.0321803E1,5.7236202E1,3.3955974E3,3.76669E3,7.984261E1,1.616116E1,4.5631704E3,4.0308697E1,1.3515084E0,5.5884693E1,3.083397E3,3.1220056E2,3.7587424E3,7.947503E0,7.872899E1,1.1136262E0,4.561663E3,1.5075983E0,1.9020035E1,2.128866E1,5.4877445E1,1.0072484E0,3.0642874E3,1.910956E1,1.9303732E2,1.1916322E2,3.7428767E3,1.5865678E1,6.133708E0,1.5154952E1,3.0548345E3,9.452899E0,1.355917E2,5.7445618E1,9.592008E1,2.3243145E1,3.7273513E3,1.5525396E1,1.3617728E1,1.5372235E0,3.0486333E3,6.201183E0,9.552539E1,4.006632E1,5.6277584E1,1.1680324E0,9.456334E1,1.3567419E0,1.1219682E1,1.2023463E1,3.7215625E3,5.7887115E0],"tree_param":{"num_deleted":"0","num_feature":"779","num_nodes":"71","size_leaf_vector":"1"}},{"base_weights":[2.652482E-3,-7.339368E-1,1.2088792E0,-8.163262E-1,1.3462713E0,1.3245786E0,-1.2812741E0,-8.4479016E-1,1.3351073E0,2.7276137E-1,5.3612683E-2,1.3556794E0,-8.744777E-1,-1.3990599E0,2.4579404E-1,-8.668388E-1,8.947139E-1,2.7141112E-1,7.060845E-2,1.3589091E0,-2.4574928E-1,2.4978675E-1,-1.2547605E0,-2.8393874E-1,-4.6705525E-2,-6.752854E-1,-1.0450578E0,1.3282559E0,-2.5832412E-1,1.3550481E0,1.5483392E0,1.8752727E-1,-1.3320955E0,-7.57345E-1,1.029537E-1,-1.0527403E0,5.617391E-1,2.7074257E-1,6.0777593E-2,2.7391502E-1,7.705017E-2,2.6961407E-1,1.8822876E0,-2.738923E-1,-3.9669063E-2,-7.691043E-1,2.086205E0,-7.7517085E-2,9.4808924E-1,-1.0605837E0,2.0768979E0,4.075287E-1,2.3308553E-1,-7.775071E-1,3.8776043E-1,5.3312683E-1,2.0256744E-1,5.267254E-1,-4.8449266E-1,1.1837941E0,-1.1264163E0,-1.0696502E0,2.571291E-1,4.697739E-1,1.8215106E-1,-1.5913886E-1,2.9991925E-1,6.846659E-2,2.4077694E-1,-6.5566994E-2,-2.5667402E-1,2.5845802E-1,-3.3328757E-2,-8.802162E-2,-2.5529772E-1,-2.1790636E-1,2.8157294E-1],"categories":[],"categories_nodes":[],"categories_segments":[],"categories_sizes":[],"default_left":[0,0,0,0,0,0,0,0,0,0,0,0,0,0,0,0,0,0,0,0,0,0,0,0,0,0,0,0,0,0,0,0,0,0,0,0,0,0,0,0,0,0,0,0,0,0,0,0,0,0,0,0,0,0,0,0,0,0,0,0,0,0,0,0,0,0,0,0,0,0,0,0,0,0,0,0,0],"id":3,"left_children":[1,3,5,7,9,11,13,15,17,-1,-1,19,21,23,-1,25,27,-1,-1,29,-1,-1,31,-1,-1,33,35,37,-1,39,41,-1,43,45,47,49,-1,-1,-1,-1,-1,-1,51,-1,-1,53,55,57,59,61,63,-1,-1,65,-1,-1,-1,67,69,71,73,75,-1,-1,-1,-1,-1,-1,-1,-1,-1,-1,-1,-1,-1,-1,-1],"loss_changes":[1.0164799E4,1.2184612E3,1.2513667E3,4.1956982E2,5.977478E-1,2.8469824E2,5.850064E1,2.5944922E2,2.1507263E-1,0E0,0E0,3.560498E1,4.843236E1,9.2245483E-1,0E0,2.2667334E2,8.1682594E1,0E0,0E0,8.876953E-1,0E0,0E0,9.674492E0,0E0,0E0,2.0526514E2,1.0424634E2,4.2404175E-1,0E0,2.397461E-1,2.8266296E0,0E0,1.0079727E0,9.879736E1,4.6951332E1,8.670215E1,0E0,0E0,0E0,0E0,0E0,0E0,2.8531647E-1,0E0,0E0,6.687976E1,4.6739845E0,6.2764095E1,2.7815414E1,7.3997314E1,5.065079E-1,0E0,0E0,6.5541626E1,0E0,0E0,0E0,1.2435999E1,1.8752308E1,6.502571E0,2.0243645E-2,7.295239E1,0E0,0E0,0E0,0E0,0E0,0E0,0E0,0E0,0E0,0E0,0E0,0E0,0E0,0E0,0E0],"parents":[2147483647,0,0,1,1,2,2,3,3,4,4,5,5,6,6,7,7,8,8,11,11,12,12,13,13,15,15,16,16,19,19,22,22,25,25,26,26,27,27,29,29,30,30,32,32,33,33,34,34,35,35,42,42,45,45,46,46,47,47,48,48,49,49,50,50,53,53,57,57,58,58,59,59,60,60,61,61],"right_children":[2,4,6,8,10,12,14,16,18,-1,-1,20,22,24,-1,26,28,-1,-1,30,-1,-1,32,-1,-1,34,36,38,-1,40,42,-1,44,46,48,50,-1,-1,-1,-1,-1,-1,52,-1,-1,54,56,58,60,62,64,-1,-1,66,-1,-1,-1,68,70,72,74,76,-1,-1,-1,-1,-1,-1,-1,-1,-1,-1,-1,-1,-1,-1,-1],"split_conditions":[-5.9507582E-2,-6.719829E-2,2.1060448E0,-2.3559447E-1,4.7335453E0,2.7323263E0,3.063735E-1,-4.1926828E-1,1.5363185E0,2.7276137E-1,5.3612683E-2,4.4990277E0,1.6663066E-1,1.9326537E0,2.4579404E-1,-2.1616998E-1,5.4303354E-1,2.7141112E-1,7.060845E-2,4.284444E0,-2.4574928E-1,2.4978675E-1,-5.0535154E-1,-2.8393874E-1,-4.6705525E-2,4.944877E-1,1.55053185E-2,1.0069627E0,-2.5832412E-1,1.5983945E1,6.7247957E-1,1.8752727E-1,-1.1390741E-2,1.1523896E0,-2.402581E-1,-9.301207E-2,5.617391E-1,2.7074257E-1,6.0777593E-2,2.7391502E-1,7.705017E-2,2.6961407E-1,1.8516706E0,-2.738923E-1,-3.9669063E-2,9.147683E0,-2.3754665E-1,-4.5194077E-1,1.1943703E0,1.409981E1,2.3660034E-1,4.075287E-1,2.3308553E-1,-9.330181E-2,3.8776043E-1,5.3312683E-1,2.0256744E-1,-2.4027479E-1,2.2318383E-1,5.5845203E0,-2.3989101E-1,9.96241E0,2.571291E-1,4.697739E-1,1.8215106E-1,-1.5913886E-1,2.9991925E-1,6.846659E-2,2.4077694E-1,-6.5566994E-2,-2.5667402E-1,2.5845802E-1,-3.3328757E-2,-8.802162E-2,-2.5529772E-1,-2.1790636E-1,2.8157294E-1],"split_indices":[563,316,445,5,144,355,140,140,698,0,0,636,120,215,0,6,365,0,0,81,0,0,6,0,0,748,403,126,0,262,7,0,372,491,5,414,0,0,0,0,0,0,563,0,0,492,202,6,16,260,7,0,0,274,0,0,0,5,716,118,5,0,0,0,0,0,0,0,0,0,0,0,0,0,0,0,0],"split_type":[0,0,0,0,0,0,0,0,0,0,0,0,0,0,0,0,0,0,0,0,0,0,0,0,0,0,0,0,0,0,0,0,0,0,0,0,0,0,0,0,0,0,0,0,0,0,0,0,0,0,0,0,0,0,0,0,0,0,0,0,0,0,0,0,0,0,0,0,0,0,0,0,0,0,0,0,0],"sum_hessian":[1.1438485E4,7.102E3,4.3364854E3,6.8320166E3,2.6998346E2,4.1443936E3,1.9209192E2,6.743407E3,8.860956E1,2.6892346E2,1.06E0,4.086976E3,5.7417595E1,1.8386018E2,8.231735E0,6.659498E3,8.390904E1,8.755928E1,1.0502756E0,4.0823203E3,4.6556344E0,8.423329E0,4.8994267E1,1.8275363E2,1.1065438E0,3.2119822E3,3.4475156E3,7.027564E1,1.36334E1,4.0087644E3,7.355595E1,1.3002613E0,4.7694004E1,2.9056316E3,3.0635077E2,3.4413274E3,6.1883883E0,6.9211586E1,1.0640563E0,4.0075762E3,1.188346E0,4.783983E1,2.571612E1,4.6556786E1,1.1372206E0,2.8943916E3,1.1240048E1,2.5319221E2,5.315855E1,3.4333838E3,7.943496E0,2.0231148E1,5.484972E0,2.8860789E3,8.312581E0,6.4995933E0,4.740455E0,1.017815E2,1.5141072E2,4.8120476E1,5.038077E0,3.4206309E3,1.2752979E1,5.7554355E0,2.1880608E0,2.8741992E3,1.1879736E1,8.051659E1,2.1264915E1,1.2694912E2,2.4461594E1,4.5003307E1,3.1171658E0,1.5236167E0,3.51446E0,3.4094548E3,1.1176067E1],"tree_param":{"num_deleted":"0","num_feature":"779","num_nodes":"77","size_leaf_vector":"1"}},{"base_weights":[1.4453172E-2,-5.974278E-1,1.2390846E0,-6.9383615E-1,1.2624626E0,1.2664263E0,-8.304978E-1,-7.230194E-1,2.5429764E-1,2.560001E-1,-8.54743E-3,2.563928E-1,-1.9699208E-1,2.2036982E-1,-1.1659366E0,-7.4245286E-1,1.3131962E0,-1.2301368E0,1.18885845E-1,-5.514594E-1,-9.0957785E-1,2.7083778E-1,-3.0143138E-2,-2.518772E-1,-7.166477E-2,-6.221845E-1,1.5387112E-1,-9.330346E-1,6.087673E-1,-6.3353E-1,2.0716689E0,4.9741277E-1,-1.8147019E-1,-9.4304335E-1,3.470824E-1,1.1784054E0,-2.31538E-1,-6.400522E-1,5.574548E-1,1.9910899E-1,5.752827E-1,-1.5777884E-1,6.892609E-1,-4.9759594E-1,2.7789077E-1,-9.552026E-1,1.0173929E0,2.5089988E-1,-5.9823237E-2,-1.3116863E-1,3.1917915E-1,1.17128946E-1,-1.2749268E-1,8.862807E-2,2.1037602E-1,-1.2848777E-1,9.4775595E-2,1.1546236E-1,-1.4187263E-1,-1.9457577E-1,4.197584E-1,-2.025914E-1,2.8127328E-1],"categories":[],"categories_nodes":[],"categories_segments":[],"categories_sizes":[],"default_left":[0,0,0,0,0,0,0,0,0,0,0,0,0,0,0,0,0,0,0,0,0,0,0,0,0,0,0,0,0,0,0,0,0,0,0,0,0,0,0,0,0,0,0,0,0,0,0,0,0,0,0,0,0,0,0,0,0,0,0,0,0,0,0],"id":4,"left_children":[1,3,5,7,9,11,13,15,-1,-1,-1,-1,-1,-1,17,19,21,23,-1,25,27,-1,-1,-1,-1,29,31,33,35,37,39,41,43,45,-1,47,-1,49,-1,-1,-1,51,53,55,57,59,61,-1,-1,-1,-1,-1,-1,-1,-1,-1,-1,-1,-1,-1,-1,-1,-1],"loss_changes":[7.741647E3,1.2361855E3,1.9583057E2,3.7406226E2,1.8903198E0,1.7388184E1,3.057887E1,2.5638574E2,0E0,0E0,0E0,0E0,0E0,0E0,5.138954E0,2.0359888E2,2.607216E0,9.482193E-2,0E0,1.4907825E2,1.2196802E2,0E0,0E0,0E0,0E0,8.4278076E1,3.1538315E1,9.067212E1,5.377897E1,6.1578613E1,6.975464E0,1.7091393E1,2.0304436E1,8.0711914E1,0E0,4.089859E0,0E0,5.45083E1,0E0,0E0,0E0,1.1321381E1,8.774284E0,1.13271885E1,1.6858713E1,7.755664E1,1.7347683E1,0E0,0E0,0E0,0E0,0E0,0E0,0E0,0E0,0E0,0E0,0E0,0E0,0E0,0E0,0E0,0E0],"parents":[2147483647,0,0,1,1,2,2,3,3,4,4,5,5,6,6,7,7,14,14,15,15,16,16,17,17,19,19,20,20,25,25,26,26,27,27,28,28,29,29,30,30,31,31,32,32,33,33,35,35,37,37,41,41,42,42,43,43,44,44,45,45,46,46],"right_children":[2,4,6,8,10,12,14,16,-1,-1,-1,-1,-1,-1,18,20,22,24,-1,26,28,-1,-1,-1,-1,30,32,34,36,38,40,42,44,46,-1,48,-1,50,-1,-1,-1,52,54,56,58,60,62,-1,-1,-1,-1,-1,-1,-1,-1,-1,-1,-1,-1,-1,-1,-1,-1],"split_conditions":[-2.5295842E-1,-6.719829E-2,2.7323263E0,-2.3228237E-1,5.8693975E-1,4.4990277E0,3.1412013E-2,-7.243224E-2,2.5429764E-1,2.560001E-1,-8.54743E-3,2.563928E-1,-1.9699208E-1,2.2036982E-1,3.670566E-1,-2.4633762E-1,1.9140513E0,-6.1457686E-2,1.18885845E-1,-5.1624235E-2,-1.5486965E-1,2.7083778E-1,-3.0143138E-2,-2.518772E-1,-7.166477E-2,-1.482175E-1,-4.3763244E-1,-9.301207E-2,5.7735926E-1,2.9786225E-2,4.2311153E0,1.1204869E-1,-1.376922E-1,1.1405128E1,3.470824E-1,1.1089792E0,-2.31538E-1,1.6258806E1,5.574548E-1,1.9910899E-1,5.752827E-1,-8.357353E-2,-2.4028313E-1,3.019885E-1,-2.8469113E-1,1.55053185E-2,1.0616845E0,2.5089988E-1,-5.9823237E-2,-1.3116863E-1,3.1917915E-1,1.17128946E-1,-1.2749268E-1,8.862807E-2,2.1037602E-1,-1.2848777E-1,9.4775595E-2,1.1546236E-1,-1.4187263E-1,-1.9457577E-1,4.197584E-1,-2.025914E-1,2.8127328E-1],"split_indices":[523,316,355,5,169,636,4,300,0,0,0,0,0,0,593,6,355,395,0,748,140,0,0,0,0,374,6,414,738,516,204,745,4,139,0,202,0,359,0,0,0,733,5,638,6,403,662,0,0,0,0,0,0,0,0,0,0,0,0,0,0,0,0],"split_type":[0,0,0,0,0,0,0,0,0,0,0,0,0,0,0,0,0,0,0,0,0,0,0,0,0,0,0,0,0,0,0,0,0,0,0,0,0,0,0,0,0,0,0,0,0,0,0,0,0,0,0,0,0,0,0,0,0,0,0,0,0,0,0],"sum_hessian":[1.0329457E4,6.888276E3,3.4411804E3,6.549411E3,3.3886514E2,3.396694E3,4.448643E1,6.4535576E3,9.585315E1,3.37822E2,1.0431528E0,3.3939155E3,2.778449E0,6.279255E0,3.8207176E1,6.3931772E3,6.0380363E1,3.7146378E1,1.0607992E0,2.985544E3,3.4076335E3,5.9375023E1,1.0053431E0,3.6061234E1,1.0851456E0,2.7135662E3,2.7197775E2,3.35617E3,5.1463665E1,2.7029473E3,1.06189375E1,1.3410751E2,1.3787024E2,3.3441848E3,1.1985018E1,3.9097065E1,1.2366602E1,2.698569E3,4.378111E0,5.365205E0,5.2537327E0,3.0414562E1,1.0369295E2,8.1618385E1,5.6251858E1,3.3240806E3,2.0104286E1,3.764735E1,1.449712E0,2.688462E3,1.0107209E1,1.1798641E1,1.8615921E1,6.183862E1,4.1854332E1,7.1712585E1,9.9058E0,4.3610916E1,1.2640943E1,3.3165652E3,7.515285E0,2.8805432E0,1.7223743E1],"tree_param":{"num_deleted":"0","num_feature":"779","num_nodes":"63","size_leaf_vector":"1"}},{"base_weights":[1.3204009E-3,-1.1561569E0,1.9574836E0,-1.3379508E0,1.9854451E0,1.9982448E0,-9.944655E-1,-1.39233E0,1.9556559E0,4.025456E-1,-7.5526826E-2,4.0411222E-1,-2.4253832E-1,3.8000044E-1,-1.836352E0,-1.422002E0,1.9447743E0,-7.5526826E-2,3.9971226E-1,-1.9369766E0,2.3758757E-1,-1.4523886E0,1.6379784E0,3.9855447E-1,3.888455E-2,-7.5526826E-2,-3.9663932E-1,-1.4683867E0,1.8962896E0,3.9871997E-1,-3.5207173E-1,-1.4800826E0,1.6983798E0,3.934095E-1,3.888455E-2,-1.4896221E0,3.8645616E-1,3.8983938E-1,-2.5723758E-1,-3.0256492E-1,3.7054896E-1],"categories":[],"categories_nodes":[],"categories_segments":[],"categories_sizes":[],"default_left":[0,0,0,0,0,0,0,0,0,0,0,0,0,0,0,0,0,0,0,0,0,0,0,0,0,0,0,0,0,0,0,0,0,0,0,0,0,0,0,0,0],"id":5,"left_children":[1,3,5,7,9,11,13,15,17,-1,-1,-1,-1,-1,19,21,23,-1,-1,25,-1,27,29,-1,-1,-1,-1,31,33,-1,-1,35,37,-1,-1,39,-1,-1,-1,-1,-1],"loss_changes":[3.1659902E4,5.019829E3,6.274336E2,1.4901445E3,7.800049E0,2.1585938E1,1.7640344E2,8.1179297E2,7.6694336E0,0E0,0E0,0E0,0E0,0E0,1.9182648E1,7.554502E2,3.0657349E0,0E0,0E0,1.4305725E0,0E0,4.324297E2,9.407205E1,0E0,0E0,0E0,0E0,2.9817188E2,2.9226685E0,0E0,0E0,2.6021875E2,2.2882362E1,0E0,0E0,1.9699414E2,0E0,0E0,0E0,0E0,0E0],"parents":[2147483647,0,0,1,1,2,2,3,3,4,4,5,5,6,6,7,7,8,8,14,14,15,15,16,16,19,19,21,21,22,22,27,27,28,28,31,31,32,32,35,35],"right_children":[2,4,6,8,10,12,14,16,18,-1,-1,-1,-1,-1,20,22,24,-1,-1,26,-1,28,30,-1,-1,-1,-1,32,34,-1,-1,36,38,-1,-1,40,-1,-1,-1,-1,-1],"split_conditions":[-2.5620142E-1,-6.6916905E-2,2.5657878E0,-2.357947E-1,4.213746E0,4.4990277E0,2.9189375E-1,-7.230243E-2,-4.1941255E-1,4.025456E-1,-7.5526826E-2,4.0411222E-1,-2.4253832E-1,3.8000044E-1,6.78169E-1,9.7676665E-1,2.3854558E-1,-7.5526826E-2,3.9971226E-1,7.368807E-2,2.3758757E-1,-9.35646E-2,-1.3021624E-1,3.9855447E-1,3.888455E-2,-7.5526826E-2,-3.9663932E-1,3.5360067E0,-7.236917E-2,3.9871997E-1,-3.5207173E-1,1.409981E1,-7.7975415E-2,3.934095E-1,3.888455E-2,1.670359E0,3.8645616E-1,3.8983938E-1,-2.5723758E-1,-3.0256492E-1,3.7054896E-1],"split_indices":[523,316,355,5,98,636,120,300,7,0,0,0,0,0,532,140,97,0,0,4,0,274,365,0,0,0,0,164,66,0,0,260,355,0,0,345,0,0,0,0,0],"split_type":[0,0,0,0,0,0,0,0,0,0,0,0,0,0,0,0,0,0,0,0,0,0,0,0,0,0,0,0,0,0,0,0,0,0,0,0,0,0,0,0,0],"sum_hessian":[1.398073E4,8.783734E3,5.1969966E3,8.303796E3,4.7993835E2,5.1265312E3,7.046517E1,8.16949E3,1.3430562E2,4.7883194E2,1.1064322E0,5.1250312E3,1.5E0,1.5683014E1,5.478216E1,8.09806E3,7.142999E1,1.1064322E0,1.3319919E2,5.3356434E1,1.4257286E0,8.0189546E3,7.910573E1,7.021713E1,1.2128643E0,1.1064322E0,5.225E1,7.9813857E3,3.7568943E1,7.235573E1,6.75E0,7.952547E3,2.8838842E1,3.635608E1,1.2128643E0,7.930804E3,2.1742361E1,2.7088842E1,1.75E0,7.9138022E3,1.700231E1],"tree_param":{"num_deleted":"0","num_feature":"779","num_nodes":"41","size_leaf_vector":"1"}},{"base_weights":[-4.7346638E-3,-1.1514893E0,1.9479377E0,-1.3639222E0,1.6247019E0,1.9966487E0,-1.3249742E0,-1.401034E0,1.8915478E0,1.9562097E0,-1.9363766E0,1.9988165E0,-2.964357E-1,3.7034822E-1,-1.8827275E0,-1.429115E0,3.9819136E-1,3.9967817E-1,-2.6737875E-1,-2.8873608E-1,1.9736102E0,-7.64024E-2,-3.9653087E-1,4.0415066E-1,1.2494476E0,-1.9467981E0,2.0779082E-1,-1.4604251E0,1.2806547E0,-2.0211525E-1,2.4066484E-1,1.9806134E0,-2.0211525E-1,3.4643468E-1,-2.0211525E-1,-3.9781415E-1,-7.64024E-2,-1.4736836E0,1.7850991E0,3.9889413E-1,-3.8045225E-1,-7.64024E-2,1.4149116E-1,1.9858732E0,-7.64024E-2,-1.485859E0,3.8314196E-1,3.9117843E-1,-1.3938342E-1,4.020845E-1,3.761304E-2,-1.496716E0,3.8827133E-1,-3.0388036E-1,3.672843E-1],"categories":[],"categories_nodes":[],"categories_segments":[],"categories_sizes":[],"default_left":[0,0,0,0,0,0,0,0,0,0,0,0,0,0,0,0,0,0,0,0,0,0,0,0,0,0,0,0,0,0,0,0,0,0,0,0,0,0,0,0,0,0,0,0,0,0,0,0,0,0,0,0,0,0,0],"id":6,"left_children":[1,3,5,7,9,11,13,15,17,19,21,23,-1,-1,25,27,-1,-1,29,-1,31,-1,-1,-1,33,35,-1,37,39,-1,41,43,-1,-1,-1,-1,-1,45,47,-1,-1,-1,-1,49,-1,51,-1,-1,-1,-1,-1,53,-1,-1,-1],"loss_changes":[3.115464E4,5.1716387E3,8.2332227E2,9.864414E2,7.398502E2,4.1015625E1,1.3744691E2,7.650303E2,1.7634308E1,3.6443848E1,1.3907928E0,5E-1,0E0,0E0,1.41536255E1,6.7940234E2,0E0,0E0,1.8822235E0,0E0,1.3817383E1,0E0,0E0,0E0,1.0068595E1,1.413681E0,0E0,3.4235742E2,2.0481128E2,0E0,1.2339039E0,7.790039E0,0E0,0E0,0E0,0E0,0E0,3.2540234E2,1.3452217E1,0E0,0E0,0E0,0E0,3.2062988E0,0E0,2.9270898E2,0E0,0E0,0E0,0E0,0E0,1.7834961E2,0E0,0E0,0E0],"parents":[2147483647,0,0,1,1,2,2,3,3,4,4,5,5,6,6,7,7,8,8,9,9,10,10,11,11,14,14,15,15,18,18,20,20,24,24,25,25,27,27,28,28,30,30,31,31,37,37,38,38,43,43,45,45,51,51],"right_children":[2,4,6,8,10,12,14,16,18,20,22,24,-1,-1,26,28,-1,-1,30,-1,32,-1,-1,-1,34,36,-1,38,40,-1,42,44,-1,-1,-1,-1,-1,46,48,-1,-1,-1,-1,50,-1,52,-1,-1,-1,-1,-1,54,-1,-1,-1],"split_conditions":[-2.6139435E-1,-2.3901501E-1,2.8610253E0,-6.7310594E-2,2.4689271E0,4.4990277E0,3.61815E-2,-7.222445E-2,2.9808044E-1,-4.534145E-1,-7.810315E-2,5.9093463E-1,-2.964357E-1,3.7034822E-1,-1.5838563E-2,8.2293695E-1,3.9819136E-1,3.9967817E-1,-4.014084E-1,-2.8873608E-1,1.6706792E0,-7.64024E-2,-3.9653087E-1,4.0415066E-1,3.6962044E-1,-7.7552505E-2,2.0779082E-1,3.2168863E0,-1.302742E-1,-2.0211525E-1,-7.9004206E-2,9.359569E0,-2.0211525E-1,3.4643468E-1,-2.0211525E-1,-3.9781415E-1,-7.64024E-2,2.582746E0,-7.780655E-2,3.9889413E-1,-3.8045225E-1,-7.64024E-2,1.4149116E-1,2.4952543E-1,-7.64024E-2,1.409981E1,3.8314196E-1,3.9117843E-1,-1.3938342E-1,4.020845E-1,3.761304E-2,3.524993E0,3.8827133E-1,-3.0388036E-1,3.672843E-1],"split_indices":[523,5,355,316,355,636,548,300,662,7,3,237,0,0,401,140,0,0,7,0,178,0,0,0,4,3,0,164,365,0,3,0,0,0,0,0,0,274,355,0,0,0,0,97,0,260,0,0,0,0,0,403,0,0,0],"split_type":[0,0,0,0,0,0,0,0,0,0,0,0,0,0,0,0,0,0,0,0,0,0,0,0,0,0,0,0,0,0,0,0,0,0,0,0,0,0,0,0,0,0,0,0,0,0,0,0,0,0,0,0,0,0,0],"sum_hessian":[1.3911065E4,8.76438E3,5.1466855E3,8.1418755E3,6.225043E2,5.0715947E3,7.509082E1,8.050669E3,9.120648E1,5.699017E2,5.2602596E1,5.0688447E3,2.75E0,1.0930439E1,6.416038E1,7.984734E3,6.593523E1,8.7796104E1,3.4103792E0,2.5E0,5.674017E2,1.1025949E0,5.15E1,5.061851E3,6.9941115E0,6.3102596E1,1.0577843E0,7.893984E3,9.07501E1,1E0,2.4103792E0,5.664017E2,1E0,5.9941115E0,1E0,6.2E1,1.1025949E0,7.8624106E3,3.1573153E1,7.47501E1,1.6E1,1.1025949E0,1.3077843E0,5.652991E2,1.1025949E0,7.834658E3,2.7752394E1,2.9970558E1,1.6025949E0,5.640939E2,1.2051896E0,7.810329E3,2.432904E1,7.7949175E3,1.5411576E1],"tree_param":{"num_deleted":"0","num_feature":"779","num_nodes":"55","size_leaf_vector":"1"}},{"base_weights":[-4.7989422E-3,-1.1525093E0,1.9518505E0,-1.3409554E0,1.9839385E0,1.9950836E0,-1.3756112E0,-1.3992529E0,1.9652661E0,-7.614178E-2,4.0219706E-1,1.998032E0,-3.1912935E-1,3.4619102E-1,-1.9155725E0,-1.4316096E0,3.990321E-1,4.0139368E-1,-6.9955923E-3,4.039916E-1,9.8151296E-1,-3.968473E-1,-6.0305864E-1,-1.4639338E0,1.5314854E0,3.2158422E-1,-2.0211525E-1,3.7991963E-2,-2.2457251E-1,-1.4794674E0,1.8665859E0,3.990321E-1,-3.6662766E-1,-1.4905068E0,3.8875178E-1,3.931172E-1,-7.614178E-2,-1.4987931E0,3.8376105E-1,-3.0429044E-1,3.673944E-1],"categories":[],"categories_nodes":[],"categories_segments":[],"categories_sizes":[],"default_left":[0,0,0,0,0,0,0,0,0,0,0,0,0,0,0,0,0,0,0,0,0,0,0,0,0,0,0,0,0,0,0,0,0,0,0,0,0,0,0,0,0],"id":7,"left_children":[1,3,5,7,9,11,13,15,17,-1,-1,19,-1,-1,21,23,-1,-1,-1,-1,25,-1,27,29,31,-1,-1,-1,-1,33,35,-1,-1,37,-1,-1,-1,39,-1,-1,-1],"loss_changes":[3.1285684E4,5.1926475E3,7.4369336E2,1.5994199E3,7.80542E0,5.673828E1,1.1443722E2,8.914531E2,6.027588E0,0E0,0E0,2.0996094E0,0E0,0E0,2.412323E0,7.74625E2,0E0,0E0,0E0,0E0,8.706891E0,0E0,1.5983633E0,4.1548438E2,1.3321443E2,0E0,0E0,0E0,0E0,3.011836E2,7.326538E0,0E0,0E0,2.2516406E2,0E0,0E0,0E0,1.7916602E2,0E0,0E0,0E0],"parents":[2147483647,0,0,1,1,2,2,3,3,4,4,5,5,6,6,7,7,8,8,11,11,14,14,15,15,20,20,22,22,23,23,24,24,29,29,30,30,33,33,37,37],"right_children":[2,4,6,8,10,12,14,16,18,-1,-1,20,-1,-1,22,24,-1,-1,-1,-1,26,-1,28,30,32,-1,-1,-1,-1,34,36,-1,-1,38,-1,-1,-1,40,-1,-1,-1],"split_conditions":[-2.603762E-1,-6.708583E-2,2.931861E0,-2.3546098E-1,-4.3055603E-1,4.4990277E0,1.2859857E0,-7.248411E-2,-7.8003034E-2,-7.614178E-2,4.0219706E-1,5.7726943E-1,-3.1912935E-1,3.4619102E-1,9.157606E-1,1.0526571E0,3.990321E-1,4.0139368E-1,-6.9955923E-3,4.039916E-1,-2.5917172E-2,-3.968473E-1,-7.852864E-2,-9.3407035E-2,-1.3004194E-1,3.2158422E-1,-2.0211525E-1,3.7991963E-2,-2.2457251E-1,5.5780873E0,-7.085991E-2,3.990321E-1,-3.6662766E-1,1.409981E1,3.8875178E-1,3.931172E-1,-7.614178E-2,6.248183E0,3.8376105E-1,-3.0429044E-1,3.673944E-1],"split_indices":[523,316,355,5,7,636,327,300,3,0,0,237,0,0,208,140,0,0,0,0,43,0,3,274,365,0,0,0,0,164,66,0,0,260,0,0,0,403,0,0,0],"split_type":[0,0,0,0,0,0,0,0,0,0,0,0,0,0,0,0,0,0,0,0,0,0,0,0,0,0,0,0,0,0,0,0,0,0,0,0,0,0,0,0,0],"sum_hessian":[1.3929574E4,8.779941E3,5.1496323E3,8.282858E3,4.9708353E2,5.083978E3,6.5654594E1,8.1399062E3,1.4295169E2,1.1037356E0,4.959798E2,5.080228E3,3.75E0,9.4471245E0,5.620747E1,8.063146E3,7.676062E1,1.4149423E2,1.4574711E0,5.075337E3,4.8910913E0,5.375E1,2.4574711E0,7.9766353E3,8.651062E1,3.8910913E0,1E0,1.2074711E0,1.25E0,7.9401577E3,3.647729E1,7.676062E1,9.75E0,7.9150425E3,2.5115225E1,3.5373558E1,1.1037356E0,7.8962944E3,1.8747986E1,7.880834E3,1.5460629E1],"tree_param":{"num_deleted":"0","num_feature":"779","num_nodes":"41","size_leaf_vector":"1"}},{"base_weights":[-3.278836E-3,-1.1540587E0,1.9536291E0,-1.362643E0,1.640511E0,1.9911776E0,-1.600316E0,-1.4071175E0,1.962982E0,1.9748445E0,-1.8575263E0,1.9968587E0,-3.5523286E-1,3.3187634E-1,-1.931572E0,-1.4325455E0,3.9756322E-1,3.76923E-2,4.0044734E-1,-1.6254713E-1,1.9855773E0,2.3659272E-1,-3.9649403E-1,4.0411133E-1,-2.0066287E-2,-7.634791E-2,-3.959386E-1,-1.4632146E0,1.2340461E0,4.0277037E-1,-2.0211525E-1,3.074204E-1,-3.0911744E-1,-1.4766753E0,1.8459002E0,3.987965E-1,-3.8177323E-1,-1.4853954E0,1.8118414E0,3.913338E-1,-7.634791E-2,-1.4932485E0,3.8254625E-1,3.76923E-2,3.840724E-1,-3.0289167E-1,3.7312707E-1],"categories":[],"categories_nodes":[],"categories_segments":[],"categories_sizes":[],"default_left":[0,0,0,0,0,0,0,0,0,0,0,0,0,0,0,0,0,0,0,0,0,0,0,0,0,0,0,0,0,0,0,0,0,0,0,0,0,0,0,0,0,0,0,0,0,0,0],"id":8,"left_children":[1,3,5,7,9,11,13,15,17,19,21,23,-1,-1,25,27,-1,-1,-1,-1,29,-1,-1,-1,31,-1,-1,33,35,-1,-1,-1,-1,37,39,-1,-1,41,43,-1,-1,45,-1,-1,-1,-1,-1],"loss_changes":[3.1344463E4,5.1111387E3,6.909785E2,1.2091357E3,7.161322E2,1.1213672E2,6.164215E1,6.9343164E2,3.143402E0,1.8196777E1,1.9227448E1,2.6251953E1,0E0,0E0,1.3826599E0,6.5521875E2,0E0,0E0,0E0,0E0,1.391333E1,0E0,0E0,0E0,1.959815E1,0E0,0E0,3.5458203E2,2.1465921E2,0E0,0E0,0E0,0E0,2.2831445E2,7.2458496E0,0E0,0E0,2.1100586E2,2.700882E0,0E0,0E0,1.4292383E2,0E0,0E0,0E0,0E0,0E0],"parents":[2147483647,0,0,1,1,2,2,3,3,4,4,5,5,6,6,7,7,8,8,9,9,10,10,11,11,14,14,15,15,20,20,24,24,27,27,28,28,33,33,34,34,37,37,38,38,41,41],"right_children":[2,4,6,8,10,12,14,16,18,20,22,24,-1,-1,26,28,-1,-1,-1,-1,30,-1,-1,-1,32,-1,-1,34,36,-1,-1,-1,-1,38,40,-1,-1,42,44,-1,-1,46,-1,-1,-1,-1,-1],"split_conditions":[-2.5295842E-1,-2.3882313E-1,3.4880986E0,-6.742279E-2,2.5161047E0,4.4990277E0,1.7231416E0,-7.248411E-2,6.297086E-1,-4.605422E-1,-6.013204E-1,5.557275E-1,-3.5523286E-1,3.3187634E-1,7.368807E-2,1.3243942E-1,3.9756322E-1,3.76923E-2,4.0044734E-1,-1.6254713E-1,4.4990277E0,2.3659272E-1,-3.9649403E-1,4.0411133E-1,-2.5916241E-2,-7.634791E-2,-3.959386E-1,-9.3407035E-2,-1.3025972E-1,4.0277037E-1,-2.0211525E-1,3.074204E-1,-3.0911744E-1,5.639067E0,-7.116254E-2,3.987965E-1,-3.8177323E-1,1.409981E1,-3.174066E-1,3.913338E-1,-7.634791E-2,1.6258806E1,3.8254625E-1,3.76923E-2,3.840724E-1,-3.0289167E-1,3.7312707E-1],"split_indices":[523,5,355,316,355,636,327,300,93,7,16,237,0,0,4,140,0,0,0,0,636,0,0,0,43,0,0,274,365,0,0,0,0,164,66,0,0,260,7,0,0,359,0,0,0,0,0],"split_type":[0,0,0,0,0,0,0,0,0,0,0,0,0,0,0,0,0,0,0,0,0,0,0,0,0,0,0,0,0,0,0,0,0,0,0,0,0,0,0,0,0,0,0,0,0,0,0],"sum_hessian":[1.3916683E4,8.76358E3,5.153103E3,8.155382E3,6.081981E2,5.0996636E3,5.3439667E1,8.048326E3,1.0705563E2,5.555368E2,5.266133E1,5.0924136E3,7.25E0,4.5868316E0,4.8852833E1,7.9886973E3,5.962881E1,1.2056664E0,1.0584996E2,1.8528333E0,5.5368396E2,1.4113328E0,5.125E1,5.085988E3,6.425499E0,1.1028333E0,4.775E1,7.898308E3,9.0389305E1,5.5268396E2,1E0,3.175499E0,3.25E0,7.866862E3,3.144649E1,7.3389305E1,1.7E1,7.846603E3,2.025866E1,3.0343657E1,1.1028333E0,7.8289614E3,1.764166E1,1.2056664E0,1.9052994E1,7.816965E3,1.1996329E1],"tree_param":{"num_deleted":"0","num_feature":"779","num_nodes":"47","size_leaf_vector":"1"}},{"base_weights":[-7.214842E-4,-1.1614461E0,1.9557776E0,-1.3441107E0,1.9771059E0,1.996285E0,-1.2558379E0,-1.4020774E0,1.951057E0,1.9874705E0,-1.3952158E-1,4.040723E-1,-3.1912935E-1,3.7028992E-1,-1.9111601E0,-1.4350146E0,3.965579E-1,3.9996117E-1,-2.0211525E-1,4.0296045E-1,-7.5995703E-3,3.739304E-2,-3.9660352E-1,-1.4701896E0,1.4368116E0,-1.482795E0,1.8055644E0,3.9706823E-1,-3.7535688E-1,-1.4916583E0,3.8503647E-1,3.9069232E-1,-2.0211525E-1,-1.5000969E0,3.8402343E-1,-3.0455336E-1,3.6722016E-1],"categories":[],"categories_nodes":[],"categories_segments":[],"categories_sizes":[],"default_left":[0,0,0,0,0,0,0,0,0,0,0,0,0,0,0,0,0,0,0,0,0,0,0,0,0,0,0,0,0,0,0,0,0,0,0,0,0],"id":9,"left_children":[1,3,5,7,9,11,13,15,17,19,-1,-1,-1,-1,21,23,-1,-1,-1,-1,-1,-1,-1,25,27,29,31,-1,-1,33,-1,-1,-1,35,-1,-1,-1],"loss_changes":[3.1582158E4,5.006789E3,6.7617773E2,1.5783975E3,1.46553955E1,5.6773438E1,1.352641E2,9.0111914E2,1.3720764E1,6.131592E0,0E0,0E0,0E0,0E0,6.169525E0,8.1317773E2,0E0,0E0,0E0,0E0,0E0,0E0,0E0,3.3022852E2,1.7341663E2,2.4013672E2,1.2967361E1,0E0,0E0,2.2845508E2,0E0,0E0,0E0,1.7835938E2,0E0,0E0,0E0],"parents":[2147483647,0,0,1,1,2,2,3,3,4,4,5,5,6,6,7,7,8,8,9,9,14,14,15,15,23,23,24,24,25,25,26,26,29,29,33,33],"right_children":[2,4,6,8,10,12,14,16,18,20,-1,-1,-1,-1,22,24,-1,-1,-1,-1,-1,-1,-1,26,28,30,32,-1,-1,34,-1,-1,-1,36,-1,-1,-1],"split_conditions":[-2.5185516E-1,-6.702955E-2,2.915958E0,-2.3576967E-1,2.0991988E0,4.4990277E0,-1.8405257E-3,-7.238034E-2,2.0991988E0,5.9234804E-1,-1.3952158E-1,4.040723E-1,-3.1912935E-1,3.7028992E-1,2.0002658E0,-1.8978815E-1,3.965579E-1,3.9996117E-1,-2.0211525E-1,4.0296045E-1,-7.5995703E-3,3.739304E-2,-3.9660352E-1,-9.35646E-2,2.2286193E0,1.2644135E1,3.6243144E-1,3.9706823E-1,-3.7535688E-1,1.409981E1,3.8503647E-1,3.9069232E-1,-2.0211525E-1,1.564358E-2,3.8402343E-1,-3.0455336E-1,3.6722016E-1],"split_indices":[523,316,355,5,355,636,120,300,355,181,0,0,0,0,327,140,0,0,0,0,0,0,0,274,365,164,66,0,0,260,0,0,0,403,0,0,0],"split_type":[0,0,0,0,0,0,0,0,0,0,0,0,0,0,0,0,0,0,0,0,0,0,0,0,0,0,0,0,0,0,0,0,0,0,0,0,0],"sum_hessian":[1.3904983E4,8.727601E3,5.177383E3,8.248129E3,4.794719E2,5.113269E3,6.411381E1,8.1061055E3,1.4202342E2,4.7786993E2,1.6019335E0,5.109519E3,3.75E0,1.090994E1,5.320387E1,8.028078E3,7.802731E1,1.4102342E2,1E0,4.7641608E2,1.4538671E0,1.2038671E0,5.2E1,7.93142E3,9.665825E1,7.901561E3,2.9858551E1,8.365825E1,1.3E1,7.881501E3,2.0060211E1,2.8858551E1,1E0,7.8624966E3,1.9004412E1,7.8471133E3,1.5383142E1],"tree_param":{"num_deleted":"0","num_feature":"779","num_nodes":"37","size_leaf_vector":"1"}},{"base_weights":[2.553157E-3,-1.1503793E0,1.9539423E0,-1.3381644E0,1.9796444E0,1.9966371E0,-1.161767E0,-1.3940932E0,1.9706788E0,1.989789E0,-1.4096096E-1,1.9986145E0,-2.8873608E-1,3.741142E-1,-1.8451287E0,-1.4277353E0,3.9667666E-1,4.012413E-1,3.5091806E-2,3.5091806E-2,4.029892E-1,4.0407044E-1,5.612836E-1,1.23539835E-1,-1.9391986E0,-1.4603021E0,1.268084E0,2.3440403E-1,-7.813006E-2,-3.9681342E-1,-7.813006E-2,-1.4719859E0,1.8574988E0,1.9494563E0,-3.8113162E-1,-1.481479E0,3.8617963E-1,3.5091806E-2,3.8919204E-1,3.990447E-1,3.5091806E-2,-1.4888643E0,3.812146E-1,-3.0217093E-1,3.7692234E-1],"categories":[],"categories_nodes":[],"categories_segments":[],"categories_sizes":[],"default_left":[0,0,0,0,0,0,0,0,0,0,0,0,0,0,0,0,0,0,0,0,0,0,0,0,0,0,0,0,0,0,0,0,0,0,0,0,0,0,0,0,0,0,0,0,0],"id":10,"left_children":[1,3,5,7,9,11,13,15,17,19,-1,21,-1,-1,23,25,-1,-1,-1,-1,-1,-1,27,-1,29,31,33,-1,-1,-1,-1,35,37,39,-1,41,-1,-1,-1,-1,-1,43,-1,-1,-1],"loss_changes":[3.1039887E4,5.100165E3,6.8393945E2,1.5169668E3,1.472937E1,3.7095703E1,1.4732095E2,9.1151953E2,3.2178345E0,3.2729492E0,0E0,3.1875E0,0E0,0E0,1.44661255E1,7.013633E2,0E0,0E0,0E0,0E0,0E0,0E0,2.4197187E0,0E0,1.3217163E0,3.0792773E2,2.0919666E2,0E0,0E0,0E0,0E0,2.547832E2,2.8843155E0,3.1546326E0,0E0,1.974043E2,0E0,0E0,0E0,0E0,0E0,1.6457227E2,0E0,0E0,0E0],"parents":[2147483647,0,0,1,1,2,2,3,3,4,4,5,5,6,6,7,7,8,8,9,9,11,11,14,14,15,15,22,22,24,24,25,25,26,26,31,31,32,32,33,33,35,35,41,41],"right_children":[2,4,6,8,10,12,14,16,18,20,-1,22,-1,-1,24,26,-1,-1,-1,-1,-1,-1,28,-1,30,32,34,-1,-1,-1,-1,36,38,40,-1,42,-1,-1,-1,-1,-1,44,-1,-1,-1],"split_conditions":[-2.6071668E-1,-6.680411E-2,2.618206E0,-2.3507722E-1,2.228478E0,4.4990277E0,1.7699775E0,-7.248411E-2,3.2561623E-2,-2.4022473E-1,-1.4096096E-1,7.5300612E0,-2.8873608E-1,3.741142E-1,4.2267764E-1,-2.8952014E-1,3.9667666E-1,4.012413E-1,3.5091806E-2,3.5091806E-2,4.029892E-1,4.0407044E-1,1.9519466E-1,1.23539835E-1,2.2814476E0,-9.345959E-2,8.896023E-1,2.3440403E-1,-7.813006E-2,-3.9681342E-1,-7.813006E-2,1.2033025E1,-2.057172E-1,-7.600069E-2,-3.8113162E-1,1.409981E1,3.8617963E-1,3.5091806E-2,3.8919204E-1,3.990447E-1,3.5091806E-2,1.6258806E1,3.812146E-1,-3.0217093E-1,3.7692234E-1],"split_indices":[523,316,355,5,355,636,327,300,97,5,0,262,0,0,548,140,0,0,0,0,0,0,7,0,185,274,365,0,0,0,0,164,7,3,0,260,0,0,0,0,0,359,0,0,0],"split_type":[0,0,0,0,0,0,0,0,0,0,0,0,0,0,0,0,0,0,0,0,0,0,0,0,0,0,0,0,0,0,0,0,0,0,0,0,0,0,0,0,0,0,0,0,0],"sum_hessian":[1.3794611E4,8.671606E3,5.1230044E3,8.181341E3,4.902656E2,5.054107E3,6.889762E1,8.045921E3,1.3542003E2,4.886705E2,1.595064E0,5.051607E3,2.5E0,1.2422304E1,5.647532E1,7.9666514E3,7.926966E1,1.342299E2,1.1901281E0,1.1901281E0,4.8748038E2,5.0491313E3,2.47532E0,1.880256E0,5.4595062E1,7.872012E3,9.4639404E1,1.380256E0,1.095064E0,5.35E1,1.095064E0,7.844942E3,2.706993E1,7.8139404E1,1.65E1,7.823548E3,2.1393969E1,1.1901281E0,2.58798E1,7.694927E1,1.1901281E0,7.806985E3,1.6563072E1,7.7931826E3,1.3802561E1],"tree_param":{"num_deleted":"0","num_feature":"779","num_nodes":"45","size_leaf_vector":"1"}},{"base_weights":[1.4745765E-3,-1.1513349E0,1.9566005E0,-1.345501E0,1.9862275E0,1.9935116E0,-1.5969275E0,-1.4108757E0,1.9561865E0,1.9921075E0,-8.75796E-3,1.9974414E0,-3.3685875E-1,2.9933363E-1,-1.9301631E0,-1.4417064E0,3.9596832E-1,4.0168044E-1,-2.2457251E-1,4.0343103E-1,3.624379E-2,4.0403125E-1,9.969751E-1,-3.957204E-1,-7.734207E-2,-1.47234E0,1.2562567E0,3.5351047E-1,-2.6948702E-1,-1.482496E0,3.873879E-1,1.9461894E0,-3.8009733E-1,-1.4921973E0,1.7890741E0,3.9870355E-1,3.624379E-2,-1.4981052E0,3.7584892E-1,3.8634935E-1,-7.734207E-2,-3.0404156E-1,3.3982027E-1],"categories":[],"categories_nodes":[],"categories_segments":[],"categories_sizes":[],"default_left":[0,0,0,0,0,0,0,0,0,0,0,0,0,0,0,0,0,0,0,0,0,0,0,0,0,0,0,0,0,0,0,0,0,0,0,0,0,0,0,0,0,0,0],"id":11,"left_children":[1,3,5,7,9,11,13,15,17,19,-1,21,-1,-1,23,25,-1,-1,-1,-1,-1,-1,27,-1,-1,29,31,-1,-1,33,-1,35,-1,37,39,-1,-1,41,-1,-1,-1,-1,-1],"loss_changes":[3.1222459E4,5.3115576E3,6.771465E2,1.7742461E3,6.1517334E0,7.6484375E1,5.7608078E1,8.390469E2,1.7496216E1,3.2591553E0,0E0,6.001953E0,0E0,0E0,1.3363495E0,6.6105273E2,0E0,0E0,0E0,0E0,0E0,0E0,1.9804977E1,0E0,0E0,2.7429688E2,1.9862326E2,0E0,0E0,2.5225977E2,0E0,3.1221924E0,0E0,1.5805078E2,7.035637E0,0E0,0E0,1.5666016E2,0E0,0E0,0E0,0E0,0E0],"parents":[2147483647,0,0,1,1,2,2,3,3,4,4,5,5,6,6,7,7,8,8,9,9,11,11,14,14,15,15,22,22,25,25,26,26,29,29,31,31,33,33,34,34,37,37],"right_children":[2,4,6,8,10,12,14,16,18,20,-1,22,-1,-1,24,26,-1,-1,-1,-1,-1,-1,28,-1,-1,30,32,-1,-1,34,-1,36,-1,38,40,-1,-1,42,-1,-1,-1,-1,-1],"split_conditions":[-2.7044186E-1,-6.725446E-2,3.375271E0,-2.3542762E-1,4.483576E0,4.4990277E0,1.7923231E0,-7.227644E-2,9.7325367E-1,2.0143209E0,-8.75796E-3,3.2460093E-1,-3.3685875E-1,2.9933363E-1,3.186671E-1,1.7087176E-2,3.9596832E-1,4.0168044E-1,-2.2457251E-1,4.0343103E-1,3.624379E-2,4.0403125E-1,2.670404E-2,-3.957204E-1,-7.734207E-2,2.6328738E0,-1.3015822E-1,3.5351047E-1,-2.6948702E-1,4.418784E0,3.873879E-1,-7.740233E-2,-3.8009733E-1,1.6258806E1,-7.860374E-2,3.9870355E-1,3.624379E-2,3.6027484E-2,3.7584892E-1,3.8634935E-1,-7.734207E-2,-3.0404156E-1,3.3982027E-1],"split_indices":[523,316,355,5,461,636,327,300,355,355,0,237,0,0,54,140,0,0,0,0,0,0,97,0,0,374,365,0,0,164,0,3,0,359,3,0,0,269,0,0,0,0,0],"split_type":[0,0,0,0,0,0,0,0,0,0,0,0,0,0,0,0,0,0,0,0,0,0,0,0,0,0,0,0,0,0,0,0,0,0,0,0,0,0,0,0,0,0,0],"sum_hessian":[1.3850713E4,8.713402E3,5.1373105E3,8.206142E3,5.0726056E2,5.0849316E3,5.237889E1,8.047373E3,1.5876843E2,5.0581357E2,1.4469843E0,5.0799316E3,5E0,4.7803974E0,4.759849E1,7.9749854E3,7.238787E1,1.5751843E2,1.25E0,5.0461658E2,1.1969843E0,5.070962E3,8.969842E0,4.65E1,1.0984921E0,7.8859004E3,8.9084854E1,6.9698424E0,2E0,7.8629E3,2.3000479E1,7.3334854E1,1.575E1,7.840195E3,2.2705004E1,7.213787E1,1.1969843E0,7.826952E3,1.3242701E1,2.1606512E1,1.0984921E0,7.8122627E3,1.4689685E1],"tree_param":{"num_deleted":"0","num_feature":"779","num_nodes":"43","size_leaf_vector":"1"}},{"base_weights":[1.9317933E0,2.8410597E0,1.4149837E0,2.7712297E0,1.616922E0,1.3712027E0,1.616922E0,2.862669E0,1.7293563E-1,1.2887568E0,5.366241E0,2.9068077E0,-1.7882878E-1,1.413231E0,-9.5673573E-1,8E0,-5.779159E-1,2.856817E0,9.370075E-1,1.3648461E0,7.4635754E0,1.6920644E-1,-2.0485647E-1,1.616922E0,-3.8021347E-1,-1.8239905E-1,1.2521778E-1,2.8720539E0,6.7119396E-1,1.7112052E0,7.718989E-1,1.616922E0,2.3724857E-1,4.08497E-2,-1.3641937E-1,2.8174748E0,7.4486256E-1,2.0732513E-1,-5.796911E-3,1.4999845E0,8E0,6.541557E-1,1.2947052E0,2.7825894E0,7.9478616E-1,1.6160171E0,-6.437548E-1,3.147009E-1,8E0,1.616922E0,5.801502E-1,5.655302E-1,2.6884425E-1,3.095218E-1,1.373314E0,2.3471713E-1,-1.9825272E-1,-9.2349954E-2,1.412588E-1,1.616922E0,2.0332475E-1,9.6200824E-2,1.180821E0],"categories":[],"categories_nodes":[],"categories_segments":[],"categories_sizes":[],"default_left":[0,0,0,0,0,0,0,0,0,0,0,0,0,0,0,0,0,0,0,0,0,0,0,0,0,0,0,0,0,0,0,0,0,0,0,0,0,0,0,0,0,0,0,0,0,0,0,0,0,0,0,0,0,0,0,0,0,0,0,0,0,0,0],"id":12,"left_children":[1,3,5,7,-1,9,-1,11,-1,13,15,17,-1,19,21,23,25,27,-1,29,31,-1,-1,-1,33,-1,-1,35,37,39,41,-1,-1,-1,-1,43,-1,-1,-1,45,47,49,-1,51,-1,53,55,57,59,-1,61,-1,-1,-1,-1,-1,-1,-1,-1,-1,-1,-1,-1],"loss_changes":[7.0879346E2,2.7897168E2,4.0618616E2,9.3313965E1,0E0,3.116233E2,0E0,8.881201E1,0E0,2.6656506E2,4.8727667E2,3.1321777E1,0E0,2.5311853E2,5.9897156E0,2.0483154E2,4.1754837E0,1.4845703E1,0E0,1.8218372E2,3.881668E1,0E0,0E0,0E0,7.9344076E-1,0E0,0E0,1.18046875E1,1.2186031E0,8.391726E2,2.1557635E2,0E0,0E0,0E0,0E0,7.4416504E0,0E0,0E0,0E0,1.3749854E2,1.8672314E2,1.9795532E2,0E0,6.6533203E0,0E0,2.177373E2,1.8716137E1,1.5777856E0,3.6044067E1,0E0,1.7479868E2,0E0,0E0,0E0,0E0,0E0,0E0,0E0,0E0,0E0,0E0,0E0,0E0],"parents":[2147483647,0,0,1,1,2,2,3,3,5,5,7,7,9,9,10,10,11,11,13,13,14,14,15,15,16,16,17,17,19,19,20,20,24,24,27,27,28,28,29,29,30,30,35,35,39,39,40,40,41,41,43,43,45,45,46,46,47,47,48,48,50,50],"right_children":[2,4,6,8,-1,10,-1,12,-1,14,16,18,-1,20,22,24,26,28,-1,30,32,-1,-1,-1,34,-1,-1,36,38,40,42,-1,-1,-1,-1,44,-1,-1,-1,46,48,50,-1,52,-1,54,56,58,60,-1,62,-1,-1,-1,-1,-1,-1,-1,-1,-1,-1,-1,-1],"split_conditions":[-8.162228E-1,-1.351703E-1,1.626077E1,-2.236403E-1,1.616922E0,4.235424E0,1.616922E0,-9.0732485E-2,1.7293563E-1,2.1920805E0,-1.2353224E-1,7.2198353E0,-1.7882878E-1,6.5400105E0,5.617423E-1,-2.398493E-1,-2.397325E-1,-2.402581E-1,9.370075E-1,-1.351703E-1,1.5782027E-2,1.6920644E-1,-2.0485647E-1,1.616922E0,-7.8128174E-2,-1.8239905E-1,1.2521778E-1,1.5486293E-1,-2.4024141E-1,1.9647453E0,1.8170822E1,1.616922E0,2.3724857E-1,4.08497E-2,-1.3641937E-1,2.1591578E-1,7.4486256E-1,2.0732513E-1,-5.796911E-3,1.677718E0,-3.3570877E-1,-5.60605E-1,1.2947052E0,-9.095004E-4,7.9478616E-1,4.1239185E0,-5.2248025E-1,-2.2690126E-1,1.5782027E-2,1.616922E0,1.2006329E1,5.655302E-1,2.6884425E-1,3.095218E-1,1.373314E0,2.3471713E-1,-1.9825272E-1,-9.2349954E-2,1.412588E-1,1.616922E0,2.0332475E-1,9.6200824E-2,1.180821E0],"split_indices":[93,0,347,418,0,0,0,299,0,490,402,638,0,591,210,5,5,5,0,0,403,0,0,0,3,0,0,750,5,477,269,0,0,0,0,626,0,0,0,355,7,477,0,460,0,327,16,5,403,0,374,0,0,0,0,0,0,0,0,0,0,0,0],"split_type":[0,0,0,0,0,0,0,0,0,0,0,0,0,0,0,0,0,0,0,0,0,0,0,0,0,0,0,0,0,0,0,0,0,0,0,0,0,0,0,0,0,0,0,0,0,0,0,0,0,0,0,0,0,0,0,0,0,0,0,0,0,0,0],"sum_hessian":[1.515891E3,5.477287E2,9.6816223E2,5.457148E2,2.0139165E0,9.661029E2,2.0593128E0,5.2038055E2,2.5334244E1,9.478643E2,1.8238558E1,5.1454443E2,5.836133E0,8.9843225E2,4.9432076E1,9.932734E0,8.305823E0,5.026646E2,1.1879803E1,8.925203E2,5.911959E0,1.0961696E0,4.8335907E1,7.1047487E0,2.8279853E0,6.7285914E0,1.5772321E0,4.9887268E2,3.7919304E0,5.622225E2,3.3029785E2,4.662749E0,1.2492105E0,1.0559803E0,1.7720048E0,4.716825E2,2.7190205E1,2.2077472E0,1.5841833E0,5.4758966E2,1.4632789E1,3.246295E2,5.6683693E0,4.6076065E2,1.0921826E1,5.197061E2,2.7883562E1,3.244953E0,1.13878355E1,1.7051159E0,3.2292435E2,4.549886E2,5.772061E0,5.12627E2,7.079111E0,4.003536E0,2.3880026E1,1.015729E0,2.229224E0,1.0342628E1,1.0452079E0,3.1772452E2,5.199844E0],"tree_param":{"num_deleted":"0","num_feature":"779","num_nodes":"63","size_leaf_vector":"1"}},{"base_weights":[1.9127239E0,2.8889213E0,1.3638443E0,2.8190293E0,1.616922E0,1.2851979E0,5.320709E0,2.8605094E0,-1.7881076E-1,1.2407966E0,1.582332E0,8E0,-5.3467804E-1,2.950955E0,1.0827237E0,1.2102875E0,1.616922E0,1.616922E0,7.836885E-1,-1.8049121E-1,1.2816581E-1,2.9633174E0,-1.3036288E-1,6.829995E-1,4.455888E-1,1.3267752E0,-9.90966E-1,4.0754956E-1,-1.3642994E-1,2.9946332E0,2.8147903E-1,7.697934E-1,-1.0746426E-1,1.3026496E0,1.616922E0,8.5934386E-2,-2.081642E-1,5.742957E-1,3.5536532E0,9.462093E-1,2.7337788E-2,1.6522418E0,7.3640954E-1,3.610351E0,1.2560613E-1,1.380227E-1,2.4635328E-1,1.4024501E0,8E0,6.286076E-1,1.616922E0,7.415102E-1,2.4705651E-1,3.062808E-1,-1.570217E-1,1.616922E0,8.171481E-2,1.05484165E-1,1.2264135E0],"categories":[],"categories_nodes":[],"categories_segments":[],"categories_sizes":[],"default_left":[0,0,0,0,0,0,0,0,0,0,0,0,0,0,0,0,0,0,0,0,0,0,0,0,0,0,0,0,0,0,0,0,0,0,0,0,0,0,0,0,0,0,0,0,0,0,0,0,0,0,0,0,0,0,0,0,0,0,0],"id":13,"left_children":[1,3,5,7,-1,9,11,13,-1,15,-1,17,19,21,23,25,-1,-1,27,-1,-1,29,-1,31,-1,33,35,-1,-1,37,-1,39,-1,41,-1,-1,-1,-1,43,45,-1,47,49,51,-1,-1,-1,53,55,57,-1,-1,-1,-1,-1,-1,-1,-1,-1],"loss_changes":[8.173706E2,2.7521875E2,2.9908044E2,8.682129E1,0E0,2.707257E2,4.5003412E2,8.408545E1,0E0,2.6617383E2,0E0,1.7607306E2,4.2994995E0,2.4848145E1,1.0987381E1,2.4707922E2,0E0,0E0,9.650974E0,0E0,0E0,2.1127441E1,0E0,2.727561E0,0E0,1.8313684E2,3.1273613E0,0E0,0E0,3.302002E1,0E0,2.2150888E0,0E0,1.7885474E2,0E0,0E0,0E0,0E0,1.5096924E1,3.315506E-1,0E0,1.1113971E3,3.1185645E2,9.756348E0,0E0,0E0,0E0,1.3577405E2,2.1616785E2,1.9755264E2,0E0,0E0,0E0,0E0,0E0,0E0,0E0,0E0,0E0],"parents":[2147483647,0,0,1,1,2,2,3,3,5,5,6,6,7,7,9,9,11,11,12,12,13,13,14,14,15,15,18,18,21,21,23,23,25,25,26,26,29,29,31,31,33,33,38,38,39,39,41,41,42,42,43,43,47,47,48,48,49,49],"right_children":[2,4,6,8,-1,10,12,14,-1,16,-1,18,20,22,24,26,-1,-1,28,-1,-1,30,-1,32,-1,34,36,-1,-1,38,-1,40,-1,42,-1,-1,-1,-1,44,46,-1,48,50,52,-1,-1,-1,54,56,58,-1,-1,-1,-1,-1,-1,-1,-1,-1],"split_conditions":[-7.9592824E-1,-1.351703E-1,4.235424E0,9.453344E0,1.616922E0,1.9990627E1,-1.2366633E-1,-2.2383183E-1,-1.7881076E-1,1.626077E1,1.582332E0,-2.3994108E-1,-2.3966576E-1,2.1477738E-2,6.7293673E0,2.258078E0,1.616922E0,1.616922E0,-1.08408876E-1,-1.8049121E-1,1.2816581E-1,5.0406785E0,-1.3036288E-1,1.447173E0,4.455888E-1,1.8445442E1,1.17760114E-1,4.0754956E-1,-1.3642994E-1,-2.4029148E-1,2.8147903E-1,5.8984447E-1,-1.0746426E-1,-1.351703E-1,1.616922E0,8.5934386E-2,-2.081642E-1,5.742957E-1,-6.911424E-2,-9.0179324E-2,2.7337788E-2,1.9647453E0,3.5344415E0,-1.1687487E-1,1.2560613E-1,1.380227E-1,2.4635328E-1,1.8909636E0,-2.3998278E-1,1.1414623E1,1.616922E0,7.415102E-1,2.4705651E-1,3.062808E-1,-1.570217E-1,1.616922E0,8.171481E-2,1.05484165E-1,1.2264135E0],"split_indices":[129,0,0,299,0,345,402,418,0,347,0,5,5,258,527,336,0,0,155,0,0,607,0,621,0,496,15,0,0,5,0,601,0,0,0,0,0,0,381,748,0,477,581,501,0,0,0,355,5,417,0,0,0,0,0,0,0,0,0],"split_type":[0,0,0,0,0,0,0,0,0,0,0,0,0,0,0,0,0,0,0,0,0,0,0,0,0,0,0,0,0,0,0,0,0,0,0,0,0,0,0,0,0,0,0,0,0,0,0,0,0,0,0,0,0,0,0,0,0,0,0],"sum_hessian":[1.5318256E3,5.4977405E2,9.820515E2,5.4765173E2,2.122349E0,9.6421173E2,1.783981E1,5.4181134E2,5.840348E0,9.5889484E2,5.3168635E0,9.926148E0,7.9136605E0,5.1495294E2,2.6858387E1,9.574499E2,1.4449524E0,6.3160205E0,3.6101277E0,6.2373576E0,1.676303E0,5.13364E2,1.5889423E0,2.0988987E1,5.8694015E0,9.097066E2,4.7743332E1,1.7493912E0,1.8607364E0,5.024397E2,1.0924328E1,1.9931114E1,1.0578725E0,9.0866693E2,1.0396347E0,1.012969E0,4.6730362E1,3.9913474E2,1.0330497E2,1.5210926E1,4.7201877E0,5.606241E2,3.4804285E2,1.0111843E2,2.1865382E0,9.520913E0,5.6900134E0,5.45905E2,1.47191105E1,3.448255E2,3.2173316E0,9.818108E1,2.9373436E0,5.19301E2,2.6603949E1,1.0863068E1,3.8560429E0,3.3926584E2,5.5596795E0],"tree_param":{"num_deleted":"0","num_feature":"779","num_nodes":"59","size_leaf_vector":"1"}},{"base_weights":[1.9571884E0,2.902246E0,1.4442692E0,2.8173957E0,1.616922E0,1.3459988E0,6.539991E0,2.9011564E0,9.882455E-1,1.3072112E0,1.616922E0,8E0,-5.80531E-1,2.9371948E0,-1.7209685E-1,2.9106465E-1,1.07605755E-1,1.434498E0,-9.1454816E-1,1.616922E0,-2.822393E-1,-1.817989E-1,1.23188555E-1,2.880363E0,1.0427458E0,1.1096335E-2,2.6979096E-2,1.3928276E0,8E0,-1.0052056E0,1.6174799E-1,6.697092E-2,-1.305996E-1,2.8913367E0,1.4415649E-1,1.3317906E0,5.5959344E0,1.616922E0,5.759965E-2,-2.0889352E-1,4.0788487E-2,2.9014277E0,1.6808447E-1,1.7637428E0,6.191175E-1,1.5993953E-1,1.4249723E0,2.878451E0,1.2275385E0,1.5051552E0,8E0,5.191078E-1,1.403239E0,5.8308774E-1,9.974018E-2,3.2836252E-1,-1.2000854E-1,7.781713E-2,1.616922E0,8.605765E-2,1.2445765E0],"categories":[],"categories_nodes":[],"categories_segments":[],"categories_sizes":[],"default_left":[0,0,0,0,0,0,0,0,0,0,0,0,0,0,0,0,0,0,0,0,0,0,0,0,0,0,0,0,0,0,0,0,0,0,0,0,0,0,0,0,0,0,0,0,0,0,0,0,0,0,0,0,0,0,0,0,0,0,0,0,0],"id":14,"left_children":[1,3,5,7,-1,9,11,13,15,17,-1,19,21,23,-1,-1,25,27,29,-1,31,-1,-1,33,-1,-1,-1,35,37,39,-1,-1,-1,41,-1,43,45,-1,-1,-1,-1,47,-1,49,51,-1,-1,53,-1,55,57,59,-1,-1,-1,-1,-1,-1,-1,-1,-1],"loss_changes":[7.356089E2,3.3666992E2,4.8757983E2,7.8862305E1,0E0,3.528706E2,5.6427716E2,7.1413574E1,9.742865E0,2.761427E2,0E0,1.9393921E2,3.990421E0,4.8902832E1,0E0,0E0,5.6498945E-3,2.7278125E2,9.085918E0,0E0,1.0537814E0,0E0,0E0,9.700195E0,0E0,0E0,0E0,2.2746643E2,9.374414E1,1.9538956E0,0E0,0E0,0E0,7.8095703E0,0E0,2.771671E2,8.3828E1,0E0,0E0,0E0,0E0,1.8156738E1,0E0,1.1322577E3,2.1309781E2,0E0,0E0,6.1030273E0,0E0,1.3806763E2,2.3385449E2,1.7544786E2,0E0,0E0,0E0,0E0,0E0,0E0,0E0,0E0,0E0],"parents":[2147483647,0,0,1,1,2,2,3,3,5,5,6,6,7,7,8,8,9,9,11,11,12,12,13,13,16,16,17,17,18,18,20,20,23,23,27,27,28,28,29,29,33,33,35,35,36,36,41,41,43,43,44,44,47,47,49,49,50,50,51,51],"right_children":[2,4,6,8,-1,10,12,14,16,18,-1,20,22,24,-1,-1,26,28,30,-1,32,-1,-1,34,-1,-1,-1,36,38,40,-1,-1,-1,42,-1,44,46,-1,-1,-1,-1,48,-1,50,52,-1,-1,54,-1,56,58,60,-1,-1,-1,-1,-1,-1,-1,-1,-1],"split_conditions":[-2.4028313E-1,1.852287E0,4.386134E0,-2.238509E-1,1.616922E0,1.626077E1,-1.2353224E-1,-9.077124E-2,4.103628E0,1.4550277E0,1.616922E0,-2.3981594E-1,-2.3969913E-1,1.6704655E-1,-1.7209685E-1,2.9106465E-1,5.105144E-1,8.924577E0,2.8516075E-1,1.616922E0,-7.8228295E-2,-1.817989E-1,1.23188555E-1,2.8474626E-1,1.0427458E0,1.1096335E-2,2.6979096E-2,4.284444E0,-2.2973109E-2,1.7135843E0,1.6174799E-1,6.697092E-2,-1.305996E-1,-5.7655077E-2,1.4415649E-1,-1.351703E-1,7.2934026E-1,1.616922E0,5.759965E-2,-2.0889352E-1,4.0788487E-2,-6.2409755E-2,1.6808447E-1,1.2099053E0,1.9990627E1,1.5993953E-1,1.4249723E0,5.105144E-1,1.2275385E0,2.7075634E0,-2.9995105E-1,1.8170822E1,1.403239E0,5.8308774E-1,9.974018E-2,3.2836252E-1,-1.2000854E-1,7.781713E-2,1.616922E0,8.605765E-2,1.2445765E0],"split_indices":[5,9,0,418,0,347,402,299,547,445,0,5,5,734,0,0,540,74,648,0,3,0,0,576,0,0,0,81,296,558,0,0,0,260,0,0,7,0,0,0,0,2,0,477,345,0,0,540,0,222,7,269,0,0,0,0,0,0,0,0,0],"split_type":[0,0,0,0,0,0,0,0,0,0,0,0,0,0,0,0,0,0,0,0,0,0,0,0,0,0,0,0,0,0,0,0,0,0,0,0,0,0,0,0,0,0,0,0,0,0,0,0,0,0,0,0,0,0,0,0,0,0,0,0,0],"sum_hessian":[1.5251863E3,5.349248E2,9.902615E2,5.3243744E2,2.4874046E0,9.72766E2,1.7495537E1,5.0856314E2,2.3874262E1,9.708184E2,1.9475701E0,9.426634E0,8.068904E0,5.039409E2,4.6222825E0,1.5358631E1,8.515631E0,9.185482E2,5.227018E1,6.6663394E0,2.7602942E0,6.555937E0,1.5129666E0,4.9361194E2,1.0328924E1,3.8322196E0,4.683411E0,9.1470056E2,3.8476274E0,5.0038605E1,2.231573E0,1.0609707E0,1.6993235E0,4.907925E2,2.8194323E0,9.029055E2,1.179505E1,2.1974216E0,1.6502057E0,4.9031464E1,1.0071433E0,4.8799304E2,2.7994704E0,5.6125385E2,3.4165167E2,3.0995457E0,8.695503E0,4.863774E2,1.6156415E0,5.457324E2,1.55214405E1,3.3739774E2,4.253917E0,4.848513E2,1.5261298E0,5.16555E2,2.9177462E1,4.136484E0,1.1384956E1,3.3296255E2,4.4352045E0],"tree_param":{"num_deleted":"0","num_feature":"779","num_nodes":"61","size_leaf_vector":"1"}},{"base_weights":[1.9221352E0,2.6403115E0,1.337704E0,2.5555148E0,1.616922E0,1.4895493E0,-9.395942E-1,2.6683133E0,4.5289752E-1,1.3844928E0,4.5030365E0,1.7971057E-1,-2.0581356E-1,2.7128544E0,-1.8482806E-1,5.464873E-1,-1.4198126E-1,1.3551849E0,1.616922E0,1.616922E0,1.1715462E0,2.6758685E0,1.616922E0,4.455301E-1,2.623501E-1,1.7267814E0,7.3278856E-1,8.447301E-2,1.3825465E0,2.7182589E0,-1.6846272E-1,6.777979E-1,-2.4336375E-1,1.4226273E0,8E0,6.237054E-1,1.331528E0,-3.2635114E-1,7.335071E-1,2.6744685E0,1.616922E0,1.6165103E-1,9.013563E-3,-8.813321E-2,-8.186368E-2,1.5660294E0,-8.925881E-1,6.3138866E-1,8E0,5.172718E-1,1.2381618E0,-7.840006E-1,2.5646305E-1,2.7141078E0,-1.8213655E-1,1.9554282E-2,-5.3378195E-2,1.3792869E0,5.8128357E0,-1.1502007E0,6.19774E-1,1.8375082E-1,-3.058642E-2,8E0,3.88053E-1,4.311371E-1,1.1146551E0,-1.8982293E-1,-8.662655E-2,5.569679E-1,-1.4901169E-1,2.3729442E-1,4.72098E-1,1.616922E0,1.7965649E-1,-4.3817386E-2,-2.391804E-1,2.4498986E-1,-1.3245098E-1,1.616922E0,2.0430157E-1,5.808415E-2,4.8686048E-1,6.806431E-2,-9.743981E-2],"categories":[],"categories_nodes":[],"categories_segments":[],"categories_sizes":[],"default_left":[0,0,0,0,0,0,0,0,0,0,0,0,0,0,0,0,0,0,0,0,0,0,0,0,0,0,0,0,0,0,0,0,0,0,0,0,0,0,0,0,0,0,0,0,0,0,0,0,0,0,0,0,0,0,0,0,0,0,0,0,0,0,0,0,0,0,0,0,0,0,0,0,0,0,0,0,0,0,0,0,0,0,0,0,0],"id":15,"left_children":[1,3,5,7,-1,9,11,13,15,17,19,-1,-1,21,-1,23,-1,25,-1,-1,27,29,-1,31,-1,33,35,37,-1,39,-1,41,43,45,47,49,-1,51,-1,53,-1,-1,-1,55,-1,57,59,61,63,65,-1,67,-1,69,-1,-1,-1,71,73,75,77,-1,-1,79,-1,81,-1,-1,83,-1,-1,-1,-1,-1,-1,-1,-1,-1,-1,-1,-1,-1,-1,-1,-1],"loss_changes":[6.3477246E2,4.7937012E2,2.9203662E2,1.5972705E2,0E0,2.433407E2,8.555485E0,1.0521875E2,4.2499623E0,1.77807E2,5.91443E2,0E0,0E0,1.3811377E2,0E0,1.9738102E0,0E0,1.7496472E2,0E0,0E0,1.2825076E2,9.665332E1,0E0,5.153343E0,0E0,1.1515317E3,1.789407E2,2.8203615E1,0E0,1.5650977E2,0E0,1.7858171E0,1.8004829E-1,1.5459857E2,1.7339648E2,1.6224812E2,0E0,1.380345E1,0E0,9.097803E1,0E0,0E0,0E0,2.0980957E-1,0E0,3.368744E2,1.1446831E1,1.0881057E0,3.957422E1,1.1737643E2,0E0,1.4609241E0,0E0,9.074072E1,0E0,0E0,0E0,7.928949E1,2.5979364E2,4.834919E-1,4.3139186E0,0E0,0E0,3.6409668E1,0E0,7.73672E1,0E0,0E0,7.811438E-1,0E0,0E0,0E0,0E0,0E0,0E0,0E0,0E0,0E0,0E0,0E0,0E0,0E0,0E0,0E0,0E0],"parents":[2147483647,0,0,1,1,2,2,3,3,5,5,6,6,7,7,8,8,9,9,10,10,13,13,15,15,17,17,20,20,21,21,23,23,25,25,26,26,27,27,29,29,31,31,32,32,33,33,34,34,35,35,37,37,39,39,43,43,45,45,46,46,47,47,48,48,49,49,51,51,53,53,57,57,58,58,59,59,60,60,63,63,65,65,68,68],"right_children":[2,4,6,8,-1,10,12,14,16,18,20,-1,-1,22,-1,24,-1,26,-1,-1,28,30,-1,32,-1,34,36,38,-1,40,-1,42,44,46,48,50,-1,52,-1,54,-1,-1,-1,56,-1,58,60,62,64,66,-1,68,-1,70,-1,-1,-1,72,74,76,78,-1,-1,80,-1,82,-1,-1,84,-1,-1,-1,-1,-1,-1,-1,-1,-1,-1,-1,-1,-1,-1,-1,-1],"split_conditions":[-2.4027479E-1,1.5539848E-2,2.2286193E0,-2.236595E-1,1.616922E0,3.0297427E0,2.5591502E-1,-1.36312E-1,-1.367085E-1,1.626077E1,-2.4011627E-1,1.7971057E-1,-2.0581356E-1,-1.5534978E-1,-1.8482806E-1,-3.515525E-2,-1.4198126E-1,-1.351703E-1,1.616922E0,1.616922E0,1.1318801E1,-1.3241212E-1,1.616922E0,-2.4028313E-1,2.623501E-1,1.9647453E0,1.9990627E1,1.8374177E0,1.3825465E0,-2.5492367E-1,-1.6846272E-1,1.8484998E-1,5.105144E-1,2.0991988E0,-3.209714E-1,7.98662E0,1.331528E0,-1.4861366E-1,7.335071E-1,-1.3902088E-1,1.616922E0,1.6165103E-1,9.013563E-3,4.758063E-1,-8.186368E-2,2.9232857E0,1.952053E-1,1.4438403E0,3.1975248E-1,1.2006329E1,1.2381618E0,-3.0284762E-1,2.5646305E-1,7.052504E0,-1.8213655E-1,1.9554282E-2,-5.3378195E-2,9.6586084E-1,-2.5185516E-1,3.097414E-1,3.5650292E-1,1.8375082E-1,-3.058642E-2,1.564358E-2,3.88053E-1,5.1581926E0,1.1146551E0,-1.8982293E-1,-7.860374E-2,5.569679E-1,-1.4901169E-1,2.3729442E-1,4.72098E-1,1.616922E0,1.7965649E-1,-4.3817386E-2,-2.391804E-1,2.4498986E-1,-1.3245098E-1,1.616922E0,2.0430157E-1,5.808415E-2,4.8686048E-1,6.806431E-2,-9.743981E-2],"split_indices":[5,0,365,418,0,0,651,450,179,347,5,0,0,89,0,256,0,0,0,0,0,336,0,5,0,477,345,516,0,15,0,615,540,355,7,417,0,374,0,421,0,0,0,527,0,327,707,703,545,374,0,563,0,319,0,0,0,495,523,120,544,0,0,403,0,736,0,0,3,0,0,0,0,0,0,0,0,0,0,0,0,0,0,0,0],"split_type":[0,0,0,0,0,0,0,0,0,0,0,0,0,0,0,0,0,0,0,0,0,0,0,0,0,0,0,0,0,0,0,0,0,0,0,0,0,0,0,0,0,0,0,0,0,0,0,0,0,0,0,0,0,0,0,0,0,0,0,0,0,0,0,0,0,0,0,0,0,0,0,0,0,0,0,0,0,0,0,0,0,0,0,0,0],"sum_hessian":[1.5197689E3,6.8028516E2,8.394838E2,6.7755945E2,2.7256835E0,7.873321E2,5.2151684E1,6.4280597E2,3.475347E1,7.62219E2,2.5113129E1,1.7269641E0,5.042472E1,6.351526E2,7.653393E0,3.263677E1,2.1167006E0,7.609778E2,1.2412107E0,5.207695E0,1.9905434E1,6.334749E2,1.6776637E0,3.0175922E1,2.460846E0,4.7538116E2,2.8559662E2,1.755411E1,2.3513255E0,6.261371E2,7.3378477E0,2.2579212E1,7.5967116E0,4.6043884E2,1.4942321E1,2.814595E2,4.1371307E0,1.6544548E1,1.0095613E0,6.236409E2,2.4961414E0,1.871107E1,3.868143E0,4.6638193E0,2.9328923E0,4.3388785E2,2.655099E1,3.3722239E0,1.1570097E1,2.7719168E2,4.2678237E0,1.3251464E1,3.2930837E0,6.170414E2,6.599533E0,2.4938161E0,2.1700034E0,4.1688132E2,1.7006516E1,2.2891214E1,3.6597745E0,2.3697875E0,1.0024364E0,9.768286E0,1.8018113E0,2.7356308E2,3.6285799E0,1.0555821E1,2.6956427E0,6.098941E2,7.14729E0,3.4506882E2,7.18125E1,9.899983E0,7.106532E0,1.0445313E0,2.1846682E1,2.5326145E0,1.1271601E0,8.712756E0,1.0555296E0,2.560933E2,1.7469797E1,1.3735796E0,1.3220631E0],"tree_param":{"num_deleted":"0","num_feature":"779","num_nodes":"85","size_leaf_vector":"1"}},{"base_weights":[1.9683702E0,2.904156E0,1.4449582E0,2.8162491E0,1.616922E0,1.3603576E0,5.519171E0,2.9105287E0,9.463741E-1,1.4850086E0,-9.778814E-1,8E0,-6.2954056E-1,2.9515576E0,-1.7647645E-1,-1.1733349E-1,1.0468155E0,1.4237815E0,8E0,-2.0502014E-1,6.747104E-2,1.616922E0,-3.8339984E-1,-1.8270963E-1,1.1599464E-1,2.9191918E0,1.616922E0,1.1643564E0,6.2780045E-2,1.3911488E0,1.616922E0,1.616922E0,2.4067628E-1,5.62827E-2,-1.4377198E-1,2.927301E0,-1.0726698E-1,2.4354891E-1,8.238498E-2,1.3638468E0,1.616922E0,2.8777876E0,3.8971999E0,1.4343307E0,-2.0132032E-1,2.9063797E0,2.4143387E-1,2.6410801E0,1.1257558E0,1.5053614E0,-2.004782E-1,5.8177614E-1,7.836124E-1,5.862686E-1,-2.2855237E-2,2.9064643E-1,1.616922E0],"categories":[],"categories_nodes":[],"categories_segments":[],"categories_sizes":[],"default_left":[0,0,0,0,0,0,0,0,0,0,0,0,0,0,0,0,0,0,0,0,0,0,0,0,0,0,0,0,0,0,0,0,0,0,0,0,0,0,0,0,0,0,0,0,0,0,0,0,0,0,0,0,0,0,0,0,0],"id":16,"left_children":[1,3,5,7,-1,9,11,13,15,17,19,21,23,25,-1,-1,27,29,31,-1,-1,-1,33,-1,-1,35,-1,37,-1,39,-1,-1,-1,-1,-1,41,-1,-1,-1,43,-1,45,47,49,-1,51,-1,53,-1,55,-1,-1,-1,-1,-1,-1,-1],"loss_changes":[7.494971E2,3.6411816E2,3.333147E2,9.391748E1,0E0,2.841776E2,4.9447174E2,8.35459E1,4.8717785E0,3.6800012E2,2.717411E0,2.2727795E2,3.5358377E0,7.42334E1,0E0,0E0,1.9266472E0,2.507555E2,5.887799E1,0E0,0E0,0E0,1.0976423E0,0E0,0E0,1.59609375E1,0E0,1.9900131E-1,0E0,1.858429E2,0E0,0E0,0E0,0E0,0E0,1.346582E1,0E0,0E0,0E0,1.5289722E2,0E0,2.0244629E1,3.1806274E1,1.5394543E2,0E0,1.965332E0,0E0,1.072744E1,0E0,4.65463E2,0E0,0E0,0E0,0E0,0E0,0E0,0E0],"parents":[2147483647,0,0,1,1,2,2,3,3,5,5,6,6,7,7,8,8,9,9,10,10,11,11,12,12,13,13,16,16,17,17,18,18,22,22,25,25,27,27,29,29,35,35,39,39,41,41,42,42,43,43,45,45,47,47,49,49],"right_children":[2,4,6,8,-1,10,12,14,16,18,20,22,24,26,-1,-1,28,30,32,-1,-1,-1,34,-1,-1,36,-1,38,-1,40,-1,-1,-1,-1,-1,42,-1,-1,-1,44,-1,46,48,50,-1,52,-1,54,-1,56,-1,-1,-1,-1,-1,-1,-1],"split_conditions":[-7.9592824E-1,1.852287E0,4.386134E0,-2.2375536E-1,1.616922E0,2.0651264E0,-1.2375554E-1,9.453344E0,2.141997E0,6.5400105E0,-3.1829286E-2,-2.3982427E-1,-2.396741E-1,1.7280772E-1,-1.7647645E-1,-1.1733349E-1,1.7800316E-1,1.626077E1,1.5782027E-2,-2.0502014E-1,6.747104E-2,1.616922E0,-7.8178234E-2,-1.8270963E-1,1.1599464E-1,-2.1229659E-1,1.616922E0,-2.4028313E-1,6.2780045E-2,8.985027E0,1.616922E0,1.616922E0,2.4067628E-1,5.62827E-2,-1.4377198E-1,-2.4028313E-1,-1.0726698E-1,2.4354891E-1,8.238498E-2,7.025975E0,1.616922E0,1.9214128E-1,2.1972692E0,7.107586E0,-2.0132032E-1,1.9994359E-1,2.4143387E-1,-2.7314562E-1,1.1257558E0,6.6260343E0,-2.004782E-1,5.8177614E-1,7.836124E-1,5.862686E-1,-2.2855237E-2,2.9064643E-1,1.616922E0],"split_indices":[129,9,0,418,0,490,402,299,130,591,563,5,5,703,0,0,615,347,403,0,0,0,3,0,0,222,0,5,0,472,0,0,0,0,0,5,0,0,0,365,0,607,130,450,0,593,0,495,0,669,0,0,0,0,0,0,0],"split_type":[0,0,0,0,0,0,0,0,0,0,0,0,0,0,0,0,0,0,0,0,0,0,0,0,0,0,0,0,0,0,0,0,0,0,0,0,0,0,0,0,0,0,0,0,0,0,0,0,0,0,0,0,0,0,0,0,0],"sum_hessian":[1.5377733E3,5.499654E2,9.8780786E2,5.473693E2,2.5960846E0,9.690202E2,1.8787674E1,5.205658E2,2.6803566E1,9.2032294E2,4.869727E1,1.0652926E1,8.134748E0,5.1519904E2,5.366735E0,1.359334E0,2.5444231E1,9.1323627E2,7.086646E0,4.7599743E1,1.097525E0,7.5084715E0,3.1444547E0,6.8267365E0,1.308012E0,5.139982E2,1.2007718E0,2.143963E1,4.0046E0,9.114365E2,1.7997516E0,5.436436E0,1.6502103E0,1.0917816E0,2.0526733E0,5.129441E2,1.0541841E0,1.9784666E1,1.6549642E0,9.096175E2,1.8190429E0,4.918046E2,2.113948E1,8.836185E2,2.599894E1,4.8287573E2,8.928873E0,1.3545914E1,7.593568E0,8.588542E2,2.4764402E1,4.732189E2,9.656817E0,1.2330543E1,1.215371E0,8.535934E2,5.2607985E0],"tree_param":{"num_deleted":"0","num_feature":"779","num_nodes":"57","size_leaf_vector":"1"}},{"base_weights":[1.971645E0,2.8829288E0,1.459421E0,2.8232467E0,1.616922E0,1.4236991E0,1.616922E0,2.914433E0,8.2460004E-1,1.3261387E0,4.9378214E0,2.955235E0,-1.7617212E-1,5.084298E-1,4.1521838E-1,1.4546896E0,-9.31702E-1,8E0,1.3017112E0,2.9138455E0,1.616922E0,6.817221E-1,-1.3747923E-1,1.4061673E0,8E0,-1.0201517E0,1.4024037E-1,1.616922E0,-1.11080915E-1,2.9199994E-1,1.3254844E0,2.9514148E0,1.3011967E0,9.012571E-1,-1.191259E-2,1.4814205E0,-9.2659193E-1,1.616922E0,6.799218E-2,2.3984808E-2,-2.1253034E-1,1.0927819E0,-1.8169883E-1,2.8922377E0,1.0326353E0,4.6968856E-1,2.13908E0,2.3225604E-1,6.5054744E-2,1.4328825E0,7.1531434E0,9.222822E-2,-2.0203942E-1,1.7848644E-1,9.4238305E-1,2.833058E0,8.334446E-1,2.5668752E-1,1.5377806E-1,5.6423056E-1,-1.0922558E-1,1.5092205E0,-2.0050342E-1,1.616922E0,1.741428E-1,-4.8130962E-1,2.6253566E-1,5.7841414E-1,2.258627E-1,9.771883E-2,-3.8223474E-3,2.1652901E-1,3.950503E-1,1.08919434E-1,-1.6364169E-1],"categories":[],"categories_nodes":[],"categories_segments":[],"categories_sizes":[],"default_left":[0,0,0,0,0,0,0,0,0,0,0,0,0,0,0,0,0,0,0,0,0,0,0,0,0,0,0,0,0,0,0,0,0,0,0,0,0,0,0,0,0,0,0,0,0,0,0,0,0,0,0,0,0,0,0,0,0,0,0,0,0,0,0,0,0,0,0,0,0,0,0,0,0,0,0],"id":17,"left_children":[1,3,5,7,-1,9,-1,11,13,15,17,19,-1,21,-1,23,25,27,29,31,-1,33,-1,35,37,39,-1,-1,-1,41,-1,43,45,47,-1,49,51,-1,-1,-1,-1,53,-1,55,-1,57,59,-1,-1,61,63,-1,-1,65,-1,67,-1,69,-1,-1,-1,71,-1,-1,-1,73,-1,-1,-1,-1,-1,-1,-1,-1,-1],"loss_changes":[7.029116E2,2.2746387E2,3.224004E2,9.646338E1,0E0,3.260774E2,0E0,8.2660645E1,8.701073E0,2.7574634E2,5.66667E2,1.1737207E2,0E0,4.8444057E0,0E0,3.22536E2,8.117596E0,9.149365E1,1.013503E2,2.7168457E1,0E0,3.1524343E0,0E0,1.5771606E2,8.644705E1,1.8858032E0,0E0,0E0,0E0,1.754679E1,0E0,4.898633E1,8.359398E0,1.7504635E0,0E0,2.2737207E2,3.3292885E0,0E0,0E0,0E0,0E0,3.4537487E1,0E0,2.3904297E1,0E0,3.0252254E-1,1.272217E1,0E0,0E0,1.6015405E2,5.0138916E1,0E0,0E0,7.771702E0,0E0,1.9938232E1,0E0,3.932289E-1,0E0,0E0,0E0,1.600343E2,0E0,0E0,0E0,2.71875E0,0E0,0E0,0E0,0E0,0E0,0E0,0E0,0E0,0E0],"parents":[2147483647,0,0,1,1,2,2,3,3,5,5,7,7,8,8,9,9,10,10,11,11,13,13,15,15,16,16,17,17,18,18,19,19,21,21,23,23,24,24,25,25,29,29,31,31,32,32,33,33,35,35,36,36,41,41,43,43,45,45,46,46,49,49,50,50,53,53,55,55,57,57,61,61,65,65],"right_children":[2,4,6,8,-1,10,-1,12,14,16,18,20,-1,22,-1,24,26,28,30,32,-1,34,-1,36,38,40,-1,-1,-1,42,-1,44,46,48,-1,50,52,-1,-1,-1,-1,54,-1,56,-1,58,60,-1,-1,62,64,-1,-1,66,-1,68,-1,70,-1,-1,-1,72,-1,-1,-1,74,-1,-1,-1,-1,-1,-1,-1,-1,-1],"split_conditions":[-7.9980135E-1,-1.351703E-1,1.626077E1,-2.2379363E-1,1.616922E0,3.0297427E0,1.616922E0,9.453344E0,3.1442118E0,1.4027741E0,-2.400829E-1,1.538989E-1,-1.7617212E-1,-2.4028313E-1,4.1521838E-1,8.924577E0,7.680816E-1,-1.2362167E-1,1.1469511E1,-2.4027479E-1,1.616922E0,4.8221216E-1,-1.3747923E-1,2.7480834E0,-2.3009289E-2,-5.0858873E-1,1.4024037E-1,1.616922E0,-1.11080915E-1,1.4483517E0,1.3254844E0,-2.4028313E-1,-6.2409755E-2,5.1438147E-1,-1.191259E-2,6.5400105E0,1.2099053E0,1.616922E0,6.799218E-2,2.3984808E-2,-2.1253034E-1,4.2311153E0,-1.8169883E-1,1.4352097E-1,1.0326353E0,-2.4024975E-1,1.7465156E-1,2.3225604E-1,6.5054744E-2,4.8873043E0,1.55053185E-2,9.222822E-2,-2.0203942E-1,-5.5654593E-2,9.4238305E-1,1.9676955E-1,8.334446E-1,-2.4026644E-1,1.5377806E-1,5.6423056E-1,-1.0922558E-1,5.3997546E-1,-2.0050342E-1,1.616922E0,1.741428E-1,1.1943703E0,2.6253566E-1,5.7841414E-1,2.258627E-1,9.771883E-2,-3.8223474E-3,2.1652901E-1,3.950503E-1,1.08919434E-1,-1.6364169E-1],"split_indices":[93,0,347,418,0,0,0,299,750,445,5,703,0,5,0,74,523,402,0,5,0,529,0,490,296,733,0,0,0,402,0,5,2,540,0,591,477,0,0,0,0,204,0,750,0,5,48,0,0,365,403,0,0,417,0,768,0,5,0,0,0,766,0,0,0,16,0,0,0,0,0,0,0,0,0],"split_type":[0,0,0,0,0,0,0,0,0,0,0,0,0,0,0,0,0,0,0,0,0,0,0,0,0,0,0,0,0,0,0,0,0,0,0,0,0,0,0,0,0,0,0,0,0,0,0,0,0,0,0,0,0,0,0,0,0,0,0,0,0,0,0,0,0,0,0,0,0,0,0,0,0,0,0],"sum_hessian":[1.5138826E3,5.430783E2,9.708043E2,5.414814E2,1.5968912E0,9.692101E2,1.59424E0,5.1741656E2,2.4064808E1,9.443695E2,2.484058E1,5.12117E2,5.2995863E0,2.0267506E1,3.797302E0,8.938345E2,5.0535007E1,6.3837185E0,1.8456861E1,5.10811E2,1.3060107E0,1.8060854E1,2.2066514E0,8.8960345E2,4.231013E0,4.8280422E1,2.2545855E0,5.2564526E0,1.1272658E0,1.6368189E1,2.0886722E0,4.9837048E2,1.2440514E1,1.376425E1,4.2966037E0,8.621558E2,2.7447645E1,2.6693711E0,1.5616417E0,1.2200406E0,4.7060383E1,9.836733E0,6.531456E0,4.8734512E2,1.1025365E1,7.027273E0,5.41324E0,8.951383E0,4.812867E0,8.560822E2,6.0736237E0,1.1135747E0,2.633407E1,8.6669655E0,1.1697675E0,4.6814682E2,1.9198303E1,5.1449704E0,1.882303E0,4.319455E0,1.0937846E0,8.303207E2,2.5761507E1,4.734151E0,1.3394729E0,5.813835E0,2.8531303E0,4.5977487E2,8.37193E0,2.408612E0,2.7363584E0,4.203806E2,4.099401E2,1.2593801E0,4.5544553E0],"tree_param":{"num_deleted":"0","num_feature":"779","num_nodes":"75","size_leaf_vector":"1"}},{"base_weights":[1.9065553E0,2.7628143E0,1.4338089E0,2.7085712E0,1.616922E0,1.3954359E0,1.616922E0,2.793086E0,9.3447787E-1,1.2977017E0,4.8398867E0,2.8336666E0,-1.3678777E-1,6.4010155E-1,3.5010755E-1,1.4217324E0,-9.238105E-1,8E0,1.2278812E0,2.8054404E0,1.591805E0,3.3899337E-1,2.4839771E-1,1.3836391E0,1.3202235E0,1.8511519E-1,-2.0560737E-1,1.616922E0,-1.1355706E-1,9.1160536E-2,1.4103196E0,2.7574801E0,9.057336E-1,4.7916662E-2,8.884268E-2,1.7076899E0,7.941833E-1,-5.347448E-1,1.8887066E0,2.7625241E0,4.329446E-2,1.4363604E0,8E0,6.1401063E-1,7.8768067E0,1.60079E-1,-8.06709E-1,6.3220406E-1,1.5121347E-1,5.402728E-1,3.093369E0,1.5506285E0,-6.173773E-1,2.2843564E-1,8E0,5.032356E-1,1.328034E0,1.616922E0,1.435662E-1,-1.8275507E-1,-3.3720564E-2,6.5232784E-1,3.7997693E-1,2.9015714E-1,1.616922E0,-2.3041762E-1,2.1174833E-1,1.4707394E-1,-1.2685172E-1,1.616922E0,3.8186944E-1,8.622326E-2,1.2753956E0],"categories":[],"categories_nodes":[],"categories_segments":[],"categories_sizes":[],"default_left":[0,0,0,0,0,0,0,0,0,0,0,0,0,0,0,0,0,0,0,0,0,0,0,0,0,0,0,0,0,0,0,0,0,0,0,0,0,0,0,0,0,0,0,0,0,0,0,0,0,0,0,0,0,0,0,0,0,0,0,0,0,0,0,0,0,0,0,0,0,0,0,0,0],"id":18,"left_children":[1,3,5,7,-1,9,-1,11,13,15,17,19,-1,21,-1,23,25,27,29,31,-1,33,-1,35,-1,-1,-1,-1,-1,37,-1,39,-1,-1,-1,41,43,45,47,49,-1,51,53,55,57,-1,59,-1,-1,-1,61,63,65,67,69,71,-1,-1,-1,-1,-1,-1,-1,-1,-1,-1,-1,-1,-1,-1,-1,-1,-1],"loss_changes":[6.1858984E2,1.9518555E2,3.6246033E2,7.897266E1,0E0,3.274065E2,0E0,7.497949E1,5.054388E0,2.672727E2,5.922441E2,5.092285E1,0E0,3.2639265E0,0E0,1.6900488E2,9.812618E0,9.625098E1,1.3129263E2,2.8775146E1,0E0,5.071807E-2,0E0,1.7229395E2,0E0,0E0,0E0,0E0,0E0,2.1111214E1,0E0,5.8237305E0,0E0,0E0,0E0,1.1571304E3,4.0907312E2,5.701869E0,4.4936237E0,6.4975586E0,0E0,1.3393945E2,2.3151709E2,2.0612604E2,1.1401468E2,0E0,6.065402E-1,0E0,0E0,0E0,1.0180481E1,4.019607E2,2.7807953E1,2.5478084E0,9.491028E1,1.3645103E2,0E0,0E0,0E0,0E0,0E0,0E0,0E0,0E0,0E0,0E0,0E0,0E0,0E0,0E0,0E0,0E0,0E0],"parents":[2147483647,0,0,1,1,2,2,3,3,5,5,7,7,8,8,9,9,10,10,11,11,13,13,15,15,16,16,17,17,18,18,19,19,21,21,23,23,29,29,31,31,35,35,36,36,37,37,38,38,39,39,41,41,42,42,43,43,44,44,46,46,50,50,51,51,52,52,53,53,54,54,55,55],"right_children":[2,4,6,8,-1,10,-1,12,14,16,18,20,-1,22,-1,24,26,28,30,32,-1,34,-1,36,-1,-1,-1,-1,-1,38,-1,40,-1,-1,-1,42,44,46,48,50,-1,52,54,56,58,-1,60,-1,-1,-1,62,64,66,68,70,72,-1,-1,-1,-1,-1,-1,-1,-1,-1,-1,-1,-1,-1,-1,-1,-1,-1],"split_conditions":[-8.162228E-1,-1.351703E-1,1.626077E1,-2.237745E-1,1.616922E0,3.0297427E0,1.616922E0,9.453344E0,9.57468E0,1.8130084E0,-2.4009125E-1,1.6580155E-1,-1.3678777E-1,-9.0179324E-2,3.5010755E-1,1.8170822E1,7.7786883E-3,-1.2371096E-1,1.1469511E1,1.0996171E1,1.591805E0,4.78504E-1,2.4839771E-1,-1.351703E-1,1.3202235E0,1.8511519E-1,-2.0560737E-1,1.616922E0,-1.1355706E-1,-1.482175E-1,1.4103196E0,-1.376922E-1,9.057336E-1,4.7916662E-2,8.884268E-2,1.9647453E0,2.6279356E0,3.7832935E0,-2.3986599E-1,-2.4029148E-1,4.329446E-2,1.747403E0,-1.9919561E-1,1.1414623E1,-2.6139435E-1,1.60079E-1,-3.0284762E-1,6.3220406E-1,1.5121347E-1,5.402728E-1,-2.374499E-1,3.8326209E0,2.699141E-1,1.573348E0,1.5782027E-2,1.9990627E1,1.328034E0,1.616922E0,1.435662E-1,-1.8275507E-1,-3.3720564E-2,6.5232784E-1,3.7997693E-1,2.9015714E-1,1.616922E0,-2.3041762E-1,2.1174833E-1,1.4707394E-1,-1.2685172E-1,1.616922E0,3.8186944E-1,8.622326E-2,1.2753956E0],"split_indices":[93,0,347,418,0,0,0,299,527,336,5,703,0,748,0,269,15,402,0,697,0,529,0,0,0,0,0,0,0,374,0,4,0,0,0,477,581,0,5,5,0,355,7,417,523,0,563,0,0,0,575,327,563,703,403,345,0,0,0,0,0,0,0,0,0,0,0,0,0,0,0,0,0],"split_type":[0,0,0,0,0,0,0,0,0,0,0,0,0,0,0,0,0,0,0,0,0,0,0,0,0,0,0,0,0,0,0,0,0,0,0,0,0,0,0,0,0,0,0,0,0,0,0,0,0,0,0,0,0,0,0,0,0,0,0,0,0,0,0,0,0,0,0,0,0,0,0,0,0],"sum_hessian":[1.5369462E3,5.449908E2,9.919553E2,5.43111E2,1.8797477E0,9.9022723E2,1.7281004E0,5.178664E2,2.5244663E1,9.6424414E2,2.5983116E1,5.120611E2,5.8052764E0,1.975661E1,5.4880533E0,9.135965E2,5.0647606E1,6.7983384E0,1.9184776E1,5.1075818E2,1.3029023E0,1.41150255E1,5.6415854E0,9.0809814E2,5.498407E0,2.0233512E0,4.8624256E1,5.6122565E0,1.186082E0,1.686628E1,2.3184974E0,4.9911948E2,1.1638718E1,8.678074E0,5.436951E0,5.847418E2,3.233563E2,1.3031297E1,3.8349824E0,4.980455E2,1.0739783E0,5.656604E2,1.9081415E1,3.1639435E2,6.961967E0,1.8914994E0,1.1139797E1,1.0028684E0,2.832114E0,3.992126E2,9.88329E1,5.360784E2,2.9581957E1,3.892895E0,1.518852E1,3.1168253E2,4.711819E0,4.60974E0,2.3522272E0,9.308288E0,1.8315095E0,8.750001E1,1.1332896E1,5.282345E2,7.8439136E0,2.2754622E1,6.827335E0,2.5536299E0,1.3392651E0,1.1932744E1,3.2557764E0,3.086825E2,3.0000153E0],"tree_param":{"num_deleted":"0","num_feature":"779","num_nodes":"73","size_leaf_vector":"1"}},{"base_weights":[1.909871E0,2.6136756E0,1.3332435E0,2.547583E0,1.616922E0,1.4809909E0,-9.3993354E-1,2.6670635E0,4.9417326E-1,1.3730084E0,4.7548146E0,-9.8943824E-1,1.1477922E-1,2.7099586E0,-1.8382643E-1,1.8330704E-1,1.57946E0,1.3256676E0,6.729595E0,8E0,-5.647865E-1,-1.0168529E0,2.5412548E-2,2.6632917E0,1.616922E0,-6.4427376E-2,1.6127692E-1,1.7523968E-1,4.0877604E-1,1.2602774E0,5.232744E0,8E0,1.404964E-1,1.616922E0,9.152586E-2,-1.8858005E-1,1.4326012E-1,-2.0919408E-1,-2.9459225E-2,2.7045407E0,-1.8260327E-1,4.4475746E-1,-3.333529E-1,1.6642509E0,6.1149687E-1,1.773974E-1,1.4090366E0,3.1615412E-1,1.616922E0,-1.0821822E-1,1.2609671E-1,2.0837896E-1,-1.4225651E-1,2.7460325E0,-1.6325085E-1,1.6452476E-1,-1.3114169E-1,-7.730147E-1,8.1036076E-2,1.3948036E0,8E0,4.8401746E-1,1.4007797E0,2.7044036E0,1.616922E0,-1.7537417E-1,-8.0198295E-2,1.5066729E0,-8.402021E-1,5.294447E-1,8E0,4.1735494E-1,1.616922E0,5.547745E-1,-1.4769395E-1,2.7891207E-1,8.6601335E-1,-2.2082032E-1,9.748689E-2,1.4317785E-1,6.2641404E-3,1.616922E0,2.0497327E-1,6.4301826E-2,1.1788019E0],"categories":[],"categories_nodes":[],"categories_segments":[],"categories_sizes":[],"default_left":[0,0,0,0,0,0,0,0,0,0,0,0,0,0,0,0,0,0,0,0,0,0,0,0,0,0,0,0,0,0,0,0,0,0,0,0,0,0,0,0,0,0,0,0,0,0,0,0,0,0,0,0,0,0,0,0,0,0,0,0,0,0,0,0,0,0,0,0,0,0,0,0,0,0,0,0,0,0,0,0,0,0,0,0,0],"id":19,"left_children":[1,3,5,7,-1,9,11,13,15,17,19,21,-1,23,-1,25,27,29,31,33,35,37,-1,39,-1,41,-1,-1,-1,43,45,47,49,-1,51,-1,-1,-1,-1,53,-1,55,57,59,61,-1,-1,-1,-1,-1,-1,-1,-1,63,-1,-1,-1,65,-1,67,69,71,-1,73,-1,-1,-1,75,77,79,81,83,-1,-1,-1,-1,-1,-1,-1,-1,-1,-1,-1,-1,-1],"loss_changes":[6.1208105E2,3.557705E2,2.820891E2,1.6544482E2,0E0,2.7103406E2,4.414879E0,1.00976074E2,1.2734277E1,1.8417944E2,5.8111725E2,1.666893E0,0E0,1.875669E2,0E0,4.7928386E0,9.1791916E-1,1.865669E2,1.5279529E2,2.2143835E2,6.4465113E0,6.286087E-1,0E0,9.5504395E1,0E0,3.3139963E0,0E0,0E0,0E0,1.9422107E2,8.571692E1,2.6674408E1,1.5356117E0,0E0,4.1358013E0,0E0,0E0,0E0,0E0,9.337988E1,0E0,3.927784E0,5.3786206E0,9.41728E2,2.2818872E2,0E0,0E0,0E0,0E0,0E0,0E0,0E0,0E0,1.26756836E2,0E0,0E0,0E0,1.76692E-2,0E0,1.1250476E2,1.9203735E2,1.5178036E2,0E0,8.752002E1,0E0,0E0,0E0,1.433562E2,7.818877E0,3.8726556E-1,4.3003906E1,1.4944035E2,0E0,0E0,0E0,0E0,0E0,0E0,0E0,0E0,0E0,0E0,0E0,0E0,0E0],"parents":[2147483647,0,0,1,1,2,2,3,3,5,5,6,6,7,7,8,8,9,9,10,10,11,11,13,13,15,15,16,16,17,17,18,18,19,19,20,20,21,21,23,23,25,25,29,29,30,30,31,31,32,32,34,34,39,39,41,41,42,42,43,43,44,44,53,53,57,57,59,59,60,60,61,61,63,63,67,67,68,68,69,69,70,70,71,71],"right_children":[2,4,6,8,-1,10,12,14,16,18,20,22,-1,24,-1,26,28,30,32,34,36,38,-1,40,-1,42,-1,-1,-1,44,46,48,50,-1,52,-1,-1,-1,-1,54,-1,56,58,60,62,-1,-1,-1,-1,-1,-1,-1,-1,64,-1,-1,-1,66,-1,68,70,72,-1,74,-1,-1,-1,76,78,80,82,84,-1,-1,-1,-1,-1,-1,-1,-1,-1,-1,-1,-1,-1],"split_conditions":[-2.4027479E-1,1.5539848E-2,1.5758632E0,1.6979717E-1,1.616922E0,3.0297427E0,7.957452E-1,-1.3657707E-1,5.851523E0,8.3002825E0,-1.2368122E-1,1.607575E0,1.1477922E-1,-1.5514262E-1,-1.8382643E-1,9.830073E0,-3.3288807E-2,4.284444E0,-2.358707E-2,-2.3989101E-1,-2.3968245E-1,8.4431577E-1,2.5412548E-2,-1.3896213E-1,1.616922E0,8.4531695E-2,1.6127692E-1,1.7523968E-1,4.0877604E-1,-1.351703E-1,6.831516E-1,1.447173E0,-2.4024141E-1,1.616922E0,-1.08408876E-1,-1.8858005E-1,1.4326012E-1,-2.0919408E-1,-2.9459225E-2,-1.3238293E-1,-1.8260327E-1,8.957078E-2,2.7195601E0,1.9647453E0,1.9990627E1,1.773974E-1,1.4090366E0,3.1615412E-1,1.616922E0,-1.0821822E-1,1.2609671E-1,2.0837896E-1,-1.4225651E-1,-2.5561136E-1,-1.6325085E-1,1.6452476E-1,-1.3114169E-1,-4.1920212E-1,8.1036076E-2,2.4175873E0,-3.4046248E-1,8.4920225E0,1.4007797E0,-1.374987E-1,1.616922E0,-1.7537417E-1,-8.0198295E-2,2.9232857E0,-8.600554E-2,-9.0179324E-2,4.4683666E0,1.2006329E1,1.616922E0,5.547745E-1,-1.4769395E-1,2.7891207E-1,8.6601335E-1,-2.2082032E-1,9.748689E-2,1.4317785E-1,6.2641404E-3,1.616922E0,2.0497327E-1,6.4301826E-2,1.1788019E0],"split_indices":[5,0,445,547,0,0,523,450,615,74,402,665,0,89,0,601,256,81,296,5,5,222,0,421,0,646,0,0,0,0,7,621,5,0,155,0,0,0,0,336,0,197,130,477,345,0,0,0,0,0,0,0,0,15,0,0,0,130,0,355,7,347,0,319,0,0,0,327,707,748,545,374,0,0,0,0,0,0,0,0,0,0,0,0,0],"split_type":[0,0,0,0,0,0,0,0,0,0,0,0,0,0,0,0,0,0,0,0,0,0,0,0,0,0,0,0,0,0,0,0,0,0,0,0,0,0,0,0,0,0,0,0,0,0,0,0,0,0,0,0,0,0,0,0,0,0,0,0,0,0,0,0,0,0,0,0,0,0,0,0,0,0,0,0,0,0,0,0,0,0,0,0,0],"sum_hessian":[1.5157963E3,6.810301E2,8.347662E2,6.787155E2,2.3145583E0,7.8414813E2,5.0618004E1,6.411126E2,3.760289E1,7.60484E2,2.366413E1,4.9341816E1,1.2761885E0,6.337541E2,7.358513E0,3.0138899E1,7.463992E0,7.550584E2,5.425615E0,1.2328856E1,1.1335273E1,4.8243984E1,1.0978305E0,6.315343E2,2.219779E0,2.2118896E1,8.020002E0,3.9956582E0,3.468334E0,7.439303E2,1.1128121E1,2.7481146E0,2.6775002E0,8.765054E0,3.5638025E0,9.000321E0,2.3349512E0,4.7073856E1,1.1701291E0,6.2455316E2,6.9811645E0,7.418618E0,1.4700278E1,4.574972E2,2.864331E2,3.604507E0,7.523614E0,1.1891893E0,1.5589252E0,1.0715257E0,1.6059746E0,1.4980699E0,2.0657327E0,6.174768E2,7.0763626E0,5.7371264E0,1.6814921E0,9.161841E0,5.5384364E0,4.4390506E2,1.3592138E1,2.8182428E2,4.6088314E0,6.145935E2,2.8832905E0,6.2760663E0,2.8857756E0,4.2305563E2,2.0849422E1,3.5877252E0,1.0004414E1,2.806262E2,1.1980876E0,6.076413E2,6.95221E0,4.0603326E2,1.7022358E1,1.7654736E1,3.1946867E0,2.3300161E0,1.2577089E0,8.811811E0,1.1926018E0,2.766169E2,4.0092936E0],"tree_param":{"num_deleted":"0","num_feature":"779","num_nodes":"85","size_leaf_vector":"1"}},{"base_weights":[-2.4556942E0,-4.05688E0,-9.5168495E-1,-4.207537E0,-8.044579E-1,-1.0080453E0,2.0599276E-1,-4.2961025E0,-3.1144434E-1,-6.069807E-1,-2.1976587E-1,-1.0239973E0,1.1789968E0,1.1794549E0,-2.0866314E-1,-4.184193E0,-8E0,-1.05897576E-1,-1.4603417E-1,-1.0298802E0,7.020928E-1,1.3184472E0,-8.600349E-2,1.4186447E0,-9.457813E-1,-4.1458364E0,-1.3385314E0,-1.616922E0,-1.1705164E0,-1.1215031E0,-7.554005E-1,3.1004226E-1,1.732027E-1,2.0609288E0,9.805863E-1,-3.9086856E-2,-2.1565862E-1,-4.1780076E0,-5.672787E-1,-1.0698155E0,-8E0,-7.712525E-1,7.4309045E-1,1.3781677E-1,2.1509876E0,2.0252518E-1,3.0132063E-2,-4.150943E0,-1.1664268E0,-1.0821214E0,7.3667485E-1,-1.8122922E-1,-1.616922E0,-7.946203E-1,4.0750468E-1,2.4040337E0,2.376328E-1,-4.1605673E0,-1.7778814E-1,-1.0887973E0,4.254371E-1,1.7511555E0,-5.7882375E-1,6.6525765E-2,-1.1948739E-1,-8.232257E-1,2.3455079E-1,5.209582E-1,2.1256304E-1,-8.438697E-1,-6.196857E-1,-2.2098033E-1,4.536725E-1,3.9564645E-1,1.243126E-1,-6.047561E-3,-2.0272222E-1,-1.6951457E-1,5.1815444E-1],"categories":[],"categories_nodes":[],"categories_segments":[],"categories_sizes":[],"default_left":[0,0,0,0,0,0,0,0,0,0,0,0,0,0,0,0,0,0,0,0,0,0,0,0,0,0,0,0,0,0,0,0,0,0,0,0,0,0,0,0,0,0,0,0,0,0,0,0,0,0,0,0,0,0,0,0,0,0,0,0,0,0,0,0,0,0,0,0,0,0,0,0,0,0,0,0,0,0,0],"id":20,"left_children":[1,3,5,7,9,11,13,15,-1,17,-1,19,21,23,-1,25,27,-1,-1,29,-1,31,-1,33,35,37,-1,-1,-1,39,41,-1,-1,43,45,-1,-1,47,-1,49,51,53,-1,-1,55,-1,-1,57,-1,59,61,63,-1,65,-1,67,-1,69,-1,71,-1,73,75,-1,-1,77,-1,-1,-1,-1,-1,-1,-1,-1,-1,-1,-1,-1,-1],"loss_changes":[1.0205217E4,1.00259375E3,1.4292249E2,4.5671094E2,4.486164E0,7.398047E1,1.2463078E2,7.6522266E2,0E0,1.6366577E-1,0E0,5.838379E1,4.044626E0,3.0715408E1,0E0,1.451582E2,4.952881E0,0E0,0E0,5.11958E1,0E0,1.3456726E-1,0E0,1.2704964E1,3.8155174E-1,6.666016E1,0E0,0E0,0E0,8.775835E2,3.9436462E1,0E0,0E0,1.0562744E0,4.3940163E-1,0E0,0E0,5.2572266E1,0E0,3.5166016E1,1.2504199E2,3.5468994E1,0E0,0E0,1.7649994E0,0E0,0E0,5.140039E1,0E0,3.49718E1,1.576744E1,8.415931E-1,0E0,2.9832E1,0E0,5.3061676E-1,0E0,1.5099609E1,0E0,2.5664673E1,0E0,3.1769943E-1,1.2657261E0,0E0,0E0,2.8855621E1,0E0,0E0,0E0,0E0,0E0,0E0,0E0,0E0,0E0,0E0,0E0,0E0,0E0],"parents":[2147483647,0,0,1,1,2,2,3,3,4,4,5,5,6,6,7,7,9,9,11,11,12,12,13,13,15,15,16,16,19,19,21,21,23,23,24,24,25,25,29,29,30,30,33,33,34,34,37,37,39,39,40,40,41,41,44,44,47,47,49,49,50,50,51,51,53,53,55,55,57,57,59,59,61,61,62,62,65,65],"right_children":[2,4,6,8,10,12,14,16,-1,18,-1,20,22,24,-1,26,28,-1,-1,30,-1,32,-1,34,36,38,-1,-1,-1,40,42,-1,-1,44,46,-1,-1,48,-1,50,52,54,-1,-1,56,-1,-1,58,-1,60,62,64,-1,66,-1,68,-1,70,-1,72,-1,74,76,-1,-1,78,-1,-1,-1,-1,-1,-1,-1,-1,-1,-1,-1,-1,-1],"split_conditions":[-8.162228E-1,-2.236595E-1,-2.1197401E-1,-2.4027479E-1,4.758063E-1,-2.5364704E-2,2.0533657E0,1.5706895E-1,-3.1144434E-1,4.78504E-1,-2.1976587E-1,1.9974306E1,1.0944688E0,5.68967E-1,-2.0866314E-1,5.8018804E-1,-2.4028313E-1,-1.05897576E-1,-1.4603417E-1,-1.351703E-1,7.020928E-1,-2.3960736E-1,-8.600349E-2,8.137329E-3,1.31339E0,1.4240772E-1,-1.3385314E0,-1.616922E0,-1.1705164E0,1.9647453E0,1.808749E0,3.1004226E-1,1.732027E-1,-2.4026644E-1,1.2200811E0,-3.9086856E-2,-2.1565862E-1,2.3039879E-1,-5.672787E-1,1.2250371E0,1.057067E0,3.9372977E-2,7.4309045E-1,1.3781677E-1,2.9232857E0,2.0252518E-1,3.0132063E-2,9.453344E0,-1.1664268E0,5.9809937E0,3.539232E-1,-7.862876E-2,-1.616922E0,1.564358E-2,4.0750468E-1,7.5374717E-1,2.376328E-1,-9.54234E-4,-1.7778814E-1,3.0160023E1,4.254371E-1,-2.3929867E-1,1.9539195E0,6.6525765E-2,-1.1948739E-1,-6.585608E-2,2.3455079E-1,5.209582E-1,2.1256304E-1,-8.438697E-1,-6.196857E-1,-2.2098033E-1,4.536725E-1,3.9564645E-1,1.243126E-1,-6.047561E-3,-2.0272222E-1,-1.6951457E-1,5.1815444E-1],"split_indices":[93,418,707,5,527,359,450,750,0,529,0,411,533,79,0,775,5,0,0,0,0,5,0,563,94,607,0,0,0,477,510,0,0,5,595,0,0,626,0,526,681,496,0,0,327,0,0,299,0,248,733,3,0,403,0,545,0,460,0,124,0,5,327,0,0,438,0,0,0,0,0,0,0,0,0,0,0,0,0],"split_type":[0,0,0,0,0,0,0,0,0,0,0,0,0,0,0,0,0,0,0,0,0,0,0,0,0,0,0,0,0,0,0,0,0,0,0,0,0,0,0,0,0,0,0,0,0,0,0,0,0,0,0,0,0,0,0,0,0,0,0,0,0,0,0,0,0,0,0,0,0,0,0,0,0,0,0,0,0,0,0],"sum_hessian":[4.238303E3,2.052011E3,2.1862922E3,1.9608862E3,9.112482E1,2.0849194E3,1.0137289E2,1.8972618E3,6.3624485E1,5.5514816E1,3.5609997E1,2.07035E3,1.4569167E1,5.6784122E1,4.4588764E1,1.844501E3,5.276085E1,3.552247E1,1.9992352E1,2.0684158E3,1.934373E0,1.3568223E1,1.0009441E0,5.1338577E1,5.4455457E0,1.8185944E3,2.590654E1,3.9626076E1,1.3134771E1,1.5484487E3,5.199671E2,7.664578E0,5.903645E0,1.9314636E1,3.202394E1,1.1157748E0,4.329771E0,1.7738596E3,4.4734848E1,1.5450275E3,3.4212854E0,5.1893695E2,1.0301265E0,1.7094526E0,1.7605185E1,3.1018974E1,1.0049665E0,1.7477728E3,2.6086773E1,1.5349722E3,1.0055302E1,2.0922956E0,1.3289897E0,5.153318E2,3.6051972E0,1.2815088E1,4.7900953E0,1.7423748E3,5.398007E0,1.5324205E3,2.5515945E0,5.4902115E0,4.56509E0,1.0198004E0,1.0724952E0,5.0847116E2,6.8606014E0,1.0554978E1,2.26011E0,1.7166267E3,2.5748056E1,1.531007E3,1.4135838E0,4.03434E0,1.4558717E0,2.4566464E0,2.1084437E0,5.0690717E2,1.5640079E0],"tree_param":{"num_deleted":"0","num_feature":"779","num_nodes":"79","size_leaf_vector":"1"}},{"base_weights":[-2.4451926E0,-4.0294814E0,-9.72213E-1,-4.1903553E0,-7.125381E-1,-1.0023165E0,1.2767861E0,-4.27397E0,-1.5605384E0,-7.8982764E-1,-6.0190223E-2,-1.1177473E0,-6.8021756E-1,9.4013345E-1,2.2879536E0,-4.166157E0,-7.849343E0,-3.4705785E-1,-7.709539E-1,-1.7224914E-1,-1.2351857E-1,-1.0685266E0,-8E0,-7.2078425E-1,2.8653875E-1,1.9394936E-1,5.2476797E-2,6.0881585E-1,1.7547125E-1,-4.129408E0,-1.357963E0,-7.980139E0,-1.4574294E-1,-1.745249E-1,-7.658014E-2,-1.0954388E0,2.3374446E-1,-1.616922E0,-5.4569346E-1,-7.400529E-1,6.6768515E-1,-4.167615E0,-2.5883324E0,-1.616922E0,-1.1920215E0,-1.1023124E0,4.3809995E-1,1.2890401E0,-7.5067836E-1,6.0680965E-3,-1.5427972E-1,-7.540352E-1,6.176728E-1,-4.1788096E0,-1.8193223E-1,7.3546596E-2,-5.4418975E-1,-1.1104486E0,2.988331E-1,2.9825643E-1,1.7525074E-1,-1.0519973E0,7.0486784E-1,-7.75818E-1,1.6421279E0,-4.153483E0,-1.1318157E0,-1.1170534E0,1.6839254E0,-3.537438E-3,-1.1473025E0,2.09796E-1,-1.6460076E-2,-7.914812E-1,4.58137E-1,3.6638772E-1,1.0817479E-1,-8.4259117E-1,-6.382115E-1,-2.2685137E-1,4.5226967E-1,4.0385532E-1,8.765893E-2,-2.4425688E-1,-6.174786E-2,-1.6278556E-1,3.4833977E-1],"categories":[],"categories_nodes":[],"categories_segments":[],"categories_sizes":[],"default_left":[0,0,0,0,0,0,0,0,0,0,0,0,0,0,0,0,0,0,0,0,0,0,0,0,0,0,0,0,0,0,0,0,0,0,0,0,0,0,0,0,0,0,0,0,0,0,0,0,0,0,0,0,0,0,0,0,0,0,0,0,0,0,0,0,0,0,0,0,0,0,0,0,0,0,0,0,0,0,0,0,0,0,0,0,0,0,0],"id":21,"left_children":[1,3,5,7,9,11,13,15,17,19,-1,21,23,25,27,29,31,-1,33,-1,-1,35,37,39,-1,-1,-1,-1,-1,41,-1,43,-1,-1,-1,45,47,-1,49,51,-1,53,55,-1,-1,57,-1,59,61,-1,-1,63,-1,65,-1,-1,-1,67,-1,-1,-1,69,71,73,75,77,-1,79,81,-1,83,-1,-1,85,-1,-1,-1,-1,-1,-1,-1,-1,-1,-1,-1,-1,-1],"loss_changes":[9.934393E3,1.0917305E3,1.5078223E2,4.2353516E2,2.8453445E0,8.027783E1,7.927593E0,6.979844E2,6.3249664E0,3.757782E-1,0E0,8.35516E2,5.0177704E1,6.754112E-2,4.2719917E0,1.450625E2,4.4923096E1,0E0,1.1011648E-1,0E0,0E0,5.6298462E1,1.5605994E2,4.6434082E1,0E0,0E0,0E0,0E0,0E0,9.6296875E1,0E0,7.531006E0,0E0,0E0,0E0,3.753174E1,3.5458344E1,0E0,5.1911855E-1,3.2315125E1,0E0,6.109375E1,1.5318024E1,0E0,0E0,3.448816E1,0E0,1.13277435E-2,8.552288E0,0E0,0E0,3.0719116E1,0E0,4.032422E1,0E0,0E0,0E0,3.0670776E1,0E0,0E0,0E0,1.4741764E0,1.0414778E0,2.8468597E1,5.0323486E-2,1.3484375E1,0E0,3.0362793E1,7.3503304E-1,0E0,3.4493256E-1,0E0,0E0,2.0920563E1,0E0,0E0,0E0,0E0,0E0,0E0,0E0,0E0,0E0,0E0,0E0,0E0,0E0],"parents":[2147483647,0,0,1,1,2,2,3,3,4,4,5,5,6,6,7,7,8,8,9,9,11,11,12,12,13,13,14,14,15,15,16,16,18,18,21,21,22,22,23,23,29,29,31,31,35,35,36,36,38,38,39,39,41,41,42,42,45,45,47,47,48,48,51,51,53,53,57,57,61,61,62,62,63,63,64,64,65,65,67,67,68,68,70,70,73,73],"right_children":[2,4,6,8,10,12,14,16,18,20,-1,22,24,26,28,30,32,-1,34,-1,-1,36,38,40,-1,-1,-1,-1,-1,42,-1,44,-1,-1,-1,46,48,-1,50,52,-1,54,56,-1,-1,58,-1,60,62,-1,-1,64,-1,66,-1,-1,-1,68,-1,-1,-1,70,72,74,76,78,-1,80,82,-1,84,-1,-1,86,-1,-1,-1,-1,-1,-1,-1,-1,-1,-1,-1,-1,-1],"split_conditions":[-8.162228E-1,-2.237745E-1,-1.2501626E-1,-2.4027479E-1,-9.0179324E-2,-1.351703E-1,3.9768107E0,1.3267972E-1,-2.4024141E-1,2.1658018E-1,-6.0190223E-2,1.9647453E0,-2.5828982E-2,7.3991615E-1,4.594447E-1,5.8018804E-1,-1.16893224E-1,-3.4705785E-1,-2.4021639E-1,-1.7224914E-1,-1.2351857E-1,-2.6992065E-1,-2.4020804E-1,1.5944762E1,2.8653875E-1,1.9394936E-1,5.2476797E-2,6.0881585E-1,1.7547125E-1,1.8369888E-1,-1.357963E0,-2.4028313E-1,-1.4574294E-1,-1.745249E-1,-7.658014E-2,4.2893013E-1,7.306438E-1,-1.616922E0,-7.865379E-2,1.8880316E1,6.6768515E-1,-9.0693705E-2,3.6012428E0,-1.616922E0,-1.1920215E0,8.967596E0,4.3809995E-1,-2.6139435E-1,4.2208007E-1,6.0680965E-3,-1.5427972E-1,3.8630236E-2,6.176728E-1,3.0389127E-1,-1.8193223E-1,7.3546596E-2,-5.4418975E-1,3.3727956E-1,2.988331E-1,2.9825643E-1,1.7525074E-1,3.045736E-1,4.6343774E-1,2.9978069E-2,-1.376922E-1,-1.2220577E-3,-1.1318157E0,5.0069704E0,-2.7287927E-1,-3.537438E-3,4.8523154E0,2.09796E-1,-1.6460076E-2,1.9482338E1,4.58137E-1,3.6638772E-1,1.0817479E-1,-8.4259117E-1,-6.382115E-1,-2.2685137E-1,4.5226967E-1,4.0385532E-1,8.765893E-2,-2.4425688E-1,-6.174786E-2,-1.6278556E-1,3.4833977E-1],"split_indices":[93,418,409,5,748,0,409,750,5,547,0,477,359,571,665,775,501,0,5,0,0,563,5,438,0,0,0,0,0,607,0,5,0,0,0,55,355,0,3,516,0,299,495,0,0,294,0,523,707,0,0,496,0,631,0,0,0,248,0,0,0,120,766,411,4,460,0,263,495,0,453,0,0,472,0,0,0,0,0,0,0,0,0,0,0,0,0],"split_type":[0,0,0,0,0,0,0,0,0,0,0,0,0,0,0,0,0,0,0,0,0,0,0,0,0,0,0,0,0,0,0,0,0,0,0,0,0,0,0,0,0,0,0,0,0,0,0,0,0,0,0,0,0,0,0,0,0,0,0,0,0,0,0,0,0,0,0,0,0,0,0,0,0,0,0,0,0,0,0,0,0,0,0,0,0,0,0],"sum_hessian":[4.2577466E3,2.050529E3,2.2072173E3,1.9554263E3,9.510283E1,2.1786104E3,2.8606977E1,1.8945635E3,6.0862823E1,7.940134E1,1.5701495E1,1.6020223E3,5.76588E2,2.2909395E1,5.6975803E0,1.8412081E3,5.3355305E1,4.9809837E1,1.1052987E1,5.6056343E1,2.3344992E1,1.5980592E3,3.9631827E0,5.6629425E2,1.02937975E1,2.1873594E1,1.0358015E0,3.0301876E0,2.667393E0,1.8176576E3,2.3550564E1,5.2276577E1,1.0787282E0,7.969499E0,3.0834875E0,1.5658586E3,3.2200607E1,1.0028974E0,2.9602854E0,5.644079E2,1.8863428E0,1.7720208E3,4.563684E1,3.708668E1,1.5189895E1,1.5632278E3,2.6307926E0,1.5391535E1,1.6809074E1,1.0485456E0,1.9117397E0,5.63135E2,1.272849E0,1.7656923E3,6.3285284E0,1.4700127E0,4.416683E1,1.558883E3,4.344711E0,8.940058E0,6.4514775E0,1.4155858E1,2.6532164E0,5.58732E2,4.4030485E0,1.7386279E3,2.7064266E1,1.555806E3,3.0770726E0,1.293975E0,1.2861882E1,1.6388069E0,1.0144093E0,5.566064E2,2.1256025E0,3.262445E0,1.1406032E0,1.7090433E3,2.958465E1,1.5540012E3,1.8048563E0,1.9809595E0,1.0961131E0,1.15840645E1,1.2778178E0,5.5421674E2,2.389622E0],"tree_param":{"num_deleted":"0","num_feature":"779","num_nodes":"87","size_leaf_vector":"1"}},{"base_weights":[-2.444467E0,-4.058167E0,-9.399353E-1,-4.223356E0,-7.491779E-1,-9.6796745E-1,1.3605877E0,-4.308439E0,-1.4985228E0,-4.6082294E-1,-9.363591E-1,-1.0025706E0,-7.34808E-2,7.0220125E-1,2.0178306E-1,-4.2025347E0,-1.523393E0,-1.7045236E0,-9.940398E-1,-1.12217434E-1,-3.26222E-2,-1.499548E-1,-2.0700511E-1,-1.0959045E0,-7.291374E-1,1.1485617E0,-1.039478E0,-4.16682E0,-1.3521193E0,-3.9840114E-1,-2.8631482E-1,-1.4058718E-1,-3.8109532E-1,-1.0501994E0,-8E0,-7.496952E-1,9.7079456E-1,1.5398495E0,-8.3017474E-1,-5.891791E-2,-2.1237864E-1,-4.2054114E0,-5.616918E-1,-1.0564924E0,5.295653E-1,-1.616922E0,-8.105239E-2,-7.791839E-1,4.0149838E-1,2.2705789E0,9.4963294E-1,-2.0985317E-1,3.034888E-2,-4.1298094E0,-4.913646E0,-1.0650976E0,1.4697483E0,7.153199E-2,-1.2857781E-1,-8.141565E-1,2.679286E-1,1.2339621E-1,4.876835E-1,1.9732073E-1,4.8246518E-2,-4.1434636E0,-1.5205176E-1,-4.7959113E0,-1.3826292E0,-1.0717727E0,3.6379507E-1,3.950543E-1,5.3420985E-1,-8.316477E-1,5.728919E-1,-8.3768857E-1,-2.4187501E-1,-1.0135098E0,-7.686617E-1,-2.1776362E-1,3.8526163E-1,-5.0582953E-2,1.9921783E-1,-1.7122668E-1,6.463574E-1],"categories":[],"categories_nodes":[],"categories_segments":[],"categories_sizes":[],"default_left":[0,0,0,0,0,0,0,0,0,0,0,0,0,0,0,0,0,0,0,0,0,0,0,0,0,0,0,0,0,0,0,0,0,0,0,0,0,0,0,0,0,0,0,0,0,0,0,0,0,0,0,0,0,0,0,0,0,0,0,0,0,0,0,0,0,0,0,0,0,0,0,0,0,0,0,0,0,0,0,0,0,0,0,0,0],"id":22,"left_children":[1,3,5,7,9,11,13,15,17,19,21,23,25,-1,-1,27,-1,29,31,-1,-1,-1,-1,33,35,37,39,41,-1,-1,-1,-1,-1,43,45,47,-1,49,51,-1,-1,53,-1,55,-1,-1,57,59,-1,61,63,-1,-1,65,67,69,71,-1,-1,73,-1,-1,-1,-1,-1,75,-1,77,-1,79,-1,-1,81,83,-1,-1,-1,-1,-1,-1,-1,-1,-1,-1,-1],"loss_changes":[1.0237244E4,1.1091445E3,1.4217358E2,4.4283594E2,4.8564873E0,6.6736206E1,1.6981762E1,6.107461E2,4.563278E0,1.0559578E0,2.3812485E-1,5.22334E1,9.736889E1,0E0,0E0,1.3392578E2,0E0,3.826828E-1,3.9721222E0,0E0,0E0,0E0,0E0,7.032947E2,6.408325E1,2.9494862E1,8.2775116E-2,8.461328E1,0E0,0E0,0E0,0E0,0E0,3.8404297E1,1.938446E2,4.4367645E1,0E0,1.1117531E1,1.5159779E0,0E0,0E0,7.327734E1,0E0,3.5062256E1,0E0,0E0,1.217943E0,3.9780334E1,0E0,1.6059494E0,1.2202072E-1,0E0,0E0,6.999609E1,4.241699E0,3.1308838E1,1.5191612E0,0E0,0E0,3.540158E1,0E0,0E0,0E0,0E0,0E0,3.6914062E-1,0E0,1.5054443E1,0E0,2.7853394E1,0E0,0E0,1.4172063E0,3.4996796E1,0E0,0E0,0E0,0E0,0E0,0E0,0E0,0E0,0E0,0E0,0E0],"parents":[2147483647,0,0,1,1,2,2,3,3,4,4,5,5,6,6,7,7,8,8,9,9,10,10,11,11,12,12,15,15,17,17,18,18,23,23,24,24,25,25,26,26,27,27,33,33,34,34,35,35,37,37,38,38,41,41,43,43,46,46,47,47,49,49,50,50,53,53,54,54,55,55,56,56,59,59,65,65,67,67,69,69,72,72,73,73],"right_children":[2,4,6,8,10,12,14,16,18,20,22,24,26,-1,-1,28,-1,30,32,-1,-1,-1,-1,34,36,38,40,42,-1,-1,-1,-1,-1,44,46,48,-1,50,52,-1,-1,54,-1,56,-1,-1,58,60,-1,62,64,-1,-1,66,68,70,72,-1,-1,74,-1,-1,-1,-1,-1,76,-1,78,-1,80,-1,-1,82,84,-1,-1,-1,-1,-1,-1,-1,-1,-1,-1,-1],"split_conditions":[-8.162228E-1,-2.2396524E-1,2.932954E-2,-2.4027479E-1,1.9138801E-1,-2.1197401E-1,-2.4024975E-1,1.4928547E-1,-2.4024975E-1,1.4928547E-1,4.758063E-1,-1.351703E-1,1.9970334E0,7.0220125E-1,2.0178306E-1,5.8441436E-1,-1.523393E0,-2.4026644E-1,1.8706895E0,-1.12217434E-1,-3.26222E-2,-1.499548E-1,-2.0700511E-1,1.9647453E0,9.409263E0,5.552008E-1,6.711964E-1,1.8786293E-1,-1.3521193E0,-3.9840114E-1,-2.8631482E-1,-1.4058718E-1,-3.8109532E-1,5.463846E-1,-2.4021639E-1,3.81867E-2,9.7079456E-1,-5.9507582E-2,4.0935427E-1,-5.891791E-2,-2.1237864E-1,3.6012428E0,-5.616918E-1,2.958613E0,5.295653E-1,-1.616922E0,-7.842853E-2,-2.549755E-2,4.0149838E-1,-2.4026644E-1,9.1197646E-1,-2.0985317E-1,3.034888E-2,2.667847E0,-2.4028313E-1,3.348695E-1,-2.4022473E-1,7.153199E-2,-1.2857781E-1,1.8880316E1,2.679286E-1,1.2339621E-1,4.876835E-1,1.9732073E-1,4.8246518E-2,1.1685758E1,-1.5205176E-1,-2.3713394E-1,-1.3826292E0,7.358704E0,3.6379507E-1,3.950543E-1,1.148475E0,-6.546375E-2,5.728919E-1,-8.3768857E-1,-2.4187501E-1,-1.0135098E0,-7.686617E-1,-2.1776362E-1,3.8526163E-1,-5.0582953E-2,1.9921783E-1,-1.7122668E-1,6.463574E-1],"split_indices":[93,418,411,5,581,707,5,750,5,750,527,0,450,0,0,775,0,5,130,0,0,0,0,477,510,79,89,607,0,0,0,0,0,14,5,496,0,563,179,0,0,495,0,263,0,0,3,359,0,5,548,0,0,317,5,248,5,0,0,516,0,0,0,0,0,258,0,575,0,400,0,0,703,438,0,0,0,0,0,0,0,0,0,0,0],"split_type":[0,0,0,0,0,0,0,0,0,0,0,0,0,0,0,0,0,0,0,0,0,0,0,0,0,0,0,0,0,0,0,0,0,0,0,0,0,0,0,0,0,0,0,0,0,0,0,0,0,0,0,0,0,0,0,0,0,0,0,0,0,0,0,0,0,0,0,0,0,0,0,0,0,0,0,0,0,0,0,0,0,0,0,0,0],"sum_hessian":[4.217136E3,2.0339291E3,2.183207E3,1.9369574E3,9.6971756E1,2.1574968E3,2.571013E1,1.8777438E3,5.9213642E1,3.9532845E1,5.7438908E1,2.0770264E3,8.047042E1,2.5045316E0,2.3205599E1,1.8203387E3,5.7404953E1,4.0355934E1,1.8857708E1,2.9407724E1,1.012512E1,2.0813221E1,3.6625687E1,1.5462283E3,5.307981E2,3.544343E1,4.5026993E1,1.7972081E3,2.3130636E1,1.7917646E1,2.2438286E1,1.5461609E1,3.3960986E0,1.5418308E3,4.3975163E0,5.296943E2,1.1038245E0,2.9776953E1,5.66648E0,1.069049E0,4.3957943E1,1.746607E3,5.06011E1,1.5399026E3,1.9281551E0,1.2857999E0,3.1117165E0,5.247541E2,4.940232E0,1.2032657E1,1.7744295E1,4.6254487E0,1.0410311E0,1.5843174E3,1.6228966E2,1.5352515E3,4.651117E0,1.947859E0,1.1638573E0,5.1678064E2,7.9734087E0,1.3678199E0,1.0664837E1,1.6743502E1,1.0007931E0,1.5777125E3,6.604836E0,1.5623352E2,6.0561304E0,1.5323074E3,2.9441319E0,2.346003E0,2.3051138E0,5.1508344E2,1.6971948E0,1.5766934E3,1.0191703E0,1.2472132E2,3.1512197E1,1.5300425E3,2.2649014E0,1.0047808E0,1.3003329E0,5.1389325E2,1.1902258E0],"tree_param":{"num_deleted":"0","num_feature":"779","num_nodes":"85","size_leaf_vector":"1"}},{"base_weights":[-2.4398253E0,-4.024255E0,-9.53003E-1,-4.169416E0,-7.339431E-1,-9.81089E-1,1.3938845E0,-4.2467804E0,-1.7865357E0,-3.6062345E-1,-2.0364489E-1,-1.1087741E0,-6.360383E-1,8.885021E-1,7.3449516E-1,-4.136171E0,-7.7436895E0,-3.7564796E-1,-4.513002E-1,-4.8988166E-1,8.961653E-3,-1.0606382E0,-8E0,-6.623474E-1,8.2923555E-1,9.7646725E-1,-1.0202565E-1,-4.101422E0,-1.2989284E0,-8E0,-1.1108159E0,1.22666635E-1,-1.8987663E-1,-6.831972E-2,-1.2375726E-1,-1.0876361E0,2.3415005E-1,-1.616922E0,-1.973497E-2,-7.0804113E-1,2.7157572E-1,2.0163836E-1,5.5670246E-2,-4.138015E0,-2.6689813E0,-1.616922E0,-1.272693E0,-1.0948658E0,4.243267E-1,1.2543181E0,-8.9413494E-1,-7.243208E-1,7.075595E-1,-4.070743E0,-4.7913837E0,-1.615359E-2,-5.552304E-1,-1.1019534E0,1.7624277E0,1.3619998E0,-5.3068697E-2,-1.3158482E0,4.7766107E-1,-7.386156E-1,7.3343456E-1,-4.083098E0,-1.5960667E-1,-1.0140054E0,-7.859609E-1,-1.1061188E0,4.0961155E-1,4.0883893E-1,1.124124E-1,3.343298E-1,1.7837906E-1,-9.2983884E-1,-2.08143E0,-7.644742E-1,1.5131327E0,-8.260046E-1,-2.623664E-1,-2.2460112E-1,2.6323178E-1,-2.0406044E-1,-1.1035569E-2,-5.265309E-1,-1.15385786E-1,-1.5953562E-1,2.367965E-1,1.3267186E-1,3.456473E-1],"categories":[],"categories_nodes":[],"categories_segments":[],"categories_sizes":[],"default_left":[0,0,0,0,0,0,0,0,0,0,0,0,0,0,0,0,0,0,0,0,0,0,0,0,0,0,0,0,0,0,0,0,0,0,0,0,0,0,0,0,0,0,0,0,0,0,0,0,0,0,0,0,0,0,0,0,0,0,0,0,0,0,0,0,0,0,0,0,0,0,0,0,0,0,0,0,0,0,0,0,0,0,0,0,0,0,0,0,0,0,0],"id":23,"left_children":[1,3,5,7,9,11,13,15,17,19,-1,21,23,25,-1,27,29,-1,31,33,-1,35,37,39,-1,41,-1,43,-1,45,-1,-1,-1,-1,-1,47,49,-1,-1,51,-1,-1,-1,53,55,-1,-1,57,-1,59,61,63,-1,65,67,-1,-1,69,71,73,-1,75,-1,77,-1,79,-1,-1,-1,81,-1,-1,-1,-1,-1,83,85,87,89,-1,-1,-1,-1,-1,-1,-1,-1,-1,-1,-1,-1],"loss_changes":[9.913133E3,9.701719E2,1.4460278E2,3.5213672E2,8.555439E0,9.3927734E1,2.6332397E1,6.9870703E2,5.2301636E0,2.0362406E0,0E0,8.323069E2,7.533946E1,3.2662582E0,0E0,1.19572266E2,3.0461914E1,0E0,2.9207735E0,3.3696032E-1,0E0,5.4905884E1,1.2295703E2,5.4128403E1,0E0,4.61998E-2,0E0,8.376758E1,0E0,3.6489258E0,0E0,0E0,0E0,0E0,0E0,3.7589233E1,3.882458E1,0E0,0E0,4.1445526E1,0E0,0E0,0E0,5.79375E1,9.462738E0,0E0,0E0,3.290222E1,0E0,3.2353783E0,2.5277908E1,3.7932587E1,0E0,6.1802734E1,1.2833496E1,0E0,0E0,2.2124023E1,1.8388557E-1,8.669491E-1,0E0,2.4767685E0,0E0,3.408383E1,0E0,1.1167969E1,0E0,0E0,0E0,2.0294678E1,0E0,0E0,0E0,0E0,0E0,7.64205E-1,1.8327751E0,2.7860565E1,1.7748833E-2,0E0,0E0,0E0,0E0,0E0,0E0,0E0,0E0,0E0,0E0,0E0,0E0],"parents":[2147483647,0,0,1,1,2,2,3,3,4,4,5,5,6,6,7,7,8,8,9,9,11,11,12,12,13,13,15,15,16,16,18,18,19,19,21,21,22,22,23,23,25,25,27,27,29,29,35,35,36,36,39,39,43,43,44,44,47,47,49,49,50,50,51,51,53,53,54,54,57,57,58,58,59,59,61,61,63,63,65,65,69,69,75,75,76,76,77,77,78,78],"right_children":[2,4,6,8,10,12,14,16,18,20,-1,22,24,26,-1,28,30,-1,32,34,-1,36,38,40,-1,42,-1,44,-1,46,-1,-1,-1,-1,-1,48,50,-1,-1,52,-1,-1,-1,54,56,-1,-1,58,-1,60,62,64,-1,66,68,-1,-1,70,72,74,-1,76,-1,78,-1,80,-1,-1,-1,82,-1,-1,-1,-1,-1,84,86,88,90,-1,-1,-1,-1,-1,-1,-1,-1,-1,-1,-1,-1],"split_conditions":[-8.162228E-1,-2.2379363E-1,2.9863013E-2,-2.4027479E-1,1.7629822E-1,-1.351703E-1,1.2099053E0,1.4352097E-1,3.0330014E-1,1.4352097E-1,-2.0364489E-1,1.9647453E0,1.9974306E1,9.831442E-1,7.3449516E-1,5.8441436E-1,-2.4028313E-1,-3.7564796E-1,5.174035E-2,5.1438147E-1,8.961653E-3,-3.0284762E-1,-2.4011627E-1,-2.596128E-2,8.2923555E-1,2.0439E0,-1.0202565E-1,1.8428692E-1,-1.2989284E0,-2.222443E-1,-1.1108159E0,1.22666635E-1,-1.8987663E-1,-6.831972E-2,-1.2375726E-1,1.3325679E1,6.769039E-1,-1.616922E0,-1.973497E-2,1.5944762E1,2.7157572E-1,2.0163836E-1,5.5670246E-2,3.6012428E0,-2.729579E-1,-1.616922E0,-1.272693E0,3.3805358E-1,4.243267E-1,1.6989855E0,3.009756E-1,4.2308965E0,7.075595E-1,2.667847E0,-2.4085984E-1,-1.615359E-2,-5.552304E-1,4.2979735E-1,-2.729579E-1,-2.6071668E-1,-5.3068697E-2,1.0800488E0,4.7766107E-1,3.870432E-2,7.3343456E-1,7.2933875E-2,-1.5960667E-1,-1.0140054E0,-7.859609E-1,5.47706E-1,4.0961155E-1,4.0883893E-1,1.124124E-1,3.343298E-1,1.7837906E-1,6.673827E-1,1.5239507E0,1.55053185E-2,4.2036524E0,-8.260046E-1,-2.623664E-1,-2.2460112E-1,2.6323178E-1,-2.0406044E-1,-1.1035569E-2,-5.265309E-1,-1.15385786E-1,-1.5953562E-1,2.367965E-1,1.3267186E-1,3.456473E-1],"split_indices":[93,418,516,5,581,0,477,750,691,750,0,477,411,770,0,775,5,0,70,540,0,563,5,359,0,461,0,607,0,4,0,0,0,0,0,35,355,0,0,438,0,0,0,495,495,0,0,248,0,745,142,371,0,317,575,0,0,55,495,523,0,691,0,496,0,275,0,0,0,110,0,0,0,0,0,563,547,403,246,0,0,0,0,0,0,0,0,0,0,0,0],"split_type":[0,0,0,0,0,0,0,0,0,0,0,0,0,0,0,0,0,0,0,0,0,0,0,0,0,0,0,0,0,0,0,0,0,0,0,0,0,0,0,0,0,0,0,0,0,0,0,0,0,0,0,0,0,0,0,0,0,0,0,0,0,0,0,0,0,0,0,0,0,0,0,0,0,0,0,0,0,0,0,0,0,0,0,0,0,0,0,0,0,0,0],"sum_hessian":[4.208662E3,2.0366276E3,2.1720347E3,1.9503165E3,8.631103E1,2.1469238E3,2.5111046E1,1.8882299E3,6.208664E1,3.748559E1,4.882543E1,1.565428E3,5.814958E2,2.1628298E1,3.482749E0,1.832451E3,5.5778805E1,5.853617E1,3.5504692E0,2.8256754E1,9.228839E0,1.5623848E3,3.0431037E0,5.7914075E2,2.3550477E0,2.062529E1,1.003008E0,1.8078157E3,2.46354E1,4.111885E1,1.465995E1,1.0439886E0,2.5064805E0,1.4291209E1,1.3965546E1,