{"learner":{"attributes":{},"feature_names":[],"feature_types":[],"gradient_booster":{"model":{"gbtree_model_param":{"num_parallel_tree":"1","num_trees":"73"},"iteration_indptr":[0,1,2,3,4,5,6,7,8,9,10,11,12,13,14,15,16,17,18,19,20,21,22,23,24,25,26,27,28,29,30,31,32,33,34,35,36,37,38,39,40,41,42,43,44,45,46,47,48,49,50,51,52,53,54,55,56,57,58,59,60,61,62,63,64,65,66,67,68,69,70,71,72,73],"tree_info":[0,0,0,0,0,0,0,0,0,0,0,0,0,0,0,0,0,0,0,0,0,0,0,0,0,0,0,0,0,0,0,0,0,0,0,0,0,0,0,0,0,0,0,0,0,0,0,0,0,0,0,0,0,0,0,0,0,0,0,0,0,0,0,0,0,0,0,0,0,0,0,0,0],"trees":[{"base_weights":[-3.731447E-3,-5.6752783E-1,3.48373E-2,-1.3800668E0,3.490283E-2,-2.9800637E-2,-6.141563E-3],"categories":[],"categories_nodes":[],"categories_segments":[],"categories_sizes":[],"default_left":[0,0,0,0,0,0,0],"id":0,"left_children":[1,3,-1,5,-1,-1,-1],"loss_changes":[9.08282E3,1.3112007E4,0E0,1.6025918E3,0E0,0E0,0E0],"parents":[2147483647,0,0,1,1,3,3],"right_children":[2,4,-1,6,-1,-1,-1],"split_conditions":[-1.9355147E-1,-3.6387973E-2,3.48373E-2,-1.3812035E-1,3.490283E-2,-2.9800637E-2,-6.141563E-3],"split_indices":[19,5,0,8,0,0,0],"split_type":[0,0,0,0,0,0,0],"sum_hessian":[8.0584634E3,6.2859814E3,1.7724817E3,4.7746455E3,1.5113362E3,3.6237083E3,1.1509371E3],"tree_param":{"num_deleted":"0","num_feature":"40","num_nodes":"7","size_leaf_vector":"1"}},{"base_weights":[-1.4248136E-3,-5.586362E-1,3.4240276E-2,-1.3614732E0,3.43043E-2,-2.9313287E-2,-6.42032E-3],"categories":[],"categories_nodes":[],"categories_segments":[],"categories_sizes":[],"default_left":[0,0,0,0,0,0,0],"id":1,"left_children":[1,3,-1,5,-1,-1,-1],"loss_changes":[8.818975E3,1.2727648E4,0E0,1.5015371E3,0E0,0E0,0E0],"parents":[2147483647,0,0,1,1,3,3],"right_children":[2,4,-1,6,-1,-1,-1],"split_conditions":[-1.9355147E-1,-3.6387973E-2,3.4240276E-2,-1.3812035E-1,3.43043E-2,-2.9313287E-2,-6.42032E-3],"split_indices":[19,5,0,8,0,0,0],"split_type":[0,0,0,0,0,0,0],"sum_hessian":[8.0640923E3,6.281109E3,1.7829834E3,4.7652544E3,1.5158546E3,3.6119912E3,1.1532633E3],"tree_param":{"num_deleted":"0","num_feature":"40","num_nodes":"7","size_leaf_vector":"1"}},{"base_weights":[6.7861653E-3,1.8727303E0,-5.3688955E-1,1.8857474E0,-2.2280721E-2,-1.3306042E0,3.3736087E-2,3.308942E-2,-2.820681E-2,-2.8325705E-2,-6.894362E-3],"categories":[],"categories_nodes":[],"categories_segments":[],"categories_sizes":[],"default_left":[0,0,0,0,0,0,0,0,0,0,0],"id":2,"left_children":[1,3,5,7,-1,9,-1,-1,-1,-1,-1],"loss_changes":[8.205067E3,7.7200195E1,1.2275172E4,6.0890625E1,0E0,1.2921143E3,0E0,0E0,0E0,0E0,0E0],"parents":[2147483647,0,0,1,1,2,2,3,3,5,5],"right_children":[2,4,6,8,-1,10,-1,-1,-1,-1,-1],"split_conditions":[-1.5032642E0,1.9430428E1,-3.6387973E-2,1.5360708E0,-2.2280721E-2,-2.5075316E-1,3.3736087E-2,3.308942E-2,-2.820681E-2,-2.8325705E-2,-6.894362E-3],"split_indices":[15,1,5,20,0,18,0,0,0,0,0],"split_type":[0,0,0,0,0,0,0,0,0,0,0],"sum_hessian":[8.086053E3,1.8238818E3,6.2621714E3,1.816772E3,7.1098824E0,4.7390186E3,1.5231527E3,1.8125262E3,4.2457314E0,3.613059E3,1.1259597E3],"tree_param":{"num_deleted":"0","num_feature":"40","num_nodes":"11","size_leaf_vector":"1"}},{"base_weights":[-2.9287122E-3,1.1859567E0,-4.8942608E-1,1.4843074E0,-2.5335811E-2,-1.6627635E0,9.06076E-1,3.2189578E-2,-1.2921718E-2,-3.0350279E-2,3.4282394E-2,3.2723516E-2,-3.417082E-2],"categories":[],"categories_nodes":[],"categories_segments":[],"categories_sizes":[],"default_left":[0,0,0,0,0,0,0,0,0,0,0,0,0],"id":3,"left_children":[1,3,5,7,-1,9,11,-1,-1,-1,-1,-1,-1],"loss_changes":[4.6651294E3,1.8446719E3,9.37329E3,1.681853E3,0E0,8.515049E2,7.2488057E3,0E0,0E0,0E0,0E0,0E0,0E0],"parents":[2147483647,0,0,1,1,2,2,3,3,5,5,6,6],"right_children":[2,4,6,8,-1,10,12,-1,-1,-1,-1,-1,-1],"split_conditions":[-2.5075626E-1,4.5915294E0,-2.5075316E-1,3.6294868E0,-2.5335811E-2,-1.5470652E-1,-2.484439E-1,3.2189578E-2,-1.2921718E-2,-3.0350279E-2,3.4282394E-2,3.2723516E-2,-3.417082E-2],"split_indices":[18,14,18,13,0,17,18,0,0,0,0,0,0],"split_type":[0,0,0,0,0,0,0,0,0,0,0,0,0],"sum_hessian":[8.063718E3,2.3411233E3,5.722594E3,2.1035457E3,2.3757759E2,3.108651E3,2.6139434E3,1.8113608E3,2.921849E2,3.0459849E3,6.266587E1,1.953793E3,6.6015045E2],"tree_param":{"num_deleted":"0","num_feature":"40","num_nodes":"13","size_leaf_vector":"1"}},{"base_weights":[-6.477347E-5,-5.307873E-1,3.2644324E-2,-1.2959872E0,3.2688685E-2,-2.7931055E-2,-6.174522E-3],"categories":[],"categories_nodes":[],"categories_segments":[],"categories_sizes":[],"default_left":[0,0,0,0,0,0,0],"id":4,"left_children":[1,3,-1,5,-1,-1,-1],"loss_changes":[7.9853945E3,1.152802E4,0E0,1.3593535E3,0E0,0E0,0E0],"parents":[2147483647,0,0,1,1,3,3],"right_children":[2,4,-1,6,-1,-1,-1],"split_conditions":[-1.9355147E-1,-3.6387973E-2,3.2644324E-2,-1.3812035E-1,3.2688685E-2,-2.7931055E-2,-6.174522E-3],"split_indices":[19,5,0,8,0,0,0],"split_type":[0,0,0,0,0,0,0],"sum_hessian":[8.0466694E3,6.267931E3,1.7787385E3,4.7542617E3,1.5136693E3,3.5957297E3,1.1585319E3],"tree_param":{"num_deleted":"0","num_feature":"40","num_nodes":"7","size_leaf_vector":"1"}},{"base_weights":[2.4891405E-3,1.7873082E0,-5.170673E-1,1.8004252E0,-1.9475762E-2,-1.5684305E0,8.9709276E-1,3.159672E-2,-2.8247204E-2,-2.8154494E-2,3.4184705E-2,3.15382E-2,-3.324303E-2],"categories":[],"categories_nodes":[],"categories_segments":[],"categories_sizes":[],"default_left":[0,0,0,0,0,0,0,0,0,0,0,0,0],"id":5,"left_children":[1,3,5,7,-1,9,11,-1,-1,-1,-1,-1,-1],"loss_changes":[7.4693364E3,7.1151855E1,9.277126E3,5.812744E1,0E0,5.559795E2,6.777298E3,0E0,0E0,0E0,0E0,0E0,0E0],"parents":[2147483647,0,0,1,1,2,2,3,3,5,5,6,6],"right_children":[2,4,6,8,-1,10,12,-1,-1,-1,-1,-1,-1],"split_conditions":[-1.5032642E0,1.4550036E1,-1.3812035E-1,3.3831367E0,-1.9475762E-2,-1.5470652E-1,-1.377701E-1,3.159672E-2,-2.8247204E-2,-2.8154494E-2,3.4184705E-2,3.15382E-2,-3.324303E-2],"split_indices":[15,0,8,22,0,17,8,0,0,0,0,0,0],"split_type":[0,0,0,0,0,0,0,0,0,0,0,0,0],"sum_hessian":[8.0528096E3,1.815078E3,6.237732E3,1.8072904E3,7.787553E0,3.5777383E3,2.6599934E3,1.8030497E3,4.2408133E0,3.5343667E3,4.337144E1,2.0085262E3,6.514673E2],"tree_param":{"num_deleted":"0","num_feature":"40","num_nodes":"13","size_leaf_vector":"1"}},{"base_weights":[1.862125E-4,-5.1473844E-1,3.1695284E-2,-1.2520167E0,3.174065E-2,-2.6594367E-2,-6.793915E-3],"categories":[],"categories_nodes":[],"categories_segments":[],"categories_sizes":[],"default_left":[0,0,0,0,0,0,0],"id":6,"left_children":[1,3,-1,5,-1,-1,-1],"loss_changes":[7.4948066E3,1.0745439E4,0E0,1.1092231E3,0E0,0E0,0E0],"parents":[2147483647,0,0,1,1,3,3],"right_children":[2,4,-1,6,-1,-1,-1],"split_conditions":[-1.9355147E-1,-3.6387973E-2,3.1695284E-2,-2.5075316E-1,3.174065E-2,-2.6594367E-2,-6.793915E-3],"split_indices":[19,5,0,18,0,0,0],"split_type":[0,0,0,0,0,0,0],"sum_hessian":[8.018188E3,6.2465464E3,1.7716416E3,4.746566E3,1.4999803E3,3.6120005E3,1.1345653E3],"tree_param":{"num_deleted":"0","num_feature":"40","num_nodes":"7","size_leaf_vector":"1"}},{"base_weights":[-1.5365251E-3,1.733128E0,-5.0516003E-1,1.7453642E0,-1.8389791E-2,-1.235353E0,3.1293985E-2,3.0640988E-2,-2.8017804E-2,-2.6732167E-2,-5.666736E-3],"categories":[],"categories_nodes":[],"categories_segments":[],"categories_sizes":[],"default_left":[0,0,0,0,0,0,0,0,0,0,0],"id":7,"left_children":[1,3,5,7,-1,9,-1,-1,-1,-1,-1],"loss_changes":[7.012139E3,6.3410645E1,1.0436463E4,5.861914E1,0E0,1.2698691E3,0E0,0E0,0E0,0E0,0E0],"parents":[2147483647,0,0,1,1,2,2,3,3,5,5],"right_children":[2,4,6,8,-1,10,-1,-1,-1,-1,-1],"split_conditions":[-1.5032642E0,1.9430428E1,-3.6387973E-2,1.5360708E0,-1.8389791E-2,-1.3812035E-1,3.1293985E-2,3.0640988E-2,-2.8017804E-2,-2.6732167E-2,-5.666736E-3],"split_indices":[15,1,5,20,0,8,0,0,0,0,0],"split_type":[0,0,0,0,0,0,0,0,0,0,0],"sum_hessian":[8.024551E3,1.8050059E3,6.219545E3,1.7974854E3,7.5205665E0,4.7197607E3,1.499784E3,1.7930034E3,4.4818983E0,3.5633054E3,1.1564554E3],"tree_param":{"num_deleted":"0","num_feature":"40","num_nodes":"11","size_leaf_vector":"1"}},{"base_weights":[3.6600258E-3,-4.9544537E-1,3.0840658E-2,-1.2124624E0,3.0867621E-2,-2.6309056E-2,-5.3582625E-3],"categories":[],"categories_nodes":[],"categories_segments":[],"categories_sizes":[],"default_left":[0,0,0,0,0,0,0],"id":8,"left_children":[1,3,-1,5,-1,-1,-1],"loss_changes":[7.039535E3,1.0122084E4,0E0,1.2611396E3,0E0,0E0,0E0],"parents":[2147483647,0,0,1,1,3,3],"right_children":[2,4,-1,6,-1,-1,-1],"split_conditions":[-1.9355147E-1,-3.6387973E-2,3.0840658E-2,-1.3812035E-1,3.0867621E-2,-2.6309056E-2,-5.3582625E-3],"split_indices":[19,5,0,8,0,0,0],"split_type":[0,0,0,0,0,0,0],"sum_hessian":[8.0008965E3,6.235691E3,1.7652053E3,4.7357095E3,1.4999816E3,3.574298E3,1.1614114E3],"tree_param":{"num_deleted":"0","num_feature":"40","num_nodes":"7","size_leaf_vector":"1"}},{"base_weights":[-1.3562952E-3,-4.9300146E-1,3.0431418E-2,-1.1945734E0,3.0459713E-2,-2.5903229E-2,-5.3551523E-3],"categories":[],"categories_nodes":[],"categories_segments":[],"categories_sizes":[],"default_left":[0,0,0,0,0,0,0],"id":9,"left_children":[1,3,-1,5,-1,-1,-1],"loss_changes":[6.81999E3,9.741181E3,0E0,1.2107632E3,0E0,0E0,0E0],"parents":[2147483647,0,0,1,1,3,3],"right_children":[2,4,-1,6,-1,-1,-1],"split_conditions":[-1.9355147E-1,-3.6387973E-2,3.0431418E-2,-1.3812035E-1,3.0459713E-2,-2.5903229E-2,-5.3551523E-3],"split_indices":[19,5,0,8,0,0,0],"split_type":[0,0,0,0,0,0,0],"sum_hessian":[7.9520747E3,6.2038643E3,1.7482104E3,4.7231973E3,1.4806672E3,3.5636318E3,1.1595652E3],"tree_param":{"num_deleted":"0","num_feature":"40","num_nodes":"7","size_leaf_vector":"1"}},{"base_weights":[3.6055122E-3,1.6677073E0,-4.7848886E-1,1.6791124E0,-1.8442895E-2,-1.4604276E0,8.3677506E-1,2.9482346E-2,-2.7770746E-2,-2.655304E-2,3.4925923E-2,3.034244E-2,-3.270487E-2],"categories":[],"categories_nodes":[],"categories_segments":[],"categories_sizes":[],"default_left":[0,0,0,0,0,0,0,0,0,0,0,0,0],"id":10,"left_children":[1,3,5,7,-1,9,11,-1,-1,-1,-1,-1,-1],"loss_changes":[6.34057E3,5.6924805E1,7.9157417E3,5.5677246E1,0E0,7.592339E2,6.398074E3,0E0,0E0,0E0,0E0,0E0,0E0],"parents":[2147483647,0,0,1,1,2,2,3,3,5,5,6,6],"right_children":[2,4,6,8,-1,10,12,-1,-1,-1,-1,-1,-1],"split_conditions":[-1.5032642E0,1.4550036E1,-1.3812035E-1,1.5360708E0,-1.8442895E-2,-2.5075316E-1,-2.484439E-1,2.9482346E-2,-2.7770746E-2,-2.655304E-2,3.4925923E-2,3.034244E-2,-3.270487E-2],"split_indices":[15,0,8,20,0,18,18,0,0,0,0,0,0],"split_type":[0,0,0,0,0,0,0,0,0,0,0,0,0],"sum_hessian":[7.901448E3,1.7743291E3,6.127119E3,1.7673125E3,7.0165243E0,3.5080203E3,2.619099E3,1.7628538E3,4.458817E0,3.4508022E3,5.7218E1,1.9659211E3,6.531779E2],"tree_param":{"num_deleted":"0","num_feature":"40","num_nodes":"13","size_leaf_vector":"1"}},{"base_weights":[-5.680618E-3,-4.814678E-1,2.966295E-2,-1.4305352E0,8.11513E-1,-2.6039943E-2,3.4925923E-2,2.9874198E-2,-3.2232903E-2],"categories":[],"categories_nodes":[],"categories_segments":[],"categories_sizes":[],"default_left":[0,0,0,0,0,0,0,0,0],"id":11,"left_children":[1,3,-1,5,7,-1,-1,-1,-1],"loss_changes":[6.388517E3,7.559071E3,0E0,7.609829E2,6.2343354E3,0E0,0E0,0E0,0E0],"parents":[2147483647,0,0,1,1,3,3,4,4],"right_children":[2,4,-1,6,8,-1,-1,-1,-1],"split_conditions":[-1.9355147E-1,-1.3812035E-1,2.966295E-2,-2.5075316E-1,-2.484439E-1,-2.6039943E-2,3.4925923E-2,2.9874198E-2,-3.2232903E-2],"split_indices":[19,8,0,18,18,0,0,0,0],"split_type":[0,0,0,0,0,0,0,0,0],"sum_hessian":[7.8764443E3,6.158033E3,1.7184111E3,3.5512532E3,2.6067798E3,3.4917317E3,5.952151E1,1.9479636E3,6.5881604E2],"tree_param":{"num_deleted":"0","num_feature":"40","num_nodes":"9","size_leaf_vector":"1"}},{"base_weights":[3.7820293E-3,-4.6646366E-1,2.929444E-2,-1.1427225E0,2.934523E-2,-2.482837E-2,-5.047288E-3],"categories":[],"categories_nodes":[],"categories_segments":[],"categories_sizes":[],"default_left":[0,0,0,0,0,0,0],"id":12,"left_children":[1,3,-1,5,-1,-1,-1],"loss_changes":[6.1791113E3,8.900145E3,0E0,1.1100347E3,0E0,0E0,0E0],"parents":[2147483647,0,0,1,1,3,3],"right_children":[2,4,-1,6,-1,-1,-1],"split_conditions":[-1.9355147E-1,-3.6387973E-2,2.929444E-2,-1.3812035E-1,2.934523E-2,-2.482837E-2,-5.047288E-3],"split_indices":[19,5,0,8,0,0,0],"split_type":[0,0,0,0,0,0,0],"sum_hessian":[7.8488096E3,6.127871E3,1.7209386E3,4.660353E3,1.4675182E3,3.5117778E3,1.1485751E3],"tree_param":{"num_deleted":"0","num_feature":"40","num_nodes":"7","size_leaf_vector":"1"}},{"base_weights":[-3.7817406E-3,1.5767815E0,-4.63478E-1,1.6038537E0,-4.5157385E-1,-1.1293155E0,2.8999867E-2,2.8183257E-2,-2.8032104E-2,-2.5797047E-2,2.0887403E-2,-2.4552636E-2,-5.1989923E-3],"categories":[],"categories_nodes":[],"categories_segments":[],"categories_sizes":[],"default_left":[0,0,0,0,0,0,0,0,0,0,0,0,0],"id":13,"left_children":[1,3,5,7,9,11,-1,-1,-1,-1,-1,-1,-1],"loss_changes":[5.6825444E3,9.748828E1,8.570971E3,5.859131E1,4.230906E1,1.0610273E3,0E0,0E0,0E0,0E0,0E0,0E0,0E0],"parents":[2147483647,0,0,1,1,2,2,3,3,4,4,5,5],"right_children":[2,4,6,8,10,12,-1,-1,-1,-1,-1,-1,-1],"split_conditions":[-1.3903675E0,-2.5075626E-1,-3.6387973E-2,1.5360708E0,-1.3812035E-1,-1.3812035E-1,2.8999867E-2,2.8183257E-2,-2.8032104E-2,-2.5797047E-2,2.0887403E-2,-2.4552636E-2,-5.1989923E-3],"split_indices":[10,18,5,20,8,8,0,0,0,0,0,0,0],"split_type":[0,0,0,0,0,0,0,0,0,0,0,0,0],"sum_hessian":[7.818953E3,1.7611614E3,6.0577915E3,1.7381715E3,2.2989906E1,4.6124297E3,1.4453619E3,1.7332491E3,4.922307E0,1.4233215E1,8.756692E0,3.4604644E3,1.1519652E3],"tree_param":{"num_deleted":"0","num_feature":"40","num_nodes":"13","size_leaf_vector":"1"}},{"base_weights":[1.3556496E-2,1.7317442E0,-1.5344712E0,6.451805E-1,3.4564633E-2,-1.808882E0,-2.490899E-1,-1.3289759E-2,3.2245394E-2,-3.3456642E-2,2.6143204E-2,3.179695E-2,-3.2275863E-2],"categories":[],"categories_nodes":[],"categories_segments":[],"categories_sizes":[],"default_left":[0,0,0,0,0,0,0,0,0,0,0,0,0],"id":14,"left_children":[1,3,5,7,-1,9,11,-1,-1,-1,-1,-1,-1],"loss_changes":[6.6946783E2,3.0811462E1,4.625351E1,4.1305588E1,0E0,4.1403046E1,8.4312E1,0E0,0E0,0E0,0E0,0E0,0E0],"parents":[2147483647,0,0,1,1,2,2,3,3,5,5,6,6],"right_children":[2,4,6,8,-1,10,12,-1,-1,-1,-1,-1,-1],"split_conditions":[-1.2603487E0,-1.8450342E-1,3.1373057E0,-1.3812098E-1,3.4564633E-2,-3.6387973E-2,-2.5075614E-1,-1.3289759E-2,3.2245394E-2,-3.3456642E-2,2.6143204E-2,3.179695E-2,-3.2275863E-2],"split_indices":[15,3,12,8,0,5,18,0,0,0,0,0,0],"split_type":[0,0,0,0,0,0,0,0,0,0,0,0,0],"sum_hessian":[2.496993E2,1.1828911E2,1.3141019E2,2.2619383E1,9.566973E1,1.0795586E2,2.3454336E1,1.0589897E1,1.2029486E1,1.0497919E2,2.9766645E0,1.0162114E1,1.3292222E1],"tree_param":{"num_deleted":"0","num_feature":"40","num_nodes":"13","size_leaf_vector":"1"}},{"base_weights":[3.755034E-2,-4.3966535E-1,9.521737E-1,5.278383E-1,-3.141987E-2,3.278449E-2,-3.1368706E-2,3.223969E-2,8.572512E-4],"categories":[],"categories_nodes":[],"categories_segments":[],"categories_sizes":[],"default_left":[0,0,0,0,0,0,0,0,0],"id":15,"left_children":[1,3,5,7,-1,-1,-1,-1,-1],"loss_changes":[5.4687202E1,1.0932193E2,1.1257919E2,3.0777546E1,0E0,0E0,0E0,0E0,0E0],"parents":[2147483647,0,0,1,1,2,2,3,3],"right_children":[2,4,6,8,-1,-1,-1,-1,-1],"split_conditions":[-1.3812049E-1,-1.38121E-1,-2.493095E-1,-1.3905611E0,-3.141987E-2,3.278449E-2,-3.1368706E-2,3.223969E-2,8.572512E-4],"split_indices":[8,8,18,10,0,0,0,0,0],"split_type":[0,0,0,0,0,0,0,0,0],"sum_hessian":[1.233344E2,8.138835E1,4.194605E1,4.7907673E1,3.348068E1,3.161923E1,1.032682E1,1.2001823E1,3.590585E1],"tree_param":{"num_deleted":"0","num_feature":"40","num_nodes":"9","size_leaf_vector":"1"}},{"base_weights":[2.3878196E-1,-2.894315E-1,1.0559936E0,6.6669005E-1,-2.8092299E-2,1.9098631E0,-3.0313151E-2,6.2607955E-3,3.4925923E-2,3.3813886E-2,1.7351293E-3],"categories":[],"categories_nodes":[],"categories_segments":[],"categories_sizes":[],"default_left":[0,0,0,0,0,0,0,0,0,0,0],"id":16,"left_children":[1,3,5,7,-1,9,-1,-1,-1,-1,-1],"loss_changes":[2.2088863E2,3.935721E2,4.820851E2,8.219473E1,0E0,7.19751E0,0E0,0E0,0E0,0E0,0E0],"parents":[2147483647,0,0,1,1,2,2,3,3,5,5],"right_children":[2,4,6,8,-1,10,-1,-1,-1,-1,-1],"split_conditions":[-1.3812038E-1,-1.3812098E-1,-2.4907634E-1,-2.1067348E-1,-2.8092299E-2,-1.378343E-1,-3.0313151E-2,6.2607955E-3,3.4925923E-2,3.3813886E-2,1.7351293E-3],"split_indices":[8,8,18,17,0,8,0,0,0,0,0],"split_type":[0,0,0,0,0,0,0,0,0,0,0],"sum_hessian":[5.1000848E2,3.1017157E2,1.998369E2,1.801227E2,1.3004887E2,1.5327469E2,4.656221E1,1.504883E2,2.9634407E1,1.5099863E2,2.2760537E0],"tree_param":{"num_deleted":"0","num_feature":"40","num_nodes":"11","size_leaf_vector":"1"}},{"base_weights":[0E0],"categories":[],"categories_nodes":[],"categories_segments":[],"categories_sizes":[],"default_left":[0],"id":17,"left_children":[-1],"loss_changes":[0E0],"parents":[2147483647],"right_children":[-1],"split_conditions":[0E0],"split_indices":[0],"split_type":[0],"sum_hessian":[9.190101E-1],"tree_param":{"num_deleted":"0","num_feature":"40","num_nodes":"1","size_leaf_vector":"1"}},{"base_weights":[2.1803081E-1,4.2908046E-1,-2.8728513E-2,1.137828E0,-1.8776086E-1,1.3961418E-2,3.4925923E-2,-2.863522E-2,1.466196E-2],"categories":[],"categories_nodes":[],"categories_segments":[],"categories_sizes":[],"default_left":[0,0,0,0,0,0,0,0,0],"id":18,"left_children":[1,3,-1,5,7,-1,-1,-1,-1],"loss_changes":[2.84421E4,2.8404742E4,0E0,9.201848E3,5.182282E4,0E0,0E0,0E0,0E0],"parents":[2147483647,0,0,1,1,3,3,4,4],"right_children":[2,4,-1,6,8,-1,-1,-1,-1],"split_conditions":[9.2885554E-2,-2.5075614E-1,-2.8728513E-2,-1.3812067E-1,-2.5075316E-1,1.3961418E-2,3.4925923E-2,-2.863522E-2,1.466196E-2],"split_indices":[30,18,0,8,18,0,0,0,0],"split_type":[0,0,0,0,0,0,0,0,0],"sum_hessian":[7.2329305E4,6.4970465E4,7.3588374E3,3.023256E4,3.4737902E4,2.1979994E4,8.252566E3,1.4393912E4,2.0343992E4],"tree_param":{"num_deleted":"0","num_feature":"40","num_nodes":"9","size_leaf_vector":"1"}},{"base_weights":[6.3017295E-3,-4.4298962E-1,2.8157718E-2,-1.0620705E0,2.7542299E-2,-2.327537E-2,-4.236592E-3],"categories":[],"categories_nodes":[],"categories_segments":[],"categories_sizes":[],"default_left":[0,0,0,0,0,0,0],"id":19,"left_children":[1,3,-1,5,-1,-1,-1],"loss_changes":[5.5270576E3,7.4868735E3,0E0,1.016313E3,0E0,0E0,0E0],"parents":[2147483647,0,0,1,1,3,3],"right_children":[2,4,-1,6,-1,-1,-1],"split_conditions":[-1.9355147E-1,-3.6387973E-2,2.8157718E-2,-1.3812035E-1,2.7542299E-2,-2.327537E-2,-4.236592E-3],"split_indices":[19,5,0,8,0,0,0],"split_type":[0,0,0,0,0,0,0],"sum_hessian":[7.657274E3,5.984043E3,1.673231E3,4.580749E3,1.4032936E3,3.4426028E3,1.1381464E3],"tree_param":{"num_deleted":"0","num_feature":"40","num_nodes":"7","size_leaf_vector":"1"}},{"base_weights":[7.938366E-2,1.4584405E0,-8.302021E-1,1.5993502E0,6.487677E-1,-1.0834148E0,-9.391591E-2,2.8085908E-2,-2.621858E-2,1.0196196E-2,3.1615622E-2,-2.149057E-2,3.4925923E-2,3.0765133E-2,-3.0682974E-2],"categories":[],"categories_nodes":[],"categories_segments":[],"categories_sizes":[],"default_left":[0,0,0,0,0,0,0,0,0,0,0,0,0,0,0],"id":20,"left_children":[1,3,5,7,9,11,13,-1,-1,-1,-1,-1,-1,-1,-1],"loss_changes":[4.740339E3,1.7031616E2,4.2444983E2,3.7947998E1,1.5852768E1,8.000216E2,1.8048796E3,0E0,0E0,0E0,0E0,0E0,0E0,0E0,0E0],"parents":[2147483647,0,0,1,1,2,2,3,3,4,4,5,5,6,6],"right_children":[2,4,6,8,10,12,14,-1,-1,-1,-1,-1,-1,-1,-1],"split_conditions":[-1.2603487E0,-1.5032642E0,-1.3812037E-1,1.6231103E0,-1.3812098E-1,-2.5075316E-1,-2.4809998E-1,2.8085908E-2,-2.621858E-2,1.0196196E-2,3.1615622E-2,-2.149057E-2,3.4925923E-2,3.0765133E-2,-3.0682974E-2],"split_indices":[15,15,8,20,8,18,18,0,0,0,0,0,0,0,0],"split_type":[0,0,0,0,0,0,0,0,0,0,0,0,0,0,0],"sum_hessian":[3.7770928E3,1.5009076E3,2.276185E3,1.2775896E3,2.2331789E2,1.6933588E3,5.8282635E2,1.2743873E3,3.202351E0,2.1292621E2,1.0391675E1,1.6194867E3,7.387204E1,2.7543988E2,3.0738647E2],"tree_param":{"num_deleted":"0","num_feature":"40","num_nodes":"15","size_leaf_vector":"1"}},{"base_weights":[2.7787042E-1,4.869054E-1,-1.6151353E0,1.0793313E-2,1.7282046E0,-2.8747749E-2,-2.8021103E-2,1.8606542E-2,-2.7362553E-2,3.4925923E-2,-2.9678022E-2],"categories":[],"categories_nodes":[],"categories_segments":[],"categories_sizes":[],"default_left":[0,0,0,0,0,0,0,0,0,0,0],"id":21,"left_children":[1,3,5,7,9,-1,-1,-1,-1,-1,-1],"loss_changes":[1.4341062E5,1.9288816E5,9.15625E0,3.925291E5,1.3086478E5,0E0,0E0,0E0,0E0,0E0,0E0],"parents":[2147483647,0,0,1,1,2,2,3,3,4,4],"right_children":[2,4,6,8,10,-1,-1,-1,-1,-1,-1],"split_conditions":[9.2885554E-2,6.829755E-1,-1.3812098E-1,-2.5075614E-1,-1.3795368E-1,-2.8747749E-2,-2.8021103E-2,1.8606542E-2,-2.7362553E-2,3.4925923E-2,-2.9678022E-2],"split_indices":[30,15,8,18,8,0,0,0,0,0,0],"split_type":[0,0,0,0,0,0,0,0,0,0,0],"sum_hessian":[3.6241562E5,3.263763E5,3.6039332E4,2.3589684E5,9.047946E4,9.083705E3,2.6955625E4,1.4138219E5,9.451465E4,8.042997E4,1.0049489E4],"tree_param":{"num_deleted":"0","num_feature":"40","num_nodes":"11","size_leaf_vector":"1"}},{"base_weights":[2.62168E-1,1.4828277E0,-4.0900953E-2,3.2083612E-2,8.3566654E-1,-6.4166796E-1,8.373062E-1,6.548891E-3,2.0373026E-2,4.293606E-3,-2.3878355E-2,2.965128E-2,-2.6895408E-2],"categories":[],"categories_nodes":[],"categories_segments":[],"categories_sizes":[],"default_left":[0,0,0,0,0,0,0,0,0,0,0,0,0],"id":22,"left_children":[1,3,5,-1,7,9,11,-1,-1,-1,-1,-1,-1],"loss_changes":[4.413521E1,3.9059143E0,5.140564E1,0E0,1.1220441E0,3.75754E1,8.363847E1,0E0,0E0,0E0,0E0,0E0,0E0],"parents":[2147483647,0,0,1,1,2,2,4,4,5,5,6,6],"right_children":[2,4,6,-1,8,10,12,-1,-1,-1,-1,-1,-1],"split_conditions":[-1.2603487E0,-7.2146267E-1,-1.3812049E-1,3.2083612E-2,3.3167166E-1,-1.38121E-1,-2.493095E-1,6.548891E-3,2.0373026E-2,4.293606E-3,-2.3878355E-2,2.965128E-2,-2.6895408E-2],"split_indices":[15,10,8,0,10,8,18,0,0,0,0,0,0],"split_type":[0,0,0,0,0,0,0,0,0,0,0,0,0],"sum_hessian":[1.18138466E2,2.272343E1,9.541503E1,1.3494439E1,9.228991E0,5.6816883E1,3.859815E1,4.7504277E0,4.478563E0,2.5856056E1,3.0960827E1,2.8549067E1,1.0049084E1],"tree_param":{"num_deleted":"0","num_feature":"40","num_nodes":"13","size_leaf_vector":"1"}},{"base_weights":[2.1825646E-1,1.6849104E0,-1.1801145E0,7.072725E-1,3.3255953E-2,-1.4514738E0,5.2737255E-2,-1.0441916E-2,3.1280287E-2,-2.676256E-2,1.9571722E-2,3.346299E-2,-2.5700402E-2],"categories":[],"categories_nodes":[],"categories_segments":[],"categories_sizes":[],"default_left":[0,0,0,0,0,0,0,0,0,0,0,0,0],"id":23,"left_children":[1,3,5,7,-1,9,11,-1,-1,-1,-1,-1,-1],"loss_changes":[4.9948267E2,2.4143402E1,4.181584E1,3.413696E1,0E0,2.3045563E1,6.950009E1,0E0,0E0,0E0,0E0,0E0,0E0],"parents":[2147483647,0,0,1,1,2,2,3,3,5,5,6,6],"right_children":[2,4,6,8,-1,10,12,-1,-1,-1,-1,-1,-1],"split_conditions":[-1.2603487E0,-1.6965894E-1,3.1373057E0,-1.3812098E-1,3.3255953E-2,-3.6387973E-2,-2.5075614E-1,-1.0441916E-2,3.1280287E-2,-2.676256E-2,1.9571722E-2,3.346299E-2,-2.5700402E-2],"split_indices":[15,2,12,8,0,5,18,0,0,0,0,0,0],"split_type":[0,0,0,0,0,0,0,0,0,0,0,0,0],"sum_hessian":[2.4157056E2,1.1780655E2,1.23764E2,2.2371262E1,9.543529E1,1.01291664E2,2.2472334E1,1.0353186E1,1.2018076E1,9.858903E1,2.7026412E0,9.996083E0,1.247625E1],"tree_param":{"num_deleted":"0","num_feature":"40","num_nodes":"13","size_leaf_vector":"1"}},{"base_weights":[0E0],"categories":[],"categories_nodes":[],"categories_segments":[],"categories_sizes":[],"default_left":[0],"id":24,"left_children":[-1],"loss_changes":[0E0],"parents":[2147483647],"right_children":[-1],"split_conditions":[0E0],"split_indices":[0],"split_type":[0],"sum_hessian":[9.1008747E-1],"tree_param":{"num_deleted":"0","num_feature":"40","num_nodes":"1","size_leaf_vector":"1"}},{"base_weights":[2.7357376E-1,1.447366E0,-2.0009352E-2,3.1199316E-2,8.264352E-1,-6.121639E-1,8.4214646E-1,6.5197456E-3,2.0093044E-2,4.6248E-3,-2.3352407E-2,2.9474027E-2,-2.6273483E-2],"categories":[],"categories_nodes":[],"categories_segments":[],"categories_sizes":[],"default_left":[0,0,0,0,0,0,0,0,0,0,0,0,0],"id":25,"left_children":[1,3,5,-1,7,9,11,-1,-1,-1,-1,-1,-1],"loss_changes":[4.0801807E1,3.5126762E0,4.9338276E1,0E0,1.0728693E0,3.6773666E1,8.0647285E1,0E0,0E0,0E0,0E0,0E0,0E0],"parents":[2147483647,0,0,1,1,2,2,4,4,5,5,6,6],"right_children":[2,4,6,-1,8,10,12,-1,-1,-1,-1,-1,-1],"split_conditions":[-1.2603487E0,-7.2146267E-1,-1.3812049E-1,3.1199316E-2,3.3167166E-1,-1.38121E-1,-2.493095E-1,6.5197456E-3,2.0093044E-2,4.6248E-3,-2.3352407E-2,2.9474027E-2,-2.6273483E-2],"split_indices":[15,10,8,0,10,8,18,0,0,0,0,0,0],"split_type":[0,0,0,0,0,0,0,0,0,0,0,0,0],"sum_hessian":[1.1731742E2,2.2685833E1,9.463159E1,1.3456722E1,9.229111E0,5.627215E1,3.8359444E1,4.7466087E0,4.4825025E0,2.5755512E1,3.0516636E1,2.8404322E1,9.955121E0],"tree_param":{"num_deleted":"0","num_feature":"40","num_nodes":"13","size_leaf_vector":"1"}},{"base_weights":[9.529249E-2,1.4035501E0,-7.676292E-1,1.5416498E0,6.30363E-1,-1.0189563E0,-4.600446E-2,2.7079964E-2,-2.6468849E-2,9.9406615E-3,3.0183984E-2,-2.0366363E-2,3.4925923E-2,3.0375179E-2,-2.9221479E-2],"categories":[],"categories_nodes":[],"categories_segments":[],"categories_sizes":[],"default_left":[0,0,0,0,0,0,0,0,0,0,0,0,0,0,0],"id":26,"left_children":[1,3,5,7,9,11,13,-1,-1,-1,-1,-1,-1,-1,-1],"loss_changes":[4.181441E3,1.5621143E2,4.0473767E2,3.6923584E1,1.4102058E1,7.631676E2,1.6810356E3,0E0,0E0,0E0,0E0,0E0,0E0,0E0,0E0],"parents":[2147483647,0,0,1,1,2,2,3,3,4,4,5,5,6,6],"right_children":[2,4,6,8,10,12,14,-1,-1,-1,-1,-1,-1,-1,-1],"split_conditions":[-1.2603487E0,-1.5032642E0,-1.3812037E-1,1.6231103E0,-1.3812098E-1,-2.5075316E-1,-2.4809998E-1,2.7079964E-2,-2.6468849E-2,9.9406615E-3,3.0183984E-2,-2.0366363E-2,3.4925923E-2,3.0375179E-2,-2.9221479E-2],"split_indices":[15,15,8,20,8,18,18,0,0,0,0,0,0,0,0],"split_type":[0,0,0,0,0,0,0,0,0,0,0,0,0,0,0],"sum_hessian":[3.7019636E3,1.4710732E3,2.2308901E3,1.2472985E3,2.2377486E2,1.6543143E3,5.7657587E2,1.244105E3,3.1934137E0,2.1341452E2,1.0360341E1,1.5804004E3,7.3914024E1,2.7490192E2,3.0167392E2],"tree_param":{"num_deleted":"0","num_feature":"40","num_nodes":"15","size_leaf_vector":"1"}},{"base_weights":[1.0182697E-2,-4.218116E-1,2.7164971E-2,-1.0029359E0,2.6343698E-2,-2.227074E-2,-3.2942737E-3],"categories":[],"categories_nodes":[],"categories_segments":[],"categories_sizes":[],"default_left":[0,0,0,0,0,0,0],"id":27,"left_children":[1,3,-1,5,-1,-1,-1],"loss_changes":[4.9899976E3,6.554492E3,0E0,9.9573584E2,0E0,0E0,0E0],"parents":[2147483647,0,0,1,1,3,3],"right_children":[2,4,-1,6,-1,-1,-1],"split_conditions":[-1.9355147E-1,-3.6387973E-2,2.7164971E-2,-1.3812035E-1,2.6343698E-2,-2.227074E-2,-3.2942737E-3],"split_indices":[19,5,0,8,0,0,0],"split_type":[0,0,0,0,0,0,0],"sum_hessian":[7.472535E3,5.8406E3,1.6319352E3,4.489531E3,1.3510691E3,3.3637917E3,1.1257391E3],"tree_param":{"num_deleted":"0","num_feature":"40","num_nodes":"7","size_leaf_vector":"1"}},{"base_weights":[2.9337835E-1,5.047455E-1,-2.595254E-2,7.464214E-1,-2.7992195E-2,1.6820246E-3,3.1616993E-2],"categories":[],"categories_nodes":[],"categories_segments":[],"categories_sizes":[],"default_left":[0,0,0,0,0,0,0],"id":28,"left_children":[1,3,-1,5,-1,-1,-1],"loss_changes":[1.8758354E2,2.2773352E2,0E0,2.7630267E2,0E0,0E0,0E0],"parents":[2147483647,0,0,1,1,3,3],"right_children":[2,4,-1,6,-1,-1,-1],"split_conditions":[9.2885554E-2,-2.4907634E-1,-2.595254E-2,-1.3812038E-1,-2.7992195E-2,1.6820246E-3,3.1616993E-2],"split_indices":[30,18,0,8,0,0,0],"split_type":[0,0,0,0,0,0,0],"sum_hessian":[4.9572122E2,4.437323E2,5.1988922E1,3.9866565E2,4.5066643E1,2.4815042E2,1.5051523E2],"tree_param":{"num_deleted":"0","num_feature":"40","num_nodes":"7","size_leaf_vector":"1"}},{"base_weights":[0E0],"categories":[],"categories_nodes":[],"categories_segments":[],"categories_sizes":[],"default_left":[0],"id":29,"left_children":[-1],"loss_changes":[0E0],"parents":[2147483647],"right_children":[-1],"split_conditions":[0E0],"split_indices":[0],"split_type":[0],"sum_hessian":[8.9551866E-1],"tree_param":{"num_deleted":"0","num_feature":"40","num_nodes":"1","size_leaf_vector":"1"}},{"base_weights":[9.2028305E-2,1.3607839E0,-7.385803E-1,1.4960113E0,6.2250835E-1,-9.828915E-1,-4.1865755E-2,2.6284859E-2,-2.6605288E-2,9.833704E-3,2.9557306E-2,-1.9733952E-2,3.4925923E-2,2.9540202E-2,-2.8542724E-2],"categories":[],"categories_nodes":[],"categories_segments":[],"categories_sizes":[],"default_left":[0,0,0,0,0,0,0,0,0,0,0,0,0,0,0],"id":30,"left_children":[1,3,5,7,9,11,13,-1,-1,-1,-1,-1,-1,-1,-1],"loss_changes":[3.8406724E3,1.4302075E2,3.7487585E2,3.6003662E1,1.3341751E1,7.3804675E2,1.5843524E3,0E0,0E0,0E0,0E0,0E0,0E0,0E0,0E0],"parents":[2147483647,0,0,1,1,2,2,3,3,4,4,5,5,6,6],"right_children":[2,4,6,8,10,12,14,-1,-1,-1,-1,-1,-1,-1,-1],"split_conditions":[-1.2603487E0,-1.5032642E0,-1.3812037E-1,1.6231103E0,-1.3812098E-1,-2.5075316E-1,-2.4809998E-1,2.6284859E-2,-2.6605288E-2,9.833704E-3,2.9557306E-2,-1.9733952E-2,3.4925923E-2,2.9540202E-2,-2.8542724E-2],"split_indices":[15,15,8,20,8,18,18,0,0,0,0,0,0,0,0],"split_type":[0,0,0,0,0,0,0,0,0,0,0,0,0,0,0],"sum_hessian":[3.6425034E3,1.4408955E3,2.201608E3,1.2169624E3,2.2393309E2,1.6297175E3,5.7189044E2,1.2137793E3,3.1830978E0,2.136039E2,1.0329195E1,1.5557308E3,7.398664E1,2.7380634E2,2.980841E2],"tree_param":{"num_deleted":"0","num_feature":"40","num_nodes":"15","size_leaf_vector":"1"}},{"base_weights":[-7.7086035E-3,-4.2490214E-1,2.611409E-2,-9.6879965E-1,2.514518E-2,-2.154395E-2,-3.1310446E-3],"categories":[],"categories_nodes":[],"categories_segments":[],"categories_sizes":[],"default_left":[0,0,0,0,0,0,0],"id":31,"left_children":[1,3,-1,5,-1,-1,-1],"loss_changes":[4.552097E3,5.7645034E3,0E0,9.1989014E2,0E0,0E0,0E0],"parents":[2147483647,0,0,1,1,3,3],"right_children":[2,4,-1,6,-1,-1,-1],"split_conditions":[-1.9355147E-1,-3.6387973E-2,2.611409E-2,-1.3812035E-1,2.514518E-2,-2.154395E-2,-3.1310446E-3],"split_indices":[19,5,0,8,0,0,0],"split_type":[0,0,0,0,0,0,0],"sum_hessian":[7.2571064E3,5.6810303E3,1.5760758E3,4.398603E3,1.2824276E3,3.293129E3,1.1054739E3],"tree_param":{"num_deleted":"0","num_feature":"40","num_nodes":"7","size_leaf_vector":"1"}},{"base_weights":[2.1317205E-1,1.5752482E0,-1.1184511E0,6.1037713E-1,3.1315245E-2,-1.3824215E0,5.677409E-2,-1.1224997E-2,2.9076273E-2,-2.5439523E-2,1.8043851E-2,3.2456927E-2,-2.4935499E-2],"categories":[],"categories_nodes":[],"categories_segments":[],"categories_sizes":[],"default_left":[0,0,0,0,0,0,0,0,0,0,0,0,0],"id":32,"left_children":[1,3,5,7,-1,9,11,-1,-1,-1,-1,-1,-1],"loss_changes":[4.3236853E2,2.3677887E1,3.7501373E1,3.1760738E1,0E0,1.920427E1,6.441324E1,0E0,0E0,0E0,0E0,0E0,0E0],"parents":[2147483647,0,0,1,1,2,2,3,3,5,5,6,6],"right_children":[2,4,6,8,-1,10,12,-1,-1,-1,-1,-1,-1],"split_conditions":[-1.2603487E0,-1.6965894E-1,3.1373057E0,-1.3812098E-1,3.1315245E-2,-3.6387973E-2,-2.5075614E-1,-1.1224997E-2,2.9076273E-2,-2.5439523E-2,1.8043851E-2,3.2456927E-2,-2.4935499E-2],"split_indices":[15,2,12,8,0,5,18,0,0,0,0,0,0],"split_type":[0,0,0,0,0,0,0,0,0,0,0,0,0],"sum_hessian":[2.3640945E2,1.16777954E2,1.1963151E2,2.222135E1,9.45566E1,9.75453E1,2.2086203E1,1.0333399E1,1.188795E1,9.5017845E1,2.5274591E0,9.863631E0,1.2222571E1],"tree_param":{"num_deleted":"0","num_feature":"40","num_nodes":"13","size_leaf_vector":"1"}},{"base_weights":[3.194528E-1,5.1073295E-1,-1.493876E0,3.7124548E-2,1.7217717E0,-2.6891356E-2,-2.5808847E-2,1.7264867E-2,-2.5336614E-2,3.4925923E-2,-2.723428E-2],"categories":[],"categories_nodes":[],"categories_segments":[],"categories_sizes":[],"default_left":[0,0,0,0,0,0,0,0,0,0,0],"id":33,"left_children":[1,3,5,7,9,-1,-1,-1,-1,-1,-1],"loss_changes":[1.22835016E5,1.8373766E5,2.2554688E1,3.2606228E5,1.1499028E5,0E0,0E0,0E0,0E0,0E0,0E0],"parents":[2147483647,0,0,1,1,2,2,3,3,4,4],"right_children":[2,4,6,8,10,-1,-1,-1,-1,-1,-1],"split_conditions":[9.2885554E-2,6.829755E-1,-1.3812098E-1,-2.5075614E-1,-1.3795368E-1,-2.6891356E-2,-2.5808847E-2,1.7264867E-2,-2.5336614E-2,3.4925923E-2,-2.723428E-2],"split_indices":[30,15,8,18,8,0,0,0,0,0,0],"split_type":[0,0,0,0,0,0,0,0,0,0,0],"sum_hessian":[3.5413734E5,3.2034616E5,3.3791207E4,2.302873E5,9.005884E4,8.673734E3,2.5117473E4,1.4046472E5,8.982257E4,8.0433766E4,9.625078E3],"tree_param":{"num_deleted":"0","num_feature":"40","num_nodes":"11","size_leaf_vector":"1"}},{"base_weights":[3.3428827E-1,5.382443E-1,-2.494635E-2,7.7292E-1,-2.6828302E-2,2.54411E-3,3.134003E-2],"categories":[],"categories_nodes":[],"categories_segments":[],"categories_sizes":[],"default_left":[0,0,0,0,0,0,0],"id":34,"left_children":[1,3,-1,5,-1,-1,-1],"loss_changes":[1.7626292E2,2.1453235E2,0E0,2.5246536E2,0E0,0E0,0E0],"parents":[2147483647,0,0,1,1,3,3],"right_children":[2,4,-1,6,-1,-1,-1],"split_conditions":[9.2885554E-2,-2.4907634E-1,-2.494635E-2,-1.3812038E-1,-2.6828302E-2,2.54411E-3,3.134003E-2],"split_indices":[30,18,0,8,0,0,0],"split_type":[0,0,0,0,0,0,0],"sum_hessian":[4.871109E2,4.3721973E2,4.9891167E1,3.9335065E2,4.3869072E1,2.4443631E2,1.4891434E2],"tree_param":{"num_deleted":"0","num_feature":"40","num_nodes":"7","size_leaf_vector":"1"}},{"base_weights":[2.2749572E-1,1.5549527E0,-1.0901985E0,5.9249836E-1,3.0934429E-2,-1.3529795E0,7.1550325E-2,-1.13217505E-2,2.8516559E-2,-2.4890656E-2,1.7574692E-2,3.165299E-2,-2.4266127E-2],"categories":[],"categories_nodes":[],"categories_segments":[],"categories_sizes":[],"default_left":[0,0,0,0,0,0,0,0,0,0,0,0,0],"id":35,"left_children":[1,3,5,7,-1,9,11,-1,-1,-1,-1,-1,-1],"loss_changes":[4.1249274E2,2.3411682E1,3.6256897E1,3.0831112E1,0E0,1.7934616E1,6.0517548E1,0E0,0E0,0E0,0E0,0E0,0E0],"parents":[2147483647,0,0,1,1,2,2,3,3,5,5,6,6],"right_children":[2,4,6,8,-1,10,12,-1,-1,-1,-1,-1,-1],"split_conditions":[-1.2603487E0,-1.8450342E-1,3.1373057E0,-1.3812098E-1,3.0934429E-2,-3.6387973E-2,-2.5075614E-1,-1.13217505E-2,2.8516559E-2,-2.4890656E-2,1.7574692E-2,3.165299E-2,-2.4266127E-2],"split_indices":[15,3,12,8,0,5,18,0,0,0,0,0,0],"split_type":[0,0,0,0,0,0,0,0,0,0,0,0,0],"sum_hessian":[2.3385118E2,1.16404335E2,1.1744684E2,2.20606E1,9.4343735E1,9.564734E1,2.1799498E1,1.0233476E1,1.1827126E1,9.31853E1,2.4620411E0,9.837245E0,1.1962254E1],"tree_param":{"num_deleted":"0","num_feature":"40","num_nodes":"13","size_leaf_vector":"1"}},{"base_weights":[2.9688528E-1,4.8354253E-1,-1.4590435E0,1.0930299E0,-6.0281646E-2,-2.6207613E-2,-2.5218807E-2,1.4223512E-2,3.180514E-2,-2.562116E-2,1.51700545E-2],"categories":[],"categories_nodes":[],"categories_segments":[],"categories_sizes":[],"default_left":[0,0,0,0,0,0,0,0,0,0,0],"id":36,"left_children":[1,3,5,7,9,-1,-1,-1,-1,-1,-1],"loss_changes":[2.2684727E4,2.0735988E4,1.9707031E0,5.982332E3,4.321258E4,0E0,0E0,0E0,0E0,0E0,0E0],"parents":[2147483647,0,0,1,1,2,2,3,3,4,4],"right_children":[2,4,6,8,10,-1,-1,-1,-1,-1,-1],"split_conditions":[9.2885554E-2,-2.5075614E-1,-1.3812098E-1,-1.3812067E-1,-2.5075316E-1,-2.6207613E-2,-2.5218807E-2,1.4223512E-2,3.180514E-2,-2.562116E-2,1.51700545E-2],"split_indices":[30,18,8,8,18,0,0,0,0,0,0],"split_type":[0,0,0,0,0,0,0,0,0,0,0],"sum_hessian":[6.9208914E4,6.2559492E4,6.6494224E3,2.9498375E4,3.3061117E4,1.7249681E3,4.924454E3,2.1339068E4,8.159308E3,1.3148243E4,1.9912873E4],"tree_param":{"num_deleted":"0","num_feature":"40","num_nodes":"11","size_leaf_vector":"1"}},{"base_weights":[3.4981525E-1,5.373323E-1,-2.6468853E-2,-9.758064E-2,1.779337E0,1.3320029E-2,-2.4506414E-2,3.1554736E-2,-6.9477275E-4],"categories":[],"categories_nodes":[],"categories_segments":[],"categories_sizes":[],"default_left":[0,0,0,0,0,0,0,0,0],"id":37,"left_children":[1,3,-1,5,7,-1,-1,-1,-1],"loss_changes":[1.699657E2,3.472319E2,0E0,3.293064E2,7.553467E0,0E0,0E0,0E0,0E0],"parents":[2147483647,0,0,1,1,3,3,4,4],"right_children":[2,4,-1,6,8,-1,-1,-1,-1],"split_conditions":[-2.4907634E-1,-1.3812038E-1,-2.6468853E-2,-1.3812098E-1,-1.378343E-1,1.3320029E-2,-2.4506414E-2,3.1554736E-2,-6.9477275E-4],"split_indices":[18,8,0,8,8,0,0,0,0],"split_type":[0,0,0,0,0,0,0,0,0],"sum_hessian":[4.8254004E2,4.391137E2,4.342635E1,2.911826E2,1.4793112E2,1.7578006E2,1.1540252E2,1.4572563E2,2.2054935E0],"tree_param":{"num_deleted":"0","num_feature":"40","num_nodes":"9","size_leaf_vector":"1"}},{"base_weights":[1.2331041E-2,-4.0165868E-1,2.5760813E-2,-9.1035396E-1,2.423244E-2,-2.0588135E-2,-2.197303E-3],"categories":[],"categories_nodes":[],"categories_segments":[],"categories_sizes":[],"default_left":[0,0,0,0,0,0,0],"id":38,"left_children":[1,3,-1,5,-1,-1,-1],"loss_changes":[4.268546E3,5.001728E3,0E0,9.0139624E2,0E0,0E0,0E0],"parents":[2147483647,0,0,1,1,3,3],"right_children":[2,4,-1,6,-1,-1,-1],"split_conditions":[-1.9355147E-1,-3.6387973E-2,2.5760813E-2,-1.3812035E-1,2.423244E-2,-2.0588135E-2,-2.197303E-3],"split_indices":[19,5,0,8,0,0,0],"split_type":[0,0,0,0,0,0,0],"sum_hessian":[7.046483E3,5.4927383E3,1.5537446E3,4.277225E3,1.215513E3,3.1859265E3,1.0912988E3],"tree_param":{"num_deleted":"0","num_feature":"40","num_nodes":"7","size_leaf_vector":"1"}},{"base_weights":[3.1055692E-1,4.909775E-1,-1.4257501E0,1.0819638E0,-4.006992E-2,-2.5566146E-2,-2.4657585E-2,1.53796645E-2,3.4925923E-2,-2.5234155E-2,1.52905695E-2],"categories":[],"categories_nodes":[],"categories_segments":[],"categories_sizes":[],"default_left":[0,0,0,0,0,0,0,0,0,0,0],"id":39,"left_children":[1,3,5,7,9,-1,-1,-1,-1,-1,-1],"loss_changes":[2.1497154E4,1.9509098E4,1.3369141E0,5.7169062E3,4.212304E4,0E0,0E0,0E0,0E0,0E0,0E0],"parents":[2147483647,0,0,1,1,2,2,3,3,4,4],"right_children":[2,4,6,8,10,-1,-1,-1,-1,-1,-1],"split_conditions":[9.2885554E-2,-2.5075614E-1,-1.3812098E-1,6.829755E-1,-2.5075316E-1,-2.5566146E-2,-2.4657585E-2,1.53796645E-2,3.4925923E-2,-2.5234155E-2,1.52905695E-2],"split_indices":[30,18,8,15,18,0,0,0,0,0,0],"split_type":[0,0,0,0,0,0,0,0,0,0,0],"sum_hessian":[6.8619555E4,6.2161082E4,6.4584736E3,2.9419732E4,3.274135E4,1.6798334E3,4.77864E3,2.4357025E4,5.062707E3,1.2918904E4,1.9822443E4],"tree_param":{"num_deleted":"0","num_feature":"40","num_nodes":"11","size_leaf_vector":"1"}},{"base_weights":[2.3391402E-1,1.5095297E0,-1.0621597E0,5.3692764E-1,3.0198656E-2,-1.3195618E0,6.28034E-2,-1.1470449E-2,2.725426E-2,-2.4234852E-2,1.6631057E-2,3.01709E-2,-2.3571841E-2],"categories":[],"categories_nodes":[],"categories_segments":[],"categories_sizes":[],"default_left":[0,0,0,0,0,0,0,0,0,0,0,0,0],"id":40,"left_children":[1,3,5,7,-1,9,11,-1,-1,-1,-1,-1,-1],"loss_changes":[3.8248264E2,2.3976685E1,3.334227E1,2.9043678E1,0E0,1.5816849E1,5.4877277E1,0E0,0E0,0E0,0E0,0E0,0E0],"parents":[2147483647,0,0,1,1,2,2,3,3,5,5,6,6],"right_children":[2,4,6,8,-1,10,12,-1,-1,-1,-1,-1,-1],"split_conditions":[-1.2603487E0,-1.6965894E-1,3.1373057E0,-1.3812098E-1,3.0198656E-2,-3.6387973E-2,-2.5075614E-1,-1.1470449E-2,2.725426E-2,-2.4234852E-2,1.6631057E-2,3.01709E-2,-2.3571841E-2],"split_indices":[15,2,12,8,0,5,18,0,0,0,0,0,0],"split_type":[0,0,0,0,0,0,0,0,0,0,0,0,0],"sum_hessian":[2.2937628E2,1.1551749E2,1.13858795E2,2.1925844E1,9.3591644E1,9.251704E1,2.134176E1,1.0287897E1,1.1637948E1,9.019763E1,2.3194067E0,9.693747E0,1.1648014E1],"tree_param":{"num_deleted":"0","num_feature":"40","num_nodes":"13","size_leaf_vector":"1"}},{"base_weights":[4.299633E-3,-4.0375403E-1,2.5314512E-2,-8.962113E-1,2.3773402E-2,-2.023938E-2,-2.4046553E-3],"categories":[],"categories_nodes":[],"categories_segments":[],"categories_sizes":[],"default_left":[0,0,0,0,0,0,0],"id":41,"left_children":[1,3,-1,5,-1,-1,-1],"loss_changes":[4.0832634E3,4.6944453E3,0E0,8.413784E2,0E0,0E0,0E0],"parents":[2147483647,0,0,1,1,3,3],"right_children":[2,4,-1,6,-1,-1,-1],"split_conditions":[-1.9355147E-1,-3.6387973E-2,2.5314512E-2,-1.3812035E-1,2.3773402E-2,-2.023938E-2,-2.4046553E-3],"split_indices":[19,5,0,8,0,0,0],"split_type":[0,0,0,0,0,0,0],"sum_hessian":[6.921552E3,5.398203E3,1.5233491E3,4.221047E3,1.1771562E3,3.134579E3,1.0864677E3],"tree_param":{"num_deleted":"0","num_feature":"40","num_nodes":"7","size_leaf_vector":"1"}},{"base_weights":[3.9355543E-1,5.6868024E-2,1.4256814E0,8.300026E-1,-1.3058009E0,2E0,-2.700779E-2,5.0215557E-4,3.244618E-2,-2.4314737E-2,-1.376445E-2,3.4925923E-2,6.5469705E-3],"categories":[],"categories_nodes":[],"categories_segments":[],"categories_sizes":[],"default_left":[0,0,0,0,0,0,0,0,0,0,0,0,0],"id":42,"left_children":[1,3,5,7,9,11,-1,-1,-1,-1,-1,-1,-1],"loss_changes":[1.20053375E5,2.7444322E5,1.768698E5,1.3689714E5,4.223703E3,5.4413125E3,0E0,0E0,0E0,0E0,0E0,0E0,0E0],"parents":[2147483647,0,0,1,1,2,2,3,3,4,4,5,5],"right_children":[2,4,6,8,10,12,-1,-1,-1,-1,-1,-1,-1],"split_conditions":[3.518138E-2,-2.5075614E-1,-1.2398861E-1,-1.3812067E-1,-2.3465933E-1,-1.3812098E-1,-2.700779E-2,5.0215557E-4,3.244618E-2,-2.4314737E-2,-1.376445E-2,3.4925923E-2,6.5469705E-3],"split_indices":[17,18,18,8,17,8,0,0,0,0,0,0,0],"split_type":[0,0,0,0,0,0,0,0,0,0,0,0,0],"sum_hessian":[3.454728E5,2.6049756E5,8.497524E4,1.662009E5,9.4296664E4,6.868595E4,1.628929E4,9.3402016E4,7.279888E4,8.0784914E4,1.3511746E4,6.662505E4,2.0609082E3],"tree_param":{"num_deleted":"0","num_feature":"40","num_nodes":"13","size_leaf_vector":"1"}},{"base_weights":[3.663561E-1,5.354916E-1,-2.3278875E-2,9.2016645E-2,1.6035924E0,1.4900984E-2,-2.0353958E-2,3.0212551E-2,1.6764907E-2],"categories":[],"categories_nodes":[],"categories_segments":[],"categories_sizes":[],"default_left":[0,0,0,0,0,0,0,0,0],"id":43,"left_children":[1,3,-1,5,7,-1,-1,-1,-1],"loss_changes":[3.2651646E1,4.8058956E1,0E0,7.085622E1,7.649231E-1,0E0,0E0,0E0,0E0],"parents":[2147483647,0,0,1,1,3,3,4,4],"right_children":[2,4,-1,6,8,-1,-1,-1,-1],"split_conditions":[-2.493095E-1,-1.3812049E-1,-2.3278875E-2,-1.38121E-1,-2.5052705E-1,1.4900984E-2,-2.0353958E-2,3.0212551E-2,1.6764907E-2],"split_indices":[18,8,0,8,18,0,0,0,0],"split_type":[0,0,0,0,0,0,0,0,0],"sum_hessian":[1.10115616E2,1.00771095E2,9.344518E0,7.197377E1,2.8797327E1,4.5033813E1,2.6939959E1,2.2655762E1,6.1415653E0],"tree_param":{"num_deleted":"0","num_feature":"40","num_nodes":"9","size_leaf_vector":"1"}},{"base_weights":[0E0],"categories":[],"categories_nodes":[],"categories_segments":[],"categories_sizes":[],"default_left":[0],"id":44,"left_children":[-1],"loss_changes":[0E0],"parents":[2147483647],"right_children":[-1],"split_conditions":[0E0],"split_indices":[0],"split_type":[0],"sum_hessian":[8.4797364E-1],"tree_param":{"num_deleted":"0","num_feature":"40","num_nodes":"1","size_leaf_vector":"1"}},{"base_weights":[3.5624668E-1,5.3117037E-1,-1.380879E0,1.0846385E0,2.6750417E-2,-2.4965862E-2,-2.380132E-2,1.552859E-2,3.4925923E-2,-2.428703E-2,1.5866168E-2],"categories":[],"categories_nodes":[],"categories_segments":[],"categories_sizes":[],"default_left":[0,0,0,0,0,0,0,0,0,0,0],"id":45,"left_children":[1,3,5,7,9,-1,-1,-1,-1,-1,-1],"loss_changes":[2.0429219E4,1.7052088E4,3.4267578E0,5.308711E3,3.9946613E4,0E0,0E0,0E0,0E0,0E0,0E0],"parents":[2147483647,0,0,1,1,2,2,3,3,4,4],"right_children":[2,4,6,8,10,-1,-1,-1,-1,-1,-1],"split_conditions":[9.2885554E-2,-2.5075614E-1,-1.3812098E-1,6.829755E-1,-2.5075316E-1,-2.4965862E-2,-2.380132E-2,1.552859E-2,3.4925923E-2,-2.428703E-2,1.5866168E-2],"split_indices":[30,18,8,15,18,0,0,0,0,0,0],"split_type":[0,0,0,0,0,0,0,0,0,0,0],"sum_hessian":[6.722793E4,6.107822E4,6.1497114E3,2.912264E4,3.195558E4,1.6312921E3,4.5184194E3,2.4082953E4,5.0396865E3,1.2254963E4,1.9700617E4],"tree_param":{"num_deleted":"0","num_feature":"40","num_nodes":"11","size_leaf_vector":"1"}},{"base_weights":[3.9463484E-1,5.839086E-1,-2.5801755E-2,-2.456126E-2,1.7568029E0,1.3688496E-2,-2.3316983E-2,3.116951E-2,-1.269658E-3],"categories":[],"categories_nodes":[],"categories_segments":[],"categories_sizes":[],"default_left":[0,0,0,0,0,0,0,0,0],"id":46,"left_children":[1,3,-1,5,7,-1,-1,-1,-1],"loss_changes":[1.6763332E2,3.05597E2,0E0,3.0078406E2,7.645935E0,0E0,0E0,0E0,0E0],"parents":[2147483647,0,0,1,1,3,3,4,4],"right_children":[2,4,-1,6,8,-1,-1,-1,-1],"split_conditions":[-2.4907634E-1,-1.3812038E-1,-2.5801755E-2,-1.3812098E-1,-1.378343E-1,1.3688496E-2,-2.3316983E-2,3.116951E-2,-1.269658E-3],"split_indices":[18,8,0,8,8,0,0,0,0],"split_type":[0,0,0,0,0,0,0,0,0],"sum_hessian":[4.696399E2,4.2714386E2,4.249605E1,2.8188672E2,1.4525713E2,1.7459692E2,1.072898E2,1.4308464E2,2.1724858E0],"tree_param":{"num_deleted":"0","num_feature":"40","num_nodes":"9","size_leaf_vector":"1"}},{"base_weights":[1.637326E-2,-3.8700244E-1,2.4965154E-2,-8.592633E-1,2.3268726E-2,-1.9619813E-2,-1.9379556E-3],"categories":[],"categories_nodes":[],"categories_segments":[],"categories_sizes":[],"default_left":[0,0,0,0,0,0,0],"id":47,"left_children":[1,3,-1,5,-1,-1,-1],"loss_changes":[3.846765E3,4.2640176E3,0E0,8.143484E2,0E0,0E0,0E0],"parents":[2147483647,0,0,1,1,3,3],"right_children":[2,4,-1,6,-1,-1,-1],"split_conditions":[-1.9355147E-1,-3.6387973E-2,2.4965154E-2,-1.3812035E-1,2.3268726E-2,-1.9619813E-2,-1.9379556E-3],"split_indices":[19,5,0,8,0,0,0],"split_type":[0,0,0,0,0,0,0],"sum_hessian":[6.745986E3,5.248613E3,1.497373E3,4.118063E3,1.1305497E3,3.0429788E3,1.0750841E3],"tree_param":{"num_deleted":"0","num_feature":"40","num_nodes":"7","size_leaf_vector":"1"}},{"base_weights":[3.5722482E-1,5.2583635E-1,-2.3210626E-2,9.08342E-2,1.5760146E0,1.4441291E-2,-2.0051206E-2,2.8638195E-2,1.1176452E-2],"categories":[],"categories_nodes":[],"categories_segments":[],"categories_sizes":[],"default_left":[0,0,0,0,0,0,0,0,0],"id":48,"left_children":[1,3,-1,5,7,-1,-1,-1,-1],"loss_changes":[3.2103657E1,4.605381E1,0E0,6.713834E1,7.1899414E-1,0E0,0E0,0E0,0E0],"parents":[2147483647,0,0,1,1,3,3,4,4],"right_children":[2,4,-1,6,8,-1,-1,-1,-1],"split_conditions":[-2.493095E-1,-1.3812049E-1,-2.3210626E-2,-1.38121E-1,-1.3781458E-1,1.4441291E-2,-2.0051206E-2,2.8638195E-2,1.1176452E-2],"split_indices":[18,8,0,8,8,0,0,0,0],"split_type":[0,0,0,0,0,0,0,0,0],"sum_hessian":[1.0944799E2,1.00125114E2,9.32288E0,7.1567215E1,2.8557896E1,4.510336E1,2.6463858E1,2.6028234E1,2.5296624E0],"tree_param":{"num_deleted":"0","num_feature":"40","num_nodes":"9","size_leaf_vector":"1"}},{"base_weights":[3.6311886E-1,5.2899545E-1,-2.2760117E-2,1.08462654E-1,1.5487281E0,1.427577E-2,-1.9565579E-2,2.9175606E-2,1.5865237E-2],"categories":[],"categories_nodes":[],"categories_segments":[],"categories_sizes":[],"default_left":[0,0,0,0,0,0,0,0,0],"id":49,"left_children":[1,3,-1,5,7,-1,-1,-1,-1],"loss_changes":[3.0856644E1,4.2699978E1,0E0,6.3520504E1,7.557831E-1,0E0,0E0,0E0,0E0],"parents":[2147483647,0,0,1,1,3,3,4,4],"right_children":[2,4,-1,6,8,-1,-1,-1,-1],"split_conditions":[-2.493095E-1,-1.3812049E-1,-2.2760117E-2,-1.38121E-1,-2.5052705E-1,1.427577E-2,-1.9565579E-2,2.9175606E-2,1.5865237E-2],"split_indices":[18,8,0,8,18,0,0,0,0],"split_type":[0,0,0,0,0,0,0,0,0],"sum_hessian":[1.0813297E2,9.896473E1,9.168243E0,7.085205E1,2.8112677E1,4.5141365E1,2.571069E1,2.226146E1,5.851217E0],"tree_param":{"num_deleted":"0","num_feature":"40","num_nodes":"9","size_leaf_vector":"1"}},{"base_weights":[2.5643206E-1,1.470223E0,-1.0247715E0,4.7692692E-1,2.9567897E-2,-1.2758169E0,4.489149E-2,-1.1992718E-2,2.6032694E-2,-2.3391003E-2,1.5555898E-2,2.8854853E-2,-2.300653E-2],"categories":[],"categories_nodes":[],"categories_segments":[],"categories_sizes":[],"default_left":[0,0,0,0,0,0,0,0,0,0,0,0,0],"id":50,"left_children":[1,3,5,7,-1,9,11,-1,-1,-1,-1,-1,-1],"loss_changes":[3.5002805E2,2.477002E1,2.9493484E1,2.7643505E1,0E0,1.3440659E1,4.9922504E1,0E0,0E0,0E0,0E0,0E0,0E0],"parents":[2147483647,0,0,1,1,2,2,3,3,5,5,6,6],"right_children":[2,4,6,8,-1,10,12,-1,-1,-1,-1,-1,-1],"split_conditions":[-1.2603487E0,-1.8450342E-1,3.1373057E0,-1.3812098E-1,2.9567897E-2,-3.6387973E-2,-2.5075614E-1,-1.1992718E-2,2.6032694E-2,-2.3391003E-2,1.5555898E-2,2.8854853E-2,-2.300653E-2],"split_indices":[15,3,12,8,0,5,18,0,0,0,0,0,0],"split_type":[0,0,0,0,0,0,0,0,0,0,0,0,0],"sum_hessian":[2.2311322E2,1.1449502E2,1.0861821E2,2.1563887E1,9.293113E1,8.781554E1,2.0802673E1,1.0190065E1,1.1373821E1,8.568034E1,2.1351936E0,9.445197E0,1.1357477E1],"tree_param":{"num_deleted":"0","num_feature":"40","num_nodes":"13","size_leaf_vector":"1"}},{"base_weights":[1.4741896E-1,1.2599976E0,-5.9648496E-1,1.3925017E0,5.914179E-1,-8.2218206E-1,1.6825797E-2,2.4487471E-2,-2.7780415E-2,9.505893E-3,2.5712328E-2,-1.7107485E-2,3.4925923E-2,2.7409673E-2,-2.5891138E-2],"categories":[],"categories_nodes":[],"categories_segments":[],"categories_sizes":[],"default_left":[0,0,0,0,0,0,0,0,0,0,0,0,0,0,0],"id":51,"left_children":[1,3,5,7,9,11,13,-1,-1,-1,-1,-1,-1,-1,-1],"loss_changes":[2.7884531E3,1.18770996E2,2.7952008E2,3.498242E1,8.530441E0,6.912356E2,1.2692981E3,0E0,0E0,0E0,0E0,0E0,0E0,0E0,0E0],"parents":[2147483647,0,0,1,1,2,2,3,3,4,4,5,5,6,6],"right_children":[2,4,6,8,10,12,14,-1,-1,-1,-1,-1,-1,-1,-1],"split_conditions":[-1.2603487E0,-1.5032642E0,-1.3812037E-1,1.6231103E0,-1.3812098E-1,-2.5075316E-1,-2.4809998E-1,2.4487471E-2,-2.7780415E-2,9.505893E-3,2.5712328E-2,-1.7107485E-2,3.4925923E-2,2.7409673E-2,-2.5891138E-2],"split_indices":[15,15,8,20,8,18,18,0,0,0,0,0,0,0,0],"split_type":[0,0,0,0,0,0,0,0,0,0,0,0,0,0,0],"sum_hessian":[3.3672065E3,1.3489823E3,2.0182242E3,1.1249489E3,2.2403342E2,1.4750634E3,5.431609E2,1.1218124E3,3.1363978E0,2.1420592E2,9.8275E0,1.4014854E3,7.3578E1,2.6681442E2,2.7634647E2],"tree_param":{"num_deleted":"0","num_feature":"40","num_nodes":"15","size_leaf_vector":"1"}},{"base_weights":[0E0],"categories":[],"categories_nodes":[],"categories_segments":[],"categories_sizes":[],"default_left":[0],"id":52,"left_children":[-1],"loss_changes":[0E0],"parents":[2147483647],"right_children":[-1],"split_conditions":[0E0],"split_indices":[0],"split_type":[0],"sum_hessian":[8.168427E-1],"tree_param":{"num_deleted":"0","num_feature":"40","num_nodes":"1","size_leaf_vector":"1"}},{"base_weights":[4.1342205E-1,5.949218E-1,-2.4757063E-2,2.0659529E-2,1.697048E0,1.3703883E-2,-2.2543106E-2,3.0127827E-2,-1.9751303E-3],"categories":[],"categories_nodes":[],"categories_segments":[],"categories_sizes":[],"default_left":[0,0,0,0,0,0,0,0,0],"id":53,"left_children":[1,3,-1,5,7,-1,-1,-1,-1],"loss_changes":[1.5354755E2,2.649903E2,0E0,2.779155E2,7.515106E0,0E0,0E0,0E0,0E0],"parents":[2147483647,0,0,1,1,3,3,4,4],"right_children":[2,4,-1,6,8,-1,-1,-1,-1],"split_conditions":[-2.4907634E-1,-1.3812038E-1,-2.4757063E-2,-1.3812098E-1,-1.378343E-1,1.3703883E-2,-2.2543106E-2,3.0127827E-2,-1.9751303E-3],"split_indices":[18,8,0,8,8,0,0,0,0],"split_type":[0,0,0,0,0,0,0,0,0],"sum_hessian":[4.5847275E2,4.1774133E2,4.073142E1,2.7530997E2,1.4243138E2,1.742177E2,1.0109226E2,1.4029318E2,2.1381934E0],"tree_param":{"num_deleted":"0","num_feature":"40","num_nodes":"9","size_leaf_vector":"1"}},{"base_weights":[4.689124E-1,1.0622519E-1,1.5605457E0,8.0878484E-1,-1.2243159E0,2E0,-1.3277131E0,8.528856E-4,3.1048669E-2,-2.2993043E-2,-1.1866721E-2,3.4925923E-2,7.659479E-3,2.2969192E-2,-2.5433712E-2],"categories":[],"categories_nodes":[],"categories_segments":[],"categories_sizes":[],"default_left":[0,0,0,0,0,0,0,0,0,0,0,0,0,0,0],"id":54,"left_children":[1,3,5,7,9,11,13,-1,-1,-1,-1,-1,-1,-1,-1],"loss_changes":[1.3203806E5,2.3400364E5,1.6718061E5,1.20661945E5,4.351586E3,1.6270312E3,5.631867E3,0E0,0E0,0E0,0E0,0E0,0E0,0E0,0E0],"parents":[2147483647,0,0,1,1,2,2,3,3,4,4,5,5,6,6],"right_children":[2,4,6,8,10,12,14,-1,-1,-1,-1,-1,-1,-1,-1],"split_conditions":[3.518138E-2,-2.5075614E-1,-1.3807876E-1,-1.3812067E-1,-2.3465933E-1,-1.3812098E-1,-2.4928547E-1,8.528856E-4,3.1048669E-2,-2.2993043E-2,-1.1866721E-2,3.4925923E-2,7.659479E-3,2.2969192E-2,-2.5433712E-2],"split_indices":[17,18,8,8,17,8,18,0,0,0,0,0,0,0,0],"split_type":[0,0,0,0,0,0,0,0,0,0,0,0,0,0,0],"sum_hessian":[3.3349512E5,2.5032692E5,8.3168195E4,1.6382405E5,8.650288E4,6.662128E4,1.654692E4,9.1824805E4,7.199924E4,7.396229E4,1.2540596E4,6.5953266E4,6.680095E2,7.680372E2,1.5778882E4],"tree_param":{"num_deleted":"0","num_feature":"40","num_nodes":"15","size_leaf_vector":"1"}},{"base_weights":[2.4874371E-1,1.4122558E0,-1.0029409E0,4.1618463E-1,2.8592953E-2,-1.2481123E0,2.3664102E-2,-1.23051945E-2,2.4934985E-2,-2.2857117E-2,1.4887434E-2,2.8070051E-2,-2.273223E-2],"categories":[],"categories_nodes":[],"categories_segments":[],"categories_sizes":[],"default_left":[0,0,0,0,0,0,0,0,0,0,0,0,0],"id":55,"left_children":[1,3,5,7,-1,9,11,-1,-1,-1,-1,-1,-1],"loss_changes":[3.1987393E2,2.4820267E1,2.6690819E1,2.6300043E1,0E0,1.2035202E1,4.7017124E1,0E0,0E0,0E0,0E0,0E0,0E0],"parents":[2147483647,0,0,1,1,2,2,3,3,5,5,6,6],"right_children":[2,4,6,8,-1,10,12,-1,-1,-1,-1,-1,-1],"split_conditions":[-1.2603487E0,-1.6965894E-1,3.1373057E0,-1.3812098E-1,2.8592953E-2,-3.6387973E-2,-2.5075614E-1,-1.23051945E-2,2.4934985E-2,-2.2857117E-2,1.4887434E-2,2.8070051E-2,-2.273223E-2],"split_indices":[15,2,12,8,0,5,18,0,0,0,0,0,0],"split_type":[0,0,0,0,0,0,0,0,0,0,0,0,0],"sum_hessian":[2.1766824E2,1.1274089E2,1.04927345E2,2.1306269E1,9.143462E1,8.452542E1,2.0401926E1,1.0251923E1,1.1054346E1,8.251487E1,2.010556E0,9.198164E0,1.1203761E1],"tree_param":{"num_deleted":"0","num_feature":"40","num_nodes":"13","size_leaf_vector":"1"}},{"base_weights":[0E0],"categories":[],"categories_nodes":[],"categories_segments":[],"categories_sizes":[],"default_left":[0],"id":56,"left_children":[-1],"loss_changes":[0E0],"parents":[2147483647],"right_children":[-1],"split_conditions":[0E0],"split_indices":[0],"split_type":[0],"sum_hessian":[8.0861425E-1],"tree_param":{"num_deleted":"0","num_feature":"40","num_nodes":"1","size_leaf_vector":"1"}},{"base_weights":[4.1747555E-1,5.952024E-1,-2.4385486E-2,2.817404E-2,1.6836435E0,1.3491354E-2,-2.2318548E-2,2.9891776E-2,-1.963106E-3],"categories":[],"categories_nodes":[],"categories_segments":[],"categories_sizes":[],"default_left":[0,0,0,0,0,0,0,0,0],"id":57,"left_children":[1,3,-1,5,7,-1,-1,-1,-1],"loss_changes":[1.4786612E2,2.5675818E2,0E0,2.6798767E2,7.3795776E0,0E0,0E0,0E0,0E0],"parents":[2147483647,0,0,1,1,3,3,4,4],"right_children":[2,4,-1,6,8,-1,-1,-1,-1],"split_conditions":[-2.4907634E-1,-1.3812038E-1,-2.4385486E-2,-1.3812098E-1,-1.378343E-1,1.3491354E-2,-2.2318548E-2,2.9891776E-2,-1.963106E-3],"split_indices":[18,8,0,8,8,0,0,0,0],"split_type":[0,0,0,0,0,0,0,0,0],"sum_hessian":[4.5509702E2,4.1509714E2,3.999985E1,2.7359332E2,1.4150381E2,1.7453645E2,9.905687E1,1.3937173E2,2.1320841E0],"tree_param":{"num_deleted":"0","num_feature":"40","num_nodes":"9","size_leaf_vector":"1"}},{"base_weights":[4.3325895E-1,6.08633E-1,-2.4029756E-2,8.779979E-2,1.7700585E0,1.37523385E-2,-2.248995E-2,3.1498086E-2,-1.1313675E-3],"categories":[],"categories_nodes":[],"categories_segments":[],"categories_sizes":[],"default_left":[0,0,0,0,0,0,0,0,0],"id":58,"left_children":[1,3,-1,5,7,-1,-1,-1,-1],"loss_changes":[1.4425755E2,2.4951991E2,0E0,2.7632224E2,8.0035095E0,0E0,0E0,0E0,0E0],"parents":[2147483647,0,0,1,1,3,3,4,4],"right_children":[2,4,-1,6,8,-1,-1,-1,-1],"split_conditions":[-2.4907634E-1,-2.5075397E-1,-2.4029756E-2,-2.5075614E-1,-1.3784994E-1,1.37523385E-2,-2.248995E-2,3.1498086E-2,-1.1313675E-3],"split_indices":[18,18,0,18,8,0,0,0,0],"split_type":[0,0,0,0,0,0,0,0,0],"sum_hessian":[4.5099545E2,4.117486E2,3.924685E1,2.850124E2,1.2673621E2,1.892038E2,9.5808586E1,1.244705E2,2.2657192E0],"tree_param":{"num_deleted":"0","num_feature":"40","num_nodes":"9","size_leaf_vector":"1"}},{"base_weights":[1.7812942E-1,1.2339901E0,-5.4563063E-1,1.3709861E0,5.5806196E-1,-7.7447015E-1,7.4304745E-2,2.4113584E-2,-2.7649565E-2,8.988865E-3,2.4404071E-2,-1.6350131E-2,3.4925923E-2,2.679286E-2,-2.456767E-2],"categories":[],"categories_nodes":[],"categories_segments":[],"categories_sizes":[],"default_left":[0,0,0,0,0,0,0,0,0,0,0,0,0,0,0],"id":59,"left_children":[1,3,5,7,9,11,13,-1,-1,-1,-1,-1,-1,-1,-1],"loss_changes":[2.4966416E3,1.2226599E2,2.7506854E2,3.4331543E1,7.4845123E0,6.711432E2,1.1343223E3,0E0,0E0,0E0,0E0,0E0,0E0,0E0,0E0],"parents":[2147483647,0,0,1,1,2,2,3,3,4,4,5,5,6,6],"right_children":[2,4,6,8,10,12,14,-1,-1,-1,-1,-1,-1,-1,-1],"split_conditions":[-1.2603487E0,-1.5032642E0,-1.3812037E-1,1.6231103E0,-1.3812098E-1,-2.5075316E-1,-2.4809998E-1,2.4113584E-2,-2.7649565E-2,8.988865E-3,2.4404071E-2,-1.6350131E-2,3.4925923E-2,2.679286E-2,-2.456767E-2],"split_indices":[15,15,8,20,8,18,18,0,0,0,0,0,0,0,0],"split_type":[0,0,0,0,0,0,0,0,0,0,0,0,0,0,0],"sum_hessian":[3.2651636E3,1.3276339E3,1.9375298E3,1.1030427E3,2.245912E2,1.4149672E3,5.2256256E2,1.099906E3,3.1366498E0,2.1510272E2,9.488476E0,1.3415193E3,7.344786E1,2.6314532E2,2.594172E2],"tree_param":{"num_deleted":"0","num_feature":"40","num_nodes":"15","size_leaf_vector":"1"}},{"base_weights":[3.8715342E-1,5.503681E-1,-1.3233461E0,6.74503E-1,-2.4676774E-2,-2.4797918E-2,-2.241807E-2,4.5240317E-3,2.437264E-2],"categories":[],"categories_nodes":[],"categories_segments":[],"categories_sizes":[],"default_left":[0,0,0,0,0,0,0,0,0],"id":60,"left_children":[1,3,5,7,-1,-1,-1,-1,-1],"loss_changes":[1.7945977E4,1.430334E4,1.9613281E1,1.6535225E4,0E0,0E0,0E0,0E0,0E0],"parents":[2147483647,0,0,1,1,2,2,3,3],"right_children":[2,4,6,8,-1,-1,-1,-1,-1],"split_conditions":[9.2885554E-2,-1.4700677E-1,-1.3812098E-1,-1.3812035E-1,-2.4676774E-2,-2.4797918E-2,-2.241807E-2,4.5240317E-3,2.437264E-2],"split_indices":[30,18,8,8,0,0,0,0,0],"split_type":[0,0,0,0,0,0,0,0,0],"sum_hessian":[6.427774E4,5.867928E4,5.5984565E3,5.5190645E4,3.4886375E3,1.6165171E3,3.9819397E3,3.5018984E4,2.017166E4],"tree_param":{"num_deleted":"0","num_feature":"40","num_nodes":"9","size_leaf_vector":"1"}},{"base_weights":[0E0],"categories":[],"categories_nodes":[],"categories_segments":[],"categories_sizes":[],"default_left":[0],"id":61,"left_children":[-1],"loss_changes":[0E0],"parents":[2147483647],"right_children":[-1],"split_conditions":[0E0],"split_indices":[0],"split_type":[0],"sum_hessian":[7.884419E-1],"tree_param":{"num_deleted":"0","num_feature":"40","num_nodes":"1","size_leaf_vector":"1"}},{"base_weights":[3.790373E-1,5.362107E-1,-2.0567955E-2,7.180099E-1,-2.0982817E-2,6.236662E-3,2.582003E-2],"categories":[],"categories_nodes":[],"categories_segments":[],"categories_sizes":[],"default_left":[0,0,0,0,0,0,0],"id":62,"left_children":[1,3,-1,5,-1,-1,-1],"loss_changes":[2.6113752E1,3.0963078E1,0E0,2.3316998E1,0E0,0E0,0E0],"parents":[2147483647,0,0,1,1,3,3],"right_children":[2,4,-1,6,-1,-1,-1],"split_conditions":[9.2885554E-2,-2.493095E-1,-2.0567955E-2,-1.3812049E-1,-2.0982817E-2,6.236662E-3,2.582003E-2],"split_indices":[30,18,0,8,0,0,0],"split_type":[0,0,0,0,0,0,0],"sum_hessian":[1.0313899E2,9.427672E1,8.862275E0,8.587918E1,8.397537E0,5.923998E1,2.6639204E1],"tree_param":{"num_deleted":"0","num_feature":"40","num_nodes":"7","size_leaf_vector":"1"}},{"base_weights":[2.3620701E-1,1.3582027E0,-9.8750687E-1,3.627264E-1,2.7665779E-2,-1.2292314E0,1.1684913E-2,-1.295719E-2,2.4151303E-2,-2.2490405E-2,-1.3104063E-2,2.740913E-2,-2.2404918E-2],"categories":[],"categories_nodes":[],"categories_segments":[],"categories_sizes":[],"default_left":[0,0,0,0,0,0,0,0,0,0,0,0,0],"id":63,"left_children":[1,3,5,7,-1,9,11,-1,-1,-1,-1,-1,-1],"loss_changes":[2.942472E2,2.456398E1,2.4800064E1,2.5788816E1,0E0,1.3548203E0,4.433021E1,0E0,0E0,0E0,0E0,0E0,0E0],"parents":[2147483647,0,0,1,1,2,2,3,3,5,5,6,6],"right_children":[2,4,6,8,-1,10,12,-1,-1,-1,-1,-1,-1],"split_conditions":[-1.2603487E0,-1.8450342E-1,3.1373057E0,-1.3812098E-1,2.7665779E-2,-2.8780863E-2,-2.5075614E-1,-1.295719E-2,2.4151303E-2,-2.2490405E-2,-1.3104063E-2,2.740913E-2,-2.2404918E-2],"split_indices":[15,3,12,8,0,17,18,0,0,0,0,0,0],"split_type":[0,0,0,0,0,0,0,0,0,0,0,0,0],"sum_hessian":[2.1233255E2,1.1071268E2,1.01619865E2,2.0970125E1,8.974255E1,8.163943E1,1.9980434E1,1.019942E1,1.0770705E1,7.122444E1,1.041499E1,8.972106E0,1.1008329E1],"tree_param":{"num_deleted":"0","num_feature":"40","num_nodes":"13","size_leaf_vector":"1"}},{"base_weights":[0E0],"categories":[],"categories_nodes":[],"categories_segments":[],"categories_sizes":[],"default_left":[0],"id":64,"left_children":[-1],"loss_changes":[0E0],"parents":[2147483647],"right_children":[-1],"split_conditions":[0E0],"split_indices":[0],"split_type":[0],"sum_hessian":[7.7960575E-1],"tree_param":{"num_deleted":"0","num_feature":"40","num_nodes":"1","size_leaf_vector":"1"}},{"base_weights":[4.3915725E-1,6.0711414E-1,-2.3363717E-2,1.0857181E-1,1.71561E0,1.3818532E-2,-2.2156077E-2,3.0547883E-2,-1.8409113E-3],"categories":[],"categories_nodes":[],"categories_segments":[],"categories_sizes":[],"default_left":[0,0,0,0,0,0,0,0,0],"id":65,"left_children":[1,3,-1,5,7,-1,-1,-1,-1],"loss_changes":[1.333584E2,2.2441798E2,0E0,2.6562595E2,7.914551E0,0E0,0E0,0E0,0E0],"parents":[2147483647,0,0,1,1,3,3,4,4],"right_children":[2,4,-1,6,8,-1,-1,-1,-1],"split_conditions":[-2.4907634E-1,-2.5075397E-1,-2.3363717E-2,-2.5075614E-1,-1.3784994E-1,1.3818532E-2,-2.2156077E-2,3.0547883E-2,-1.8409113E-3],"split_indices":[18,18,0,18,8,0,0,0,0],"split_type":[0,0,0,0,0,0,0,0,0],"sum_hessian":[4.4308646E2,4.0542633E2,3.76601E1,2.8041058E2,1.2501577E2,1.877626E2,9.2647964E1,1.2278389E2,2.2318864E0],"tree_param":{"num_deleted":"0","num_feature":"40","num_nodes":"9","size_leaf_vector":"1"}},{"base_weights":[3.8838282E-1,5.4255843E-1,-2.0317072E-2,7.213748E-1,-2.0701624E-2,6.3472306E-3,2.5741875E-2],"categories":[],"categories_nodes":[],"categories_segments":[],"categories_sizes":[],"default_left":[0,0,0,0,0,0,0],"id":66,"left_children":[1,3,-1,5,-1,-1,-1],"loss_changes":[2.5362679E1,3.012023E1,0E0,2.2753757E1,0E0,0E0,0E0],"parents":[2147483647,0,0,1,1,3,3],"right_children":[2,4,-1,6,-1,-1,-1],"split_conditions":[9.2885554E-2,-2.493095E-1,-2.0317072E-2,-1.3812049E-1,-2.0701624E-2,6.3472306E-3,2.5741875E-2],"split_indices":[30,18,0,8,0,0,0],"split_type":[0,0,0,0,0,0,0],"sum_hessian":[1.02369446E2,9.370963E1,8.659813E0,8.5449776E1,8.259856E0,5.891777E1,2.6532003E1],"tree_param":{"num_deleted":"0","num_feature":"40","num_nodes":"7","size_leaf_vector":"1"}},{"base_weights":[4.267045E-1,5.895795E-1,-2.307179E-2,1.0199013E-1,1.6803563E0,1.3449443E-2,-2.204798E-2,2.9931108E-2,-2.1374382E-3],"categories":[],"categories_nodes":[],"categories_segments":[],"categories_sizes":[],"default_left":[0,0,0,0,0,0,0,0,0],"id":67,"left_children":[1,3,-1,5,7,-1,-1,-1,-1],"loss_changes":[1.26346085E2,2.1478397E2,0E0,2.5660733E2,7.773285E0,0E0,0E0,0E0,0E0],"parents":[2147483647,0,0,1,1,3,3,4,4],"right_children":[2,4,-1,6,8,-1,-1,-1,-1],"split_conditions":[-2.4907634E-1,-2.5075397E-1,-2.307179E-2,-2.5075614E-1,-1.3784994E-1,1.3449443E-2,-2.204798E-2,2.9931108E-2,-2.1374382E-3],"split_indices":[18,18,0,18,8,0,0,0,0],"split_type":[0,0,0,0,0,0,0,0,0],"sum_hessian":[4.400703E2,4.0316458E2,3.6905735E1,2.7937454E2,1.2379004E2,1.8783347E2,9.1541084E1,1.2157204E2,2.2180018E0],"tree_param":{"num_deleted":"0","num_feature":"40","num_nodes":"9","size_leaf_vector":"1"}},{"base_weights":[1.7953248E-1,1.2019329E0,-5.28202E-1,1.3461536E0,5.112526E-1,-7.515465E-1,8.82431E-2,2.3683455E-2,-2.770408E-2,8.23405E-3,2.3077378E-2,-1.5959814E-2,3.4925923E-2,2.5483057E-2,-2.3611788E-2],"categories":[],"categories_nodes":[],"categories_segments":[],"categories_sizes":[],"default_left":[0,0,0,0,0,0,0,0,0,0,0,0,0,0,0],"id":68,"left_children":[1,3,5,7,9,11,13,-1,-1,-1,-1,-1,-1,-1,-1],"loss_changes":[2.301085E3,1.2888586E2,2.588238E2,3.3871704E1,6.663616E0,6.427283E2,9.907913E2,0E0,0E0,0E0,0E0,0E0,0E0,0E0,0E0],"parents":[2147483647,0,0,1,1,2,2,3,3,4,4,5,5,6,6],"right_children":[2,4,6,8,10,12,14,-1,-1,-1,-1,-1,-1,-1,-1],"split_conditions":[-1.2603487E0,-1.5032642E0,-1.3812037E-1,1.6231103E0,-1.3812098E-1,-2.5075316E-1,-2.4809998E-1,2.3683455E-2,-2.770408E-2,8.23405E-3,2.3077378E-2,-1.5959814E-2,3.4925923E-2,2.5483057E-2,-2.3611788E-2],"split_indices":[15,15,8,20,8,18,18,0,0,0,0,0,0,0,0],"split_type":[0,0,0,0,0,0,0,0,0,0,0,0,0,0,0],"sum_hessian":[3.1782263E3,1.2998097E3,1.8784166E3,1.0744956E3,2.2531409E2,1.3786854E3,4.9973117E2,1.071359E3,3.136561E0,2.162885E2,9.02558E0,1.3053716E3,7.331383E1,2.5602066E2,2.4371051E2],"tree_param":{"num_deleted":"0","num_feature":"40","num_nodes":"15","size_leaf_vector":"1"}},{"base_weights":[3.778378E-1,5.2975565E-1,-2.0211427E-2,7.03189E-1,-2.0389935E-2,6.178302E-3,2.5279932E-2],"categories":[],"categories_nodes":[],"categories_segments":[],"categories_sizes":[],"default_left":[0,0,0,0,0,0,0],"id":69,"left_children":[1,3,-1,5,-1,-1,-1],"loss_changes":[2.4544256E1,2.8508932E1,0E0,2.1846264E1,0E0,0E0,0E0],"parents":[2147483647,0,0,1,1,3,3],"right_children":[2,4,-1,6,-1,-1,-1],"split_conditions":[9.2885554E-2,-2.493095E-1,-2.0211427E-2,-1.3812049E-1,-2.0389935E-2,6.178302E-3,2.5279932E-2],"split_indices":[30,18,0,8,0,0,0],"split_type":[0,0,0,0,0,0,0],"sum_hessian":[1.01608185E2,9.30549E1,8.553287E0,8.495962E1,8.095283E0,5.882576E1,2.613386E1],"tree_param":{"num_deleted":"0","num_feature":"40","num_nodes":"7","size_leaf_vector":"1"}},{"base_weights":[4.163486E-1,5.799758E-1,-2.1737337E-2,7.6926917E-1,-2.2653004E-2,5.6786765E-3,2.8452192E-2],"categories":[],"categories_nodes":[],"categories_segments":[],"categories_sizes":[],"default_left":[0,0,0,0,0,0,0],"id":70,"left_children":[1,3,-1,5,-1,-1,-1],"loss_changes":[1.1905476E2,1.420682E2,0E0,1.3744511E2,0E0,0E0,0E0],"parents":[2147483647,0,0,1,1,3,3],"right_children":[2,4,-1,6,-1,-1,-1],"split_conditions":[9.2885554E-2,-2.4907634E-1,-2.1737337E-2,-2.5075397E-1,-2.2653004E-2,5.6786765E-3,2.8452192E-2],"split_indices":[30,18,0,18,0,0,0],"split_type":[0,0,0,0,0,0,0],"sum_hessian":[4.3436105E2,3.960038E2,3.835724E1,3.6026514E2,3.573868E1,2.3849326E2,1.2177189E2],"tree_param":{"num_deleted":"0","num_feature":"40","num_nodes":"7","size_leaf_vector":"1"}},{"base_weights":[0E0],"categories":[],"categories_nodes":[],"categories_segments":[],"categories_sizes":[],"default_left":[0],"id":71,"left_children":[-1],"loss_changes":[0E0],"parents":[2147483647],"right_children":[-1],"split_conditions":[0E0],"split_indices":[0],"split_type":[0],"sum_hessian":[7.62936E-1],"tree_param":{"num_deleted":"0","num_feature":"40","num_nodes":"1","size_leaf_vector":"1"}},{"base_weights":[5.193282E-1,1.03962764E-1,1.7505105E0,7.230274E-1,-1.1739533E0,2E0,-1.2132891E0,2.122496E-4,2.8809283E-2,-2.1983366E-2,-1.1176567E-2,3.4925923E-2,9.889979E-3,2.1705097E-2,-2.3284052E-2],"categories":[],"categories_nodes":[],"categories_segments":[],"categories_sizes":[],"default_left":[0,0,0,0,0,0,0,0,0,0,0,0,0,0,0],"id":72,"left_children":[1,3,5,7,9,11,13,-1,-1,-1,-1,-1,-1,-1,-1],"loss_changes":[1.629137E5,1.8844989E5,1.4571567E5,1.0571387E5,3.5232734E3,1.5019062E3,4.3059824E3,0E0,0E0,0E0,0E0,0E0,0E0,0E0,0E0],"parents":[2147483647,0,0,1,1,2,2,3,3,4,4,5,5,6,6],"right_children":[2,4,6,8,10,12,14,-1,-1,-1,-1,-1,-1,-1,-1],"split_conditions":[-1.4071478E-1,-2.5075614E-1,-1.3807876E-1,-1.3812067E-1,-2.3465933E-1,-1.3812098E-1,-2.4928547E-1,2.122496E-4,2.8809283E-2,-2.1983366E-2,-1.1176567E-2,3.4925923E-2,9.889979E-3,2.1705097E-2,-2.3284052E-2],"split_indices":[17,18,8,8,17,8,18,0,0,0,0,0,0,0,0],"split_type":[0,0,0,0,0,0,0,0,0,0,0,0,0,0,0],"sum_hessian":[3.1856947E5,2.3820655E5,8.036294E4,1.6047002E5,7.773652E4,6.57665E4,1.4596436E4,9.081069E4,6.9659336E4,6.707011E4,1.0666416E4,6.503482E4,7.3167975E2,6.79737E2,1.3916699E4],"tree_param":{"num_deleted":"0","num_feature":"40","num_nodes":"15","size_leaf_vector":"1"}}]},"name":"gbtree"},"learner_model_param":{"base_score":"5E-1","boost_from_average":"1","num_class":"0","num_feature":"40","num_target":"1"},"objective":{"name":"binary:logistic","reg_loss_param":{"scale_pos_weight":"0.866095245"}}},"version":[2,1,4]}