{"learner":{"attributes":{},"feature_names":[],"feature_types":[],"gradient_booster":{"model":{"gbtree_model_param":{"num_parallel_tree":"1","num_trees":"401"},"iteration_indptr":[0,1,2,3,4,5,6,7,8,9,10,11,12,13,14,15,16,17,18,19,20,21,22,23,24,25,26,27,28,29,30,31,32,33,34,35,36,37,38,39,40,41,42,43,44,45,46,47,48,49,50,51,52,53,54,55,56,57,58,59,60,61,62,63,64,65,66,67,68,69,70,71,72,73,74,75,76,77,78,79,80,81,82,83,84,85,86,87,88,89,90,91,92,93,94,95,96,97,98,99,100,101,102,103,104,105,106,107,108,109,110,111,112,113,114,115,116,117,118,119,120,121,122,123,124,125,126,127,128,129,130,131,132,133,134,135,136,137,138,139,140,141,142,143,144,145,146,147,148,149,150,151,152,153,154,155,156,157,158,159,160,161,162,163,164,165,166,167,168,169,170,171,172,173,174,175,176,177,178,179,180,181,182,183,184,185,186,187,188,189,190,191,192,193,194,195,196,197,198,199,200,201,202,203,204,205,206,207,208,209,210,211,212,213,214,215,216,217,218,219,220,221,222,223,224,225,226,227,228,229,230,231,232,233,234,235,236,237,238,239,240,241,242,243,244,245,246,247,248,249,250,251,252,253,254,255,256,257,258,259,260,261,262,263,264,265,266,267,268,269,270,271,272,273,274,275,276,277,278,279,280,281,282,283,284,285,286,287,288,289,290,291,292,293,294,295,296,297,298,299,300,301,302,303,304,305,306,307,308,309,310,311,312,313,314,315,316,317,318,319,320,321,322,323,324,325,326,327,328,329,330,331,332,333,334,335,336,337,338,339,340,341,342,343,344,345,346,347,348,349,350,351,352,353,354,355,356,357,358,359,360,361,362,363,364,365,366,367,368,369,370,371,372,373,374,375,376,377,378,379,380,381,382,383,384,385,386,387,388,389,390,391,392,393,394,395,396,397,398,399,400,401],"tree_info":[0,0,0,0,0,0,0,0,0,0,0,0,0,0,0,0,0,0,0,0,0,0,0,0,0,0,0,0,0,0,0,0,0,0,0,0,0,0,0,0,0,0,0,0,0,0,0,0,0,0,0,0,0,0,0,0,0,0,0,0,0,0,0,0,0,0,0,0,0,0,0,0,0,0,0,0,0,0,0,0,0,0,0,0,0,0,0,0,0,0,0,0,0,0,0,0,0,0,0,0,0,0,0,0,0,0,0,0,0,0,0,0,0,0,0,0,0,0,0,0,0,0,0,0,0,0,0,0,0,0,0,0,0,0,0,0,0,0,0,0,0,0,0,0,0,0,0,0,0,0,0,0,0,0,0,0,0,0,0,0,0,0,0,0,0,0,0,0,0,0,0,0,0,0,0,0,0,0,0,0,0,0,0,0,0,0,0,0,0,0,0,0,0,0,0,0,0,0,0,0,0,0,0,0,0,0,0,0,0,0,0,0,0,0,0,0,0,0,0,0,0,0,0,0,0,0,0,0,0,0,0,0,0,0,0,0,0,0,0,0,0,0,0,0,0,0,0,0,0,0,0,0,0,0,0,0,0,0,0,0,0,0,0,0,0,0,0,0,0,0,0,0,0,0,0,0,0,0,0,0,0,0,0,0,0,0,0,0,0,0,0,0,0,0,0,0,0,0,0,0,0,0,0,0,0,0,0,0,0,0,0,0,0,0,0,0,0,0,0,0,0,0,0,0,0,0,0,0,0,0,0,0,0,0,0,0,0,0,0,0,0,0,0,0,0,0,0,0,0,0,0,0,0,0,0,0,0,0,0,0,0,0,0,0,0,0,0,0,0,0,0,0,0,0,0,0,0,0,0,0,0,0,0,0,0,0,0,0,0,0,0,0,0,0,0,0,0,0,0,0,0],"trees":[{"base_weights":[-1.743383E-2,-1.3942094E0,3.6955097E-1,-1.5250578E0,2.7673487E-2,-3.273447E-1,-5.372912E-2],"categories":[],"categories_nodes":[],"categories_segments":[],"categories_sizes":[],"default_left":[0,0,0,0,0,0,0],"id":0,"left_children":[1,3,-1,5,-1,-1,-1],"loss_changes":[6.931226E1,3.3371658E0,0E0,1.2917442E0,0E0,0E0,0E0],"parents":[2147483647,0,0,1,1,3,3],"right_children":[2,4,-1,6,-1,-1,-1],"split_conditions":[-7.421003E-2,-2.3966576E-1,3.6955097E-1,6.372818E-2,2.7673487E-2,-3.273447E-1,-5.372912E-2],"split_indices":[563,5,0,202,0,0,0],"split_type":[0,0,0,0,0,0,0],"sum_hessian":[2.5270998E1,1.4614829E1,1.0656168E1,1.3467848E1,1.1469817E0,1.2261155E1,1.2066929E0],"tree_param":{"num_deleted":"0","num_feature":"779","num_nodes":"7","size_leaf_vector":"1"}},{"base_weights":[7.076573E-2,-1.0758972E0,3.1366253E-1,-2.6319718E-1,1.8831465E-1],"categories":[],"categories_nodes":[],"categories_segments":[],"categories_sizes":[],"default_left":[0,0,0,0,0],"id":1,"left_children":[1,3,-1,-1,-1],"loss_changes":[4.2281113E1,7.6053753E0,0E0,0E0,0E0],"parents":[2147483647,0,0,1,1],"right_children":[2,4,-1,-1,-1],"split_conditions":[-2.388732E-1,8.1293595E-1,3.1366253E-1,-2.6319718E-1,1.8831465E-1],"split_indices":[5,641,0,0,0],"split_type":[0,0,0,0,0],"sum_hessian":[2.291213E1,1.3068425E1,9.843705E0,1.206025E1,1.0081744E0],"tree_param":{"num_deleted":"0","num_feature":"779","num_nodes":"5","size_leaf_vector":"1"}},{"base_weights":[-7.594475E-2,-1.2821544E0,3.383293E-1,-2.9673222E-1,-2.7855275E-2],"categories":[],"categories_nodes":[],"categories_segments":[],"categories_sizes":[],"default_left":[0,0,0,0,0],"id":2,"left_children":[1,3,-1,-1,-1],"loss_changes":[3.1632195E1,1.6780901E0,0E0,0E0,0E0],"parents":[2147483647,0,0,1,1],"right_children":[2,4,-1,-1,-1],"split_conditions":[-2.4004118E-1,-9.745189E-2,3.383293E-1,-2.9673222E-1,-2.7855275E-2],"split_indices":[5,748,0,0,0],"split_type":[0,0,0,0,0],"sum_hessian":[1.2969543E1,7.83566E0,5.1338835E0,6.4968276E0,1.3388325E0],"tree_param":{"num_deleted":"0","num_feature":"779","num_nodes":"5","size_leaf_vector":"1"}},{"base_weights":[0E0],"categories":[],"categories_nodes":[],"categories_segments":[],"categories_sizes":[],"default_left":[0],"id":3,"left_children":[-1],"loss_changes":[0E0],"parents":[2147483647],"right_children":[-1],"split_conditions":[0E0],"split_indices":[0],"split_type":[0],"sum_hessian":[0E0],"tree_param":{"num_deleted":"0","num_feature":"779","num_nodes":"1","size_leaf_vector":"1"}},{"base_weights":[0E0],"categories":[],"categories_nodes":[],"categories_segments":[],"categories_sizes":[],"default_left":[0],"id":4,"left_children":[-1],"loss_changes":[0E0],"parents":[2147483647],"right_children":[-1],"split_conditions":[0E0],"split_indices":[0],"split_type":[0],"sum_hessian":[0E0],"tree_param":{"num_deleted":"0","num_feature":"779","num_nodes":"1","size_leaf_vector":"1"}},{"base_weights":[2.8402216E-3,-1.1692915E0,3.9920548E-1,-1.3490689E0,3.5532877E-1,-1.385939E0,1.3343738E-1,-1.2464731E0,-3.379478E-1,-1.3117855E0,6.321433E-1,-1.3316572E0,2.172416E-2,1.7443638E-1,3.3485885E-3,-1.348825E0,-2.9252402E-2,-1.3593276E0,-9.031812E-2,-2.766675E-1,-9.6918195E-2],"categories":[],"categories_nodes":[],"categories_segments":[],"categories_sizes":[],"default_left":[0,0,0,0,0,0,0,0,0,0,0,0,0,0,0,0,0,0,0,0,0],"id":5,"left_children":[1,3,-1,5,-1,7,-1,9,-1,11,13,15,-1,-1,-1,17,-1,19,-1,-1,-1],"loss_changes":[4.9889426E2,7.360835E1,0E0,1.0404602E1,0E0,2.948059E0,0E0,1.1713852E1,0E0,2.570221E0,5.052842E-1,1.5356445E0,0E0,0E0,0E0,1.8460083E-1,0E0,3.265381E-2,0E0,0E0,0E0],"parents":[2147483647,0,0,1,1,3,3,5,5,7,7,9,9,10,10,11,11,15,15,17,17],"right_children":[2,4,-1,6,-1,8,-1,10,-1,12,14,16,-1,-1,-1,18,-1,20,-1,-1,-1],"split_conditions":[-2.9446146E-1,-2.3718795E-1,3.9920548E-1,8.8230275E-2,3.5532877E-1,-1.351703E-1,1.3343738E-1,4.396916E-1,-3.379478E-1,2.2093706E0,1.4133191E0,3.1304955E0,2.172416E-2,1.7443638E-1,3.3485885E-3,2.0057085E0,-2.9252402E-2,5.764516E-1,-9.031812E-2,-2.766675E-1,-9.6918195E-2],"split_indices":[523,5,0,140,0,0,0,477,0,260,532,626,0,0,0,738,0,697,0,0,0],"split_type":[0,0,0,0,0,0,0,0,0,0,0,0,0,0,0,0,0,0,0,0,0],"sum_hessian":[2.1380505E2,1.3436148E2,7.9443565E1,1.2709531E2,7.2661796E0,1.2510977E2,1.98553E0,8.7711655E1,3.7398117E1,8.50563E1,2.6553538E0,8.394271E1,1.1135885E0,1.6386477E0,1.0167061E0,8.261142E1,1.3312944E0,8.11593E1,1.4521178E0,7.973948E1,1.4198238E0],"tree_param":{"num_deleted":"0","num_feature":"779","num_nodes":"21","size_leaf_vector":"1"}},{"base_weights":[6.666361E-2,-2.9750392E-1,3.5436097E-1],"categories":[],"categories_nodes":[],"categories_segments":[],"categories_sizes":[],"default_left":[0,0,0],"id":6,"left_children":[1,-1,-1],"loss_changes":[4.419055E1,0E0,0E0],"parents":[2147483647,0,0],"right_children":[2,-1,-1],"split_conditions":[-2.3853114E-1,-2.9750392E-1,3.5436097E-1],"split_indices":[5,0,0],"split_type":[0,0,0],"sum_hessian":[1.5034457E1,7.928695E0,7.105762E0],"tree_param":{"num_deleted":"0","num_feature":"779","num_nodes":"3","size_leaf_vector":"1"}},{"base_weights":[0E0],"categories":[],"categories_nodes":[],"categories_segments":[],"categories_sizes":[],"default_left":[0],"id":7,"left_children":[-1],"loss_changes":[0E0],"parents":[2147483647],"right_children":[-1],"split_conditions":[0E0],"split_indices":[0],"split_type":[0],"sum_hessian":[0E0],"tree_param":{"num_deleted":"0","num_feature":"779","num_nodes":"1","size_leaf_vector":"1"}},{"base_weights":[0E0],"categories":[],"categories_nodes":[],"categories_segments":[],"categories_sizes":[],"default_left":[0],"id":8,"left_children":[-1],"loss_changes":[0E0],"parents":[2147483647],"right_children":[-1],"split_conditions":[0E0],"split_indices":[0],"split_type":[0],"sum_hessian":[9.372898E-1],"tree_param":{"num_deleted":"0","num_feature":"779","num_nodes":"1","size_leaf_vector":"1"}},{"base_weights":[0E0],"categories":[],"categories_nodes":[],"categories_segments":[],"categories_sizes":[],"default_left":[0],"id":9,"left_children":[-1],"loss_changes":[0E0],"parents":[2147483647],"right_children":[-1],"split_conditions":[0E0],"split_indices":[0],"split_type":[0],"sum_hessian":[0E0],"tree_param":{"num_deleted":"0","num_feature":"779","num_nodes":"1","size_leaf_vector":"1"}},{"base_weights":[0E0],"categories":[],"categories_nodes":[],"categories_segments":[],"categories_sizes":[],"default_left":[0],"id":10,"left_children":[-1],"loss_changes":[0E0],"parents":[2147483647],"right_children":[-1],"split_conditions":[0E0],"split_indices":[0],"split_type":[0],"sum_hessian":[0E0],"tree_param":{"num_deleted":"0","num_feature":"779","num_nodes":"1","size_leaf_vector":"1"}},{"base_weights":[-4.9344464E-3,-1.4124783E0,1.9383359E0,-1.4751384E0,3.916317E-1,1.99268E0,-1.4648559E0,-1.5101397E0,1.4619592E0,1.9943018E0,9.99679E-3,2.7300724E-1,-3.7646532E-1,-1.5302774E0,3.658993E-1,3.818629E-1,-2.5502706E-1,1.9951116E0,1.077981E-1,-1.5477605E0,3.6029017E-1,1.9959229E0,1.077981E-1,-1.5587965E0,4.1086033E-1,4.035707E-1,1.077981E-1,-1.4721597E0,-1.8045545E0,1.4340963E0,-3.031729E-1,-1.5899282E0,1.5664476E0,-1.8327138E0,3.0613342E-1,3.370561E-1,9.99679E-3,-3.2289767E-1,2.8902614E-1,3.4502667E-1,-2.5723758E-1,1.9288148E-1,-3.7467995E-1],"categories":[],"categories_nodes":[],"categories_segments":[],"categories_sizes":[],"default_left":[0,0,0,0,0,0,0,0,0,0,0,0,0,0,0,0,0,0,0,0,0,0,0,0,0,0,0,0,0,0,0,0,0,0,0,0,0,0,0,0,0,0,0],"id":11,"left_children":[1,3,5,7,-1,9,11,13,15,17,-1,-1,-1,19,-1,-1,-1,21,-1,23,-1,25,-1,27,29,-1,-1,31,33,35,-1,37,39,41,-1,-1,-1,-1,-1,-1,-1,-1,-1],"loss_changes":[8.130958E3,3.647544E2,2.338584E2,1.7624048E2,0E0,3.775879E0,2.5142475E1,1.1466675E2,2.6182587E1,3.8964844E-1,0E0,0E0,0E0,9.913135E1,0E0,0E0,0E0,3.9111328E-1,0E0,3.6428955E1,0E0,3.9257812E-1,0E0,3.24021E1,2.183738E1,0E0,0E0,4.4009668E2,4.247644E1,2.2032547E0,0E0,2.9541504E1,2.0591484E1,2.6540161E1,0E0,0E0,0E0,0E0,0E0,0E0,0E0,0E0,0E0],"parents":[2147483647,0,0,1,1,2,2,3,3,5,5,6,6,7,7,8,8,9,9,13,13,17,17,19,19,21,21,23,23,24,24,27,27,28,28,29,29,31,31,32,32,33,33],"right_children":[2,4,6,8,-1,10,12,14,16,18,-1,-1,-1,20,-1,-1,-1,22,-1,24,-1,26,-1,28,30,-1,-1,32,34,36,-1,38,40,42,-1,-1,-1,-1,-1,-1,-1,-1,-1],"split_conditions":[-2.3902336E-1,-7.310414E-2,2.1197052E0,1.6280353E-1,3.916317E-1,1.9112202E0,3.9710724E-1,-6.814876E-2,2.5969167E0,2.1574311E0,9.99679E-3,2.7300724E-1,-3.7646532E-1,1.409981E1,3.658993E-1,3.818629E-1,-2.5502706E-1,1.7870612E0,1.077981E-1,1.1213741E0,3.6029017E-1,2.6365665E-1,1.077981E-1,-1.351703E-1,3.375271E0,4.035707E-1,1.077981E-1,8.454363E-1,-1.4123537E-2,-7.832841E-2,-3.031729E-1,1.8268248E-1,-8.439281E-2,1.1943703E0,3.0613342E-1,3.370561E-1,9.99679E-3,-3.2289767E-1,2.8902614E-1,3.4502667E-1,-2.5723758E-1,1.9288148E-1,-3.7467995E-1],"split_indices":[5,300,355,523,0,168,222,316,327,98,0,0,0,260,0,0,0,150,0,526,0,237,0,0,355,0,0,477,347,3,0,172,442,16,0,0,0,0,0,0,0,0,0],"split_type":[0,0,0,0,0,0,0,0,0,0,0,0,0,0,0,0,0,0,0,0,0,0,0,0,0,0,0,0,0,0,0,0,0,0,0,0,0,0,0,0,0,0,0],"sum_hessian":[2.9706682E3,1.722967E3,1.2477012E3,1.6918822E3,3.1084805E1,1.2284984E3,1.920286E1,1.6724376E3,1.9444548E1,1.2274476E3,1.0507151E0,2.0804791E0,1.7122381E1,1.662892E3,9.545728E0,1.7072166E1,2.3723812E0,1.2264022E3,1.0454773E0,1.6546924E3,8.199535E0,1.2253567E3,1.0454773E0,1.645624E3,9.068341E0,1.2243112E3,1.0454773E0,1.22187E3,4.237541E2,6.068341E0,3E0,1.1767395E3,4.513053E1,4.2063336E2,3.1207185E0,5.017626E0,1.0507151E0,1.1742306E3,2.508813E0,4.338053E1,1.75E0,2.8252413E0,4.178081E2],"tree_param":{"num_deleted":"0","num_feature":"779","num_nodes":"43","size_leaf_vector":"1"}},{"base_weights":[2.4014746E-3,-1.3911246E0,1.7226624E0,-1.524599E0,4.0259662E-1,1.9553834E0,-1.7816695E0,-1.5601059E0,1.6809006E0,1.9953526E0,-8.7859905E-1,3.7279356E-1,-1.9769322E0,-1.5778483E0,1.8556173E0,-3.5803273E-1,4.0000507E-1,1.9983585E0,-3.420412E-1,1.6600771E0,-1.8567803E0,-4.0336353E-1,2.779691E-1,-1.59239E0,3.9371082E-1,3.9567214E-1,-2.2457251E-1,1.9989052E0,5.719509E-1,3.894875E-1,-2.6948702E-1,2.779691E-1,-3.98712E-1,-1.6061846E0,3.9307147E-1,4.0406448E-1,1.8581821E-1,2.779691E-1,-2.0211525E-1,-1.6200753E0,3.876067E-1,-1.6377172E0,8.117131E-1,-3.3333442E-1,3.9058328E-1,3.9146057E-1,-3.84019E-1],"categories":[],"categories_nodes":[],"categories_segments":[],"categories_sizes":[],"default_left":[0,0,0,0,0,0,0,0,0,0,0,0,0,0,0,0,0,0,0,0,0,0,0,0,0,0,0,0,0,0,0,0,0,0,0,0,0,0,0,0,0,0,0,0,0,0,0],"id":12,"left_children":[1,3,5,7,-1,9,11,13,15,17,19,-1,21,23,25,-1,-1,27,-1,29,31,-1,-1,33,-1,-1,-1,35,37,-1,-1,-1,-1,39,-1,-1,-1,-1,-1,41,-1,43,45,-1,-1,-1,-1],"loss_changes":[4.237514E4,4.4127754E3,6.4551035E3,1.0720176E3,0E0,8.4208984E2,3.5283325E2,5.6612695E2,1.0996869E2,8.4478516E1,2.6102118E2,0E0,3.22334E1,4.7714062E2,1.6851791E1,0E0,0E0,4.5585938E0,0E0,2.6079987E1,3.0980957E1,0E0,0E0,4.5243945E2,0E0,0E0,0E0,3.1835938E-1,6.6811066E0,0E0,0E0,0E0,0E0,4.5212695E2,0E0,0E0,0E0,0E0,0E0,3.933496E2,0E0,3.7606055E2,2.065149E2,0E0,0E0,0E0,0E0],"parents":[2147483647,0,0,1,1,2,2,3,3,5,5,6,6,7,7,8,8,9,9,10,10,12,12,13,13,14,14,17,17,19,19,20,20,23,23,27,27,28,28,33,33,39,39,41,41,42,42],"right_children":[2,4,6,8,-1,10,12,14,16,18,20,-1,22,24,26,-1,-1,28,-1,30,32,-1,-1,34,-1,-1,-1,36,38,-1,-1,-1,-1,40,-1,-1,-1,-1,-1,42,-1,44,46,-1,-1,-1,-1],"split_conditions":[-3.100579E-1,-6.931594E-2,1.9761571E0,-1.07368445E-2,4.0259662E-1,2.931861E0,-5.2198976E-1,1.7442226E-2,-5.603409E-1,4.4990277E0,2.2176602E0,3.7279356E-1,1.9341159E-1,1.7612118E1,5.2029535E-2,-3.5803273E-1,4.0000507E-1,1.1780835E0,-3.420412E-1,-1.4273063E-2,-6.2409755E-2,-4.0336353E-1,2.779691E-1,-9.0846494E-2,3.9371082E-1,3.9567214E-1,-2.2457251E-1,3.4665275E0,-7.872888E-2,3.894875E-1,-2.6948702E-1,2.779691E-1,-3.98712E-1,3.2031663E-2,3.9307147E-1,4.0406448E-1,1.8581821E-1,2.779691E-1,-2.0211525E-1,6.224023E-1,3.876067E-1,-2.2967108E-1,-1.287443E-1,-3.3333442E-1,3.9058328E-1,3.9146057E-1,-3.84019E-1],"split_indices":[563,300,445,347,0,355,16,449,477,636,327,0,140,164,19,0,0,97,0,35,2,0,0,274,0,0,0,168,3,0,0,0,0,516,0,0,0,0,0,140,0,5,365,0,0,0,0],"split_type":[0,0,0,0,0,0,0,0,0,0,0,0,0,0,0,0,0,0,0,0,0,0,0,0,0,0,0,0,0,0,0,0,0,0,0,0,0,0,0,0,0,0,0,0,0,0,0],"sum_hessian":[1.7674725E4,9.764787E3,7.909937E3,9.394679E3,3.701081E2,7.4177686E3,4.9216843E2,9.292263E3,1.0241605E2,7.3148984E3,1.0286997E2,2.4716898E1,4.6745154E2,9.24478E3,4.748226E1,7.75E0,9.466605E1,7.3093984E3,5.5E0,2.8418434E1,7.445154E1,4.6525E2,2.2015362E0,9.2073545E3,3.7426117E1,4.623226E1,1.25E0,7.3061973E3,3.2015362E0,2.6418434E1,2E0,2.2015362E0,7.225E1,9.17213E3,3.522458E1,7.3034956E3,2.7015362E0,2.2015362E0,1E0,9.136655E3,3.547458E1,9.071173E3,6.548226E1,9.042553E3,2.861997E1,4.648226E1,1.9E1],"tree_param":{"num_deleted":"0","num_feature":"779","num_nodes":"47","size_leaf_vector":"1"}},{"base_weights":[1.0002924E-3,-1.5943228E0,1.8382258E0,-1.6359459E0,1.8869793E0,1.9586016E0,-1.857455E0,-1.1328393E0,-1.9265596E0,1.954701E0,-3.3685875E-1,1.1515906E0,1.9950633E0,-4.0361124E-1,3.8780016E-1,-2.2887573E-1,-3.3073404E-1,-1.9751045E0,1.6882935E0,4.020991E-1,-2.8873608E-1,1.2132233E0,-3.8208088E-1,1.998437E0,-3.8145697E-1,-1.9874474E0,3.8763148E-1,4.010404E-1,-3.7935477E-1,1.0627499E0,4.013961E-1,1.9990419E0,-3.031729E-1,-1.993648E0,3.8780016E-1,2.1243191E-1,2.653324E-1,1.9992436E0,-2.0211525E-1,-4.0420383E-1,3.6436975E-1,1.9994453E0,-2.0211525E-1,4.0415916E-1,-2.0211525E-1],"categories":[],"categories_nodes":[],"categories_segments":[],"categories_sizes":[],"default_left":[0,0,0,0,0,0,0,0,0,0,0,0,0,0,0,0,0,0,0,0,0,0,0,0,0,0,0,0,0,0,0,0,0,0,0,0,0,0,0,0,0,0,0,0,0],"id":13,"left_children":[1,3,5,7,9,11,13,15,17,19,-1,21,23,-1,-1,-1,-1,25,27,-1,-1,29,-1,31,-1,33,-1,-1,-1,35,-1,37,-1,39,-1,-1,-1,41,-1,-1,-1,43,-1,-1,-1],"loss_changes":[1.3511339E5,3.5783672E3,9.534961E3,3.562793E3,7.352576E1,6.082578E2,3.600686E2,1.1328125E-1,2.7151914E3,3.658557E1,0E0,1.7090588E2,2.6378906E2,0E0,0E0,0E0,0E0,7.365664E2,2.203443E2,0E0,0E0,1.0045642E2,0E0,4.496875E1,0E0,3.7202344E2,0E0,0E0,0E0,7.875366E-1,0E0,1.40078125E1,0E0,3.6201172E2,0E0,0E0,0E0,1.3984375E1,0E0,0E0,0E0,1.4E1,0E0,0E0,0E0],"parents":[2147483647,0,0,1,1,2,2,3,3,4,4,5,5,6,6,7,7,8,8,9,9,11,11,12,12,17,17,18,18,21,21,23,23,25,25,29,29,31,31,33,33,37,37,41,41],"right_children":[2,4,6,8,10,12,14,16,18,20,-1,22,24,-1,-1,-1,-1,26,28,-1,-1,30,-1,32,-1,34,-1,-1,-1,36,-1,38,-1,40,-1,-1,-1,42,-1,-1,-1,44,-1,-1,-1],"split_conditions":[1.3391294E0,3.7442473E-1,2.94629E-1,-2.4029148E-1,1.8611535E0,-4.1581234E-1,7.741845E-2,-1.351703E-1,1.5375423E0,3.6962044E-1,-3.3685875E-1,-6.2409755E-2,4.8585555E-1,-4.0361124E-1,3.8780016E-1,-2.2887573E-1,-3.3073404E-1,1.8516706E0,-4.3694627E-1,4.020991E-1,-2.8873608E-1,-3.081744E-1,-3.8208088E-1,7.368807E-2,-3.8145697E-1,1.1264767E1,3.8763148E-1,4.010404E-1,-3.7935477E-1,-2.4026644E-1,4.013961E-1,1.3241455E1,-3.031729E-1,7.854451E0,3.8780016E-1,2.1243191E-1,2.653324E-1,1.27692995E1,-2.0211525E-1,-4.0420383E-1,3.6436975E-1,8.015215E0,-2.0211525E-1,4.0415916E-1,-2.0211525E-1],"split_indices":[202,271,7,5,461,7,502,0,526,4,0,2,16,0,0,0,0,563,733,0,0,140,0,4,0,316,0,0,0,5,0,313,0,358,0,0,0,366,0,0,0,457,0,0,0],"split_type":[0,0,0,0,0,0,0,0,0,0,0,0,0,0,0,0,0,0,0,0,0,0,0,0,0,0,0,0,0,0,0,0,0,0,0,0,0,0,0,0,0,0,0,0,0],"sum_hessian":[4.6096555E4,2.4672633E4,2.1423922E4,2.438165E4,2.90982E2,2.074857E4,6.7535266E2,8.928919E3,1.5452732E4,2.85982E2,5E0,8.9833E2,1.985024E4,6.5175E2,2.3602667E1,8.924419E3,4.5E0,1.5248411E4,2.0432133E2,2.83482E2,2.5E0,8.8108E2,1.725E1,1.983349E4,1.675E1,1.5200705E4,4.7705334E1,1.8907133E2,1.525E1,7.39464E2,1.41616E2,1.983049E4,3E0,1.5177103E4,2.3602667E1,7.113613E2,2.8102667E1,1.982949E4,1E0,1.515275E4,2.4352667E1,1.982849E4,1E0,1.982749E4,1E0],"tree_param":{"num_deleted":"0","num_feature":"779","num_nodes":"45","size_leaf_vector":"1"}},{"base_weights":[-1.0743567E-2,-1.3524597E0,4.04083E-1,-1.599902E0,4.013814E-1,-1.7110647E0,1.3535639E0,-1.7619199E0,3.9627486E-1,3.99069E-1,-3.8646212E-1,-1.7966048E0,3.9241335E-1,-1.8308449E0,3.5684764E-1,-1.8487945E0,1.5349692E0,9.84874E-2,-3.031729E-1,-1.8669034E0,1.4030907E0,-2.5723758E-1,3.8126752E-1,-3.8428646E-1,-1.834989E-1,-2.4253832E-1,3.390445E-1],"categories":[],"categories_nodes":[],"categories_segments":[],"categories_sizes":[],"default_left":[0,0,0,0,0,0,0,0,0,0,0,0,0,0,0,0,0,0,0,0,0,0,0,0,0,0,0],"id":14,"left_children":[1,3,-1,5,-1,7,9,11,-1,-1,-1,13,-1,15,17,19,21,-1,-1,23,25,-1,-1,-1,-1,-1,-1],"loss_changes":[1.846338E4,3.3946523E3,0E0,1.2574248E3,0E0,6.9147363E2,2.8607312E2,4.7039648E2,0E0,0E0,0E0,2.6622168E2,0E0,2.1703516E2,1.4586445E1,2.1032129E2,2.1496494E1,0E0,0E0,1.1406836E2,1.63722E1,0E0,0E0,0E0,0E0,0E0,0E0],"parents":[2147483647,0,0,1,1,3,3,5,5,6,6,7,7,11,11,13,13,14,14,15,15,16,16,19,19,20,20],"right_children":[2,4,-1,6,-1,8,10,12,-1,-1,-1,14,-1,16,18,20,22,-1,-1,24,26,-1,-1,-1,-1,-1,-1],"split_conditions":[-6.774261E-2,1.041084E0,4.04083E-1,-2.3853949E-1,4.013814E-1,1.1584646E0,-2.0346902E-1,3.2031663E-2,3.9627486E-1,3.99069E-1,-3.8646212E-1,7.2322493E0,3.9241335E-1,1.626077E1,-2.4027479E-1,1.4496081E1,-1.351703E-1,9.84874E-2,-3.031729E-1,3.233368E0,-1.376922E-1,-2.5723758E-1,3.8126752E-1,-3.8428646E-1,-1.834989E-1,-2.4253832E-1,3.390445E-1],"split_indices":[300,316,0,5,0,523,222,516,0,0,0,35,0,347,5,275,0,0,0,702,4,0,0,0,0,0,0],"split_type":[0,0,0,0,0,0,0,0,0,0,0,0,0,0,0,0,0,0,0,0,0,0,0,0,0,0,0],"sum_hessian":[6.844229E3,4.104642E3,2.7395867E3,3.8218818E3,2.8276044E2,3.683657E3,1.3822488E2,3.6338462E3,4.981067E1,1.1647489E2,2.175E1,3.6006392E3,3.320711E1,3.544432E3,5.620711E1,3.5260784E3,1.8353556E1,5.320711E1,3E0,3.5069749E3,1.9103556E1,1.75E0,1.6603556E1,3.3845178E3,1.2245711E2,1.5E0,1.7603556E1],"tree_param":{"num_deleted":"0","num_feature":"779","num_nodes":"27","size_leaf_vector":"1"}},{"base_weights":[-1.2108361E-1,-2.016826E-1,2.6628676E-1],"categories":[],"categories_nodes":[],"categories_segments":[],"categories_sizes":[],"default_left":[0,0,0],"id":15,"left_children":[1,-1,-1],"loss_changes":[9.639861E0,0E0,0E0],"parents":[2147483647,0,0],"right_children":[2,-1,-1],"split_conditions":[-1.7331643E-1,-2.016826E-1,2.6628676E-1],"split_indices":[523,0,0],"split_type":[0,0,0],"sum_hessian":[5.6004E0,3.669999E0,1.930401E0],"tree_param":{"num_deleted":"0","num_feature":"779","num_nodes":"3","size_leaf_vector":"1"}},{"base_weights":[8.015685E-3,-1.3820945E0,3.9829114E-1,-1.6767858E0,3.3666244E-1,-1.723999E0,2.133036E-1,-1.7485733E0,-2.2053052E-2,-1.7900544E0,-1.502252E-1,-1.8115339E0,-4.5607567E-2,-1.8338835E0,-1.7846374E-1,-3.7409094E-1,-1.5333165E-1],"categories":[],"categories_nodes":[],"categories_segments":[],"categories_sizes":[],"default_left":[0,0,0,0,0,0,0,0,0,0,0,0,0,0,0,0,0],"id":16,"left_children":[1,3,-1,5,-1,7,-1,9,-1,11,-1,13,-1,15,-1,-1,-1],"loss_changes":[4.4784454E2,8.9100784E1,0E0,1.3186447E1,0E0,3.2618713E0,0E0,2.240448E0,0E0,2.330841E0,0E0,4.6844482E-2,0E0,1.1505127E-2,0E0,0E0,0E0],"parents":[2147483647,0,0,1,1,3,3,5,5,7,7,9,9,11,11,13,13],"right_children":[2,4,-1,6,-1,8,-1,10,-1,12,-1,14,-1,16,-1,-1,-1],"split_conditions":[-4.1434206E-2,-1.1409105E-2,3.9829114E-1,1.8411303E-2,3.3666244E-1,8.897309E-1,2.133036E-1,3.061349E-1,-2.2053052E-2,3.4983041E0,-1.502252E-1,6.072895E0,-4.5607567E-2,2.1232204E0,-1.7846374E-1,-3.7409094E-1,-1.5333165E-1],"split_indices":[300,347,0,449,0,600,0,702,0,622,0,204,0,133,0,0,0],"split_type":[0,0,0,0,0,0,0,0,0,0,0,0,0,0,0,0,0],"sum_hessian":[1.621539E2,9.50943E1,6.705959E1,8.7120445E1,7.973853E0,8.600324E1,1.1172001E0,8.4632576E1,1.3706667E0,8.0529175E1,4.1034074E0,7.928264E1,1.2465334E0,7.646714E1,2.8154964E0,7.4567154E1,1.8999852E0],"tree_param":{"num_deleted":"0","num_feature":"779","num_nodes":"17","size_leaf_vector":"1"}},{"base_weights":[-2.7999624E-3,-1.0259709E0,1.6881007E0,-1.3943688E0,1.980064E0,1.9487336E0,-1.7941014E0,-1.5950375E0,3.7473756E-1,-2.2457251E-1,1.9925007E0,1.9936315E0,-1.475459E0,-4.014853E-1,1.5551095E0,-1.6194617E0,3.8482344E-1,1.8975368E0,-6.755273E-1,4.0321717E-1,1.1973361E-1,4.039331E-1,-2.8873608E-1,-1.7150099E0,2.579071E-1,3.5110998E-1,6.4725205E-2,-1.6434817E0,1.6345097E0,4.012056E-1,-3.031729E-1,-1.2189533E0,1.7546327E0,-3.875612E-1,2.3013857E-1,-1.4436289E0,-1.9101362E0,3.8440403E-1,-2.4253832E-1,-1.4931676E0,3.748932E-1,3.9265782E-1,-2.5723758E-1,-1.4814302E0,3.728404E-1,-1.922699E0,3.228278E-1,-1.8630024E0,-1.5041229E-1,-1.5018756E0,1.5630976E0,-1.9311191E0,2.9329625E-1,-1.9218199E0,2.579071E-1,3.6687544E-1,-3.8208088E-1,-3.1048703E-1,-4.442358E-2,3.6303678E-1,2.016954E-2,-3.917324E-1,2.780358E-1,-9.67035E-2,-3.943595E-1],"categories":[],"categories_nodes":[],"categories_segments":[],"categories_sizes":[],"default_left":[0,0,0,0,0,0,0,0,0,0,0,0,0,0,0,0,0,0,0,0,0,0,0,0,0,0,0,0,0,0,0,0,0,0,0,0,0,0,0,0,0,0,0,0,0,0,0,0,0,0,0,0,0,0,0,0,0,0,0,0,0,0,0,0,0],"id":17,"left_children":[1,3,5,7,9,11,13,15,17,-1,19,21,23,-1,25,27,-1,29,31,-1,-1,-1,-1,33,-1,-1,-1,35,37,-1,-1,39,41,-1,-1,43,45,-1,-1,47,-1,-1,-1,49,-1,51,-1,53,55,57,59,61,-1,63,-1,-1,-1,-1,-1,-1,-1,-1,-1,-1,-1],"loss_changes":[1.0196664E4,4.0690632E3,2.0200127E3,1.1620269E3,1.7640625E1,3.2081787E2,1.03081085E2,2.5421045E2,5.3562195E2,0E0,2.1044922E-1,3.706543E1,2.0205276E1,0E0,1.4651318E0,2.3081152E2,0E0,4.359546E1,2.642348E2,0E0,0E0,0E0,0E0,1.69617E1,0E0,0E0,0E0,1.5166797E2,1.8872265E1,0E0,0E0,1.3997871E2,2.3360756E1,0E0,0E0,2.0913184E2,5.763379E1,0E0,0E0,7.421298E1,0E0,0E0,0E0,1.04565674E2,0E0,3.7868652E1,0E0,2.4151031E1,1.17943954E2,7.144287E1,3.7241535E0,3.135791E1,0E0,3.9689941E0,0E0,0E0,0E0,0E0,0E0,0E0,0E0,0E0,0E0,0E0,0E0],"parents":[2147483647,0,0,1,1,2,2,3,3,4,4,5,5,6,6,7,7,8,8,10,10,11,11,12,12,14,14,15,15,17,17,18,18,23,23,27,27,28,28,31,31,32,32,35,35,36,36,39,39,43,43,45,45,47,47,48,48,49,49,50,50,51,51,53,53],"right_children":[2,4,6,8,10,12,14,16,18,-1,20,22,24,-1,26,28,-1,30,32,-1,-1,-1,-1,34,-1,-1,-1,36,38,-1,-1,40,42,-1,-1,44,46,-1,-1,48,-1,-1,-1,50,-1,52,-1,54,56,58,60,62,-1,64,-1,-1,-1,-1,-1,-1,-1,-1,-1,-1,-1],"split_conditions":[-3.0284762E-1,-2.3824748E-1,1.9761571E0,1.2212211E0,-4.6741533E-1,2.931861E0,-2.465847E-3,1.752661E-2,-7.892911E-2,-2.2457251E-1,-7.4924424E-2,3.5212646E0,-7.6406905E-3,-4.014853E-1,1.1596412E-1,1.7257767E0,3.8482344E-1,-1.23052515E-1,9.510279E0,4.0321717E-1,1.1973361E-1,4.039331E-1,-2.8873608E-1,3.6599727E0,2.579071E-1,3.5110998E-1,6.4725205E-2,2.94629E-1,1.2588468E0,4.012056E-1,-3.031729E-1,1.752661E-2,-7.835344E-2,-3.875612E-1,2.3013857E-1,1.852287E0,-6.566876E-2,3.8440403E-1,-2.4253832E-1,5.1396847E0,3.748932E-1,3.9265782E-1,-2.5723758E-1,8.244823E0,3.728404E-1,1.629623E1,3.228278E-1,4.4136133E-2,-2.4004953E-1,2.6809666E0,1.354052E-1,1.9647047E-2,2.9329625E-1,-2.4020804E-1,2.579071E-1,3.6687544E-1,-3.8208088E-1,-3.1048703E-1,-4.442358E-2,3.6303678E-1,2.016954E-2,-3.917324E-1,2.780358E-1,-9.67035E-2,-3.943595E-1],"split_indices":[563,5,445,0,7,355,523,403,3,0,3,613,287,0,4,140,0,402,0,0,0,0,0,120,0,0,0,7,52,0,0,403,3,0,0,9,316,0,0,0,0,0,0,475,0,383,0,371,5,202,44,267,0,5,0,0,0,0,0,0,0,0,0,0,0],"split_type":[0,0,0,0,0,0,0,0,0,0,0,0,0,0,0,0,0,0,0,0,0,0,0,0,0,0,0,0,0,0,0,0,0,0,0,0,0,0,0,0,0,0,0,0,0,0,0,0,0,0,0,0,0,0,0,0,0,0,0,0,0,0,0,0,0],"sum_hessian":[5.8917505E3,3.6708794E3,2.2208708E3,3.270595E3,4.002843E2,2.06663E3,1.5424098E2,2.937495E3,3.3309988E2,1.25E0,3.990343E2,2.0402954E3,2.633452E1,1.4625E2,7.990976E0,2.917666E3,1.9829054E1,1.3563434E2,1.9746556E2,3.97903E2,1.1312913E0,2.0377954E3,2.5E0,2.4571938E1,1.7625825E0,6.6096845E0,1.3812913E0,2.8967776E3,2.0888409E1,1.3263434E2,3E0,1.6178584E2,3.5679714E1,2.325E1,1.3219368E0,1.6594576E3,1.2373201E3,1.9388409E1,1.5E0,1.4900711E2,1.2778724E1,3.3929714E1,1.75E0,1.6411412E3,1.8316471E1,1.2333542E3,3.9658108E0,1.1652516E2,3.2481953E1,1.630697E3,1.0444204E1,1.2307103E3,2.6438737E0,1.1476258E2,1.7625825E0,1.5231952E1,1.725E1,1.5879993E3,4.269776E1,8.812913E0,1.6312913E0,1.2285071E3,2.2032282E0,2.6312914E0,1.12131294E2],"tree_param":{"num_deleted":"0","num_feature":"779","num_nodes":"65","size_leaf_vector":"1"}},{"base_weights":[5.196958E-3,-1.618979E0,1.9740555E0,-1.75256E0,1.7886508E0,1.9943063E0,-1.8191772E0,-1.7733481E0,3.930565E-1,1.9748975E0,-3.7252614E-1,1.9966921E0,-3.0911744E-1,1.1376902E-1,-3.9004698E-1,-1.7903211E0,1.8345788E0,4.0252018E-1,3.673696E-1,6.9161373E-1,1.9988954E0,-1.8008978E0,3.824837E-1,3.8969028E-1,1.0917613E-1,2.5311917E-1,-2.0211525E-1,-3.031729E-1,3.5173443E-1,1.9994475E0,1.0917613E-1,-1.804896E0,1.1304541E0,4.0415603E-1,1.1376902E-1,-1.807936E0,3.3714002E-1,3.5173443E-1,-2.4253832E-1,-1.6871431E0,-1.9024016E0,-3.423298E-1,2.3160915E-1,-3.852554E-1,3.1130612E-1],"categories":[],"categories_nodes":[],"categories_segments":[],"categories_sizes":[],"default_left":[0,0,0,0,0,0,0,0,0,0,0,0,0,0,0,0,0,0,0,0,0,0,0,0,0,0,0,0,0,0,0,0,0,0,0,0,0,0,0,0,0,0,0,0,0],"id":18,"left_children":[1,3,5,7,9,11,13,15,-1,17,-1,19,-1,-1,-1,21,23,-1,25,27,29,31,-1,-1,-1,-1,-1,-1,-1,33,-1,35,37,-1,-1,39,-1,-1,-1,41,43,-1,-1,-1,-1],"loss_changes":[3.87185E4,3.0232363E3,4.2405664E2,4.941953E2,1.7326282E2,4.8828125E1,8.884674E0,3.9212695E2,0E0,5.6620483E0,0E0,1.4265625E1,0E0,0E0,0E0,2.4959961E2,2.615944E0,0E0,5.699516E0,2.7202059E1,3.2929688E0,7.5916016E1,0E0,0E0,0E0,0E0,0E0,0E0,0E0,3.1054688E-1,0E0,6.946875E1,1.51631E1,0E0,0E0,6.85625E1,0E0,0E0,0E0,5.3660156E1,4.7987305E1,0E0,0E0,0E0,0E0],"parents":[2147483647,0,0,1,1,2,2,3,3,4,4,5,5,6,6,7,7,9,9,11,11,15,15,16,16,18,18,19,19,20,20,21,21,29,29,31,31,32,32,35,35,39,39,40,40],"right_children":[2,4,6,8,10,12,14,16,-1,18,-1,20,-1,-1,-1,22,24,-1,26,28,30,32,-1,-1,-1,-1,-1,-1,-1,34,-1,36,38,-1,-1,40,-1,-1,-1,42,44,-1,-1,-1,-1],"split_conditions":[-2.3823914E-1,-1.9275588E-1,3.176958E0,1.409981E1,1.1667637E0,3.5212646E0,-7.875391E-2,-1.2518217E-1,3.930565E-1,4.0726905E0,-3.7252614E-1,-4.336239E-1,-3.0911744E-1,1.1376902E-1,-3.9004698E-1,-6.702944E-2,-7.46993E-2,4.0252018E-1,6.975594E-1,-2.6504445E-1,2.8610253E0,1.7771335E0,3.824837E-1,3.8969028E-1,1.0917613E-1,2.5311917E-1,-2.0211525E-1,-3.031729E-1,3.5173443E-1,7.6428213E0,1.0917613E-1,4.632678E0,1.2242364E0,4.0415603E-1,1.1376902E-1,-4.9341688E-1,3.3714002E-1,3.5173443E-1,-2.4253832E-1,1.3325679E1,4.6128345E0,-3.423298E-1,2.3160915E-1,-3.852554E-1,3.1130612E-1],"split_indices":[5,648,355,260,664,613,3,409,0,355,0,7,0,0,0,384,662,0,93,523,355,140,0,0,0,0,0,0,0,34,0,293,52,0,0,7,0,0,0,35,269,0,0,0,0],"split_type":[0,0,0,0,0,0,0,0,0,0,0,0,0,0,0,0,0,0,0,0,0,0,0,0,0,0,0,0,0,0,0,0,0,0,0,0,0,0,0,0,0,0,0,0,0],"sum_hessian":[1.210596E4,6.633744E3,5.4722153E3,6.3839746E3,2.4976971E2,5.443628E3,2.8587526E1,6.3487983E3,3.517607E1,2.3801971E2,1.175E1,5.440378E3,3.25E0,1.0875255E0,2.75E1,6.3195728E3,2.9225866E1,2.3534467E2,2.675051E0,9.700204E0,5.4306777E3,6.3019844E3,1.7588036E1,2.6800816E1,2.425051E0,1.675051E0,1E0,3E0,6.700204E0,5.4282524E3,2.425051E0,6.293784E3,8.200204E0,5.427165E3,1.0875255E0,6.2887593E3,5.025153E0,6.700204E0,1.5E0,2.7680815E3,3.5206775E3,2.7620564E3,6.025153E0,3.5173274E3,3.350102E0],"tree_param":{"num_deleted":"0","num_feature":"779","num_nodes":"45","size_leaf_vector":"1"}},{"base_weights":[2.488178E-3,-1.1161184E0,1.9686633E0,-1.2395492E0,3.9758632E-1,1.9966133E0,-1.104636E0,-1.3036851E0,3.9090186E-1,4.0377364E-1,1.0687008E-1,-3.4847456E-1,2.3901401E-1,-1.3500652E0,1.4756478E0,-1.3689115E0,3.6007145E-1,3.8589182E-1,-2.964357E-1,-1.3853931E0,3.3163026E-1,-1.4090754E0,5.928835E-2,-1.419853E0,3.3035162E-1,1.6743805E0,-1.4792988E0,-2.5878555E-1,-3.3307743E-1,3.6790073E-1,2.952285E-2,-3.612599E-1,2.0724906E-1],"categories":[],"categories_nodes":[],"categories_segments":[],"categories_sizes":[],"default_left":[0,0,0,0,0,0,0,0,0,0,0,0,0,0,0,0,0,0,0,0,0,0,0,0,0,0,0,0,0,0,0,0,0],"id":19,"left_children":[1,3,5,7,-1,9,11,13,-1,-1,-1,-1,-1,15,17,19,-1,-1,-1,21,-1,23,25,27,-1,29,31,-1,-1,-1,-1,-1,-1],"loss_changes":[5.419403E3,6.001354E2,7.895801E1,3.1001318E2,0E0,4.0795898E-1,1.4361424E1,1.9295068E2,0E0,0E0,0E0,0E0,0E0,8.8463135E1,3.443156E1,7.417114E1,0E0,0E0,0E0,4.9421875E1,0E0,4.886255E1,6.265748E1,4.288623E1,0E0,2.4727402E0,1.1813559E1,0E0,0E0,0E0,0E0,0E0,0E0],"parents":[2147483647,0,0,1,1,2,2,3,3,5,5,6,6,7,7,13,13,14,14,15,15,19,19,21,21,22,22,23,23,25,25,26,26],"right_children":[2,4,6,8,-1,10,12,14,-1,-1,-1,-1,-1,16,18,20,-1,-1,-1,22,-1,24,26,28,-1,30,32,-1,-1,-1,-1,-1,-1],"split_conditions":[-2.672761E-1,-2.3537755E-1,3.6120284E0,-6.47506E-2,3.9758632E-1,6.21095E-1,6.164574E-1,-9.0307556E-2,3.9090186E-1,4.0377364E-1,1.0687008E-1,-3.4847456E-1,2.3901401E-1,3.2676377E0,-1.2898281E-1,2.7310245E0,3.6007145E-1,3.8589182E-1,-2.964357E-1,4.386134E0,3.3163026E-1,7.0914183E0,-7.870385E-2,-6.2409755E-2,3.3035162E-1,-7.877894E-2,1.1017381E1,-2.5878555E-1,-3.3307743E-1,3.6790073E-1,2.952285E-2,-3.612599E-1,2.0724906E-1],"split_indices":[648,5,355,316,0,237,140,140,0,0,0,0,0,164,365,274,0,0,0,0,0,403,3,2,0,3,0,0,0,0,0,0,0],"split_type":[0,0,0,0,0,0,0,0,0,0,0,0,0,0,0,0,0,0,0,0,0,0,0,0,0,0,0,0,0,0,0,0,0],"sum_hessian":[2.4620642E3,1.5695436E3,8.925206E2,1.509704E3,5.98396E1,8.84824E2,7.6966715E0,1.4803761E3,2.932798E1,8.8378485E2,1.0390936E0,6.25E0,1.4466717E0,1.4565835E3,2.3792498E1,1.4484296E3,8.153968E0,2.1042498E1,2.75E0,1.4410778E3,7.351843E0,1.4178599E3,2.321792E1,1.4133883E3,4.4715304E0,1.128428E1,1.19336405E1,8.8121326E2,5.32175E2,1.0126701E1,1.157578E0,1.08815155E1,1.0521249E0],"tree_param":{"num_deleted":"0","num_feature":"779","num_nodes":"33","size_leaf_vector":"1"}},{"base_weights":[4.0804627E-3,-1.4506102E0,1.7020136E0,-1.5785854E0,1.9632818E0,1.9175471E0,-1.4280802E0,-2.2218046E-1,-1.8579003E0,4.0298408E-1,-2.8873608E-1,1.9574932E0,-1.7176262E-1,-1.9544332E0,3.9823607E-1,-1.9049108E0,1.4914209E0,1.2710731E0,1.9936274E0,-3.9882275E-1,3.978147E-1,-4.032866E-1,3.2977217E-1,-1.9467549E0,1.6396471E0,1.8421451E0,-3.5370168E-1,1.3434398E0,-3.5803273E-1,1.997923E0,-3.5523286E-1,-1.9565588E0,3.6251956E-1,3.973296E-1,-3.3955362E-1,-2.7985188E-1,3.9823607E-1,1.2895466E0,3.895705E-1,4.040805E-1,-2.7985188E-1,-1.9663935E0,1.144658E0,2.638762E-1,9.8340884E-2,-1.9729809E0,9.689002E-1,3.7593663E-1,-3.0911744E-1,-3.9943865E-1,3.2977217E-1,3.6322474E-1,-2.964357E-1],"categories":[],"categories_nodes":[],"categories_segments":[],"categories_sizes":[],"default_left":[0,0,0,0,0,0,0,0,0,0,0,0,0,0,0,0,0,0,0,0,0,0,0,0,0,0,0,0,0,0,0,0,0,0,0,0,0,0,0,0,0,0,0,0,0,0,0,0,0,0,0,0,0],"id":20,"left_children":[1,3,5,7,9,11,13,-1,15,-1,-1,17,19,21,-1,23,25,27,29,-1,-1,-1,-1,31,33,35,-1,37,-1,39,-1,41,-1,-1,-1,-1,-1,43,-1,-1,-1,45,47,-1,-1,49,51,-1,-1,-1,-1,-1,-1],"loss_changes":[4.1424355E4,3.9493867E3,5.2235156E3,1.1636113E3,3.67146E1,6.046289E2,8.966489E2,0E0,8.6877344E2,0E0,0E0,1.736836E2,5.311035E2,6.67113E1,0E0,8.0766406E2,9.0401825E1,8.1216E1,1.12240234E2,0E0,0E0,0E0,0E0,2.0010547E2,7.242018E1,3.1553726E1,0E0,8.540527E0,0E0,3.320703E1,0E0,1.653418E2,0E0,0E0,0E0,0E0,0E0,3.5309448E0,0E0,0E0,0E0,1.0499414E2,3.639103E1,0E0,0E0,6.6708984E1,2.8068138E1,0E0,0E0,0E0,0E0,0E0,0E0],"parents":[2147483647,0,0,1,1,2,2,3,3,4,4,5,5,6,6,8,8,11,11,12,12,13,13,15,15,16,16,17,17,18,18,23,23,24,24,25,25,27,27,29,29,31,31,37,37,41,41,42,42,45,45,46,46],"right_children":[2,4,6,8,10,12,14,-1,16,-1,-1,18,20,22,-1,24,26,28,30,-1,-1,-1,-1,32,34,36,-1,38,-1,40,-1,42,-1,-1,-1,-1,-1,44,-1,-1,-1,46,48,-1,-1,50,52,-1,-1,-1,-1,-1,-1],"split_conditions":[2.1280754E-1,5.8479875E-1,5.57483E-1,-2.4029148E-1,5.7589644E-1,2.8440344E0,4.0080467E-1,-2.2218046E-1,-2.382308E-1,4.0298408E-1,-2.8873608E-1,-4.26913E-1,1.2494451E0,5.256651E-1,3.9823607E-1,1.520606E0,-7.3628806E-2,9.5609546E-1,2.484798E-1,-3.9882275E-1,3.978147E-1,-4.032866E-1,3.2977217E-1,1.9135204E1,-6.6112804E-1,-4.61415E-1,-3.5370168E-1,1.2572938E-1,-3.5803273E-1,3.298167E-1,-3.5523286E-1,9.660989E0,3.6251956E-1,3.973296E-1,-3.3955362E-1,-2.7985188E-1,3.9823607E-1,-2.4027479E-1,3.895705E-1,4.040805E-1,-2.7985188E-1,1.7275274E1,-7.85787E-2,2.638762E-1,9.8340884E-2,1.4574009E0,-3.8259217E-1,3.7593663E-1,-3.0911744E-1,-3.9943865E-1,3.2977217E-1,3.6322474E-1,-2.964357E-1],"split_indices":[202,648,7,5,79,355,316,0,5,0,0,7,140,272,0,703,355,2,16,0,0,0,0,287,733,7,0,140,0,43,0,0,0,0,0,0,0,5,0,0,0,270,3,0,0,267,7,0,0,0,0,0,0],"split_type":[0,0,0,0,0,0,0,0,0,0,0,0,0,0,0,0,0,0,0,0,0,0,0,0,0,0,0,0,0,0,0,0,0,0,0,0,0,0,0,0,0,0,0,0,0,0,0,0,0,0,0,0,0],"sum_hessian":[1.6769215E4,9.031605E3,7.7376094E3,8.705792E3,3.2581323E2,7.2394966E3,4.9811316E2,3.2071687E3,5.4986235E3,3.2331323E2,2.5E0,7.103741E3,1.3575528E2,4.3167896E2,6.643423E1,5.4229395E3,7.568423E1,3.570606E2,6.7466807E3,7.375E1,6.200528E1,4.2725E2,4.4289484E0,5.3601133E3,6.282633E1,6.868423E1,7E0,3.493106E2,7.75E0,6.7394307E3,7.25E0,5.346576E3,1.3536845E1,5.757633E1,5.25E0,2.25E0,6.643423E1,3.227369E2,2.657369E1,6.7371807E3,2.25E0,5.3300396E3,1.6536846E1,3.1580795E2,6.9289484E0,5.3184316E3,1.1607897E1,1.3286845E1,3.25E0,5.3140024E3,4.4289484E0,8.857897E0,2.75E0],"tree_param":{"num_deleted":"0","num_feature":"779","num_nodes":"53","size_leaf_vector":"1"}},{"base_weights":[0E0],"categories":[],"categories_nodes":[],"categories_segments":[],"categories_sizes":[],"default_left":[0],"id":21,"left_children":[-1],"loss_changes":[0E0],"parents":[2147483647],"right_children":[-1],"split_conditions":[0E0],"split_indices":[0],"split_type":[0],"sum_hessian":[0E0],"tree_param":{"num_deleted":"0","num_feature":"779","num_nodes":"1","size_leaf_vector":"1"}},{"base_weights":[1.8811564E0],"categories":[],"categories_nodes":[],"categories_segments":[],"categories_sizes":[],"default_left":[0],"id":22,"left_children":[-1],"loss_changes":[0E0],"parents":[2147483647],"right_children":[-1],"split_conditions":[3.802104E-1],"split_indices":[0],"split_type":[0],"sum_hessian":[1.3070498E0],"tree_param":{"num_deleted":"0","num_feature":"779","num_nodes":"1","size_leaf_vector":"1"}},{"base_weights":[1.4003001E0],"categories":[],"categories_nodes":[],"categories_segments":[],"categories_sizes":[],"default_left":[0],"id":23,"left_children":[-1],"loss_changes":[0E0],"parents":[2147483647],"right_children":[-1],"split_conditions":[2.8302202E-1],"split_indices":[0],"split_type":[0],"sum_hessian":[1.5834048E0],"tree_param":{"num_deleted":"0","num_feature":"779","num_nodes":"1","size_leaf_vector":"1"}},{"base_weights":[0E0],"categories":[],"categories_nodes":[],"categories_segments":[],"categories_sizes":[],"default_left":[0],"id":24,"left_children":[-1],"loss_changes":[0E0],"parents":[2147483647],"right_children":[-1],"split_conditions":[0E0],"split_indices":[0],"split_type":[0],"sum_hessian":[0E0],"tree_param":{"num_deleted":"0","num_feature":"779","num_nodes":"1","size_leaf_vector":"1"}},{"base_weights":[5.744354E0,8E0,1.1182542E0,1.616922E0,3.5983872E-1,2.6249707E-1,-8.250235E-4],"categories":[],"categories_nodes":[],"categories_segments":[],"categories_sizes":[],"default_left":[0,0,0,0,0,0,0],"id":25,"left_children":[1,3,5,-1,-1,-1,-1],"loss_changes":[2.1281769E2,1.3867798E1,1.4881058E0,0E0,0E0,0E0,0E0],"parents":[2147483647,0,0,1,1,2,2],"right_children":[2,4,6,-1,-1,-1,-1],"split_conditions":[-3.0284762E-1,-2.4012461E-1,6.4954895E-1,1.616922E0,3.5983872E-1,2.6249707E-1,-8.250235E-4],"split_indices":[563,5,445,0,0,0,0],"split_type":[0,0,0,0,0,0,0],"sum_hessian":[1.2725306E1,6.4055686E0,6.3197374E0,5.3926415E0,1.0129272E0,5.308789E0,1.0109484E0],"tree_param":{"num_deleted":"0","num_feature":"779","num_nodes":"7","size_leaf_vector":"1"}},{"base_weights":[0E0],"categories":[],"categories_nodes":[],"categories_segments":[],"categories_sizes":[],"default_left":[0],"id":26,"left_children":[-1],"loss_changes":[0E0],"parents":[2147483647],"right_children":[-1],"split_conditions":[0E0],"split_indices":[0],"split_type":[0],"sum_hessian":[7.239768E-2],"tree_param":{"num_deleted":"0","num_feature":"779","num_nodes":"1","size_leaf_vector":"1"}},{"base_weights":[0E0],"categories":[],"categories_nodes":[],"categories_segments":[],"categories_sizes":[],"default_left":[0],"id":27,"left_children":[-1],"loss_changes":[0E0],"parents":[2147483647],"right_children":[-1],"split_conditions":[0E0],"split_indices":[0],"split_type":[0],"sum_hessian":[0E0],"tree_param":{"num_deleted":"0","num_feature":"779","num_nodes":"1","size_leaf_vector":"1"}},{"base_weights":[0E0],"categories":[],"categories_nodes":[],"categories_segments":[],"categories_sizes":[],"default_left":[0],"id":28,"left_children":[-1],"loss_changes":[0E0],"parents":[2147483647],"right_children":[-1],"split_conditions":[0E0],"split_indices":[0],"split_type":[0],"sum_hessian":[6.358908E-1],"tree_param":{"num_deleted":"0","num_feature":"779","num_nodes":"1","size_leaf_vector":"1"}},{"base_weights":[0E0],"categories":[],"categories_nodes":[],"categories_segments":[],"categories_sizes":[],"default_left":[0],"id":29,"left_children":[-1],"loss_changes":[0E0],"parents":[2147483647],"right_children":[-1],"split_conditions":[0E0],"split_indices":[0],"split_type":[0],"sum_hessian":[0E0],"tree_param":{"num_deleted":"0","num_feature":"779","num_nodes":"1","size_leaf_vector":"1"}},{"base_weights":[3.703927E0,8E0,1.7940378E0,8E0,-2.0156185E-1,5.768234E-1,2.8380072E0,8E0,-1.9603297E-1,3.174574E-1,1.5617505E0,2.8025186E0,9.473494E-1,8E0,1.8902259E-1,-8.250371E-1,1.1736042E0,2.8182378E0,2.71429E-1,8E0,-1.767233E-1,-1.031032E0,1.9402742E0,1.0743074E0,1.616922E0,2.8315334E0,3.5926303E-1,8E0,-1.5829408E-1,-1.071112E0,8.308585E-1,6.361733E-1,8.1626314E-1,9.8585945E-1,1.588747E0,2.8445933E0,3.6838353E-1,8E0,-1.5837651E-1,-1.0288633E0,-1.7087619E0,-5.0826315E-3,1.9014996E-1,-2.6181406E-1,2.1543022E-1,1.0517452E0,-2.215769E-1,5.7675457E-1,4.2793906E-1,1.616922E0,-1.5133248E-1,-1.040903E0,5.013385E-1,-2.2121155E0,-2.64993E-1,9.9842393E-1,5.897315E-1,-2.1209964E-1,1.3021308E-1,1.4739679E-1,-1.3987781E-2,-4.892138E-1,-2.1942554E-1,-1.9194573E-1,2.0551361E-1],"categories":[],"categories_nodes":[],"categories_segments":[],"categories_sizes":[],"default_left":[0,0,0,0,0,0,0,0,0,0,0,0,0,0,0,0,0,0,0,0,0,0,0,0,0,0,0,0,0,0,0,0,0,0,0,0,0,0,0,0,0,0,0,0,0,0,0,0,0,0,0,0,0,0,0,0,0,0,0,0,0,0,0,0,0],"id":30,"left_children":[1,3,5,7,-1,9,11,13,-1,15,-1,17,-1,19,-1,21,23,25,-1,27,-1,29,31,33,-1,35,-1,37,-1,39,41,-1,43,45,-1,47,-1,49,-1,51,53,-1,-1,-1,-1,55,-1,-1,-1,-1,-1,57,59,61,-1,63,-1,-1,-1,-1,-1,-1,-1,-1,-1],"loss_changes":[5.1613875E4,5.491914E3,4.1918203E3,1.8523516E3,0E0,2.8254104E3,1.03421875E2,6.5333594E2,0E0,1.4412993E3,0E0,3.6257812E1,0E0,5.229844E2,0E0,3.6164865E2,8.435841E2,1.884668E1,0E0,2.8152344E2,0E0,4.4787354E1,5.729982E1,4.947074E2,0E0,1.7243164E1,0E0,2.8095312E2,0E0,1.376709E1,1.243247E0,0E0,1.4134949E1,1.1466925E2,0E0,4.9433594E0,0E0,2.3253906E2,0E0,1.0525269E1,3.9647522E0,0E0,0E0,0E0,0E0,7.694617E1,0E0,0E0,0E0,0E0,0E0,8.394531E0,6.8949044E-1,5.833969E-1,0E0,2.897522E1,0E0,0E0,0E0,0E0,0E0,0E0,0E0,0E0,0E0],"parents":[2147483647,0,0,1,1,2,2,3,3,5,5,6,6,7,7,9,9,11,11,13,13,15,15,16,16,17,17,19,19,21,21,22,22,23,23,25,25,27,27,29,29,30,30,32,32,33,33,35,35,37,37,39,39,40,40,45,45,51,51,52,52,53,53,55,55],"right_children":[2,4,6,8,-1,10,12,14,-1,16,-1,18,-1,20,-1,22,24,26,-1,28,-1,30,32,34,-1,36,-1,38,-1,40,42,-1,44,46,-1,48,-1,50,-1,52,54,-1,-1,-1,-1,56,-1,-1,-1,-1,-1,58,60,62,-1,64,-1,-1,-1,-1,-1,-1,-1,-1,-1],"split_conditions":[-9.054408E-1,1.4429976E0,1.563988E1,2.0190479E-1,-2.0156185E-1,8.43272E0,-9.541614E-2,-2.9076815E-1,-1.9603297E-1,1.3391294E0,1.5617505E0,-6.697325E-2,9.473494E-1,3.0456594E-1,1.8902259E-1,4.3913975E0,1.05465555E1,4.0014115E-1,2.71429E-1,6.193656E-1,-1.767233E-1,3.243678E-1,-1.376922E-1,2.1049334E1,1.616922E0,7.1686074E-2,3.5926303E-1,4.9097148E-1,-1.5829408E-1,-4.4788145E-2,8.1959033E-1,6.361733E-1,8.3812326E-2,4.8585555E-1,1.588747E0,3.6222988E-1,3.6838353E-1,1.6131572E0,-1.5837651E-1,-2.3358385E-1,4.399551E0,-5.0826315E-3,1.9014996E-1,-2.6181406E-1,2.1543022E-1,2.5937834E1,-2.215769E-1,5.7675457E-1,4.2793906E-1,1.616922E0,-1.5133248E-1,3.8273664E0,9.5609546E-1,8.981619E-1,-2.64993E-1,1.1442097E0,5.897315E-1,-2.1209964E-1,1.3021308E-1,1.4739679E-1,-1.3987781E-2,-4.892138E-1,-2.1942554E-1,-1.9194573E-1,2.0551361E-1],"split_indices":[7,662,164,593,0,44,4,575,0,202,0,316,0,642,0,316,502,516,0,607,0,409,4,352,0,275,0,768,0,437,289,0,81,16,0,403,0,533,0,5,437,0,0,0,0,185,0,0,0,0,0,326,2,237,0,523,0,0,0,0,0,0,0,0,0],"split_type":[0,0,0,0,0,0,0,0,0,0,0,0,0,0,0,0,0,0,0,0,0,0,0,0,0,0,0,0,0,0,0,0,0,0,0,0,0,0,0,0,0,0,0,0,0,0,0,0,0,0,0,0,0,0,0,0,0,0,0,0,0,0,0,0,0],"sum_hessian":[4.0853787E3,7.8635297E2,3.2990256E3,7.1871967E2,6.763334E1,1.5238491E3,1.7751765E3,6.95902E2,2.2817694E1,1.4715159E3,5.2333256E1,1.7442177E3,3.0958948E1,6.8252966E2,1.337232E1,6.303606E2,8.411553E2,1.7247122E3,1.95055E1,6.760765E2,6.453169E0,5.872426E2,4.311799E1,8.361014E2,5.053886E0,1.7012573E3,2.345478E1,6.7259753E2,3.4789557E0,5.7528345E2,1.1959157E1,1.9920753E1,2.3197235E1,8.264749E2,9.626454E0,1.67772E3,2.3537392E1,6.691262E2,3.471273E0,5.419866E2,3.3296886E1,1.4489381E0,1.0510219E1,2.0093696E0,2.1187866E1,8.016045E2,2.4870401E1,1.6543264E3,2.3393559E1,6.662521E2,2.8741362E0,5.3807275E2,3.913804E0,1.2681779E1,2.0615105E1,7.808279E2,2.0776592E1,5.357487E2,2.3240013E0,2.5977895E0,1.3160145E0,9.732851E0,2.9489284E0,6.828459E0,7.7399945E2],"tree_param":{"num_deleted":"0","num_feature":"779","num_nodes":"65","size_leaf_vector":"1"}},{"base_weights":[0E0],"categories":[],"categories_nodes":[],"categories_segments":[],"categories_sizes":[],"default_left":[0],"id":31,"left_children":[-1],"loss_changes":[0E0],"parents":[2147483647],"right_children":[-1],"split_conditions":[0E0],"split_indices":[0],"split_type":[0],"sum_hessian":[0E0],"tree_param":{"num_deleted":"0","num_feature":"779","num_nodes":"1","size_leaf_vector":"1"}},{"base_weights":[1.9848175E0,5.798714E0,1.5376112E0,6.915673E0,-6.08323E-2,1.4676111E0,1.616922E0,4.931054E0,8E0,-1.8306592E-1,1.8641771E-1,1.0902436E0,2.660437E0,5.817132E0,-5.3738263E-2,8E0,1.612176E-1,1.0139925E0,1.4187895E0,2.473243E0,1.369953E0,4.896941E0,1.616922E0,-1.7433126E-1,1.7721865E-1,8E0,-1.3504818E-1,-1.3001852E-1,1.4997688E-1,-2.0346835E-1,1.1709762E0,2.0029194E0,3.3364477E0,8.202397E-1,8E0,1.616922E0,-1.2890677E-1,1.2739571E0,-2.2767329E-1,1.7019694E0,6.034448E-1,7.682702E-1,5.3735816E-1,1.616922E0,-1.272505E-1,1.2094744E0,8.35404E-1,5.1319146E-1,1.5272493E0,1.2595475E0,-1.9039287E-1,3.4932086E-1,2.500271E-1,2.360959E-1,4.3874052E-1],"categories":[],"categories_nodes":[],"categories_segments":[],"categories_sizes":[],"default_left":[0,0,0,0,0,0,0,0,0,0,0,0,0,0,0,0,0,0,0,0,0,0,0,0,0,0,0,0,0,0,0,0,0,0,0,0,0,0,0,0,0,0,0,0,0,0,0,0,0,0,0,0,0,0,0],"id":32,"left_children":[1,3,5,7,9,11,-1,13,15,-1,-1,17,19,21,23,25,27,29,-1,31,-1,33,-1,-1,-1,35,-1,-1,-1,-1,37,39,41,-1,43,-1,-1,45,-1,47,-1,-1,-1,-1,-1,49,-1,-1,51,53,-1,-1,-1,-1,-1],"loss_changes":[1.6566499E3,6.688264E2,6.4465283E2,4.838794E2,1.5241353E1,3.9022266E2,0E0,3.0455017E2,2.557107E2,0E0,0E0,2.9361438E2,1.4448645E2,2.0007654E2,9.326326E0,1.5785767E2,2.9085975E0,2.0986578E2,0E0,7.519519E1,0E0,2.104115E2,0E0,0E0,0E0,1.382605E2,0E0,0E0,0E0,0E0,1.4597113E2,3.4267944E1,1.1824097E1,0E0,1.32862E2,0E0,0E0,1.028938E2,0E0,1.1360321E1,0E0,0E0,0E0,0E0,0E0,6.2989502E1,0E0,0E0,3.0378723E0,4.420276E1,0E0,0E0,0E0,0E0,0E0],"parents":[2147483647,0,0,1,1,2,2,3,3,4,4,5,5,7,7,8,8,11,11,12,12,13,13,14,14,15,15,16,16,17,17,19,19,21,21,25,25,30,30,31,31,32,32,34,34,37,37,39,39,45,45,48,48,49,49],"right_children":[2,4,6,8,10,12,-1,14,16,-1,-1,18,20,22,24,26,28,30,-1,32,-1,34,-1,-1,-1,36,-1,-1,-1,-1,38,40,42,-1,44,-1,-1,46,-1,48,-1,-1,-1,-1,-1,50,-1,-1,52,54,-1,-1,-1,-1,-1],"split_conditions":[-6.821728E-1,-3.8821074E-1,1.8880316E1,1.8490889E0,-3.193929E-1,7.2011447E0,1.616922E0,-2.222443E-1,-2.4024975E-1,-1.8306592E-1,1.8641771E-1,1.015759E1,1.1943703E0,1.5539848E-2,-3.193929E-1,2.8954163E-1,-2.3853949E-1,-2.4020804E-1,1.4187895E0,1.7898322E0,1.369953E0,2.0190479E-1,1.616922E0,-1.7433126E-1,1.7721865E-1,-3.2187265E-1,-1.3504818E-1,-1.3001852E-1,1.4997688E-1,-2.0346835E-1,2.1612859E0,-9.4991654E-2,-2.401413E-1,8.202397E-1,-2.4028313E-1,1.616922E0,-1.2890677E-1,4.1578712E0,-2.2767329E-1,-5.6702113E-1,6.034448E-1,7.682702E-1,5.3735816E-1,1.616922E0,-1.272505E-1,4.8647562E-1,8.35404E-1,5.1319146E-1,-2.2268167E-1,1.9279375E0,-1.9039287E-1,3.4932086E-1,2.500271E-1,2.360959E-1,4.3874052E-1],"split_indices":[766,7,516,668,523,300,0,4,5,0,0,347,16,0,523,605,5,5,0,703,0,593,0,0,0,569,0,0,0,0,355,7,5,0,5,0,0,183,0,7,0,0,0,0,0,477,0,0,202,608,0,0,0,0,0],"split_type":[0,0,0,0,0,0,0,0,0,0,0,0,0,0,0,0,0,0,0,0,0,0,0,0,0,0,0,0,0,0,0,0,0,0,0,0,0,0,0,0,0,0,0,0,0,0,0,0,0,0,0,0,0,0,0],"sum_hessian":[9.755284E2,1.0112662E2,8.7440173E2,8.478456E1,1.6342052E1,8.7234784E2,2.0538921E0,6.788007E1,1.6904491E1,8.8313055E0,7.510748E0,6.6414886E2,2.0819899E2,5.7493305E1,1.0386769E1,1.2701417E1,4.2030735E0,6.568727E2,7.2761717E0,2.0067657E2,7.522409E0,5.5370735E1,2.1225693E0,5.596053E0,4.790716E0,1.0748717E1,1.9527003E0,1.7171085E0,2.4859653E0,4.6962368E1,6.0991034E2,1.3204901E2,6.862757E1,5.1596664E1,3.7740712E0,9.037863E0,1.7108545E0,5.841707E2,2.573964E1,1.0318237E2,2.886663E1,3.7979523E1,3.0648046E1,2.1305609E0,1.6435105E0,5.726789E2,1.1491807E1,1.5480154E1,8.7702225E1,5.600588E2,1.2620135E1,4.887876E1,3.882346E1,5.110645E2,4.899423E1],"tree_param":{"num_deleted":"0","num_feature":"779","num_nodes":"55","size_leaf_vector":"1"}},{"base_weights":[2.808661E0,5.6005015E0,1.1273303E0,7.9601135E0,3.1503096E0,1.2293217E0,-4.6434802E-1,8E0,3.4229636E0,2.479921E0,7.268984E0,1.250093E0,-1.8803802E-1,1.5371178E0,-1.0851017E0,8E0,2.6459224E0,2.1539493E0,1.616922E0,1.9514447E0,3.4366705E0,8E0,1.4152306E0,1.23299E0,1.3588147E0,2.3105375E-1,5.057501E-1,-1.1401639E0,1.3129517E-1,8E0,-1.7801294E-1,1.3997469E0,1.5298727E0,8.834956E-1,1.616922E0,1.8694491E0,1.200115E0,3.1762836E0,1.5278004E0,8E0,2.283569E0,7.4133694E-1,-1.6265015E-1,1.1795273E0,1.9282346E0,-1.1577696E0,-4.51235E-2,8E0,-1.721027E-1,-1.7181288E-1,2.3662734E0,6.2955743E-1,9.248376E-1,2.5047154E0,1.3508999E0,3.4672287E0,2.162673E0,8E0,1.4684006E0,-1.2365979E-1,3.0170107E0,1.1861466E0,-3.762467E-1,1.6500252E0,2.6777992E0,-2.161324E-1,-3.1423044E-1,8E0,-1.7139299E-1,3.0573661E0,-1.4132926E-1,3.798327E-1,8.596716E-1,1.1137835E0,2.2945292E0,1.2520205E0,8.875131E-1,7.079762E-1,2.946987E-1,2.3099535E0,-1.223828E-1,8E0,-1.12306595E-1,7.435481E-1,-1.3288708E-1,2.6972684E-1,8.341757E-1,1.1734298E0,2.4942214E0,5.037345E-1,1.4900653E0,5.730464E-1,2.4631168E-1,8E0,-1.7035173E-1,3.9087396E0,-1.338444E-1,1.2475975E-1,7.886759E-1,1.801458E0,2.8002627E0,1.3082074E0,-2.4212988E-1,4.949017E-1,1.7449635E-1,8E0,-1.05802484E-1,1.2640406E0,1.0684282E0,2.864084E-1,8.0055463E-1,3.426041E-1,2.4798582E-1,1.616922E0,-1.631728E-1,1.1066123E0,2.3021464E-1,-5.464189E-2,4.7275528E-1,3.2817662E-1,6.742609E-1,5.7825863E-1,2.1882212E-1,3.0683136E-1,1.1513267E-1,1.616922E0,6.6366017E-1,2.5293952E-1,5.178627E-1,2.1634951E-1,4.153442E-2],"categories":[],"categories_nodes":[],"categories_segments":[],"categories_sizes":[],"default_left":[0,0,0,0,0,0,0,0,0,0,0,0,0,0,0,0,0,0,0,0,0,0,0,0,0,0,0,0,0,0,0,0,0,0,0,0,0,0,0,0,0,0,0,0,0,0,0,0,0,0,0,0,0,0,0,0,0,0,0,0,0,0,0,0,0,0,0,0,0,0,0,0,0,0,0,0,0,0,0,0,0,0,0,0,0,0,0,0,0,0,0,0,0,0,0,0,0,0,0,0,0,0,0,0,0,0,0,0,0,0,0,0,0,0,0,0,0,0,0,0,0,0,0,0,0,0,0,0,0,0,0],"id":33,"left_children":[1,3,5,7,9,11,13,15,17,19,21,23,-1,25,27,29,31,33,-1,35,37,39,41,43,-1,-1,-1,45,-1,47,-1,49,-1,51,-1,53,-1,55,-1,57,59,-1,-1,61,63,65,-1,67,-1,-1,69,71,-1,73,75,77,79,81,83,-1,85,87,-1,89,91,-1,-1,93,-1,95,-1,97,-1,-1,99,101,-1,-1,-1,103,-1,105,-1,-1,-1,-1,-1,107,109,-1,111,-1,-1,113,-1,115,-1,117,-1,119,121,123,-1,-1,-1,125,-1,127,129,-1,-1,-1,-1,-1,-1,-1,-1,-1,-1,-1,-1,-1,-1,-1,-1,-1,-1,-1,-1,-1,-1],"loss_changes":[9.737104E3,4.4841836E3,2.1108496E2,8.315703E2,1.0430254E3,5.5843994E1,9.959043E1,5.639414E2,3.3036835E2,1.6116333E2,2.391128E2,1.04760254E2,0E0,4.3908844E0,6.542755E0,5.6000977E2,1.2380235E2,4.308294E2,0E0,5.9562866E1,1.0138904E2,2.0793408E2,4.1194885E1,4.2523438E1,0E0,0E0,0E0,6.9779205E-1,0E0,4.456953E2,0E0,4.2691246E1,0E0,3.0173418E1,0E0,6.68772E1,0E0,2.541504E1,0E0,1.04975586E2,1.951796E1,0E0,0E0,2.478833E1,1.319989E1,3.6896515E-1,0E0,4.3411914E2,0E0,0E0,3.0420952E1,2.928363E1,0E0,4.7178467E1,3.0456741E1,9.77417E-1,1.2630188E1,9.8041504E1,2.1031124E1,0E0,7.2097015E0,1.5702515E1,0E0,4.939026E0,1.4299011E0,0E0,0E0,4.1767188E2,0E0,3.7676987E1,0E0,2.9198626E1,0E0,0E0,1.7450684E1,1.770549E1,0E0,0E0,0E0,3.1742554E0,0E0,8.681641E1,0E0,0E0,0E0,0E0,0E0,9.219727E0,1.0018509E1,0E0,9.65889E-1,0E0,0E0,3.2611914E2,0E0,3.3510513E1,0E0,2.8491318E1,0E0,7.807205E0,1.3627014E0,1.6975677E1,0E0,0E0,0E0,3.2250977E1,0E0,6.442871E0,6.7852783E-1,0E0,0E0,0E0,0E0,0E0,0E0,0E0,0E0,0E0,0E0,0E0,0E0,0E0,0E0,0E0,0E0,0E0,0E0,0E0,0E0,0E0,0E0],"parents":[2147483647,0,0,1,1,2,2,3,3,4,4,5,5,6,6,7,7,8,8,9,9,10,10,11,11,13,13,14,14,15,15,16,16,17,17,19,19,20,20,21,21,22,22,23,23,27,27,29,29,31,31,33,33,35,35,37,37,39,39,40,40,43,43,44,44,45,45,47,47,50,50,51,51,53,53,54,54,55,55,56,56,57,57,58,58,60,60,61,61,63,63,64,64,67,67,69,69,71,71,74,74,75,75,79,79,81,81,87,87,88,88,90,90,93,93,95,95,97,97,99,99,100,100,101,101,105,105,107,107,108,108],"right_children":[2,4,6,8,10,12,14,16,18,20,22,24,-1,26,28,30,32,34,-1,36,38,40,42,44,-1,-1,-1,46,-1,48,-1,50,-1,52,-1,54,-1,56,-1,58,60,-1,-1,62,64,66,-1,68,-1,-1,70,72,-1,74,76,78,80,82,84,-1,86,88,-1,90,92,-1,-1,94,-1,96,-1,98,-1,-1,100,102,-1,-1,-1,104,-1,106,-1,-1,-1,-1,-1,108,110,-1,112,-1,-1,114,-1,116,-1,118,-1,120,122,124,-1,-1,-1,126,-1,128,130,-1,-1,-1,-1,-1,-1,-1,-1,-1,-1,-1,-1,-1,-1,-1,-1,-1,-1,-1,-1,-1,-1],"split_conditions":[-3.100579E-1,-9.745189E-2,2.177579E0,-2.4013296E-1,2.2310653E0,6.705325E0,2.6722395E-1,-3.7236708E-1,3.3872135E0,2.8760362E-1,5.8302927E-1,6.1464524E0,-1.8803802E-1,4.2807417E0,8.99935E-2,4.356124E0,9.662038E0,7.907501E0,1.616922E0,1.4492543E1,3.8326209E0,1.4020655E-1,-2.1847905E-1,6.041748E0,1.3588147E0,2.3105375E-1,5.057501E-1,1.2067745E0,1.3129517E-1,-1.3828142E-1,-1.7801294E-1,1.8499197E0,1.5298727E0,9.7509515E-1,1.616922E0,4.9763906E-1,1.200115E0,-2.4001616E-1,1.5278004E0,9.741919E0,1.951365E0,7.4133694E-1,-1.6265015E-1,4.4990277E0,3.539232E-1,-4.3441426E-2,-4.51235E-2,-1.35658E-1,-1.721027E-1,-1.7181288E-1,3.662248E0,1.5778956E0,9.248376E-1,-4.132266E-1,1.610762E1,9.483958E-2,1.2099053E0,8.334299E0,1.8499197E0,-1.2365979E-1,-2.4026644E-1,1.0054767E0,-3.762467E-1,-1.1604263E-1,1.5851319E-2,-2.161324E-1,-3.1423044E-1,-1.3084112E-1,-1.7139299E-1,4.4633946E0,-1.4132926E-1,1.1276559E0,8.596716E-1,1.1137835E0,1.3238769E0,1.1548252E0,8.875131E-1,7.079762E-1,2.946987E-1,-2.3959067E-1,-1.223828E-1,-2.1314748E-1,-1.12306595E-1,7.435481E-1,-1.3288708E-1,2.6972684E-1,8.341757E-1,-3.1137356E-1,3.9387837E-2,5.037345E-1,-2.4024141E-1,5.730464E-1,2.4631168E-1,-1.22659326E-1,-1.7035173E-1,4.77877E-1,-1.338444E-1,3.2471285E0,7.886759E-1,8.9366865E0,-5.603409E-1,1.3238769E0,-2.4212988E-1,4.949017E-1,1.7449635E-1,4.433302E-2,-1.05802484E-1,4.639765E0,1.3891013E0,2.864084E-1,8.0055463E-1,3.426041E-1,2.4798582E-1,1.616922E0,-1.631728E-1,1.1066123E0,2.3021464E-1,-5.464189E-2,4.7275528E-1,3.2817662E-1,6.742609E-1,5.7825863E-1,2.1882212E-1,3.0683136E-1,1.1513267E-1,1.616922E0,6.6366017E-1,2.5293952E-1,5.178627E-1,2.1634951E-1,4.153442E-2],"split_indices":[563,748,355,5,745,445,120,317,327,16,697,81,0,300,280,319,529,516,0,461,327,607,129,664,0,0,0,44,0,421,0,7,0,359,0,93,0,5,0,181,130,0,0,636,733,437,0,450,0,0,179,379,0,7,378,293,477,176,7,0,5,181,0,253,403,0,0,336,0,547,0,467,0,0,621,355,0,0,0,5,0,222,0,0,0,0,0,523,15,0,5,0,0,402,0,527,0,347,0,378,477,621,0,0,0,79,0,359,178,0,0,0,0,0,0,0,0,0,0,0,0,0,0,0,0,0,0,0,0,0,0],"split_type":[0,0,0,0,0,0,0,0,0,0,0,0,0,0,0,0,0,0,0,0,0,0,0,0,0,0,0,0,0,0,0,0,0,0,0,0,0,0,0,0,0,0,0,0,0,0,0,0,0,0,0,0,0,0,0,0,0,0,0,0,0,0,0,0,0,0,0,0,0,0,0,0,0,0,0,0,0,0,0,0,0,0,0,0,0,0,0,0,0,0,0,0,0,0,0,0,0,0,0,0,0,0,0,0,0,0,0,0,0,0,0,0,0,0,0,0,0,0,0,0,0,0,0,0,0,0,0,0,0,0,0],"sum_hessian":[2.0747144E3,7.7894666E2,1.2957677E3,3.9566248E2,3.8328418E2,1.2179515E3,7.781611E1,3.53883E2,4.177948E1,3.3100867E2,5.2275497E1,1.2067664E3,1.1185215E1,1.8071817E1,5.9744293E1,3.3297775E2,2.0905241E1,3.6762035E1,5.017447E0,2.1518651E2,1.1582217E2,4.5628147E1,6.647351E0,1.2042284E3,2.5379593E0,1.4384943E1,3.6868749E0,5.8238453E1,1.5058386E0,3.260656E2,6.9121284E0,1.7707531E1,3.1977098E0,3.4253414E1,2.5086195E0,2.1228886E2,2.8976467E0,1.10606316E2,5.215858E0,3.830642E1,7.3217254E0,2.975653E0,3.6716979E0,1.1207426E3,8.348591E1,5.6883533E1,1.3549224E0,3.205602E2,5.505428E0,5.3573985E0,1.2350133E1,3.314441E1,1.1090047E0,9.368574E1,1.1860313E2,8.405782E1,2.6548487E1,3.53456E1,2.9608204E0,1.5133412E0,5.808384E0,1.118917E3,1.8255007E0,6.3221752E1,2.0264154E1,4.9542133E1,7.3414E0,3.1519748E2,5.3627186E0,1.0080291E1,2.2698426E0,3.20412E1,1.1032107E0,4.474666E0,8.921107E1,1.16234566E2,2.368562E0,8.186363E1,2.1941931E0,2.5364508E1,1.183978E0,3.41319E1,1.2137014E0,1.0934185E0,1.867402E0,3.1844735E0,2.6239107E0,1.1100228E3,8.8942375E0,7.763143E0,5.5458607E1,1.7439272E1,2.8248827E0,3.1003763E2,5.159864E0,8.161384E0,1.9189074E0,3.0843058E1,1.1981434E0,4.7480965E1,4.1730106E1,1.1408426E2,2.150302E0,2.2513876E1,2.8506322E0,3.3055958E1,1.0759414E0,5.899179E2,5.201049E2,6.2616444E0,2.632593E0,2.8110998E1,2.7347609E1,3.060083E2,4.0293E0,4.5891743E0,3.5722091E0,2.691782E1,3.9252377E0,4.439662E1,3.0843441E0,3.966112E1,2.0689833E0,8.8015656E1,2.6068604E1,2.972905E1,3.3269083E0,5.8620184E2,3.7160163E0,5.186634E2,1.4415276E0],"tree_param":{"num_deleted":"0","num_feature":"779","num_nodes":"131","size_leaf_vector":"1"}},{"base_weights":[4.3431144E0,7.577613E0,1.1436791E0,8E0,1.9025253E0,1.3822744E0,-7.946085E-1,8E0,2.872413E0,1.5450135E0,1.0320162E0,2.3667462E0,9.88849E-1,-8.993453E-1,2.2822833E-2,8E0,7.341763E-1,3.4947188E0,-1.1459178E-1,2.2795186E0,4.7901168E-1,3.90409E0,1.7196358E0,1.023962E0,-8.518948E-2,-4.052164E-2,-1.9357428E-1,8E0,-6.063123E-2,2.1287641E-1,2.0054152E-2,1.7476484E0,1.1142209E0,2.4603467E0,2.6799241E-2,6.893349E-1,4.679897E-2,4.9325256E0,1.5353365E-1,2.1464968E0,2.2361484E-1,2.1152115E-1,1.9056901E-2,8E0,-2.879507E-2,3.966843E-1,1.1050694E-1,2.672927E0,1.7055655E-1,2.0455284E-1,5.6334417E-2,5.9881225E0,1.8328753E-1,2.7460682E-1,6.89069E-1,8E0,1.1162844E-1,2.839357E0,1.0534387E-1,1.4445137E0,3.4117293E-1,1.616922E0,4.2695892E-1,6.0685664E-1,1.8454373E-1],"categories":[],"categories_nodes":[],"categories_segments":[],"categories_sizes":[],"default_left":[0,0,0,0,0,0,0,0,0,0,0,0,0,0,0,0,0,0,0,0,0,0,0,0,0,0,0,0,0,0,0,0,0,0,0,0,0,0,0,0,0,0,0,0,0,0,0,0,0,0,0,0,0,0,0,0,0,0,0,0,0,0,0,0,0],"id":34,"left_children":[1,3,5,7,9,11,13,15,17,19,-1,21,23,25,-1,27,29,31,-1,33,35,37,39,41,-1,-1,-1,43,-1,-1,-1,45,-1,47,-1,49,-1,51,-1,53,-1,-1,-1,55,-1,-1,-1,57,-1,-1,-1,59,-1,-1,-1,61,-1,63,-1,-1,-1,-1,-1,-1,-1],"loss_changes":[1.8785708E3,8.7808545E2,4.404216E1,1.7894043E2,2.1629456E1,2.982454E1,1.1293116E0,1.1491455E2,2.1758293E1,1.8184917E1,0E0,1.616156E1,3.4549332E0,2.0815086E-1,0E0,8.171289E1,5.8208585E-1,1.844429E1,0E0,5.229347E0,4.290216E-1,1.5735222E1,2.3292122E0,1.1576424E0,0E0,0E0,0E0,6.960742E1,0E0,0E0,0E0,4.0716743E-1,0E0,2.2603226E0,0E0,4.610231E-1,0E0,1.3087334E1,0E0,4.8503E0,0E0,0E0,0E0,5.0135742E1,0E0,0E0,0E0,2.5140686E0,0E0,0E0,0E0,4.2502747E0,0E0,0E0,0E0,1.6817871E1,0E0,4.416809E-1,0E0,0E0,0E0,0E0,0E0,0E0,0E0],"parents":[2147483647,0,0,1,1,2,2,3,3,4,4,5,5,6,6,7,7,8,8,9,9,11,11,12,12,13,13,15,15,16,16,17,17,19,19,20,20,21,21,22,22,23,23,27,27,31,31,33,33,35,35,37,37,39,39,43,43,47,47,51,51,55,55,57,57],"right_children":[2,4,6,8,10,12,14,16,18,20,-1,22,24,26,-1,28,30,32,-1,34,36,38,40,42,-1,-1,-1,44,-1,-1,-1,46,-1,48,-1,50,-1,52,-1,54,-1,-1,-1,56,-1,-1,-1,58,-1,-1,-1,60,-1,-1,-1,62,-1,64,-1,-1,-1,-1,-1,-1,-1],"split_conditions":[-2.4004953E-1,-9.745189E-2,2.1197052E0,-3.0284762E-1,3.2045474E0,-2.3902336E-1,2.7870253E-1,1.8397189E0,-1.5619776E-1,1.3238769E0,1.0320162E0,-2.6816887E-1,1.027879E0,8.5742646E-1,2.2822833E-2,-1.3778816E-1,1.5349318E-1,1.7268188E0,-1.1459178E-1,4.449397E0,-2.5026348E-1,1.9747719E0,-6.814876E-2,7.4049294E-1,-8.518948E-2,-4.052164E-2,-1.9357428E-1,-1.3276097E-1,-6.063123E-2,2.1287641E-1,2.0054152E-2,-4.25778E-1,1.1142209E0,5.103681E-1,2.6799241E-2,-2.7327E-1,4.679897E-2,1.2536919E0,1.5353365E-1,2.9176342E0,2.2361484E-1,2.1152115E-1,1.9056901E-2,-1.2409599E-1,-2.879507E-2,3.966843E-1,1.1050694E-1,2.6182027E0,1.7055655E-1,2.0455284E-1,5.6334417E-2,1.2774117E-1,1.8328753E-1,2.7460682E-1,6.89069E-1,-7.310414E-2,1.1162844E-1,4.059659E0,1.0534387E-1,1.4445137E0,3.4117293E-1,1.616922E0,4.2695892E-1,6.0685664E-1,1.8454373E-1],"split_indices":[5,748,355,563,750,5,215,7,445,621,0,563,445,569,0,319,581,692,0,768,202,0,316,118,0,0,0,336,0,0,0,140,0,563,0,495,0,526,0,569,0,0,0,402,0,0,0,607,0,0,0,222,0,0,0,300,0,41,0,0,0,0,0,0,0],"split_type":[0,0,0,0,0,0,0,0,0,0,0,0,0,0,0,0,0,0,0,0,0,0,0,0,0,0,0,0,0,0,0,0,0,0,0,0,0,0,0,0,0,0,0,0,0,0,0,0,0,0,0,0,0,0,0,0,0,0,0,0,0,0,0,0,0],"sum_hessian":[1.8136702E2,8.950883E1,9.18582E1,6.473546E1,2.4773365E1,8.2045586E1,9.812614E0,5.6495403E1,8.240059E0,2.361972E1,1.1536454E0,2.1994015E1,6.0051567E1,8.805409E0,1.0072056E0,5.4106388E1,2.389014E0,6.963942E0,1.2761166E0,1.3310223E1,1.0309497E1,5.0244017E0,1.6969614E1,5.8860096E1,1.1914704E0,1.0209152E0,7.784494E0,5.2991215E1,1.1151745E0,1.1515762E0,1.2374377E0,4.7327523E0,2.2311895E0,1.2141591E1,1.1686314E0,4.6077523E0,5.701745E0,3.3576093E0,1.6667925E0,8.531293E0,8.43832E0,5.734196E1,1.5181371E0,5.197601E1,1.0152025E0,3.4760485E0,1.2567041E0,1.0152875E1,1.9887164E0,1.759824E0,2.847928E0,2.2738805E0,1.0837288E0,6.5320115E0,1.9992814E0,5.0918343E1,1.057668E0,9.127324E0,1.0255504E0,1.2696662E0,1.0042143E0,4.9586823E1,1.3315217E0,7.899477E0,1.2278475E0],"tree_param":{"num_deleted":"0","num_feature":"779","num_nodes":"65","size_leaf_vector":"1"}},{"base_weights":[2.388153E0,5.5084715E0,1.2628658E0,6.9588566E0,1.3931677E0,1.1420369E0,8E0,1.1973952E0,8E0,7.461026E-1,1.4574822E0,1.4612145E0,-9.6868914E-1,8.7388806E-2,1.616922E0,1.616922E0,4.839874E-1,1.9465925E0,-1.6346972E-2,1.3174328E0,5.3677855E0,5.5001163E-1,-2.3471291E-1,2.4083571E0,-1.3422738E-1,-1.786765E-1,7.113536E-2,1.2130861E0,6.449616E0,8E0,-9.013977E-2,1.5298499E0,-1.4070216E-1,2.7232153E0,-1.03770986E-1,-2.6130044E-1,1.5249697E0,1.8706495E-1,1.616922E0,8E0,-1.3734533E-1,-1.4884615E-1,1.4028531E-1,6.0289178E-2,4.5139796E-1,9.381599E-1,1.8989348E0,-4.9597088E-1,1.3296953E0,3.164439E0,1.2005243E0,5.724925E-1,1.616922E0,6.930074E-1,6.793641E-1,-6.5436226E-1,1.5689491E0,1.795917E0,-1.1557038E-1,2.0948627E0,1.616922E0,1.0636501E0,3.572869E0,8.407059E-2,2.1810211E-1,-1.5573356E-1,1.5936321E-1,1.3278249E-1,4.3001187E-1,4.915117E-1,1.701707E-1,5.609082E-1,9.542873E-2,2.0414296E-1,1.2607533E0,3.9824414E-1,1.0634538E0],"categories":[],"categories_nodes":[],"categories_segments":[],"categories_sizes":[],"default_left":[0,0,0,0,0,0,0,0,0,0,0,0,0,0,0,0,0,0,0,0,0,0,0,0,0,0,0,0,0,0,0,0,0,0,0,0,0,0,0,0,0,0,0,0,0,0,0,0,0,0,0,0,0,0,0,0,0,0,0,0,0,0,0,0,0,0,0,0,0,0,0,0,0,0,0,0,0],"id":35,"left_children":[1,3,5,7,9,11,13,-1,15,17,-1,19,21,-1,-1,-1,-1,23,25,27,29,31,-1,33,-1,-1,-1,35,37,39,41,43,-1,45,-1,47,49,-1,-1,51,-1,-1,-1,-1,-1,-1,53,55,57,59,61,-1,-1,63,-1,65,67,69,-1,71,-1,73,75,-1,-1,-1,-1,-1,-1,-1,-1,-1,-1,-1,-1,-1,-1],"loss_changes":[1.9326106E3,8.624087E2,4.5750635E2,2.2349072E2,1.4266663E2,2.7368176E2,7.1760254E1,0E0,7.1208496E0,3.344565E1,0E0,1.9033667E2,1.6341587E1,0E0,0E0,0E0,0E0,1.8703281E1,7.762721E0,1.7441608E2,2.3923813E2,9.2711115E0,0E0,1.2687462E1,0E0,0E0,0E0,1.5432968E2,1.4616092E2,2.1778815E2,3.511371E0,2.8645535E0,0E0,8.9548645E0,0E0,2.2800278E1,1.4324988E2,0E0,0E0,2.40719E1,0E0,0E0,0E0,0E0,0E0,0E0,1.4515236E1,1.8167267E1,8.025331E0,3.8605966E2,7.165991E1,0E0,0E0,2.4586439E-1,0E0,8.883259E0,6.542406E-1,1.9450626E0,0E0,4.629445E1,0E0,5.5049026E1,2.2790833E1,0E0,0E0,0E0,0E0,0E0,0E0,0E0,0E0,0E0,0E0,0E0,0E0,0E0,0E0],"parents":[2147483647,0,0,1,1,2,2,3,3,4,4,5,5,6,6,8,8,9,9,11,11,12,12,17,17,18,18,19,19,20,20,21,21,23,23,27,27,28,28,29,29,30,30,31,31,33,33,35,35,36,36,39,39,46,46,47,47,48,48,49,49,50,50,53,53,55,55,56,56,57,57,59,59,61,61,62,62],"right_children":[2,4,6,8,10,12,14,-1,16,18,-1,20,22,-1,-1,-1,-1,24,26,28,30,32,-1,34,-1,-1,-1,36,38,40,42,44,-1,46,-1,48,50,-1,-1,52,-1,-1,-1,-1,-1,-1,54,56,58,60,62,-1,-1,64,-1,66,68,70,-1,72,-1,74,76,-1,-1,-1,-1,-1,-1,-1,-1,-1,-1,-1,-1,-1,-1],"split_conditions":[-6.246972E-1,5.238303E-1,2.9015656E0,-2.4029148E-1,4.5017805E0,1.677718E0,-4.014038E-1,1.1973952E0,-2.402581E-1,-6.821728E-1,1.4574822E0,4.342165E0,1.5824018E-1,8.7388806E-2,1.616922E0,1.616922E0,4.839874E-1,3.640159E-1,1.5542121E-1,6.7293673E0,-1.3934274E-1,4.7824988E-1,-2.3471291E-1,1.3322054E-1,-1.3422738E-1,-1.786765E-1,7.113536E-2,2.0518363E-1,-3.5174444E-1,-1.303321E-1,-2.4009958E-1,5.8800926E0,-1.4070216E-1,1.6131572E0,-1.03770986E-1,4.586038E0,-2.4020804E-1,1.8706495E-1,1.616922E0,-4.9772364E-1,-1.3734533E-1,-1.4884615E-1,1.4028531E-1,6.0289178E-2,4.5139796E-1,9.381599E-1,1.9171159E-1,-8.418363E-2,1.706641E-1,9.198007E-1,6.0137296E0,5.724925E-1,1.616922E0,2.2291799E-1,6.793641E-1,-2.2333054E-1,1.0685605E0,2.539556E0,-1.1557038E-1,1.6624999E-1,1.616922E0,1.2976612E1,5.5164397E-1,8.407059E-2,2.1810211E-1,-1.5573356E-1,1.5936321E-1,1.3278249E-1,4.3001187E-1,4.915117E-1,1.701707E-1,5.609082E-1,9.542873E-2,2.0414296E-1,1.2607533E0,3.9824414E-1,1.0634538E0],"split_indices":[7,129,668,5,183,355,7,0,5,766,0,712,4,0,0,0,0,605,202,527,421,526,0,646,0,0,0,93,533,365,5,355,0,533,0,768,5,0,0,526,0,0,0,0,0,0,35,442,615,0,362,0,0,41,0,5,486,130,0,0,0,0,7,0,0,0,0,0,0,0,0,0,0,0,0,0,0],"split_type":[0,0,0,0,0,0,0,0,0,0,0,0,0,0,0,0,0,0,0,0,0,0,0,0,0,0,0,0,0,0,0,0,0,0,0,0,0,0,0,0,0,0,0,0,0,0,0,0,0,0,0,0,0,0,0,0,0,0,0,0,0,0,0,0,0,0,0,0,0,0,0,0,0,0,0,0,0],"sum_hessian":[5.5138574E2,1.4511101E2,4.0627472E2,1.0678505E2,3.8325962E1,4.0313818E2,3.136525E0,9.284508E1,1.3939974E1,3.550536E1,2.820603E0,3.504517E2,5.2686516E1,1.3705697E0,1.7659551E0,1.2676453E1,1.2635207E0,1.3187825E1,2.2317533E1,3.393009E2,1.1150768E1,5.7206163E0,4.69659E1,1.1271672E1,1.916153E0,6.2329507E0,1.6084583E1,3.337515E2,5.5494084E0,6.23139E0,4.9193788E0,3.0750754E0,2.645541E0,1.0236521E1,1.0351514E0,5.830149E1,2.7545E2,3.5137372E0,2.0356712E0,3.4908931E0,2.7404969E0,2.7302413E0,2.1891375E0,1.6356883E0,1.4393871E0,1.6845498E0,8.551971E0,5.1407234E1,6.8942556E0,4.4059204E1,2.3139081E2,2.2981982E0,1.1926948E0,5.494659E0,3.057312E0,4.837936E1,3.027874E0,5.5813193E0,1.3129367E0,4.212118E1,1.9380242E0,2.2013814E2,1.1252674E1,4.4085126E0,1.0861462E0,4.5206005E1,3.173356E0,1.9767321E0,1.0511419E0,2.4193687E0,3.1619503E0,2.9178001E1,1.2943179E1,2.1906328E2,1.0748622E0,6.8855834E0,4.3670907E0],"tree_param":{"num_deleted":"0","num_feature":"779","num_nodes":"77","size_leaf_vector":"1"}},{"base_weights":[5.049403E0,8E0,1.080946E0,8E0,1.0530334E0,1.2677771E0,-7.066364E-1,8E0,3.6881962E0,4.5417586E-1,6.0913795E-1,3.618378E0,1.1494442E0,-2.0553066E-1,1.4623441E-1,8E0,8.3568E-1,2.7918823E0,1.616922E0,-1.1150737E-1,1.8513724E-1,1.2364795E0,-1.0468132E-1,2.2152457E-1,1.6693535E0,1.616922E0,5.9207803E-1,5.8540124E-1,1.5295848E-1,3.739784E-1,1.376002E-1],"categories":[],"categories_nodes":[],"categories_segments":[],"categories_sizes":[],"default_left":[0,0,0,0,0,0,0,0,0,0,0,0,0,0,0,0,0,0,0,0,0,0,0,0,0,0,0,0,0,0,0],"id":36,"left_children":[1,3,5,7,9,11,13,15,17,-1,19,21,23,-1,-1,25,-1,27,-1,-1,-1,-1,-1,-1,29,-1,-1,-1,-1,-1,-1],"loss_changes":[3.752436E3,5.0328418E2,3.9963226E1,2.403789E2,4.8617296E0,2.5398956E1,5.932252E0,5.4012695E1,4.1544724E1,0E0,4.0465064E0,5.1008415E1,1.0206146E0,0E0,0E0,3.8476562E0,0E0,1.0217361E0,0E0,0E0,0E0,0E0,0E0,0E0,1.0895157E-1,0E0,0E0,0E0,0E0,0E0,0E0],"parents":[2147483647,0,0,1,1,2,2,3,3,4,4,5,5,6,6,7,7,8,8,10,10,11,11,12,12,15,15,17,17,24,24],"right_children":[2,4,6,8,10,12,14,16,18,-1,20,22,24,-1,-1,26,-1,28,-1,-1,-1,-1,-1,-1,30,-1,-1,-1,-1,-1,-1],"split_conditions":[-3.0284762E-1,-2.3999113E-1,2.0143209E0,-1.2986379E-2,-2.3933205E-1,-1.8873678E-1,6.164574E-1,1.7771335E0,1.1943703E0,4.5417586E-1,-2.3537755E-1,-1.5509161E-1,4.808526E0,-2.0553066E-1,1.4623441E-1,1.663912E0,8.3568E-1,1.8322953E0,1.616922E0,-1.1150737E-1,1.8513724E-1,1.2364795E0,-1.0468132E-1,2.2152457E-1,9.0968597E-1,1.616922E0,5.9207803E-1,5.8540124E-1,1.5295848E-1,3.739784E-1,1.376002E-1],"split_indices":[563,5,355,202,5,707,140,140,16,0,5,445,414,0,0,689,0,140,0,0,0,0,0,0,563,0,0,0,0,0,0],"split_type":[0,0,0,0,0,0,0,0,0,0,0,0,0,0,0,0,0,0,0,0,0,0,0,0,0,0,0,0,0,0,0],"sum_hessian":[2.0387195E2,8.789536E1,1.1597658E2,7.714068E1,1.0754685E1,1.05265434E2,1.0711146E1,6.176889E1,1.5371787E1,1.8136647E0,8.941021E0,3.6276028E0,1.01637825E2,9.039133E0,1.6720133E0,5.4870182E1,6.898709E0,1.4112661E1,1.2591254E0,1.7025303E0,7.2384906E0,1.9626622E0,1.6649406E0,9.498735E1,6.6504745E0,5.3231285E1,1.638898E0,1.3020894E1,1.091768E0,4.884539E0,1.7659354E0],"tree_param":{"num_deleted":"0","num_feature":"779","num_nodes":"31","size_leaf_vector":"1"}},{"base_weights":[2.1824777E0,3.6613595E0,1.1282398E0,8.9059156E-1,1.1054995E0,2.4094078E-1,2.0451557E-2,6.511859E-2,2.6073143E-1],"categories":[],"categories_nodes":[],"categories_segments":[],"categories_sizes":[],"default_left":[0,0,0,0,0,0,0,0,0],"id":37,"left_children":[1,3,5,-1,7,-1,-1,-1,-1],"loss_changes":[3.395726E1,1.3640076E1,9.0955544E-1,0E0,9.444666E-2,0E0,0E0,0E0,0E0],"parents":[2147483647,0,0,1,1,2,2,4,4],"right_children":[2,4,6,-1,8,-1,-1,-1,-1],"split_conditions":[-3.100579E-1,1.3479266E0,1.4663717E0,8.9059156E-1,1.4798224E0,2.4094078E-1,2.0451557E-2,6.511859E-2,2.6073143E-1],"split_indices":[563,748,355,0,202,0,0,0,0],"split_type":[0,0,0,0,0,0,0,0,0],"sum_hessian":[2.3429686E1,8.721792E0,1.4707894E1,6.1926928E0,2.5290992E0,1.369568E1,1.0122145E0,1.0057099E0,1.5233895E0],"tree_param":{"num_deleted":"0","num_feature":"779","num_nodes":"9","size_leaf_vector":"1"}},{"base_weights":[0E0],"categories":[],"categories_nodes":[],"categories_segments":[],"categories_sizes":[],"default_left":[0],"id":38,"left_children":[-1],"loss_changes":[0E0],"parents":[2147483647],"right_children":[-1],"split_conditions":[0E0],"split_indices":[0],"split_type":[0],"sum_hessian":[3.9218175E-1],"tree_param":{"num_deleted":"0","num_feature":"779","num_nodes":"1","size_leaf_vector":"1"}},{"base_weights":[3.4622142E0,7.3782735E0,1.2130595E0,8E0,9.835815E-1,1.0439751E0,8E0,8E0,1.3116478E0,1.0931814E0,-6.590911E-1,1.1439928E0,-8.360188E-1,1.616922E0,6.139092E-1,8E0,-1.777174E-1,7.266845E-2,8.145513E-1,5.796122E-1,1.0025526E0,-2.2174074E-1,9.6265465E-2,1.1617895E0,-1.5642983E-1,-1.0385997E0,2.0672745E-1,8E0,-2.1040788E-1,-1.9297366E-1,2.6771796E-1,2.0772754E-1,-1.3256679E-2,2.4222376E0,1.146295E0,-2.2629961E-1,4.7200304E-2,8E0,-1.4646392E-1,8.89691E-2,-1.4669865E-1,6.025381E-1,1.0990197E-1,1.1084713E0,2.808752E-1,8E0,-1.4656797E-1,2.2456357E-1,2.5065778E-2,8E0,-2.4359949E-1,1.616922E0,-1.4130193E-1,5.1665742E-2,-1.23956494E-1],"categories":[],"categories_nodes":[],"categories_segments":[],"categories_sizes":[],"default_left":[0,0,0,0,0,0,0,0,0,0,0,0,0,0,0,0,0,0,0,0,0,0,0,0,0,0,0,0,0,0,0,0,0,0,0,0,0,0,0,0,0,0,0,0,0,0,0,0,0,0,0,0,0,0,0],"id":39,"left_children":[1,3,5,7,9,11,13,15,17,19,21,23,25,-1,-1,27,-1,29,-1,-1,31,-1,-1,33,-1,35,-1,37,39,-1,-1,-1,-1,41,43,-1,-1,45,-1,-1,-1,-1,-1,47,-1,49,-1,-1,-1,51,53,-1,-1,-1,-1],"loss_changes":[5.8683887E3,3.038292E3,5.320049E2,1.9314326E3,1.2409584E1,7.935724E1,2.2871643E1,5.5416016E2,1.4994855E2,6.9740677E0,2.852328E0,1.4426514E1,9.211018E0,0E0,0E0,3.174922E2,0E0,4.1987457E1,0E0,0E0,1.6781082E0,0E0,0E0,4.9001465E0,0E0,2.3247204E0,0E0,2.0570703E2,2.217182E0,0E0,0E0,0E0,0E0,2.4473076E0,2.0515137E0,0E0,0E0,2.0342773E2,0E0,0E0,0E0,0E0,0E0,7.3776245E-1,0E0,2.0314453E2,0E0,0E0,0E0,1.8321484E2,8.823004E-1,0E0,0E0,0E0,0E0],"parents":[2147483647,0,0,1,1,2,2,3,3,4,4,5,5,6,6,7,7,8,8,9,9,10,10,11,11,12,12,15,15,17,17,20,20,23,23,25,25,27,27,28,28,33,33,34,34,37,37,43,43,45,45,49,49,50,50],"right_children":[2,4,6,8,10,12,14,16,18,20,22,24,26,-1,-1,28,-1,30,-1,-1,32,-1,-1,34,-1,36,-1,38,40,-1,-1,-1,-1,42,44,-1,-1,46,-1,-1,-1,-1,-1,48,-1,50,-1,-1,-1,52,54,-1,-1,-1,-1],"split_conditions":[-3.0284762E-1,-2.3978256E-1,1.579376E1,1.5815185E0,-7.837847E-2,1.9879762E0,-7.8678824E-2,-3.7158355E-1,3.9174175E0,-2.3763846E-1,7.2654283E-1,3.7466097E0,-6.3936114E-2,1.616922E0,6.139092E-1,2.0190479E-1,-1.777174E-1,1.0751889E0,8.145513E-1,5.796122E-1,4.0264173E0,-2.2174074E-1,9.6265465E-2,-2.04909E-1,-1.5642983E-1,1.190952E0,2.0672745E-1,-1.23052515E-1,-2.4027479E-1,-1.9297366E-1,2.6771796E-1,2.0772754E-1,-1.3256679E-2,-2.3978256E-1,8.762523E0,-2.2629961E-1,4.7200304E-2,3.3346918E0,-1.4646392E-1,8.89691E-2,-1.4669865E-1,6.025381E-1,1.0990197E-1,1.93706E0,2.808752E-1,3.3844035E0,-1.4656797E-1,2.2456357E-1,2.5065778E-2,-1.2880404E-1,7.505079E-1,1.616922E0,-1.4130193E-1,5.1665742E-2,-1.23956494E-1],"split_indices":[563,5,326,748,3,355,3,317,202,5,608,445,384,0,0,593,0,526,0,0,608,0,0,707,0,563,0,402,5,0,0,0,0,5,475,0,0,607,0,0,0,0,0,595,0,319,0,0,0,365,526,0,0,0,0],"split_type":[0,0,0,0,0,0,0,0,0,0,0,0,0,0,0,0,0,0,0,0,0,0,0,0,0,0,0,0,0,0,0,0,0,0,0,0,0,0,0,0,0,0,0,0,0,0,0,0,0,0,0,0,0,0,0],"sum_hessian":[6.6628613E2,2.4223837E2,4.2404776E2,1.783124E2,6.3925987E1,4.1595273E2,8.095022E0,1.3470584E2,4.3606556E1,6.0241177E1,3.6848097E0,3.9531314E2,2.0639599E1,5.5675535E0,2.527469E0,1.2786533E2,6.840501E0,3.0659765E1,1.2946793E1,1.4381887E0,5.880299E1,2.6833415E0,1.0014682E0,3.920694E2,3.243747E0,1.9009193E1,1.6304058E0,1.2320608E2,4.659259E0,1.6969952E1,1.3689814E1,5.7483795E1,1.3191938E0,2.8748841E0,3.8919452E2,1.7983212E1,1.0259817E0,1.206629E2,2.5431728E0,2.1240382E0,2.5352209E0,1.7632407E0,1.1116434E0,3.4165338E2,4.7541134E1,1.18150055E2,2.5128474E0,3.4062665E2,1.0267242E0,1.1521898E2,2.9310787E0,1.1295218E2,2.266799E0,1.3783543E0,1.5527244E0],"tree_param":{"num_deleted":"0","num_feature":"779","num_nodes":"55","size_leaf_vector":"1"}},{"base_weights":[3.7762961E0,8E0,1.8043694E0,8E0,-3.165695E-1,2.6312633E0,6.5573895E-1,8E0,-1.828335E-1,-1.9650854E-1,1.2092037E0,2.9137254E0,-9.140259E-1,5.10704E-1,8E0,8E0,-1.7908844E-1,8E0,2.7174811E0,-2.0024382E-1,1.482529E-1,7.6409996E-1,-7.678821E-1,1.616922E0,-4.295618E-1,8E0,5.3613245E-1,8E0,1.8865772E-1,2.6642804E0,1.616922E0,7.251998E-1,1.616922E0,-1.1734213E0,2.0245288E-1,3.6901487E-3,-1.2645113E-1,8E0,-1.1289798E-1,1.355631E-2,1.3964945E-1,1.616922E0,-1.2243316E-1,1.0580341E0,2.7997384E0,1.0233052E0,-5.729471E-1,-2.984333E-1,-2.1923174E-1,1.616922E0,-1.0933743E-1,2.1739182E-1,2.2548981E-2,-1.6621862E-1,2.8175178E0,9.809477E-1,1.4761024E0,-8.0418366E-1,1.616922E0,2.8605158E0,2.8614244E-1,1.07548E0,-9.0553653E-1,-9.639401E-1,1.8673073E-1,5.8329856E-1,2.1141063E-1,2.1015176E-1,8.5411483E-1,-2.1601735E-1,1.2555555E-1,-2.0211177E-1,1.1990049E-1],"categories":[],"categories_nodes":[],"categories_segments":[],"categories_sizes":[],"default_left":[0,0,0,0,0,0,0,0,0,0,0,0,0,0,0,0,0,0,0,0,0,0,0,0,0,0,0,0,0,0,0,0,0,0,0,0,0,0,0,0,0,0,0,0,0,0,0,0,0,0,0,0,0,0,0,0,0,0,0,0,0,0,0,0,0,0,0,0,0,0,0,0,0],"id":40,"left_children":[1,3,5,7,9,11,13,15,-1,-1,-1,17,19,21,23,25,-1,27,29,-1,-1,31,33,-1,35,37,39,41,-1,43,-1,45,-1,47,-1,-1,-1,49,-1,-1,-1,-1,-1,51,53,55,57,-1,-1,-1,-1,-1,-1,-1,59,61,-1,63,-1,65,-1,67,69,71,-1,-1,-1,-1,-1,-1,-1,-1,-1],"loss_changes":[2.072805E4,1.7977539E3,1.2090449E3,6.805156E2,1.1699646E2,7.4456494E2,6.5300024E2,2.3019531E2,0E0,0E0,0E0,7.1499365E2,7.732723E0,1.7138603E2,1.9460516E2,1.7152344E2,0E0,1.2989624E2,1.7716699E2,0E0,0E0,1.3167883E2,6.4107994E1,0E0,3.309859E-1,1.0000391E2,2.606486E-1,1.2174243E2,0E0,1.4054785E2,0E0,1.7065836E2,0E0,3.2983398E-1,0E0,0E0,0E0,9.3390625E1,0E0,0E0,0E0,0E0,0E0,7.5875473E-1,4.145117E1,8.8002716E1,1.7341113E2,0E0,0E0,0E0,0E0,0E0,0E0,0E0,3.241162E1,6.4553925E1,0E0,2.33876E1,0E0,2.4044922E1,0E0,3.3861115E1,5.039482E0,4.807251E0,0E0,0E0,0E0,0E0,0E0,0E0,0E0,0E0,0E0],"parents":[2147483647,0,0,1,1,2,2,3,3,4,4,5,5,6,6,7,7,11,11,12,12,13,13,14,14,15,15,17,17,18,18,21,21,22,22,24,24,25,25,26,26,27,27,29,29,31,31,33,33,37,37,43,43,44,44,45,45,46,46,54,54,55,55,57,57,59,59,61,61,62,62,63,63],"right_children":[2,4,6,8,10,12,14,16,-1,-1,-1,18,20,22,24,26,-1,28,30,-1,-1,32,34,-1,36,38,40,42,-1,44,-1,46,-1,48,-1,-1,-1,50,-1,-1,-1,-1,-1,52,54,56,58,-1,-1,-1,-1,-1,-1,-1,60,62,-1,64,-1,66,-1,68,70,72,-1,-1,-1,-1,-1,-1,-1,-1,-1],"split_conditions":[-7.794335E-1,1.5726411E0,-7.902923E-2,2.0190479E-1,2.399268E-1,2.1382304E-2,6.345366E0,2.4233198E-1,-1.828335E-1,-1.9650854E-1,1.2092037E0,-8.162228E-1,1.5508955E0,1.7661885E0,-2.399661E-1,-2.936658E-1,-1.7908844E-1,-3.0741993E-1,1.2662603E0,-2.0024382E-1,1.482529E-1,1.0678597E1,1.4489934E0,1.616922E0,-7.847859E-2,3.1862292E-1,3.1427565E0,2.9863542E-1,1.8865772E-1,1.4044861E0,1.616922E0,1.0004399E0,1.616922E0,2.3512843E0,2.0245288E-1,3.6901487E-3,-1.2645113E-1,2.5021368E-1,-1.1289798E-1,1.355631E-2,1.3964945E-1,1.616922E0,-1.2243316E-1,1.306114E0,-4.1941255E-1,1.6070637E1,2.3098817E-2,-2.984333E-1,-2.1923174E-1,1.616922E0,-1.0933743E-1,2.1739182E-1,2.2548981E-2,-1.6621862E-1,4.0080467E-1,1.447173E0,1.4761024E0,-3.224358E-1,1.616922E0,-2.4018301E-1,2.8614244E-1,1.1247909E0,-2.2827783E-1,-2.382308E-1,1.8673073E-1,5.8329856E-1,2.1141063E-1,2.1015176E-1,8.5411483E-1,-2.1601735E-1,1.2555555E-1,-2.0211177E-1,1.1990049E-1],"split_indices":[7,662,3,593,41,7,0,642,0,0,0,93,140,355,5,575,0,140,185,0,0,403,523,0,3,768,202,605,0,662,0,16,0,327,0,0,0,581,0,0,0,0,0,548,7,164,267,0,0,0,0,0,0,0,316,621,0,523,0,5,0,70,5,5,0,0,0,0,0,0,0,0,0],"split_type":[0,0,0,0,0,0,0,0,0,0,0,0,0,0,0,0,0,0,0,0,0,0,0,0,0,0,0,0,0,0,0,0,0,0,0,0,0,0,0,0,0,0,0,0,0,0,0,0,0,0,0,0,0,0,0,0,0,0,0,0,0,0,0,0,0,0,0,0,0,0,0,0,0],"sum_hessian":[1.5764401E3,3.026714E2,1.2737687E3,2.7675397E2,2.5917421E1,7.398577E2,5.3391095E2,2.6836435E2,8.389616E0,2.423996E1,1.6774615E0,6.854263E2,5.4431496E1,5.2617694E2,7.7340407E0,2.656386E2,2.7257378E0,2.2137924E1,6.632883E2,5.2390656E1,2.040839E0,4.3948096E2,8.6695946E1,5.094662E0,2.6393788E0,2.624109E2,3.2277203E0,1.9255075E1,2.882849E0,6.585785E2,4.709837E0,4.384803E2,1.0006825E0,7.0805824E1,1.5890121E1,1.0798951E0,1.5594835E0,2.6117197E2,1.2389389E0,1.1565821E0,2.0711381E0,1.7747044E1,1.5080321E0,5.190508E1,6.066734E2,3.5676483E2,8.171547E1,1.2491866E1,5.8313957E1,2.6001437E2,1.1575866E0,5.082624E1,1.078836E0,2.7422872E0,6.0393115E2,3.5552307E2,1.2417531E0,8.049041E1,1.225055E0,5.8494794E2,1.8983204E1,3.3896722E2,1.6555841E1,7.40837E1,6.4067125E0,5.7627344E2,8.674506E0,3.3648236E2,2.484851E0,1.5227596E1,1.3282454E0,7.2757454E1,1.3262475E0],"tree_param":{"num_deleted":"0","num_feature":"779","num_nodes":"73","size_leaf_vector":"1"}},{"base_weights":[0E0],"categories":[],"categories_nodes":[],"categories_segments":[],"categories_sizes":[],"default_left":[0],"id":41,"left_children":[-1],"loss_changes":[0E0],"parents":[2147483647],"right_children":[-1],"split_conditions":[0E0],"split_indices":[0],"split_type":[0],"sum_hessian":[0E0],"tree_param":{"num_deleted":"0","num_feature":"779","num_nodes":"1","size_leaf_vector":"1"}},{"base_weights":[-4.8714967E0,-7.7814827E0,-3.617214E-1,-1.616922E0,-2.0688486E-1],"categories":[],"categories_nodes":[],"categories_segments":[],"categories_sizes":[],"default_left":[0,0,0,0,0],"id":42,"left_children":[1,3,-1,-1,-1],"loss_changes":[4.794812E1,4.214067E1,0E0,0E0,0E0],"parents":[2147483647,0,0,1,1],"right_children":[2,4,-1,-1,-1],"split_conditions":[-3.7245515E-1,4.676703E-1,-3.617214E-1,-1.616922E0,-2.0688486E-1],"split_indices":[317,0,0,0,0],"split_type":[0,0,0,0,0],"sum_hessian":[5.8994355E0,2.2499604E0,3.6494753E0,1.0659564E0,1.184004E0],"tree_param":{"num_deleted":"0","num_feature":"779","num_nodes":"5","size_leaf_vector":"1"}},{"base_weights":[0E0],"categories":[],"categories_nodes":[],"categories_segments":[],"categories_sizes":[],"default_left":[0],"id":43,"left_children":[-1],"loss_changes":[0E0],"parents":[2147483647],"right_children":[-1],"split_conditions":[0E0],"split_indices":[0],"split_type":[0],"sum_hessian":[5.5589573E-3],"tree_param":{"num_deleted":"0","num_feature":"779","num_nodes":"1","size_leaf_vector":"1"}},{"base_weights":[0E0],"categories":[],"categories_nodes":[],"categories_segments":[],"categories_sizes":[],"default_left":[0],"id":44,"left_children":[-1],"loss_changes":[0E0],"parents":[2147483647],"right_children":[-1],"split_conditions":[0E0],"split_indices":[0],"split_type":[0],"sum_hessian":[0E0],"tree_param":{"num_deleted":"0","num_feature":"779","num_nodes":"1","size_leaf_vector":"1"}},{"base_weights":[-7.3288E0],"categories":[],"categories_nodes":[],"categories_segments":[],"categories_sizes":[],"default_left":[0],"id":45,"left_children":[-1],"loss_changes":[0E0],"parents":[2147483647],"right_children":[-1],"split_conditions":[-1.4812623E0],"split_indices":[0],"split_type":[0],"sum_hessian":[1.8163695E0],"tree_param":{"num_deleted":"0","num_feature":"779","num_nodes":"1","size_leaf_vector":"1"}},{"base_weights":[-7.215103E0,-8E0,-1.351256E0,-8E0,-1.974568E0,-1.5939698E0,-6.271352E-1,-8E0,-2.3710217E-1,-5.015736E-2,-4.5473152E-1,-3.5328525E-1,-1.4146553E-1,-1.788865E-1,-2.6087707E-1,-8E0,-1.8950033E-1,-1.8775115E-2,-8.2654834E-2,-8E0,-1.6877009E-1,-1.616922E0,-4.9921864E-1],"categories":[],"categories_nodes":[],"categories_segments":[],"categories_sizes":[],"default_left":[0,0,0,0,0,0,0,0,0,0,0,0,0,0,0,0,0,0,0,0,0,0,0],"id":46,"left_children":[1,3,5,7,9,11,13,15,-1,-1,-1,-1,-1,-1,17,19,-1,-1,-1,21,-1,-1,-1],"loss_changes":[9.077256E2,1.8280566E2,2.9674988E0,1.13493164E2,2.6725388E0,1.0144386E0,4.60176E-1,7.351001E1,0E0,0E0,0E0,0E0,0E0,0E0,7.247019E-2,6.5111084E1,0E0,0E0,0E0,4.8690918E1,0E0,0E0,0E0],"parents":[2147483647,0,0,1,1,2,2,3,3,4,4,5,5,6,6,7,7,14,14,15,15,19,19],"right_children":[2,4,6,8,10,12,14,16,-1,-1,-1,-1,-1,-1,18,20,-1,-1,-1,22,-1,-1,-1],"split_conditions":[-3.728037E-1,-2.401413E-1,-2.4026644E-1,-1.3775928E-1,4.753585E-1,5.178521E0,7.601744E-1,1.6493971E0,-2.3710217E-1,-5.015736E-2,-4.5473152E-1,-3.5328525E-1,-1.4146553E-1,-1.788865E-1,1.3499403E0,-1.2347252E-1,-1.8950033E-1,-1.8775115E-2,-8.2654834E-2,-1.3270299E-1,-1.6877009E-1,-1.616922E0,-4.9921864E-1],"split_indices":[317,5,5,319,16,768,766,745,0,0,0,0,0,0,691,402,0,0,0,336,0,0,0],"split_type":[0,0,0,0,0,0,0,0,0,0,0,0,0,0,0,0,0,0,0,0,0,0,0],"sum_hessian":[4.1351578E1,1.9779503E1,2.1572077E1,1.398154E1,5.797963E0,1.5256941E1,6.315135E0,1.1173212E1,2.8083286E0,1.0589018E0,4.7390614E0,1.2200684E1,3.0562575E0,2.8743532E0,3.4407816E0,9.416258E0,1.7569537E0,2.3744164E0,1.0663654E0,7.901291E0,1.5149668E0,5.2163196E0,2.6849716E0],"tree_param":{"num_deleted":"0","num_feature":"779","num_nodes":"23","size_leaf_vector":"1"}},{"base_weights":[0E0],"categories":[],"categories_nodes":[],"categories_segments":[],"categories_sizes":[],"default_left":[0],"id":47,"left_children":[-1],"loss_changes":[0E0],"parents":[2147483647],"right_children":[-1],"split_conditions":[0E0],"split_indices":[0],"split_type":[0],"sum_hessian":[0E0],"tree_param":{"num_deleted":"0","num_feature":"779","num_nodes":"1","size_leaf_vector":"1"}},{"base_weights":[0E0],"categories":[],"categories_nodes":[],"categories_segments":[],"categories_sizes":[],"default_left":[0],"id":48,"left_children":[-1],"loss_changes":[0E0],"parents":[2147483647],"right_children":[-1],"split_conditions":[0E0],"split_indices":[0],"split_type":[0],"sum_hessian":[0E0],"tree_param":{"num_deleted":"0","num_feature":"779","num_nodes":"1","size_leaf_vector":"1"}},{"base_weights":[-8E0],"categories":[],"categories_nodes":[],"categories_segments":[],"categories_sizes":[],"default_left":[0],"id":49,"left_children":[-1],"loss_changes":[0E0],"parents":[2147483647],"right_children":[-1],"split_conditions":[-1.616922E0],"split_indices":[0],"split_type":[0],"sum_hessian":[1.7077614E0],"tree_param":{"num_deleted":"0","num_feature":"779","num_nodes":"1","size_leaf_vector":"1"}},{"base_weights":[-8E0,-8E0,-2.04517E0,-8E0,-1.7903463E0,-2.0991101E0,5.07375E-1,-8E0,-3.0387396E-1,-6.0040604E-2,-2.3393524E0,-2.2952325E0,-1.5069194E0,1.8032788E-1,-1.2710579E-1,-8E0,-2.9384935E-1,6.4170426E-1,-8.6682034E-1,-2.0500035E0,-5.2030954E0,-2.3787203E0,-2.7001494E-1,-1.5730882E0,-2.1305473E-1,-8E0,-3.5658598E-1,1.972932E-1,-1.2309142E-1,6.3465014E-2,-1.1191446E0,-2.2622147E0,-1.8568254E-1,-1.3049457E0,-2.4207717E-1,-2.1749034E0,-5.541805E-1,-3.2431254E-1,-1.3968042E-1,-8E0,-6.646803E-1,-1.009527E-1,-2.66424E-1,-2.699591E0,-2.596667E-1,-1.9854828E0,-6.040841E-1,-8E0,4.5631118E-2,-3.270736E0,-3.0942085E-1,-2.0614057E0,1.9060147E-1,-1.616922E0,-4.583044E-1,8.211969E-2,-9.488066E-2,-1.391767E0,-7.113177E-1,-2.1699443E0,-2.623633E-1,-3.5736084E-1,-6.357109E-2,-4.4721964E-1,-1.1039902E-1],"categories":[],"categories_nodes":[],"categories_segments":[],"categories_sizes":[],"default_left":[0,0,0,0,0,0,0,0,0,0,0,0,0,0,0,0,0,0,0,0,0,0,0,0,0,0,0,0,0,0,0,0,0,0,0,0,0,0,0,0,0,0,0,0,0,0,0,0,0,0,0,0,0,0,0,0,0,0,0,0,0,0,0,0,0],"id":50,"left_children":[1,3,5,7,9,11,13,15,-1,17,19,21,23,-1,-1,25,-1,27,29,31,33,35,-1,37,-1,39,-1,-1,-1,-1,41,43,-1,-1,-1,45,-1,-1,-1,47,-1,-1,-1,49,-1,51,-1,53,55,57,-1,59,-1,-1,-1,-1,-1,61,-1,63,-1,-1,-1,-1,-1],"loss_changes":[9.053633E3,2.2053945E3,3.6466675E1,1.3052305E3,5.5767715E1,2.5809082E1,3.239933E0,1.0621875E3,0E0,9.163007E0,2.6332932E1,1.1830017E1,3.0737305E-1,0E0,0E0,9.0434766E2,0E0,4.2356634E0,2.5852199E0,8.053955E0,9.573326E0,6.7026978E0,0E0,4.2514038E-1,0E0,6.805117E2,0E0,0E0,0E0,0E0,1.3048267E-1,1.14326935E1,0E0,0E0,0E0,1.1708557E1,0E0,0E0,0E0,1.8269531E2,0E0,0E0,0E0,1.0459503E1,0E0,2.3246582E1,0E0,7.558984E1,8.987101E-1,1.9621887E0,0E0,4.946533E0,0E0,0E0,0E0,0E0,0E0,8.1018734E-1,0E0,4.3829346E0,0E0,0E0,0E0,0E0,0E0],"parents":[2147483647,0,0,1,1,2,2,3,3,4,4,5,5,6,6,7,7,9,9,10,10,11,11,12,12,15,15,17,17,18,18,19,19,20,20,21,21,23,23,25,25,30,30,31,31,35,35,39,39,43,43,45,45,47,47,48,48,49,49,51,51,57,57,59,59],"right_children":[2,4,6,8,10,12,14,16,-1,18,20,22,24,-1,-1,26,-1,28,30,32,34,36,-1,38,-1,40,-1,-1,-1,-1,42,44,-1,-1,-1,46,-1,-1,-1,48,-1,-1,-1,50,-1,52,-1,54,56,58,-1,60,-1,-1,-1,-1,-1,62,-1,64,-1,-1,-1,-1,-1],"split_conditions":[-3.7298802E-1,-2.4012461E-1,-2.4520032E-2,5.029129E0,7.339062E-1,1.6831852E-1,2.6980946E0,-1.2409599E-1,-3.0387396E-1,8.7541866E-1,4.2667155E0,-1.5416281E-1,5.851523E0,1.8032788E-1,-1.2710579E-1,1.6493971E0,-2.9384935E-1,9.9791425E-1,3.0916694E-1,2.8422394E-1,-7.872888E-2,3.6259208E0,-2.7001494E-1,4.351778E-2,-2.1305473E-1,-1.3276097E-1,-3.5658598E-1,1.972932E-1,-1.2309142E-1,6.3465014E-2,4.4923696E-1,1.95697E0,-1.8568254E-1,-1.3049457E0,-2.4207717E-1,2.3929982E0,-5.541805E-1,-3.2431254E-1,-1.3968042E-1,-3.0284762E-1,-6.646803E-1,-1.009527E-1,-2.66424E-1,-7.865379E-2,-2.596667E-1,-4.693167E-1,-6.040841E-1,3.8252165E0,-1.5619776E-1,9.198007E-1,-3.0942085E-1,3.413745E-1,1.9060147E-1,-1.616922E0,-4.583044E-1,8.211969E-2,-9.488066E-2,-4.693167E-1,-7.113177E-1,8.983173E0,-2.623633E-1,-3.5736084E-1,-6.357109E-2,-4.4721964E-1,-1.1039902E-1],"split_indices":[317,5,296,555,733,768,501,402,0,355,355,642,615,0,0,745,0,764,120,758,3,745,0,70,0,336,0,0,0,0,676,15,0,0,0,299,0,0,0,563,0,0,0,3,0,703,0,540,445,0,0,544,0,0,0,0,0,703,0,109,0,0,0,0,0],"split_type":[0,0,0,0,0,0,0,0,0,0,0,0,0,0,0,0,0,0,0,0,0,0,0,0,0,0,0,0,0,0,0,0,0,0,0,0,0,0,0,0,0,0,0,0,0,0,0,0,0,0,0,0,0,0,0,0,0,0,0,0,0,0,0,0,0],"sum_hessian":[4.909731E2,2.3484865E2,2.5612448E2,1.7699475E2,5.785389E1,2.5099808E2,5.12641E0,1.4555223E2,3.1442524E1,1.4202176E1,4.3651714E1,1.8639252E2,6.460556E1,3.9898908E0,1.136519E0,1.2027129E2,2.5280941E1,7.704948E0,6.497228E0,4.120433E1,2.4473839E0,1.7010817E2,1.6284348E1,5.420952E1,1.0396045E1,9.636798E1,2.3903315E1,6.2525706E0,1.4523776E0,1.1008822E0,5.3963456E0,3.3854282E1,7.3500466E0,1.3979869E0,1.0493969E0,1.1343647E2,5.6671696E1,5.154897E1,2.6605496E0,6.3827003E1,3.2540974E1,2.1651113E0,3.2312346E0,2.2171604E1,1.168268E1,9.481064E1,1.8625828E1,6.101597E1,2.8110342E0,1.3684959E1,8.486644E0,9.270336E1,2.107278E0,5.776828E1,3.247688E0,1.7775217E0,1.0335125E0,2.3702302E0,1.131473E1,7.954925E1,1.3154117E1,1.2812794E0,1.0889508E0,7.715506E1,2.3941844E0],"tree_param":{"num_deleted":"0","num_feature":"779","num_nodes":"65","size_leaf_vector":"1"}},{"base_weights":[-8E0,-8E0,-1.9165145E0,-8E0,-1.7714859E0,-1.9813688E0,2.161486E-1,-8E0,-1.544326E0,-2.6738615E0,4.1301438E-1,-1.906432E0,-3.8588712E0,-8E0,-1.6159856E0,-7.641322E-2,-3.1413075E-1,-3.4591365E0,-1.7972386E0,5.8920825E-1,-1.6011878E0,-2.064479E0,-1.5155021E0,-1.0533348E0,-5.743608E-1,-8E0,-1.5592515E0,-1.3929347E0,-3.014762E0,-4.0747285E0,-1.8615371E0,-1.8635466E0,1.6901104E-1,7.972918E-1,-7.759737E-1,-7.003867E-1,-2.0827493E-1,-2.1628065E0,-1.1988713E0,-1.5324025E0,2.5552925E-1,-8E0,-3.299956E0,3.8542008E-1,-1.6440378E0,-1.2792841E0,-3.6902153E0,-3.3983512E0,-2.526766E-1,-4.6802425E0,-2.424164E-1,-5.121795E-1,-3.0354664E-1,-1.9209161E0,1.5597299E-1,8.957104E-1,-1.7367354E-1,1.3164435E-1,-1.9565068E-1,-1.9661252E0,-2.4790955E0,-1.2751426E0,3.9081374E-1,-1.7273399E0,-1.3095362E0,-8E0,-7.704595E-2,-3.7809298E0,-5.7789433E-1,-2.9608414E-1,-1.8407652E0,-3.0497336E-1,-1.3362596E0,-2.9846853E-1,-8.807894E-1,-1.5332502E-1,-7.5830734E-1,-5.3407755E0,-1.3104172E0,-2.3947737E0,-1.4938512E0,9.735064E-1,-7.086051E-1,-2.0874016E0,-1.1941781E0,-5.2252245E-1,-4.550832E-1,-2.2713308E-1,-2.7696744E-1,-1.8559415E0,-2.8116858E-1,-1.3338736E0,1.8255915E-1,-8E0,-2.7128992E0,4.9500203E-1,-1.7605722E-1,-1.940573E-1,-7.69722E-1,-6.330797E-1,-2.853788E-1,-2.6396435E-1,2.1695557E-1,-2.811792E-1,-1.9341709E-1,-1.616922E0,-4.43328E0,-2.8187633E-1,-4.9468905E-2,-2.8845327E0,-1.7313826E0,-4.2776954E-1,-2.730736E-1,1.0347E0,-5.213573E-1,-2.9739846E-2,-1.6428444E-1,-2.1052983E0,2.875589E-1,-1.294259E0,3.858992E-1,-4.2164996E-1,-2.7599934E-1,-2.5658727E-1,-3.013622E-1,-1.616922E0,6.016006E-2,-5.9845406E-1,1.4576274E-1,-2.3441742E-1,1.8298934E-1,-8.2287896E-1,-1.616922E0,-6.4222914E-1,-3.2790643E-1,-4.7402114E-1,-2.8257576E-1,2.1203437E-1,-1.5330718E-2,1.0745444E-1,-2.1050513E-1,-4.2943016E-1,1.7118381E-1,-2.361028E-1,-5.031268E-1],"categories":[],"categories_nodes":[],"categories_segments":[],"categories_sizes":[],"default_left":[0,0,0,0,0,0,0,0,0,0,0,0,0,0,0,0,0,0,0,0,0,0,0,0,0,0,0,0,0,0,0,0,0,0,0,0,0,0,0,0,0,0,0,0,0,0,0,0,0,0,0,0,0,0,0,0,0,0,0,0,0,0,0,0,0,0,0,0,0,0,0,0,0,0,0,0,0,0,0,0,0,0,0,0,0,0,0,0,0,0,0,0,0,0,0,0,0,0,0,0,0,0,0,0,0,0,0,0,0,0,0,0,0,0,0,0,0,0,0,0,0,0,0,0,0,0,0,0,0,0,0,0,0,0,0,0,0,0,0,0,0,0,0,0,0],"id":51,"left_children":[1,3,5,7,9,11,-1,13,15,17,19,21,23,25,27,-1,-1,29,31,33,35,37,39,-1,-1,41,43,45,47,49,51,53,-1,55,57,-1,-1,59,61,63,-1,65,67,-1,69,71,73,75,-1,77,-1,-1,-1,79,-1,81,-1,-1,-1,83,85,87,-1,89,91,93,95,97,-1,-1,99,101,103,-1,-1,-1,-1,105,107,109,111,113,115,117,119,-1,-1,-1,-1,121,-1,123,-1,125,127,129,-1,-1,-1,-1,-1,-1,-1,-1,-1,-1,131,-1,-1,133,135,-1,-1,137,139,-1,-1,141,-1,143,-1,-1,-1,-1,-1,-1,-1,-1,-1,-1,-1,-1,-1,-1,-1,-1,-1,-1,-1,-1,-1,-1,-1,-1,-1],"loss_changes":[5.894558E4,1.6602219E4,3.1089062E2,8.265531E3,8.4795703E2,2.1225635E2,0E0,5.8465938E3,1.7176514E0,2.0315894E2,4.581958E1,8.9734375E1,6.62738E1,4.91025E3,4.1047913E1,0E0,0E0,1.4913464E2,2.7017578E1,3.3858006E1,7.5364666E0,8.826807E1,2.2442383E1,0E0,0E0,3.9133125E3,3.837491E1,2.842099E1,8.670731E0,1.9319641E2,7.362015E0,2.303009E1,0E0,1.7403961E1,5.011427E0,0E0,0E0,5.4683594E1,2.9018799E1,1.6605286E1,0E0,9.6821875E2,2.7355347E1,0E0,1.4465942E0,6.391815E0,1.623497E0,1.124115E1,0E0,2.021914E2,0E0,0E0,0E0,2.4709106E1,0E0,1.2770798E1,0E0,0E0,0E0,5.322461E1,2.9526367E0,3.211975E-2,0E0,7.298584E0,1.2339386E1,5.9128125E2,7.900395E0,2.7583008E0,0E0,0E0,2.4451889E1,1.2526928E1,1.0731506E0,0E0,0E0,0E0,0E0,2.6423218E2,1.1598587E0,1.5994629E1,3.9120178E0,9.022934E0,1.7622113E-1,3.5221924E1,2.8295029E1,0E0,0E0,0E0,0E0,1.547644E1,0E0,1.7999268E-1,0E0,2.08E2,2.210408E1,7.9738226E0,0E0,0E0,0E0,0E0,0E0,0E0,0E0,0E0,0E0,0E0,8.1756226E1,0E0,0E0,8.03363E0,2.8468094E0,0E0,0E0,1.5073776E0,2.915534E0,0E0,0E0,3.1027344E1,0E0,9.319595E0,0E0,0E0,0E0,0E0,0E0,0E0,0E0,0E0,0E0,0E0,0E0,0E0,0E0,0E0,0E0,0E0,0E0,0E0,0E0,0E0,0E0,0E0,0E0,0E0,0E0],"parents":[2147483647,0,0,1,1,2,2,3,3,4,4,5,5,7,7,8,8,9,9,10,10,11,11,12,12,13,13,14,14,17,17,18,18,19,19,20,20,21,21,22,22,25,25,26,26,27,27,28,28,29,29,30,30,31,31,33,33,34,34,37,37,38,38,39,39,41,41,42,42,44,44,45,45,46,46,47,47,49,49,53,53,55,55,59,59,60,60,61,61,63,63,64,64,65,65,66,66,67,67,70,70,71,71,72,72,77,77,78,78,79,79,80,80,81,81,82,82,83,83,84,84,89,89,91,91,93,93,94,94,95,95,106,106,109,109,110,110,113,113,114,114,117,117,119,119],"right_children":[2,4,6,8,10,12,-1,14,16,18,20,22,24,26,28,-1,-1,30,32,34,36,38,40,-1,-1,42,44,46,48,50,52,54,-1,56,58,-1,-1,60,62,64,-1,66,68,-1,70,72,74,76,-1,78,-1,-1,-1,80,-1,82,-1,-1,-1,84,86,88,-1,90,92,94,96,98,-1,-1,100,102,104,-1,-1,-1,-1,106,108,110,112,114,116,118,120,-1,-1,-1,-1,122,-1,124,-1,126,128,130,-1,-1,-1,-1,-1,-1,-1,-1,-1,-1,132,-1,-1,134,136,-1,-1,138,140,-1,-1,142,-1,144,-1,-1,-1,-1,-1,-1,-1,-1,-1,-1,-1,-1,-1,-1,-1,-1,-1,-1,-1,-1,-1,-1,-1,-1,-1],"split_conditions":[-3.7236708E-1,-2.4013296E-1,-3.100579E-1,5.029129E0,-3.100579E-1,-5.941319E-2,2.161486E-1,1.6456134E0,7.052504E0,-2.4004953E-1,4.4990277E0,1.6877307E-1,-2.814045E-1,2.92878E0,1.7935402E0,-7.641322E-2,-3.1413075E-1,1.2909778E0,5.322401E-1,3.4880986E0,1.2805384E0,-1.0269426E-1,9.074249E0,-1.0533348E0,-5.743608E-1,-1.3084112E-1,5.81715E-1,3.6259208E0,1.7107115E0,-1.5745334E-1,-2.4012461E-1,-6.931594E-2,1.6901104E-1,1.1943703E0,-6.095359E-1,-7.003867E-1,-2.0827493E-1,2.5194724E0,-9.059666E-2,-9.745189E-2,2.5552925E-1,-3.100579E-1,1.6624999E-1,3.8542008E-1,9.198007E-1,-2.4027479E-1,-8.460585E-1,-2.4027479E-1,-2.526766E-1,-2.4682598E-1,-2.424164E-1,-5.121795E-1,-3.0354664E-1,2.4269023E0,1.5597299E-1,2.0331523E0,-1.7367354E-1,1.3164435E-1,-1.9565068E-1,3.439951E-1,3.439951E-1,-2.4028313E-1,3.9081374E-1,3.662248E0,1.7032826E-1,1.8681009E0,3.2051268E0,5.3710455E-1,-5.7789433E-1,-2.9608414E-1,-2.4020804E-1,4.7336254E-2,1.5521178E1,-2.9846853E-1,-8.807894E-1,-1.5332502E-1,-7.5830734E-1,-2.4012461E-1,6.796401E-1,9.014079E-2,4.3383715E-1,-3.8358712E-1,2.5557299E0,5.467138E-1,1.9156797E-1,-5.2252245E-1,-4.550832E-1,-2.2713308E-1,-2.7696744E-1,4.4633946E0,-2.8116858E-1,6.427423E0,1.8255915E-1,1.261487E-1,8.0340105E-1,-4.132266E-1,-1.7605722E-1,-1.940573E-1,-7.69722E-1,-6.330797E-1,-2.853788E-1,-2.6396435E-1,2.1695557E-1,-2.811792E-1,-1.9341709E-1,-1.616922E0,3.7313023E0,-2.8187633E-1,-4.9468905E-2,-2.3978256E-1,-4.1835368E-1,-4.2776954E-1,-2.730736E-1,1.0530527E0,4.474427E-1,-2.9739846E-2,-1.6428444E-1,-4.2577365E-1,2.875589E-1,-1.1632718E-1,3.858992E-1,-4.2164996E-1,-2.7599934E-1,-2.5658727E-1,-3.013622E-1,-1.616922E0,6.016006E-2,-5.9845406E-1,1.4576274E-1,-2.3441742E-1,1.8298934E-1,-8.2287896E-1,-1.616922E0,-6.4222914E-1,-3.2790643E-1,-4.7402114E-1,-2.8257576E-1,2.1203437E-1,-1.5330718E-2,1.0745444E-1,-2.1050513E-1,-4.2943016E-1,1.7118381E-1,-2.361028E-1,-5.031268E-1],"split_indices":[317,5,563,555,563,260,0,745,319,5,636,768,7,204,750,0,0,15,199,355,327,642,381,0,0,336,733,745,7,204,5,300,0,16,16,0,0,745,299,748,0,563,0,0,0,5,93,5,0,202,0,0,0,0,0,365,0,0,0,544,544,5,0,179,484,748,445,7,0,0,5,181,79,0,0,0,0,5,748,651,7,130,642,110,94,0,0,0,0,547,0,691,0,356,140,7,0,0,0,0,0,0,0,0,0,0,120,0,0,5,7,0,0,178,222,0,0,140,0,93,0,0,0,0,0,0,0,0,0,0,0,0,0,0,0,0,0,0,0,0,0,0,0,0,0],"split_type":[0,0,0,0,0,0,0,0,0,0,0,0,0,0,0,0,0,0,0,0,0,0,0,0,0,0,0,0,0,0,0,0,0,0,0,0,0,0,0,0,0,0,0,0,0,0,0,0,0,0,0,0,0,0,0,0,0,0,0,0,0,0,0,0,0,0,0,0,0,0,0,0,0,0,0,0,0,0,0,0,0,0,0,0,0,0,0,0,0,0,0,0,0,0,0,0,0,0,0,0,0,0,0,0,0,0,0,0,0,0,0,0,0,0,0,0,0,0,0,0,0,0,0,0,0,0,0,0,0,0,0,0,0,0,0,0,0,0,0,0,0,0,0,0,0],"sum_hessian":[3.0495002E3,1.456026E3,1.5934744E3,1.0274219E3,4.2860403E2,1.5599294E3,3.3544933E1,8.285555E2,1.9886646E2,3.0315317E2,1.2545085E2,1.5019957E3,5.793377E1,6.845313E2,1.4402414E2,2.0021005E0,1.9686436E2,1.5835422E2,1.4479895E2,1.1601025E2,9.440611E0,1.066532E3,4.3546378E2,2.3095255E1,3.4838512E1,5.6562103E2,1.1891028E2,1.2593775E2,1.8086393E1,1.13189255E2,4.516496E1,1.4152776E2,3.271195E0,1.01027435E2,1.4982808E1,1.0240215E0,8.41659E0,9.563932E2,1.10138725E2,4.3327826E2,2.185506E0,3.8657477E2,1.7904626E2,2.3260741E0,1.16584206E2,1.2148456E2,4.4531918E0,1.409629E1,3.9901032E0,9.2980774E1,2.0208483E1,1.363131E1,3.153365E1,1.3877763E2,2.7501273E0,9.579543E1,5.232005E0,1.4932137E0,1.3489594E1,5.9414557E2,3.6224765E2,1.08099594E2,2.0391278E0,2.2751996E2,2.057583E2,3.711308E2,1.5443975E1,8.198981E1,9.705646E1,6.544562E1,5.1138584E1,7.0626287E0,1.1442193E2,1.7762126E0,2.676979E0,2.0363166E0,1.2059973E1,7.725319E1,1.5727584E1,6.360075E1,7.517689E1,9.174E1,4.0554338E0,5.120034E2,8.214215E1,2.3991277E2,1.22334885E2,4.6682503E1,6.1417095E1,1.613013E2,6.621865E1,2.0391275E2,1.8455511E0,3.4868906E2,2.2441727E1,9.195661E0,6.2483153E0,1.1355293E0,8.085428E1,1.1175302E1,3.9963284E1,4.121781E0,2.940848E0,9.7618706E1,1.6803226E1,8.9533205E0,6.8299866E1,1.4289637E1,1.4379475E0,3.4662476E1,2.8938274E1,1.1444566E1,6.3732323E1,8.842795E1,3.3120492E0,1.0125283E0,3.0429053E0,5.0980438E2,2.199037E0,8.014074E1,2.0014107E0,1.0755056E2,5.3750744E1,1.511079E2,5.280486E1,3.457387E2,2.9503624E0,2.1058386E1,1.3833416E0,1.4643506E0,7.73131E0,6.556258E1,2.7372923E0,2.6900145E1,7.762329E0,8.058241E0,2.0880033E1,8.7352486E1,1.0754591E0,1.0877954E0,2.2242537E0,5.0675787E2,3.0464966E0,7.428029E1,5.860453E0],"tree_param":{"num_deleted":"0","num_feature":"779","num_nodes":"145","size_leaf_vector":"1"}},{"base_weights":[-8E0,-8E0,-2.0918272E0,-8E0,-1.5826163E0,1.9753556E-1,-2.216819E0,-8E0,-3.1106663E-1,2.827572E-1,-2.3541155E0,-2.4767418E0,-1.6155617E0,-8E0,-2.0916264E0,7.683309E-1,-2.0964518E-1,-2.7102036E0,-1.2783483E0,-2.583471E0,-2.835919E-1,-1.6540419E0,-2.317346E-1,-8E0,-3.2504463E-1,-1.8075044E0,-3.1786807E0,8.7973416E-1,-2.8540188E-1,-3.1349018E0,-2.958124E-1,-2.7586514E-1,3.2718062E-2,-2.5205157E0,-4.125388E0,-1.7605399E0,-2.8134814E-1,-8E0,-3.376264E0,-5.0294125E-1,-3.0925226E-1,-7.164385E-1,-1.8369107E-1,-2.0971908E-1,1.974657E-1,-3.5082197E0,-2.228549E-1,-2.252488E0,-6.004193E-1,-9.793649E-1,-4.7792947E-1,-1.8767943E0,-2.702712E-1,-8E0,9.214767E-3,-7.5510895E-1,-5.7364684E-1,-3.6898239E0,-1.5291724E-1,-2.3642066E0,-1.4216726E0,-4.4536394E-1,-3.091763E-1,-8E0,-3.296187E0,1.3704352E-1,-1.5044647E-1,-3.9320977E0,-2.572767E-1,-2.4686077E0,-3.185037E-1,-2.554302E-1,-4.3187153E-1,-1.616922E0,1.2411525E-1,-7.2849244E-1,-1.7389181E-1,-8.9918184E-1,-5.4827404E-1,-4.747561E-1,-6.6229016E-1],"categories":[],"categories_nodes":[],"categories_segments":[],"categories_sizes":[],"default_left":[0,0,0,0,0,0,0,0,0,0,0,0,0,0,0,0,0,0,0,0,0,0,0,0,0,0,0,0,0,0,0,0,0,0,0,0,0,0,0,0,0,0,0,0,0,0,0,0,0,0,0,0,0,0,0,0,0,0,0,0,0,0,0,0,0,0,0,0,0,0,0,0,0,0,0,0,0,0,0,0,0],"id":52,"left_children":[1,3,5,7,9,-1,11,13,-1,15,17,19,21,23,25,27,-1,29,31,33,-1,35,-1,37,-1,39,41,43,-1,45,-1,-1,-1,47,49,51,-1,53,55,-1,-1,-1,-1,-1,-1,57,-1,59,-1,-1,-1,61,-1,63,65,-1,-1,67,-1,69,71,-1,-1,73,75,-1,-1,77,-1,79,-1,-1,-1,-1,-1,-1,-1,-1,-1,-1,-1],"loss_changes":[2.0335906E4,6.118547E3,2.2636035E2,3.1673828E3,2.1671533E2,0E0,8.380542E1,1.8044531E3,0E0,2.9522652E1,3.7258667E1,4.110913E1,1.2160645E0,1.7989141E3,1.078566E1,9.340315E0,0E0,3.7225647E1,3.75206E0,2.3956299E1,0E0,1.9336853E0,0E0,1.4947266E3,0E0,4.645859E0,4.8975067E0,7.043556E0,0E0,4.0160767E1,0E0,0E0,0E0,3.4645264E1,4.1549683E0,2.8023071E0,0E0,3.8896094E2,3.5094604E0,0E0,0E0,0E0,0E0,0E0,0E0,2.1478577E1,0E0,1.6954346E1,0E0,0E0,0E0,5.951294E0,0E0,1.3182031E2,4.0637593E0,0E0,0E0,2.1522583E1,0E0,1.1864868E1,5.118828E-1,0E0,0E0,1.2663281E2,3.5418625E0,0E0,0E0,1.3576782E1,0E0,8.481079E0,0E0,0E0,0E0,0E0,0E0,0E0,0E0,0E0,0E0,0E0,0E0],"parents":[2147483647,0,0,1,1,2,2,3,3,4,4,6,6,7,7,9,9,10,10,11,11,12,12,13,13,14,14,15,15,17,17,18,18,19,19,21,21,23,23,25,25,26,26,27,27,29,29,33,33,34,34,35,35,37,37,38,38,45,45,47,47,51,51,53,53,54,54,57,57,59,59,60,60,63,63,64,64,67,67,69,69],"right_children":[2,4,6,8,10,-1,12,14,-1,16,18,20,22,24,26,28,-1,30,32,34,-1,36,-1,38,-1,40,42,44,-1,46,-1,-1,-1,48,50,52,-1,54,56,-1,-1,-1,-1,-1,-1,58,-1,60,-1,-1,-1,62,-1,64,66,-1,-1,68,-1,70,72,-1,-1,74,76,-1,-1,78,-1,80,-1,-1,-1,-1,-1,-1,-1,-1,-1,-1,-1],"split_conditions":[-3.7347165E-1,-2.4012461E-1,6.621875E-1,5.029129E0,3.977872E-1,1.9753556E-1,1.8440428E0,1.6542935E0,-3.1106663E-1,2.1612859E0,-2.3998278E-1,-2.559243E-1,5.5295985E-2,-1.2296205E-1,1.4418474E1,2.4424352E-1,-2.0964518E-1,1.4597669E0,5.751497E-1,4.7993536E0,-2.835919E-1,4.1442637E0,-2.317346E-1,-1.2885964E-1,-3.2504463E-1,8.2839155E-1,9.5609546E-1,-1.376922E-1,-2.8540188E-1,2.8790326E0,-2.958124E-1,-2.7586514E-1,3.2718062E-2,1.0013005E0,5.1784664E-2,3.662248E0,-2.8134814E-1,-3.8745916E-1,1.6624999E-1,-5.0294125E-1,-3.0925226E-1,-7.164385E-1,-1.8369107E-1,-2.0971908E-1,1.974657E-1,-2.2268167E-1,-2.228549E-1,3.413745E-1,-6.004193E-1,-9.793649E-1,-4.7792947E-1,-1.6586535E-1,-2.702712E-1,7.093968E0,8.722823E-1,-7.5510895E-1,-5.7364684E-1,2.0190479E-1,-1.5291724E-1,9.57468E0,-1.1632718E-1,-4.4536394E-1,-3.091763E-1,-6.774261E-2,-8.8143945E-1,1.3704352E-1,-1.5044647E-1,1.9747719E0,-2.572767E-1,4.77877E-1,-3.185037E-1,-2.554302E-1,-4.3187153E-1,-1.616922E0,1.2411525E-1,-7.2849244E-1,-1.7389181E-1,-8.9918184E-1,-5.4827404E-1,-4.747561E-1,-6.6229016E-1],"split_indices":[317,5,317,555,733,0,768,745,0,355,5,642,70,402,109,109,0,15,563,260,0,547,0,336,0,733,2,4,0,0,0,0,0,766,19,179,0,563,0,0,0,0,0,0,0,202,0,544,0,0,0,748,0,540,764,0,0,593,0,527,93,0,0,300,7,0,0,0,0,527,0,0,0,0,0,0,0,0,0,0,0],"split_type":[0,0,0,0,0,0,0,0,0,0,0,0,0,0,0,0,0,0,0,0,0,0,0,0,0,0,0,0,0,0,0,0,0,0,0,0,0,0,0,0,0,0,0,0,0,0,0,0,0,0,0,0,0,0,0,0,0,0,0,0,0,0,0,0,0,0,0,0,0,0,0,0,0,0,0,0,0,0,0,0,0],"sum_hessian":[1.126157E3,5.42742E2,5.834149E2,3.9361725E2,1.4912474E2,2.256299E1,5.608519E2,3.1720743E2,7.640984E1,4.381643E1,1.0530831E2,3.8939685E2,1.714551E2,2.6468356E2,5.2523838E1,3.233848E1,1.1477945E1,7.797769E1,2.7330624E1,3.529078E2,3.648904E1,1.561197E2,1.5335385E1,2.2008517E2,4.4598408E1,4.3751354E1,8.772487E0,3.1334063E1,1.0044211E0,5.7033E1,2.0944689E1,2.5830786E1,1.499839E0,3.415954E2,1.1312421E1,1.0693679E2,4.9182915E1,1.4817625E2,7.190891E1,1.0358637E1,3.3392715E1,7.070656E0,1.7018305E0,1.0459726E0,3.028809E1,4.7568707E1,9.4642935E0,2.1787541E2,1.23719986E2,6.785142E0,4.5272794E0,8.1203224E1,