{"learner":{"attributes":{},"feature_names":[],"feature_types":[],"gradient_booster":{"model":{"gbtree_model_param":{"num_parallel_tree":"1","num_trees":"60"},"iteration_indptr":[0,1,2,3,4,5,6,7,8,9,10,11,12,13,14,15,16,17,18,19,20,21,22,23,24,25,26,27,28,29,30,31,32,33,34,35,36,37,38,39,40,41,42,43,44,45,46,47,48,49,50,51,52,53,54,55,56,57,58,59,60],"tree_info":[0,0,0,0,0,0,0,0,0,0,0,0,0,0,0,0,0,0,0,0,0,0,0,0,0,0,0,0,0,0,0,0,0,0,0,0,0,0,0,0,0,0,0,0,0,0,0,0,0,0,0,0,0,0,0,0,0,0,0,0],"trees":[{"base_weights":[5.6978874E-4,1.5963061E0,-6.6038644E-1,1.9323859E0,7.833058E-1,-1.3162438E0,6.064332E-1,3.3974618E-2,-2.4936615E-2,8.324705E-4,3.4921203E-2,-2.6444115E-2,3.491432E-2,3.3881146E-2,-3.3968303E-2],"categories":[],"categories_nodes":[],"categories_segments":[],"categories_sizes":[],"default_left":[0,0,0,0,0,0,0,0,0,0,0,0,0,0,0],"id":0,"left_children":[1,3,5,7,9,11,13,-1,-1,-1,-1,-1,-1,-1,-1],"loss_changes":[2.417144E5,1.833861E4,1.3464316E5,2.0994531E3,1.7568855E4,7.011772E4,1.881297E5,0E0,0E0,0E0,0E0,0E0,0E0,0E0,0E0],"parents":[2147483647,0,0,1,1,2,2,3,3,4,4,5,5,6,6],"right_children":[2,4,6,8,10,12,14,-1,-1,-1,-1,-1,-1,-1,-1],"split_conditions":[-1.2603487E0,-1.5032642E0,-1.3812049E-1,1.2749523E0,-1.3812098E-1,-2.507533E-1,-2.4931091E-1,3.3974618E-2,-2.4936615E-2,8.324705E-4,3.4921203E-2,-2.6444115E-2,3.491432E-2,3.3881146E-2,-3.3968303E-2],"split_indices":[15,15,8,20,8,18,18,0,0,0,0,0,0,0,0],"split_type":[0,0,0,0,0,0,0,0,0,0,0,0,0,0,0],"sum_hessian":[2.291738E5,6.712164E4,1.6205216E5,4.7489113E4,1.963253E4,1.06773414E5,5.5278734E4,4.730458E4,1.8453246E2,1.2234641E4,7.397888E3,1.00755414E5,6.018001E3,3.6303074E4,1.8975656E4],"tree_param":{"num_deleted":"0","num_feature":"40","num_nodes":"15","size_leaf_vector":"1"}},{"base_weights":[6.237119E-4,1.8636032E0,-4.9456596E-1,1.8956423E0,-4.9809682E-1,-1.1530426E0,7.5737816E-1,3.3324964E-2,-2.5923809E-2,-1.8847968E-2,9.824632E-3,-6.150222E-3,-3.434941E-2,3.3458617E-2,-3.337624E-2],"categories":[],"categories_nodes":[],"categories_segments":[],"categories_sizes":[],"default_left":[0,0,0,0,0,0,0,0,0,0,0,0,0,0,0],"id":1,"left_children":[1,3,5,7,9,11,13,-1,-1,-1,-1,-1,-1,-1,-1],"loss_changes":[2.115006E5,3.6437031E3,1.4931138E5,2.0386719E3,3.983404E2,7.736909E4,1.9302388E5,0E0,0E0,0E0,0E0,0E0,0E0,0E0,0E0],"parents":[2147483647,0,0,1,1,2,2,3,3,4,4,5,5,6,6],"right_children":[2,4,6,8,10,12,14,-1,-1,-1,-1,-1,-1,-1,-1],"split_conditions":[-1.3907063E0,-2.5075626E-1,-1.3812049E-1,1.2749523E0,-1.3812049E-1,-1.3812098E-1,-2.4931091E-1,3.3324964E-2,-2.5923809E-2,-1.8847968E-2,9.824632E-3,-6.150222E-3,-3.434941E-2,3.3458617E-2,-3.337624E-2],"split_indices":[10,18,8,20,8,8,18,0,0,0,0,0,0,0,0],"split_type":[0,0,0,0,0,0,0,0,0,0,0,0,0,0,0],"sum_hessian":[2.2925992E5,4.814149E4,1.8111844E5,4.7497332E4,6.441562E2,1.18691266E5,6.242717E4,4.732025E4,1.7708244E2,4.1612204E2,2.2803415E2,5.982735E4,5.8863914E4,4.3529133E4,1.889804E4],"tree_param":{"num_deleted":"0","num_feature":"40","num_nodes":"15","size_leaf_vector":"1"}},{"base_weights":[1.9150411E-3,1.5462265E0,-6.3885415E-1,1.868051E0,7.6854485E-1,-1.0321702E0,3.375718E-1,3.2837275E-2,-2.3417825E-2,1.2315698E-3,3.376714E-2,-2.0150626E-3,-3.303626E-2,3.2301277E-2,-2.4122462E-2],"categories":[],"categories_nodes":[],"categories_segments":[],"categories_sizes":[],"default_left":[0,0,0,0,0,0,0,0,0,0,0,0,0,0,0],"id":2,"left_children":[1,3,5,7,9,11,13,-1,-1,-1,-1,-1,-1,-1,-1],"loss_changes":[2.2679811E5,1.6819812E4,6.220907E4,1.8857344E3,1.6000115E4,9.10002E4,1.2090238E5,0E0,0E0,0E0,0E0,0E0,0E0,0E0,0E0],"parents":[2147483647,0,0,1,1,2,2,3,3,4,4,5,5,6,6],"right_children":[2,4,6,8,10,12,14,-1,-1,-1,-1,-1,-1,-1,-1],"split_conditions":[-1.2603487E0,3.6294868E0,-2.507533E-1,1.2749523E0,-1.1615893E0,-2.5075614E-1,-2.4931091E-1,3.2837275E-2,-2.3417825E-2,1.2315698E-3,3.376714E-2,-2.0150626E-3,-3.303626E-2,3.2301277E-2,-2.4122462E-2],"split_indices":[15,13,18,20,9,18,18,0,0,0,0,0,0,0,0],"split_type":[0,0,0,0,0,0,0,0,0,0,0,0,0,0,0],"sum_hessian":[2.2919186E5,6.72095E4,1.6198236E5,4.7536344E4,1.9673156E4,1.1546972E5,4.6512637E4,4.735459E4,1.8175111E2,1.2303244E4,7.3699126E3,5.5877668E4,5.959205E4,2.4744713E4,2.1767926E4],"tree_param":{"num_deleted":"0","num_feature":"40","num_nodes":"15","size_leaf_vector":"1"}},{"base_weights":[7.205646E-4,1.253137E0,-6.184794E-1,1.5179799E0,-7.7839947E-1,-1.0314986E0,3.3190116E-1,3.2099742E-2,1.3065514E-2,-1.37178255E-2,-1.207627E-2,2.4759688E-4,-3.2466624E-2,3.17679E-2,-2.3596529E-2],"categories":[],"categories_nodes":[],"categories_segments":[],"categories_sizes":[],"default_left":[0,0,0,0,0,0,0,0,0,0,0,0,0,0,0],"id":3,"left_children":[1,3,5,7,9,11,13,-1,-1,-1,-1,-1,-1,-1,-1],"loss_changes":[1.7756814E5,4.0759117E4,6.0143332E4,1.6516531E4,4.875E0,9.243761E4,1.161945E5,0E0,0E0,0E0,0E0,0E0,0E0,0E0,0E0],"parents":[2147483647,0,0,1,1,2,2,3,3,4,4,5,5,6,6],"right_children":[2,4,6,8,10,12,14,-1,-1,-1,-1,-1,-1,-1,-1],"split_conditions":[-2.5075626E-1,4.5915294E0,-2.507533E-1,3.6294868E0,1.7907456E0,-2.5075614E-1,-2.4931091E-1,3.2099742E-2,1.3065514E-2,-1.37178255E-2,-1.207627E-2,2.4759688E-4,-3.2466624E-2,3.17679E-2,-2.3596529E-2],"split_indices":[18,14,18,13,9,18,18,0,0,0,0,0,0,0,0],"split_type":[0,0,0,0,0,0,0,0,0,0,0,0,0,0,0],"sum_hessian":[2.289716E5,7.575193E4,1.5321966E5,6.701564E4,8.736293E3,1.06804266E5,4.64154E4,4.732877E4,1.9686871E4,8.0653936E3,6.708991E2,4.7188066E4,5.9616195E4,2.4641498E4,2.1773898E4],"tree_param":{"num_deleted":"0","num_feature":"40","num_nodes":"15","size_leaf_vector":"1"}},{"base_weights":[-8.6371513E-4,1.4950067E0,-6.210471E-1,1.8085423E0,7.373845E-1,-1.2396722E0,5.774132E-1,3.180131E-2,-2.4198748E-2,7.9559867E-4,3.3025492E-2,-2.4970941E-2,3.4263305E-2,3.215352E-2,-3.2059733E-2],"categories":[],"categories_nodes":[],"categories_segments":[],"categories_sizes":[],"default_left":[0,0,0,0,0,0,0,0,0,0,0,0,0,0,0],"id":4,"left_children":[1,3,5,7,9,11,13,-1,-1,-1,-1,-1,-1,-1,-1],"loss_changes":[2.1203884E5,1.5911016E4,1.1979053E5,1.8987969E3,1.5652584E4,6.492033E4,1.6777655E5,0E0,0E0,0E0,0E0,0E0,0E0,0E0,0E0],"parents":[2147483647,0,0,1,1,2,2,3,3,4,4,5,5,6,6],"right_children":[2,4,6,8,10,12,14,-1,-1,-1,-1,-1,-1,-1,-1],"split_conditions":[-1.2603487E0,3.6294868E0,-1.3812049E-1,1.2749523E0,-1.3812098E-1,-2.507533E-1,-2.4931091E-1,3.180131E-2,-2.4198748E-2,7.9559867E-4,3.3025492E-2,-2.4970941E-2,3.4263305E-2,3.215352E-2,-3.2059733E-2],"split_indices":[15,13,8,20,8,18,18,0,0,0,0,0,0,0,0],"split_type":[0,0,0,0,0,0,0,0,0,0,0,0,0,0,0],"sum_hessian":[2.2855861E5,6.698666E4,1.6157195E5,4.73782E4,1.9608455E4,1.065649E5,5.500705E4,4.719351E4,1.8468944E2,1.2258911E4,7.349544E3,1.0058794E5,5.976962E3,3.6101215E4,1.8905838E4],"tree_param":{"num_deleted":"0","num_feature":"40","num_nodes":"15","size_leaf_vector":"1"}},{"base_weights":[-8.0177555E-4,1.4711246E0,-6.100459E-1,1.7814581E0,7.2357273E-1,-1.2165544E0,5.6602126E-1,3.1286478E-2,-3.3543088E-2,6.587609E-4,3.2520246E-2,-2.4584886E-2,3.4925923E-2,3.0282434E-2,-2.3612589E-2],"categories":[],"categories_nodes":[],"categories_segments":[],"categories_sizes":[],"default_left":[0,0,0,0,0,0,0,0,0,0,0,0,0,0,0],"id":5,"left_children":[1,3,5,7,9,11,13,-1,-1,-1,-1,-1,-1,-1,-1],"loss_changes":[2.0469414E5,1.5500469E4,1.1515368E5,1.7747656E3,1.5309569E4,6.590709E4,1.23074234E5,0E0,0E0,0E0,0E0,0E0,0E0,0E0,0E0],"parents":[2147483647,0,0,1,1,2,2,3,3,4,4,5,5,6,6],"right_children":[2,4,6,8,10,12,14,-1,-1,-1,-1,-1,-1,-1,-1],"split_conditions":[-1.2603487E0,3.6294868E0,-1.3812049E-1,1.772034E0,-1.3812098E-1,-8.474782E-2,-1.3778508E-1,3.1286478E-2,-3.3543088E-2,6.587609E-4,3.2520246E-2,-2.4584886E-2,3.4925923E-2,3.0282434E-2,-2.3612589E-2],"split_indices":[15,13,8,24,8,17,8,0,0,0,0,0,0,0,0],"split_type":[0,0,0,0,0,0,0,0,0,0,0,0,0,0,0],"sum_hessian":[2.2825698E5,6.681978E4,1.6143719E5,4.7217043E4,1.960274E4,1.06509336E5,5.4927863E4,4.7088684E4,1.2835857E2,1.2234574E4,7.3681655E3,1.0056386E5,5.9454707E3,3.413899E4,2.0788873E4],"tree_param":{"num_deleted":"0","num_feature":"40","num_nodes":"15","size_leaf_vector":"1"}},{"base_weights":[-1.507335E-3,1.7222629E0,-4.5830458E-1,1.7518501E0,-4.5476156E-1,-2.4742486E-1,-1.8725458E0,3.0801792E-2,-2.5172388E-2,-1.4026675E-2,1.2846764E-2,8.544347E-3,-1.3072278E-2,-3.3293404E-2,-3.210714E-2],"categories":[],"categories_nodes":[],"categories_segments":[],"categories_sizes":[],"default_left":[0,0,0,0,0,0,0,0,0,0,0,0,0,0,0],"id":6,"left_children":[1,3,5,7,9,11,13,-1,-1,-1,-1,-1,-1,-1,-1],"loss_changes":[1.7938023E5,3.0747188E3,5.370765E4,1.8045469E3,2.6635742E2,5.786104E4,2.3460938E1,0E0,0E0,0E0,0E0,0E0,0E0,0E0,0E0],"parents":[2147483647,0,0,1,1,2,2,3,3,4,4,5,5,6,6],"right_children":[2,4,6,8,10,12,14,-1,-1,-1,-1,-1,-1,-1,-1],"split_conditions":[-1.3907063E0,-2.5075626E-1,9.2885554E-2,1.2749523E0,-8.474782E-2,-2.5075614E-1,-2.5075614E-1,3.0801792E-2,-2.5172388E-2,-1.4026675E-2,1.2846764E-2,8.544347E-3,-1.3072278E-2,-3.3293404E-2,-3.210714E-2],"split_indices":[10,18,30,20,17,18,18,0,0,0,0,0,0,0,0],"split_type":[0,0,0,0,0,0,0,0,0,0,0,0,0,0,0],"sum_hessian":[2.2780745E5,4.7721777E4,1.8008567E5,4.7082094E4,6.3968396E2,1.5671834E5,2.336734E4,4.690649E4,1.75606E2,4.9508624E2,1.4459772E2,6.344755E4,9.327078E4,1.1654625E4,1.1712716E4],"tree_param":{"num_deleted":"0","num_feature":"40","num_nodes":"15","size_leaf_vector":"1"}},{"base_weights":[7.2724314E-4,1.427601E0,-5.8902556E-1,1.7304043E0,7.041521E-1,-1.1852388E0,5.673031E-1,3.0419897E-2,-2.2383098E-2,5.5276323E-4,3.191347E-2,-2.396965E-2,3.466954E-2,3.1331163E-2,-3.1083835E-2],"categories":[],"categories_nodes":[],"categories_segments":[],"categories_sizes":[],"default_left":[0,0,0,0,0,0,0,0,0,0,0,0,0,0,0],"id":7,"left_children":[1,3,5,7,9,11,13,-1,-1,-1,-1,-1,-1,-1,-1],"loss_changes":[1.9161162E5,1.4586234E4,1.1107387E5,1.6371094E3,1.4844193E4,6.3149953E4,1.5784492E5,0E0,0E0,0E0,0E0,0E0,0E0,0E0,0E0],"parents":[2147483647,0,0,1,1,2,2,3,3,4,4,5,5,6,6],"right_children":[2,4,6,8,10,12,14,-1,-1,-1,-1,-1,-1,-1,-1],"split_conditions":[-1.2603487E0,3.6294868E0,-1.3812049E-1,1.2749523E0,-1.3812098E-1,-8.474782E-2,-2.4931091E-1,3.0419897E-2,-2.2383098E-2,5.5276323E-4,3.191347E-2,-2.396965E-2,3.466954E-2,3.1331163E-2,-3.1083835E-2],"split_indices":[15,13,8,20,8,17,18,0,0,0,0,0,0,0,0],"split_type":[0,0,0,0,0,0,0,0,0,0,0,0,0,0,0],"sum_hessian":[2.276997E5,6.658928E4,1.6111044E5,4.6940637E4,1.964864E4,1.0630078E5,5.480965E4,4.676156E4,1.790778E2,1.2291349E4,7.3572915E3,1.0037009E5,5.9306904E3,3.599602E4,1.8813629E4],"tree_param":{"num_deleted":"0","num_feature":"40","num_nodes":"15","size_leaf_vector":"1"}},{"base_weights":[-8.304689E-4,1.4058952E0,-5.813998E-1,1.7064437E0,6.8781936E-1,-1.1676952E0,5.570394E-1,3.000355E-2,-2.1797212E-2,3.5583132E-4,3.1458903E-2,-2.363558E-2,3.369969E-2,3.0878767E-2,-3.064524E-2],"categories":[],"categories_nodes":[],"categories_segments":[],"categories_sizes":[],"default_left":[0,0,0,0,0,0,0,0,0,0,0,0,0,0,0],"id":8,"left_children":[1,3,5,7,9,11,13,-1,-1,-1,-1,-1,-1,-1,-1],"loss_changes":[1.8537377E5,1.4309531E4,1.0724097E5,1.6154844E3,1.454367E4,6.1028438E4,1.5294262E5,0E0,0E0,0E0,0E0,0E0,0E0,0E0,0E0],"parents":[2147483647,0,0,1,1,2,2,3,3,4,4,5,5,6,6],"right_children":[2,4,6,8,10,12,14,-1,-1,-1,-1,-1,-1,-1,-1],"split_conditions":[-1.2603487E0,3.6294868E0,-1.3812049E-1,1.2749523E0,-1.3812098E-1,-2.507533E-1,-2.4931091E-1,3.000355E-2,-2.1797212E-2,3.5583132E-4,3.1458903E-2,-2.363558E-2,3.369969E-2,3.0878767E-2,-3.064524E-2],"split_indices":[15,13,8,20,8,18,18,0,0,0,0,0,0,0,0],"split_type":[0,0,0,0,0,0,0,0,0,0,0,0,0,0,0],"sum_hessian":[2.2697653E5,6.630862E4,1.6066792E5,4.674307E4,1.9565549E4,1.0605146E5,5.4616457E4,4.655941E4,1.8365674E2,1.2234213E4,7.3313364E3,1.0005135E5,6.000106E3,3.5840133E4,1.8776322E4],"tree_param":{"num_deleted":"0","num_feature":"40","num_nodes":"15","size_leaf_vector":"1"}},{"base_weights":[5.926392E-4,1.3875002E0,-5.714867E-1,1.6841097E0,6.819968E-1,-1.1503402E0,5.52662E-1,2.9578904E-2,-3.195609E-2,4.9485435E-4,3.1025536E-2,-2.3289632E-2,3.400897E-2,3.0427193E-2,-3.0192787E-2],"categories":[],"categories_nodes":[],"categories_segments":[],"categories_sizes":[],"default_left":[0,0,0,0,0,0,0,0,0,0,0,0,0,0,0],"id":9,"left_children":[1,3,5,7,9,11,13,-1,-1,-1,-1,-1,-1,-1,-1],"loss_changes":[1.796293E5,1.3833992E4,1.0430005E5,1.5893281E3,1.4003276E4,6.0087266E4,1.4789269E5,0E0,0E0,0E0,0E0,0E0,0E0,0E0,0E0],"parents":[2147483647,0,0,1,1,2,2,3,3,4,4,5,5,6,6],"right_children":[2,4,6,8,10,12,14,-1,-1,-1,-1,-1,-1,-1,-1],"split_conditions":[-1.2603487E0,-1.5032642E0,-1.3812049E-1,1.772034E0,-1.3812098E-1,-8.474782E-2,-2.4931091E-1,2.9578904E-2,-3.195609E-2,4.9485435E-4,3.1025536E-2,-2.3289632E-2,3.400897E-2,3.0427193E-2,-3.0192787E-2],"split_indices":[15,15,8,24,8,17,18,0,0,0,0,0,0,0,0],"split_type":[0,0,0,0,0,0,0,0,0,0,0,0,0,0,0],"sum_hessian":[2.2639642E5,6.611372E4,1.602827E5,4.6544125E4,1.9569592E4,1.0580231E5,5.4480395E4,4.6416543E4,1.2758389E2,1.2253543E4,7.3160483E3,9.989166E4,5.91066E3,3.580867E4,1.8671725E4],"tree_param":{"num_deleted":"0","num_feature":"40","num_nodes":"15","size_leaf_vector":"1"}},{"base_weights":[1.3339836E-3,1.3688463E0,-5.6243575E-1,1.6618426E0,6.714937E-1,-1.1306355E0,5.438613E-1,2.9187992E-2,-3.149575E-2,5.330235E-4,3.0611E-2,-2.292739E-2,3.3078987E-2,2.9995438E-2,-2.9810522E-2],"categories":[],"categories_nodes":[],"categories_segments":[],"categories_sizes":[],"default_left":[0,0,0,0,0,0,0,0,0,0,0,0,0,0,0],"id":10,"left_children":[1,3,5,7,9,11,13,-1,-1,-1,-1,-1,-1,-1,-1],"loss_changes":[1.7410875E5,1.3468586E4,1.0051909E5,1.5441328E3,1.3520231E4,5.8254047E4,1.4337067E5,0E0,0E0,0E0,0E0,0E0,0E0,0E0,0E0],"parents":[2147483647,0,0,1,1,2,2,3,3,4,4,5,5,6,6],"right_children":[2,4,6,8,10,12,14,-1,-1,-1,-1,-1,-1,-1,-1],"split_conditions":[-1.2603487E0,-1.5032642E0,-1.3812049E-1,1.772034E0,-1.3812098E-1,-2.507533E-1,-2.4931091E-1,2.9187992E-2,-3.149575E-2,5.330235E-4,3.0611E-2,-2.292739E-2,3.3078987E-2,2.9995438E-2,-2.9810522E-2],"split_indices":[15,15,8,24,8,18,18,0,0,0,0,0,0,0,0],"split_type":[0,0,0,0,0,0,0,0,0,0,0,0,0,0,0],"sum_hessian":[2.2583108E5,6.592301E4,1.5990806E5,4.641861E4,1.9504396E4,1.0564714E5,5.4260926E4,4.6291156E4,1.2745538E2,1.2246658E4,7.2577383E3,9.964317E4,6.003966E3,3.566359E4,1.8597336E4],"tree_param":{"num_deleted":"0","num_feature":"40","num_nodes":"15","size_leaf_vector":"1"}},{"base_weights":[7.574523E-5,1.3496869E0,-5.5566674E-1,1.6411251E0,6.596829E-1,-1.1158623E0,5.351105E-1,2.8821906E-2,-3.1051798E-2,5.8733363E-4,3.021458E-2,-2.2619773E-2,3.340632E-2,2.910793E-2,-3.0378276E-2],"categories":[],"categories_nodes":[],"categories_segments":[],"categories_sizes":[],"default_left":[0,0,0,0,0,0,0,0,0,0,0,0,0,0,0],"id":11,"left_children":[1,3,5,7,9,11,13,-1,-1,-1,-1,-1,-1,-1,-1],"loss_changes":[1.6870328E5,1.3191734E4,9.735377E4,1.475E3,1.3057578E4,5.7211156E4,1.391725E5,0E0,0E0,0E0,0E0,0E0,0E0,0E0,0E0],"parents":[2147483647,0,0,1,1,2,2,3,3,4,4,5,5,6,6],"right_children":[2,4,6,8,10,12,14,-1,-1,-1,-1,-1,-1,-1,-1],"split_conditions":[-1.2603487E0,3.6294868E0,-1.3812049E-1,1.772034E0,-1.3812098E-1,-8.474782E-2,-2.478355E-1,2.8821906E-2,-3.1051798E-2,5.8733363E-4,3.021458E-2,-2.2619773E-2,3.340632E-2,2.910793E-2,-3.0378276E-2],"split_indices":[15,13,8,24,8,17,18,0,0,0,0,0,0,0,0],"split_type":[0,0,0,0,0,0,0,0,0,0,0,0,0,0,0],"sum_hessian":[2.2492483E5,6.560435E4,1.5932048E5,4.6122242E4,1.948211E4,1.05261055E5,5.405943E4,4.599719E4,1.2504916E2,1.2293711E4,7.1883994E3,9.937439E4,5.886659E3,3.609925E4,1.796018E4],"tree_param":{"num_deleted":"0","num_feature":"40","num_nodes":"15","size_leaf_vector":"1"}},{"base_weights":[-5.711661E-4,1.589385E0,-4.1693807E-1,1.6162784E0,-3.9292017E-1,-9.8192096E-1,6.6818464E-1,2.8390335E-2,-3.0637711E-2,-1.5162413E-2,8.943E-3,-4.326145E-3,-3.0327147E-2,2.9316321E-2,-2.9024608E-2],"categories":[],"categories_nodes":[],"categories_segments":[],"categories_sizes":[],"default_left":[0,0,0,0,0,0,0,0,0,0,0,0,0,0,0],"id":12,"left_children":[1,3,5,7,9,11,13,-1,-1,-1,-1,-1,-1,-1,-1],"loss_changes":[1.4837167E5,2.4801953E3,1.08890664E5,1.4672969E3,2.6861905E2,6.472042E4,1.4321434E5,0E0,0E0,0E0,0E0,0E0,0E0,0E0,0E0],"parents":[2147483647,0,0,1,1,2,2,3,3,4,4,5,5,6,6],"right_children":[2,4,6,8,10,12,14,-1,-1,-1,-1,-1,-1,-1,-1],"split_conditions":[-1.3907063E0,-2.5075626E-1,-1.3812049E-1,1.772034E0,-1.3812049E-1,-1.3812098E-1,-2.4931091E-1,2.8390335E-2,-3.0637711E-2,-1.5162413E-2,8.943E-3,-4.326145E-3,-3.0327147E-2,2.9316321E-2,-2.9024608E-2],"split_indices":[10,18,8,24,8,8,18,0,0,0,0,0,0,0,0],"split_type":[0,0,0,0,0,0,0,0,0,0,0,0,0,0,0],"sum_hessian":[2.2412262E5,4.651099E4,1.7761164E5,4.5888617E4,6.223726E2,1.167989E5,6.081273E4,4.5760605E4,1.2801038E2,4.0808102E2,2.1429161E2,5.9206004E4,5.75929E4,4.241738E4,1.8395352E4],"tree_param":{"num_deleted":"0","num_feature":"40","num_nodes":"15","size_leaf_vector":"1"}},{"base_weights":[3.7830454E-4,1.5697963E0,-4.095508E-1,1.5969725E0,-4.0423504E-1,-9.666754E-1,6.613686E-1,2.8084582E-2,-2.3997718E-2,-1.5318196E-2,7.982063E-3,-4.2222836E-3,-2.9948136E-2,2.8951777E-2,-2.8690372E-2],"categories":[],"categories_nodes":[],"categories_segments":[],"categories_sizes":[],"default_left":[0,0,0,0,0,0,0,0,0,0,0,0,0,0,0],"id":13,"left_children":[1,3,5,7,9,11,13,-1,-1,-1,-1,-1,-1,-1,-1],"loss_changes":[1.4375392E5,2.48325E3,1.057063E5,1.5299688E3,2.567218E2,6.3213914E4,1.3922447E5,0E0,0E0,0E0,0E0,0E0,0E0,0E0,0E0],"parents":[2147483647,0,0,1,1,2,2,3,3,4,4,5,5,6,6],"right_children":[2,4,6,8,10,12,14,-1,-1,-1,-1,-1,-1,-1,-1],"split_conditions":[-1.3907063E0,-2.5075626E-1,-1.3812049E-1,1.2749523E0,-1.3812049E-1,-1.3812098E-1,-2.4931091E-1,2.8084582E-2,-2.3997718E-2,-1.5318196E-2,7.982063E-3,-4.2222836E-3,-2.9948136E-2,2.8951777E-2,-2.8690372E-2],"split_indices":[10,18,8,20,8,8,18,0,0,0,0,0,0,0,0],"split_type":[0,0,0,0,0,0,0,0,0,0,0,0,0,0,0],"sum_hessian":[2.2344389E5,4.6275355E4,1.7716855E5,4.564713E4,6.282261E2,1.16540664E5,6.0627875E4,4.5475184E4,1.7194891E2,4.0553195E2,2.2269414E2,5.9196027E4,5.7344637E4,4.232435E4,1.8303525E4],"tree_param":{"num_deleted":"0","num_feature":"40","num_nodes":"15","size_leaf_vector":"1"}},{"base_weights":[3.7863054E-5,1.2998947E0,-5.3338933E-1,1.5822066E0,6.402563E-1,-1.0687964E0,5.159832E-1,2.7822772E-2,-1.9789515E-2,7.010322E-4,2.91345E-2,-2.1762423E-2,3.3004425E-2,2.7355177E-2,-2.1193529E-2],"categories":[],"categories_nodes":[],"categories_segments":[],"categories_sizes":[],"default_left":[0,0,0,0,0,0,0,0,0,0,0,0,0,0,0],"id":14,"left_children":[1,3,5,7,9,11,13,-1,-1,-1,-1,-1,-1,-1,-1],"loss_changes":[1.5420372E5,1.2049484E4,8.859442E4,1.3600469E3,1.1966723E4,5.4809383E4,9.6796016E4,0E0,0E0,0E0,0E0,0E0,0E0,0E0,0E0],"parents":[2147483647,0,0,1,1,2,2,3,3,4,4,5,5,6,6],"right_children":[2,4,6,8,10,12,14,-1,-1,-1,-1,-1,-1,-1,-1],"split_conditions":[-1.2603487E0,-1.5032642E0,-1.3812049E-1,1.2749523E0,-1.3812098E-1,-8.474782E-2,-1.3778508E-1,2.7822772E-2,-1.9789515E-2,7.010322E-4,2.91345E-2,-2.1762423E-2,3.3004425E-2,2.7355177E-2,-2.1193529E-2],"split_indices":[15,15,8,20,8,17,8,0,0,0,0,0,0,0,0],"split_type":[0,0,0,0,0,0,0,0,0,0,0,0,0,0,0],"sum_hessian":[2.2239256E5,6.4708727E4,1.5768384E5,4.53139E4,1.9394826E4,1.04411414E5,5.327243E4,4.5130855E4,1.8304366E2,1.224712E4,7.1477056E3,9.850557E4,5.9058403E3,3.3143004E4,2.0129426E4],"tree_param":{"num_deleted":"0","num_feature":"40","num_nodes":"15","size_leaf_vector":"1"}},{"base_weights":[-1.0129433E-3,1.2826477E0,-5.2711445E-1,1.5642153E0,6.2701553E-1,-1.0537721E0,5.069766E-1,2.7506705E-2,-1.967041E-2,5.7103694E-4,2.879931E-2,-2.1461736E-2,3.2501675E-2,2.7019836E-2,-2.0892333E-2],"categories":[],"categories_nodes":[],"categories_segments":[],"categories_sizes":[],"default_left":[0,0,0,0,0,0,0,0,0,0,0,0,0,0,0],"id":15,"left_children":[1,3,5,7,9,11,13,-1,-1,-1,-1,-1,-1,-1,-1],"loss_changes":[1.4949155E5,1.1878234E4,8.550972E4,1.3256641E3,1.1745262E4,5.313383E4,9.388465E4,0E0,0E0,0E0,0E0,0E0,0E0,0E0,0E0],"parents":[2147483647,0,0,1,1,2,2,3,3,4,4,5,5,6,6],"right_children":[2,4,6,8,10,12,14,-1,-1,-1,-1,-1,-1,-1,-1],"split_conditions":[-1.2603487E0,3.6294868E0,-1.3812049E-1,1.2749523E0,-1.3812098E-1,-8.474782E-2,-1.3778508E-1,2.7506705E-2,-1.967041E-2,5.7103694E-4,2.879931E-2,-2.1461736E-2,3.2501675E-2,2.7019836E-2,-2.0892333E-2],"split_indices":[15,13,8,20,8,17,8,0,0,0,0,0,0,0,0],"split_type":[0,0,0,0,0,0,0,0,0,0,0,0,0,0,0],"sum_hessian":[2.2135684E5,6.4348465E4,1.5700838E5,4.501496E4,1.9333502E4,1.040276E5,5.298078E4,4.483325E4,1.8171333E2,1.2225928E4,7.107574E3,9.812973E4,5.897872E3,3.2892484E4,2.0088295E4],"tree_param":{"num_deleted":"0","num_feature":"40","num_nodes":"15","size_leaf_vector":"1"}},{"base_weights":[-1.3007765E-3,1.5168202E0,-3.962588E-1,1.5431211E0,-4.1036063E-1,-9.257334E-1,6.3083076E-1,2.710514E-2,-2.9436382E-2,-1.4569127E-2,6.8887766E-3,-3.7890414E-3,-2.904528E-2,2.8040996E-2,-2.795802E-2],"categories":[],"categories_nodes":[],"categories_segments":[],"categories_sizes":[],"default_left":[0,0,0,0,0,0,0,0,0,0,0,0,0,0,0],"id":16,"left_children":[1,3,5,7,9,11,13,-1,-1,-1,-1,-1,-1,-1,-1],"loss_changes":[1.3220662E5,2.3079297E3,9.515365E4,1.3118594E3,2.0970938E2,6.035029E4,1.2950435E5,0E0,0E0,0E0,0E0,0E0,0E0,0E0,0E0],"parents":[2147483647,0,0,1,1,2,2,3,3,4,4,5,5,6,6],"right_children":[2,4,6,8,10,12,14,-1,-1,-1,-1,-1,-1,-1,-1],"split_conditions":[-1.3907063E0,-2.5075626E-1,-1.3812049E-1,1.772034E0,-1.3812049E-1,-1.3812098E-1,-2.4931091E-1,2.710514E-2,-2.9436382E-2,-1.4569127E-2,6.8887766E-3,-3.7890414E-3,-2.904528E-2,2.8040996E-2,-2.795802E-2],"split_indices":[10,18,8,24,8,8,18,0,0,0,0,0,0,0,0],"split_type":[0,0,0,0,0,0,0,0,0,0,0,0,0,0,0],"sum_hessian":[2.2049155E5,4.5520223E4,1.7497131E5,4.4907555E4,6.12671E2,1.1545384E5,5.9517473E4,4.478284E4,1.2471408E2,4.0127444E2,2.1139658E2,5.8875504E4,5.6578344E4,4.1423164E4,1.8094309E4],"tree_param":{"num_deleted":"0","num_feature":"40","num_nodes":"15","size_leaf_vector":"1"}},{"base_weights":[-6.213653E-4,1.0354505E0,-5.0880605E-1,1.251757E0,-1.0019059E-2,-1.0663295E0,4.959742E-1,2.671415E-2,1.0639263E-2,-2.2025658E-2,3.261989E-2,2.7179278E-2,-2.8577527E-2],"categories":[],"categories_nodes":[],"categories_segments":[],"categories_sizes":[],"default_left":[0,0,0,0,0,0,0,0,0,0,0,0,0],"id":17,"left_children":[1,3,5,7,-1,9,11,-1,-1,-1,-1,-1,-1],"loss_changes":[1.1573818E5,2.517993E4,8.261759E4,1.1389117E4,0E0,5.426047E4,1.1901547E5,0E0,0E0,0E0,0E0,0E0,0E0],"parents":[2147483647,0,0,1,1,2,2,3,3,5,5,6,6],"right_children":[2,4,6,8,-1,10,12,-1,-1,-1,-1,-1,-1],"split_conditions":[-2.5075626E-1,4.5915294E0,-1.3812049E-1,3.6294868E0,-1.0019059E-2,-2.507533E-1,-2.478355E-1,2.671415E-2,1.0639263E-2,-2.2025658E-2,3.261989E-2,2.7179278E-2,-2.8577527E-2],"split_indices":[18,14,8,13,0,18,18,0,0,0,0,0,0],"split_type":[0,0,0,0,0,0,0,0,0,0,0,0,0],"sum_hessian":[2.1981697E5,7.233714E4,1.4747984E5,6.3765934E4,8.571203E3,9.485017E4,5.2629668E4,4.4507062E4,1.925887E4,8.894159E4,5.908577E3,3.515034E4,1.7479326E4],"tree_param":{"num_deleted":"0","num_feature":"40","num_nodes":"13","size_leaf_vector":"1"}},{"base_weights":[5.305967E-4,1.4835408E0,-3.8314393E-1,1.5092865E0,-3.7040186E-1,-8.985189E-1,6.216883E-1,2.6545297E-2,-2.2250986E-2,-1.4735706E-2,8.6339405E-3,-3.5314849E-3,-2.8469432E-2,2.7055519E-2,-2.8256057E-2],"categories":[],"categories_nodes":[],"categories_segments":[],"categories_sizes":[],"default_left":[0,0,0,0,0,0,0,0,0,0,0,0,0,0,0],"id":18,"left_children":[1,3,5,7,9,11,13,-1,-1,-1,-1,-1,-1,-1,-1],"loss_changes":[1.2448012E5,2.146836E3,9.0008914E4,1.3357734E3,2.5290753E2,5.853471E4,1.2242456E5,0E0,0E0,0E0,0E0,0E0,0E0,0E0,0E0],"parents":[2147483647,0,0,1,1,2,2,3,3,4,4,5,5,6,6],"right_children":[2,4,6,8,10,12,14,-1,-1,-1,-1,-1,-1,-1,-1],"split_conditions":[-1.3907063E0,-2.5075626E-1,-1.3812049E-1,1.2749523E0,-1.3812049E-1,-1.3812098E-1,-2.478355E-1,2.6545297E-2,-2.2250986E-2,-1.4735706E-2,8.6339405E-3,-3.5314849E-3,-2.8469432E-2,2.7055519E-2,-2.8256057E-2],"split_indices":[10,18,8,20,8,8,18,0,0,0,0,0,0,0,0],"split_type":[0,0,0,0,0,0,0,0,0,0,0,0,0,0,0],"sum_hessian":[2.1877055E5,4.496506E4,1.7380548E5,4.4349363E4,6.156948E2,1.1488267E5,5.892282E4,4.4178324E4,1.7103755E2,3.9789844E2,2.1779637E2,5.88685E4,5.601417E4,4.1666418E4,1.72564E4],"tree_param":{"num_deleted":"0","num_feature":"40","num_nodes":"15","size_leaf_vector":"1"}},{"base_weights":[1.916424E-4,1.2243223E0,-5.006886E-1,1.498353E0,5.989581E-1,-9.977759E-1,4.832576E-1,2.6323162E-2,-2.9136578E-2,7.223823E-4,2.7776545E-2,-2.0460127E-2,3.217604E-2,2.6533572E-2,-2.796669E-2],"categories":[],"categories_nodes":[],"categories_segments":[],"categories_sizes":[],"default_left":[0,0,0,0,0,0,0,0,0,0,0,0,0,0,0],"id":19,"left_children":[1,3,5,7,9,11,13,-1,-1,-1,-1,-1,-1,-1,-1],"loss_changes":[1.333388E5,1.0820156E4,7.5481E4,1.2563828E3,1.0638752E4,5.062989E4,1.1189073E5,0E0,0E0,0E0,0E0,0E0,0E0,0E0,0E0],"parents":[2147483647,0,0,1,1,2,2,3,3,4,4,5,5,6,6],"right_children":[2,4,6,8,10,12,14,-1,-1,-1,-1,-1,-1,-1,-1],"split_conditions":[-1.2603487E0,-1.5032642E0,-1.3812049E-1,1.772034E0,-1.3812098E-1,-2.507533E-1,-2.478355E-1,2.6323162E-2,-2.9136578E-2,7.223823E-4,2.7776545E-2,-2.0460127E-2,3.217604E-2,2.6533572E-2,-2.796669E-2],"split_indices":[15,15,8,24,8,18,18,0,0,0,0,0,0,0,0],"split_type":[0,0,0,0,0,0,0,0,0,0,0,0,0,0,0],"sum_hessian":[2.1746577E5,6.3143707E4,1.5432206E5,4.39039E4,1.9239809E4,1.025261E5,5.1795953E4,4.3779754E4,1.24145164E2,1.2315778E4,6.9240293E3,9.661305E4,5.913055E3,3.459952E4,1.7196434E4],"tree_param":{"num_deleted":"0","num_feature":"40","num_nodes":"15","size_leaf_vector":"1"}},{"base_weights":[-8.7629346E-4,9.992397E-1,-4.9175495E-1,1.2096483E0,-5.400671E-1,-1.0250546E0,4.7850505E-1,2.5877493E-2,1.0314536E-2,-9.54257E-3,-8.242101E-3,-2.1251738E-2,3.1706758E-2,2.6252007E-2,-2.7676798E-2],"categories":[],"categories_nodes":[],"categories_segments":[],"categories_sizes":[],"default_left":[0,0,0,0,0,0,0,0,0,0,0,0,0,0,0],"id":20,"left_children":[1,3,5,7,9,11,13,-1,-1,-1,-1,-1,-1,-1,-1],"loss_changes":[1.0624157E5,2.3076445E4,7.5111516E4,1.056018E4,3.463623E0,5.1067883E4,1.0887471E5,0E0,0E0,0E0,0E0,0E0,0E0,0E0,0E0],"parents":[2147483647,0,0,1,1,2,2,3,3,4,4,5,5,6,6],"right_children":[2,4,6,8,10,12,14,-1,-1,-1,-1,-1,-1,-1,-1],"split_conditions":[-2.5075626E-1,4.5915294E0,-1.3812049E-1,3.6294868E0,1.7572936E0,-2.507533E-1,-2.478355E-1,2.5877493E-2,1.0314536E-2,-9.54257E-3,-8.242101E-3,-2.1251738E-2,3.1706758E-2,2.6252007E-2,-2.7676798E-2],"split_indices":[18,14,8,13,9,18,18,0,0,0,0,0,0,0,0],"split_type":[0,0,0,0,0,0,0,0,0,0,0,0,0,0,0],"sum_hessian":[2.1640433E5,7.1246234E4,1.451581E5,6.2678848E4,8.567388E3,9.3671734E4,5.1486363E4,4.353365E4,1.9145201E4,7.8270776E3,7.4031006E2,8.774466E4,5.9270728E3,3.440116E4,1.7085203E4],"tree_param":{"num_deleted":"0","num_feature":"40","num_nodes":"15","size_leaf_vector":"1"}},{"base_weights":[5.8987836E-4,1.595035E0,-6.6046625E-1,1.9319855E0,7.822926E-1,-1.3152761E0,6.0503006E-1,3.393079E-2,-3.4665283E-2,6.9541007E-4,3.4921248E-2,-2.6457831E-2,3.491443E-2,3.3817858E-2,-3.4296237E-2],"categories":[],"categories_nodes":[],"categories_segments":[],"categories_sizes":[],"default_left":[0,0,0,0,0,0,0,0,0,0,0,0,0,0,0],"id":21,"left_children":[1,3,5,7,9,11,13,-1,-1,-1,-1,-1,-1,-1,-1],"loss_changes":[2.4189464E5,1.8418594E4,1.3443844E5,2.0580625E3,1.7820494E4,7.081064E4,1.8923867E5,0E0,0E0,0E0,0E0,0E0,0E0,0E0,0E0],"parents":[2147483647,0,0,1,1,2,2,3,3,4,4,5,5,6,6],"right_children":[2,4,6,8,10,12,14,-1,-1,-1,-1,-1,-1,-1,-1],"split_conditions":[-1.2603487E0,-1.5032642E0,-1.3812049E-1,1.772034E0,-1.3812098E-1,-1.427136E-1,-2.4914002E-1,3.393079E-2,-3.4665283E-2,6.9541007E-4,3.4921248E-2,-2.6457831E-2,3.491443E-2,3.3817858E-2,-3.4296237E-2],"split_indices":[15,15,8,24,8,17,18,0,0,0,0,0,0,0,0],"split_type":[0,0,0,0,0,0,0,0,0,0,0,0,0,0,0],"sum_hessian":[2.2949569E5,6.726159E4,1.622341E5,4.7547676E4,1.9713916E4,1.0691348E5,5.532062E4,4.7414676E4,1.33E2,1.2246357E4,7.4675596E3,1.008356E5,6.077872E3,3.6435875E4,1.8884748E4],"tree_param":{"num_deleted":"0","num_feature":"40","num_nodes":"15","size_leaf_vector":"1"}},{"base_weights":[7.4771815E-4,1.1755804E0,-4.7758994E-1,1.449098E0,5.613304E-1,-9.5335656E-1,4.6991184E-1,2.5467144E-2,-2.8702617E-2,1.7194013E-4,2.7049968E-2,-1.9662846E-2,3.156539E-2,2.6111336E-2,-2.6475765E-2],"categories":[],"categories_nodes":[],"categories_segments":[],"categories_sizes":[],"default_left":[0,0,0,0,0,0,0,0,0,0,0,0,0,0,0],"id":22,"left_children":[1,3,5,7,9,11,13,-1,-1,-1,-1,-1,-1,-1,-1],"loss_changes":[1.2026438E5,1.040257E4,6.855858E4,1.2285625E3,1.0392186E4,4.8254383E4,1.0352722E5,0E0,0E0,0E0,0E0,0E0,0E0,0E0,0E0],"parents":[2147483647,0,0,1,1,2,2,3,3,4,4,5,5,6,6],"right_children":[2,4,6,8,10,12,14,-1,-1,-1,-1,-1,-1,-1,-1],"split_conditions":[-1.2603487E0,-1.5032642E0,-1.3812049E-1,1.772034E0,-1.3812098E-1,-1.427136E-1,-2.4914002E-1,2.5467144E-2,-2.8702617E-2,1.7194013E-4,2.7049968E-2,-1.9662846E-2,3.156539E-2,2.6111336E-2,-2.6475765E-2],"split_indices":[15,15,8,24,8,17,18,0,0,0,0,0,0,0,0],"split_type":[0,0,0,0,0,0,0,0,0,0,0,0,0,0,0],"sum_hessian":[2.1400427E5,6.1920785E4,1.5208347E5,4.2842297E4,1.9078484E4,1.0124538E5,5.083809E4,4.2715016E4,1.2728264E2,1.2243203E4,6.8352817E3,9.5288375E4,5.9570117E3,3.352849E4,1.7309604E4],"tree_param":{"num_deleted":"0","num_feature":"40","num_nodes":"15","size_leaf_vector":"1"}},{"base_weights":[8.299257E-4,1.1769289E0,-4.77566E-1,1.4493676E0,5.634531E-1,-9.5386153E-1,4.7045282E-1,2.5503622E-2,-2.0654289E-2,3.1007384E-4,2.7050177E-2,-1.9623796E-2,3.12613E-2,2.6131913E-2,-2.6161755E-2],"categories":[],"categories_nodes":[],"categories_segments":[],"categories_sizes":[],"default_left":[0,0,0,0,0,0,0,0,0,0,0,0,0,0,0],"id":23,"left_children":[1,3,5,7,9,11,13,-1,-1,-1,-1,-1,-1,-1,-1],"loss_changes":[1.2023807E5,1.0326781E4,6.859389E4,1.2488594E3,1.0220595E4,4.7134555E4,1.0260332E5,0E0,0E0,0E0,0E0,0E0,0E0,0E0,0E0],"parents":[2147483647,0,0,1,1,2,2,3,3,4,4,5,5,6,6],"right_children":[2,4,6,8,10,12,14,-1,-1,-1,-1,-1,-1,-1,-1],"split_conditions":[-1.2603487E0,-1.5032642E0,-1.3812049E-1,1.2749523E0,-1.3812098E-1,-2.507533E-1,-2.4931091E-1,2.5503622E-2,-2.0654289E-2,3.1007384E-4,2.7050177E-2,-1.9623796E-2,3.12613E-2,2.6131913E-2,-2.6161755E-2],"split_indices":[15,15,8,20,8,18,18,0,0,0,0,0,0,0,0],"split_type":[0,0,0,0,0,0,0,0,0,0,0,0,0,0,0],"sum_hessian":[2.1370102E5,6.1791066E4,1.5190995E5,4.2787973E4,1.9003092E4,1.0111075E5,5.0799207E4,4.260916E4,1.788111E2,1.2231534E4,6.771558E3,9.521666E4,5.894096E3,3.339497E4,1.7404236E4],"tree_param":{"num_deleted":"0","num_feature":"40","num_nodes":"15","size_leaf_vector":"1"}},{"base_weights":[8.8297954E-4,1.1513697E0,-4.6612757E-1,1.4225852E0,5.4719657E-1,-9.290766E-1,4.6117166E-1,2.5033897E-2,-2.0231944E-2,3.0166056E-4,2.6545092E-2,-3.4396658E-3,-2.7053352E-2,2.5154043E-2,-2.6571374E-2],"categories":[],"categories_nodes":[],"categories_segments":[],"categories_sizes":[],"default_left":[0,0,0,0,0,0,0,0,0,0,0,0,0,0,0],"id":24,"left_children":[1,3,5,7,9,11,13,-1,-1,-1,-1,-1,-1,-1,-1],"loss_changes":[1.1347327E5,9.991023E3,6.4488035E4,1.1919219E3,9.740721E3,4.548746E4,9.712767E4,0E0,0E0,0E0,0E0,0E0,0E0,0E0,0E0],"parents":[2147483647,0,0,1,1,2,2,3,3,4,4,5,5,6,6],"right_children":[2,4,6,8,10,12,14,-1,-1,-1,-1,-1,-1,-1,-1],"split_conditions":[-1.2603487E0,-1.5032642E0,-1.3812049E-1,1.2749523E0,-1.3812098E-1,-1.3812098E-1,-2.478355E-1,2.5033897E-2,-2.0231944E-2,3.0166056E-4,2.6545092E-2,-3.4396658E-3,-2.7053352E-2,2.5154043E-2,-2.6571374E-2],"split_indices":[15,15,8,20,8,8,18,0,0,0,0,0,0,0,0],"split_type":[0,0,0,0,0,0,0,0,0,0,0,0,0,0,0],"sum_hessian":[2.1119378E5,6.097633E4,1.5021745E5,4.2083523E4,1.8892805E4,1.0019544E5,5.002202E4,4.190607E4,1.7745174E2,1.2231444E4,6.6613604E3,4.5948906E4,5.424653E4,3.3484734E4,1.6537287E4],"tree_param":{"num_deleted":"0","num_feature":"40","num_nodes":"15","size_leaf_vector":"1"}},{"base_weights":[7.7931205E-4,1.149998E0,-4.6615997E-1,1.4223167E0,5.4497546E-1,-9.286276E-1,4.6070203E-1,2.4997346E-2,-2.8152388E-2,1.635257E-4,2.6544891E-2,-1.918372E-2,3.112404E-2,2.559757E-2,-2.5968743E-2],"categories":[],"categories_nodes":[],"categories_segments":[],"categories_sizes":[],"default_left":[0,0,0,0,0,0,0,0,0,0,0,0,0,0,0],"id":25,"left_children":[1,3,5,7,9,11,13,-1,-1,-1,-1,-1,-1,-1,-1],"loss_changes":[1.134921E5,1.0066867E4,6.4464516E4,1.1700781E3,9.906498E3,4.621532E4,9.800981E4,0E0,0E0,0E0,0E0,0E0,0E0,0E0,0E0],"parents":[2147483647,0,0,1,1,2,2,3,3,4,4,5,5,6,6],"right_children":[2,4,6,8,10,12,14,-1,-1,-1,-1,-1,-1,-1,-1],"split_conditions":[-1.2603487E0,-1.5032642E0,-1.3812049E-1,1.772034E0,-1.3812098E-1,-1.427136E-1,-2.4914002E-1,2.4997346E-2,-2.8152388E-2,1.635257E-4,2.6544891E-2,-1.918372E-2,3.112404E-2,2.559757E-2,-2.5968743E-2],"split_indices":[15,15,8,24,8,17,18,0,0,0,0,0,0,0,0],"split_type":[0,0,0,0,0,0,0,0,0,0,0,0,0,0,0],"sum_hessian":[2.1149417E5,6.1104336E4,1.5038984E5,4.213718E4,1.8967156E4,1.00329414E5,5.0060426E4,4.2011266E4,1.2591359E2,1.2243113E4,6.724043E3,9.4412586E4,5.916828E3,3.302082E4,1.7039604E4],"tree_param":{"num_deleted":"0","num_feature":"40","num_nodes":"15","size_leaf_vector":"1"}},{"base_weights":[8.084538E-4,1.1256864E0,-4.5519802E-1,1.3971835E0,5.2925146E-1,-9.047481E-1,4.520198E-1,2.4764832E-2,1.5819002E-3,1.5540271E-4,2.6075108E-2,-1.8736955E-2,3.0866796E-2,2.5116496E-2,-2.5505425E-2],"categories":[],"categories_nodes":[],"categories_segments":[],"categories_sizes":[],"default_left":[0,0,0,0,0,0,0,0,0,0,0,0,0,0,0],"id":26,"left_children":[1,3,5,7,9,11,13,-1,-1,-1,-1,-1,-1,-1,-1],"loss_changes":[1.0716451E5,9.757547E3,6.0627883E4,1.1334922E3,9.455789E3,4.468207E4,9.291208E4,0E0,0E0,0E0,0E0,0E0,0E0,0E0,0E0],"parents":[2147483647,0,0,1,1,2,2,3,3,4,4,5,5,6,6],"right_children":[2,4,6,8,10,12,14,-1,-1,-1,-1,-1,-1,-1,-1],"split_conditions":[-1.2603487E0,-1.5032642E0,-1.3812049E-1,1.4550036E1,-1.3812098E-1,-2.507533E-1,-2.4914002E-1,2.4764832E-2,1.5819002E-3,1.5540271E-4,2.6075108E-2,-1.8736955E-2,3.0866796E-2,2.5116496E-2,-2.5505425E-2],"split_indices":[15,15,8,0,8,18,18,0,0,0,0,0,0,0,0],"split_type":[0,0,0,0,0,0,0,0,0,0,0,0,0,0,0],"sum_hessian":[2.0891536E5,6.026126E4,1.486541E5,4.1410062E4,1.8851197E4,9.93992E4,4.92549E4,4.075645E4,6.53614E2,1.2243026E4,6.608172E3,9.3513664E4,5.885538E3,3.2497266E4,1.675763E4],"tree_param":{"num_deleted":"0","num_feature":"40","num_nodes":"15","size_leaf_vector":"1"}},{"base_weights":[9.2304446E-4,1.127082E0,-4.5517027E-1,1.3974514E0,5.315693E-1,-9.051677E-1,4.5243672E-1,2.4593169E-2,-1.9832488E-2,2.935379E-4,2.6075296E-2,-3.1697792E-3,-2.6612332E-2,2.5137607E-2,-2.5195763E-2],"categories":[],"categories_nodes":[],"categories_segments":[],"categories_sizes":[],"default_left":[0,0,0,0,0,0,0,0,0,0,0,0,0,0,0],"id":27,"left_children":[1,3,5,7,9,11,13,-1,-1,-1,-1,-1,-1,-1,-1],"loss_changes":[1.0715444E5,9.68168E3,6.0644523E4,1.1386328E3,9.295496E3,4.444865E4,9.207383E4,0E0,0E0,0E0,0E0,0E0,0E0,0E0,0E0],"parents":[2147483647,0,0,1,1,2,2,3,3,4,4,5,5,6,6],"right_children":[2,4,6,8,10,12,14,-1,-1,-1,-1,-1,-1,-1,-1],"split_conditions":[-1.2603487E0,-1.5032642E0,-1.3812049E-1,1.2749523E0,-1.3812098E-1,-1.3812098E-1,-2.4931091E-1,2.4593169E-2,-1.9832488E-2,2.935379E-4,2.6075296E-2,-3.1697792E-3,-2.6612332E-2,2.5137607E-2,-2.5195763E-2],"split_indices":[15,15,8,20,8,8,18,0,0,0,0,0,0,0,0],"split_type":[0,0,0,0,0,0,0,0,0,0,0,0,0,0,0],"sum_hessian":[2.086184E5,6.013503E4,1.4848338E5,4.13571E4,1.877793E4,9.926644E4,4.921694E4,4.1181105E4,1.7599484E2,1.2231357E4,6.546573E3,4.5755676E4,5.3510766E4,3.2362701E4,1.6854242E4],"tree_param":{"num_deleted":"0","num_feature":"40","num_nodes":"15","size_leaf_vector":"1"}},{"base_weights":[9.5453364E-4,1.1038723E0,-4.4473398E-1,1.3736778E0,5.1652575E-1,-8.822535E-1,4.4428623E-1,2.4180137E-2,-1.9901734E-2,2.8570375E-4,2.5637465E-2,-2.9107362E-3,-2.6199011E-2,2.4235833E-2,-2.5678454E-2],"categories":[],"categories_nodes":[],"categories_segments":[],"categories_sizes":[],"default_left":[0,0,0,0,0,0,0,0,0,0,0,0,0,0,0],"id":28,"left_children":[1,3,5,7,9,11,13,-1,-1,-1,-1,-1,-1,-1,-1],"loss_changes":[1.0124421E5,9.392883E3,5.7057117E4,1.1219531E3,8.881243E3,4.347468E4,8.7411445E4,0E0,0E0,0E0,0E0,0E0,0E0,0E0,0E0],"parents":[2147483647,0,0,1,1,2,2,3,3,4,4,5,5,6,6],"right_children":[2,4,6,8,10,12,14,-1,-1,-1,-1,-1,-1,-1,-1],"split_conditions":[-1.2603487E0,-1.5032642E0,-1.3812049E-1,1.2749523E0,-1.3812098E-1,-1.3812098E-1,-2.478355E-1,2.4180137E-2,-1.9901734E-2,2.8570375E-4,2.5637465E-2,-2.9107362E-3,-2.6199011E-2,2.4235833E-2,-2.5678454E-2],"split_indices":[15,15,8,20,8,8,18,0,0,0,0,0,0,0,0],"split_type":[0,0,0,0,0,0,0,0,0,0,0,0,0,0,0],"sum_hessian":[2.0596406E5,5.9275984E4,1.4668808E5,4.0616777E4,1.8659205E4,9.83074E4,4.838068E4,4.0440637E4,1.7614099E2,1.2231272E4,6.427933E3,4.55582E4,5.2749195E4,3.2409846E4,1.5970835E4],"tree_param":{"num_deleted":"0","num_feature":"40","num_nodes":"15","size_leaf_vector":"1"}},{"base_weights":[8.440065E-4,1.1024499E0,-4.44735E-1,1.3734071E0,5.1411265E-1,-8.818374E-1,4.4393867E-1,2.4353264E-2,1.1384978E-3,1.4756752E-4,2.563729E-2,-1.833336E-2,3.0798158E-2,2.466524E-2,-2.5061574E-2],"categories":[],"categories_nodes":[],"categories_segments":[],"categories_sizes":[],"default_left":[0,0,0,0,0,0,0,0,0,0,0,0,0,0,0],"id":29,"left_children":[1,3,5,7,9,11,13,-1,-1,-1,-1,-1,-1,-1,-1],"loss_changes":[1.0124297E5,9.468727E3,5.704617E4,1.1257031E3,9.036342E3,4.3753688E4,8.8118195E4,0E0,0E0,0E0,0E0,0E0,0E0,0E0,0E0],"parents":[2147483647,0,0,1,1,2,2,3,3,4,4,5,5,6,6],"right_children":[2,4,6,8,10,12,14,-1,-1,-1,-1,-1,-1,-1,-1],"split_conditions":[-1.2603487E0,-1.5032642E0,-1.3812049E-1,1.4550036E1,-1.3812098E-1,-1.427136E-1,-2.4914002E-1,2.4353264E-2,1.1384978E-3,1.4756752E-4,2.563729E-2,-1.833336E-2,3.0798158E-2,2.466524E-2,-2.5061574E-2],"split_indices":[15,15,8,0,8,17,18,0,0,0,0,0,0,0,0],"split_type":[0,0,0,0,0,0,0,0,0,0,0,0,0,0,0],"sum_hessian":[2.0625752E5,5.940037E4,1.4685714E5,4.066902E4,1.8731352E4,9.8439E4,4.8418137E4,4.002163E4,6.473902E2,1.224294E4,6.4884116E3,9.256133E4,5.877676E3,3.195064E4,1.6467494E4],"tree_param":{"num_deleted":"0","num_feature":"40","num_nodes":"15","size_leaf_vector":"1"}},{"base_weights":[8.7350537E-4,1.0802574E0,-4.3471652E-1,1.3509874E0,4.9951774E-1,-8.598126E-1,4.3627873E-1,2.3965906E-2,7.0581795E-4,1.4000101E-4,2.5228512E-2,-2.6199191E-3,-2.5813146E-2,2.4240443E-2,-2.465532E-2],"categories":[],"categories_nodes":[],"categories_segments":[],"categories_sizes":[],"default_left":[0,0,0,0,0,0,0,0,0,0,0,0,0,0,0],"id":30,"left_children":[1,3,5,7,9,11,13,-1,-1,-1,-1,-1,-1,-1,-1],"loss_changes":[9.569891E4,9.2005E3,5.369449E4,1.1192734E3,8.644963E3,4.277268E4,8.367298E4,0E0,0E0,0E0,0E0,0E0,0E0,0E0,0E0],"parents":[2147483647,0,0,1,1,2,2,3,3,4,4,5,5,6,6],"right_children":[2,4,6,8,10,12,14,-1,-1,-1,-1,-1,-1,-1,-1],"split_conditions":[-1.2603487E0,-1.5032642E0,-1.3812049E-1,1.4550036E1,-1.3812098E-1,-1.3812098E-1,-2.4914002E-1,2.3965906E-2,7.0581795E-4,1.4000101E-4,2.5228512E-2,-2.6199191E-3,-2.5813146E-2,2.4240443E-2,-2.465532E-2],"split_indices":[15,15,8,0,8,8,18,0,0,0,0,0,0,0,0],"split_type":[0,0,0,0,0,0,0,0,0,0,0,0,0,0,0],"sum_hessian":[2.0353955E5,5.85219E4,1.4501764E5,3.9913598E4,1.8608299E4,9.745431E4,4.7563332E4,3.927235E4,6.412461E2,1.2242856E4,6.365442E3,4.5373223E4,5.208109E4,3.1394719E4,1.6168611E4],"tree_param":{"num_deleted":"0","num_feature":"40","num_nodes":"15","size_leaf_vector":"1"}},{"base_weights":[9.962493E-4,1.0817074E0,-4.3471903E-1,1.3512611E0,5.0202495E-1,-8.6019903E-1,4.3657482E-1,2.3791004E-2,-1.9964376E-2,2.7813893E-4,2.5228675E-2,-2.6608286E-3,-2.5810614E-2,2.3809949E-2,-2.5272228E-2],"categories":[],"categories_nodes":[],"categories_segments":[],"categories_sizes":[],"default_left":[0,0,0,0,0,0,0,0,0,0,0,0,0,0,0],"id":31,"left_children":[1,3,5,7,9,11,13,-1,-1,-1,-1,-1,-1,-1,-1],"loss_changes":[9.570769E4,9.124703E3,5.369939E4,1.1061484E3,8.494787E3,4.2561203E4,8.298583E4,0E0,0E0,0E0,0E0,0E0,0E0,0E0,0E0],"parents":[2147483647,0,0,1,1,2,2,3,3,4,4,5,5,6,6],"right_children":[2,4,6,8,10,12,14,-1,-1,-1,-1,-1,-1,-1,-1],"split_conditions":[-1.2603487E0,-1.5032642E0,-1.3812049E-1,1.2749523E0,-1.3812098E-1,-1.3812098E-1,-2.478355E-1,2.3791004E-2,-1.9964376E-2,2.7813893E-4,2.5228675E-2,-2.6608286E-3,-2.5810614E-2,2.3809949E-2,-2.5272228E-2],"split_indices":[15,15,8,20,8,8,18,0,0,0,0,0,0,0,0],"split_type":[0,0,0,0,0,0,0,0,0,0,0,0,0,0,0],"sum_hessian":[2.032498E5,5.83994E4,1.4485039E5,3.9862098E4,1.85373E4,9.732404E4,4.752635E4,3.968583E4,1.762713E2,1.2231188E4,6.3061133E3,4.5358594E4,5.1965445E4,3.185355E4,1.5672803E4],"tree_param":{"num_deleted":"0","num_feature":"40","num_nodes":"15","size_leaf_vector":"1"}},{"base_weights":[9.835041E-4,1.060493E0,-4.2514983E-1,1.3300812E0,4.8803028E-1,-8.3895624E-1,4.293061E-1,2.3423668E-2,-2.00208E-2,2.7084135E-4,2.4846343E-2,-1.7551152E-2,3.0605707E-2,2.3407847E-2,-2.4892109E-2],"categories":[],"categories_nodes":[],"categories_segments":[],"categories_sizes":[],"default_left":[0,0,0,0,0,0,0,0,0,0,0,0,0,0,0],"id":32,"left_children":[1,3,5,7,9,11,13,-1,-1,-1,-1,-1,-1,-1,-1],"loss_changes":[9.052398E4,8.87484E3,5.0558438E4,1.0911328E3,8.1333535E3,4.1468625E4,7.8843445E4,0E0,0E0,0E0,0E0,0E0,0E0,0E0,0E0],"parents":[2147483647,0,0,1,1,2,2,3,3,4,4,5,5,6,6],"right_children":[2,4,6,8,10,12,14,-1,-1,-1,-1,-1,-1,-1,-1],"split_conditions":[-1.2603487E0,-1.5032642E0,-1.3812049E-1,1.2749523E0,-1.3812098E-1,-2.507533E-1,-2.478355E-1,2.3423668E-2,-2.00208E-2,2.7084135E-4,2.4846343E-2,-1.7551152E-2,3.0605707E-2,2.3407847E-2,-2.4892109E-2],"split_indices":[15,15,8,20,8,18,18,0,0,0,0,0,0,0,0],"split_type":[0,0,0,0,0,0,0,0,0,0,0,0,0,0,0],"sum_hessian":[2.0049747E5,5.7509125E4,1.4298834E5,3.9096297E4,1.841283E4,9.633437E4,4.6653973E4,3.8919906E4,1.7638715E2,1.2231107E4,6.1817227E3,9.053272E4,5.8016504E3,3.1285484E4,1.5368487E4],"tree_param":{"num_deleted":"0","num_feature":"40","num_nodes":"15","size_leaf_vector":"1"}},{"base_weights":[8.74931E-4,1.0590149E0,-4.2510855E-1,1.3298045E0,4.8543015E-1,-8.385487E-1,4.2906094E-1,2.360065E-2,2.833746E-4,1.3270261E-4,2.4846189E-2,-1.7565094E-2,3.061411E-2,2.3839986E-2,-2.4274154E-2],"categories":[],"categories_nodes":[],"categories_segments":[],"categories_sizes":[],"default_left":[0,0,0,0,0,0,0,0,0,0,0,0,0,0,0],"id":33,"left_children":[1,3,5,7,9,11,13,-1,-1,-1,-1,-1,-1,-1,-1],"loss_changes":[9.050383E4,8.95059E3,5.0554984E4,1.1140547E3,8.278842E3,4.182654E4,7.9511914E4,0E0,0E0,0E0,0E0,0E0,0E0,0E0,0E0],"parents":[2147483647,0,0,1,1,2,2,3,3,4,4,5,5,6,6],"right_children":[2,4,6,8,10,12,14,-1,-1,-1,-1,-1,-1,-1,-1],"split_conditions":[-1.2603487E0,-1.5032642E0,-1.3812049E-1,1.4550036E1,-1.3812098E-1,-2.507533E-1,-2.4914002E-1,2.360065E-2,2.833746E-4,1.3270261E-4,2.4846189E-2,-1.7565094E-2,3.061411E-2,2.3839986E-2,-2.4274154E-2],"split_indices":[15,15,8,0,8,18,18,0,0,0,0,0,0,0,0],"split_type":[0,0,0,0,0,0,0,0,0,0,0,0,0,0,0],"sum_hessian":[2.0078292E5,5.762969E4,1.4315323E5,3.914704E4,1.8482652E4,9.6462766E4,4.669046E4,3.8511848E4,6.3519135E2,1.2242774E4,6.239878E3,9.0613914E4,5.848853E3,3.0827025E4,1.5863436E4],"tree_param":{"num_deleted":"0","num_feature":"40","num_nodes":"15","size_leaf_vector":"1"}},{"base_weights":[1.0325692E-3,1.0401443E0,-4.1596076E-1,1.3100306E0,4.7450897E-1,-8.1860805E-1,4.2244038E-1,2.3076246E-2,-2.0071372E-2,2.6379334E-4,2.4488194E-2,-2.1918754E-3,-2.5101483E-2,2.30274E-2,-2.4535865E-2],"categories":[],"categories_nodes":[],"categories_segments":[],"categories_sizes":[],"default_left":[0,0,0,0,0,0,0,0,0,0,0,0,0,0,0],"id":34,"left_children":[1,3,5,7,9,11,13,-1,-1,-1,-1,-1,-1,-1,-1],"loss_changes":[8.565352E4,8.641242E3,4.7621516E4,1.0768359E3,7.794539E3,4.0872457E4,7.4960234E4,0E0,0E0,0E0,0E0,0E0,0E0,0E0,0E0],"parents":[2147483647,0,0,1,1,2,2,3,3,4,4,5,5,6,6],"right_children":[2,4,6,8,10,12,14,-1,-1,-1,-1,-1,-1,-1,-1],"split_conditions":[-1.2603487E0,-1.5032642E0,-1.3812049E-1,1.2749523E0,-1.3812098E-1,-1.3812098E-1,-2.478355E-1,2.3076246E-2,-2.0071372E-2,2.6379334E-4,2.4488194E-2,-2.1918754E-3,-2.5101483E-2,2.30274E-2,-2.4535865E-2],"split_indices":[15,15,8,20,8,8,18,0,0,0,0,0,0,0,0],"split_type":[0,0,0,0,0,0,0,0,0,0,0,0,0,0,0],"sum_hessian":[1.9767397E5,5.6608625E4,1.4106534E5,3.832228E4,1.8286344E4,9.5297945E4,4.57674E4,3.814579E4,1.7648975E2,1.2231026E4,6.0553174E3,4.4951363E4,5.0346586E4,3.0708162E4,1.5059235E4],"tree_param":{"num_deleted":"0","num_feature":"40","num_nodes":"15","size_leaf_vector":"1"}},{"base_weights":[9.0840115E-4,1.0386372E0,-4.1591886E-1,1.3097504E0,4.7181693E-1,-8.182301E-1,4.222457E-1,2.3255583E-2,-1.2924595E-4,1.2565315E-4,2.448805E-2,-2.1522962E-3,-2.5104009E-2,2.3461692E-2,-2.3915896E-2],"categories":[],"categories_nodes":[],"categories_segments":[],"categories_sizes":[],"default_left":[0,0,0,0,0,0,0,0,0,0,0,0,0,0,0],"id":35,"left_children":[1,3,5,7,9,11,13,-1,-1,-1,-1,-1,-1,-1,-1],"loss_changes":[8.562755E4,8.7169375E3,4.762354E4,1.109875E3,7.9355635E3,4.1073406E4,7.5610875E4,0E0,0E0,0E0,0E0,0E0,0E0,0E0,0E0],"parents":[2147483647,0,0,1,1,2,2,3,3,4,4,5,5,6,6],"right_children":[2,4,6,8,10,12,14,-1,-1,-1,-1,-1,-1,-1,-1],"split_conditions":[-1.2603487E0,-1.5032642E0,-1.3812049E-1,1.4550036E1,-1.3812098E-1,-1.3812098E-1,-2.4914002E-1,2.3255583E-2,-1.2924595E-4,1.2565315E-4,2.448805E-2,-2.1522962E-3,-2.5104009E-2,2.3461692E-2,-2.3915896E-2],"split_indices":[15,15,8,0,8,8,18,0,0,0,0,0,0,0,0],"split_type":[0,0,0,0,0,0,0,0,0,0,0,0,0,0,0],"sum_hessian":[1.9795623E5,5.672723E4,1.4122902E5,3.8372258E4,1.8354975E4,9.542562E4,4.5803387E4,3.7743023E4,6.292342E2,1.2242694E4,6.11228E3,4.4966953E4,5.0458668E4,3.0250072E4,1.5553314E4],"tree_param":{"num_deleted":"0","num_feature":"40","num_nodes":"15","size_leaf_vector":"1"}},{"base_weights":[9.0722955E-4,1.0190488E0,-4.070456E-1,1.2907294E0,4.5864877E-1,-7.984607E-1,4.1579837E-1,2.292902E-2,-5.324222E-4,1.188542E-4,2.4152057E-2,-1.686777E-2,3.0577855E-2,2.3103643E-2,-2.3578608E-2],"categories":[],"categories_nodes":[],"categories_segments":[],"categories_sizes":[],"default_left":[0,0,0,0,0,0,0,0,0,0,0,0,0,0,0],"id":36,"left_children":[1,3,5,7,9,11,13,-1,-1,-1,-1,-1,-1,-1,-1],"loss_changes":[8.1046836E4,8.497777E3,4.4867938E4,1.106625E3,7.6129766E3,4.0304676E4,7.194837E4,0E0,0E0,0E0,0E0,0E0,0E0,0E0,0E0],"parents":[2147483647,0,0,1,1,2,2,3,3,4,4,5,5,6,6],"right_children":[2,4,6,8,10,12,14,-1,-1,-1,-1,-1,-1,-1,-1],"split_conditions":[-1.2603487E0,-1.5032642E0,-1.3812049E-1,1.4550036E1,-1.3812098E-1,-1.427136E-1,-2.4914002E-1,2.292902E-2,-5.324222E-4,1.188542E-4,2.4152057E-2,-1.686777E-2,3.0577855E-2,2.3103643E-2,-2.3578608E-2],"split_indices":[15,15,8,0,8,17,18,0,0,0,0,0,0,0,0],"split_type":[0,0,0,0,0,0,0,0,0,0,0,0,0,0,0],"sum_hessian":[1.9512525E5,5.5817684E4,1.3930756E5,3.7591914E4,1.8225771E4,9.4401945E4,4.490563E4,3.696853E4,6.233814E2,1.2242616E4,5.983156E3,8.8584125E4,5.8178203E3,2.9666154E4,1.5239474E4],"tree_param":{"num_deleted":"0","num_feature":"40","num_nodes":"15","size_leaf_vector":"1"}},{"base_weights":[1.0178488E-3,1.0205857E0,-4.0712515E-1,1.291013E0,4.614318E-1,-7.98859E-1,4.1594273E-1,2.2747047E-2,-2.011643E-2,2.569949E-4,2.4152191E-2,-2.1176988E-3,-2.4717648E-2,2.3133673E-2,-2.3285918E-2],"categories":[],"categories_nodes":[],"categories_segments":[],"categories_sizes":[],"default_left":[0,0,0,0,0,0,0,0,0,0,0,0,0,0,0],"id":37,"left_children":[1,3,5,7,9,11,13,-1,-1,-1,-1,-1,-1,-1,-1],"loss_changes":[8.108261E4,8.422137E3,4.4864727E4,1.0631602E3,7.4762197E3,3.9387438E4,7.133874E4,0E0,0E0,0E0,0E0,0E0,0E0,0E0,0E0],"parents":[2147483647,0,0,1,1,2,2,3,3,4,4,5,5,6,6],"right_children":[2,4,6,8,10,12,14,-1,-1,-1,-1,-1,-1,-1,-1],"split_conditions":[-1.2603487E0,-1.5032642E0,-1.3812049E-1,1.2749523E0,-1.3812098E-1,-1.3812098E-1,-2.4931091E-1,2.2747047E-2,-2.011643E-2,2.569949E-4,2.4152191E-2,-2.1176988E-3,-2.4717648E-2,2.3133673E-2,-2.3285918E-2],"split_indices":[15,15,8,20,8,8,18,0,0,0,0,0,0,0,0],"split_type":[0,0,0,0,0,0,0,0,0,0,0,0,0,0,0],"sum_hessian":[1.9484748E5,5.570107E4,1.391464E5,3.7542723E4,1.8158348E4,9.4276266E4,4.487015E4,3.736614E4,1.7658017E2,1.2230948E4,5.9274E3,4.491624E4,4.9360023E4,2.9529957E4,1.5340191E4],"tree_param":{"num_deleted":"0","num_feature":"40","num_nodes":"15","size_leaf_vector":"1"}},{"base_weights":[9.4344E-4,1.0001816E0,-3.9847934E-1,1.2726549E0,4.458986E-1,-7.793705E-1,4.0975016E-1,2.2619436E-2,-9.2647615E-4,1.1229175E-4,2.3836398E-2,-1.6509093E-2,3.0221894E-2,2.276463E-2,-2.32485E-2],"categories":[],"categories_nodes":[],"categories_segments":[],"categories_sizes":[],"default_left":[0,0,0,0,0,0,0,0,0,0,0,0,0,0,0],"id":38,"left_children":[1,3,5,7,9,11,13,-1,-1,-1,-1,-1,-1,-1,-1],"loss_changes":[7.673485E4,8.29157E3,4.2284984E4,1.104168E3,7.30921E3,3.8902418E4,6.8472164E4,0E0,0E0,0E0,0E0,0E0,0E0,0E0,0E0],"parents":[2147483647,0,0,1,1,2,2,3,3,4,4,5,5,6,6],"right_children":[2,4,6,8,10,12,14,-1,-1,-1,-1,-1,-1,-1,-1],"split_conditions":[-1.2603487E0,-1.5032642E0,-1.3812049E-1,1.4550036E1,-1.3812098E-1,-1.427136E-1,-2.4914002E-1,2.2619436E-2,-9.2647615E-4,1.1229175E-4,2.3836398E-2,-1.6509093E-2,3.0221894E-2,2.276463E-2,-2.32485E-2],"split_indices":[15,15,8,0,8,17,18,0,0,0,0,0,0,0,0],"split_type":[0,0,0,0,0,0,0,0,0,0,0,0,0,0,0],"sum_hessian":[1.9225883E5,5.490391E4,1.3735492E5,3.680841E4,1.8095502E4,9.3358336E4,4.399658E4,3.619077E4,6.176386E2,1.224254E4,5.852962E3,8.75674E4,5.790941E3,2.9071646E4,1.4924933E4],"tree_param":{"num_deleted":"0","num_feature":"40","num_nodes":"15","size_leaf_vector":"1"}},{"base_weights":[1.0637649E-3,1.001749E0,-3.9856562E-1,1.2729425E0,4.487718E-1,-7.79738E-1,4.0982693E-1,2.243457E-2,-2.0156287E-2,2.5043354E-4,2.3836527E-2,-1.9006585E-3,-2.4413735E-2,2.2339607E-2,-2.3893122E-2],"categories":[],"categories_nodes":[],"categories_segments":[],"categories_sizes":[],"default_left":[0,0,0,0,0,0,0,0,0,0,0,0,0,0,0],"id":39,"left_children":[1,3,5,7,9,11,13,-1,-1,-1,-1,-1,-1,-1,-1],"loss_changes":[7.677623E4,8.216004E3,4.2275695E4,1.0500391E3,7.176536E3,3.8674785E4,6.796285E4,0E0,0E0,0E0,0E0,0E0,0E0,0E0,0E0],"parents":[2147483647,0,0,1,1,2,2,3,3,4,4,5,5,6,6],"right_children":[2,4,6,8,10,12,14,-1,-1,-1,-1,-1,-1,-1,-1],"split_conditions":[-1.2603487E0,-1.5032642E0,-1.3812049E-1,1.2749523E0,-1.3812098E-1,-1.3812098E-1,-2.478355E-1,2.243457E-2,-2.0156287E-2,2.5043354E-4,2.3836527E-2,-1.9006585E-3,-2.4413735E-2,2.2339607E-2,-2.3893122E-2],"split_indices":[15,15,8,20,8,8,18,0,0,0,0,0,0,0,0],"split_type":[0,0,0,0,0,0,0,0,0,0,0,0,0,0,0],"sum_hessian":[1.9198503E5,5.4789297E4,1.3719573E5,3.676E4,1.8029295E4,9.323412E4,4.3961613E4,3.6583344E4,1.7665941E2,1.2230873E4,5.798422E3,4.471535E4,4.8518766E4,2.952482E4,1.4436792E4],"tree_param":{"num_deleted":"0","num_feature":"40","num_nodes":"15","size_leaf_vector":"1"}},{"base_weights":[9.72844E-4,9.819739E-1,-3.9020747E-1,1.2554487E0,4.3354273E-1,-7.6089984E-1,4.0394807E-1,2.232545E-2,-1.3116834E-3,1.0595854E-4,2.353946E-2,-1.6546266E-3,-2.4129162E-2,2.2441998E-2,-2.2947462E-2],"categories":[],"categories_nodes":[],"categories_segments":[],"categories_sizes":[],"default_left":[0,0,0,0,0,0,0,0,0,0,0,0,0,0,0],"id":40,"left_children":[1,3,5,7,9,11,13,-1,-1,-1,-1,-1,-1,-1,-1],"loss_changes":[7.267584E4,8.09691E3,3.985878E4,1.1024219E3,7.0226064E3,3.8175516E4,6.5230523E4,0E0,0E0,0E0,0E0,0E0,0E0,0E0,0E0],"parents":[2147483647,0,0,1,1,2,2,3,3,4,4,5,5,6,6],"right_children":[2,4,6,8,10,12,14,-1,-1,-1,-1,-1,-1,-1,-1],"split_conditions":[-1.2603487E0,-1.5032642E0,-1.3812049E-1,1.4550036E1,-1.3812098E-1,-1.3812098E-1,-2.4914002E-1,2.232545E-2,-1.3116834E-3,1.0595854E-4,2.353946E-2,-1.6546266E-3,-2.4129162E-2,2.2441998E-2,-2.2947462E-2],"split_indices":[15,15,8,0,8,8,18,0,0,0,0,0,0,0,0],"split_type":[0,0,0,0,0,0,0,0,0,0,0,0,0,0,0],"sum_hessian":[1.8938214E5,5.3988473E4,1.3539367E5,3.602389E4,1.7964582E4,9.230705E4,4.3086625E4,3.541188E4,6.120106E2,1.2242466E4,5.7221157E3,4.452899E4,4.777806E4,2.8479625E4,1.4606999E4],"tree_param":{"num_deleted":"0","num_feature":"40","num_nodes":"15","size_leaf_vector":"1"}},{"base_weights":[1.1071629E-3,9.8357266E-1,-3.9029437E-1,1.2557403E0,4.365053E-1,-7.6123625E-1,4.0397438E-1,2.2137433E-2,-2.019124E-2,2.4410045E-4,2.3539577E-2,-1.6912081E-3,-2.412649E-2,2.2013694E-2,-2.3597145E-2],"categories":[],"categories_nodes":[],"categories_segments":[],"categories_sizes":[],"default_left":[0,0,0,0,0,0,0,0,0,0,0,0,0,0,0],"id":41,"left_children":[1,3,5,7,9,11,13,-1,-1,-1,-1,-1,-1,-1,-1],"loss_changes":[7.272175E4,8.0213906E3,3.9844992E4,1.0374766E3,6.8938447E3,3.799417E4,6.4735344E4,0E0,0E0,0E0,0E0,0E0,0E0,0E0,0E0],"parents":[2147483647,0,0,1,1,2,2,3,3,4,4,5,5,6,6],"right_children":[2,4,6,8,10,12,14,-1,-1,-1,-1,-1,-1,-1,-1],"split_conditions":[-1.2603487E0,-1.5032642E0,-1.3812049E-1,1.2749523E0,-1.3812098E-1,-1.3812098E-1,-2.478355E-1,2.2137433E-2,-2.019124E-2,2.4410045E-4,2.3539577E-2,-1.6912081E-3,-2.412649E-2,2.2013694E-2,-2.3597145E-2],"split_indices":[15,15,8,20,8,8,18,0,0,0,0,0,0,0,0],"split_type":[0,0,0,0,0,0,0,0,0,0,0,0,0,0,0],"sum_hessian":[1.8911238E5,5.387587E4,1.352365E5,3.5976273E4,1.7899596E4,9.2184336E4,4.305217E4,3.5799547E4,1.7672829E2,1.2230799E4,5.6687974E3,4.451249E4,4.7671848E4,2.8932428E4,1.4119742E4],"tree_param":{"num_deleted":"0","num_feature":"40","num_nodes":"15","size_leaf_vector":"1"}},{"base_weights":[1.0890147E-3,9.660015E-1,-3.8236597E-1,1.2393364E0,4.246108E-1,-7.433919E-1,3.9840448E-1,2.2038892E-2,-8.892524E-4,2.3799352E-4,2.3259893E-2,-1.5854992E-2,2.9999353E-2,2.1702936E-2,-2.331828E-2],"categories":[],"categories_nodes":[],"categories_segments":[],"categories_sizes":[],"default_left":[0,0,0,0,0,0,0,0,0,0,0,0,0,0,0],"id":42,"left_children":[1,3,5,7,9,11,13,-1,-1,-1,-1,-1,-1,-1,-1],"loss_changes":[6.890931E4,7.8371445E3,3.75682E4,1.0308789E3,6.626696E3,3.6907434E4,6.169404E4,0E0,0E0,0E0,0E0,0E0,0E0,0E0,0E0],"parents":[2147483647,0,0,1,1,2,2,3,3,4,4,5,5,6,6],"right_children":[2,4,6,8,10,12,14,-1,-1,-1,-1,-1,-1,-1,-1],"split_conditions":[-1.2603487E0,-1.5032642E0,-1.3812049E-1,1.4550036E1,-1.3812098E-1,-2.507533E-1,-2.478355E-1,2.2038892E-2,-8.892524E-4,2.3799352E-4,2.3259893E-2,-1.5854992E-2,2.9999353E-2,2.1702936E-2,-2.331828E-2],"split_indices":[15,15,8,0,8,18,18,0,0,0,0,0,0,0,0],"split_type":[0,0,0,0,0,0,0,0,0,0,0,0,0,0,0],"sum_hessian":[1.8623914E5,5.2963117E4,1.3327603E5,3.5193496E4,1.7769623E4,9.113536E4,4.2140668E4,3.458505E4,6.084421E2,1.2230726E4,5.5388975E3,8.542553E4,5.7098228E3,2.83387E4,1.3801969E4],"tree_param":{"num_deleted":"0","num_feature":"40","num_nodes":"15","size_leaf_vector":"1"}},{"base_weights":[9.672358E-4,9.643706E-1,-3.8224304E-1,1.2390406E0,4.2155957E-1,-7.430365E-1,3.9842874E-1,2.204583E-2,-1.6883162E-3,9.985096E-5,2.325978E-2,-1.5869992E-2,3.0008854E-2,2.2134922E-2,-2.266271E-2],"categories":[],"categories_nodes":[],"categories_segments":[],"categories_sizes":[],"default_left":[0,0,0,0,0,0,0,0,0,0,0,0,0,0,0],"id":43,"left_children":[1,3,5,7,9,11,13,-1,-1,-1,-1,-1,-1,-1,-1],"loss_changes":[6.885551E4,7.91259E3,3.75828E4,1.1013047E3,6.751698E3,3.723185E4,6.2175566E4,0E0,0E0,0E0,0E0,0E0,0E0,0E0,0E0],"parents":[2147483647,0,0,1,1,2,2,3,3,4,4,5,5,6,6],"right_children":[2,4,6,8,10,12,14,-1,-1,-1,-1,-1,-1,-1,-1],"split_conditions":[-1.2603487E0,-1.5032642E0,-1.3812049E-1,1.4550036E1,-1.3812098E-1,-2.507533E-1,-2.4914002E-1,2.204583E-2,-1.6883162E-3,9.985096E-5,2.325978E-2,-1.5869992E-2,3.0008854E-2,2.2134922E-2,-2.266271E-2],"split_indices":[15,15,8,0,8,18,18,0,0,0,0,0,0,0,0],"split_type":[0,0,0,0,0,0,0,0,0,0,0,0,0,0,0],"sum_hessian":[1.8650427E5,5.3073703E4,1.3343056E5,3.524032E4,1.7833383E4,9.125597E4,4.21746E4,3.4633816E4,6.0650085E2,1.2242393E4,5.590991E3,8.549946E4,5.756503E3,2.788626E4,1.4288342E4],"tree_param":{"num_deleted":"0","num_feature":"40","num_nodes":"15","size_leaf_vector":"1"}},{"base_weights":[1.1437846E-3,9.4891477E-1,-3.746162E-1,1.2235293E0,4.13068E-1,-7.260187E-1,3.930945E-1,2.1586463E-2,-2.0855252E-2,2.3209356E-4,2.2996156E-2,-1.2973889E-3,-2.359737E-2,2.1406082E-2,-2.3055226E-2],"categories":[],"categories_nodes":[],"categories_segments":[],"categories_sizes":[],"default_left":[0,0,0,0,0,0,0,0,0,0,0,0,0,0,0],"id":44,"left_children":[1,3,5,7,9,11,13,-1,-1,-1,-1,-1,-1,-1,-1],"loss_changes":[6.5301793E4,7.6598984E3,3.5423074E4,1.0499258E3,6.373796E3,3.6705523E4,5.8825016E4,0E0,0E0,0E0,0E0,0E0,0E0,0E0,0E0],"parents":[2147483647,0,0,1,1,2,2,3,3,4,4,5,5,6,6],"right_children":[2,4,6,8,10,12,14,-1,-1,-1,-1,-1,-1,-1,-1],"split_conditions":[-1.2603487E0,-1.5032642E0,-1.3812049E-1,1.2749523E0,-1.3812098E-1,-1.3812098E-1,-2.478355E-1,2.1586463E-2,-2.0855252E-2,2.3209356E-4,2.2996156E-2,-1.2973889E-3,-2.359737E-2,2.1406082E-2,-2.3055226E-2],"split_indices":[15,15,8,20,8,8,18,0,0,0,0,0,0,0,0],"split_type":[0,0,0,0,0,0,0,0,0,0,0,0,0,0,0],"sum_hessian":[1.8336075E5,5.2057008E4,1.3130373E5,3.44173E4,1.7639709E4,9.00743E4,4.122945E4,3.4239367E4,1.7793297E2,1.2230655E4,5.409053E3,4.410441E4,4.5969887E4,2.7745162E4,1.3484285E4],"tree_param":{"num_deleted":"0","num_feature":"40","num_nodes":"15","size_leaf_vector":"1"}},{"base_weights":[1.0021096E-3,9.4724196E-1,-3.7449485E-1,1.2232156E0,4.0992877E-1,-7.256937E-1,3.9316964E-1,2.1773536E-2,-1.6415055E-3,9.3949806E-5,2.2996048E-2,-1.2621122E-3,-2.3600062E-2,2.1842137E-2,-2.2392973E-2],"categories":[],"categories_nodes":[],"categories_segments":[],"categories_sizes":[],"default_left":[0,0,0,0,0,0,0,0,0,0,0,0,0,0,0],"id":45,"left_children":[1,3,5,7,9,11,13,-1,-1,-1,-1,-1,-1,-1,-1],"loss_changes":[6.524366E4,7.7349805E3,3.5441727E4,1.0726445E3,6.495186E3,3.687818E4,5.929335E4,0E0,0E0,0E0,0E0,0E0,0E0,0E0,0E0],"parents":[2147483647,0,0,1,1,2,2,3,3,4,4,5,5,6,6],"right_children":[2,4,6,8,10,12,14,-1,-1,-1,-1,-1,-1,-1,-1],"split_conditions":[-1.2603487E0,-1.5032642E0,-1.3812049E-1,1.4550036E1,-1.3812098E-1,-1.3812098E-1,-2.4914002E-1,2.1773536E-2,-1.6415055E-3,9.3949806E-5,2.2996048E-2,-1.2621122E-3,-2.3600062E-2,2.1842137E-2,-2.2392973E-2],"split_indices":[15,15,8,0,8,8,18,0,0,0,0,0,0,0,0],"split_type":[0,0,0,0,0,0,0,0,0,0,0,0,0,0,0],"sum_hessian":[1.8362252E5,5.216555E4,1.3145697E5,3.4463305E4,1.7702246E4,9.019412E4,4.1262855E4,3.3856117E4,6.0718585E2,1.2242321E4,5.459924E3,4.4121797E4,4.607232E4,2.7293078E4,1.3969778E4],"tree_param":{"num_deleted":"0","num_feature":"40","num_nodes":"15","size_leaf_vector":"1"}},{"base_weights":[9.935531E-4,9.3070155E-1,-3.6702088E-1,1.2082168E0,3.9863282E-1,-7.0888364E-1,3.8814938E-1,2.1519393E-2,-2.0052555E-3,8.825459E-5,2.2747088E-2,-1.5283738E-2,2.9985579E-2,2.1562489E-2,-2.213711E-2],"categories":[],"categories_nodes":[],"categories_segments":[],"categories_sizes":[],"default_left":[0,0,0,0,0,0,0,0,0,0,0,0,0,0,0],"id":46,"left_children":[1,3,5,7,9,11,13,-1,-1,-1,-1,-1,-1,-1,-1],"loss_changes":[6.184425E4,7.568301E3,3.3431273E4,1.0729961E3,6.2519033E3,3.5970195E4,5.6571242E4,0E0,0E0,0E0,0E0,0E0,0E0,0E0,0E0],"parents":[2147483647,0,0,1,1,2,2,3,3,4,4,5,5,6,6],"right_children":[2,4,6,8,10,12,14,-1,-1,-1,-1,-1,-1,-1,-1],"split_conditions":[-1.2603487E0,-1.5032642E0,-1.3812049E-1,1.4550036E1,-1.3812098E-1,-1.427136E-1,-2.4914002E-1,2.1519393E-2,-2.0052555E-3,8.825459E-5,2.2747088E-2,-1.5283738E-2,2.9985579E-2,2.1562489E-2,-2.213711E-2],"split_indices":[15,15,8,0,8,17,18,0,0,0,0,0,0,0,0],"split_type":[0,0,0,0,0,0,0,0,0,0,0,0,0,0,0],"sum_hessian":[1.80752E5,5.1258094E4,1.294939E5,3.3686625E4,1.7571467E4,8.914042E4,4.0353477E4,3.308476E4,6.0186346E2,1.2242253E4,5.329215E3,8.342167E4,5.7187534E3,2.670144E4,1.3652038E4],"tree_param":{"num_deleted":"0","num_feature":"40","num_nodes":"15","size_leaf_vector":"1"}},{"base_weights":[1.1231943E-3,9.3240803E-1,-3.6717743E-1,1.2085352E0,4.018593E-1,-7.0922685E-1,3.8802314E-1,2.132843E-2,-2.0868609E-2,2.2639846E-4,2.2747183E-2,-1.2533586E-3,-2.3303762E-2,2.1602677E-2,-2.1859992E-2],"categories":[],"categories_nodes":[],"categories_segments":[],"categories_sizes":[],"default_left":[0,0,0,0,0,0,0,0,0,0,0,0,0,0,0],"id":47,"left_children":[1,3,5,7,9,11,13,-1,-1,-1,-1,-1,-1,-1,-1],"loss_changes":[6.190914E4,7.4933125E3,3.3411984E4,1.037875E3,6.133997E3,3.5481457E4,5.6139633E4,0E0,0E0,0E0,0E0,0E0,0E0,0E0,0E0],"parents":[2147483647,0,0,1,1,2,2,3,3,4,4,5,5,6,6],"right_children":[2,4,6,8,10,12,14,-1,-1,-1,-1,-1,-1,-1,-1],"split_conditions":[-1.2603487E0,-1.5032642E0,-1.3812049E-1,1.2749523E0,-1.3812098E-1,-1.3812098E-1,-2.4931091E-1,2.132843E-2,-2.0868609E-2,2.2639846E-4,2.2747183E-2,-1.2533586E-3,-2.3303762E-2,2.1602677E-2,-2.1859992E-2],"split_indices":[15,15,8,20,8,8,18,0,0,0,0,0,0,0,0],"split_type":[0,0,0,0,0,0,0,0,0,0,0,0,0,0,0],"sum_hessian":[1.8049492E5,5.1151566E4,1.2934336E5,3.3641414E4,1.751015E4,8.902276E4,4.0320598E4,3.346346E4,1.7795522E2,1.2230586E4,5.279565E3,4.40814E4,4.4941363E4,2.6565984E4,1.3754612E4],"tree_param":{"num_deleted":"0","num_feature":"40","num_nodes":"15","size_leaf_vector":"1"}},{"base_weights":[1.0285494E-3,5.2148485E-1,-6.334495E-1,7.426711E-1,-1.4475565E0,-1.3286364E0,3.0045834E-1,1.0287438E-2,3.332987E-2,-2.681047E-2,-2.342792E-2,-2.370335E-2,2.326148E-2,2.2472965E-2,-2.3804259E-2],"categories":[],"categories_nodes":[],"categories_segments":[],"categories_sizes":[],"default_left":[0,0,0,0,0,0,0,0,0,0,0,0,0,0,0],"id":48,"left_children":[1,3,5,7,9,11,13,-1,-1,-1,-1,-1,-1,-1,-1],"loss_changes":[5.8743207E4,4.2563766E4,5.2046652E4,1.573025E4,8.969531E1,3.5127344E3,5.614057E4,0E0,0E0,0E0,0E0,0E0,0E0,0E0,0E0],"parents":[2147483647,0,0,1,1,2,2,3,3,4,4,5,5,6,6],"right_children":[2,4,6,8,10,12,14,-1,-1,-1,-1,-1,-1,-1,-1],"split_conditions":[-2.5075614E-1,9.2885554E-2,-2.507533E-1,6.829755E-1,-1.3812098E-1,-1.3812049E-1,-1.377736E-1,1.0287438E-2,3.332987E-2,-2.681047E-2,-2.342792E-2,-2.370335E-2,2.326148E-2,2.2472965E-2,-2.3804259E-2],"split_indices":[18,30,18,15,8,8,8,0,0,0,0,0,0,0,0],"split_type":[0,0,0,0,0,0,0,0,0,0,0,0,0,0,0],"sum_hessian":[1.7789017E5,9.772636E4,8.016382E4,8.785775E4,9.868608E3,4.595511E4,3.420871E4,7.7633734E4,1.0224012E4,5.392058E3,4.4765503E3,4.546495E4,4.9015875E2,2.1475121E4,1.2733589E4],"tree_param":{"num_deleted":"0","num_feature":"40","num_nodes":"15","size_leaf_vector":"1"}},{"base_weights":[1.169823E-3,5.232313E-1,-6.3241047E-1,7.431935E-1,-1.4472698E0,-1.3261266E0,3.0075714E-1,1.0317593E-2,3.349292E-2,-2.6810236E-2,-2.3428343E-2,-2.3710508E-2,2.3265213E-2,2.2471849E-2,-2.3845362E-2],"categories":[],"categories_nodes":[],"categories_segments":[],"categories_sizes":[],"default_left":[0,0,0,0,0,0,0,0,0,0,0,0,0,0,0],"id":49,"left_children":[1,3,5,7,9,11,13,-1,-1,-1,-1,-1,-1,-1,-1],"loss_changes":[5.875733E4,4.2213637E4,5.1949562E4,1.5680602E4,8.888086E1,3.8726406E3,5.6225367E4,0E0,0E0,0E0,0E0,0E0,0E0,0E0,0E0],"parents":[2147483647,0,0,1,1,2,2,3,3,4,4,5,5,6,6],"right_children":[2,4,6,8,10,12,14,-1,-1,-1,-1,-1,-1,-1,-1],"split_conditions":[-2.5075614E-1,9.2885554E-2,-2.507533E-1,6.829755E-1,-1.3812098E-1,-1.3812049E-1,-1.3778508E-1,1.0317593E-2,3.349292E-2,-2.6810236E-2,-2.3428343E-2,-2.3710508E-2,2.3265213E-2,2.2471849E-2,-2.3845362E-2],"split_indices":[18,30,18,15,8,8,8,0,0,0,0,0,0,0,0],"split_type":[0,0,0,0,0,0,0,0,0,0,0,0,0,0,0],"sum_hessian":[1.7763714E5,9.738961E4,8.024753E4,8.761049E4,9.779118E3,4.602911E4,3.4218426E4,7.7553234E4,1.0057258E4,5.32843E3,4.4506885E3,4.5488312E4,5.4079553E2,2.1496896E4,1.2721528E4],"tree_param":{"num_deleted":"0","num_feature":"40","num_nodes":"15","size_leaf_vector":"1"}},{"base_weights":[8.8433496E-4,9.019933E-1,-3.5730374E-1,1.1868689E0,3.684591E-1,-6.834296E-1,3.783167E-1,2.1160511E-2,-2.7442907E-3,-2.7708634E-4,2.2408742E-2,-1.1259239E-3,-2.285373E-2,2.1053394E-2,-2.1673815E-2],"categories":[],"categories_nodes":[],"categories_segments":[],"categories_sizes":[],"default_left":[0,0,0,0,0,0,0,0,0,0,0,0,0,0,0],"id":50,"left_children":[1,3,5,7,9,11,13,-1,-1,-1,-1,-1,-1,-1,-1],"loss_changes":[5.6646402E4,7.5868203E3,3.0128387E4,1.0878477E3,6.109343E3,3.3673773E4,5.1682062E4,0E0,0E0,0E0,0E0,0E0,0E0,0E0,0E0],"parents":[2147483647,0,0,1,1,2,2,3,3,4,4,5,5,6,6],"right_children":[2,4,6,8,10,12,14,-1,-1,-1,-1,-1,-1,-1,-1],"split_conditions":[-1.2603487E0,-1.5032642E0,-1.3812049E-1,1.4550036E1,-1.3812098E-1,-1.3812098E-1,-2.4914002E-1,2.1160511E-2,-2.7442907E-3,-2.7708634E-4,2.2408742E-2,-1.1259239E-3,-2.285373E-2,2.1053394E-2,-2.1673815E-2],"split_indices":[15,15,8,0,8,8,18,0,0,0,0,0,0,0,0],"split_type":[0,0,0,0,0,0,0,0,0,0,0,0,0,0,0],"sum_hessian":[1.7550075E5,4.9918117E4,1.2558264E5,3.2541602E4,1.7376516E4,8.700874E4,3.85739E4,3.1950535E4,5.9106573E2,1.2236464E4,5.1400513E3,4.3725668E4,4.328308E4,2.5531514E4,1.3042383E4],"tree_param":{"num_deleted":"0","num_feature":"40","num_nodes":"15","size_leaf_vector":"1"}},{"base_weights":[1.041486E-3,9.037431E-1,-3.5744363E-1,1.1871924E0,3.7177718E-1,-6.8368965E-1,3.7807608E-1,2.0963836E-2,-2.1158157E-2,-1.3887639E-4,2.240883E-2,-1.1579308E-3,-2.2850808E-2,2.062501E-2,-2.2383386E-2],"categories":[],"categories_nodes":[],"categories_segments":[],"categories_sizes":[],"default_left":[0,0,0,0,0,0,0,0,0,0,0,0,0,0,0],"id":51,"left_children":[1,3,5,7,9,11,13,-1,-1,-1,-1,-1,-1,-1,-1],"loss_changes":[5.6713652E4,7.511004E3,3.0100965E4,1.0368477E3,5.9938E3,3.3521727E4,5.1375145E4,0E0,0E0,0E0,0E0,0E0,0E0,0E0,0E0],"parents":[2147483647,0,0,1,1,2,2,3,3,4,4,5,5,6,6],"right_children":[2,4,6,8,10,12,14,-1,-1,-1,-1,-1,-1,-1,-1],"split_conditions":[-1.2603487E0,-1.5032642E0,-1.3812049E-1,1.2749523E0,-1.3812098E-1,-1.3812098E-1,-2.478355E-1,2.0963836E-2,-2.1158157E-2,-1.3887639E-4,2.240883E-2,-1.1579308E-3,-2.2850808E-2,2.062501E-2,-2.2383386E-2],"split_indices":[15,15,8,20,8,8,18,0,0,0,0,0,0,0,0],"split_type":[0,0,0,0,0,0,0,0,0,0,0,0,0,0,0],"sum_hessian":[1.7525375E5,4.9814445E4,1.2543931E5,3.2497467E4,1.7316977E4,8.6895945E4,3.8543367E4,3.2319021E4,1.7844534E2,1.2224811E4,5.0921665E3,4.37094E4,4.3186547E4,2.597668E4,1.25666875E4],"tree_param":{"num_deleted":"0","num_feature":"40","num_nodes":"15","size_leaf_vector":"1"}},{"base_weights":[8.7537756E-4,8.8662887E-1,-3.503652E-1,1.1733295E0,3.58313E-1,-6.678623E-1,3.7390688E-1,2.0932835E-2,-3.0865702E-3,-2.698176E-4,2.2191718E-2,-1.451379E-2,2.8988523E-2,2.0806702E-2,-2.1451764E-2],"categories":[],"categories_nodes":[],"categories_segments":[],"categories_sizes":[],"default_left":[0,0,0,0,0,0,0,0,0,0,0,0,0,0,0],"id":52,"left_children":[1,3,5,7,9,11,13,-1,-1,-1,-1,-1,-1,-1,-1],"loss_changes":[5.3720992E4,7.4261133E3,2.8432639E4,1.0887812E3,5.8827666E3,3.2669996E4,4.9366758E4,0E0,0E0,0E0,0E0,0E0,0E0,0E0,0E0],"parents":[2147483647,0,0,1,1,2,2,3,3,4,4,5,5,6,6],"right_children":[2,4,6,8,10,12,14,-1,-1,-1,-1,-1,-1,-1,-1],"split_conditions":[-1.2603487E0,-1.5032642E0,-1.3812049E-1,1.4550036E1,-1.3812098E-1,-1.427136E-1,-2.4914002E-1,2.0932835E-2,-3.0865702E-3,-2.698176E-4,2.2191718E-2,-1.451379E-2,2.8988523E-2,2.0806702E-2,-2.1451764E-2],"split_indices":[15,15,8,0,8,17,18,0,0,0,0,0,0,0,0],"split_type":[0,0,0,0,0,0,0,0,0,0,0,0,0,0,0],"sum_hessian":[1.7267181E5,4.9029188E4,1.2364263E5,3.178126E4,1.7247926E4,8.596046E4,3.7682168E4,3.119518E4,5.860806E2,1.2236605E4,5.011321E3,8.0327625E4,5.632841E3,2.4951275E4,1.2730891E4],"tree_param":{"num_deleted":"0","num_feature":"40","num_nodes":"15","size_leaf_vector":"1"}},{"base_weights":[1.0217524E-3,8.884143E-1,-3.5053885E-1,1.173658E0,3.6171848E-1,-6.681395E-1,3.7361348E-1,2.0731729E-2,-2.1158192E-2,-1.3160925E-4,2.2191798E-2,-1.1185878E-3,-2.2598727E-2,2.03733E-2,-2.2171566E-2],"categories":[],"categories_nodes":[],"categories_segments":[],"categories_sizes":[],"default_left":[0,0,0,0,0,0,0,0,0,0,0,0,0,0,0],"id":53,"left_children":[1,3,5,7,9,11,13,-1,-1,-1,-1,-1,-1,-1,-1],"loss_changes":[5.3793844E4,7.350426E3,2.8404865E4,1.0253477E3,5.770548E3,3.2462676E4,4.906988E4,0E0,0E0,0E0,0E0,0E0,0E0,0E0,0E0],"parents":[2147483647,0,0,1,1,2,2,3,3,4,4,5,5,6,6],"right_children":[2,4,6,8,10,12,14,-1,-1,-1,-1,-1,-1,-1,-1],"split_conditions":[-1.2603487E0,-1.5032642E0,-1.3812049E-1,1.2749523E0,-1.3812098E-1,-1.3812098E-1,-2.478355E-1,2.0731729E-2,-2.1158192E-2,-1.3160925E-4,2.2191798E-2,-1.1185878E-3,-2.2598727E-2,2.03733E-2,-2.2171566E-2],"split_indices":[15,15,8,20,8,8,18,0,0,0,0,0,0,0,0],"split_type":[0,0,0,0,0,0,0,0,0,0,0,0,0,0,0],"sum_hessian":[1.7242948E5,4.8927496E4,1.23501984E5,3.1737906E4,1.7189588E4,8.584982E4,3.7652168E4,3.155946E4,1.784454E2,1.2224951E4,4.964637E3,4.3688695E4,4.2161125E4,2.5396098E4,1.225607E4],"tree_param":{"num_deleted":"0","num_feature":"40","num_nodes":"15","size_leaf_vector":"1"}},{"base_weights":[1.0693349E-3,4.9385136E-1,-6.115979E-1,7.0469975E-1,-1.410352E0,-1.2902483E0,3.03852E-1,9.645115E-3,3.2752674E-2,-2.616458E-2,-2.270203E-2,-2.3063034E-2,2.25542E-2,2.1947226E-2,-2.338008E-2],"categories":[],"categories_nodes":[],"categories_segments":[],"categories_sizes":[],"default_left":[0,0,0,0,0,0,0,0,0,0,0,0,0,0,0],"id":54,"left_children":[1,3,5,7,9,11,13,-1,-1,-1,-1,-1,-1,-1,-1],"loss_changes":[5.121509E4,3.7748473E4,4.6980617E4,1.5100926E4,8.899805E1,3.4139766E3,5.0397547E4,0E0,0E0,0E0,0E0,0E0,0E0,0E0,0E0],"parents":[2147483647,0,0,1,1,2,2,3,3,4,4,5,5,6,6],"right_children":[2,4,6,8,10,12,14,-1,-1,-1,-1,-1,-1,-1,-1],"split_conditions":[-2.5075614E-1,9.2885554E-2,-2.507533E-1,6.829755E-1,-1.3812098E-1,-1.3812049E-1,-1.3778508E-1,9.645115E-3,3.2752674E-2,-2.616458E-2,-2.270203E-2,-2.3063034E-2,2.25542E-2,2.1947226E-2,-2.338008E-2],"split_indices":[18,30,18,15,8,8,8,0,0,0,0,0,0,0,0],"split_type":[0,0,0,0,0,0,0,0,0,0,0,0,0,0,0],"sum_hessian":[1.6963416E5,9.401555E4,7.561862E4,8.464375E4,9.371792E3,4.342555E4,3.2193066E4,7.489761E4,9.746138E3,5.208362E3,4.1634307E3,4.292009E4,5.0546234E2,2.0374135E4,1.1818933E4],"tree_param":{"num_deleted":"0","num_feature":"40","num_nodes":"15","size_leaf_vector":"1"}},{"base_weights":[9.061181E-4,4.919893E-1,-6.123423E-1,7.0402867E-1,-1.410646E0,-1.292624E0,3.039409E-1,9.613201E-3,3.2590535E-2,-2.61648E-2,-2.2701662E-2,-2.3055494E-2,2.2550223E-2,2.1950409E-2,-2.3333993E-2],"categories":[],"categories_nodes":[],"categories_segments":[],"categories_sizes":[],"default_left":[0,0,0,0,0,0,0,0,0,0,0,0,0,0,0],"id":55,"left_children":[1,3,5,7,9,11,13,-1,-1,-1,-1,-1,-1,-1,-1],"loss_changes":[5.115868E4,3.8058176E4,4.7087492E4,1.5144715E4,8.980664E1,3.0966094E3,5.031504E4,0E0,0E0,0E0,0E0,0E0,0E0,0E0,0E0],"parents":[2147483647,0,0,1,1,2,2,3,3,4,4,5,5,6,6],"right_children":[2,4,6,8,10,12,14,-1,-1,-1,-1,-1,-1,-1,-1],"split_conditions":[-2.5075614E-1,9.2885554E-2,-2.507533E-1,6.829755E-1,-1.3812098E-1,-1.3812049E-1,-1.377736E-1,9.613201E-3,3.2590535E-2,-2.61648E-2,-2.2701662E-2,-2.3055494E-2,2.2550223E-2,2.1950409E-2,-2.3333993E-2],"split_indices":[18,30,18,15,8,8,8,0,0,0,0,0,0,0,0],"split_type":[0,0,0,0,0,0,0,0,0,0,0,0,0,0,0],"sum_hessian":[1.6987236E5,9.4332234E4,7.554012E4,8.487407E4,9.458168E3,4.335293E4,3.2187188E4,7.4971414E4,9.902653E3,5.270559E3,4.1876084E3,4.2894793E4,4.5813654E2,2.0358059E4,1.1829129E4],"tree_param":{"num_deleted":"0","num_feature":"40","num_nodes":"15","size_leaf_vector":"1"}},{"base_weights":[7.626443E-4,1.1541849E0,-2.5786868E-1,1.1804225E0,-2.1703982E-1,-5.670556E-1,4.7042784E-1,2.0825418E-2,-2.8876524E-2,-1.2021037E-2,1.4335999E-2,-9.159542E-4,-2.2217268E-2,2.0617576E-2,-2.1064669E-2],"categories":[],"categories_nodes":[],"categories_segments":[],"categories_sizes":[],"default_left":[0,0,0,0,0,0,0,0,0,0,0,0,0,0,0],"id":56,"left_children":[1,3,5,7,9,11,13,-1,-1,-1,-1,-1,-1,-1,-1],"loss_changes":[4.9969668E4,1.1040859E3,3.081111E4,1.0364766E3,2.8279605E2,3.4856637E4,4.855945E4,0E0,0E0,0E0,0E0,0E0,0E0,0E0,0E0],"parents":[2147483647,0,0,1,1,2,2,3,3,4,4,5,5,6,6],"right_children":[2,4,6,8,10,12,14,-1,-1,-1,-1,-1,-1,-1,-1],"split_conditions":[-1.5032642E0,1.4550036E1,-1.3812049E-1,1.772034E0,2.914867E1,-1.3812098E-1,-2.4914002E-1,2.0825418E-2,-2.8876524E-2,-1.2021037E-2,1.4335999E-2,-9.159542E-4,-2.2217268E-2,2.0617576E-2,-2.1064669E-2],"split_indices":[15,0,8,24,0,8,18,0,0,0,0,0,0,0,0],"split_type":[0,0,0,0,0,0,0,0,0,0,0,0,0,0,0],"sum_hessian":[1.6750658E5,3.067982E4,1.3682675E5,3.0103936E4,5.758839E2,9.605031E4,4.077644E4,2.9976262E4,1.2767509E2,3.9627625E2,1.7960767E2,5.5529598E4,4.052071E4,2.8643656E4,1.2132784E4],"tree_param":{"num_deleted":"0","num_feature":"40","num_nodes":"15","size_leaf_vector":"1"}},{"base_weights":[9.4254385E-4,1.154519E0,-2.577253E-1,1.179958E0,-1.6885437E-1,-5.6619245E-1,4.692841E-1,2.0857807E-2,-2.1419613E-2,-1.1770854E-2,1.4410955E-2,-9.080433E-4,-2.2214098E-2,2.0245742E-2,-2.1810655E-2],"categories":[],"categories_nodes":[],"categories_segments":[],"categories_sizes":[],"default_left":[0,0,0,0,0,0,0,0,0,0,0,0,0,0,0],"id":57,"left_children":[1,3,5,7,9,11,13,-1,-1,-1,-1,-1,-1,-1,-1],"loss_changes":[4.9914164E4,1.0316562E3,3.0642504E4,1.0464219E3,2.9119513E2,3.4820008E4,4.8265656E4,0E0,0E0,0E0,0E0,0E0,0E0,0E0,0E0],"parents":[2147483647,0,0,1,1,2,2,3,3,4,4,5,5,6,6],"right_children":[2,4,6,8,10,12,14,-1,-1,-1,-1,-1,-1,-1,-1],"split_conditions":[-1.5032642E0,1.4550036E1,-1.3812049E-1,1.2749523E0,2.914867E1,-1.3812098E-1,-2.478355E-1,2.0857807E-2,-2.1419613E-2,-1.1770854E-2,1.4410955E-2,-9.080433E-4,-2.2214098E-2,2.0245742E-2,-2.1810655E-2],"split_indices":[15,0,8,20,0,8,18,0,0,0,0,0,0,0,0],"split_type":[0,0,0,0,0,0,0,0,0,0,0,0,0,0,0],"sum_hessian":[1.6727453E5,3.0637508E4,1.3663702E5,3.0059781E4,5.7772705E2,9.593318E4,4.0703844E4,2.9880932E4,1.7885005E2,3.8327106E2,1.94456E2,5.5503137E4,4.0430043E4,2.9040979E4,1.1662864E4],"tree_param":{"num_deleted":"0","num_feature":"40","num_nodes":"15","size_leaf_vector":"1"}},{"base_weights":[7.5849117E-4,1.1421064E0,-2.526842E-1,1.1687049E0,-2.0875601E-1,-5.533946E-1,4.6547902E-1,2.0620532E-2,-2.830765E-2,-1.1473296E-2,1.40347555E-2,-8.8435784E-4,-2.1998856E-2,2.0401288E-2,-2.0870319E-2],"categories":[],"categories_nodes":[],"categories_segments":[],"categories_sizes":[],"default_left":[0,0,0,0,0,0,0,0,0,0,0,0,0,0,0],"id":58,"left_children":[1,3,5,7,9,11,13,-1,-1,-1,-1,-1,-1,-1,-1],"loss_changes":[4.765724E4,1.0758867E3,2.9114922E4,9.9379297E2,2.6325632E2,3.374567E4,4.6437848E4,0E0,0E0,0E0,0E0,0E0,0E0,0E0,0E0],"parents":[2147483647,0,0,1,1,2,2,3,3,4,4,5,5,6,6],"right_children":[2,4,6,8,10,12,14,-1,-1,-1,-1,-1,-1,-1,-1],"split_conditions":[-1.5032642E0,1.4550036E1,-1.3812049E-1,1.772034E0,2.914867E1,-1.3812098E-1,-2.4914002E-1,2.0620532E-2,-2.830765E-2,-1.1473296E-2,1.40347555E-2,-8.8435784E-4,-2.1998856E-2,2.0401288E-2,-2.0870319E-2],"split_indices":[15,0,8,24,0,8,18,0,0,0,0,0,0,0,0],"split_type":[0,0,0,0,0,0,0,0,0,0,0,0,0,0,0],"sum_hessian":[1.6475014E5,2.9935553E4,1.348146E5,2.9357639E4,5.779145E2,9.502556E4,3.9789023E4,2.9231318E4,1.2632018E2,4.0081E2,1.7710452E2,5.5513914E4,3.951165E4,2.7957453E4,1.1831571E4],"tree_param":{"num_deleted":"0","num_feature":"40","num_nodes":"15","size_leaf_vector":"1"}},{"base_weights":[9.235616E-4,1.1424333E0,-2.5255027E-1,1.1682228E0,-1.621303E-1,-5.5253536E-1,4.6429262E-1,2.065332E-2,-2.0959143E-2,-1.122598E-2,1.4110634E-2,-8.764466E-4,-2.199562E-2,2.0024132E-2,-2.1628669E-2],"categories":[],"categories_nodes":[],"categories_segments":[],"categories_sizes":[],"default_left":[0,0,0,0,0,0,0,0,0,0,0,0,0,0,0],"id":59,"left_children":[1,3,5,7,9,11,13,-1,-1,-1,-1,-1,-1,-1,-1],"loss_changes":[4.760392E4,1.00597266E3,2.8951297E4,1.00608594E3,2.712024E2,3.3709727E4,4.6153598E4,0E0,0E0,0E0,0E0,0E0,0E0,0E0,0E0],"parents":[2147483647,0,0,1,1,2,2,3,3,4,4,5,5,6,6],"right_children":[2,4,6,8,10,12,14,-1,-1,-1,-1,-1,-1,-1,-1],"split_conditions":[-1.5032642E0,1.4550036E1,-1.3812049E-1,1.2749523E0,2.914867E1,-1.3812098E-1,-2.478355E-1,2.065332E-2,-2.0959143E-2,-1.122598E-2,1.4110634E-2,-8.764466E-4,-2.199562E-2,2.0024132E-2,-2.1628669E-2],"split_indices":[15,0,8,20,0,8,18,0,0,0,0,0,0,0,0],"split_type":[0,0,0,0,0,0,0,0,0,0,0,0,0,0,0],"sum_hessian":[1.6452228E5,2.989369E4,1.346286E5,2.9314287E4,5.79402E2,9.491056E4,3.971803E4,2.9136775E4,1.7751286E2,3.8765604E2,1.9174593E2,5.5487355E4,3.942321E4,2.8355562E4,1.136247E4],"tree_param":{"num_deleted":"0","num_feature":"40","num_nodes":"15","size_leaf_vector":"1"}}]},"name":"gbtree"},"learner_model_param":{"base_score":"5E-1","boost_from_average":"1","num_class":"0","num_feature":"40","num_target":"1"},"objective":{"name":"binary:logistic","reg_loss_param":{"scale_pos_weight":"2.66999483"}}},"version":[2,1,4]}