{"learner":{"attributes":{},"feature_names":[],"feature_types":[],"gradient_booster":{"model":{"gbtree_model_param":{"num_parallel_tree":"1","num_trees":"81"},"iteration_indptr":[0,1,2,3,4,5,6,7,8,9,10,11,12,13,14,15,16,17,18,19,20,21,22,23,24,25,26,27,28,29,30,31,32,33,34,35,36,37,38,39,40,41,42,43,44,45,46,47,48,49,50,51,52,53,54,55,56,57,58,59,60,61,62,63,64,65,66,67,68,69,70,71,72,73,74,75,76,77,78,79,80,81],"tree_info":[0,0,0,0,0,0,0,0,0,0,0,0,0,0,0,0,0,0,0,0,0,0,0,0,0,0,0,0,0,0,0,0,0,0,0,0,0,0,0,0,0,0,0,0,0,0,0,0,0,0,0,0,0,0,0,0,0,0,0,0,0,0,0,0,0,0,0,0,0,0,0,0,0,0,0,0,0,0,0,0,0],"trees":[{"base_weights":[2.0260275E-3,1.9586531E0,-9.703162E-1,1.9662447E0,-3.1160781E-2,-1.3536241E0,7.853108E-2,3.4541458E-2,4.6612425E-3,-2.883863E-2,3.4870386E-2,3.393608E-2,-3.4817424E-2],"categories":[],"categories_nodes":[],"categories_segments":[],"categories_sizes":[],"default_left":[0,0,0,0,0,0,0,0,0,0,0,0,0],"id":0,"left_children":[1,3,5,7,-1,9,11,-1,-1,-1,-1,-1,-1],"loss_changes":[2.9938754E4,1.5195312E2,4.2264004E3,1.03484375E2,0E0,7.6847227E3,1.0880365E4,0E0,0E0,0E0,0E0,0E0,0E0],"parents":[2147483647,0,0,1,1,2,2,3,3,5,5,6,6],"right_children":[2,4,6,8,-1,10,12,-1,-1,-1,-1,-1,-1],"split_conditions":[-1.5032642E0,1.0240021E1,-1.3812049E-1,1.9430428E1,-3.1160781E-2,-7.0756085E-2,-2.5005513E-1,3.4541458E-2,4.6612425E-3,-2.883863E-2,3.4870386E-2,3.393608E-2,-3.4817424E-2],"split_indices":[15,20,8,1,0,17,18,0,0,0,0,0,0],"split_type":[0,0,0,0,0,0,0,0,0,0,0,0,0],"sum_hessian":[1.573444E4,5.2230913E3,1.0511349E4,5.212993E3,1.0098214E1,7.6978354E3,2.8135134E3,5.1770645E3,3.592851E1,7.0699536E3,6.27882E2,1.480942E3,1.3325714E3],"tree_param":{"num_deleted":"0","num_feature":"40","num_nodes":"13","size_leaf_vector":"1"}},{"base_weights":[2.3073678E-4,1.9253098E0,-9.5349884E-1,6.1129385E-1,1.9621677E0,-1.2425069E0,-7.637718E-2,6.032806E-3,3.2935347E-2,3.4312684E-2,-2.6746452E-2,-8.403261E-3,-3.442099E-2,1.6788984E-2,-3.429129E-2],"categories":[],"categories_nodes":[],"categories_segments":[],"categories_sizes":[],"default_left":[0,0,0,0,0,0,0,0,0,0,0,0,0,0,0],"id":1,"left_children":[1,3,5,7,9,11,13,-1,-1,-1,-1,-1,-1,-1,-1],"loss_changes":[2.888364E4,2.5122266E2,2.666662E3,4.8027386E1,5.110742E1,4.387963E3,5.110432E3,0E0,0E0,0E0,0E0,0E0,0E0,0E0,0E0],"parents":[2147483647,0,0,1,1,2,2,3,3,4,4,5,5,6,6],"right_children":[2,4,6,8,10,12,14,-1,-1,-1,-1,-1,-1,-1,-1],"split_conditions":[-1.5032642E0,-1.9167848E-1,-2.5075376E-1,-1.9037183E-1,3.3831367E0,-2.5075614E-1,-1.4987123E-1,6.032806E-3,3.2935347E-2,3.4312684E-2,-2.6746452E-2,-8.403261E-3,-3.442099E-2,1.6788984E-2,-3.429129E-2],"split_indices":[15,19,18,3,22,18,18,0,0,0,0,0,0,0,0],"split_type":[0,0,0,0,0,0,0,0,0,0,0,0,0,0,0],"sum_hessian":[1.5729788E4,5.2108335E3,1.0518954E4,1.4265523E2,5.068178E3,7.911674E3,2.6072803E3,1.19090904E2,2.3564327E1,5.064679E3,3.4991505E0,3.8697642E3,4.0419097E3,1.6825605E3,9.247197E2],"tree_param":{"num_deleted":"0","num_feature":"40","num_nodes":"15","size_leaf_vector":"1"}},{"base_weights":[-4.1811448E-3,1.8951169E0,-9.4386095E-1,6.219865E-1,1.930016E0,-1.3143778E0,6.980533E-2,6.3884743E-3,3.2376096E-2,3.375733E-2,-2.7358947E-2,-2.7943226E-2,3.4062043E-2,3.32362E-2,-3.3922594E-2],"categories":[],"categories_nodes":[],"categories_segments":[],"categories_sizes":[],"default_left":[0,0,0,0,0,0,0,0,0,0,0,0,0,0,0],"id":2,"left_children":[1,3,5,7,9,11,13,-1,-1,-1,-1,-1,-1,-1,-1],"loss_changes":[2.8116826E4,2.3048633E2,3.9585605E3,4.3693497E1,5.7427734E1,7.204374E3,1.041617E4,0E0,0E0,0E0,0E0,0E0,0E0,0E0,0E0],"parents":[2147483647,0,0,1,1,2,2,3,3,4,4,5,5,6,6],"right_children":[2,4,6,8,10,12,14,-1,-1,-1,-1,-1,-1,-1,-1],"split_conditions":[-1.5032642E0,-1.9167848E-1,-1.3812049E-1,-1.9037183E-1,1.0240021E1,-7.0756085E-2,-2.5005513E-1,6.3884743E-3,3.2376096E-2,3.375733E-2,-2.7358947E-2,-2.7943226E-2,3.4062043E-2,3.32362E-2,-3.3922594E-2],"split_indices":[15,19,8,3,20,17,18,0,0,0,0,0,0,0,0],"split_type":[0,0,0,0,0,0,0,0,0,0,0,0,0,0,0],"sum_hessian":[1.5752087E4,5.213483E3,1.05386045E4,1.3960156E2,5.0738813E3,7.717424E3,2.8211807E3,1.1664563E2,2.295593E1,5.069884E3,3.997484E0,7.0967803E3,6.2064355E2,1.4762432E3,1.3449375E3],"tree_param":{"num_deleted":"0","num_feature":"40","num_nodes":"15","size_leaf_vector":"1"}},{"base_weights":[-1.9868617E-3,1.8622036E0,-9.238193E-1,5.6478846E-1,1.8987007E0,-1.2018807E0,-7.577496E-2,6.4502205E-3,3.188225E-2,3.321632E-2,-2.7538138E-2,-7.964219E-3,-3.3395488E-2,1.601825E-2,-3.3180036E-2],"categories":[],"categories_nodes":[],"categories_segments":[],"categories_sizes":[],"default_left":[0,0,0,0,0,0,0,0,0,0,0,0,0,0,0],"id":3,"left_children":[1,3,5,7,9,11,13,-1,-1,-1,-1,-1,-1,-1,-1],"loss_changes":[2.7025297E4,2.4532227E2,2.481287E3,3.4758743E1,6.28125E1,4.198206E3,4.710719E3,0E0,0E0,0E0,0E0,0E0,0E0,0E0,0E0],"parents":[2147483647,0,0,1,1,2,2,3,3,4,4,5,5,6,6],"right_children":[2,4,6,8,10,12,14,-1,-1,-1,-1,-1,-1,-1,-1],"split_conditions":[-1.5032642E0,-1.9167848E-1,-2.5075376E-1,-1.602806E-1,1.0240021E1,-2.5075614E-1,-1.4987123E-1,6.4502205E-3,3.188225E-2,3.321632E-2,-2.7538138E-2,-7.964219E-3,-3.3395488E-2,1.601825E-2,-3.3180036E-2],"split_indices":[15,19,18,2,20,18,18,0,0,0,0,0,0,0,0],"split_type":[0,0,0,0,0,0,0,0,0,0,0,0,0,0,0],"sum_hessian":[1.5724359E4,5.2025E3,1.0521859E4,1.4279613E2,5.0597036E3,7.9234565E3,2.5984028E3,1.2475413E2,1.8042006E1,5.055211E3,4.4930825E0,3.866399E3,4.0570576E3,1.6828348E3,9.1556805E2],"tree_param":{"num_deleted":"0","num_feature":"40","num_nodes":"15","size_leaf_vector":"1"}},{"base_weights":[3.1438556E-3,1.8349327E0,-9.034339E-1,1.8415058E0,-3.0077519E-2,-1.2654932E0,8.6558096E-2,3.2341946E-2,5.631966E-3,-2.705513E-2,3.3321146E-2,3.264013E-2,-3.3099573E-2],"categories":[],"categories_nodes":[],"categories_segments":[],"categories_sizes":[],"default_left":[0,0,0,0,0,0,0,0,0,0,0,0,0],"id":4,"left_children":[1,3,5,7,-1,9,11,-1,-1,-1,-1,-1,-1],"loss_changes":[2.603238E4,1.2452539E2,3.7587324E3,8.222656E1,0E0,6.918301E3,9.927565E3,0E0,0E0,0E0,0E0,0E0,0E0],"parents":[2147483647,0,0,1,1,2,2,3,3,5,5,6,6],"right_children":[2,4,6,8,-1,10,12,-1,-1,-1,-1,-1,-1],"split_conditions":[-1.5032642E0,1.0240021E1,-1.3812049E-1,1.4550036E1,-3.0077519E-2,-7.0756085E-2,-2.5005513E-1,3.2341946E-2,5.631966E-3,-2.705513E-2,3.3321146E-2,3.264013E-2,-3.3099573E-2],"split_indices":[15,20,8,0,0,17,18,0,0,0,0,0,0],"split_type":[0,0,0,0,0,0,0,0,0,0,0,0,0],"sum_hessian":[1.56739375E4,5.1887554E3,1.0485182E4,5.179667E3,9.088613E0,7.6772026E3,2.8079797E3,5.1438057E3,3.5861042E1,7.0475034E3,6.2969885E2,1.4783964E3,1.3295834E3],"tree_param":{"num_deleted":"0","num_feature":"40","num_nodes":"13","size_leaf_vector":"1"}},{"base_weights":[-2.1955138E-3,1.8066796E0,-8.9531624E-1,5.7121444E-1,1.8417083E0,-7.1690965E-1,-3.283731E-2,5.3531495E-3,3.1233037E-2,3.2216422E-2,-2.6551424E-2,-1.604474E-2,1.0062641E-2],"categories":[],"categories_nodes":[],"categories_segments":[],"categories_sizes":[],"default_left":[0,0,0,0,0,0,0,0,0,0,0,0,0],"id":5,"left_children":[1,3,5,7,9,11,-1,-1,-1,-1,-1,-1,-1],"loss_changes":[2.5273975E4,2.2273633E2,1.8392598E3,4.5853546E1,5.5796875E1,2.3157896E3,0E0,0E0,0E0,0E0,0E0,0E0,0E0],"parents":[2147483647,0,0,1,1,2,2,3,3,4,4,5,5],"right_children":[2,4,6,8,10,12,-1,-1,-1,-1,-1,-1,-1],"split_conditions":[-1.5032642E0,-1.9167848E-1,9.2885554E-2,-1.9037183E-1,1.0240021E1,6.829755E-1,-3.283731E-2,5.3531495E-3,3.1233037E-2,3.2216422E-2,-2.6551424E-2,-1.604474E-2,1.0062641E-2],"split_indices":[15,19,30,3,20,15,0,0,0,0,0,0,0],"split_type":[0,0,0,0,0,0,0,0,0,0,0,0,0],"sum_hessian":[1.564225E4,5.170069E3,1.0472182E4,1.4302063E2,5.0270483E3,8.867863E3,1.6043177E3,1.1850651E2,2.4514114E1,5.0228164E3,4.2317967E0,7.670655E3,1.197209E3],"tree_param":{"num_deleted":"0","num_feature":"40","num_nodes":"13","size_leaf_vector":"1"}},{"base_weights":[6.2574586E-4,1.7791611E0,-8.7709075E-1,5.4433703E-1,1.814962E0,-1.2324723E0,9.086994E-2,5.0534443E-3,3.0777456E-2,3.1748578E-2,-2.6216516E-2,-2.6380897E-2,3.266032E-2,3.275153E-2,-1.43914595E-2],"categories":[],"categories_nodes":[],"categories_segments":[],"categories_sizes":[],"default_left":[0,0,0,0,0,0,0,0,0,0,0,0,0,0,0],"id":6,"left_children":[1,3,5,7,9,11,13,-1,-1,-1,-1,-1,-1,-1,-1],"loss_changes":[2.4418111E4,2.2750684E2,3.60292E3,4.5161655E1,5.4203125E1,6.6156533E3,4.595778E3,0E0,0E0,0E0,0E0,0E0,0E0,0E0,0E0],"parents":[2147483647,0,0,1,1,2,2,3,3,4,4,5,5,6,6],"right_children":[2,4,6,8,10,12,14,-1,-1,-1,-1,-1,-1,-1,-1],"split_conditions":[-1.5032642E0,-1.9167848E-1,-1.3812049E-1,-1.9037183E-1,1.0240021E1,-7.0756085E-2,-1.3809972E-1,5.0534443E-3,3.0777456E-2,3.1748578E-2,-2.6216516E-2,-2.6380897E-2,3.266032E-2,3.275153E-2,-1.43914595E-2],"split_indices":[15,19,8,3,20,17,8,0,0,0,0,0,0,0,0],"split_type":[0,0,0,0,0,0,0,0,0,0,0,0,0,0,0],"sum_hessian":[1.5640108E4,5.1676875E3,1.0472421E4,1.4606062E2,5.021627E3,7.6598677E3,2.812553E3,1.2180394E2,2.425669E1,5.017403E3,4.223856E0,7.030037E3,6.298306E2,9.5291144E2,1.8596415E3],"tree_param":{"num_deleted":"0","num_feature":"40","num_nodes":"15","size_leaf_vector":"1"}},{"base_weights":[2.1710442E-3,1.75637E0,-8.647458E-1,5.7389134E-1,1.7894313E0,-1.2157897E0,9.040807E-2,5.8286493E-3,3.0285675E-2,3.1292472E-2,-2.4698343E-2,-2.5995152E-2,3.2167513E-2,-1.3738274E-2,3.3354975E-2],"categories":[],"categories_nodes":[],"categories_segments":[],"categories_sizes":[],"default_left":[0,0,0,0,0,0,0,0,0,0,0,0,0,0,0],"id":7,"left_children":[1,3,5,7,9,11,13,-1,-1,-1,-1,-1,-1,-1,-1],"loss_changes":[2.3667617E4,2.0020996E2,3.4925234E3,3.884096E1,4.267578E1,6.3562627E3,4.4706973E3,0E0,0E0,0E0,0E0,0E0,0E0,0E0,0E0],"parents":[2147483647,0,0,1,1,2,2,3,3,4,4,5,5,6,6],"right_children":[2,4,6,8,10,12,14,-1,-1,-1,-1,-1,-1,-1,-1],"split_conditions":[-1.5032642E0,-1.9167848E-1,-1.3812049E-1,-1.9037183E-1,3.3831367E0,-7.0756085E-2,6.0485137E-1,5.8286493E-3,3.0285675E-2,3.1292472E-2,-2.4698343E-2,-2.5995152E-2,3.2167513E-2,-1.3738274E-2,3.3354975E-2],"split_indices":[15,19,8,3,22,17,9,0,0,0,0,0,0,0,0],"split_type":[0,0,0,0,0,0,0,0,0,0,0,0,0,0,0],"sum_hessian":[1.5561178E4,5.146418E3,1.041476E4,1.404763E2,5.005942E3,7.615568E3,2.799192E3,1.174583E2,2.3018E1,5.002475E3,3.4667187E0,6.9922793E3,6.2328864E2,1.8891385E3,9.100534E2],"tree_param":{"num_deleted":"0","num_feature":"40","num_nodes":"15","size_leaf_vector":"1"}},{"base_weights":[-1.6498013E-3,1.7312983E0,-8.5238725E-1,5.57491E-1,1.7650197E0,-1.1981554E0,9.401149E-2,5.5450993E-3,2.9911598E-2,3.087553E-2,-2.576271E-2,-2.5602464E-2,3.170141E-2,3.1902578E-2,-3.2056224E-2],"categories":[],"categories_nodes":[],"categories_segments":[],"categories_sizes":[],"default_left":[0,0,0,0,0,0,0,0,0,0,0,0,0,0,0],"id":8,"left_children":[1,3,5,7,9,11,13,-1,-1,-1,-1,-1,-1,-1,-1],"loss_changes":[2.2928357E4,2.0171484E2,3.4135903E3,3.950803E1,5.1615234E1,6.1716797E3,9.340137E3,0E0,0E0,0E0,0E0,0E0,0E0,0E0,0E0],"parents":[2147483647,0,0,1,1,2,2,3,3,4,4,5,5,6,6],"right_children":[2,4,6,8,10,12,14,-1,-1,-1,-1,-1,-1,-1,-1],"split_conditions":[-1.5032642E0,-1.9167848E-1,-1.3812049E-1,-1.9037183E-1,1.0240021E1,-7.0756085E-2,-2.5005513E-1,5.5450993E-3,2.9911598E-2,3.087553E-2,-2.576271E-2,-2.5602464E-2,3.170141E-2,3.1902578E-2,-3.2056224E-2],"split_indices":[15,19,8,3,20,17,18,0,0,0,0,0,0,0,0],"split_type":[0,0,0,0,0,0,0,0,0,0,0,0,0,0,0],"sum_hessian":[1.5550201E4,5.119918E3,1.0430283E4,1.4346776E2,4.97645E3,7.639071E3,2.7912122E3,1.19850975E2,2.3616777E1,4.9722417E3,4.2082047E0,7.015778E3,6.232933E2,1.4706326E3,1.3205795E3],"tree_param":{"num_deleted":"0","num_feature":"40","num_nodes":"15","size_leaf_vector":"1"}},{"base_weights":[-1.0306811E-3,1.7075682E0,-8.409123E-1,5.000136E-1,1.7417029E0,-1.1815636E0,8.7282196E-2,5.6688054E-3,2.981443E-2,3.0467622E-2,-2.545381E-2,-2.5226817E-2,3.1256232E-2,3.1335298E-2,-3.1610887E-2],"categories":[],"categories_nodes":[],"categories_segments":[],"categories_sizes":[],"default_left":[0,0,0,0,0,0,0,0,0,0,0,0,0,0,0],"id":9,"left_children":[1,3,5,7,9,11,13,-1,-1,-1,-1,-1,-1,-1,-1],"loss_changes":[2.2261713E4,2.0986621E2,3.2886836E3,2.950373E1,5.0206055E1,5.9490166E3,9.050894E3,0E0,0E0,0E0,0E0,0E0,0E0,0E0,0E0],"parents":[2147483647,0,0,1,1,2,2,3,3,4,4,5,5,6,6],"right_children":[2,4,6,8,10,12,14,-1,-1,-1,-1,-1,-1,-1,-1],"split_conditions":[-1.5032642E0,-1.9167848E-1,-1.3812049E-1,-1.602806E-1,1.0240021E1,-7.0756085E-2,-2.5005513E-1,5.6688054E-3,2.981443E-2,3.0467622E-2,-2.545381E-2,-2.5226817E-2,3.1256232E-2,3.1335298E-2,-3.1610887E-2],"split_indices":[15,19,8,2,20,17,18,0,0,0,0,0,0,0,0],"split_type":[0,0,0,0,0,0,0,0,0,0,0,0,0,0,0],"sum_hessian":[1.5511163E4,5.111545E3,1.0399618E4,1.4094958E2,4.9705957E3,7.607397E3,2.7922207E3,1.2417782E2,1.6771767E1,4.9663984E3,4.1971264E0,6.989234E3,6.181634E2,1.4698634E3,1.3223574E3],"tree_param":{"num_deleted":"0","num_feature":"40","num_nodes":"15","size_leaf_vector":"1"}},{"base_weights":[-6.549204E-4,1.6656437E0,-8.271342E-1,1.6853864E0,-8.5651666E-1,-1.0715774E0,-8.633989E-2,2.9545166E-2,-2.9920531E-2,-1.9482212E-2,-4.9868575E-4,-6.2166E-3,-3.072917E-2,1.4514568E-2,-3.077378E-2],"categories":[],"categories_nodes":[],"categories_segments":[],"categories_sizes":[],"default_left":[0,0,0,0,0,0,0,0,0,0,0,0,0,0,0],"id":10,"left_children":[1,3,5,7,9,11,13,-1,-1,-1,-1,-1,-1,-1,-1],"loss_changes":[2.1288701E4,2.5665137E2,1.8710596E3,1.1507129E2,8.65045E0,3.8249834E3,3.9452046E3,0E0,0E0,0E0,0E0,0E0,0E0,0E0,0E0],"parents":[2147483647,0,0,1,1,2,2,3,3,4,4,5,5,6,6],"right_children":[2,4,6,8,10,12,14,-1,-1,-1,-1,-1,-1,-1,-1],"split_conditions":[-1.3894479E0,-2.5075626E-1,-2.5075376E-1,1.0240021E1,-2.5075376E-1,-2.5075614E-1,-1.4987123E-1,2.9545166E-2,-2.9920531E-2,-1.9482212E-2,-4.9868575E-4,-6.2166E-3,-3.072917E-2,1.4514568E-2,-3.077378E-2],"split_indices":[10,18,18,20,18,18,18,0,0,0,0,0,0,0,0],"split_type":[0,0,0,0,0,0,0,0,0,0,0,0,0,0,0],"sum_hessian":[1.5456395E4,5.124223E3,1.0332171E4,5.084753E3,3.94702E1,7.768363E3,2.5638083E3,5.075564E3,9.189125E0,2.9797491E1,9.672708E0,3.8088564E3,3.9595063E3,1.6570983E3,9.067101E2],"tree_param":{"num_deleted":"0","num_feature":"40","num_nodes":"15","size_leaf_vector":"1"}},{"base_weights":[-1.1262808E-3,1.6651418E0,-8.172803E-1,4.9981496E-1,1.6983699E0,-1.0616757E0,-7.0661366E-2,1.0442667E-2,-2.7940625E-2,2.9709859E-2,-2.4810655E-2,-6.37625E-3,-3.032772E-2,1.4468891E-2,-3.0371143E-2],"categories":[],"categories_nodes":[],"categories_segments":[],"categories_sizes":[],"default_left":[0,0,0,0,0,0,0,0,0,0,0,0,0,0,0],"id":11,"left_children":[1,3,5,7,9,11,13,-1,-1,-1,-1,-1,-1,-1,-1],"loss_changes":[2.0911129E4,1.9490137E2,1.8832324E3,3.0141155E1,4.7447266E1,3.6553682E3,3.8219006E3,0E0,0E0,0E0,0E0,0E0,0E0,0E0,0E0],"parents":[2147483647,0,0,1,1,2,2,3,3,4,4,5,5,6,6],"right_children":[2,4,6,8,10,12,14,-1,-1,-1,-1,-1,-1,-1,-1],"split_conditions":[-1.5032642E0,-1.9167848E-1,-2.5075376E-1,1.0240021E1,1.0240021E1,-2.5075614E-1,-1.4987123E-1,1.0442667E-2,-2.7940625E-2,2.9709859E-2,-2.4810655E-2,-6.37625E-3,-3.032772E-2,1.4468891E-2,-3.0371143E-2],"split_indices":[15,19,18,20,20,18,18,0,0,0,0,0,0,0,0],"split_type":[0,0,0,0,0,0,0,0,0,0,0,0,0,0,0],"sum_hessian":[1.5374604E4,5.054417E3,1.03201875E4,1.405703E2,4.9138467E3,7.7747944E3,2.5453926E3,1.349749E2,5.5954013E0,4.9096777E3,4.1687975E0,3.8271248E3,3.94767E3,1.6543307E3,8.910618E2],"tree_param":{"num_deleted":"0","num_feature":"40","num_nodes":"15","size_leaf_vector":"1"}},{"base_weights":[-1.7965902E-3,1.6439867E0,-8.059416E-1,4.8249736E-1,1.6777049E0,-1.1380519E0,9.876482E-2,4.2074374E-3,2.8832695E-2,2.9351234E-2,-2.470546E-2,-2.3581402E-2,3.0494424E-2,3.0791944E-2,-3.0747654E-2],"categories":[],"categories_nodes":[],"categories_segments":[],"categories_sizes":[],"default_left":[0,0,0,0,0,0,0,0,0,0,0,0,0,0,0],"id":12,"left_children":[1,3,5,7,9,11,13,-1,-1,-1,-1,-1,-1,-1,-1],"loss_changes":[2.0323146E4,1.9658789E2,3.0996235E3,4.0138153E1,4.881543E1,4.6232803E3,8.579525E3,0E0,0E0,0E0,0E0,0E0,0E0,0E0,0E0],"parents":[2147483647,0,0,1,1,2,2,3,3,4,4,5,5,6,6],"right_children":[2,4,6,8,10,12,14,-1,-1,-1,-1,-1,-1,-1,-1],"split_conditions":[-1.5032642E0,-1.9167848E-1,-1.3812049E-1,-1.9037183E-1,1.0240021E1,-2.5075376E-1,-2.5005513E-1,4.2074374E-3,2.8832695E-2,2.9351234E-2,-2.470546E-2,-2.3581402E-2,3.0494424E-2,3.0791944E-2,-3.0747654E-2],"split_indices":[15,19,8,3,20,18,18,0,0,0,0,0,0,0,0],"split_type":[0,0,0,0,0,0,0,0,0,0,0,0,0,0,0],"sum_hessian":[1.5354205E4,5.0393994E3,1.0314806E4,1.4259944E2,4.8968E3,7.544883E3,2.7699224E3,1.19171196E2,2.3428246E1,4.892406E3,4.39378E0,7.0280723E3,5.168107E2,1.4616224E3,1.3083E3],"tree_param":{"num_deleted":"0","num_feature":"40","num_nodes":"15","size_leaf_vector":"1"}},{"base_weights":[2.0668954E-3,1.6245713E0,-7.894007E-1,1.630742E0,-2.8349778E-2,-1.1178008E0,1.0393278E-1,2.8661108E-2,3.1970139E-3,-2.3991613E-2,3.0290332E-2,-1.2601418E-2,3.1447567E-2],"categories":[],"categories_nodes":[],"categories_segments":[],"categories_sizes":[],"default_left":[0,0,0,0,0,0,0,0,0,0,0,0,0],"id":13,"left_children":[1,3,5,7,-1,9,11,-1,-1,-1,-1,-1,-1],"loss_changes":[1.9602104E4,1.029541E2,3.0100312E3,7.5706055E1,0E0,5.481583E3,3.865848E3,0E0,0E0,0E0,0E0,0E0,0E0],"parents":[2147483647,0,0,1,1,2,2,3,3,5,5,6,6],"right_children":[2,4,6,8,-1,10,12,-1,-1,-1,-1,-1,-1],"split_conditions":[-1.5032642E0,1.0240021E1,-1.3812049E-1,1.4550036E1,-2.8349778E-2,-7.0756085E-2,6.0485137E-1,2.8661108E-2,3.1970139E-3,-2.3991613E-2,3.0290332E-2,-1.2601418E-2,3.1447567E-2],"split_indices":[15,20,8,0,0,17,9,0,0,0,0,0,0],"split_type":[0,0,0,0,0,0,0,0,0,0,0,0,0],"sum_hessian":[1.5262538E4,5.0037744E3,1.0258764E4,4.994783E3,8.991226E0,7.50104E3,2.757724E3,4.958652E3,3.613128E1,6.8836143E3,6.174258E2,1.8555603E3,9.021638E2],"tree_param":{"num_deleted":"0","num_feature":"40","num_nodes":"13","size_leaf_vector":"1"}},{"base_weights":[1.2058858E-4,1.6077893E0,-7.819258E-1,1.6138881E0,-2.7909627E-2,-1.1040454E0,9.0878874E-2,2.8358756E-2,4.0769633E-3,-2.3653377E-2,2.9899748E-2,3.0150378E-2,-3.0189754E-2],"categories":[],"categories_nodes":[],"categories_segments":[],"categories_sizes":[],"default_left":[0,0,0,0,0,0,0,0,0,0,0,0,0],"id":14,"left_children":[1,3,5,7,-1,9,11,-1,-1,-1,-1,-1,-1],"loss_changes":[1.9144152E4,1.000166E2,2.8800942E3,6.862207E1,0E0,5.2796562E3,8.224707E3,0E0,0E0,0E0,0E0,0E0,0E0],"parents":[2147483647,0,0,1,1,2,2,3,3,5,5,6,6],"right_children":[2,4,6,8,-1,10,12,-1,-1,-1,-1,-1,-1],"split_conditions":[-1.5032642E0,1.0240021E1,-1.3812049E-1,1.4550036E1,-2.7909627E-2,-7.0756085E-2,-2.5005513E-1,2.8358756E-2,4.0769633E-3,-2.3653377E-2,2.9899748E-2,3.0150378E-2,-3.0189754E-2],"split_indices":[15,20,8,0,0,17,18,0,0,0,0,0,0],"split_type":[0,0,0,0,0,0,0,0,0,0,0,0,0],"sum_hessian":[1.5224746E4,4.98203E3,1.0242716E4,4.973066E3,8.963861E0,7.481361E3,2.7613552E3,4.9369497E3,3.6116463E1,6.870864E3,6.104969E2,1.4542323E3,1.3071229E3],"tree_param":{"num_deleted":"0","num_feature":"40","num_nodes":"13","size_leaf_vector":"1"}},{"base_weights":[2.6356522E-4,1.5884647E0,-7.6968116E-1,4.4772246E-1,1.6216033E0,-1.0897965E0,1.0325194E-1,4.7335834E-3,2.805965E-2,2.836712E-2,-2.3581786E-2,-2.3356916E-2,2.95316E-2,2.9768491E-2,-2.9809374E-2],"categories":[],"categories_nodes":[],"categories_segments":[],"categories_sizes":[],"default_left":[0,0,0,0,0,0,0,0,0,0,0,0,0,0,0],"id":15,"left_children":[1,3,5,7,9,11,13,-1,-1,-1,-1,-1,-1,-1,-1],"loss_changes":[1.8534078E4,1.8635059E2,2.8526304E3,2.8453136E1,4.2395508E1,5.147509E3,7.945784E3,0E0,0E0,0E0,0E0,0E0,0E0,0E0,0E0],"parents":[2147483647,0,0,1,1,2,2,3,3,4,4,5,5,6,6],"right_children":[2,4,6,8,10,12,14,-1,-1,-1,-1,-1,-1,-1,-1],"split_conditions":[-1.5032642E0,-1.9167848E-1,-1.3812049E-1,-1.602806E-1,1.0240021E1,-7.0756085E-2,-2.5005513E-1,4.7335834E-3,2.805965E-2,2.836712E-2,-2.3581786E-2,-2.3356916E-2,2.95316E-2,2.9768491E-2,-2.9809374E-2],"split_indices":[15,19,8,2,20,17,18,0,0,0,0,0,0,0,0],"split_type":[0,0,0,0,0,0,0,0,0,0,0,0,0,0,0],"sum_hessian":[1.5154746E4,4.947742E3,1.0207004E4,1.4008398E2,4.807658E3,7.468108E3,2.7388958E3,1.2262792E2,1.7456059E1,4.8035654E3,4.0932183E0,6.8577554E3,6.1035266E2,1.4533094E3,1.2855863E3],"tree_param":{"num_deleted":"0","num_feature":"40","num_nodes":"15","size_leaf_vector":"1"}},{"base_weights":[2.0508622E-3,-7.4137217E-1,1.6043044E0,-1.0436016E0,9.380327E-2,2.8061993E-2,-2.314511E-2,-2.1674905E-2,2.9084053E-2,2.9321242E-2,-2.9434223E-2],"categories":[],"categories_nodes":[],"categories_segments":[],"categories_sizes":[],"default_left":[0,0,0,0,0,0,0,0,0,0,0],"id":16,"left_children":[1,3,5,7,9,-1,-1,-1,-1,-1,-1],"loss_changes":[1.7925473E4,2.5947607E3,3.9009766E1,4.0424492E3,7.709868E3,0E0,0E0,0E0,0E0,0E0,0E0],"parents":[2147483647,0,0,1,1,2,2,3,3,4,4],"right_children":[2,4,6,8,10,-1,-1,-1,-1,-1,-1],"split_conditions":[-1.9167848E-1,-1.3812049E-1,1.0240021E1,-2.5075376E-1,-2.5005513E-1,2.8061993E-2,-2.314511E-2,-2.1674905E-2,2.9084053E-2,2.9321242E-2,-2.9434223E-2],"split_indices":[19,8,20,18,18,0,0,0,0,0,0],"split_type":[0,0,0,0,0,0,0,0,0,0,0],"sum_hessian":[1.5046853E4,1.0278371E4,4.7684814E3,7.547034E3,2.7313362E3,4.7646406E3,3.8407593E0,7.0345015E3,5.125327E2,1.4444728E3,1.2868635E3],"tree_param":{"num_deleted":"0","num_feature":"40","num_nodes":"11","size_leaf_vector":"1"}},{"base_weights":[-4.1340827E-3,1.554766E0,-7.52943E-1,1.560769E0,-2.7124152E-2,-1.0632341E0,9.126718E-2,2.7421067E-2,4.304898E-3,-2.2800187E-2,2.8963905E-2,2.8993644E-2,-2.9093206E-2],"categories":[],"categories_nodes":[],"categories_segments":[],"categories_sizes":[],"default_left":[0,0,0,0,0,0,0,0,0,0,0,0,0],"id":17,"left_children":[1,3,5,7,-1,9,11,-1,-1,-1,-1,-1,-1],"loss_changes":[1.7510885E4,9.3237305E1,2.6545547E3,6.0098633E1,0E0,4.8909883E3,7.5145737E3,0E0,0E0,0E0,0E0,0E0,0E0],"parents":[2147483647,0,0,1,1,2,2,3,3,5,5,6,6],"right_children":[2,4,6,8,-1,10,12,-1,-1,-1,-1,-1,-1],"split_conditions":[-1.5032642E0,1.0240021E1,-1.3812049E-1,1.4550036E1,-2.7124152E-2,-7.0756085E-2,-2.5005513E-1,2.7421067E-2,4.304898E-3,-2.2800187E-2,2.8963905E-2,2.8993644E-2,-2.9093206E-2],"split_indices":[15,20,8,0,0,17,18,0,0,0,0,0,0],"split_type":[0,0,0,0,0,0,0,0,0,0,0,0,0],"sum_hessian":[1.4998947E4,4.8665317E3,1.0132416E4,4.8576475E3,8.884433E0,7.4089736E3,2.7234424E3,4.8226934E3,3.4954082E1,6.803588E3,6.053857E2,1.4388105E3,1.2846317E3],"tree_param":{"num_deleted":"0","num_feature":"40","num_nodes":"13","size_leaf_vector":"1"}},{"base_weights":[3.0506782E-3,1.5393207E0,-7.393771E-1,4.580495E-1,1.5714312E0,-5.755304E-1,-2.8720016E-2,5.1628337E-3,2.7574474E-2,2.7489683E-2,-2.2833245E-2,1.2927904E-3,-1.6168887E-2],"categories":[],"categories_nodes":[],"categories_segments":[],"categories_sizes":[],"default_left":[0,0,0,0,0,0,0,0,0,0,0,0,0],"id":18,"left_children":[1,3,5,7,9,11,-1,-1,-1,-1,-1,-1,-1],"loss_changes":[1.7005193E4,1.6793848E2,1.4899438E3,2.529518E1,3.9262695E1,1.9374355E3,0E0,0E0,0E0,0E0,0E0,0E0,0E0],"parents":[2147483647,0,0,1,1,2,2,3,3,4,4,5,5],"right_children":[2,4,6,8,10,12,-1,-1,-1,-1,-1,-1,-1],"split_conditions":[-1.5032642E0,-1.9167848E-1,9.2885554E-2,-1.602806E-1,1.0240021E1,-2.5075614E-1,-2.8720016E-2,5.1628337E-3,2.7574474E-2,2.7489683E-2,-2.2833245E-2,1.2927904E-3,-1.6168887E-2],"split_indices":[15,19,30,2,20,18,0,0,0,0,0,0,0],"split_type":[0,0,0,0,0,0,0,0,0,0,0,0,0],"sum_hessian":[1.490739E4,4.8566616E3,1.0050729E4,1.4050908E2,4.7161523E3,8.511764E3,1.5389645E3,1.2383226E2,1.6676815E1,4.7121216E3,4.030717E0,2.9827253E3,5.5290386E3],"tree_param":{"num_deleted":"0","num_feature":"40","num_nodes":"13","size_leaf_vector":"1"}},{"base_weights":[3.383829E-3,1.5046601E0,-7.276451E-1,1.522287E0,-8.046851E-1,-9.4712204E-1,-6.053341E-2,2.6678199E-2,-2.6348792E-2,-3.5531165E-3,-1.8278724E-2,-4.761406E-3,-2.8120847E-2,1.3140412E-2,-2.7936954E-2],"categories":[],"categories_nodes":[],"categories_segments":[],"categories_sizes":[],"default_left":[0,0,0,0,0,0,0,0,0,0,0,0,0,0,0],"id":19,"left_children":[1,3,5,7,9,11,13,-1,-1,-1,-1,-1,-1,-1,-1],"loss_changes":[1.6278639E4,1.9895215E2,1.4604976E3,8.143164E1,5.236334E0,3.356941E3,3.0928367E3,0E0,0E0,0E0,0E0,0E0,0E0,0E0,0E0],"parents":[2147483647,0,0,1,1,2,2,3,3,4,4,5,5,6,6],"right_children":[2,4,6,8,10,12,14,-1,-1,-1,-1,-1,-1,-1,-1],"split_conditions":[-1.3894479E0,-2.5075626E-1,-2.5075376E-1,1.0240021E1,-2.5075623E-1,-2.5075614E-1,-1.4987123E-1,2.6678199E-2,-2.6348792E-2,-3.5531165E-3,-1.8278724E-2,-4.761406E-3,-2.8120847E-2,1.3140412E-2,-2.7936954E-2],"split_indices":[10,18,18,20,18,18,18,0,0,0,0,0,0,0,0],"split_type":[0,0,0,0,0,0,0,0,0,0,0,0,0,0,0],"sum_hessian":[1.4830793E4,4.856399E3,9.974394E3,4.81995E3,3.6449055E1,7.5048955E3,2.4694985E3,4.81185E3,8.100004E0,1.09899025E1,2.5459152E1,3.7215242E3,3.7833713E3,1.6163042E3,8.531944E2],"tree_param":{"num_deleted":"0","num_feature":"40","num_nodes":"15","size_leaf_vector":"1"}},{"base_weights":[-1.3161836E-3,-7.049422E-1,1.5411645E0,-9.9804705E-1,1.04392916E-1,2.6960704E-2,-2.2425288E-2,-2.1481121E-2,2.8672427E-2,2.8651904E-2,-2.8453467E-2],"categories":[],"categories_nodes":[],"categories_segments":[],"categories_sizes":[],"default_left":[0,0,0,0,0,0,0,0,0,0,0],"id":20,"left_children":[1,3,5,7,9,-1,-1,-1,-1,-1,-1],"loss_changes":[1.6040004E4,2.4077007E3,3.749414E1,4.566443E3,7.1924956E3,0E0,0E0,0E0,0E0,0E0,0E0],"parents":[2147483647,0,0,1,1,2,2,3,3,4,4],"right_children":[2,4,6,8,10,-1,-1,-1,-1,-1,-1],"split_conditions":[-1.9167848E-1,-1.3812049E-1,1.0240021E1,-7.0756085E-2,-2.5005513E-1,2.6960704E-2,-2.2425288E-2,-2.1481121E-2,2.8672427E-2,2.8651904E-2,-2.8453467E-2],"split_indices":[19,8,20,17,18,0,0,0,0,0,0],"split_type":[0,0,0,0,0,0,0,0,0,0,0],"sum_hessian":[1.4776925E4,1.0148208E4,4.628717E3,7.449941E3,2.6982673E3,4.624726E3,3.9903069E0,6.8484976E3,6.01443E2,1.4306124E3,1.267655E3],"tree_param":{"num_deleted":"0","num_feature":"40","num_nodes":"11","size_leaf_vector":"1"}},{"base_weights":[-1.5648226E-3,1.4938754E0,-7.136234E-1,4.3322337E-1,1.526702E0,-1.0166522E0,1.06876865E-1,4.701737E-3,2.7300376E-2,2.6707903E-2,-2.221274E-2,-2.1832535E-2,2.8355531E-2,2.8297381E-2,-2.8123578E-2],"categories":[],"categories_nodes":[],"categories_segments":[],"categories_sizes":[],"default_left":[0,0,0,0,0,0,0,0,0,0,0,0,0,0,0],"id":21,"left_children":[1,3,5,7,9,11,13,-1,-1,-1,-1,-1,-1,-1,-1],"loss_changes":[1.561112E4,1.6398926E2,2.4694468E3,2.614652E1,3.661328E1,4.4750474E3,6.967555E3,0E0,0E0,0E0,0E0,0E0,0E0,0E0,0E0],"parents":[2147483647,0,0,1,1,2,2,3,3,4,4,5,5,6,6],"right_children":[2,4,6,8,10,12,14,-1,-1,-1,-1,-1,-1,-1,-1],"split_conditions":[-1.5032642E0,-1.9167848E-1,-1.3812049E-1,-1.602806E-1,1.0240021E1,-7.0756085E-2,-2.5005513E-1,4.701737E-3,2.7300376E-2,2.6707903E-2,-2.221274E-2,-2.1832535E-2,2.8355531E-2,2.8297381E-2,-2.8123578E-2],"split_indices":[15,19,8,2,20,17,18,0,0,0,0,0,0,0,0],"split_type":[0,0,0,0,0,0,0,0,0,0,0,0,0,0,0],"sum_hessian":[1.4658517E4,4.7279487E3,9.930567E3,1.4236118E2,4.5855874E3,7.2520044E3,2.6785635E3,1.2540297E2,1.6958208E1,4.5816196E3,3.9679048E0,6.6631187E3,5.8888556E2,1.4237921E3,1.2547714E3],"tree_param":{"num_deleted":"0","num_feature":"40","num_nodes":"15","size_leaf_vector":"1"}},{"base_weights":[-1.4422635E-3,-6.8876565E-1,1.5127597E0,-9.7502434E-1,1.0110117E-1,2.6452636E-2,-2.0460013E-2,-2.0941488E-2,2.805701E-2,2.8404156E-2,-1.1990245E-2],"categories":[],"categories_nodes":[],"categories_segments":[],"categories_sizes":[],"default_left":[0,0,0,0,0,0,0,0,0,0,0],"id":22,"left_children":[1,3,5,7,9,-1,-1,-1,-1,-1,-1],"loss_changes":[1.5171351E4,2.2670996E3,2.6521484E1,4.2610146E3,3.2069697E3,0E0,0E0,0E0,0E0,0E0,0E0],"parents":[2147483647,0,0,1,1,2,2,3,3,4,4],"right_children":[2,4,6,8,10,-1,-1,-1,-1,-1,-1],"split_conditions":[-1.9167848E-1,-1.3812049E-1,3.3831367E0,-7.0756085E-2,-1.3809972E-1,2.6452636E-2,-2.0460013E-2,-2.0941488E-2,2.805701E-2,2.8404156E-2,-1.1990245E-2],"split_indices":[19,8,22,17,8,0,0,0,0,0,0],"split_type":[0,0,0,0,0,0,0,0,0,0,0],"sum_hessian":[1.4575372E4,1.0025268E4,4.5501035E3,7.358288E3,2.6669797E3,4.547108E3,2.9955626E0,6.7708994E3,5.873888E2,9.078415E2,1.7591382E3],"tree_param":{"num_deleted":"0","num_feature":"40","num_nodes":"11","size_leaf_vector":"1"}},{"base_weights":[1.0867876E-3,1.4696864E0,-6.9522315E-1,4.7838283E-1,1.4996247E0,-9.894874E-1,1.0120003E-1,4.3927953E-3,2.7467418E-2,2.6228998E-2,-2.1299126E-2,-2.0612447E-2,2.7667925E-2,2.783124E-2,-2.7713543E-2],"categories":[],"categories_nodes":[],"categories_segments":[],"categories_sizes":[],"default_left":[0,0,0,0,0,0,0,0,0,0,0,0,0,0,0],"id":23,"left_children":[1,3,5,7,9,11,13,-1,-1,-1,-1,-1,-1,-1,-1],"loss_changes":[1.4821445E4,1.3763379E2,2.3043516E3,3.389824E1,3.0794922E1,3.5289E3,6.688712E3,0E0,0E0,0E0,0E0,0E0,0E0,0E0,0E0],"parents":[2147483647,0,0,1,1,2,2,3,3,4,4,5,5,6,6],"right_children":[2,4,6,8,10,12,14,-1,-1,-1,-1,-1,-1,-1,-1],"split_conditions":[-1.5032642E0,-1.9167848E-1,-1.3812049E-1,-1.9037183E-1,1.0240021E1,-2.5075376E-1,-2.5005513E-1,4.3927953E-3,2.7467418E-2,2.6228998E-2,-2.1299126E-2,-2.0612447E-2,2.7667925E-2,2.783124E-2,-2.7713543E-2],"split_indices":[15,19,8,3,20,18,18,0,0,0,0,0,0,0,0],"split_type":[0,0,0,0,0,0,0,0,0,0,0,0,0,0,0],"sum_hessian":[1.4491878E4,4.660733E3,9.8311455E3,1.3713023E2,4.523603E3,7.178554E3,2.652591E3,1.14608E2,2.2522236E1,4.5201377E3,3.4652407E0,6.683482E3,4.9507193E2,1.4079116E3,1.2446794E3],"tree_param":{"num_deleted":"0","num_feature":"40","num_nodes":"15","size_leaf_vector":"1"}},{"base_weights":[1.7795744E-4,1.4558237E0,-6.856074E-1,1.4609019E0,-2.5496673E-2,-9.76068E-1,1.0169386E-1,2.5660736E-2,6.1862753E-3,-2.1024859E-2,2.758182E-2,2.7478069E-2,-2.7423777E-2],"categories":[],"categories_nodes":[],"categories_segments":[],"categories_sizes":[],"default_left":[0,0,0,0,0,0,0,0,0,0,0,0,0],"id":24,"left_children":[1,3,5,7,-1,9,11,-1,-1,-1,-1,-1,-1],"loss_changes":[1.4381088E4,7.0447266E1,2.239478E3,4.298828E1,0E0,4.1681694E3,6.4996514E3,0E0,0E0,0E0,0E0,0E0,0E0],"parents":[2147483647,0,0,1,1,2,2,3,3,5,5,6,6],"right_children":[2,4,6,8,-1,10,12,-1,-1,-1,-1,-1,-1],"split_conditions":[-1.5032642E0,3.3831367E0,-1.3812049E-1,1.4550036E1,-2.5496673E-2,-7.0756085E-2,-2.5005513E-1,2.5660736E-2,6.1862753E-3,-2.1024859E-2,2.758182E-2,2.7478069E-2,-2.7423777E-2],"split_indices":[15,22,8,0,0,17,18,0,0,0,0,0,0],"split_type":[0,0,0,0,0,0,0,0,0,0,0,0,0],"sum_hessian":[1.4404146E4,4.612515E3,9.791632E3,4.604994E3,7.520975E0,7.152577E3,2.6390547E3,4.569421E3,3.5573147E1,6.567424E3,5.851533E2,1.4036178E3,1.235437E3],"tree_param":{"num_deleted":"0","num_feature":"40","num_nodes":"13","size_leaf_vector":"1"}},{"base_weights":[1.0210976E-3,-6.6266763E-1,1.4743803E0,-9.39256E-1,1.01622574E-1,2.5773682E-2,-1.847324E-2,-1.9548314E-2,2.7163628E-2,2.7135527E-2,-2.7162323E-2],"categories":[],"categories_nodes":[],"categories_segments":[],"categories_sizes":[],"default_left":[0,0,0,0,0,0,0,0,0,0,0],"id":25,"left_children":[1,3,5,7,9,-1,-1,-1,-1,-1,-1],"loss_changes":[1.3999253E4,2.0865952E3,1.8735352E1,3.2591792E3,6.3162207E3,0E0,0E0,0E0,0E0,0E0,0E0],"parents":[2147483647,0,0,1,1,2,2,3,3,4,4],"right_children":[2,4,6,8,10,-1,-1,-1,-1,-1,-1],"split_conditions":[-1.9167848E-1,-1.3812049E-1,1.772034E0,-2.5075376E-1,-2.5005513E-1,2.5773682E-2,-1.847324E-2,-1.9548314E-2,2.7163628E-2,2.7135527E-2,-2.7162323E-2],"split_indices":[19,8,24,18,18,0,0,0,0,0,0],"split_type":[0,0,0,0,0,0,0,0,0,0,0],"sum_hessian":[1.4314335E4,9.869206E3,4.4451284E3,7.2465347E3,2.6226714E3,4.4428696E3,2.2589812E0,6.7589834E3,4.8755148E2,1.3977335E3,1.2249379E3],"tree_param":{"num_deleted":"0","num_feature":"40","num_nodes":"11","size_leaf_vector":"1"}},{"base_weights":[-4.2002232E-4,1.4304584E0,-6.708916E-1,4.401142E-1,1.4619473E0,-9.552471E-1,1.0463325E-1,3.7516956E-3,2.7099371E-2,2.5573501E-2,-2.1190338E-2,-1.9878384E-2,2.6891276E-2,2.6860977E-2,-2.6887847E-2],"categories":[],"categories_nodes":[],"categories_segments":[],"categories_sizes":[],"default_left":[0,0,0,0,0,0,0,0,0,0,0,0,0,0,0],"id":26,"left_children":[1,3,5,7,9,11,13,-1,-1,-1,-1,-1,-1,-1,-1],"loss_changes":[1.3631279E4,1.4073242E2,2.13371E3,3.5012947E1,3.1105469E1,3.2355757E3,6.1232446E3,0E0,0E0,0E0,0E0,0E0,0E0,0E0,0E0],"parents":[2147483647,0,0,1,1,2,2,3,3,4,4,5,5,6,6],"right_children":[2,4,6,8,10,12,14,-1,-1,-1,-1,-1,-1,-1,-1],"split_conditions":[-1.5032642E0,-1.9167848E-1,-1.3812049E-1,-1.9037183E-1,1.0240021E1,-2.5075376E-1,-2.5005513E-1,3.7516956E-3,2.7099371E-2,2.5573501E-2,-2.1190338E-2,-1.9878384E-2,2.6891276E-2,2.6860977E-2,-2.6887847E-2],"split_indices":[15,19,8,3,20,18,18,0,0,0,0,0,0,0,0],"split_type":[0,0,0,0,0,0,0,0,0,0,0,0,0,0,0],"sum_hessian":[1.4206673E4,4.5325195E3,9.674153E3,1.4013603E2,4.392384E3,7.0785034E3,2.5956504E3,1.1751579E2,2.262024E1,4.388743E3,3.6402526E0,6.5951587E3,4.8334448E2,1.3867484E3,1.208902E3],"tree_param":{"num_deleted":"0","num_feature":"40","num_nodes":"15","size_leaf_vector":"1"}},{"base_weights":[-2.317061E-4,1.4170871E0,-6.634417E-1,1.4234399E0,-2.5749516E-2,-9.4322103E-1,9.446278E-2,2.5026256E-2,4.05724E-3,-2.0358037E-2,2.7004024E-2,2.6562965E-2,-2.6636688E-2],"categories":[],"categories_nodes":[],"categories_segments":[],"categories_sizes":[],"default_left":[0,0,0,0,0,0,0,0,0,0,0,0,0],"id":27,"left_children":[1,3,5,7,-1,9,11,-1,-1,-1,-1,-1,-1],"loss_changes":[1.3255574E4,8.467578E1,2.0371489E3,5.1310547E1,0E0,3.8896338E3,5.9898716E3,0E0,0E0,0E0,0E0,0E0,0E0],"parents":[2147483647,0,0,1,1,2,2,3,3,5,5,6,6],"right_children":[2,4,6,8,-1,10,12,-1,-1,-1,-1,-1,-1],"split_conditions":[-1.5032642E0,1.0240021E1,-1.3812049E-1,1.4550036E1,-2.5749516E-2,-7.0756085E-2,-2.5005513E-1,2.5026256E-2,4.05724E-3,-2.0358037E-2,2.7004024E-2,2.6562965E-2,-2.6636688E-2],"split_indices":[15,20,8,0,0,17,18,0,0,0,0,0,0],"split_type":[0,0,0,0,0,0,0,0,0,0,0,0,0],"sum_hessian":[1.4099975E4,4.4942856E3,9.605689E3,4.48494E3,9.345577E0,7.015634E3,2.5900552E3,4.4486387E3,3.63014E1,6.440408E3,5.752257E2,1.3771664E3,1.2128889E3],"tree_param":{"num_deleted":"0","num_feature":"40","num_nodes":"13","size_leaf_vector":"1"}},{"base_weights":[-1.3219633E-3,-6.41838E-1,1.4388722E0,-9.090374E-1,1.0033736E-1,2.5173018E-2,-2.1170009E-2,-1.9554285E-2,2.6740279E-2,2.6318703E-2,-2.640012E-2],"categories":[],"categories_nodes":[],"categories_segments":[],"categories_sizes":[],"default_left":[0,0,0,0,0,0,0,0,0,0,0],"id":28,"left_children":[1,3,5,7,9,-1,-1,-1,-1,-1,-1],"loss_changes":[1.2917353E4,1.9221814E3,3.188086E1,3.6664307E3,5.823164E3,0E0,0E0,0E0,0E0,0E0,0E0],"parents":[2147483647,0,0,1,1,2,2,3,3,4,4],"right_children":[2,4,6,8,10,-1,-1,-1,-1,-1,-1],"split_conditions":[-1.9167848E-1,-1.3812049E-1,1.0240021E1,-7.0756085E-2,-2.5005513E-1,2.5173018E-2,-2.1170009E-2,-1.9554285E-2,2.6740279E-2,2.6318703E-2,-2.640012E-2],"split_indices":[19,8,20,17,18,0,0,0,0,0,0],"split_type":[0,0,0,0,0,0,0,0,0,0,0],"sum_hessian":[1.4001041E4,9.69141E3,4.309631E3,7.125757E3,2.5656536E3,4.3058047E3,3.826278E0,6.5598525E3,5.6590424E2,1.3701161E3,1.1955376E3],"tree_param":{"num_deleted":"0","num_feature":"40","num_nodes":"11","size_leaf_vector":"1"}},{"base_weights":[-3.1151874E-3,-6.369261E-1,1.4284978E0,-8.974204E-1,9.0416014E-2,2.4981193E-2,-1.9891381E-2,-1.9326087E-2,2.6496029E-2,2.6041865E-2,-2.6148105E-2],"categories":[],"categories_nodes":[],"categories_segments":[],"categories_sizes":[],"default_left":[0,0,0,0,0,0,0,0,0,0,0],"id":29,"left_children":[1,3,5,7,9,-1,-1,-1,-1,-1,-1],"loss_changes":[1.2618955E4,1.82646E3,2.3836914E1,3.588267E3,5.6580947E3,0E0,0E0,0E0,0E0,0E0,0E0],"parents":[2147483647,0,0,1,1,2,2,3,3,4,4],"right_children":[2,4,6,8,10,-1,-1,-1,-1,-1,-1],"split_conditions":[-1.9167848E-1,-1.3812049E-1,1.0240021E1,-7.0756085E-2,-2.5005513E-1,2.4981193E-2,-1.9891381E-2,-1.9326087E-2,2.6496029E-2,2.6041865E-2,-2.6148105E-2],"split_indices":[19,8,20,17,18,0,0,0,0,0,0],"split_type":[0,0,0,0,0,0,0,0,0,0,0],"sum_hessian":[1.3905143E4,9.638494E3,4.266648E3,7.096634E3,2.5418606E3,4.263725E3,2.9227128E0,6.5311514E3,5.654822E2,1.3504501E3,1.1914106E3],"tree_param":{"num_deleted":"0","num_feature":"40","num_nodes":"11","size_leaf_vector":"1"}},{"base_weights":[3.512524E-4,1.3847936E0,-6.424442E-1,1.3913844E0,-2.5139537E-2,-9.109164E-1,9.23075E-2,2.446177E-2,4.6441555E-3,-1.9636663E-2,2.6275164E-2,2.5732176E-2,-2.5927534E-2],"categories":[],"categories_nodes":[],"categories_segments":[],"categories_sizes":[],"default_left":[0,0,0,0,0,0,0,0,0,0,0,0,0],"id":30,"left_children":[1,3,5,7,-1,9,11,-1,-1,-1,-1,-1,-1],"loss_changes":[1.2267533E4,8.336719E1,1.8571174E3,4.5748047E1,0E0,3.5584927E3,5.491767E3,0E0,0E0,0E0,0E0,0E0,0E0],"parents":[2147483647,0,0,1,1,2,2,3,3,5,5,6,6],"right_children":[2,4,6,8,-1,10,12,-1,-1,-1,-1,-1,-1],"split_conditions":[-1.5032642E0,1.0240021E1,-1.3812049E-1,1.4550036E1,-2.5139537E-2,-7.0756085E-2,-2.5005513E-1,2.446177E-2,4.6441555E-3,-1.9636663E-2,2.6275164E-2,2.5732176E-2,-2.5927534E-2],"split_indices":[15,20,8,0,0,17,18,0,0,0,0,0,0],"split_type":[0,0,0,0,0,0,0,0,0,0,0,0,0],"sum_hessian":[1.378309E4,4.3699683E3,9.413121E3,4.360301E3,9.667484E0,6.8939053E3,2.519216E3,4.323957E3,3.6343716E1,6.334412E3,5.5949316E2,1.3430146E3,1.1762013E3],"tree_param":{"num_deleted":"0","num_feature":"40","num_nodes":"13","size_leaf_vector":"1"}},{"base_weights":[7.235689E-4,1.3586551E0,-6.363315E-1,1.3749301E0,-6.750742E-1,-1.6952269E-1,-9.202388E-1,2.40963E-2,-2.3895167E-2,-1.5828693E-2,1.334084E-3,2.986627E-3,-2.6582314E-2,-2.5742812E-2,-1.0345132E-3],"categories":[],"categories_nodes":[],"categories_segments":[],"categories_sizes":[],"default_left":[0,0,0,0,0,0,0,0,0,0,0,0,0,0,0],"id":31,"left_children":[1,3,5,7,9,11,13,-1,-1,-1,-1,-1,-1,-1,-1],"loss_changes":[1.1839236E4,1.4558008E2,1.2344331E3,6.0429688E1,6.2175217E0,1.6237002E3,2.76231E3,0E0,0E0,0E0,0E0,0E0,0E0,0E0,0E0],"parents":[2147483647,0,0,1,1,2,2,3,3,4,4,5,5,6,6],"right_children":[2,4,6,8,10,12,14,-1,-1,-1,-1,-1,-1,-1,-1],"split_conditions":[-1.3894479E0,-2.5075626E-1,-2.5075614E-1,3.3831367E0,-2.5075376E-1,9.2885554E-2,-2.5075376E-1,2.40963E-2,-2.3895167E-2,-1.5828693E-2,1.334084E-3,2.986627E-3,-2.6582314E-2,-2.5742812E-2,-1.0345132E-3],"split_indices":[10,18,18,22,18,30,18,0,0,0,0,0,0,0,0],"split_type":[0,0,0,0,0,0,0,0,0,0,0,0,0,0,0],"sum_hessian":[1.3683759E4,4.3692456E3,9.314514E3,4.3348794E3,3.4366302E1,3.5231853E3,5.791328E3,4.327612E3,7.267345E0,2.6119257E1,8.247045E0,2.8152893E3,7.078959E2,3.5237263E3,2.2676018E3],"tree_param":{"num_deleted":"0","num_feature":"40","num_nodes":"15","size_leaf_vector":"1"}},{"base_weights":[5.818096E-4,1.3641455E0,-6.278064E-1,3.9688984E-1,1.397084E0,-8.935993E-1,9.6028164E-2,3.194769E-3,2.642711E-2,2.4447696E-2,-2.0930564E-2,-1.9262288E-2,2.6050167E-2,2.5972148E-2,-1.094343E-2],"categories":[],"categories_nodes":[],"categories_segments":[],"categories_sizes":[],"default_left":[0,0,0,0,0,0,0,0,0,0,0,0,0,0,0],"id":32,"left_children":[1,3,5,7,9,11,13,-1,-1,-1,-1,-1,-1,-1,-1],"loss_changes":[1.1654879E4,1.3615479E2,1.7914487E3,3.3809372E1,3.2805176E1,3.403997E3,2.5162104E3,0E0,0E0,0E0,0E0,0E0,0E0,0E0,0E0],"parents":[2147483647,0,0,1,1,2,2,3,3,4,4,5,5,6,6],"right_children":[2,4,6,8,10,12,14,-1,-1,-1,-1,-1,-1,-1,-1],"split_conditions":[-1.5032642E0,-1.9167848E-1,-1.3812049E-1,-1.9037183E-1,1.0240021E1,-7.0756085E-2,-1.3809972E-1,3.194769E-3,2.642711E-2,2.4447696E-2,-2.0930564E-2,-1.9262288E-2,2.6050167E-2,2.5972148E-2,-1.094343E-2],"split_indices":[15,19,8,3,20,17,8,0,0,0,0,0,0,0,0],"split_type":[0,0,0,0,0,0,0,0,0,0,0,0,0,0,0],"sum_hessian":[1.3600049E4,4.28995E3,9.310099E3,1.4170694E2,4.1482437E3,6.8094326E3,2.5006655E3,1.1989507E2,2.1811863E1,4.14409E3,4.153672E0,6.2603027E3,5.491299E2,8.5454333E2,1.6461222E3],"tree_param":{"num_deleted":"0","num_feature":"40","num_nodes":"15","size_leaf_vector":"1"}},{"base_weights":[-8.0070115E-4,1.356792E0,-6.225564E-1,1.3633721E0,-2.4663037E-2,-1.5871349E-1,-9.071629E-1,2.395838E-2,5.1784324E-3,3.0933633E-3,-2.617237E-2,-2.5379105E-2,-1.1857973E-3],"categories":[],"categories_nodes":[],"categories_segments":[],"categories_sizes":[],"default_left":[0,0,0,0,0,0,0,0,0,0,0,0,0],"id":33,"left_children":[1,3,5,7,-1,9,11,-1,-1,-1,-1,-1,-1],"loss_changes":[1.1389734E4,7.915625E1,1.2216199E3,3.8311523E1,0E0,1.5846608E3,2.6287773E3,0E0,0E0,0E0,0E0,0E0,0E0],"parents":[2147483647,0,0,1,1,2,2,3,3,5,5,6,6],"right_children":[2,4,6,8,-1,10,12,-1,-1,-1,-1,-1,-1],"split_conditions":[-1.5032642E0,1.0240021E1,-2.5075614E-1,1.4550036E1,-2.4663037E-2,9.2885554E-2,-2.5075376E-1,2.395838E-2,5.1784324E-3,3.0933633E-3,-2.617237E-2,-2.5379105E-2,-1.1857973E-3],"split_indices":[15,20,18,0,0,30,18,0,0,0,0,0,0],"split_type":[0,0,0,0,0,0,0,0,0,0,0,0,0],"sum_hessian":[1.349149E4,4.237594E3,9.2538955E3,4.228055E3,9.539265E0,3.519493E3,5.734403E3,4.1940312E3,3.402382E1,2.8148662E3,7.046267E2,3.4733745E3,2.261028E3],"tree_param":{"num_deleted":"0","num_feature":"40","num_nodes":"13","size_leaf_vector":"1"}},{"base_weights":[-5.054051E-4,-5.986079E-1,1.3784795E0,-1.3431947E-1,-8.9508796E-1,2.411731E-2,-2.016377E-2,3.2995192E-3,-2.5946656E-2,-2.5180755E-2,-1.1576592E-3],"categories":[],"categories_nodes":[],"categories_segments":[],"categories_sizes":[],"default_left":[0,0,0,0,0,0,0,0,0,0,0],"id":34,"left_children":[1,3,5,7,9,-1,-1,-1,-1,-1,-1],"loss_changes":[1.1062221E4,1.2876086E3,2.8067871E1,1.5935665E3,2.5874604E3,0E0,0E0,0E0,0E0,0E0,0E0],"parents":[2147483647,0,0,1,1,2,2,3,3,4,4],"right_children":[2,4,6,8,10,-1,-1,-1,-1,-1,-1],"split_conditions":[-1.9167848E-1,-2.5075614E-1,1.0240021E1,9.2885554E-2,-2.5075376E-1,2.411731E-2,-2.016377E-2,3.2995192E-3,-2.5946656E-2,-2.5180755E-2,-1.1576592E-3],"split_indices":[19,18,20,33,18,0,0,0,0,0,0],"split_type":[0,0,0,0,0,0,0,0,0,0,0],"sum_hessian":[1.3410422E4,9.353937E3,4.0564858E3,3.6459006E3,5.7080356E3,4.0528198E3,3.665867E0,2.9428584E3,7.030423E2,3.4384824E3,2.2695535E3],"tree_param":{"num_deleted":"0","num_feature":"40","num_nodes":"11","size_leaf_vector":"1"}},{"base_weights":[-1.9420699E-3,1.3367293E0,-6.0533696E-1,3.9728203E-1,1.369104E0,-4.9584323E-1,-2.541843E-2,3.299348E-3,2.5907319E-2,2.3958573E-2,-2.040233E-2,-1.1595447E-2,-1.9385432E-3],"categories":[],"categories_nodes":[],"categories_segments":[],"categories_sizes":[],"default_left":[0,0,0,0,0,0,0,0,0,0,0,0,0],"id":35,"left_children":[1,3,5,7,9,11,-1,-1,-1,-1,-1,-1,-1],"loss_changes":[1.0784455E4,1.25620605E2,8.5603174E2,3.1314371E1,3.071045E1,5.2763855E2,0E0,0E0,0E0,0E0,0E0,0E0,0E0],"parents":[2147483647,0,0,1,1,2,2,3,3,4,4,5,5],"right_children":[2,4,6,8,10,12,-1,-1,-1,-1,-1,-1,-1],"split_conditions":[-1.5032642E0,-1.9167848E-1,1.882595E-3,-1.9037183E-1,1.0240021E1,3.1860223E-1,-2.541843E-2,3.299348E-3,2.5907319E-2,2.3958573E-2,-2.040233E-2,-1.1595447E-2,-1.9385432E-3],"split_indices":[15,19,31,3,20,15,0,0,0,0,0,0,0],"split_type":[0,0,0,0,0,0,0,0,0,0,0,0,0],"sum_hessian":[1.3349269E4,4.147205E3,9.202063E3,1.3859958E2,4.0086052E3,8.153609E3,1.0484545E3,1.1727932E2,2.1320265E1,4.0045493E3,4.0560436E0,5.6736836E3,2.479925E3],"tree_param":{"num_deleted":"0","num_feature":"40","num_nodes":"13","size_leaf_vector":"1"}},{"base_weights":[-7.8841974E-4,-5.8027893E-1,1.3606087E0,-1.2373866E-1,-8.759965E-1,2.3804622E-2,-1.9689983E-2,3.2476927E-3,-2.5519809E-2,-2.490578E-2,-8.701623E-4],"categories":[],"categories_nodes":[],"categories_segments":[],"categories_sizes":[],"default_left":[0,0,0,0,0,0,0,0,0,0,0],"id":36,"left_children":[1,3,5,7,9,-1,-1,-1,-1,-1,-1],"loss_changes":[1.0466154E4,1.2562E3,2.6574219E1,1.5162272E3,2.5669897E3,0E0,0E0,0E0,0E0,0E0,0E0],"parents":[2147483647,0,0,1,1,2,2,3,3,4,4],"right_children":[2,4,6,8,10,-1,-1,-1,-1,-1,-1],"split_conditions":[-1.9167848E-1,-2.5075614E-1,1.0240021E1,1.882595E-3,-2.5075376E-1,2.3804622E-2,-1.9689983E-2,3.2476927E-3,-2.5519809E-2,-2.490578E-2,-8.701623E-4],"split_indices":[19,18,20,31,18,0,0,0,0,0,0],"split_type":[0,0,0,0,0,0,0,0,0,0,0],"sum_hessian":[1.3264486E4,9.304513E3,3.9599731E3,3.6582234E3,5.6462896E3,3.9563857E3,3.587491E0,2.9711453E3,6.870782E2,3.3887378E3,2.257552E3],"tree_param":{"num_deleted":"0","num_feature":"40","num_nodes":"11","size_leaf_vector":"1"}},{"base_weights":[1.8999347E-3,-5.7285136E-1,1.3519052E0,-8.2253677E-1,1.0554094E-1,2.3655294E-2,-1.990082E-2,-1.7897606E-2,2.583968E-2,2.5460638E-2,-2.5522107E-2],"categories":[],"categories_nodes":[],"categories_segments":[],"categories_sizes":[],"default_left":[0,0,0,0,0,0,0,0,0,0,0],"id":37,"left_children":[1,3,5,7,9,-1,-1,-1,-1,-1,-1],"loss_changes":[1.0218571E4,1.5647053E3,2.7927246E1,3.1470518E3,5.2707397E3,0E0,0E0,0E0,0E0,0E0,0E0],"parents":[2147483647,0,0,1,1,2,2,3,3,4,4],"right_children":[2,4,6,8,10,-1,-1,-1,-1,-1,-1],"split_conditions":[-1.9167848E-1,-1.3812049E-1,1.0240021E1,-7.0756085E-2,-2.5005513E-1,2.3655294E-2,-1.990082E-2,-1.7897606E-2,2.583968E-2,2.5460638E-2,-2.5522107E-2],"split_indices":[19,8,20,17,18,0,0,0,0,0,0],"split_type":[0,0,0,0,0,0,0,0,0,0,0],"sum_hessian":[1.3167667E4,9.236076E3,3.9315913E3,6.751093E3,2.4849834E3,3.9278025E3,3.7888463E0,6.20616E3,5.449327E2,1.3338607E3,1.1511227E3],"tree_param":{"num_deleted":"0","num_feature":"40","num_nodes":"11","size_leaf_vector":"1"}},{"base_weights":[-7.9972553E-4,1.3117169E0,-5.8293533E-1,4.1387227E-1,1.3436011E0,-8.400272E-1,1.0632412E-1,4.3863636E-3,2.6116168E-2,2.3510339E-2,-1.9749332E-2,-1.8301807E-2,2.5621146E-2,2.5200954E-2,-2.5300678E-2],"categories":[],"categories_nodes":[],"categories_segments":[],"categories_sizes":[],"default_left":[0,0,0,0,0,0,0,0,0,0,0,0,0,0,0],"id":38,"left_children":[1,3,5,7,9,11,13,-1,-1,-1,-1,-1,-1,-1,-1],"loss_changes":[9.974949E3,1.14274414E2,1.6027004E3,2.4085842E1,2.736377E1,3.1628032E3,5.111631E3,0E0,0E0,0E0,0E0,0E0,0E0,0E0,0E0],"parents":[2147483647,0,0,1,1,2,2,3,3,4,4,5,5,6,6],"right_children":[2,4,6,8,10,12,14,-1,-1,-1,-1,-1,-1,-1,-1],"split_conditions":[-1.5032642E0,-1.9167848E-1,-1.3812049E-1,-1.602806E-1,1.0240021E1,-7.0756085E-2,-2.5005513E-1,4.3863636E-3,2.6116168E-2,2.3510339E-2,-1.9749332E-2,-1.8301807E-2,2.5621146E-2,2.5200954E-2,-2.5300678E-2],"split_indices":[15,19,8,2,20,17,18,0,0,0,0,0,0,0,0],"split_type":[0,0,0,0,0,0,0,0,0,0,0,0,0,0,0],"sum_hessian":[1.3053146E4,4.0102197E3,9.042927E3,1.3800598E2,3.8722136E3,6.586108E3,2.456819E3,1.2103344E2,1.697253E1,3.8684543E3,3.7591674E0,6.0419346E3,5.4417303E2,1.321201E3,1.1356182E3],"tree_param":{"num_deleted":"0","num_feature":"40","num_nodes":"15","size_leaf_vector":"1"}},{"base_weights":[-1.0078157E-3,1.3019472E0,-5.774722E-1,2.2844005E-2,-2.3956021E-2,-8.30643E-1,1.0100776E-1,-1.8065171E-2,2.5422532E-2,2.5043864E-2,-2.5117131E-2],"categories":[],"categories_nodes":[],"categories_segments":[],"categories_sizes":[],"default_left":[0,0,0,0,0,0,0,0,0,0,0],"id":39,"left_children":[1,3,5,-1,-1,7,9,-1,-1,-1,-1],"loss_changes":[9.735661E3,6.762695E1,1.5436304E3,0E0,0E0,3.051605E3,5.0148643E3,0E0,0E0,0E0,0E0],"parents":[2147483647,0,0,1,1,2,2,5,5,6,6],"right_children":[2,4,6,-1,-1,8,10,-1,-1,-1,-1],"split_conditions":[-1.5032642E0,1.0240021E1,-1.3812049E-1,2.2844005E-2,-2.3956021E-2,-7.0756085E-2,-2.5005513E-1,-1.8065171E-2,2.5422532E-2,2.5043864E-2,-2.5117131E-2],"split_indices":[15,20,8,0,0,17,18,0,0,0,0],"split_type":[0,0,0,0,0,0,0,0,0,0,0],"sum_hessian":[1.2959744E4,3.9746877E3,8.985057E3,3.9660122E3,8.67553E0,6.5432554E3,2.441801E3,6.0081597E3,5.3509534E2,1.3085856E3,1.1332155E3],"tree_param":{"num_deleted":"0","num_feature":"40","num_nodes":"11","size_leaf_vector":"1"}},{"base_weights":[-1.4145392E-3,-5.5751336E-1,1.3284878E0,-7.991495E-1,1.0775481E-1,2.3236077E-2,-1.8464087E-2,-1.7364388E-2,2.5225924E-2,-1.0162362E-2,2.597466E-2],"categories":[],"categories_nodes":[],"categories_segments":[],"categories_sizes":[],"default_left":[0,0,0,0,0,0,0,0,0,0,0],"id":40,"left_children":[1,3,5,7,9,-1,-1,-1,-1,-1,-1],"loss_changes":[9.49849E3,1.4559446E3,2.0418945E1,2.911207E3,2.2977932E3,0E0,0E0,0E0,0E0,0E0,0E0],"parents":[2147483647,0,0,1,1,2,2,3,3,4,4],"right_children":[2,4,6,8,10,-1,-1,-1,-1,-1,-1],"split_conditions":[-1.9167848E-1,-1.3812049E-1,1.0240021E1,-7.0756085E-2,6.0485137E-1,2.3236077E-2,-1.8464087E-2,-1.7364388E-2,2.5225924E-2,-1.0162362E-2,2.597466E-2],"split_indices":[19,8,20,17,9,0,0,0,0,0,0],"split_type":[0,0,0,0,0,0,0,0,0,0,0],"sum_hessian":[1.2841482E4,9.055504E3,3.7859792E3,6.6426016E3,2.4129016E3,3.783085E3,2.8943691E0,6.111449E3,5.311525E2,1.609093E3,8.038087E2],"tree_param":{"num_deleted":"0","num_feature":"40","num_nodes":"11","size_leaf_vector":"1"}},{"base_weights":[2.3202201E-4,-5.504631E-1,1.320774E0,-8.939503E-2,-8.5284907E-1,2.309446E-2,-1.6874982E-2,3.7751324E-3,-2.4770353E-2,-2.4220588E-2,-1.0068982E-3],"categories":[],"categories_nodes":[],"categories_segments":[],"categories_sizes":[],"default_left":[0,0,0,0,0,0,0,0,0,0,0],"id":41,"left_children":[1,3,5,7,9,-1,-1,-1,-1,-1,-1],"loss_changes":[9.259084E3,1.252646E3,1.592041E1,1.4460901E3,2.3045999E3,0E0,0E0,0E0,0E0,0E0,0E0],"parents":[2147483647,0,0,1,1,2,2,3,3,4,4],"right_children":[2,4,6,8,10,-1,-1,-1,-1,-1,-1],"split_conditions":[-1.9167848E-1,-2.5075614E-1,1.772034E0,9.2885554E-2,-2.5075376E-1,2.309446E-2,-1.6874982E-2,3.7751324E-3,-2.4770353E-2,-2.4220588E-2,-1.0068982E-3],"split_indices":[19,18,24,30,18,0,0,0,0,0,0],"split_type":[0,0,0,0,0,0,0,0,0,0,0],"sum_hessian":[1.2730235E4,8.984206E3,3.746029E3,3.5589434E3,5.4252627E3,3.743654E3,2.3749807E0,2.8943225E3,6.646207E2,3.2449336E3,2.1803293E3],"tree_param":{"num_deleted":"0","num_feature":"40","num_nodes":"11","size_leaf_vector":"1"}},{"base_weights":[-8.3274633E-4,8.832705E-1,-1.1642653E0,1.1676904E0,-3.4918886E-2,-1.9904298E0,4.9818896E-2,1.4193897E-2,3.490503E-2,-3.4896847E-2,3.4232896E-2,3.1303823E-2,-3.4921452E-2],"categories":[],"categories_nodes":[],"categories_segments":[],"categories_sizes":[],"default_left":[0,0,0,0,0,0,0,0,0,0,0,0,0],"id":42,"left_children":[1,3,5,7,-1,9,11,-1,-1,-1,-1,-1,-1],"loss_changes":[1.0001488E5,4.530406E4,4.2112234E4,1.48313125E4,0E0,7.842031E2,6.0733176E4,0E0,0E0,0E0,0E0,0E0,0E0],"parents":[2147483647,0,0,1,1,2,2,3,3,5,5,6,6],"right_children":[2,4,6,8,-1,10,12,-1,-1,-1,-1,-1,-1],"split_conditions":[-2.5075614E-1,1.882595E-3,-2.5075316E-1,6.829755E-1,-3.4918886E-2,5.50877E-1,-2.4703096E-1,1.4193897E-2,3.490503E-2,-3.4896847E-2,3.4232896E-2,3.1303823E-2,-3.4921452E-2],"split_indices":[18,31,18,15,0,17,18,0,0,0,0,0,0],"split_type":[0,0,0,0,0,0,0,0,0,0,0,0,0],"sum_hessian":[9.7232516E4,5.5248727E4,4.1983785E4,5.0287977E4,4.96075E3,2.4982775E4,1.700101E4,3.524159E4,1.5046388E4,2.4933379E4,4.9396233E1,9.188261E3,7.81275E3],"tree_param":{"num_deleted":"0","num_feature":"40","num_nodes":"13","size_leaf_vector":"1"}},{"base_weights":[7.627151E-3,1.2735723E0,-5.4601E-1,1.2802341E0,-2.3960765E-2,-7.9239374E-1,1.1016894E-1,2.254095E-2,2.8626698E-3,-1.7403292E-2,2.5141718E-2,2.4570562E-2,-2.4598654E-2],"categories":[],"categories_nodes":[],"categories_segments":[],"categories_sizes":[],"default_left":[0,0,0,0,0,0,0,0,0,0,0,0,0],"id":43,"left_children":[1,3,5,7,-1,9,11,-1,-1,-1,-1,-1,-1],"loss_changes":[8.798269E3,6.907568E1,1.4120889E3,4.4672363E1,0E0,2.8954622E3,4.6996157E3,0E0,0E0,0E0,0E0,0E0,0E0],"parents":[2147483647,0,0,1,1,2,2,3,3,5,5,6,6],"right_children":[2,4,6,8,-1,10,12,-1,-1,-1,-1,-1,-1],"split_conditions":[-1.5032642E0,1.0240021E1,-1.3812049E-1,1.9430428E1,-2.3960765E-2,-7.0756085E-2,-2.5005513E-1,2.254095E-2,2.8626698E-3,-1.7403292E-2,2.5141718E-2,2.4570562E-2,-2.4598654E-2],"split_indices":[15,20,8,1,0,17,18,0,0,0,0,0,0],"split_type":[0,0,0,0,0,0,0,0,0,0,0,0,0],"sum_hessian":[1.2551285E4,3.8185347E3,8.732751E3,3.8094585E3,9.076098E0,6.348713E3,2.384038E3,3.7736316E3,3.582697E1,5.8171265E3,5.3158636E2,1.2860216E3,1.0980165E3],"tree_param":{"num_deleted":"0","num_feature":"40","num_nodes":"13","size_leaf_vector":"1"}},{"base_weights":[1.6572216E-1,2.3988858E-2,-2.5514442E-1,-7.909342E-1,6.714048E-1,-4.784624E-3,-2.285395E-2,2.7224971E-2,-2.2790987E-2],"categories":[],"categories_nodes":[],"categories_segments":[],"categories_sizes":[],"default_left":[0,0,0,0,0,0,0,0,0],"id":44,"left_children":[1,-1,3,5,7,-1,-1,-1,-1],"loss_changes":[9.798351E1,0E0,7.165238E1,2.4060925E1,9.5071594E1,0E0,0E0,0E0,0E0],"parents":[2147483647,0,0,2,2,3,3,4,4],"right_children":[2,-1,4,6,8,-1,-1,-1,-1],"split_conditions":[-1.5032642E0,2.3988858E-2,-1.3812049E-1,-1.38121E-1,-2.4928316E-1,-4.784624E-3,-2.285395E-2,2.7224971E-2,-2.2790987E-2],"split_indices":[15,0,8,8,18,0,0,0,0],"split_type":[0,0,0,0,0,0,0,0,0],"sum_hessian":[1.9104086E2,4.877686E1,1.42264E2,9.02323E1,5.20317E1,4.5917465E1,4.4314835E1,3.6052525E1,1.5979177E1],"tree_param":{"num_deleted":"0","num_feature":"40","num_nodes":"9","size_leaf_vector":"1"}},{"base_weights":[1.6555971E-1,2.3609392E-2,-2.4671574E-1,-7.7221245E-1,6.663934E-1,-4.508617E-3,-2.2568159E-2,2.6896982E-2,-2.2439076E-2],"categories":[],"categories_nodes":[],"categories_segments":[],"categories_sizes":[],"default_left":[0,0,0,0,0,0,0,0,0],"id":45,"left_children":[1,-1,3,5,7,-1,-1,-1,-1],"loss_changes":[9.2826904E1,0E0,6.825723E1,2.3748306E1,9.0829506E1,0E0,0E0,0E0,0E0],"parents":[2147483647,0,0,2,2,3,3,4,4],"right_children":[2,-1,4,6,8,-1,-1,-1,-1],"split_conditions":[-1.5032642E0,2.3609392E-2,-1.3812049E-1,-1.38121E-1,-2.4928316E-1,-4.508617E-3,-2.2568159E-2,2.6896982E-2,-2.2439076E-2],"split_indices":[15,0,8,8,18,0,0,0,0],"split_type":[0,0,0,0,0,0,0,0,0],"sum_hessian":[1.880986E2,4.7919834E1,1.4017876E2,8.907193E1,5.1106827E1,4.555131E1,4.352062E1,3.5444862E1,1.5661966E1],"tree_param":{"num_deleted":"0","num_feature":"40","num_nodes":"9","size_leaf_vector":"1"}},{"base_weights":[4.242025E-1,1.1941727E0,-7.102107E-1,1.4213428E0,-2.4163568E-2,-1.3425953E0,1.5414101E-1,1.684848E-2,3.4925923E-2,3.142051E-2,-2.3581173E-2,2.7175978E-2,-2.1878535E-2],"categories":[],"categories_nodes":[],"categories_segments":[],"categories_sizes":[],"default_left":[0,0,0,0,0,0,0,0,0,0,0,0,0],"id":46,"left_children":[1,3,5,7,-1,9,11,-1,-1,-1,-1,-1,-1],"loss_changes":[7.203553E4,2.877132E4,1.82264E4,1.8839344E4,0E0,4.718047E2,2.7795795E4,0E0,0E0,0E0,0E0,0E0,0E0],"parents":[2147483647,0,0,1,1,2,2,3,3,5,5,6,6],"right_children":[2,4,6,8,-1,10,12,-1,-1,-1,-1,-1,-1],"split_conditions":[-2.5075614E-1,1.882595E-3,-2.5075316E-1,6.829755E-1,-2.4163568E-2,-1.5032642E0,-1.3805912E-1,1.684848E-2,3.4925923E-2,3.142051E-2,-2.3581173E-2,2.7175978E-2,-2.1878535E-2],"split_indices":[18,31,18,15,0,15,8,0,0,0,0,0,0],"split_type":[0,0,0,0,0,0,0,0,0,0,0,0,0],"sum_hessian":[8.246908E4,4.9125586E4,3.3343492E4,4.51475E4,3.9780842E3,1.9255246E4,1.4088248E4,3.1690514E4,1.3456988E4,4.686099E1,1.9208385E4,7.0564307E3,7.0318174E3],"tree_param":{"num_deleted":"0","num_feature":"40","num_nodes":"13","size_leaf_vector":"1"}},{"base_weights":[4.235409E-1,1.1751075E0,-7.010581E-1,1.3961848E0,-2.3916697E-2,-1.3279815E0,1.534432E-1,1.6468199E-2,3.4925923E-2,-2.3327589E-2,3.0318057E-2,2.6840493E-2,-2.1572802E-2],"categories":[],"categories_nodes":[],"categories_segments":[],"categories_sizes":[],"default_left":[0,0,0,0,0,0,0,0,0,0,0,0,0],"id":47,"left_children":[1,3,5,7,-1,9,11,-1,-1,-1,-1,-1,-1],"loss_changes":[6.899415E4,2.7528234E4,1.751777E4,1.8824406E4,0E0,4.560625E2,2.659332E4,0E0,0E0,0E0,0E0,0E0,0E0],"parents":[2147483647,0,0,1,1,2,2,3,3,5,5,6,6],"right_children":[2,4,6,8,-1,10,12,-1,-1,-1,-1,-1,-1],"split_conditions":[-2.5075614E-1,1.882595E-3,-2.5075316E-1,6.829755E-1,-2.3916697E-2,5.50877E-1,-1.3805912E-1,1.6468199E-2,3.4925923E-2,-2.3327589E-2,3.0318057E-2,2.6840493E-2,-2.1572802E-2],"split_indices":[18,31,18,15,0,17,8,0,0,0,0,0,0],"split_type":[0,0,0,0,0,0,0,0,0,0,0,0,0],"sum_hessian":[8.162752E4,4.892861E4,3.269891E4,4.5017973E4,3.9106392E3,1.8860756E4,1.3838155E4,3.1544686E4,1.3473285E4,1.8813117E4,4.7638397E1,6.932095E3,6.9060605E3],"tree_param":{"num_deleted":"0","num_feature":"40","num_nodes":"13","size_leaf_vector":"1"}},{"base_weights":[3.2764173E-1,-3.3563506E-2,1.6098888E0,-4.7564757E-1,6.070545E-1,1.7174653E0,2.6567161E-2,-1.5362643E-2,6.9752573E-3,2.4855271E-2,-2.3553375E-2,2.5019823E-2,3.0008495E-2],"categories":[],"categories_nodes":[],"categories_segments":[],"categories_sizes":[],"default_left":[0,0,0,0,0,0,0,0,0,0,0,0,0],"id":48,"left_children":[1,3,5,7,9,11,-1,-1,-1,-1,-1,-1,-1],"loss_changes":[1.342695E5,6.4058074E4,6.042969E2,4.732357E4,1.474442E5,5.265625E0,0E0,0E0,0E0,0E0,0E0,0E0,0E0],"parents":[2147483647,0,0,1,1,2,2,3,3,4,4,5,5],"right_children":[2,4,6,8,10,12,-1,-1,-1,-1,-1,-1,-1],"split_conditions":[3.6294868E0,6.829755E-1,-1.3812098E-1,-1.3812028E-1,9.2885554E-2,-1.3903675E0,2.6567161E-2,-1.5362643E-2,6.9752573E-3,2.4855271E-2,-2.3553375E-2,2.5019823E-2,3.0008495E-2],"split_indices":[13,15,8,8,33,10,0,0,0,0,0,0,0],"split_type":[0,0,0,0,0,0,0,0,0,0,0,0,0],"sum_hessian":[2.8990116E5,2.2618614E5,6.3715E4,1.3383098E5,9.2355164E4,2.8757863E4,3.4957137E4,9.155446E4,4.2276523E4,6.5160664E4,2.7194504E4,9.993523E1,2.8657928E4],"tree_param":{"num_deleted":"0","num_feature":"40","num_nodes":"13","size_leaf_vector":"1"}},{"base_weights":[9.7546615E-3,1.2441181E0,-5.2653176E-1,1.2511637E0,-2.4364535E-2,-7.5824517E-1,9.50475E-2,2.2047903E-2,1.710921E-3,-1.6682353E-2,2.4428299E-2,2.4758523E-2,-2.2678785E-2],"categories":[],"categories_nodes":[],"categories_segments":[],"categories_sizes":[],"default_left":[0,0,0,0,0,0,0,0,0,0,0,0,0],"id":49,"left_children":[1,3,5,7,-1,9,11,-1,-1,-1,-1,-1,-1],"loss_changes":[7.970102E3,6.9555664E1,1.2089507E3,4.764795E1,0E0,2.6002905E3,4.2052817E3,0E0,0E0,0E0,0E0,0E0,0E0],"parents":[2147483647,0,0,1,1,2,2,3,3,5,5,6,6],"right_children":[2,4,6,8,-1,10,12,-1,-1,-1,-1,-1,-1],"split_conditions":[-1.5032642E0,1.0240021E1,-1.3812049E-1,1.9430428E1,-2.4364535E-2,-7.0756085E-2,-2.507019E-1,2.2047903E-2,1.710921E-3,-1.6682353E-2,2.4428299E-2,2.4758523E-2,-2.2678785E-2],"split_indices":[15,20,8,1,0,17,18,0,0,0,0,0,0],"split_type":[0,0,0,0,0,0,0,0,0,0,0,0,0],"sum_hessian":[1.203794E4,3.6455972E3,8.392343E3,3.636416E3,9.181259E0,6.1132246E3,2.2791184E3,3.6007605E3,3.565533E1,5.602031E3,5.1119394E2,1.1693354E3,1.1097831E3],"tree_param":{"num_deleted":"0","num_feature":"40","num_nodes":"13","size_leaf_vector":"1"}},{"base_weights":[4.1730332E-1,1.1486084E0,-6.9224536E-1,1.3608108E0,-2.361719E-2,-1.3145552E0,1.4427328E-1,1.6090484E-2,3.4925923E-2,-2.3094522E-2,3.0126765E-2,2.6582243E-2,-2.1493854E-2],"categories":[],"categories_nodes":[],"categories_segments":[],"categories_sizes":[],"default_left":[0,0,0,0,0,0,0,0,0,0,0,0,0],"id":50,"left_children":[1,3,5,7,-1,9,11,-1,-1,-1,-1,-1,-1],"loss_changes":[6.5839375E4,2.5957617E4,1.678071E4,1.8255406E4,0E0,4.4789453E2,2.6058385E4,0E0,0E0,0E0,0E0,0E0,0E0],"parents":[2147483647,0,0,1,1,2,2,3,3,5,5,6,6],"right_children":[2,4,6,8,-1,10,12,-1,-1,-1,-1,-1,-1],"split_conditions":[-2.5075614E-1,1.882595E-3,-2.5075316E-1,6.829755E-1,-2.361719E-2,5.50877E-1,-1.3805912E-1,1.6090484E-2,3.4925923E-2,-2.3094522E-2,3.0126765E-2,2.6582243E-2,-2.1493854E-2],"split_indices":[18,31,18,15,0,17,8,0,0,0,0,0,0],"split_type":[0,0,0,0,0,0,0,0,0,0,0,0,0],"sum_hessian":[8.113909E4,4.8905426E4,3.223367E4,4.5080938E4,3.824489E3,1.8483043E4,1.3750627E4,3.1526723E4,1.3554216E4,1.8435508E4,4.7534702E1,6.8681797E3,6.8824473E3],"tree_param":{"num_deleted":"0","num_feature":"40","num_nodes":"13","size_leaf_vector":"1"}},{"base_weights":[7.890704E-3,1.2321792E0,-5.2097094E-1,1.2393147E0,-2.4283178E-2,-7.496873E-1,9.536399E-2,2.1845924E-2,1.4110177E-3,-1.6453158E-2,2.406741E-2,2.4464142E-2,-2.23777E-2],"categories":[],"categories_nodes":[],"categories_segments":[],"categories_sizes":[],"default_left":[0,0,0,0,0,0,0,0,0,0,0,0,0],"id":51,"left_children":[1,3,5,7,-1,9,11,-1,-1,-1,-1,-1,-1],"loss_changes":[7.665071E3,6.855713E1,1.1654575E3,4.80625E1,0E0,2.4710168E3,4.0253281E3,0E0,0E0,0E0,0E0,0E0,0E0],"parents":[2147483647,0,0,1,1,2,2,3,3,5,5,6,6],"right_children":[2,4,6,8,-1,10,12,-1,-1,-1,-1,-1,-1],"split_conditions":[-1.5032642E0,1.0240021E1,-1.3812049E-1,1.9430428E1,-2.4283178E-2,-7.0756085E-2,-2.507019E-1,2.1845924E-2,1.4110177E-3,-1.6453158E-2,2.406741E-2,2.4464142E-2,-2.23777E-2],"split_indices":[15,20,8,1,0,17,18,0,0,0,0,0,0],"split_type":[0,0,0,0,0,0,0,0,0,0,0,0,0],"sum_hessian":[1.1836338E4,3.5701917E3,8.266146E3,3.5610308E3,9.160801E0,6.028724E3,2.237422E3,3.5254336E3,3.559723E1,5.52912E3,4.9960382E2,1.1484177E3,1.0890043E3],"tree_param":{"num_deleted":"0","num_feature":"40","num_nodes":"13","size_leaf_vector":"1"}},{"base_weights":[4.209574E-1,1.1392869E0,-6.8358785E-1,1.3465389E0,-2.3373837E-2,-1.3018881E0,1.461201E-1,1.5873145E-2,3.4925923E-2,3.0347582E-2,-2.2872202E-2,2.6329905E-2,-2.116673E-2],"categories":[],"categories_nodes":[],"categories_segments":[],"categories_sizes":[],"default_left":[0,0,0,0,0,0,0,0,0,0,0,0,0],"id":52,"left_children":[1,3,5,7,-1,9,11,-1,-1,-1,-1,-1,-1],"loss_changes":[6.3628664E4,2.4955219E4,1.6212331E4,1.8139875E4,0E0,4.353047E2,2.49594E4,0E0,0E0,0E0,0E0,0E0,0E0],"parents":[2147483647,0,0,1,1,2,2,3,3,5,5,6,6],"right_children":[2,4,6,8,-1,10,12,-1,-1,-1,-1,-1,-1],"split_conditions":[-2.5075614E-1,1.882595E-3,-2.5075316E-1,6.829755E-1,-2.3373837E-2,-1.5032642E0,-1.3805912E-1,1.5873145E-2,3.4925923E-2,3.0347582E-2,-2.2872202E-2,2.6329905E-2,-2.116673E-2],"split_indices":[18,31,18,15,0,15,8,0,0,0,0,0,0],"split_type":[0,0,0,0,0,0,0,0,0,0,0,0,0],"sum_hessian":[8.019271E4,4.8591625E4,3.1601088E4,4.484134E4,3.750283E3,1.810708E4,1.3494007E4,3.1327229E4,1.3514112E4,4.6174133E1,1.8060906E4,6.738454E3,6.7555527E3],"tree_param":{"num_deleted":"0","num_feature":"40","num_nodes":"13","size_leaf_vector":"1"}},{"base_weights":[1.710338E-1,2.2711542E-2,-2.2206339E-1,-7.354685E-1,6.767583E-1,-4.5094094E-3,-2.1693492E-2,2.6538655E-2,-2.1495262E-2],"categories":[],"categories_nodes":[],"categories_segments":[],"categories_sizes":[],"default_left":[0,0,0,0,0,0,0,0,0],"id":53,"left_children":[1,-1,3,5,7,-1,-1,-1,-1],"loss_changes":[8.025766E1,0E0,6.254622E1,2.0493275E1,8.131456E1,0E0,0E0,0E0,0E0],"parents":[2147483647,0,0,2,2,3,3,4,4],"right_children":[2,-1,4,6,8,-1,-1,-1,-1],"split_conditions":[-1.5032642E0,2.2711542E-2,-1.3812049E-1,-1.38121E-1,-2.4928316E-1,-4.5094094E-3,-2.1693492E-2,2.6538655E-2,-2.1495262E-2],"split_indices":[15,0,8,8,18,0,0,0,0],"split_type":[0,0,0,0,0,0,0,0,0],"sum_hessian":[1.7910532E2,4.5643963E1,1.3346135E2,8.505809E1,4.8403263E1,4.4583492E1,4.0474598E1,3.3710667E1,1.4692597E1],"tree_param":{"num_deleted":"0","num_feature":"40","num_nodes":"9","size_leaf_vector":"1"}},{"base_weights":[3.2541883E-1,-2.7956136E-2,1.5477631E0,-4.5912448E-1,6.021828E-1,1.64799E0,2.5503568E-2,-1.4812663E-2,6.8078884E-3,2.4104524E-2,-2.282848E-2,2.404996E-2,2.8794397E-2],"categories":[],"categories_nodes":[],"categories_segments":[],"categories_sizes":[],"default_left":[0,0,0,0,0,0,0,0,0,0,0,0,0],"id":54,"left_children":[1,3,5,7,9,11,-1,-1,-1,-1,-1,-1,-1],"loss_changes":[1.2072136E5,5.890561E4,5.462031E2,4.2524195E4,1.3087231E5,4.7890625E0,0E0,0E0,0E0,0E0,0E0,0E0,0E0],"parents":[2147483647,0,0,1,1,2,2,3,3,4,4,5,5],"right_children":[2,4,6,8,10,12,-1,-1,-1,-1,-1,-1,-1],"split_conditions":[3.6294868E0,6.829755E-1,-1.3812098E-1,-1.3812028E-1,9.2885554E-2,-1.3903675E0,2.5503568E-2,-1.4812663E-2,6.8078884E-3,2.4104524E-2,-2.282848E-2,2.404996E-2,2.8794397E-2],"split_indices":[13,15,8,8,33,10,0,0,0,0,0,0,0],"split_type":[0,0,0,0,0,0,0,0,0,0,0,0,0],"sum_hessian":[2.794816E5,2.1680508E5,6.267652E4,1.2872567E5,8.807941E4,2.917422E4,3.35023E4,8.826927E4,4.04564E4,6.257775E4,2.5501652E4,1.0106346E2,2.9073158E4],"tree_param":{"num_deleted":"0","num_feature":"40","num_nodes":"13","size_leaf_vector":"1"}},{"base_weights":[4.2671072E-1,1.1237334E0,-6.686612E-1,1.3219897E0,-2.2944044E-2,-1.2796296E0,1.4104001E-1,1.5520372E-2,3.4925923E-2,-2.2487225E-2,2.9415796E-2,2.6018098E-2,-2.0876888E-2],"categories":[],"categories_nodes":[],"categories_segments":[],"categories_sizes":[],"default_left":[0,0,0,0,0,0,0,0,0,0,0,0,0],"id":55,"left_children":[1,3,5,7,-1,9,11,-1,-1,-1,-1,-1,-1],"loss_changes":[5.9947848E4,2.3190664E4,1.5105341E4,1.7779297E4,0E0,4.1897266E2,2.3676521E4,0E0,0E0,0E0,0E0,0E0,0E0],"parents":[2147483647,0,0,1,1,2,2,3,3,5,5,6,6],"right_children":[2,4,6,8,-1,10,12,-1,-1,-1,-1,-1,-1],"split_conditions":[-2.5075614E-1,1.882595E-3,-2.5075316E-1,6.829755E-1,-2.2944044E-2,5.50877E-1,-1.3805912E-1,1.5520372E-2,3.4925923E-2,-2.2487225E-2,2.9415796E-2,2.6018098E-2,-2.0876888E-2],"split_indices":[18,31,18,15,0,17,8,0,0,0,0,0,0],"split_type":[0,0,0,0,0,0,0,0,0,0,0,0,0],"sum_hessian":[7.8515266E4,4.79824E4,3.0532871E4,4.437382E4,3.6085752E3,1.7401676E4,1.3131195E4,3.0919477E4,1.3454345E4,1.7354932E4,4.6744278E1,6.535403E3,6.595792E3],"tree_param":{"num_deleted":"0","num_feature":"40","num_nodes":"13","size_leaf_vector":"1"}},{"base_weights":[3.2314694E-1,-2.477723E-2,1.5196102E0,-4.5171463E-1,5.994741E-1,1.6117885E0,2.5095781E-2,-1.4536873E-2,6.6023637E-3,2.3794917E-2,-2.2621224E-2,2.3590097E-2,2.8161602E-2],"categories":[],"categories_nodes":[],"categories_segments":[],"categories_sizes":[],"default_left":[0,0,0,0,0,0,0,0,0,0,0,0,0],"id":56,"left_children":[1,3,5,7,9,11,-1,-1,-1,-1,-1,-1,-1],"loss_changes":[1.14997836E5,5.7039574E4,4.7107812E2,4.015286E4,1.2569307E5,4.4140625E0,0E0,0E0,0E0,0E0,0E0,0E0,0E0],"parents":[2147483647,0,0,1,1,2,2,3,3,4,4,5,5],"right_children":[2,4,6,8,10,12,-1,-1,-1,-1,-1,-1,-1],"split_conditions":[3.6294868E0,6.829755E-1,-1.3812098E-1,-1.3812028E-1,9.2885554E-2,-1.3903675E0,2.5095781E-2,-1.4536873E-2,6.6023637E-3,2.3794917E-2,-2.2621224E-2,2.3590097E-2,2.8161602E-2],"split_indices":[13,15,8,8,33,10,0,0,0,0,0,0,0],"split_type":[0,0,0,0,0,0,0,0,0,0,0,0,0],"sum_hessian":[2.7625103E5,2.1401714E5,6.2233887E4,1.2709483E5,8.6922305E4,2.938861E4,3.284528E4,8.712165E4,3.9973176E4,6.1966645E4,2.4955664E4,1.0158736E2,2.9287021E4],"tree_param":{"num_deleted":"0","num_feature":"40","num_nodes":"13","size_leaf_vector":"1"}},{"base_weights":[1.7851975E-2,1.2179925E0,-5.074118E-1,1.2252821E0,-2.4287807E-2,-7.245712E-1,7.5543515E-2,2.1607943E-2,9.696627E-4,-1.5848283E-2,2.3309082E-2,2.3837976E-2,-2.2037288E-2],"categories":[],"categories_nodes":[],"categories_segments":[],"categories_sizes":[],"default_left":[0,0,0,0,0,0,0,0,0,0,0,0,0],"id":57,"left_children":[1,3,5,7,-1,9,11,-1,-1,-1,-1,-1,-1],"loss_changes":[7.203859E3,6.786182E1,1.0063187E3,4.8946777E1,0E0,2.1833738E3,3.7241265E3,0E0,0E0,0E0,0E0,0E0,0E0],"parents":[2147483647,0,0,1,1,2,2,3,3,5,5,6,6],"right_children":[2,4,6,8,-1,10,12,-1,-1,-1,-1,-1,-1],"split_conditions":[-1.5032642E0,1.0240021E1,-1.3812049E-1,1.9430428E1,-2.4287807E-2,-7.0756085E-2,-2.507019E-1,2.1607943E-2,9.696627E-4,-1.5848283E-2,2.3309082E-2,2.3837976E-2,-2.2037288E-2],"split_indices":[15,20,8,1,0,17,18,0,0,0,0,0,0],"split_type":[0,0,0,0,0,0,0,0,0,0,0,0,0],"sum_hessian":[1.1425636E4,3.4778977E3,7.947739E3,3.4687356E3,9.161975E0,5.790463E3,2.157276E3,3.433234E3,3.5501884E1,5.318492E3,4.7197076E2,1.0983246E3,1.0589512E3],"tree_param":{"num_deleted":"0","num_feature":"40","num_nodes":"13","size_leaf_vector":"1"}},{"base_weights":[3.1594756E-1,-2.6474675E-2,1.4814056E0,-4.4528002E-1,5.892908E-1,1.548378E0,2.4791948E-2,-1.4352691E-2,6.5167416E-3,2.3291431E-2,-2.239275E-2,2.268883E-2,2.705355E-2],"categories":[],"categories_nodes":[],"categories_segments":[],"categories_sizes":[],"default_left":[0,0,0,0,0,0,0,0,0,0,0,0,0],"id":58,"left_children":[1,3,5,7,9,11,-1,-1,-1,-1,-1,-1,-1],"loss_changes":[1.09088516E5,5.44856E4,2.54375E2,3.876172E4,1.1917116E5,4.046875E0,0E0,0E0,0E0,0E0,0E0,0E0,0E0],"parents":[2147483647,0,0,1,1,2,2,3,3,4,4,5,5],"right_children":[2,4,6,8,10,12,-1,-1,-1,-1,-1,-1,-1],"split_conditions":[3.6294868E0,6.829755E-1,-1.3812098E-1,-1.3812028E-1,9.2885554E-2,-1.3903675E0,2.4791948E-2,-1.4352691E-2,6.5167416E-3,2.3291431E-2,-2.239275E-2,2.268883E-2,2.705355E-2],"split_indices":[13,15,8,8,33,10,0,0,0,0,0,0,0],"split_type":[0,0,0,0,0,0,0,0,0,0,0,0,0],"sum_hessian":[2.7334978E5,2.1127594E5,6.207383E4,1.2574934E5,8.55266E4,2.975814E4,3.2315688E4,8.612075E4,3.9628594E4,6.11879E4,2.43387E4,1.0258917E2,2.9655553E4],"tree_param":{"num_deleted":"0","num_feature":"40","num_nodes":"13","size_leaf_vector":"1"}},{"base_weights":[1.8531281E-1,2.2596864E-2,-2.1107373E-1,-4.371664E-1,3.0255826E-2,-1.2436474E-2,3.7310417E-3],"categories":[],"categories_nodes":[],"categories_segments":[],"categories_sizes":[],"default_left":[0,0,0,0,0,0,0],"id":59,"left_children":[1,-1,3,5,-1,-1,-1],"loss_changes":[7.7331635E1,0E0,5.789633E1,2.114127E1,0E0,0E0,0E0],"parents":[2147483647,0,0,2,2,3,3],"right_children":[2,-1,4,6,-1,-1,-1],"split_conditions":[-1.5032642E0,2.2596864E-2,-3.6387973E-2,-1.3812049E-1,3.0255826E-2,-1.2436474E-2,3.7310417E-3],"split_indices":[15,0,5,8,0,0,0],"split_type":[0,0,0,0,0,0,0],"sum_hessian":[1.743466E2,4.532109E1,1.2902551E2,1.16275E2,1.2750501E1,8.167146E1,3.460354E1],"tree_param":{"num_deleted":"0","num_feature":"40","num_nodes":"7","size_leaf_vector":"1"}},{"base_weights":[4.2679757E-1,1.1017109E0,-6.5443593E-1,1.2888662E0,-2.2502845E-2,-1.2597439E0,1.2846375E-1,1.518419E-2,3.4925923E-2,2.995423E-2,-2.2142613E-2,2.5779173E-2,-2.0787075E-2],"categories":[],"categories_nodes":[],"categories_segments":[],"categories_sizes":[],"default_left":[0,0,0,0,0,0,0,0,0,0,0,0,0],"id":60,"left_children":[1,3,5,7,-1,9,11,-1,-1,-1,-1,-1,-1],"loss_changes":[5.631977E4,2.1258906E4,1.4056322E4,1.6854969E4,0E0,4.118418E2,2.2991396E4,0E0,0E0,0E0,0E0,0E0,0E0],"parents":[2147483647,0,0,1,1,2,2,3,3,5,5,6,6],"right_children":[2,4,6,8,-1,10,12,-1,-1,-1,-1,-1,-1],"split_conditions":[-2.5075614E-1,1.882595E-3,-2.5075316E-1,6.829755E-1,-2.2502845E-2,-1.5032642E0,-1.3805912E-1,1.518419E-2,3.4925923E-2,2.995423E-2,-2.2142613E-2,2.5779173E-2,-2.0787075E-2],"split_indices":[18,31,18,15,0,15,8,0,0,0,0,0,0],"split_type":[0,0,0,0,0,0,0,0,0,0,0,0,0],"sum_hessian":[7.717598E4,4.751609E4,2.9659889E4,4.4066277E4,3.44981E3,1.6726777E4,1.2933111E4,3.0628062E4,1.3438215E4,4.5582634E1,1.6681195E4,6.396315E3,6.5367964E3],"tree_param":{"num_deleted":"0","num_feature":"40","num_nodes":"13","size_leaf_vector":"1"}},{"base_weights":[4.2873368E-1,1.0928727E0,-6.472893E-1,1.2754978E0,-2.2329537E-2,-1.2505519E0,1.24598354E-1,1.5006353E-2,3.4925923E-2,-2.1983802E-2,2.8996393E-2,2.5583575E-2,-2.0641765E-2],"categories":[],"categories_nodes":[],"categories_segments":[],"categories_sizes":[],"default_left":[0,0,0,0,0,0,0,0,0,0,0,0,0],"id":61,"left_children":[1,3,5,7,-1,9,11,-1,-1,-1,-1,-1,-1],"loss_changes":[5.4693855E4,2.0498188E4,1.3601805E4,1.663E4,0E0,3.9965234E2,2.2446332E4,0E0,0E0,0E0,0E0,0E0,0E0],"parents":[2147483647,0,0,1,1,2,2,3,3,5,5,6,6],"right_children":[2,4,6,8,-1,10,12,-1,-1,-1,-1,-1,-1],"split_conditions":[-2.5075614E-1,1.882595E-3,-2.5075316E-1,6.829755E-1,-2.2329537E-2,5.50877E-1,-1.3805912E-1,1.5006353E-2,3.4925923E-2,-2.1983802E-2,2.8996393E-2,2.5583575E-2,-2.0641765E-2],"split_indices":[18,31,18,15,0,17,8,0,0,0,0,0,0],"split_type":[0,0,0,0,0,0,0,0,0,0,0,0,0],"sum_hessian":[7.653264E4,4.732367E4,2.9208965E4,4.3940434E4,3.3832378E3,1.6394979E4,1.2813987E4,3.0509957E4,1.3430478E4,1.6348765E4,4.6213562E1,6.325144E3,6.488843E3],"tree_param":{"num_deleted":"0","num_feature":"40","num_nodes":"13","size_leaf_vector":"1"}},{"base_weights":[3.2107443E-1,-1.7256148E-2,1.4587476E0,-4.3077826E-1,5.931191E-1,1.5285885E0,2.4313204E-2,-1.3924867E-2,6.3258167E-3,2.2990158E-2,-2.2046028E-2,2.2471659E-2,2.6707511E-2],"categories":[],"categories_nodes":[],"categories_segments":[],"categories_sizes":[],"default_left":[0,0,0,0,0,0,0,0,0,0,0,0,0],"id":62,"left_children":[1,3,5,7,9,11,-1,-1,-1,-1,-1,-1,-1],"loss_changes":[1.0289984E5,5.2009867E4,2.82375E2,3.5713273E4,1.117089E5,3.7421875E0,0E0,0E0,0E0,0E0,0E0,0E0,0E0],"parents":[2147483647,0,0,1,1,2,2,3,3,4,4,5,5],"right_children":[2,4,6,8,10,12,-1,-1,-1,-1,-1,-1,-1],"split_conditions":[3.6294868E0,6.829755E-1,-1.3812098E-1,-1.3812028E-1,9.2885554E-2,-1.3903675E0,2.4313204E-2,-1.3924867E-2,6.3258167E-3,2.2990158E-2,-2.2046028E-2,2.2471659E-2,2.6707511E-2],"split_indices":[13,15,8,8,33,10,0,0,0,0,0,0,0],"split_type":[0,0,0,0,0,0,0,0,0,0,0,0,0],"sum_hessian":[2.6733403E5,2.060563E5,6.1277727E4,1.22836375E5,8.321992E4,2.987155E4,3.1406174E4,8.400196E4,3.8834414E4,5.987714E4,2.334278E4,1.0282499E2,2.9768727E4],"tree_param":{"num_deleted":"0","num_feature":"40","num_nodes":"13","size_leaf_vector":"1"}},{"base_weights":[1.8554528E-1,2.2318853E-2,-2.0670171E-1,-4.3204153E-1,3.0054996E-2,-1.221287E-2,3.4907877E-3],"categories":[],"categories_nodes":[],"categories_segments":[],"categories_sizes":[],"default_left":[0,0,0,0,0,0,0],"id":63,"left_children":[1,-1,3,5,-1,-1,-1],"loss_changes":[7.3897804E1,0E0,5.6040123E1,1.9527655E1,0E0,0E0,0E0],"parents":[2147483647,0,0,2,2,3,3],"right_children":[2,-1,4,6,-1,-1,-1],"split_conditions":[-1.5032642E0,2.2318853E-2,-3.6387973E-2,-1.3812049E-1,3.0054996E-2,-1.221287E-2,3.4907877E-3],"split_indices":[15,0,5,8,0,0,0],"split_type":[0,0,0,0,0,0,0],"sum_hessian":[1.708249E2,4.4531982E1,1.2629293E2,1.1377009E2,1.2522845E1,7.987527E1,3.389482E1],"tree_param":{"num_deleted":"0","num_feature":"40","num_nodes":"7","size_leaf_vector":"1"}},{"base_weights":[3.1402642E-1,-1.915351E-2,1.4234037E0,-4.248015E-1,5.83544E-1,1.4706328E0,2.4049053E-2,-1.3754559E-2,6.250125E-3,2.252867E-2,-2.184799E-2,2.1636501E-2,2.5694825E-2],"categories":[],"categories_nodes":[],"categories_segments":[],"categories_sizes":[],"default_left":[0,0,0,0,0,0,0,0,0,0,0,0,0],"id":64,"left_children":[1,3,5,7,9,11,-1,-1,-1,-1,-1,-1,-1],"loss_changes":[9.771731E4,4.9706426E4,1.3136719E2,3.4512242E4,1.0602284E5,3.4609375E0,0E0,0E0,0E0,0E0,0E0,0E0,0E0],"parents":[2147483647,0,0,1,1,2,2,3,3,4,4,5,5],"right_children":[2,4,6,8,10,12,-1,-1,-1,-1,-1,-1,-1],"split_conditions":[3.6294868E0,6.829755E-1,-1.3812098E-1,-1.3812028E-1,9.2885554E-2,-1.3903675E0,2.4049053E-2,-1.3754559E-2,6.250125E-3,2.252867E-2,-2.184799E-2,2.1636501E-2,2.5694825E-2],"split_indices":[13,15,8,8,33,10,0,0,0,0,0,0,0],"split_type":[0,0,0,0,0,0,0,0,0,0,0,0,0],"sum_hessian":[2.6436966E5,2.0331033E5,6.1059324E4,1.21520664E5,8.178967E4,3.0197129E4,3.0862197E4,8.3030305E4,3.8490355E4,5.90495E4,2.2740174E4,1.0370874E2,3.009342E4],"tree_param":{"num_deleted":"0","num_feature":"40","num_nodes":"13","size_leaf_vector":"1"}},{"base_weights":[4.2692584E-1,1.0717299E0,-6.346256E-1,1.2440139E0,-2.19618E-2,-1.2339406E0,1.0668522E-1,1.4707859E-2,3.4925923E-2,-2.1697557E-2,2.8817689E-2,2.5365878E-2,-2.0700252E-2],"categories":[],"categories_nodes":[],"categories_segments":[],"categories_sizes":[],"default_left":[0,0,0,0,0,0,0,0,0,0,0,0,0],"id":65,"left_children":[1,3,5,7,-1,9,11,-1,-1,-1,-1,-1,-1],"loss_changes":[5.1668695E4,1.884709E4,1.2673039E4,1.5615531E4,0E0,3.9097852E2,2.2177896E4,0E0,0E0,0E0,0E0,0E0,0E0],"parents":[2147483647,0,0,1,1,2,2,3,3,5,5,6,6],"right_children":[2,4,6,8,-1,10,12,-1,-1,-1,-1,-1,-1],"split_conditions":[-2.5075614E-1,1.882595E-3,-2.5075316E-1,6.829755E-1,-2.19618E-2,5.50877E-1,-1.3805912E-1,1.4707859E-2,3.4925923E-2,-2.1697557E-2,2.8817689E-2,2.5365878E-2,-2.0700252E-2],"split_indices":[18,31,18,15,0,17,8,0,0,0,0,0,0],"split_type":[0,0,0,0,0,0,0,0,0,0,0,0,0],"sum_hessian":[7.5482664E4,4.6958984E4,2.852368E4,4.372542E4,3.2335635E3,1.5772052E4,1.2751627E4,3.029518E4,1.3430242E4,1.5726005E4,4.6046936E1,6.245714E3,6.505913E3],"tree_param":{"num_deleted":"0","num_feature":"40","num_nodes":"13","size_leaf_vector":"1"}},{"base_weights":[3.1631038E-1,-1.3384873E-2,1.4094992E0,-4.1469747E-1,5.8339304E-1,1.4523019E0,2.3870124E-2,-1.34877665E-2,6.087295E-3,2.2280255E-2,-2.170132E-2,2.142985E-2,2.5374312E-2],"categories":[],"categories_nodes":[],"categories_segments":[],"categories_sizes":[],"default_left":[0,0,0,0,0,0,0,0,0,0,0,0,0],"id":66,"left_children":[1,3,5,7,9,11,-1,-1,-1,-1,-1,-1,-1],"loss_changes":[9.453347E4,4.8261758E4,1.08828125E2,3.2894E4,1.0245879E5,3.2265625E0,0E0,0E0,0E0,0E0,0E0,0E0,0E0],"parents":[2147483647,0,0,1,1,2,2,3,3,4,4,5,5],"right_children":[2,4,6,8,10,12,-1,-1,-1,-1,-1,-1,-1],"split_conditions":[3.6294868E0,6.829755E-1,-1.3812098E-1,-1.3812028E-1,9.2885554E-2,-1.3903675E0,2.3870124E-2,-1.34877665E-2,6.087295E-3,2.2280255E-2,-2.170132E-2,2.142985E-2,2.5374312E-2],"split_indices":[13,15,8,8,33,10,0,0,0,0,0,0,0],"split_type":[0,0,0,0,0,0,0,0,0,0,0,0,0],"sum_hessian":[2.622865E5,2.015131E5,6.077342E4,1.2048882E5,8.102427E4,3.0297785E4,3.0475635E4,8.20438E4,3.8445023E4,5.874733E4,2.2276947E4,1.0392125E2,3.0193865E4],"tree_param":{"num_deleted":"0","num_feature":"40","num_nodes":"13","size_leaf_vector":"1"}},{"base_weights":[4.2021957E-1,1.0491706E0,-6.282315E-1,1.2148644E0,-2.1769227E-2,-1.2250023E0,9.8883085E-2,1.4399235E-2,3.4925923E-2,-2.1543398E-2,2.8645772E-2,2.5168125E-2,-2.062476E-2],"categories":[],"categories_nodes":[],"categories_segments":[],"categories_sizes":[],"default_left":[0,0,0,0,0,0,0,0,0,0,0,0,0],"id":67,"left_children":[1,3,5,7,-1,9,11,-1,-1,-1,-1,-1,-1],"loss_changes":[4.9382688E4,1.7806941E4,1.218451E4,1.4851359E4,0E0,3.847207E2,2.175056E4,0E0,0E0,0E0,0E0,0E0,0E0],"parents":[2147483647,0,0,1,1,2,2,3,3,5,5,6,6],"right_children":[2,4,6,8,-1,10,12,-1,-1,-1,-1,-1,-1],"split_conditions":[-2.5075614E-1,1.882595E-3,-2.5075316E-1,6.829755E-1,-2.1769227E-2,5.50877E-1,-1.3805912E-1,1.4399235E-2,3.4925923E-2,-2.1543398E-2,2.8645772E-2,2.5168125E-2,-2.062476E-2],"split_indices":[18,31,18,15,0,17,8,0,0,0,0,0,0],"split_type":[0,0,0,0,0,0,0,0,0,0,0,0,0],"sum_hessian":[7.488558E4,4.6806824E4,2.8078756E4,4.365645E4,3.1503755E3,1.5421256E4,1.26575E4,3.0228867E4,1.3427583E4,1.5375356E4,4.589965E1,6.1780767E3,6.4794233E3],"tree_param":{"num_deleted":"0","num_feature":"40","num_nodes":"13","size_leaf_vector":"1"}},{"base_weights":[3.093892E-1,-1.5363357E-2,1.3761983E0,-4.0895358E-1,5.7415855E-1,1.3988408E0,2.3627618E-2,-1.3325009E-2,6.0194E-3,2.1844154E-2,-2.1520901E-2,2.064936E-2,2.4440203E-2],"categories":[],"categories_nodes":[],"categories_segments":[],"categories_sizes":[],"default_left":[0,0,0,0,0,0,0,0,0,0,0,0,0],"id":68,"left_children":[1,3,5,7,9,11,-1,-1,-1,-1,-1,-1,-1],"loss_changes":[8.9831984E4,4.6123734E4,2.9882812E1,3.1810018E4,9.7294266E4,3.0117188E0,0E0,0E0,0E0,0E0,0E0,0E0,0E0],"parents":[2147483647,0,0,1,1,2,2,3,3,4,4,5,5],"right_children":[2,4,6,8,10,12,-1,-1,-1,-1,-1,-1,-1],"split_conditions":[3.6294868E0,6.829755E-1,-1.3812098E-1,-1.3812028E-1,9.2885554E-2,-1.3903675E0,2.3627618E-2,-1.3325009E-2,6.0194E-3,2.1844154E-2,-2.1520901E-2,2.064936E-2,2.4440203E-2],"split_indices":[13,15,8,8,33,10,0,0,0,0,0,0,0],"split_type":[0,0,0,0,0,0,0,0,0,0,0,0,0],"sum_hessian":[2.5929245E5,1.9878142E5,6.0511035E4,1.1919921E5,7.958222E4,3.0583748E4,2.9927285E4,8.1097E4,3.8102207E4,5.7895062E4,2.1687154E4,1.0469899E2,3.0479049E4],"tree_param":{"num_deleted":"0","num_feature":"40","num_nodes":"13","size_leaf_vector":"1"}},{"base_weights":[4.1516554E-2,1.2012401E0,-4.8498046E-1,1.208769E0,-2.439692E-2,-6.847021E-1,3.1288065E-2,2.1329451E-2,3.5524133E-4,-1.4869079E-2,2.2153314E-2,2.3165345E-2,-2.185986E-2],"categories":[],"categories_nodes":[],"categories_segments":[],"categories_sizes":[],"default_left":[0,0,0,0,0,0,0,0,0,0,0,0,0],"id":69,"left_children":[1,3,5,7,-1,9,11,-1,-1,-1,-1,-1,-1],"loss_changes":[6.582573E3,6.753662E1,7.645427E2,5.040918E1,0E0,1.7425818E3,3.4405122E3,0E0,0E0,0E0,0E0,0E0,0E0],"parents":[2147483647,0,0,1,1,2,2,3,3,5,5,6,6],"right_children":[2,4,6,8,-1,10,12,-1,-1,-1,-1,-1,-1],"split_conditions":[-1.5032642E0,1.0240021E1,-1.3812049E-1,1.9430428E1,-2.439692E-2,-7.0756085E-2,-2.507019E-1,2.1329451E-2,3.5524133E-4,-1.4869079E-2,2.2153314E-2,2.3165345E-2,-2.185986E-2],"split_indices":[15,20,8,1,0,17,18,0,0,0,0,0,0],"split_type":[0,0,0,0,0,0,0,0,0,0,0,0,0],"sum_hessian":[1.0778704E4,3.3650881E3,7.413616E3,3.355899E3,9.1893015E0,5.345392E3,2.068224E3,3.3205488E3,3.5350067E1,4.9254478E3,4.1994464E2,1.0292095E3,1.0390145E3],"tree_param":{"num_deleted":"0","num_feature":"40","num_nodes":"13","size_leaf_vector":"1"}},{"base_weights":[3.026431E-1,-1.7323736E-2,1.3443013E0,-4.032969E-1,5.652145E-1,2.1404035E-2,1.3446995E0,-1.3165912E-2,5.955531E-3,2.1425065E-2,-2.134953E-2,2.411041E-2,2.3460094E-2],"categories":[],"categories_nodes":[],"categories_segments":[],"categories_sizes":[],"default_left":[0,0,0,0,0,0,0,0,0,0,0,0,0],"id":70,"left_children":[1,3,5,7,9,-1,11,-1,-1,-1,-1,-1,-1],"loss_changes":[8.541564E4,4.408194E4,1.1953125E0,3.0777121E4,9.2426016E4,0E0,9.0625E-1,0E0,0E0,0E0,0E0,0E0,0E0],"parents":[2147483647,0,0,1,1,2,2,3,3,4,4,6,6],"right_children":[2,4,6,8,10,-1,12,-1,-1,-1,-1,-1,-1],"split_conditions":[3.6294868E0,6.829755E-1,-1.3903675E0,-1.3812028E-1,9.2885554E-2,2.1404035E-2,-1.2898455E0,-1.3165912E-2,5.955531E-3,2.1425065E-2,-2.134953E-2,2.411041E-2,2.3460094E-2],"split_indices":[13,15,10,8,33,0,10,0,0,0,0,0,0],"split_type":[0,0,0,0,0,0,0,0,0,0,0,0,0],"sum_hessian":[2.562745E5,1.960536E5,6.0220918E4,1.1792209E5,7.81315E4,2.117773E2,6.000914E4,8.016055E4,3.7761547E4,5.7025984E4,2.1105514E4,2.0245593E3,5.7984582E4],"tree_param":{"num_deleted":"0","num_feature":"40","num_nodes":"13","size_leaf_vector":"1"}},{"base_weights":[2.0135102E-1,2.218899E-2,-1.958759E-1,-4.193122E-1,2.9454082E-2,-1.1674823E-2,2.8090805E-3],"categories":[],"categories_nodes":[],"categories_segments":[],"categories_sizes":[],"default_left":[0,0,0,0,0,0,0],"id":71,"left_children":[1,-1,3,5,-1,-1,-1],"loss_changes":[7.082792E1,0E0,5.2034065E1,1.5995987E1,0E0,0E0,0E0],"parents":[2147483647,0,0,2,2,3,3],"right_children":[2,-1,4,6,-1,-1,-1],"split_conditions":[-1.5032642E0,2.218899E-2,-3.6387973E-2,-1.3812049E-1,2.9454082E-2,-1.1674823E-2,2.8090805E-3],"split_indices":[15,0,5,8,0,0,0],"split_type":[0,0,0,0,0,0,0],"sum_hessian":[1.6516719E2,4.4142597E1,1.2102459E2,1.08879105E2,1.2145489E1,7.605455E1,3.2824554E1],"tree_param":{"num_deleted":"0","num_feature":"40","num_nodes":"7","size_leaf_vector":"1"}},{"base_weights":[3.0464923E-1,-1.1791904E-2,1.3312104E0,-3.9470422E-1,5.671651E-1,2.1199543E-2,1.3316034E0,-1.288812E-2,5.8161584E-3,2.1292118E-2,-2.121142E-2,2.3369027E-2,2.3128776E-2],"categories":[],"categories_nodes":[],"categories_segments":[],"categories_sizes":[],"default_left":[0,0,0,0,0,0,0,0,0,0,0,0,0],"id":72,"left_children":[1,3,5,7,9,-1,11,-1,-1,-1,-1,-1,-1],"loss_changes":[8.216498E4,4.2861477E4,1.125E0,2.9076725E4,8.943233E4,0E0,1.0390625E0,0E0,0E0,0E0,0E0,0E0,0E0],"parents":[2147483647,0,0,1,1,2,2,3,3,4,4,6,6],"right_children":[2,4,6,8,10,-1,12,-1,-1,-1,-1,-1,-1],"split_conditions":[3.6294868E0,6.829755E-1,-1.3903675E0,-1.3812028E-1,9.2885554E-2,2.1199543E-2,-1.3761242E-1,-1.288812E-2,5.8161584E-3,2.1292118E-2,-2.121142E-2,2.3369027E-2,2.3128776E-2],"split_indices":[13,15,10,8,33,0,8,0,0,0,0,0,0],"split_type":[0,0,0,0,0,0,0,0,0,0,0,0,0],"sum_hessian":[2.5293397E5,1.9333788E5,5.9596094E4,1.16371836E5,7.696603E4,2.0940222E2,5.938669E4,7.907033E4,3.7301504E4,5.6345184E4,2.062085E4,3.0791992E4,2.8594701E4],"tree_param":{"num_deleted":"0","num_feature":"40","num_nodes":"13","size_leaf_vector":"1"}},{"base_weights":[4.2456755E-1,1.033391E0,-6.1123306E-1,1.1872114E0,-2.131045E-2,-1.2039235E0,7.9651445E-2,1.4160564E-2,3.4925923E-2,2.9159613E-2,-2.1180538E-2,2.4983756E-2,-2.0649811E-2],"categories":[],"categories_nodes":[],"categories_segments":[],"categories_sizes":[],"default_left":[0,0,0,0,0,0,0,0,0,0,0,0,0],"id":73,"left_children":[1,3,5,7,-1,9,11,-1,-1,-1,-1,-1,-1],"loss_changes":[4.6049668E4,1.5944777E4,1.1069422E4,1.3592195E4,0E0,3.7667773E2,2.1287867E4,0E0,0E0,0E0,0E0,0E0,0E0],"parents":[2147483647,0,0,1,1,2,2,3,3,5,5,6,6],"right_children":[2,4,6,8,-1,10,12,-1,-1,-1,-1,-1,-1],"split_conditions":[-2.5075614E-1,1.882595E-3,-2.5075316E-1,6.829755E-1,-2.131045E-2,-1.5032642E0,-1.3805912E-1,1.4160564E-2,3.4925923E-2,2.9159613E-2,-2.1180538E-2,2.4983756E-2,-2.0649811E-2],"split_indices":[18,31,18,15,0,15,8,0,0,0,0,0,0],"split_type":[0,0,0,0,0,0,0,0,0,0,0,0,0],"sum_hessian":[7.302089E4,4.5989285E4,2.7031604E4,4.3051414E4,2.9378708E3,1.4549367E4,1.2482236E4,2.9729072E4,1.3322343E4,4.4646645E1,1.4504721E4,6.0287866E3,6.45345E3],"tree_param":{"num_deleted":"0","num_feature":"40","num_nodes":"13","size_leaf_vector":"1"}},{"base_weights":[3.0705607E-1,-6.206239E-3,1.319571E0,-3.8503578E-1,5.6721103E-1,2.1027844E-2,1.3199575E0,-1.2635057E-2,5.671904E-3,2.1066556E-2,-2.1090267E-2,2.3679756E-2,2.3027975E-2],"categories":[],"categories_nodes":[],"categories_segments":[],"categories_sizes":[],"default_left":[0,0,0,0,0,0,0,0,0,0,0,0,0],"id":74,"left_children":[1,3,5,7,9,-1,11,-1,-1,-1,-1,-1,-1],"loss_changes":[7.958718E4,4.1627805E4,1.046875E0,2.7727227E4,8.6486875E4,0E0,9.453125E-1,0E0,0E0,0E0,0E0,0E0,0E0],"parents":[2147483647,0,0,1,1,2,2,3,3,4,4,6,6],"right_children":[2,4,6,8,10,-1,12,-1,-1,-1,-1,-1,-1],"split_conditions":[3.6294868E0,6.829755E-1,-1.3903675E0,-1.3812028E-1,9.2885554E-2,2.1027844E-2,-1.2898455E0,-1.2635057E-2,5.671904E-3,2.1066556E-2,-2.1090267E-2,2.3679756E-2,2.3027975E-2],"split_indices":[13,15,10,8,33,0,10,0,0,0,0,0,0],"split_type":[0,0,0,0,0,0,0,0,0,0,0,0,0],"sum_hessian":[2.5091794E5,1.9163036E5,5.928758E4,1.1539481E5,7.623555E4,2.0822711E2,5.907935E4,7.813461E4,3.7260203E4,5.605178E4,2.0183764E4,1.9932568E3,5.7086094E4],"tree_param":{"num_deleted":"0","num_feature":"40","num_nodes":"13","size_leaf_vector":"1"}},{"base_weights":[5.675621E-2,1.1960485E0,-4.7264555E-1,1.2035503E0,-2.413522E-2,-1.1150762E-1,-7.399619E-1,2.123954E-2,3.8885008E-4,-7.4140187E-3,2.3105515E-2,-2.1076877E-2,-2.6652913E-3],"categories":[],"categories_nodes":[],"categories_segments":[],"categories_sizes":[],"default_left":[0,0,0,0,0,0,0,0,0,0,0,0,0],"id":75,"left_children":[1,3,5,7,-1,9,11,-1,-1,-1,-1,-1,-1],"loss_changes":[6.328015E3,6.603955E1,6.914436E2,4.9817383E1,0E0,1.369488E3,1.1287822E3,0E0,0E0,0E0,0E0,0E0,0E0],"parents":[2147483647,0,0,1,1,2,2,3,3,5,5,6,6],"right_children":[2,4,6,8,-1,10,12,-1,-1,-1,-1,-1,-1],"split_conditions":[-1.5032642E0,1.0240021E1,-2.5075614E-1,1.9430428E1,-2.413522E-2,-1.3812067E-1,-2.5075376E-1,2.123954E-2,3.8885008E-4,-7.4140187E-3,2.3105515E-2,-2.1076877E-2,-2.6652913E-3],"split_indices":[15,20,18,1,0,8,18,0,0,0,0,0,0],"split_type":[0,0,0,0,0,0,0,0,0,0,0,0,0],"sum_hessian":[1.0489788E4,3.3275396E3,7.1622485E3,3.318417E3,9.122658E0,3.0471033E3,4.1151455E3,3.283058E3,3.5358936E1,2.5018735E3,5.4522986E2,2.2918574E3,1.8232881E3],"tree_param":{"num_deleted":"0","num_feature":"40","num_nodes":"13","size_leaf_vector":"1"}},{"base_weights":[3.0036625E-1,-8.303199E-3,1.2896961E0,-3.7973428E-1,5.5860984E-1,1.2764693E0,2.2780472E-2,-1.2485851E-2,5.6173857E-3,2.0673841E-2,-2.0940002E-2,1.8857507E-2,2.2302072E-2],"categories":[],"categories_nodes":[],"categories_segments":[],"categories_sizes":[],"default_left":[0,0,0,0,0,0,0,0,0,0,0,0,0],"id":76,"left_children":[1,3,5,7,9,11,-1,-1,-1,-1,-1,-1,-1],"loss_changes":[7.570889E4,3.9790375E4,9.890625E0,2.6846584E4,8.220833E4,2.53125E0,0E0,0E0,0E0,0E0,0E0,0E0,0E0],"parents":[2147483647,0,0,1,1,2,2,3,3,4,4,5,5],"right_children":[2,4,6,8,10,12,-1,-1,-1,-1,-1,-1,-1],"split_conditions":[3.6294868E0,6.829755E-1,-1.3812098E-1,-1.3812028E-1,9.2885554E-2,-1.3903675E0,2.2780472E-2,-1.2485851E-2,5.6173857E-3,2.0673841E-2,-2.0940002E-2,1.8857507E-2,2.2302072E-2],"split_indices":[13,15,8,8,33,10,0,0,0,0,0,0,0],"split_type":[0,0,0,0,0,0,0,0,0,0,0,0,0],"sum_hessian":[2.4791928E5,1.8896384E5,5.8955445E4,1.1416521E5,7.4798625E4,3.11845E4,2.7770945E4,7.7244305E4,3.692091E4,5.517281E4,1.9625818E4,1.06308846E2,3.1078191E4],"tree_param":{"num_deleted":"0","num_feature":"40","num_nodes":"13","size_leaf_vector":"1"}},{"base_weights":[2.1099822E-1,2.2057146E-2,-1.8792212E-1,-4.072552E-1,2.876889E-2,-1.1237844E-2,2.2832328E-3],"categories":[],"categories_nodes":[],"categories_segments":[],"categories_sizes":[],"default_left":[0,0,0,0,0,0,0],"id":77,"left_children":[1,-1,3,5,-1,-1,-1],"loss_changes":[6.833731E1,0E0,4.8381588E1,1.3643393E1,0E0,0E0,0E0],"parents":[2147483647,0,0,2,2,3,3],"right_children":[2,-1,4,6,-1,-1,-1],"split_conditions":[-1.5032642E0,2.2057146E-2,-3.6387973E-2,-1.3812049E-1,2.876889E-2,-1.1237844E-2,2.2832328E-3],"split_indices":[15,0,5,8,0,0,0],"split_type":[0,0,0,0,0,0,0],"sum_hessian":[1.6125961E2,4.3739086E1,1.1752052E2,1.0567047E2,1.1850054E1,7.32888E1,3.238167E1],"tree_param":{"num_deleted":"0","num_feature":"40","num_nodes":"7","size_leaf_vector":"1"}},{"base_weights":[4.218033E-1,1.0104839E0,-5.9556824E-1,1.1562853E0,-2.1046938E-2,-1.188935E0,6.872237E-2,1.3824677E-2,3.4337305E-2,-2.0927338E-2,2.8801845E-2,2.4814738E-2,-2.0644367E-2],"categories":[],"categories_nodes":[],"categories_segments":[],"categories_sizes":[],"default_left":[0,0,0,0,0,0,0,0,0,0,0,0,0],"id":78,"left_children":[1,3,5,7,-1,9,11,-1,-1,-1,-1,-1,-1],"loss_changes":[4.2978312E4,1.4686707E4,1.0368104E4,1.259568E4,0E0,3.7458398E2,2.0995682E4,0E0,0E0,0E0,0E0,0E0,0E0],"parents":[2147483647,0,0,1,1,2,2,3,3,5,5,6,6],"right_children":[2,4,6,8,-1,10,12,-1,-1,-1,-1,-1,-1],"split_conditions":[-2.5075614E-1,1.882595E-3,-2.5075316E-1,6.829755E-1,-2.1046938E-2,5.50877E-1,-1.3805912E-1,1.3824677E-2,3.4337305E-2,-2.0927338E-2,2.8801845E-2,2.4814738E-2,-2.0644367E-2],"split_indices":[18,31,18,15,0,17,8,0,0,0,0,0,0],"split_type":[0,0,0,0,0,0,0,0,0,0,0,0,0],"sum_hessian":[7.175925E4,4.54567E4,2.6302553E4,4.2650625E4,2.8060725E3,1.3892507E4,1.2410046E4,2.9412469E4,1.3238158E4,1.3846985E4,4.5522327E1,5.963334E3,6.446712E3],"tree_param":{"num_deleted":"0","num_feature":"40","num_nodes":"13","size_leaf_vector":"1"}},{"base_weights":[5.8726866E-2,1.1836568E0,-4.6168658E-1,1.1913251E0,-2.4128063E-2,-1.09225206E-1,-7.267828E-1,2.1033661E-2,-1.4502101E-5,-7.244389E-3,2.2867464E-2,-2.0841876E-2,-2.7940702E-3],"categories":[],"categories_nodes":[],"categories_segments":[],"categories_sizes":[],"default_left":[0,0,0,0,0,0,0,0,0,0,0,0,0],"id":79,"left_children":[1,3,5,7,-1,9,11,-1,-1,-1,-1,-1,-1],"loss_changes":[5.9979233E3,6.5393555E1,6.544302E2,5.0649902E1,0E0,1.3048177E3,1.0573015E3,0E0,0E0,0E0,0E0,0E0,0E0],"parents":[2147483647,0,0,1,1,2,2,3,3,5,5,6,6],"right_children":[2,4,6,8,-1,10,12,-1,-1,-1,-1,-1,-1],"split_conditions":[-1.5032642E0,1.0240021E1,-2.5075614E-1,1.9430428E1,-2.4128063E-2,-1.3812067E-1,-2.5075376E-1,2.1033661E-2,-1.4502101E-5,-7.244389E-3,2.2867464E-2,-2.0841876E-2,-2.7940702E-3],"split_indices":[15,20,18,1,0,8,18,0,0,0,0,0,0],"split_type":[0,0,0,0,0,0,0,0,0,0,0,0,0],"sum_hessian":[1.024342E4,3.2395366E3,7.003883E3,3.2304158E3,9.12078E0,3.0071318E3,3.996751E3,3.1951675E3,3.5248302E1,2.4747332E3,5.323988E2,2.1912769E3,1.8054741E3],"tree_param":{"num_deleted":"0","num_feature":"40","num_nodes":"13","size_leaf_vector":"1"}},{"base_weights":[4.229088E-1,1.002133E0,-5.894749E-1,1.1443895E0,-2.0932743E-2,-1.1825508E0,6.668708E-2,1.36684645E-2,3.399967E-2,-2.081581E-2,2.8340423E-2,2.4653172E-2,-2.0489357E-2],"categories":[],"categories_nodes":[],"categories_segments":[],"categories_sizes":[],"default_left":[0,0,0,0,0,0,0,0,0,0,0,0,0],"id":80,"left_children":[1,3,5,7,-1,9,11,-1,-1,-1,-1,-1,-1],"loss_changes":[4.1713695E4,1.416752E4,1.0074574E4,1.2335234E4,0E0,3.623203E2,2.0501873E4,0E0,0E0,0E0,0E0,0E0,0E0],"parents":[2147483647,0,0,1,1,2,2,3,3,5,5,6,6],"right_children":[2,4,6,8,-1,10,12,-1,-1,-1,-1,-1,-1],"split_conditions":[-2.5075614E-1,1.882595E-3,-2.5075316E-1,6.829755E-1,-2.0932743E-2,5.50877E-1,-1.3805912E-1,1.36684645E-2,3.399967E-2,-2.081581E-2,2.8340423E-2,2.4653172E-2,-2.0489357E-2],"split_indices":[18,31,18,15,0,17,8,0,0,0,0,0,0],"split_type":[0,0,0,0,0,0,0,0,0,0,0,0,0],"sum_hessian":[7.113358E4,4.524638E4,2.5887203E4,4.2499766E4,2.746611E3,1.3596829E4,1.2290375E4,2.9298414E4,1.3201351E4,1.355177E4,4.505917E1,5.8953647E3,6.39501E3],"tree_param":{"num_deleted":"0","num_feature":"40","num_nodes":"13","size_leaf_vector":"1"}}]},"name":"gbtree"},"learner_model_param":{"base_score":"5E-1","boost_from_average":"1","num_class":"0","num_feature":"40","num_target":"1"},"objective":{"name":"binary:logistic","reg_loss_param":{"scale_pos_weight":"0.392855942"}}},"version":[2,1,4]}