{"learner":{"attributes":{},"feature_names":[],"feature_types":[],"gradient_booster":{"model":{"gbtree_model_param":{"num_parallel_tree":"1","num_trees":"61"},"iteration_indptr":[0,1,2,3,4,5,6,7,8,9,10,11,12,13,14,15,16,17,18,19,20,21,22,23,24,25,26,27,28,29,30,31,32,33,34,35,36,37,38,39,40,41,42,43,44,45,46,47,48,49,50,51,52,53,54,55,56,57,58,59,60,61],"tree_info":[0,0,0,0,0,0,0,0,0,0,0,0,0,0,0,0,0,0,0,0,0,0,0,0,0,0,0,0,0,0,0,0,0,0,0,0,0,0,0,0,0,0,0,0,0,0,0,0,0,0,0,0,0,0,0,0,0,0,0,0,0],"trees":[{"base_weights":[0E0],"categories":[],"categories_nodes":[],"categories_segments":[],"categories_sizes":[],"default_left":[0],"id":0,"left_children":[-1],"loss_changes":[0E0],"parents":[2147483647],"right_children":[-1],"split_conditions":[0E0],"split_indices":[0],"split_type":[0],"sum_hessian":[0E0],"tree_param":{"num_deleted":"0","num_feature":"779","num_nodes":"1","size_leaf_vector":"1"}},{"base_weights":[0E0],"categories":[],"categories_nodes":[],"categories_segments":[],"categories_sizes":[],"default_left":[0],"id":1,"left_children":[-1],"loss_changes":[0E0],"parents":[2147483647],"right_children":[-1],"split_conditions":[0E0],"split_indices":[0],"split_type":[0],"sum_hessian":[0E0],"tree_param":{"num_deleted":"0","num_feature":"779","num_nodes":"1","size_leaf_vector":"1"}},{"base_weights":[0E0],"categories":[],"categories_nodes":[],"categories_segments":[],"categories_sizes":[],"default_left":[0],"id":2,"left_children":[-1],"loss_changes":[0E0],"parents":[2147483647],"right_children":[-1],"split_conditions":[0E0],"split_indices":[0],"split_type":[0],"sum_hessian":[0E0],"tree_param":{"num_deleted":"0","num_feature":"779","num_nodes":"1","size_leaf_vector":"1"}},{"base_weights":[0E0],"categories":[],"categories_nodes":[],"categories_segments":[],"categories_sizes":[],"default_left":[0],"id":3,"left_children":[-1],"loss_changes":[0E0],"parents":[2147483647],"right_children":[-1],"split_conditions":[0E0],"split_indices":[0],"split_type":[0],"sum_hessian":[0E0],"tree_param":{"num_deleted":"0","num_feature":"779","num_nodes":"1","size_leaf_vector":"1"}},{"base_weights":[0E0],"categories":[],"categories_nodes":[],"categories_segments":[],"categories_sizes":[],"default_left":[0],"id":4,"left_children":[-1],"loss_changes":[0E0],"parents":[2147483647],"right_children":[-1],"split_conditions":[0E0],"split_indices":[0],"split_type":[0],"sum_hessian":[0E0],"tree_param":{"num_deleted":"0","num_feature":"779","num_nodes":"1","size_leaf_vector":"1"}},{"base_weights":[0E0],"categories":[],"categories_nodes":[],"categories_segments":[],"categories_sizes":[],"default_left":[0],"id":5,"left_children":[-1],"loss_changes":[0E0],"parents":[2147483647],"right_children":[-1],"split_conditions":[0E0],"split_indices":[0],"split_type":[0],"sum_hessian":[0E0],"tree_param":{"num_deleted":"0","num_feature":"779","num_nodes":"1","size_leaf_vector":"1"}},{"base_weights":[0E0],"categories":[],"categories_nodes":[],"categories_segments":[],"categories_sizes":[],"default_left":[0],"id":6,"left_children":[-1],"loss_changes":[0E0],"parents":[2147483647],"right_children":[-1],"split_conditions":[0E0],"split_indices":[0],"split_type":[0],"sum_hessian":[0E0],"tree_param":{"num_deleted":"0","num_feature":"779","num_nodes":"1","size_leaf_vector":"1"}},{"base_weights":[0E0],"categories":[],"categories_nodes":[],"categories_segments":[],"categories_sizes":[],"default_left":[0],"id":7,"left_children":[-1],"loss_changes":[0E0],"parents":[2147483647],"right_children":[-1],"split_conditions":[0E0],"split_indices":[0],"split_type":[0],"sum_hessian":[0E0],"tree_param":{"num_deleted":"0","num_feature":"779","num_nodes":"1","size_leaf_vector":"1"}},{"base_weights":[0E0],"categories":[],"categories_nodes":[],"categories_segments":[],"categories_sizes":[],"default_left":[0],"id":8,"left_children":[-1],"loss_changes":[0E0],"parents":[2147483647],"right_children":[-1],"split_conditions":[0E0],"split_indices":[0],"split_type":[0],"sum_hessian":[0E0],"tree_param":{"num_deleted":"0","num_feature":"779","num_nodes":"1","size_leaf_vector":"1"}},{"base_weights":[0E0],"categories":[],"categories_nodes":[],"categories_segments":[],"categories_sizes":[],"default_left":[0],"id":9,"left_children":[-1],"loss_changes":[0E0],"parents":[2147483647],"right_children":[-1],"split_conditions":[0E0],"split_indices":[0],"split_type":[0],"sum_hessian":[0E0],"tree_param":{"num_deleted":"0","num_feature":"779","num_nodes":"1","size_leaf_vector":"1"}},{"base_weights":[0E0],"categories":[],"categories_nodes":[],"categories_segments":[],"categories_sizes":[],"default_left":[0],"id":10,"left_children":[-1],"loss_changes":[0E0],"parents":[2147483647],"right_children":[-1],"split_conditions":[0E0],"split_indices":[0],"split_type":[0],"sum_hessian":[0E0],"tree_param":{"num_deleted":"0","num_feature":"779","num_nodes":"1","size_leaf_vector":"1"}},{"base_weights":[0E0],"categories":[],"categories_nodes":[],"categories_segments":[],"categories_sizes":[],"default_left":[0],"id":11,"left_children":[-1],"loss_changes":[0E0],"parents":[2147483647],"right_children":[-1],"split_conditions":[0E0],"split_indices":[0],"split_type":[0],"sum_hessian":[0E0],"tree_param":{"num_deleted":"0","num_feature":"779","num_nodes":"1","size_leaf_vector":"1"}},{"base_weights":[0E0],"categories":[],"categories_nodes":[],"categories_segments":[],"categories_sizes":[],"default_left":[0],"id":12,"left_children":[-1],"loss_changes":[0E0],"parents":[2147483647],"right_children":[-1],"split_conditions":[0E0],"split_indices":[0],"split_type":[0],"sum_hessian":[0E0],"tree_param":{"num_deleted":"0","num_feature":"779","num_nodes":"1","size_leaf_vector":"1"}},{"base_weights":[0E0],"categories":[],"categories_nodes":[],"categories_segments":[],"categories_sizes":[],"default_left":[0],"id":13,"left_children":[-1],"loss_changes":[0E0],"parents":[2147483647],"right_children":[-1],"split_conditions":[0E0],"split_indices":[0],"split_type":[0],"sum_hessian":[0E0],"tree_param":{"num_deleted":"0","num_feature":"779","num_nodes":"1","size_leaf_vector":"1"}},{"base_weights":[0E0],"categories":[],"categories_nodes":[],"categories_segments":[],"categories_sizes":[],"default_left":[0],"id":14,"left_children":[-1],"loss_changes":[0E0],"parents":[2147483647],"right_children":[-1],"split_conditions":[0E0],"split_indices":[0],"split_type":[0],"sum_hessian":[0E0],"tree_param":{"num_deleted":"0","num_feature":"779","num_nodes":"1","size_leaf_vector":"1"}},{"base_weights":[0E0],"categories":[],"categories_nodes":[],"categories_segments":[],"categories_sizes":[],"default_left":[0],"id":15,"left_children":[-1],"loss_changes":[0E0],"parents":[2147483647],"right_children":[-1],"split_conditions":[0E0],"split_indices":[0],"split_type":[0],"sum_hessian":[0E0],"tree_param":{"num_deleted":"0","num_feature":"779","num_nodes":"1","size_leaf_vector":"1"}},{"base_weights":[0E0],"categories":[],"categories_nodes":[],"categories_segments":[],"categories_sizes":[],"default_left":[0],"id":16,"left_children":[-1],"loss_changes":[0E0],"parents":[2147483647],"right_children":[-1],"split_conditions":[0E0],"split_indices":[0],"split_type":[0],"sum_hessian":[0E0],"tree_param":{"num_deleted":"0","num_feature":"779","num_nodes":"1","size_leaf_vector":"1"}},{"base_weights":[0E0],"categories":[],"categories_nodes":[],"categories_segments":[],"categories_sizes":[],"default_left":[0],"id":17,"left_children":[-1],"loss_changes":[0E0],"parents":[2147483647],"right_children":[-1],"split_conditions":[0E0],"split_indices":[0],"split_type":[0],"sum_hessian":[0E0],"tree_param":{"num_deleted":"0","num_feature":"779","num_nodes":"1","size_leaf_vector":"1"}},{"base_weights":[0E0],"categories":[],"categories_nodes":[],"categories_segments":[],"categories_sizes":[],"default_left":[0],"id":18,"left_children":[-1],"loss_changes":[0E0],"parents":[2147483647],"right_children":[-1],"split_conditions":[0E0],"split_indices":[0],"split_type":[0],"sum_hessian":[0E0],"tree_param":{"num_deleted":"0","num_feature":"779","num_nodes":"1","size_leaf_vector":"1"}},{"base_weights":[0E0],"categories":[],"categories_nodes":[],"categories_segments":[],"categories_sizes":[],"default_left":[0],"id":19,"left_children":[-1],"loss_changes":[0E0],"parents":[2147483647],"right_children":[-1],"split_conditions":[0E0],"split_indices":[0],"split_type":[0],"sum_hessian":[0E0],"tree_param":{"num_deleted":"0","num_feature":"779","num_nodes":"1","size_leaf_vector":"1"}},{"base_weights":[0E0],"categories":[],"categories_nodes":[],"categories_segments":[],"categories_sizes":[],"default_left":[0],"id":20,"left_children":[-1],"loss_changes":[0E0],"parents":[2147483647],"right_children":[-1],"split_conditions":[0E0],"split_indices":[0],"split_type":[0],"sum_hessian":[0E0],"tree_param":{"num_deleted":"0","num_feature":"779","num_nodes":"1","size_leaf_vector":"1"}},{"base_weights":[0E0],"categories":[],"categories_nodes":[],"categories_segments":[],"categories_sizes":[],"default_left":[0],"id":21,"left_children":[-1],"loss_changes":[0E0],"parents":[2147483647],"right_children":[-1],"split_conditions":[0E0],"split_indices":[0],"split_type":[0],"sum_hessian":[0E0],"tree_param":{"num_deleted":"0","num_feature":"779","num_nodes":"1","size_leaf_vector":"1"}},{"base_weights":[-1.6261943E-3,-1.2152743E0,1.9762223E0,-1.3404685E0,1.9757763E0,1.996856E0,-1.0843909E0,-1.3869736E0,1.5056635E0,1.9984523E0,-1.534136E0,1.9983796E0,-1.2966275E0,1.9348595E0,-1.9098768E0,-1.4231942E0,1.9249227E0,1.9861195E0,-1.9538164E0,4.0407404E-1,6.8803626E-4,2.4319723E-1,-3.7856507E-1,1.9994274E0,1.084744E0,-3.8045225E-1,3.0368716E-1,3.975382E-1,6.8803626E-4,2.7009687E-1,-1.9454587E0,-1.1739416E0,-1.6564907E0,4.0364438E-1,-1.0682181E0,4.0379763E-1,-2.964357E-1,2.0280212E-1,-4.0110904E-1,1.9994751E0,6.8803626E-4,3.9393404E-1,-3.7054464E-1,-1.9725729E0,2.4319723E-1,-1.2704351E0,2.2682375E-1,-1.6815E0,1.8559554E0,-1.5915596E0,2.8929597E-1,4.0418705E-1,1.706269E0,-1.9816523E0,6.8803626E-4,-1.294933E0,4.02376E-1,8.0146897E-1,-7.2747743E-1,-1.6934845E0,1.3006991E0,4.0157446E-1,-3.5803273E-1,-3.7483191E-1,2.0280212E-1,3.956869E-1,-1.1556294E0,-4.0237412E-1,6.8803626E-4,-1.3059648E0,4.0009114E-1,4.5274892E-1,1.3718017E0,-9.401696E-1,3.1908274E-1,-1.7031927E0,1.8667947E0,4.0049544E-1,-1.6097383E0,6.8803626E-4,-2.964357E-1,-2.6584837E-1,3.9933386E-1,1.5212472E-1,-4.0095385E-2,3.5563084E-1,1.6169298E-1,-1.5500863E-1,-2.3483917E-1,9.121831E-2,-3.11556E-1,-3.4583518E-1,3.7921762E-1,3.996153E-1,-2.8873608E-1,-3.8721028E-1,2.7009687E-1],"categories":[],"categories_nodes":[],"categories_segments":[],"categories_sizes":[],"default_left":[0,0,0,0,0,0,0,0,0,0,0,0,0,0,0,0,0,0,0,0,0,0,0,0,0,0,0,0,0,0,0,0,0,0,0,0,0,0,0,0,0,0,0,0,0,0,0,0,0,0,0,0,0,0,0,0,0,0,0,0,0,0,0,0,0,0,0,0,0,0,0,0,0,0,0,0,0,0,0,0,0,0,0,0,0,0,0,0,0,0,0,0,0,0,0,0,0],"id":22,"left_children":[1,3,5,7,9,11,13,15,17,19,21,23,25,27,29,31,33,35,37,-1,-1,-1,-1,39,41,-1,-1,-1,-1,-1,43,45,47,-1,49,-1,-1,-1,-1,51,-1,-1,-1,53,-1,55,57,59,61,63,-1,-1,65,67,-1,69,-1,71,73,75,77,-1,-1,-1,-1,-1,79,-1,-1,81,-1,83,85,87,89,91,93,-1,95,-1,-1,-1,-1,-1,-1,-1,-1,-1,-1,-1,-1,-1,-1,-1,-1,-1,-1],"loss_changes":[2.6679772E5,2.7520375E4,2.6713594E3,8.774953E3,2.1006152E2,2.1326562E2,7.1074097E2,7.825922E3,1.775835E3,3.9824219E0,1.8265144E1,3.8015625E1,3.5652786E1,3.7920685E0,2.8390198E1,3.7493203E3,1.5464233E2,4.089038E1,1.3854858E1,0E0,0E0,0E0,0E0,3.984375E0,1.3033345E2,0E0,0E0,0E0,0E0,0E0,2.126416E1,4.2163633E3,2.93E3,0E0,2.4874422E1,0E0,0E0,0E0,0E0,3.75E-1,0E0,0E0,0E0,3.9494019E0,0E0,2.3340586E3,1.1034285E3,1.1846406E3,1.1559906E2,1.1931446E1,0E0,0E0,3.9013016E1,3.9855347E0,0E0,1.0488984E3,0E0,2.491214E2,1.6866568E2,1.1421484E3,2.6670767E2,0E0,0E0,0E0,0E0,0E0,1.7186084E0,0E0,0E0,8.8989453E2,0E0,1.526141E2,1.04118835E2,2.3266113E1,3.2311142E1,9.3089844E2,3.5590088E1,0E0,2.5790031E1,0E0,0E0,0E0,0E0,0E0,0E0,0E0,0E0,0E0,0E0,0E0,0E0,0E0,0E0,0E0,0E0,0E0,0E0],"parents":[2147483647,0,0,1,1,2,2,3,3,4,4,5,5,6,6,7,7,8,8,9,9,10,10,11,11,12,12,13,13,14,14,15,15,16,16,17,17,18,18,23,23,24,24,30,30,31,31,32,32,34,34,39,39,43,43,45,45,46,46,47,47,48,48,49,49,52,52,53,53,55,55,57,57,58,58,59,59,60,60,66,66,69,69,71,71,72,72,73,73,74,74,75,75,76,76,78,78],"right_children":[2,4,6,8,10,12,14,16,18,20,22,24,26,28,30,32,34,36,38,-1,-1,-1,-1,40,42,-1,-1,-1,-1,-1,44,46,48,-1,50,-1,-1,-1,-1,52,-1,-1,-1,54,-1,56,58,60,62,64,-1,-1,66,68,-1,70,-1,72,74,76,78,-1,-1,-1,-1,-1,80,-1,-1,82,-1,84,86,88,90,92,94,-1,96,-1,-1,-1,-1,-1,-1,-1,-1,-1,-1,-1,-1,-1,-1,-1,-1,-1,-1],"split_conditions":[-2.673782E-1,-2.3541927E-1,3.375271E0,-8.162518E-2,-4.5838988E-1,3.5212646E0,2.4263015E0,1.9129568E0,1.2988592E0,1.9177375E0,-1.376922E-1,5.689739E-1,2.3988712E0,6.7259514E-1,2.7283457E-1,-1.8318221E-1,3.4883294E-2,1.1986059E0,5.099794E-1,4.0407404E-1,6.8803626E-4,2.4319723E-1,-3.7856507E-1,3.9743855E0,5.0555706E-1,-3.8045225E-1,3.0368716E-1,3.975382E-1,6.8803626E-4,2.7009687E-1,-2.3229906E-1,-2.7254653E-1,4.418784E0,4.0364438E-1,6.6436853E0,4.0379763E-1,-2.964357E-1,2.0280212E-1,-4.0110904E-1,2.8610253E0,6.8803626E-4,3.9393404E-1,-3.7054464E-1,2.5049732E0,2.4319723E-1,2.5781643E0,-3.655744E-1,9.510279E0,-7.734004E-2,1.5539848E-2,2.8929597E-1,4.0418705E-1,5.862472E-1,6.6673307E0,6.8803626E-4,1.6258806E1,4.02376E-1,-2.4028313E-1,-2.402581E-1,4.403629E0,-2.398493E-1,4.0157446E-1,-3.5803273E-1,-3.7483191E-1,2.0280212E-1,3.956869E-1,-7.847859E-2,-4.0237412E-1,6.8803626E-4,1.9990627E1,4.0009114E-1,-4.5838988E-1,-4.3821952E-1,-2.663951E-1,-1.1632718E-1,6.0250683E0,-7.734004E-2,4.0049544E-1,1.1620221E1,6.8803626E-4,-2.964357E-1,-2.6584837E-1,3.9933386E-1,1.5212472E-1,-4.0095385E-2,3.5563084E-1,1.6169298E-1,-1.5500863E-1,-2.3483917E-1,9.121831E-2,-3.11556E-1,-3.4583518E-1,3.7921762E-1,3.996153E-1,-2.8873608E-1,-3.8721028E-1,2.7009687E-1],"split_indices":[772,5,355,140,6,613,327,316,365,69,4,237,4,70,120,6,662,355,52,0,0,0,0,111,97,0,0,0,0,0,5,495,164,0,65,0,0,0,0,355,0,0,0,54,0,274,6,0,355,0,0,0,536,401,0,359,0,5,5,274,5,0,0,0,0,0,3,0,0,345,0,6,6,6,93,403,355,0,0,0,0,0,0,0,0,0,0,0,0,0,0,0,0,0,0,0,0],"split_type":[0,0,0,0,0,0,0,0,0,0,0,0,0,0,0,0,0,0,0,0,0,0,0,0,0,0,0,0,0,0,0,0,0,0,0,0,0,0,0,0,0,0,0,0,0,0,0,0,0,0,0,0,0,0,0,0,0,0,0,0,0,0,0,0,0,0,0,0,0,0,0,0,0,0,0,0,0,0,0,0,0,0,0,0,0,0,0,0,0,0,0,0,0,0,0,0,0],"sum_hessian":[1.11144625E5,6.887928E4,4.2265348E4,6.627952E4,2.5997568E3,4.198266E4,2.8268646E2,6.521445E4,1.0650756E3,2.5834966E3,1.626023E1,4.196364E4,1.902046E1,6.040579E1,2.2228069E2,6.4509508E4,7.049387E2,9.355687E2,1.2950682E2,2.5824932E3,1.00341E0,1.51023E0,1.475E1,4.1914383E4,4.925916E1,1.6E1,3.02046E0,5.9402378E1,1.00341E0,2.01364E0,2.2026704E2,3.119113E4,3.331838E4,6.8866486E2,1.627387E1,9.328187E2,2.75E0,1.00682E0,1.285E2,4.191338E4,1.00341E0,3.825916E1,1.1E1,2.1875682E2,1.51023E0,2.918105E4,2.0100804E3,3.308334E4,2.350379E2,1.375682E1,2.5170498E0,4.186331E4,5.0067127E1,2.177534E2,1.00341E0,2.896408E4,2.169697E2,1.2547039E3,7.553766E2,3.295135E4,1.3198996E2,2.272879E2,7.75E0,1.275E1,1.00682E0,4.6313717E1,3.7534099E0,2.1675E2,1.00341E0,2.8867426E4,9.665472E1,7.797395E2,4.7496436E2,6.278753E2,1.2750127E2,3.2862266E4,8.908652E1,1.07226326E2,2.476364E1,1.00341E0,2.75E0,2.8785873E4,8.1552414E1,5.3373926E2,2.460002E2,2.8179706E2,1.9316728E2,3.5498996E2,2.728853E2,1.19747856E2,7.75341E0,3.279054E4,7.172398E1,8.658652E1,2.5E0,2.275E1,2.01364E0],"tree_param":{"num_deleted":"0","num_feature":"779","num_nodes":"97","size_leaf_vector":"1"}},{"base_weights":[0E0],"categories":[],"categories_nodes":[],"categories_segments":[],"categories_sizes":[],"default_left":[0],"id":23,"left_children":[-1],"loss_changes":[0E0],"parents":[2147483647],"right_children":[-1],"split_conditions":[0E0],"split_indices":[0],"split_type":[0],"sum_hessian":[0E0],"tree_param":{"num_deleted":"0","num_feature":"779","num_nodes":"1","size_leaf_vector":"1"}},{"base_weights":[-4.0984867E-4,-9.9595946E-1,1.6476386E0,-1.0979918E0,1.6472232E0,1.6648434E0,-9.009798E-1,-1.1358155E0,1.2549198E0,1.666251E0,-1.2753797E0,1.6661205E0,-1.0757186E0,1.615417E0,-1.5897553E0,-1.1653038E0,1.6050146E0,1.6557218E0,-1.6285808E0,3.3691043E-1,6.1837875E-4,2.1566951E-1,-3.1817898E-1,1.6669995E0,9.014382E-1,-3.1956714E-1,2.6240164E-1,3.3211634E-1,6.1837875E-4,-1.6217805E0,2.4661705E-1,-9.544298E-1,-1.3651639E0,3.3659536E-1,-8.736663E-1,3.3670774E-1,-2.5689638E-1,1.2732859E-1,-3.3473063E-1,1.667041E0,6.1837875E-4,3.294715E-1,-3.1227306E-1,-1.6541913E0,5.114033E-1,-1.0422716E0,9.404877E-2,-1.3856891E0,1.5460477E0,-1.3254559E0,2.5145265E-1,1.6670657E0,9.272583E-2,-3.3598024E-1,-2.8927764E-2,2.2301765E-1,-6.020794E-2,-1.0621139E0,3.356425E-1,8.38648E-1,-4.6913502E-1,-1.3937223E0,2.0661242E0,1.6570973E0,-3.03036E-1,-3.1495818E-1,1.2668812E-1,1.6672459E0,1.3063372E0,-1.0716293E0,4.5996994E-1,5.3669804E-1,1.3064685E0,-6.2045205E-1,5.012586E-1,-1.4018602E0,1.8064139E0,2.258727E0,-2.7075586E-1,3.3583748E-1,9.298824E-2,3.3698043E-1,1.0138391E-1,-2.7453145E-1,3.222184E-1,-2.1825892E-1,4.5617253E-1,1.4658459E-1,4.4920556E-2,3.2965106E-1,2.0766772E-1,-2.9030394E-2,-1.6852105E-1,2.4451253E-1,1.1788678E-3,-2.8533888E-1,2.1877061E-1,-1.3921349E-1,4.0569693E-1,-5.8333203E-3,4.6463057E-1],"categories":[],"categories_nodes":[],"categories_segments":[],"categories_sizes":[],"default_left":[0,0,0,0,0,0,0,0,0,0,0,0,0,0,0,0,0,0,0,0,0,0,0,0,0,0,0,0,0,0,0,0,0,0,0,0,0,0,0,0,0,0,0,0,0,0,0,0,0,0,0,0,0,0,0,0,0,0,0,0,0,0,0,0,0,0,0,0,0,0,0,0,0,0,0,0,0,0,0,0,0,0,0,0,0,0,0,0,0,0,0,0,0,0,0,0,0,0,0,0,0],"id":24,"left_children":[1,3,5,7,9,11,13,15,17,19,21,23,25,27,29,31,33,35,37,-1,-1,-1,-1,39,41,-1,-1,-1,-1,43,-1,45,47,-1,49,-1,-1,-1,-1,51,-1,-1,-1,53,55,57,59,61,63,65,-1,67,-1,-1,-1,-1,-1,69,-1,71,73,75,77,79,-1,-1,-1,81,83,85,-1,87,89,91,93,95,97,99,-1,-1,-1,-1,-1,-1,-1,-1,-1,-1,-1,-1,-1,-1,-1,-1,-1,-1,-1,-1,-1,-1,-1],"loss_changes":[1.7682816E5,1.8121812E4,1.7811484E3,5.758703E3,1.4101855E2,1.4292969E2,4.7539362E2,5.147703E3,1.186098E3,2.7661133E0,1.3386494E1,2.5554688E1,2.5312853E1,2.6435547E0,2.129773E1,2.6535156E3,1.0289429E2,2.8963867E1,8.851898E0,0E0,0E0,0E0,0E0,2.7734375E0,8.8877754E1,0E0,0E0,0E0,0E0,1.5550964E1,0E0,2.823379E3,1.9344336E3,0E0,1.7698242E1,0E0,0E0,0E0,0E0,4.53125E-1,0E0,0E0,0E0,2.3383179E0,2.2197657E0,1.518748E3,9.9450653E2,8.933242E2,7.920984E1,7.481529E0,0E0,4.140625E-1,0E0,0E0,0E0,0E0,0E0,8.942754E2,0E0,1.4355817E2,1.9859692E2,8.368867E2,5.2197266E1,4.215088E-1,0E0,0E0,0E0,2.5E-1,2.1114609E1,7.708242E2,0E0,3.6737946E1,3.4532776E1,1.1875931E2,6.412926E1,7.8772266E2,4.2327118E1,6.6109314E0,0E0,0E0,0E0,0E0,0E0,0E0,0E0,0E0,0E0,0E0,0E0,0E0,0E0,0E0,0E0,0E0,0E0,0E0,0E0,0E0,0E0,0E0,0E0],"parents":[2147483647,0,0,1,1,2,2,3,3,4,4,5,5,6,6,7,7,8,8,9,9,10,10,11,11,12,12,13,13,14,14,15,15,16,16,17,17,18,18,23,23,24,24,29,29,31,31,32,32,34,34,39,39,43,43,44,44,45,45,46,46,47,47,48,48,49,49,51,51,57,57,59,59,60,60,61,61,62,62,63,63,67,67,68,68,69,69,71,71,72,72,73,73,74,74,75,75,76,76,77,77],"right_children":[2,4,6,8,10,12,14,16,18,20,22,24,26,28,30,32,34,36,38,-1,-1,-1,-1,40,42,-1,-1,-1,-1,44,-1,46,48,-1,50,-1,-1,-1,-1,52,-1,-1,-1,54,56,58,60,62,64,66,-1,68,-1,-1,-1,-1,-1,70,-1,72,74,76,78,80,-1,-1,-1,82,84,86,-1,88,90,92,94,96,98,100,-1,-1,-1,-1,-1,-1,-1,-1,-1,-1,-1,-1,-1,-1,-1,-1,-1,-1,-1,-1,-1,-1,-1],"split_conditions":[-2.673782E-1,-2.3541927E-1,3.375271E0,-8.162518E-2,-4.5838988E-1,3.5212646E0,2.4263015E0,1.9129568E0,1.2988592E0,1.9177375E0,-1.376922E-1,5.689739E-1,2.3988712E0,6.7259514E-1,-6.9740854E-2,-1.8318221E-1,3.4883294E-2,1.1986059E0,3.5221934E0,3.3691043E-1,6.1837875E-4,2.1566951E-1,-3.1817898E-1,3.9743855E0,5.0555706E-1,-3.1956714E-1,2.6240164E-1,3.3211634E-1,6.1837875E-4,7.690625E-1,2.4661705E-1,1.3152188E0,4.418784E0,3.3659536E-1,6.6436853E0,3.3670774E-1,-2.5689638E-1,1.2732859E-1,-3.3473063E-1,4.428233E0,6.1837875E-4,3.294715E-1,-3.1227306E-1,-2.3471847E-1,3.2116022E0,2.5781643E0,-4.3248498E-1,1.4737368E0,-7.734004E-2,3.251295E-1,2.5145265E-1,3.2044203E0,9.272583E-2,-3.3598024E-1,-2.8927764E-2,2.2301765E-1,-6.020794E-2,8.373676E0,3.356425E-1,-2.4028313E-1,-2.402581E-1,3.667938E0,-7.734004E-2,-2.3978256E-1,-3.03036E-1,-3.1495818E-1,1.2668812E-1,1.863803E0,-2.2674274E-1,1.5732617E1,4.5996994E-1,-4.9227062E-1,-4.8199853E-1,-3.655744E-1,-3.176865E-1,9.510279E0,-5.6009966E-1,-4.3416342E-1,-2.7075586E-1,3.3583748E-1,9.298824E-2,3.3698043E-1,1.0138391E-1,-2.7453145E-1,3.222184E-1,-2.1825892E-1,4.5617253E-1,1.4658459E-1,4.4920556E-2,3.2965106E-1,2.0766772E-1,-2.9030394E-2,-1.6852105E-1,2.4451253E-1,1.1788678E-3,-2.8533888E-1,2.1877061E-1,-1.3921349E-1,4.0569693E-1,-5.8333203E-3,4.6463057E-1],"split_indices":[772,5,355,140,6,613,327,316,365,69,4,237,4,70,339,6,662,355,52,0,0,0,0,111,97,0,0,0,0,140,0,745,164,0,65,0,0,0,0,664,0,0,0,5,327,274,6,409,355,6,0,96,0,0,0,0,0,374,0,5,5,374,355,5,0,0,0,189,5,492,0,6,6,6,6,0,477,7,0,0,0,0,0,0,0,0,0,0,0,0,0,0,0,0,0,0,0,0,0,0,0],"split_type":[0,0,0,0,0,0,0,0,0,0,0,0,0,0,0,0,0,0,0,0,0,0,0,0,0,0,0,0,0,0,0,0,0,0,0,0,0,0,0,0,0,0,0,0,0,0,0,0,0,0,0,0,0,0,0,0,0,0,0,0,0,0,0,0,0,0,0,0,0,0,0,0,0,0,0,0,0,0,0,0,0,0,0,0,0,0,0,0,0,0,0,0,0,0,0,0,0,0,0,0,0],"sum_hessian":[1.0777312E5,6.718721E4,4.058591E4,6.46906E4,2.4966077E3,4.0314113E4,2.717998E2,6.3667645E4,1.02295795E3,2.4808855E3,1.5722027E1,4.0295727E4,1.8386585E1,5.8119312E1,2.136805E2,6.299051E4,6.771326E2,8.9849445E2,1.24463486E2,2.479882E3,1.0034099E0,1.4881177E0,1.4233909E1,4.024828E4,4.744331E1,1.54347105E1,2.9518754E0,5.7115902E1,1.0034099E0,2.1169067E2,1.9898276E0,3.0653521E4,3.2336988E4,6.613585E2,1.5774091E1,8.95804E2,2.6904604E0,1.2367463E0,1.23226746E2,4.0247277E4,1.0034099E0,3.681242E1,1.0630892E1,2.0874365E2,2.947019E0,2.8283896E4,2.369626E3,3.2111117E4,2.2587228E2,1.330898E1,2.4651117E0,4.024607E4,1.2068552E0,2.0752718E2,1.2164829E0,1.4920883E0,1.4549308E0,2.8078377E4,2.0551775E2,1.02024524E3,1.3493806E3,3.2037154E4,7.3961555E1,2.1836543E2,7.5068483E0,1.2071021E1,1.2379587E0,4.022237E4,2.3701395E1,2.7999238E4,7.9139046E1,6.21349E2,3.988962E2,1.1676633E3,1.8171735E2,3.1956451E4,8.070285E1,7.032148E1,3.6400712E0,2.1715796E2,1.207482E0,4.0221152E4,1.2167939E0,1.948533E0,2.1752863E1,2.7930736E4,6.850306E1,3.8761377E2,2.3373524E2,1.8215845E2,2.1673775E2,3.6145596E2,8.0620734E2,7.418435E1,1.07533E2,3.1830002E4,1.2645076E2,5.830978E0,7.487187E1,1.216667E0,6.910481E1],"tree_param":{"num_deleted":"0","num_feature":"779","num_nodes":"101","size_leaf_vector":"1"}},{"base_weights":[0E0],"categories":[],"categories_nodes":[],"categories_segments":[],"categories_sizes":[],"default_left":[0],"id":25,"left_children":[-1],"loss_changes":[0E0],"parents":[2147483647],"right_children":[-1],"split_conditions":[0E0],"split_indices":[0],"split_type":[0],"sum_hessian":[0E0],"tree_param":{"num_deleted":"0","num_feature":"779","num_nodes":"1","size_leaf_vector":"1"}},{"base_weights":[2.0372649E-3,-8.45255E-1,1.4588354E0,-9.3076074E-1,1.4583176E0,1.4740918E0,-7.9340917E-1,-9.6230394E-1,1.1103796E0,1.475338E0,-1.1127813E0,1.4752334E0,-9.37711E-1,1.4273458E0,-1.402417E0,-9.8694557E-1,1.4204819E0,1.4655727E0,-1.4394444E0,2.9832026E-1,5.557809E-4,1.9430237E-1,-2.813271E-1,1.4761064E0,8.3742714E-1,-2.82567E-1,2.332776E-1,2.9391393E-1,5.557809E-4,2.0322846E-1,-1.4563209E0,-7.9485166E-1,-1.1744153E0,-8.240156E-1,1.4727551E0,2.9813308E-1,-2.2865999E-1,1.1374078E-1,-2.9631174E-1,1.4761426E0,5.460979E-2,2.9198876E-1,-1.2655632E0,2.3403192E-1,-2.1631798E-1,-2.976177E-1,1.22309126E-1,-8.726079E-1,5.628156E-2,-1.1919556E0,1.3602877E0,-1.2797184E0,2.2410557E-1,2.9810864E-1,5.496801E-2,1.4761657E0,8.3506264E-2,-3.0048227E-1,5.3066052E-2,-8.8927835E-1,2.9768285E-1,6.1516976E-1,-4.1235238E-1,-1.198281E0,5.698152E-1,1.4699566E0,-2.7125117E-1,-2.7778274E-1,-3.3747938E-2,2.98398E-1,1.2310112E0,-8.96934E-1,5.1782084E-1,3.232111E-1,1.2397835E0,-5.2849066E-1,3.9343545E-1,-1.2050973E0,2.488986E0,2.9807338E-1,6.511219E-2,2.9150066E-1,-2.2145866E-1,-1.8326661E-1,3.6680067E-1,8.1017226E-2,-7.3750384E-2,2.9396698E-1,1.4630815E-1,-1.120228E-1,3.989408E-1,1.0374341E-1,-3.259337E-1,-2.4507315E-1,3.8046464E-1,5.528747E-1,2.8595182E-1],"categories":[],"categories_nodes":[],"categories_segments":[],"categories_sizes":[],"default_left":[0,0,0,0,0,0,0,0,0,0,0,0,0,0,0,0,0,0,0,0,0,0,0,0,0,0,0,0,0,0,0,0,0,0,0,0,0,0,0,0,0,0,0,0,0,0,0,0,0,0,0,0,0,0,0,0,0,0,0,0,0,0,0,0,0,0,0,0,0,0,0,0,0,0,0,0,0,0,0,0,0,0,0,0,0,0,0,0,0,0,0,0,0,0,0,0,0],"id":26,"left_children":[1,3,5,7,9,11,13,15,17,19,21,23,25,27,29,31,33,35,37,-1,-1,-1,-1,39,41,-1,-1,-1,-1,43,45,47,49,51,53,-1,-1,-1,-1,55,-1,-1,57,-1,-1,-1,-1,59,61,63,65,67,-1,-1,-1,69,-1,-1,-1,71,-1,73,75,77,-1,79,-1,-1,-1,-1,81,83,-1,85,87,89,91,93,95,-1,-1,-1,-1,-1,-1,-1,-1,-1,-1,-1,-1,-1,-1,-1,-1,-1,-1],"loss_changes":[1.2405186E5,1.251743E4,1.2710938E3,3.9458594E3,1.01183105E2,1.02453125E2,3.3918652E2,3.5441875E3,8.4701843E2,2.1689453E0,1.0328619E1,1.9171875E1,1.8928286E1,2.0668488E0,1.7273895E1,2.1497227E3,7.372241E1,2.1865479E1,6.9288025E0,0E0,0E0,0E0,0E0,1.21875E0,6.882117E1,0E0,0E0,0E0,0E0,1.0052635E1,7.230957E0,1.9523691E3,1.3452773E3,1.4372487E1,1.1868896E0,0E0,0E0,0E0,0E0,2.96875E-1,0E0,0E0,4.5421696E0,0E0,0E0,0E0,0E0,1.0581875E3,6.4726697E2,7.649375E2,6.366638E1,1.0729523E0,0E0,0E0,0E0,7.03125E-2,0E0,0E0,0E0,7.1146875E2,0E0,2.0513379E2,1.26007095E2,7.5621875E2,0E0,6.326599E-1,0E0,0E0,0E0,0E0,1.9930538E1,7.140293E2,0E0,4.1249428E1,3.866736E1,7.686035E1,4.1680256E1,6.898242E2,1.0856049E1,0E0,0E0,0E0,0E0,0E0,0E0,0E0,0E0,0E0,0E0,0E0,0E0,0E0,0E0,0E0,0E0,0E0,0E0],"parents":[2147483647,0,0,1,1,2,2,3,3,4,4,5,5,6,6,7,7,8,8,9,9,10,10,11,11,12,12,13,13,14,14,15,15,16,16,17,17,18,18,23,23,24,24,29,29,30,30,31,31,32,32,33,33,34,34,39,39,42,42,47,47,48,48,49,49,50,50,51,51,55,55,59,59,61,61,62,62,63,63,65,65,70,70,71,71,73,73,74,74,75,75,76,76,77,77,78,78],"right_children":[2,4,6,8,10,12,14,16,18,20,22,24,26,28,30,32,34,36,38,-1,-1,-1,-1,40,42,-1,-1,-1,-1,44,46,48,50,52,54,-1,-1,-1,-1,56,-1,-1,58,-1,-1,-1,-1,60,62,64,66,68,-1,-1,-1,70,-1,-1,-1,72,-1,74,76,78,-1,80,-1,-1,-1,-1,82,84,-1,86,88,90,92,94,96,-1,-1,-1,-1,-1,-1,-1,-1,-1,-1,-1,-1,-1,-1,-1,-1,-1,-1],"split_conditions":[-2.673782E-1,-2.3541927E-1,3.375271E0,-8.162518E-2,-4.5838988E-1,3.5212646E0,2.4263015E0,1.9129568E0,1.2988592E0,1.9177375E0,-1.376922E-1,2.8610253E0,2.3988712E0,6.7259514E-1,6.3044876E-1,-1.8318221E-1,6.163975E-1,1.1986059E0,3.5221934E0,2.9832026E-1,5.557809E-4,1.9430237E-1,-2.813271E-1,1.4977584E0,7.592582E-1,-2.82567E-1,2.332776E-1,2.9391393E-1,5.557809E-4,1.2184073E0,7.767254E-1,1.0036566E0,4.271249E0,6.6436853E0,6.2327677E-1,2.9813308E-1,-2.2865999E-1,1.1374078E-1,-2.9631174E-1,4.428233E0,5.460979E-2,2.9198876E-1,1.00301705E-1,2.3403192E-1,-2.1631798E-1,-2.976177E-1,1.22309126E-1,2.5781643E0,-4.2710277E-1,1.5121504E1,-7.734004E-2,1.8272626E0,2.2410557E-1,2.9810864E-1,5.496801E-2,5.689739E-1,8.3506264E-2,-3.0048227E-1,5.3066052E-2,1.5121504E1,2.9768285E-1,-2.4028313E-1,-2.402581E-1,6.0374475E0,5.698152E-1,4.530672E0,-2.7125117E-1,-2.7778274E-1,-3.3747938E-2,2.98398E-1,5.0555706E-1,1.6258806E1,5.1782084E-1,4.5773602E-1,-4.5838988E-1,-1.2357629E-2,3.0786985E-1,2.1044843E0,8.153888E0,2.9807338E-1,6.511219E-2,2.9150066E-1,-2.2145866E-1,-1.8326661E-1,3.6680067E-1,8.1017226E-2,-7.3750384E-2,2.9396698E-1,1.4630815E-1,-1.120228E-1,3.989408E-1,1.0374341E-1,-3.259337E-1,-2.4507315E-1,3.8046464E-1,5.528747E-1,2.8595182E-1],"split_indices":[772,5,355,140,6,613,327,316,365,69,4,355,4,70,766,6,712,355,52,0,0,0,0,132,664,0,0,0,0,94,532,7,164,65,4,0,0,0,0,664,0,0,204,0,0,0,0,274,6,491,355,630,0,0,0,237,0,0,0,491,0,5,5,339,0,77,0,0,0,0,97,359,0,547,6,486,256,345,0,0,0,0,0,0,0,0,0,0,0,0,0,0,0,0,0,0,0],"split_type":[0,0,0,0,0,0,0,0,0,0,0,0,0,0,0,0,0,0,0,0,0,0,0,0,0,0,0,0,0,0,0,0,0,0,0,0,0,0,0,0,0,0,0,0,0,0,0,0,0,0,0,0,0,0,0,0,0,0,0,0,0,0,0,0,0,0,0,0,0,0,0,0,0,0,0,0,0,0,0,0,0,0,0,0,0,0,0,0,0,0,0,0,0,0,0,0,0],"sum_hessian":[1.0049907E5,6.3542414E4,3.6956656E4,6.126879E4,2.2736255E3,3.6708344E4,2.4831279E2,6.0336887E4,9.319E2,2.2590967E3,1.4528804E1,3.6691363E4,1.6980371E1,5.3151478E1,1.9516132E2,5.971988E4,6.170084E2,8.1833093E2,1.1356914E2,2.2580933E3,1.0034095E0,1.4334408E0,1.3095363E1,3.6639902E4,5.1460514E1,1.4189531E1,2.7908394E0,5.2148067E1,1.0034095E0,6.249077E0,1.8891223E2,2.9498748E4,3.022113E4,1.3706722E1,6.033017E2,8.157811E2,2.5497973E0,1.2252514E0,1.1234389E2,3.6638574E4,1.326258E0,4.017348E1,1.1287031E1,3.6234796E0,2.6255972E0,1.8772327E2,1.1889737E0,2.7029422E4,2.4693276E3,3.001396E4,2.0716878E2,1.1365065E1,2.3416572E0,6.019762E2,1.3255215E0,3.6637395E4,1.1823204E0,9.883902E0,1.4031289E0,2.683928E4,1.9014188E2,1.1260723E3,1.3432552E3,2.9967406E4,4.655516E1,1.9952744E2,7.6413455E0,1.0257362E1,1.1077018E0,3.660106E4,3.633583E1,2.6780615E4,5.866462E1,7.6841504E2,3.5765723E2,1.1743414E3,1.689138E2,2.9912783E4,5.4624363E1,1.9841066E2,1.1167763E0,3.366003E1,2.6758008E0,2.6684754E4,9.5860176E1,6.9088336E2,7.753169E1,2.5127916E2,1.0637805E2,1.1631454E3,1.1196094E1,1.6009305E2,8.820756E0,2.984144E4,7.134233E1,4.317256E1,1.14517975E1],"tree_param":{"num_deleted":"0","num_feature":"779","num_nodes":"97","size_leaf_vector":"1"}},{"base_weights":[0E0],"categories":[],"categories_nodes":[],"categories_segments":[],"categories_sizes":[],"default_left":[0],"id":27,"left_children":[-1],"loss_changes":[0E0],"parents":[2147483647],"right_children":[-1],"split_conditions":[0E0],"split_indices":[0],"split_type":[0],"sum_hessian":[0E0],"tree_param":{"num_deleted":"0","num_feature":"779","num_nodes":"1","size_leaf_vector":"1"}},{"base_weights":[4.826588E-3,-7.2958004E-1,1.3372332E0,-8.021347E-1,1.3365444E0,1.3512536E0,-7.2328526E-1,-8.287205E-1,1.0169407E0,1.3523442E0,-9.9846935E-1,1.3523129E0,-8.411601E-1,1.3029248E0,-1.2805499E0,-8.4954894E-1,1.3005766E0,1.3428638E0,-1.3157974E0,2.7349922E-1,4.5559034E-3,1.770824E-1,-2.562483E-1,1.3531357E0,7.5747144E-1,-2.5747624E-1,2.112637E-1,2.702678E-1,5.631175E-3,1.7339809E-1,-1.3322343E0,-6.533269E-1,-1.0203947E0,2.7321398E-1,-6.8206507E-1,2.7327186E-1,-2.0714271E-1,1.0199644E-1,-2.7138522E-1,1.3531736E0,4.8541103E-2,2.6715717E-1,-1.1197758E0,2.0553468E-1,-1.9778918E-1,-2.7258578E-1,1.0974624E-1,-7.2327644E-1,2.2210084E-1,-1.035909E0,1.3199383E0,-1.0649246E0,2.0310193E-1,1.3531972E0,7.5346164E-2,5.0391044E-2,-2.736857E-1,-7.349092E-1,1.754231E0,5.330407E-1,-2.7794424E-1,-1.0454082E0,2.1528978E0,1.4323614E0,-2.522787E-1,-2.5723833E-1,1.0771973E-1,2.7354252E-1,1.1172776E0,-7.4365103E-1,2.2984066E0,3.9776585E-1,2.6706982E-1,2.8223345E-1,9.7502375E-1,-4.0399554E-1,5.171129E-1,-1.0543908E0,1.9413939E0,2.227333E0,-2.1725309E-1,5.11435E-1,1.3458643E0,2.6645204E-1,-2.0191209E-1,-1.5194964E-1,3.8896716E-1,-2.7644157E-1,5.860704E-1,1.0954632E-1,1.5760929E-4,2.4885112E-1,1.2159738E-1,-1.7279273E-1,-5.447801E-2,1.385589E-1,-2.865539E-1,-2.178179E-1,1.1779364E-2,2.747895E-1,5.9470403E-1,4.6162948E-1,2.4627036E-1,2.7309698E-1,4.211529E-2],"categories":[],"categories_nodes":[],"categories_segments":[],"categories_sizes":[],"default_left":[0,0,0,0,0,0,0,0,0,0,0,0,0,0,0,0,0,0,0,0,0,0,0,0,0,0,0,0,0,0,0,0,0,0,0,0,0,0,0,0,0,0,0,0,0,0,0,0,0,0,0,0,0,0,0,0,0,0,0,0,0,0,0,0,0,0,0,0,0,0,0,0,0,0,0,0,0,0,0,0,0,0,0,0,0,0,0,0,0,0,0,0,0,0,0,0,0,0,0,0,0,0,0,0,0],"id":28,"left_children":[1,3,5,7,9,11,13,15,17,19,21,23,25,27,29,31,33,35,37,-1,-1,-1,-1,39,41,-1,-1,-1,-1,43,45,47,49,-1,51,-1,-1,-1,-1,53,-1,-1,55,-1,-1,-1,-1,57,59,61,63,65,-1,67,-1,-1,-1,69,71,73,75,77,79,81,-1,-1,-1,-1,83,85,87,-1,-1,89,91,93,95,97,99,101,-1,-1,103,-1,-1,-1,-1,-1,-1,-1,-1,-1,-1,-1,-1,-1,-1,-1,-1,-1,-1,-1,-1,-1,-1],"loss_changes":[8.986681E4,8.876375E3,9.4373047E2,2.7670078E3,7.546411E1,7.641406E1,2.5143262E2,2.5013008E3,6.2851495E2,2.199707E0,8.219064E0,1.48359375E1,1.4612796E1,2.0694122E0,1.3305695E1,1.8709102E3,5.639386E1,1.7144897E1,5.656204E0,0E0,0E0,0E0,0E0,1.0273438E0,5.1298897E1,0E0,0E0,0E0,0E0,7.6587505E0,5.9127502E0,1.5915146E3,1.0849121E3,0E0,1.0384296E1,0E0,0E0,0E0,0E0,2.4609375E-1,0E0,0E0,3.9983797E0,0E0,0E0,0E0,0E0,6.9483887E2,2.9923645E2,9.002656E2,5.865555E1,4.742358E0,0E0,3.515625E-2,0E0,0E0,0E0,6.3686914E2,7.8340454E0,1.312417E2,7.4188194E1,7.95084E2,2.3628143E1,1.4561554E1,0E0,0E0,0E0,0E0,1.55027275E1,5.2057227E2,1.5623853E2,0E0,0E0,5.5441128E1,4.0310944E1,3.8434784E1,3.403631E1,7.6413477E2,4.782321E1,2.173523E0,0E0,0E0,7.946167E-1,0E0,0E0,0E0,0E0,0E0,0E0,0E0,0E0,0E0,0E0,0E0,0E0,0E0,0E0,0E0,0E0,0E0,0E0,0E0,0E0,0E0,0E0],"parents":[2147483647,0,0,1,1,2,2,3,3,4,4,5,5,6,6,7,7,8,8,9,9,10,10,11,11,12,12,13,13,14,14,15,15,16,16,17,17,18,18,23,23,24,24,29,29,30,30,31,31,32,32,34,34,39,39,42,42,47,47,48,48,49,49,50,50,51,51,53,53,57,57,58,58,59,59,60,60,61,61,62,62,63,63,68,68,69,69,70,70,73,73,74,74,75,75,76,76,77,77,78,78,79,79,82,82],"right_children":[2,4,6,8,10,12,14,16,18,20,22,24,26,28,30,32,34,36,38,-1,-1,-1,-1,40,42,-1,-1,-1,-1,44,46,48,50,-1,52,-1,-1,-1,-1,54,-1,-1,56,-1,-1,-1,-1,58,60,62,64,66,-1,68,-1,-1,-1,70,72,74,76,78,80,82,-1,-1,-1,-1,84,86,88,-1,-1,90,92,94,96,98,100,102,-1,-1,104,-1,-1,-1,-1,-1,-1,-1,-1,-1,-1,-1,-1,-1,-1,-1,-1,-1,-1,-1,-1,-1,-1],"split_conditions":[-2.673782E-1,-2.3541927E-1,3.375271E0,-8.162518E-2,-4.5838988E-1,3.5212646E0,2.4263015E0,1.9129568E0,1.2988592E0,2.3636723E0,-1.376922E-1,2.8610253E0,2.3988712E0,3.0070692E-1,6.3044876E-1,-2.5721127E-1,3.4883294E-2,1.1986059E0,3.5221934E0,2.7349922E-1,4.5559034E-3,1.770824E-1,-2.562483E-1,1.4977584E0,7.592582E-1,-2.5747624E-1,2.112637E-1,2.702678E-1,5.631175E-3,1.2184073E0,7.767254E-1,5.636178E-1,4.271249E0,2.7321398E-1,6.6436853E0,2.7327186E-1,-2.0714271E-1,1.0199644E-1,-2.7138522E-1,4.428233E0,4.8541103E-2,2.6715717E-1,2.6248935E-1,2.0553468E-1,-1.9778918E-1,-2.7258578E-1,1.0974624E-1,2.2219818E0,-4.014278E-1,7.0914183E0,-7.734004E-2,6.68268E-1,2.0310193E-1,5.689739E-1,7.5346164E-2,5.0391044E-2,-2.736857E-1,1.1414623E1,-5.3140096E-2,-3.5174444E-1,-2.402581E-1,3.0918753E0,2.1823406E-1,-1.8318221E-1,-2.522787E-1,-2.5723833E-1,1.0771973E-1,2.7354252E-1,5.0555706E-1,9.954082E-2,-1.351703E-1,3.9776585E-1,2.6706982E-1,-4.9227062E-1,-4.5161408E-1,3.6012428E0,-7.734004E-2,4.386134E0,3.3872135E0,-9.541614E-2,-2.1725309E-1,5.11435E-1,1.8719455E0,2.6645204E-1,-2.0191209E-1,-1.5194964E-1,3.8896716E-1,-2.7644157E-1,5.860704E-1,1.0954632E-1,1.5760929E-4,2.4885112E-1,1.2159738E-1,-1.7279273E-1,-5.447801E-2,1.385589E-1,-2.865539E-1,-2.178179E-1,1.1779364E-2,2.747895E-1,5.9470403E-1,4.6162948E-1,2.4627036E-1,2.7309698E-1,4.211529E-2],"split_indices":[772,5,355,140,6,613,327,316,365,79,4,355,4,41,766,6,662,355,52,0,0,0,0,132,664,0,0,0,0,94,532,745,164,0,65,0,0,0,0,664,0,0,222,0,0,0,0,374,6,403,355,246,0,237,0,0,0,417,4,533,5,414,41,6,0,0,0,0,97,345,0,0,0,6,6,495,355,0,327,4,0,0,222,0,0,0,0,0,0,0,0,0,0,0,0,0,0,0,0,0,0,0,0,0,0],"split_type":[0,0,0,0,0,0,0,0,0,0,0,0,0,0,0,0,0,0,0,0,0,0,0,0,0,0,0,0,0,0,0,0,0,0,0,0,0,0,0,0,0,0,0,0,0,0,0,0,0,0,0,0,0,0,0,0,0,0,0,0,0,0,0,0,0,0,0,0,0,0,0,0,0,0,0,0,0,0,0,0,0,0,0,0,0,0,0,0,0,0,0,0,0,0,0,0,0,0,0,0,0,0,0,0,0],"sum_hessian":[9.183675E4,5.9204426E4,3.2632322E4,5.7196508E4,2.0079177E3,3.2412123E4,2.2019952E2,5.6373156E4,8.233507E2,1.9948406E3,1.3077091E1,3.2396854E4,1.5269116E1,4.720919E1,1.7299033E2,5.582766E4,5.454959E2,7.227892E2,1.0056155E2,1.9935632E3,1.277324E0,1.3599503E0,1.1717141E1,3.2350828E4,4.6025642E1,1.2684072E1,2.5850449E0,4.592604E1,1.2831484E0,5.857457E0,1.6713287E2,2.5986318E4,2.9841342E4,5.3207465E2,1.34212675E1,7.2042017E2,2.3689966E0,1.2072188E0,9.9354324E1,3.2349512E4,1.3165958E0,3.5615E1,1.0410637E1,3.449152E0,2.4083052E0,1.6595952E2,1.1733541E0,2.4063723E4,1.922596E3,2.9645375E4,1.9596677E2,1.1239209E1,2.1820588E0,3.2348355E4,1.1566403E0,1.5121063E0,8.898531E0,2.3951965E4,1.11759155E2,1.1854125E3,7.371835E2,2.9557998E4,8.7378494E1,1.8817159E2,7.795185E0,1.0125829E1,1.1133801E0,3.2316012E4,3.234252E1,2.3883887E4,6.807752E1,7.2436775E1,3.9322376E1,7.573092E2,4.281033E2,6.367264E2,1.00457085E2,2.9470016E4,8.7981155E1,8.571187E1,1.666626E0,1.1677353E1,1.7649423E2,2.9880972E1,2.4615493E0,2.3811906E4,7.198102E1,9.41247E0,5.866505E1,3.9334665E2,3.6396252E2,2.525308E2,1.755725E2,1.4501863E2,4.9170776E2,9.30066E1,7.4504886E0,2.8865564E4,6.044516E2,5.7131958E1,3.08492E1,7.995752E1,5.7543464E0,1.7548409E2,1.0101422E0],"tree_param":{"num_deleted":"0","num_feature":"779","num_nodes":"105","size_leaf_vector":"1"}},{"base_weights":[0E0],"categories":[],"categories_nodes":[],"categories_segments":[],"categories_sizes":[],"default_left":[0],"id":29,"left_children":[-1],"loss_changes":[0E0],"parents":[2147483647],"right_children":[-1],"split_conditions":[0E0],"split_indices":[0],"split_type":[0],"sum_hessian":[0E0],"tree_param":{"num_deleted":"0","num_feature":"779","num_nodes":"1","size_leaf_vector":"1"}},{"base_weights":[7.591193E-3,-6.346677E-1,1.2534789E0,-6.9652647E-1,1.25253E0,1.266665E0,-6.733714E-1,-7.1900976E-1,9.5224166E-1,1.2675596E0,-9.1152304E-1,1.2676722E0,-7.680285E-1,1.2124237E0,-1.1947957E0,-7.3529124E-1,1.4208156E0,1.2563313E0,-1.2436781E0,2.563846E-1,-1.3892811E-2,1.627767E-1,-2.378496E-1,1.268482E0,6.9794536E-1,-2.3913383E-1,1.937258E-1,2.527701E-1,-1.2706257E-2,-1.2256984E0,1.8925935E-1,-5.773019E-1,-9.357476E-1,1.4610776E0,-2.380103E-1,2.5618243E-1,-1.9910246E-1,-2.5441685E-1,-1.0923329E-2,1.2685394E0,-2.0883702E-2,2.4892889E-1,-2.7885997E-1,1.6277651E-1,-1.2485032E0,-6.441006E-1,4.3863785E-3,-9.555633E-1,1.4715685E0,2.1418457E0,2.5572458E-1,1.2685649E0,6.80834E-2,1.0974952E-1,-2.5575912E-1,-6.572946E-1,1.7714924E0,4.688204E-1,-2.059895E-1,-9.6948147E-1,1.5086874E0,4.3635926E-1,1.2727141E0,2.2160122E0,-1.9079019E-1,2.5643942E-1,1.0226933E0,-6.6816807E-1,1.4898335E0,1.115585E0,2.305455E0,2.7202347E-1,1.0462301E0,-2.455456E-1,2.0441191E0,-9.829061E-1,2.5509527E-1,4.3380514E-1,3.5542023E0,-1.7535774E-1,2.6265854E-1,2.2761788E0,-1.6153073E-1,2.4868101E-1,-1.8903695E-1,-1.3696247E-1,3.6221075E-1,2.8352723E-1,4.4859973E-1,2.64656E-1,-2.3675881E-1,4.311043E-1,7.073316E-1,-9.3840405E-2,7.940248E-2,2.2231796E-1,-3.400671E-2,-6.437144E-2,6.418509E-2,4.3205142E-1,-7.403934E-2,-2.0012298E-1,6.1195123E-1,5.0707117E-2,6.496425E-1,7.5337344E-1,-1.6202335E-1,4.7549024E-1,2.6857087E-1],"categories":[],"categories_nodes":[],"categories_segments":[],"categories_sizes":[],"default_left":[0,0,0,0,0,0,0,0,0,0,0,0,0,0,0,0,0,0,0,0,0,0,0,0,0,0,0,0,0,0,0,0,0,0,0,0,0,0,0,0,0,0,0,0,0,0,0,0,0,0,0,0,0,0,0,0,0,0,0,0,0,0,0,0,0,0,0,0,0,0,0,0,0,0,0,0,0,0,0,0,0,0,0,0,0,0,0,0,0,0,0,0,0,0,0,0,0,0,0,0,0,0,0,0,0,0,0,0,0],"id":30,"left_children":[1,3,5,7,9,11,13,15,17,19,21,23,25,27,29,31,33,35,37,-1,-1,-1,-1,39,41,-1,-1,-1,-1,43,-1,45,47,49,-1,-1,-1,-1,-1,51,-1,-1,-1,-1,53,55,57,59,61,63,-1,65,-1,-1,-1,67,69,71,73,75,77,-1,79,81,-1,-1,83,85,87,89,91,93,95,97,99,101,-1,103,105,-1,-1,107,-1,-1,-1,-1,-1,-1,-1,-1,-1,-1,-1,-1,-1,-1,-1,-1,-1,-1,-1,-1,-1,-1,-1,-1,-1,-1,-1],"loss_changes":[6.645012E4,6.3977617E3,7.185586E2,1.9675176E3,5.7730957E1,5.8460938E1,1.9087807E2,1.8247012E3,4.784826E2,2.2753906E0,6.676981E0,1.20546875E1,1.1529063E1,2.135666E0,1.112027E1,1.6447109E3,4.310846E1,1.697528E1,1.5008392E0,0E0,0E0,0E0,0E0,2.3320312E0,4.8293E1,0E0,0E0,0E0,0E0,7.938858E0,0E0,1.1289609E3,1.0936016E3,4.9287476E1,0E0,0E0,0E0,0E0,0E0,2.5E-1,0E0,0E0,0E0,0E0,5.1832123E0,8.317959E2,2.9261325E2,7.803594E2,2.2857452E1,2.1702911E1,0E0,1.6015625E-1,0E0,0E0,0E0,6.061709E2,4.7107605E1,1.0580908E2,1.8395996E2,6.777793E2,2.797487E2,0E0,9.611984E0,1.7053772E1,0E0,0E0,1.3114994E1,6.025879E2,5.2008057E0,3.0612877E1,8.449127E0,6.2256306E1,1.5647736E1,8.3339226E1,8.835236E0,6.5453906E2,0E0,4.2427105E1,3.6138916E1,0E0,0E0,2.8513489E0,0E0,0E0,0E0,0E0,0E0,0E0,0E0,0E0,0E0,0E0,0E0,0E0,0E0,0E0,0E0,0E0,0E0,0E0,0E0,0E0,0E0,0E0,0E0,0E0,0E0,0E0,0E0],"parents":[2147483647,0,0,1,1,2,2,3,3,4,4,5,5,6,6,7,7,8,8,9,9,10,10,11,11,12,12,13,13,14,14,15,15,16,16,17,17,18,18,23,23,24,24,29,29,31,31,32,32,33,33,39,39,44,44,45,45,46,46,47,47,48,48,49,49,51,51,55,55,56,56,57,57,58,58,59,59,60,60,62,62,63,63,66,66,67,67,68,68,69,69,70,70,71,71,72,72,73,73,74,74,75,75,77,77,78,78,81,81],"right_children":[2,4,6,8,10,12,14,16,18,20,22,24,26,28,30,32,34,36,38,-1,-1,-1,-1,40,42,-1,-1,-1,-1,44,-1,46,48,50,-1,-1,-1,-1,-1,52,-1,-1,-1,-1,54,56,58,60,62,64,-1,66,-1,-1,-1,68,70,72,74,76,78,-1,80,82,-1,-1,84,86,88,90,92,94,96,98,100,102,-1,104,106,-1,-1,108,-1,-1,-1,-1,-1,-1,-1,-1,-1,-1,-1,-1,-1,-1,-1,-1,-1,-1,-1,-1,-1,-1,-1,-1,-1,-1,-1],"split_conditions":[-2.673782E-1,-2.3541927E-1,3.375271E0,-8.162518E-2,-4.5838988E-1,3.5212646E0,2.4263015E0,-1.2356573E-1,1.925695E0,3.931618E-1,-1.376922E-1,6.2999016E-1,2.3988712E0,4.061955E-1,-6.9740854E-2,-8.716453E-2,7.3991615E-1,1.1986059E0,2.7283785E0,2.563846E-1,-1.3892811E-2,1.627767E-1,-2.378496E-1,3.9743855E0,1.651262E0,-2.3913383E-1,1.937258E-1,2.527701E-1,-1.2706257E-2,-5.2969044E-1,1.8925935E-1,1.8113222E0,3.1220696E0,6.643067E-1,-2.380103E-1,2.5618243E-1,-1.9910246E-1,-2.5441685E-1,-1.0923329E-2,4.428233E0,-2.0883702E-2,2.4892889E-1,-2.7885997E-1,1.6277651E-1,2.4434035E-1,4.88876E0,-4.5161408E-1,2.9015656E0,-7.8904085E-2,7.2993755E0,2.5572458E-1,5.689739E-1,6.80834E-2,1.0974952E-1,-2.5575912E-1,2.785671E0,2.074771E0,-2.4027479E-1,2.2325662E-1,7.0254393E0,-2.4028313E-1,4.3635926E-1,-3.432409E-1,4.7365755E-1,-1.9079019E-1,2.5643942E-1,5.0555706E-1,1.6258806E1,-1.8318221E-1,7.3947114E-1,-1.8318221E-1,-5.9342265E-1,9.047052E0,-2.402581E-1,1.0901303E-2,2.221648E1,2.5509527E-1,-1.2357629E-2,-4.5995917E-2,-1.7535774E-1,2.6265854E-1,6.755785E-1,-1.6153073E-1,2.4868101E-1,-1.8903695E-1,-1.3696247E-1,3.6221075E-1,2.8352723E-1,4.4859973E-1,2.64656E-1,-2.3675881E-1,4.311043E-1,7.073316E-1,-9.3840405E-2,7.940248E-2,2.2231796E-1,-3.400671E-2,-6.437144E-2,6.418509E-2,4.3205142E-1,-7.403934E-2,-2.0012298E-1,6.1195123E-1,5.0707117E-2,6.496425E-1,7.5337344E-1,-1.6202335E-1,4.7549024E-1,2.6857087E-1],"split_indices":[772,5,355,140,6,613,327,409,365,164,4,19,4,43,339,6,571,355,79,0,0,0,0,111,417,0,0,0,0,16,0,748,339,316,0,0,0,0,0,664,0,0,0,0,766,492,6,668,3,461,0,237,0,0,0,274,15,5,164,164,5,0,7,355,0,0,97,359,6,662,6,7,461,5,377,293,0,486,426,0,0,267,0,0,0,0,0,0,0,0,0,0,0,0,0,0,0,0,0,0,0,0,0,0,0,0,0,0,0],"split_type":[0,0,0,0,0,0,0,0,0,0,0,0,0,0,0,0,0,0,0,0,0,0,0,0,0,0,0,0,0,0,0,0,0,0,0,0,0,0,0,0,0,0,0,0,0,0,0,0,0,0,0,0,0,0,0,0,0,0,0,0,0,0,0,0,0,0,0,0,0,0,0,0,0,0,0,0,0,0,0,0,0,0,0,0,0,0,0,0,0,0,0,0,0,0,0,0,0,0,0,0,0,0,0,0,0,0,0,0,0],"sum_hessian":[8.304172E4,5.479515E4,2.8246572E4,5.305668E4,1.7384672E3,2.8054926E4,1.9164677E2,5.2343465E4,7.132127E2,1.726888E3,1.1579144E1,2.8041422E4,1.3503483E1,4.122528E1,1.504215E2,5.1948855E4,3.946125E2,6.268366E2,8.637611E1,1.7257152E3,1.172818E0,1.2771945E0,1.0301949E1,2.80004E4,4.102223E1,1.1139742E1,2.363741E0,4.0045116E1,1.1801656E0,1.4869034E2,1.7311605E0,2.9053928E4,2.2894928E4,3.8902237E2,5.5901346E0,6.241592E2,2.6774416E0,8.523658E1,1.1395285E0,2.7999303E4,1.0977736E0,3.296256E1,8.0596695E0,1.2699428E0,1.474204E2,2.6061072E4,2.9928545E3,2.2708605E4,1.8632153E2,8.468889E1,3.0433347E2,2.7998172E4,1.1308284E0,1.087506E0,1.4633289E2,2.5920225E4,1.4084836E2,9.326567E2,2.060198E3,2.258167E4,1.26935616E2,3.9594692E1,1.4672685E2,8.297645E1,1.7124397E0,2.7969752E4,2.8419855E1,2.5790307E4,1.2991832E2,6.459302E1,7.625533E1,6.966802E2,2.3597646E2,2.0254816E3,3.4716373E1,2.2447195E4,1.3447536E2,8.40047E1,4.293092E1,1.4288278E0,1.4529802E2,8.159341E1,1.3830419E0,2.603023E1,2.3896258E0,2.569206E4,9.8245895E1,1.1868467E2,1.1233646E1,5.9939926E1,4.6530924E0,6.906544E1,7.1898923E0,9.7811676E1,5.988685E2,2.2606989E2,9.906578E0,1.793583E3,2.3189854E2,3.3528572E1,1.1877997E0,2.2407516E4,3.9678864E1,7.9842125E1,4.162569E0,4.1427513E1,1.5034083E0,7.413254E1,7.460862E0],"tree_param":{"num_deleted":"0","num_feature":"779","num_nodes":"109","size_leaf_vector":"1"}},{"base_weights":[0E0],"categories":[],"categories_nodes":[],"categories_segments":[],"categories_sizes":[],"default_left":[0],"id":31,"left_children":[-1],"loss_changes":[0E0],"parents":[2147483647],"right_children":[-1],"split_conditions":[0E0],"split_indices":[0],"split_type":[0],"sum_hessian":[0E0],"tree_param":{"num_deleted":"0","num_feature":"779","num_nodes":"1","size_leaf_vector":"1"}},{"base_weights":[1.0259786E-2,-5.534507E-1,1.1932244E0,-6.062242E-1,1.191939E0,1.2066655E0,-5.2113193E-1,-6.200062E-1,1.5377382E0,1.2064905E0,-8.4122807E-1,1.2073185E0,-5.383807E-1,2.4143322E-1,-1.1131811E0,-6.3914526E-1,9.034255E-1,1.1400329E0,2.3051453E0,2.4406926E-1,-2.9447243E-2,1.5059905E-1,-2.235264E-1,1.2077976E0,8.2946825E-1,-2.1506509E-1,1.7916913E-1,-1.1703722E0,1.7163244E-1,-4.566879E-1,-7.99457E-1,1.1950244E0,-1.1791255E0,-2.3725073E-1,1.2065146E0,6.7484784E-1,3.9709657E-1,2.4412018E-1,6.1591398E-2,2.361498E-1,-2.4962246E-1,-1.1958616E0,1.7016073E-1,-5.1446694E-1,2.3196146E-1,-8.208796E-1,1.5127046E0,2.4382296E-1,-1.8433689E-1,-2.4181674E-1,4.747317E-3,8.048409E-3,2.4505302E-1,9.9412255E-2,-2.45138E-1,-5.380437E-1,4.8659718E-1,2.9076489E-2,5.667257E-1,-8.315387E-1,1.8170574E0,3.790229E0,1.2598819E0,-5.4683006E-1,1.8302734E0,3.3133163E0,-4.9398345E-1,2.058921E-1,-3.3831927E-1,1.2851614E0,3.0926585E-1,-8.400072E-1,2.4742758E0,9.8287076E-1,2.5992029E0,8.1371725E-1,-1.3099074E-1,1.2739661E0,-1.394995E-1,-1.11349806E-1,6.13958E-1,2.2360912E-1,4.5315138E-1,6.998381E-1,-2.2140345E-1,-1.2000481E-1,6.512303E-1,5.522192E-2,-7.430518E-2,-7.4649155E-2,3.944971E-1,2.3654804E-1,4.9271536E-1,8.5491374E-2,-1.2370059E-1,-1.7084944E-1,8.2302827E-1,1.1797499E-1,5.042639E-1,2.5163075E-1,-2.52395E-1,3.112466E-1,5.486009E-1,3.9134434E-1,2.4464126E-1],"categories":[],"categories_nodes":[],"categories_segments":[],"categories_sizes":[],"default_left":[0,0,0,0,0,0,0,0,0,0,0,0,0,0,0,0,0,0,0,0,0,0,0,0,0,0,0,0,0,0,0,0,0,0,0,0,0,0,0,0,0,0,0,0,0,0,0,0,0,0,0,0,0,0,0,0,0,0,0,0,0,0,0,0,0,0,0,0,0,0,0,0,0,0,0,0,0,0,0,0,0,0,0,0,0,0,0,0,0,0,0,0,0,0,0,0,0,0,0,0,0,0,0,0,0],"id":32,"left_children":[1,3,5,7,9,11,13,15,17,19,21,23,25,-1,27,29,31,33,35,-1,-1,-1,-1,37,39,-1,-1,41,-1,43,45,47,49,-1,51,-1,-1,-1,-1,-1,-1,53,-1,55,57,59,61,-1,-1,-1,-1,-1,-1,-1,-1,63,65,67,69,71,73,75,77,79,81,83,85,87,89,91,93,95,97,99,101,-1,-1,103,-1,-1,-1,-1,-1,-1,-1,-1,-1,-1,-1,-1,-1,-1,-1,-1,-1,-1,-1,-1,-1,-1,-1,-1,-1,-1,-1],"loss_changes":[4.983356E4,4.6626104E3,5.563672E2,1.4525742E3,4.4970947E1,2.7914062E1,1.9261552E2,1.4238535E3,9.322821E1,2.3388672E0,5.504889E0,3.3320312E0,8.165754E0,0E0,1.6764633E1,1.4097598E3,3.6945367E2,3.354303E1,3.08266E1,0E0,0E0,0E0,0E0,2.578125E-1,2.4874523E1,0E0,0E0,8.03186E0,0E0,8.9735645E2,1.2722676E3,1.3805481E1,1.587677E0,0E0,1.3590393E0,0E0,0E0,0E0,0E0,0E0,0E0,4.4891357E0,0E0,4.912827E2,1.1858245E2,7.1643555E2,1.3106909E2,0E0,0E0,0E0,0E0,0E0,0E0,0E0,0E0,4.239668E2,1.3299757E3,7.076772E1,1.21474686E2,7.110293E2,6.44122E1,2.675528E1,6.7526245E0,2.9874268E2,1.998404E1,8.509546E1,1.3413785E2,2.8495138E1,2.5867645E1,2.0105774E1,5.1214897E1,6.6105273E2,1.0805664E0,3.154784E1,2.204071E0,0E0,0E0,6.6084595E0,0E0,0E0,0E0,0E0,0E0,0E0,0E0,0E0,0E0,0E0,0E0,0E0,0E0,0E0,0E0,0E0,0E0,0E0,0E0,0E0,0E0,0E0,0E0,0E0,0E0,0E0,0E0],"parents":[2147483647,0,0,1,1,2,2,3,3,4,4,5,5,6,6,7,7,8,8,9,9,10,10,11,11,12,12,14,14,15,15,16,16,17,17,18,18,23,23,24,24,27,27,29,29,30,30,31,31,32,32,34,34,41,41,43,43,44,44,45,45,46,46,55,55,56,56,57,57,58,58,59,59,60,60,61,61,62,62,63,63,64,64,65,65,66,66,67,67,68,68,69,69,70,70,71,71,72,72,73,73,74,74,77,77],"right_children":[2,4,6,8,10,12,14,16,18,20,22,24,26,-1,28,30,32,34,36,-1,-1,-1,-1,38,40,-1,-1,42,-1,44,46,48,50,-1,52,-1,-1,-1,-1,-1,-1,54,-1,56,58,60,62,-1,-1,-1,-1,-1,-1,-1,-1,64,66,68,70,72,74,76,78,80,82,84,86,88,90,92,94,96,98,100,102,-1,-1,104,-1,-1,-1,-1,-1,-1,-1,-1,-1,-1,-1,-1,-1,-1,-1,-1,-1,-1,-1,-1,-1,-1,-1,-1,-1,-1,-1],"split_conditions":[-2.673782E-1,-2.3541927E-1,3.0891535E0,5.6394396E0,-4.5838988E-1,3.5212646E0,2.7283457E-1,-8.162518E-2,2.364804E0,3.6426985E0,-1.376922E-1,6.2999016E-1,2.3988712E0,2.4143322E-1,3.8424703E-1,-2.9014584E-1,1.925695E0,-2.6340345E-1,-2.5721127E-1,2.4406926E-1,-2.9447243E-2,1.5059905E-1,-2.235264E-1,4.428233E0,1.651262E0,-2.1506509E-1,1.7916913E-1,2.7592824E0,1.7163244E-1,1.0036566E0,3.1262095E0,1.1986059E0,3.0326831E0,-2.3725073E-1,-3.6670446E-2,6.7484784E-1,3.9709657E-1,2.4412018E-1,6.1591398E-2,2.361498E-1,-2.4962246E-1,2.4434035E-1,1.7016073E-1,1.0705109E0,-2.4028313E-1,3.9731765E0,-7.8904085E-2,2.4382296E-1,-1.8433689E-1,-2.4181674E-1,4.747317E-3,8.048409E-3,2.4505302E-1,9.9412255E-2,-2.45138E-1,3.0999963E0,-7.892911E-2,-4.2710277E-1,-4.713587E-1,1.5121504E1,1.9647453E0,-2.6950827E-2,4.2489495E0,-9.2223085E-2,1.5121504E1,-1.2332292E-1,6.965455E-2,-1.7395468E-1,-6.2409755E-2,1.8390921E0,4.5773602E-1,1.8445442E1,6.595057E-2,9.395351E-2,-2.5721127E-1,8.1371725E-1,-1.3099074E-1,6.595057E-2,-1.394995E-1,-1.11349806E-1,6.13958E-1,2.2360912E-1,4.5315138E-1,6.998381E-1,-2.2140345E-1,-1.2000481E-1,6.512303E-1,5.522192E-2,-7.430518E-2,-7.4649155E-2,3.944971E-1,2.3654804E-1,4.9271536E-1,8.5491374E-2,-1.2370059E-1,-1.7084944E-1,8.2302827E-1,1.1797499E-1,5.042639E-1,2.5163075E-1,-2.52395E-1,3.112466E-1,5.486009E-1,3.9134434E-1,2.4464126E-1],"split_indices":[772,5,355,403,6,613,120,140,672,331,4,19,4,0,142,6,365,7,6,0,0,0,0,664,417,0,0,339,0,7,384,355,106,0,202,0,0,0,0,0,0,766,0,0,5,345,3,0,0,0,0,0,0,0,0,491,3,6,6,491,477,461,461,414,491,402,467,575,2,310,547,496,89,764,6,0,0,89,0,0,0,0,0,0,0,0,0,0,0,0,0,0,0,0,0,0,0,0,0,0,0,0,0,0,0],"split_type":[0,0,0,0,0,0,0,0,0,0,0,0,0,0,0,0,0,0,0,0,0,0,0,0,0,0,0,0,0,0,0,0,0,0,0,0,0,0,0,0,0,0,0,0,0,0,0,0,0,0,0,0,0,0,0,0,0,0,0,0,0,0,0,0,0,0,0,0,0,0,0,0,0,0,0,0,0,0,0,0,0,0,0,0,0,0,0,0,0,0,0,0,0,0,0,0,0,0,0,0,0,0,0,0,0],"sum_hessian":[7.472784E4,5.0611027E4,2.4116812E4,4.91263E4,1.4847263E3,2.3929494E4,1.8731831E2,4.8813227E4,3.130749E2,1.4745793E3,1.0147071E1,2.3920852E4,8.642442E0,4.7795876E1,1.3952245E2,4.8208164E4,6.050648E2,2.0784543E2,1.0522945E2,1.4735049E3,1.074419E0,1.1915382E0,8.955533E0,2.3888365E4,3.2487267E1,6.4981794E0,2.1442628E0,1.3596352E2,3.5589325E0,2.2548568E4,2.5659594E4,5.311231E2,7.3941696E1,5.339784E0,2.0250565E2,2.3886951E1,8.13425E1,2.388726E4,1.1055678E0,2.8278894E1,4.20837E0,1.3466345E2,1.3000543E0,2.0803377E4,1.7451915E3,2.5424676E4,2.3491849E2,5.287072E2,2.4158807E0,7.289791E1,1.0437868E0,1.0626515E0,2.01443E2,1.0644212E0,1.3359903E2,2.0325148E4,4.7822885E2,1.0873104E3,6.578812E2,2.5323037E4,1.0163836E2,2.2074184E1,2.128443E2,2.0250787E4,7.436081E1,1.22556465E2,3.556724E2,7.3433734E2,3.5297305E2,1.7250853E2,4.8537268E2,2.5259078E4,6.3960003E1,5.027495E1,5.1363415E1,2.1048904E1,1.0252798E0,2.1166231E2,1.1820025E0,2.022854E4,2.2247917E1,2.8297745E1,4.606307E1,1.1875091E2,3.805559E0,3.4719193E2,8.48047E0,6.576572E2,7.668012E1,3.4908344E2,3.889613E0,1.5871619E2,1.3792336E1,4.3252597E2,5.28467E1,2.523268E4,2.6396988E1,1.0074873E0,6.2952515E1,4.5386253E1,4.8886933E0,6.4432797E0,4.4920135E1,1.5955154E1,1.9570715E2],"tree_param":{"num_deleted":"0","num_feature":"779","num_nodes":"105","size_leaf_vector":"1"}},{"base_weights":[0E0],"categories":[],"categories_nodes":[],"categories_segments":[],"categories_sizes":[],"default_left":[0],"id":33,"left_children":[-1],"loss_changes":[0E0],"parents":[2147483647],"right_children":[-1],"split_conditions":[0E0],"split_indices":[0],"split_type":[0],"sum_hessian":[0E0],"tree_param":{"num_deleted":"0","num_feature":"779","num_nodes":"1","size_leaf_vector":"1"}},{"base_weights":[1.2572881E-2,-4.8092586E-1,1.1485114E0,-5.256964E-1,1.1468307E0,1.1614897E0,-4.955116E-1,-4.9118564E-1,-1.2438102E0,2.3493142E-1,-6.6675115E-1,1.1621351E0,-4.9594718E-1,2.3131016E-1,-1.061108E0,-5.28009E-1,1.6081756E0,-1.2484415E0,2.709289E-1,1.5783422E-1,-9.84487E-1,1.1625897E0,7.283382E-1,-2.0321009E-1,1.6669504E-1,-1.1194086E0,1.6367824E-1,-3.9921105E-1,-7.3480314E-1,1.224546E0,3.2702556E0,-1.2503777E0,2.6425362E-1,-2.2077377E-1,-5.5626757E-3,1.16281E0,7.450384E-1,2.245648E-1,-2.0006496E-1,-1.1461499E0,1.5695237E-1,-4.6262932E-1,7.874159E-2,-7.691995E-1,5.5883235E-1,1.4009402E0,-1.1405262E0,4.9964938E-1,4.132447E0,-1.252316E0,2.6425362E-1,2.3502845E-1,5.5768937E-2,-2.4168149E-1,2.1599476E-1,9.021306E-2,-2.3537272E-1,-4.7419518E-1,2.0054755E0,2.9507983E-1,-1.3143952E-1,-7.864908E-1,1.3872534E0,2.6535506E0,-9.074867E-1,1.7813042E0,2.357305E-1,1.6075869E-1,-2.4443349E-1,9.7401536E-1,3.9205325E-1,-1.2531749E0,4.071671E-2,-4.8459795E-1,1.7873714E0,1.765572E0,2.5068011E0,1.02150396E-1,6.5684414E-1,-2.3406953E-1,8.2584435E-1,-7.9796535E-1,2.289092E0,6.1353797E-1,4.9988225E-1,2.859301E0,-2.2353953E-1,-1.1647717E0,3.7462658E-1,2.188876E0,1.2903054E0,-2.6770332E-1,-2.4910226E-1,-1.0029262E-1,2.9281735E-1,2.1502109E-1,3.7534356E-1,3.65928E-1,1.9808146E-1,1.9500887E-1,5.53799E-1,3.8985264E-2,-8.2896814E-2,2.3087656E-1,9.987547E-2,-1.2535612E-1,-2.1313254E-2,8.303016E-2,3.5964334E-1,-1.6864476E-1,2.3815569E-2,9.0548724E-1,-2.9806282E-2,1.5821378E-1,-2.256174E-1,6.829426E-1,3.280828E-1,4.2522293E-1,-2.4917197E-1,4.688733E-1,2.2151132E-1,2.3600009E-1,3.8503736E-1],"categories":[],"categories_nodes":[],"categories_segments":[],"categories_sizes":[],"default_left":[0,0,0,0,0,0,0,0,0,0,0,0,0,0,0,0,0,0,0,0,0,0,0,0,0,0,0,0,0,0,0,0,0,0,0,0,0,0,0,0,0,0,0,0,0,0,0,0,0,0,0,0,0,0,0,0,0,0,0,0,0,0,0,0,0,0,0,0,0,0,0,0,0,0,0,0,0,0,0,0,0,0,0,0,0,0,0,0,0,0,0,0,0,0,0,0,0,0,0,0,0,0,0,0,0,0,0,0,0,0,0,0,0,0,0,0,0,0,0,0,0,0,0],"id":34,"left_children":[1,3,5,7,9,11,13,15,17,-1,19,21,23,-1,25,27,29,31,-1,-1,33,35,37,-1,-1,39,-1,41,43,45,47,49,-1,-1,-1,51,53,-1,-1,55,-1,57,59,61,63,65,67,-1,69,71,-1,-1,-1,-1,-1,-1,-1,73,75,77,79,81,83,85,87,89,-1,-1,-1,-1,-1,91,-1,93,95,97,99,101,103,105,107,109,111,113,-1,115,-1,117,-1,119,121,-1,-1,-1,-1,-1,-1,-1,-1,-1,-1,-1,-1,-1,-1,-1,-1,-1,-1,-1,-1,-1,-1,-1,-1,-1,-1,-1,-1,-1,-1,-1,-1],"loss_changes":[3.7739703E4,3.4208438E3,4.3560938E2,1.1313867E3,3.6173706E1,2.2214844E1,1.4999341E2,3.3701504E3,2.6733398E1,0E0,5.9696093E0,3.1425781E0,6.5987253E0,0E0,1.39722595E1,1.1405664E3,4.751996E2,1.1981201E1,0E0,0E0,9.723244E-1,9.941406E-1,1.6783247E1,0E0,0E0,6.800949E0,0E0,8.001411E2,7.318623E2,2.5700232E2,8.635974E1,1.1996582E1,0E0,0E0,0E0,2.8515625E-1,9.713608E0,0E0,0E0,3.8997498E0,0E0,6.661958E2,1.4068048E2,5.9817285E2,1.3118889E3,4.8805542E1,6.6989937E0,0E0,8.998535E1,2.8601074E0,0E0,0E0,0E0,0E0,0E0,0E0,0E0,5.466035E2,8.670258E0,1.0633595E2,1.5439468E2,5.62458E2,1.0581439E2,1.3915125E2,1.8083488E2,4.0326355E1,0E0,0E0,0E0,0E0,0E0,1.4494629E0,0E0,5.1934766E2,3.391632E0,9.436493E-1,9.17334E0,4.6351288E1,4.129988E1,7.03785E1,5.950287E1,5.2820215E2,3.1726373E2,2.3102297E1,0E0,1.0176135E2,0E0,5.390799E1,0E0,1.4115295E1,5.333618E0,0E0,0E0,0E0,0E0,0E0,0E0,0E0,0E0,0E0,0E0,0E0,0E0,0E0,0E0,0E0,0E0,0E0,0E0,0E0,0E0,0E0,0E0,0E0,0E0,0E0,0E0,0E0,0E0,0E0,0E0,0E0,0E0],"parents":[2147483647,0,0,1,1,2,2,3,3,4,4,5,5,6,6,7,7,8,8,10,10,11,11,12,12,14,14,15,15,16,16,17,17,20,20,21,21,22,22,25,25,27,27,28,28,29,29,30,30,31,31,35,35,36,36,39,39,41,41,42,42,43,43,44,44,45,45,46,46,48,48,49,49,57,57,58,58,59,59,60,60,61,61,62,62,63,63,64,64,65,65,71,71,73,73,74,74,75,75,76,76,77,77,78,78,79,79,80,80,81,81,82,82,83,83,85,85,87,87,89,89,90,90],"right_children":[2,4,6,8,10,12,14,16,18,-1,20,22,24,-1,26,28,30,32,-1,-1,34,36,38,-1,-1,40,-1,42,44,46,48,50,-1,-1,-1,52,54,-1,-1,56,-1,58,60,62,64,66,68,-1,70,72,-1,-1,-1,-1,-1,-1,-1,74,76,78,80,82,84,86,88,90,-1,-1,-1,-1,-1,92,-1,94,96,98,100,102,104,106,108,110,112,114,-1,116,-1,118,-1,120,122,-1,-1,-1,-1,-1,-1,-1,-1,-1,-1,-1,-1,-1,-1,-1,-1,-1,-1,-1,-1,-1,-1,-1,-1,-1,-1,-1,-1,-1,-1,-1,-1],"split_conditions":[-2.673782E-1,-2.3541927E-1,3.0891535E0,1.149E0,-4.8611805E-1,3.5212646E0,2.7283457E-1,8.39536E-1,6.3910704E0,2.3493142E-1,-4.8453748E-1,5.689739E-1,2.3988712E0,2.3131016E-1,1.7958175E-1,-3.789345E-2,1.1943703E0,4.942917E0,2.709289E-1,1.5783422E-1,-6.904254E-2,3.2044203E0,5.0555706E-1,-2.0321009E-1,1.6669504E-1,2.7592824E0,1.6367824E-1,1.8113222E0,3.0297427E0,4.4944313E-1,-2.5721127E-1,4.000727E0,2.6425362E-1,-2.2077377E-1,-5.5626757E-3,4.428233E0,-2.2674274E-1,2.245648E-1,-2.0006496E-1,2.4434035E-1,1.5695237E-1,8.373676E0,-3.655744E-1,2.9015656E0,-7.877894E-2,-6.652154E-2,7.3887765E-1,4.9964938E-1,7.7017574E0,3.501378E-1,2.6425362E-1,2.3502845E-1,5.5768937E-2,-2.4168149E-1,2.1599476E-1,9.021306E-2,-2.3537272E-1,1.9990627E1,-2.5721127E-1,-2.4027479E-1,1.9524004E0,1.0153075E1,-2.4028313E-1,-1.2332292E-1,1.1620221E1,-5.551478E-2,2.357305E-1,1.6075869E-1,-2.4443349E-1,9.7401536E-1,3.9205325E-1,-1.8318221E-1,4.071671E-2,4.849412E0,1.1943703E0,-3.159028E-1,1.1943703E0,6.782448E-1,-4.8199853E-1,-2.7254653E-1,-4.014009E-1,3.6612823E0,-1.7244962E-1,1.3565353E-1,4.9988225E-1,8.907438E0,-2.2353953E-1,3.8643137E-1,3.7462658E-1,-1.4914012E-1,1.1695389E-2,-2.6770332E-1,-2.4910226E-1,-1.0029262E-1,2.9281735E-1,2.1502109E-1,3.7534356E-1,3.65928E-1,1.9808146E-1,1.9500887E-1,5.53799E-1,3.8985264E-2,-8.2896814E-2,2.3087656E-1,9.987547E-2,-1.2535612E-1,-2.1313254E-2,8.303016E-2,3.5964334E-1,-1.6864476E-1,2.3815569E-2,9.0548724E-1,-2.9806282E-2,1.5821378E-1,-2.256174E-1,6.829426E-1,3.280828E-1,4.2522293E-1,-2.4917197E-1,4.688733E-1,2.2151132E-1,2.3600009E-1,3.8503736E-1],"split_indices":[772,5,355,445,6,613,120,532,400,0,621,237,4,0,474,6,16,456,0,0,3,96,97,0,0,339,0,748,0,355,6,626,0,0,0,664,5,0,0,766,0,374,6,668,3,316,651,0,0,140,0,0,0,0,0,0,0,345,6,5,202,461,5,402,0,417,0,0,0,0,0,6,0,274,16,140,16,93,6,495,7,641,93,82,0,0,0,681,0,140,346,0,0,0,0,0,0,0,0,0,0,0,0,0,0,0,0,0,0,0,0,0,0,0,0,0,0,0,0,0,0,0,0],"split_type":[0,0,0,0,0,0,0,0,0,0,0,0,0,0,0,0,0,0,0,0,0,0,0,0,0,0,0,0,0,0,0,0,0,0,0,0,0,0,0,0,0,0,0,0,0,0,0,0,0,0,0,0,0,0,0,0,0,0,0,0,0,0,0,0,0,0,0,0,0,0,0,0,0,0,0,0,0,0,0,0,0,0,0,0,0,0,0,0,0,0,0,0,0,0,0,0,0,0,0,0,0,0,0,0,0,0,0,0,0,0,0,0,0,0,0,0,0,0,0,0,0,0,0],"sum_hessian":[6.732009E4,4.6931625E4,2.0388465E4,4.567601E4,1.2556162E3,2.0229066E4,1.5939919E2,4.3583195E4,2.0928171E3,1.2453096E3,1.0306742E1,2.0221492E4,7.574645E0,4.0614162E1,1.1878503E2,4.2832645E4,7.505477E2,2.0895894E3,3.2278318E0,1.5926402E0,8.714101E0,2.0198643E4,2.2849054E1,5.638338E0,1.9363071E0,1.15584946E2,3.2000813E0,2.6395576E4,1.6437068E4,6.112094E2,1.3933833E2,2.088518E3,1.0714316E0,7.704529E0,1.0095723E0,2.018621E4,1.2430422E1,1.8975525E1,3.8735278E0,1.1436735E2,1.2176007E0,2.3303525E4,3.0920513E3,1.601174E4,4.2532913E2,5.691669E2,4.204253E1,7.436438E1,6.4973946E1,2.0874465E3,1.0714316E0,2.018513E4,1.0813004E0,1.3914151E0,1.1039007E1,1.040477E0,1.13326866E2,2.3195635E4,1.0788974E2,1.5235085E3,1.5685427E3,1.5885003E4,1.2673724E2,1.7480327E2,2.5052586E2,2.1462717E2,3.545397E2,1.0814904E0,4.0961037E1,4.8566975E1,1.6406975E1,2.0863518E3,1.0947415E0,2.309021E4,1.0542481E2,7.602885E1,3.186089E1,9.944496E2,5.2905896E2,1.4173452E3,1.5119751E2,1.5826696E4,5.8306507E1,7.492339E1,5.181385E1,1.6596016E2,8.843115E0,2.2969948E2,2.0826385E1,1.1538753E2,9.923964E1,4.5506683E2,1.631285E3,2.2953035E4,1.3717557E2,1.069339E1,9.473142E1,7.068215E1,5.346695E0,4.860632E0,2.7000257E1,8.453484E2,1.4910118E2,1.3128838E2,3.977706E2,3.5317764E2,1.0641676E3,1.0634233E2,4.4855175E1,1.5221231E4,6.0546497E2,3.0258942E1,2.8047564E1,6.874464E1,6.1787577E0,1.15617386E2,5.0342773E1,4.0744414E0,2.2562503E2,1.0203839E2,1.3349136E1,8.514964E1,1.40899935E1],"tree_param":{"num_deleted":"0","num_feature":"779","num_nodes":"123","size_leaf_vector":"1"}},{"base_weights":[0E0],"categories":[],"categories_nodes":[],"categories_segments":[],"categories_sizes":[],"default_left":[0],"id":35,"left_children":[-1],"loss_changes":[0E0],"parents":[2147483647],"right_children":[-1],"split_conditions":[0E0],"split_indices":[0],"split_type":[0],"sum_hessian":[0E0],"tree_param":{"num_deleted":"0","num_feature":"779","num_nodes":"1","size_leaf_vector":"1"}},{"base_weights":[1.403934E-2,-4.175515E-1,1.1146213E0,-4.5545676E-1,1.1124411E0,1.1272601E0,-4.743266E-1,-4.242485E-1,-1.212119E0,2.2799307E-1,-6.130435E-1,1.1279056E0,-4.5823157E-1,1.0875329E0,-1.0258496E0,-4.5281368E-1,1.5121871E0,3.4093598E-1,-1.2167172E0,-1.9880767E-1,1.1387818E-1,1.1283668E0,6.91367E-1,-1.928665E-1,1.5574124E-1,2.2328727E-1,5.488786E-2,-1.0747179E0,1.778094E-1,-3.3638883E-1,-6.726317E-1,2.2037523E0,1.2208859E0,-1.8890113E-1,4.0955168E-1,-2.6043054E-1,-2.4038947E-1,1.1286024E0,6.924076E-1,2.1606928E-1,-1.878274E-1,2.344603E-1,-2.2737749E-1,-3.1145447E-1,-1.2726113E0,-6.78219E-1,1.0593189E0,3.3580422E0,1.6644583E0,1.1599658E0,3.4842372E-1,2.2811587E-1,5.053335E-2,-2.18784E-1,2.0705198E-1,1.4450864E-1,-1.2854297E-1,-3.2495463E-1,1.9584305E0,-1.3967005E-2,-2.5767758E-1,-7.24407E-1,4.9856048E-2,5.035541E-1,3.938175E0,1.5437223E0,2.1021252E0,-1.6112034E-1,1.1722114E0,-3.0287355E-1,-2.5584787E-1,2.1076982E0,-2.2697842E-1,-7.4234086E-1,1.1171101E0,2.8467526E0,-6.770207E-1,4.7618823E0,2.5459929E0,2.0612271E-1,3.2046902E-1,1.7659824E-1,4.4910407E-1,2.3232844E-1,5.130148E-1,-6.459195E-2,3.5639516E-1,6.337816E-1,3.4515372E-1,-1.5381266E-1,2.0321238E-1,2.5227672E-1,-1.8383755E-1,6.1556464E-1,-2.1491377E-1,-1.7381938E-1,2.8281388E-1,1.0039809E0,3.0805537E-1,5.590333E-1,2.616261E-1],"categories":[],"categories_nodes":[],"categories_segments":[],"categories_sizes":[],"default_left":[0,0,0,0,0,0,0,0,0,0,0,0,0,0,0,0,0,0,0,0,0,0,0,0,0,0,0,0,0,0,0,0,0,0,0,0,0,0,0,0,0,0,0,0,0,0,0,0,0,0,0,0,0,0,0,0,0,0,0,0,0,0,0,0,0,0,0,0,0,0,0,0,0,0,0,0,0,0,0,0,0,0,0,0,0,0,0,0,0,0,0,0,0,0,0,0,0,0,0,0,0],"id":36,"left_children":[1,3,5,7,9,11,13,15,17,-1,19,21,23,25,27,29,31,33,35,-1,-1,37,39,-1,-1,-1,-1,41,-1,43,45,47,49,-1,-1,-1,-1,51,53,-1,-1,55,-1,57,59,61,-1,63,65,67,-1,-1,-1,-1,-1,-1,-1,69,71,-1,-1,73,75,-1,77,79,81,-1,83,85,-1,87,-1,89,91,93,95,97,99,-1,-1,-1,-1,-1,-1,-1,-1,-1,-1,-1,-1,-1,-1,-1,-1,-1,-1,-1,-1,-1,-1],"loss_changes":[2.8854338E4,2.5310874E3,3.4416992E2,1.0049873E3,2.9083618E1,1.7892578E1,1.1803827E2,2.2627983E3,1.2455811E1,0E0,4.9571567E0,2.6386719E0,5.379974E0,2.045021E-1,1.0334816E1,1.0311836E3,1.1711902E2,1.4273647E1,1.769043E0,0E0,0E0,9.609375E-1,1.3535778E1,0E0,0E0,0E0,0E0,6.7633514E0,0E0,6.1469995E2,4.6461328E2,1.0336243E2,1.0891907E1,0E0,0E0,0E0,0E0,3.1445312E-1,8.028994E0,0E0,0E0,2.328344E0,0E0,7.871653E2,1.7972412E0,4.6885596E2,0E0,1.7714233E1,3.1631775E0,1.0001221E1,0E0,0E0,0E0,0E0,0E0,0E0,0E0,5.297363E2,7.223187E1,0E0,0E0,4.3378174E2,1.6945785E3,0E0,2.3510284E1,5.4966736E-1,1.5130539E0,0E0,8.7664795E0,8.6118506E2,0E0,5.4362183E1,0E0,4.245254E2,3.4828705E1,1.3692908E2,2.5257874E2,4.6531677E0,1.9050598E-1,0E0,0E0,0E0,0E0,0E0,0E0,0E0,0E0,0E0,0E0,0E0,0E0,0E0,0E0,0E0,0E0,0E0,0E0,0E0,0E0,0E0,0E0],"parents":[2147483647,0,0,1,1,2,2,3,3,4,4,5,5,6,6,7,7,8,8,10,10,11,11,12,12,13,13,14,14,15,15,16,16,17,17,18,18,21,21,22,22,27,27,29,29,30,30,31,31,32,32,37,37,38,38,41,41,43,43,44,44,45,45,47,47,48,48,49,49,57,57,58,58,61,61,62,62,64,64,65,65,66,66,68,68,69,69,71,71,73,73,74,74,75,75,76,76,77,77,78,78],"right_children":[2,4,6,8,10,12,14,16,18,-1,20,22,24,26,28,30,32,34,36,-1,-1,38,40,-1,-1,-1,-1,42,-1,44,46,48,50,-1,-1,-1,-1,52,54,-1,-1,56,-1,58,60,62,-1,64,66,68,-1,-1,-1,-1,-1,-1,-1,70,72,-1,-1,74,76,-1,78,80,82,-1,84,86,-1,88,-1,90,92,94,96,98,100,-1,-1,-1,-1,-1,-1,-1,-1,-1,-1,-1,-1,-1,-1,-1,-1,-1,-1,-1,-1,-1,-1],"split_conditions":[-2.673782E-1,-2.3541927E-1,3.0891535E0,7.473679E-1,-4.8611805E-1,3.5212646E0,2.1577902E0,8.380856E-1,6.60599E-2,2.2799307E-1,-2.7254653E-1,5.689739E-1,2.3988712E0,-7.690174E-2,-6.9740854E-2,3.7421465E-2,4.6400848E-1,4.3142345E-3,-1.8318221E-1,-1.9880767E-1,1.1387818E-1,3.2044203E0,5.0555706E-1,-1.928665E-1,1.5574124E-1,2.2328727E-1,5.488786E-2,5.3997546E-1,1.778094E-1,7.231291E0,2.0025866E1,9.954082E-2,5.3378844E0,-1.8890113E-1,4.0955168E-1,-2.6043054E-1,-2.4038947E-1,4.428233E0,-2.2674274E-1,2.1606928E-1,-1.878274E-1,7.608896E-1,-2.2737749E-1,2.330695E0,-7.902923E-2,1.3719312E0,1.0593189E0,-2.9014584E-1,-3.789345E-2,-7.8829E-2,3.4842372E-1,2.2811587E-1,5.053335E-2,-2.18784E-1,2.0705198E-1,1.4450864E-1,-1.2854297E-1,7.025975E0,-1.2332292E-1,-1.3967005E-2,-2.5767758E-1,2.8366182E0,-7.892911E-2,5.035541E-1,3.4818733E0,1.1943703E0,1.1943703E0,-1.6112034E-1,8.137947E0,4.544871E0,-2.5584787E-1,-1.4759465E-1,-2.2697842E-1,2.9015656E0,-7.734004E-2,-1.2332292E-1,1.1318801E1,8.831217E-1,-2.4000782E-1,2.0612271E-1,3.2046902E-1,1.7659824E-1,4.4910407E-1,2.3232844E-1,5.130148E-1,-6.459195E-2,3.5639516E-1,6.337816E-1,3.4515372E-1,-1.5381266E-1,2.0321238E-1,2.5227672E-1,-1.8383755E-1,6.1556464E-1,-2.1491377E-1,-1.7381938E-1,2.8281388E-1,1.0039809E0,3.0805537E-1,5.590333E-1,2.616261E-1],"split_indices":[772,5,355,490,6,613,327,591,210,0,495,237,4,3,339,6,567,7,6,0,0,96,97,0,0,0,0,766,0,402,208,345,362,0,0,0,0,664,5,0,0,93,0,204,3,0,0,6,6,3,0,0,0,0,0,0,0,365,402,0,0,164,3,0,0,16,16,0,352,736,0,374,0,668,355,402,0,179,5,0,0,0,0,0,0,0,0,0,0,0,0,0,0,0,0,0,0,0,0,0,0],"split_type":[0,0,0,0,0,0,0,0,0,0,0,0,0,0,0,0,0,0,0,0,0,0,0,0,0,0,0,0,0,0,0,0,0,0,0,0,0,0,0,0,0,0,0,0,0,0,0,0,0,0,0,0,0,0,0,0,0,0,0,0,0,0,0,0,0,0,0,0,0,0,0,0,0,0,0,0,0,0,0,0,0,0,0,0,0,0,0,0,0,0,0,0,0,0,0,0,0,0,0,0,0],"sum_hessian":[6.0743863E4,4.3633645E4,1.7110219E4,4.257945E4,1.0541956E3,1.6975482E4,1.3473534E2,4.0894336E4,1.6851132E3,1.0450968E3,9.098683E0,1.6968861E4,6.6206026E0,3.4907845E1,9.982749E1,4.030061E4,5.9372577E2,4.758549E0,1.6803546E3,7.043791E0,2.0548925E0,1.6949371E4,1.9491116E1,4.875859E0,1.7447436E0,3.3839806E1,1.0680394E0,9.775658E1,2.0709147E0,2.6348084E4,1.3952525E4,1.7402228E2,4.197035E2,2.962155E0,1.796394E0,4.5074905E2,1.2296056E3,1.6938629E4,1.0743065E1,1.6083485E1,3.4076297E0,3.4794724E0,9.42771E1,2.566586E4,6.822244E2,1.3940239E4,1.2285421E1,5.375016E1,1.2027212E2,3.7731204E2,4.2391438E1,1.693757E4,1.0582949E0,1.3367686E0,9.406297E0,2.356951E0,1.1225214E0,2.5514967E4,1.5089336E2,1.3564515E0,6.80868E2,1.3108651E4,8.315884E2,2.3676292E1,3.0073866E1,9.7815605E1,2.245651E1,1.9475728E0,3.7536447E2,2.4931201E4,5.837662E2,1.4422308E2,6.6702795E0,1.2982813E4,1.258379E2,1.7093675E2,6.606516E2,1.737388E1,1.26999855E1,9.112862E0,8.870274E1,2.733916E0,1.9722595E1,3.7103308E2,4.331396E0,2.4732074E4,1.9912587E2,3.8480923E1,1.0574216E2,1.2846125E4,1.3668805E2,1.1855468E2,7.283218E0,1.6287434E2,8.0624075E0,6.0768317E2,5.2968464E1,1.5834697E1,1.5391825E0,9.772749E0,2.9272366E0],"tree_param":{"num_deleted":"0","num_feature":"779","num_nodes":"101","size_leaf_vector":"1"}},{"base_weights":[0E0],"categories":[],"categories_nodes":[],"categories_segments":[],"categories_sizes":[],"default_left":[0],"id":37,"left_children":[-1],"loss_changes":[0E0],"parents":[2147483647],"right_children":[-1],"split_conditions":[0E0],"split_indices":[0],"split_type":[0],"sum_hessian":[0E0],"tree_param":{"num_deleted":"0","num_feature":"779","num_nodes":"1","size_leaf_vector":"1"}},{"base_weights":[1.5418468E-2,-3.595859E-1,1.0884575E0,-3.9143327E-1,1.0855753E0,1.1008627E0,-4.567033E-1,-3.5956034E-1,-1.1590056E0,2.2263685E-1,-5.59242E-1,1.1015153E0,-4.2386514E-1,2.1705909E-1,-9.8782414E-1,-3.8885292E-1,1.3933169E0,-1.1637278E0,2.1884936E-1,1.4291912E-1,-8.795137E-1,1.1020608E0,6.7964846E-1,-1.8352404E-1,1.4594613E-1,-1.0472907E0,1.3904878E-1,-4.0562055E-1,1.0045043E0,1.5298072E0,-1.0464066E0,-1.1662118E0,2.6228788E-1,-2.0095216E-1,-1.3126015E-2,1.1022052E0,5.642854E-1,2.1068648E-1,-2.2163676E-1,-1.0769432E0,1.3348866E-1,-2.4453598E-1,-5.542937E-1,2.4044695E-1,-2.2096427E-1,1.181378E0,2.023979E0,-2.2840734E-1,1.5781574E-1,-1.1686809E0,2.435672E-1,6.058444E-1,2.2279984E-1,-1.0064174E-1,1.8656653E-1,-2.221553E-1,6.280425E-2,-2.9038182E-1,3.4160426E-1,-5.616295E-1,4.069996E0,1.1350044E0,3.0654678E-1,2.1144233E0,2.2031821E-1,-1.1698009E0,4.6114992E-2,-6.0777925E-2,1.7768337E-1,-3.105912E-1,1.2231141E0,1.5001757E-1,7.4276036E-1,-5.7083154E-1,2.961723E0,5.136059E0,-2.0498453E-1,1.116718E0,3.858072E-1,2.1692805E0,3.1115913E-1,-2.4764179E-1,-2.3284003E-1,-6.397441E-2,3.8931644E-1,4.920341E-1,2.835181E-3,8.693905E-2,9.077721E-3,2.6770955E-1,1.09968305E-1,-1.1748616E-1,5.131191E-1,3.2155532E-1,1.0541084E0,1.098476E0,2.1366735E-1,2.2671479E-1,3.0977721E-3,3.8586476E-1,4.6797282E-1],"categories":[],"categories_nodes":[],"categories_segments":[],"categories_sizes":[],"default_left":[0,0,0,0,0,0,0,0,0,0,0,0,0,0,0,0,0,0,0,0,0,0,0,0,0,0,0,0,0,0,0,0,0,0,0,0,0,0,0,0,0,0,0,0,0,0,0,0,0,0,0,0,0,0,0,0,0,0,0,0,0,0,0,0,0,0,0,0,0,0,0,0,0,0,0,0,0,0,0,0,0,0,0,0,0,0,0,0,0,0,0,0,0,0,0,0,0,0,0,0,0],"id":38,"left_children":[1,3,5,7,9,11,13,15,17,-1,19,21,23,-1,25,27,29,31,-1,-1,33,35,37,-1,-1,39,-1,41,43,45,47,49,-1,-1,-1,51,53,-1,-1,55,-1,57,59,-1,-1,61,63,-1,-1,65,-1,67,-1,-1,-1,-1,-1,69,71,73,75,77,-1,79,-1,81,-1,-1,-1,83,85,87,89,91,93,95,-1,97,-1,99,-1,-1,-1,-1,-1,-1,-1,-1,-1,-1,-1,-1,-1,-1,-1,-1,-1,-1,-1,-1,-1],"loss_changes":[2.218951E4,1.8811255E3,2.7424023E2,9.77751E2,2.3750977E1,1.4560547E1,9.410072E1,1.9717261E3,1.8130127E1,0E0,4.325815E0,2.5136719E0,4.4187164E0,0E0,9.239418E0,8.826006E2,2.1179468E2,1.123999E1,0E0,0E0,6.5828466E-1,4.7070312E-1,1.4608459E1,0E0,0E0,4.9118958E0,0E0,8.9343604E2,1.758016E2,1.0060559E2,6.086487E0,1.0715576E1,0E0,0E0,0E0,2.8710938E-1,2.6872582E0,0E0,0E0,2.8660736E0,0E0,4.8137976E2,6.604712E2,0E0,0E0,3.7711182E0,1.8470398E1,0E0,0E0,2.7524414E0,0E0,1.769882E0,0E0,0E0,0E0,0E0,0E0,5.0846777E2,9.977844E1,6.297925E2,1.7242767E2,2.3156738E0,0E0,3.6986084E0,0E0,1.538086E-1,0E0,0E0,0E0,2.181731E2,3.2083652E2,2.5915573E1,4.780565E1,6.294624E2,1.4809894E2,2.5543457E1,0E0,1.6842651E0,0E0,3.2301025E0,0E0,0E0,0E0,0E0,0E0,0E0,0E0,0E0,0E0,0E0,0E0,0E0,0E0,0E0,0E0,0E0,0E0,0E0,0E0,0E0,0E0],"parents":[2147483647,0,0,1,1,2,2,3,3,4,4,5,5,6,6,7,7,8,8,10,10,11,11,12,12,14,14,15,15,16,16,17,17,20,20,21,21,22,22,25,25,27,27,28,28,29,29,30,30,31,31,35,35,36,36,39,39,41,41,42,42,45,45,46,46,49,49,51,51,57,57,58,58,59,59,60,60,61,61,63,63,65,65,69,69,70,70,71,71,72,72,73,73,74,74,75,75,77,77,79,79],"right_children":[2,4,6,8,10,12,14,16,18,-1,20,22,24,-1,26,28,30,32,-1,-1,34,36,38,-1,-1,40,-1,42,44,46,48,50,-1,-1,-1,52,54,-1,-1,56,-1,58,60,-1,-1,62,64,-1,-1,66,-1,68,-1,-1,-1,-1,-1,70,72,74,76,78,-1,80,-1,82,-1,-1,-1,84,86,88,90,92,94,96,-1,98,-1,100,-1,-1,-1,-1,-1,-1,-1,-1,-1,-1,-1,-1,-1,-1,-1,-1,-1,-1,-1,-1,-1],"split_conditions":[-2.673782E-1,-2.3541927E-1,3.0891535E0,1.149E0,-4.8611805E-1,3.5212646E0,2.7283457E-1,8.39536E-1,6.3910704E0,2.2263685E-1,-4.8453748E-1,6.2999016E-1,2.3988712E0,2.1705909E-1,1.7958175E-1,1.1228918E0,4.4944313E-1,6.758268E0,2.1884936E-1,1.4291912E-1,-3.0558085E-1,3.2475228E0,1.651262E0,-1.8352404E-1,1.4594613E-1,2.7592824E0,1.3904878E-1,-3.7440988E-1,1.925695E0,5.3569146E-2,3.221084E0,4.000727E0,2.6228788E-1,-2.0095216E-1,-1.3126015E-2,-1.7395468E-1,-2.3858954E-1,2.1068648E-1,-2.2163676E-1,-1.5441047E-2,1.3348866E-1,1.0036566E0,1.01628895E1,2.4044695E-1,-2.2096427E-1,5.3378844E0,-1.4914012E-1,-2.2840734E-1,1.5781574E-1,3.501378E-1,2.435672E-1,-7.8678824E-2,2.2279984E-1,-1.0064174E-1,1.8656653E-1,-2.221553E-1,6.280425E-2,1.0705109E0,-2.4028313E-1,1.6258806E1,3.5212646E0,8.137947E0,3.0654678E-1,7.6182165E0,2.2031821E-1,-1.8318221E-1,4.6114992E-2,-6.0777925E-2,1.7768337E-1,1.5732617E1,-7.8954145E-2,-5.094547E-1,-4.8611805E-1,1.5732617E1,-1.9102336E-1,3.085509E-1,-2.0498453E-1,1.9322017E0,3.858072E-1,-2.9014584E-1,3.1115913E-1,-2.4764179E-1,-2.3284003E-1,-6.397441E-2,3.8931644E-1,4.920341E-1,2.835181E-3,8.693905E-2,9.077721E-3,2.6770955E-1,1.09968305E-1,-1.1748616E-1,5.131191E-1,3.2155532E-1,1.0541084E0,1.098476E0,2.1366735E-1,2.2671479E-1,3.0977721E-3,3.8586476E-1,4.6797282E-1],"split_indices":[772,5,355,445,6,613,120,532,400,0,621,19,4,0,474,140,355,420,0,0,140,664,417,0,0,339,0,6,365,526,532,626,0,0,0,575,5,0,0,401,0,7,475,0,0,362,140,0,0,140,0,3,0,0,0,0,0,0,5,359,613,352,0,208,0,6,0,0,0,492,3,6,6,492,6,665,0,81,0,6,0,0,0,0,0,0,0,0,0,0,0,0,0,0,0,0,0,0,0,0,0],"split_type":[0,0,0,0,0,0,0,0,0,0,0,0,0,0,0,0,0,0,0,0,0,0,0,0,0,0,0,0,0,0,0,0,0,0,0,0,0,0,0,0,0,0,0,0,0,0,0,0,0,0,0,0,0,0,0,0,0,0,0,0,0,0,0,0,0,0,0,0,0,0,0,0,0,0,0,0,0,0,0,0,0,0,0,0,0,0,0,0,0,0,0,0,0,0,0,0,0,0,0,0,0],"sum_hessian":[5.5141727E4,4.0861992E4,1.4279735E4,3.9981637E4,8.803553E2,1.4166289E4,1.134465E2,3.8389027E4,1.5926097E3,8.722229E2,8.13237E0,1.4160507E4,5.7824855E0,2.8961153E1,8.448535E1,3.7758812E4,6.3021484E2,1.5897421E3,2.8676832E0,1.397756E0,6.7346144E0,1.4140608E4,1.989775E1,4.211023E0,1.5714629E0,8.195227E1,2.5330791E0,3.7310527E4,4.482849E2,5.971786E2,3.3036213E1,1.5886649E3,1.0771006E0,5.709814E0,1.0247998E0,1.4135764E4,4.8450775E0,1.6866295E1,3.0314558E0,8.091665E1,1.0356188E0,1.7909053E4,1.9401475E4,4.1232596E2,3.595896E1,3.5222403E2,2.4495459E2,3.195439E1,1.0818243E0,1.5875192E3,1.1457679E0,5.077073E0,1.4130687E4,1.1253818E0,3.7196956E0,7.98467E1,1.069949E0,1.6610354E4,1.2986992E3,1.9371621E4,2.9851767E1,3.1328238E2,3.894165E1,2.2217426E2,2.2780334E1,1.5864097E3,1.1095093E0,1.1527109E0,3.9243622E0,1.6392268E4,2.1808742E2,8.7986273E2,4.188365E2,1.9321996E4,4.9625946E1,2.4668936E1,5.1828294E0,3.084369E2,4.845475E0,2.0028957E2,2.1884693E1,3.6876865E2,1.217641E3,1.6349757E4,4.2510174E1,1.0843731E2,1.09650116E2,2.3921158E2,6.406511E2,1.0517718E2,3.1365933E2,1.9258082E4,6.3914066E1,3.191799E1,1.7707956E1,2.2675198E1,1.9937383E0,3.0702676E2,1.4101446E0,7.708825E1,1.2320131E2],"tree_param":{"num_deleted":"0","num_feature":"779","num_nodes":"101","size_leaf_vector":"1"}},{"base_weights":[0E0],"categories":[],"categories_nodes":[],"categories_segments":[],"categories_sizes":[],"default_left":[0],"id":39,"left_children":[-1],"loss_changes":[0E0],"parents":[2147483647],"right_children":[-1],"split_conditions":[0E0],"split_indices":[0],"split_type":[0],"sum_hessian":[0E0],"tree_param":{"num_deleted":"0","num_feature":"779","num_nodes":"1","size_leaf_vector":"1"}},{"base_weights":[1.6789025E-2,-3.082802E-1,1.0679572E0,-3.350013E-1,1.0644146E0,1.0801871E0,-4.402217E-1,-3.0610034E-1,-1.1518811E0,2.1844454E-1,-5.1414216E-1,1.0808527E0,-3.920159E-1,2.1147035E-1,-9.557973E-1,-3.310768E-1,1.5509057E0,1.3016277E-2,-1.1529427E0,1.3399474E-1,-8.253027E-1,1.0813843E0,5.957832E-1,-1.7485254E-1,1.3707192E-1,-1.0129412E0,1.5889503E-1,-2.3427954E-1,-5.389542E-1,1.157019E0,2.2916763E0,-2.4880861E-1,-1.1328979E0,-1.9203207E-1,-1.0816088E-2,1.0816826E0,5.6801707E-1,2.0191883E-1,-1.7522499E-1,-2.1731879E-1,1.2056189E-1,-2.903911E-1,1.5178922E-1,-5.489487E-1,2.6622672E0,1.1689389E0,-1.456458E-1,2.4217613E0,3.2421267E-1,-2.2910392E-1,-4.8363596E-2,2.1863697E-1,4.6855338E-2,-1.9399999E-1,1.9103253E-1,-2.667903E-1,-2.4094999E-1,1.2793286E-1,1.6379056E0,-5.618966E-1,1.9262748E0,2.0073593E0,1.2534947E0,1.148648E0,2.3297784E0,3.2274702E0,4.4406915E-1,-2.8005868E-1,2.1701462E0,1.16619006E-1,2.6268535E0,4.2672303E-1,1.2701212E0,-5.6678987E-1,5.828692E0,2.8427067E0,-2.6435763E-1,2.41481E0,-1.8181035E-1,1.2751234E0,2.186735E-1,1.6262376E-1,5.3895897E-1,3.808952E0,4.9797627E-1,-5.8699876E-2,3.382545E-1,4.5444605E-1,-1.7626232E-1,7.846745E-2,3.402549E-3,2.6621956E-1,7.9032844E-1,2.6314607E-1,5.8059357E-2,-1.1851231E-1,1.84867E-1,1.3242861E0,1.769833E-1,6.2206024E-1,-1.8787466E-1,-1.129704E-1,4.9115965E-1,5.315306E-1,1.968963E-1,2.8307387E-1,2.163683E-1,9.866788E-1,4.8241794E-1],"categories":[],"categories_nodes":[],"categories_segments":[],"categories_sizes":[],"default_left":[0,0,0,0,0,0,0,0,0,0,0,0,0,0,0,0,0,0,0,0,0,0,0,0,0,0,0,0,0,0,0,0,0,0,0,0,0,0,0,0,0,0,0,0,0,0,0,0,0,0,0,0,0,0,0,0,0,0,0,0,0,0,0,0,0,0,0,0,0,0,0,0,0,0,0,0,0,0,0,0,0,0,0,0,0,0,0,0,0,0,0,0,0,0,0,0,0,0,0,0,0,0,0,0,0,0,0,0,0],"id":40,"left_children":[1,3,5,7,9,11,13,15,17,-1,19,21,23,-1,25,27,29,-1,31,-1,33,35,37,-1,-1,39,-1,41,43,45,47,-1,49,-1,-1,51,53,-1,-1,-1,-1,55,57,59,61,63,-1,65,-1,-1,-1,-1,-1,-1,-1,67,-1,69,71,73,75,77,-1,79,81,83,-1,85,87,89,91,-1,93,95,97,99,101,103,-1,105,-1,-1,-1,107,-1,-1,-1,-1,-1,-1,-1,-1,-1,-1,-1,-1,-1,-1,-1,-1,-1,-1,-1,-1,-1,-1,-1,-1,-1],"loss_changes":[1.7169453E4,1.4080745E3,2.1938574E2,8.884263E2,1.9507019E1,1.1961914E1,7.471098E1,1.6870056E3,1.7344971E0,0E0,3.5523403E0,2.3886719E0,3.6521857E0,0E0,7.9566345E0,7.21843E2,1.382024E2,0E0,6.16333E-1,0E0,6.1716795E-1,1.1865234E0,9.778067E0,0E0,0E0,7.6664658E0,0E0,5.304E2,3.6615015E2,7.9411926E0,1.1013062E1,0E0,3.1481934E-1,0E0,0E0,3.642578E-1,6.0538282E0,0E0,0E0,0E0,0E0,4.5460242E2,1.09957565E2,3.6528052E2,7.0185104E1,4.7567444E0,0E0,1.7905457E1,0E0,0E0,0E0,0E0,0E0,0E0,0E0,6.7419116E2,0E0,8.618956E1,5.8510284E0,3.5683374E2,1.1992175E2,3.9552475E1,0E0,1.2543335E0,1.3967133E-1,3.0388489E0,0E0,4.2021765E2,2.8861328E1,8.256523E1,1.7949066E1,0E0,5.6765366E-1,3.280813E2,2.557486E1,4.004419E1,1.5981663E1,6.0968323E0,0E0,1.123352E0,0E0,0E0,0E0,9.785919E0,0E0,0E0,0E0,0E0,0E0,0E0,0E0,0E0,0E0,0E0,0E0,0E0,0E0,0E0,0E0,0E0,0E0,0E0,0E0,0E0,0E0,0E0,0E0,0E0,0E0],"parents":[2147483647,0,0,1,1,2,2,3,3,4,4,5,5,6,6,7,7,8,8,10,10,11,11,12,12,14,14,15,15,16,16,18,18,20,20,21,21,22,22,25,25,27,27,28,28,29,29,30,30,32,32,35,35,36,36,41,41,42,42,43,43,44,44,45,45,47,47,55,55,57,57,58,58,59,59,60,60,61,61,63,63,64,64,65,65,67,67,68,68,69,69,70,70,72,72,73,73,74,74,75,75,76,76,77,77,79,79,83,83],"right_children":[2,4,6,8,10,12,14,16,18,-1,20,22,24,-1,26,28,30,-1,32,-1,34,36,38,-1,-1,40,-1,42,44,46,48,-1,50,-1,-1,52,54,-1,-1,-1,-1,56,58,60,62,64,-1,66,-1,-1,-1,-1,-1,-1,-1,68,-1,70,72,74,76,78,-1,80,82,84,-1,86,88,90,92,-1,94,96,98,100,102,104,-1,106,-1,-1,-1,108,-1,-1,-1,-1,-1,-1,-1,-1,-1,-1,-1,-1,-1,-1,-1,-1,-1,-1,-1,-1,-1,-1,-1,-1,-1],"split_conditions":[-2.673782E-1,-2.3541927E-1,3.0891535E0,1.9970334E0,-4.8611805E-1,3.5212646E0,2.7283457E-1,2.3536703E-1,3.4741643E-1,2.1844454E-1,-4.8453748E-1,5.689739E-1,2.3988712E0,2.1147035E-1,2.7592824E0,3.7421465E-2,4.225621E0,1.3016277E-2,-1.8318221E-1,1.3399474E-1,5.55981E-1,3.2044203E0,5.0555706E-1,-1.7485254E-1,1.3707192E-1,-1.5441047E-2,1.5889503E-1,1.8481547E0,3.4392292E0,4.4944313E-1,1.6733515E0,-2.4880861E-1,-6.191101E-3,-1.9203207E-1,-1.0816088E-2,4.242951E0,-2.2674274E-1,2.0191883E-1,-1.7522499E-1,-2.1731879E-1,1.2056189E-1,7.231291E0,6.2669306E0,1.0153075E1,2.4986377E0,8.193226E-1,-1.456458E-1,-5.1236577E-2,3.2421267E-1,-2.2910392E-1,-4.8363596E-2,2.1863697E-1,4.6855338E-2,-1.9399999E-1,1.9103253E-1,4.386134E0,-2.4094999E-1,5.870398E0,-2.1096717E-1,9.423728E0,-1.1632718E-1,2.674336E0,1.2534947E0,6.118615E-1,4.6787273E-2,1.3719312E0,4.4406915E-1,3.1458654E0,-1.2332292E-1,-4.5838988E-1,-2.5721127E-1,4.2672303E-1,-2.4021639E-1,4.0852246E0,-7.897917E-2,1.8613944E0,1.1232691E0,2.2325662E-1,-1.8181035E-1,-9.245554E-2,2.186735E-1,1.6262376E-1,5.3895897E-1,-1.2356573E-1,4.9797627E-1,-5.8699876E-2,3.382545E-1,4.5444605E-1,-1.7626232E-1,7.846745E-2,3.402549E-3,2.6621956E-1,7.9032844E-1,2.6314607E-1,5.8059357E-2,-1.1851231E-1,1.84867E-1,1.3242861E0,1.769833E-1,6.2206024E-1,-1.8787466E-1,-1.129704E-1,4.9115965E-1,5.315306E-1,1.968963E-1,2.8307387E-1,2.163683E-1,9.866788E-1,4.8241794E-1],"split_indices":[772,5,355,450,6,613,120,89,93,0,621,237,4,0,339,6,89,0,6,0,246,96,97,0,0,401,0,748,78,355,0,0,385,0,0,664,5,0,0,0,0,402,433,461,607,770,0,491,0,0,0,0,0,0,0,0,0,97,6,294,93,638,0,316,6,0,0,204,402,6,6,0,5,202,3,748,768,164,0,274,0,0,0,409,0,0,0,0,0,0,0,0,0,0,0,0,0,0,0,0,0,0,0,0,0,0,0,0,0],"split_type":[0,0,0,0,0,0,0,0,0,0,0,0,0,0,0,0,0,0,0,0,0,0,0,0,0,0,0,0,0,0,0,0,0,0,0,0,0,0,0,0,0,0,0,0,0,0,0,0,0,0,0,0,0,0,0,0,0,0,0,0,0,0,0,0,0,0,0,0,0,0,0,0,0,0,0,0,0,0,0,0,0,0,0,0,0,0,0,0,0,0,0,0,0,0,0,0,0,0,0,0,0,0,0,0,0,0,0,0,0],"sum_hessian":[5.0244832E4,3.837747E4,1.1867361E4,3.7645414E4,7.320553E2,1.1772184E4,9.517725E1,3.636037E4,1.285043E3,7.248504E2,7.2049007E0,1.1767129E4,5.0545483E0,2.4244928E1,7.093233E1,3.5878633E4,4.817406E2,1.0685651E0,1.2839744E3,1.2699885E0,5.934912E0,1.17530205E4,1.4109046E1,3.6379719E0,1.4165765E0,6.908456E1,1.8477745E0,2.4481191E4,1.139744E4,3.16181E2,1.655596E2,2.4994598E2,1.0340284E3,4.9098654E0,1.0250471E0,1.1745089E4,7.931473E0,1.1308544E1,2.8005018E0,6.683034E1,2.2542193E0,2.1374807E4,3.106384E3,1.1362794E4,3.46472E1,3.145615E2,1.6195103E0,1.3709924E2,2.8460354E1,1.0330278E3,1.0005472E0,1.1743966E4,1.122995E0,1.2643735E0,6.6670995E0,2.0830912E4,5.438952E2,3.0583745E3,4.800944E1,1.1304433E4,5.83606E1,3.0560026E1,4.087177E0,3.111129E2,3.4485915E0,2.6977793E1,1.10121445E2,2.0718988E4,1.1192351E2,3.045632E3,1.2742419E1,1.8918564E1,2.9090878E1,1.1296694E4,7.738543E0,4.0937214E1,1.742339E1,2.6951588E1,3.6084368E0,1.0119154E2,2.0992136E2,1.2368299E0,2.2117617E0,1.3051689E1,1.3926104E1,2.0610447E4,1.085404E2,1.09369385E2,2.5541284E0,8.1750323E2,2.228129E3,7.3095894E0,5.43283E0,2.7863594E1,1.2272836E0,1.1150006E4,1.4668877E2,6.4705944E0,1.2679487E0,3.8709393E1,2.22782E0,1.6420685E1,1.0027033E0,2.273298E1,4.2186074E0,5.9109188E1,4.208235E1,6.0527997E0,6.998889E0],"tree_param":{"num_deleted":"0","num_feature":"779","num_nodes":"109","size_leaf_vector":"1"}},{"base_weights":[0E0],"categories":[],"categories_nodes":[],"categories_segments":[],"categories_sizes":[],"default_left":[0],"id":41,"left_children":[-1],"loss_changes":[0E0],"parents":[2147483647],"right_children":[-1],"split_conditions":[0E0],"split_indices":[0],"split_type":[0],"sum_hessian":[0E0],"tree_param":{"num_deleted":"0","num_feature":"779","num_nodes":"1","size_leaf_vector":"1"}},{"base_weights":[1.753485E-2,-2.6195332E-1,1.0517833E0,-2.8203768E-1,1.2188315E0,1.0638883E0,-4.2565215E-1,-2.5300834E-1,-1.134323E0,1.0367755E0,3.8346165E-1,1.0645733E0,-3.6219576E-1,1.0005249E0,-9.384856E-1,-2.5693747E-1,4.93461E0,-1.1408445E0,4.2862657E-1,1.0645126E0,-8.2504797E-1,1.0652337E0,6.1206144E-1,-1.6664165E-1,1.2895885E-1,2.0652159E-1,5.6422822E-2,2.8661093E-1,-1.0204656E0,-2.7222893E-1,9.424928E-1,1.9670567E-1,1.1676564E0,-1.1459311E0,2.2349232E-1,1.0798022E0,-1.7504993E-1,-1.9811337E-1,-3.3148325E-3,3.834467E-1,1.0654812E0,2.00127E-1,-2.0754722E-1,1.4295927E-1,-1.1508737E-1,-2.1260682E-1,5.9370607E-2,-1.302426E-1,-4.130502E-1,1.1439717E0,-1.0452822E0,-1.1477251E0,9.494939E-2,1.0587679E0,3.644329E-1,1.6380939E-1,-1.3520156E-1,2.1539144E-1,4.346001E-1,-1.5296713E-1,2.1479437E-1,-4.2100585E-1,3.3680625E0,2.329984E-1,-1.4153151E-1,-2.1560091E-1,-2.0850914E-2,-2.4780124E-1,-1.1136805E0,1.0647728E0,-4.0209796E-2,-1.12276584E-1,1.704654E-1,-1.6871037E-1,1.0415453E0,-4.3373165E-1,1.9423492E0,-1.2536159E-1,7.1229565E-1,-2.2526515E-1,-4.7762178E-2,2.1551657E-1,5.619796E-2,-4.127854E-2,4.9479578E-2,3.7272054E-1,8.616831E-4,-8.90611E-2,7.330787E-1,2.664041E-1,6.0171807E-1],"categories":[],"categories_nodes":[],"categories_segments":[],"categories_sizes":[],"default_left":[0,0,0,0,0,0,0,0,0,0,0,0,0,0,0,0,0,0,0,0,0,0,0,0,0,0,0,0,0,0,0,0,0,0,0,0,0,0,0,0,0,0,0,0,0,0,0,0,0,0,0,0,0,0,0,0,0,0,0,0,0,0,0,0,0,0,0,0,0,0,0,0,0,0,0,0,0,0,0,0,0,0,0,0,0,0,0,0,0,0,0],"id":42,"left_children":[1,3,5,7,9,11,13,15,17,19,-1,21,23,25,27,29,31,33,-1,35,37,39,41,-1,-1,-1,-1,43,45,47,49,-1,-1,51,-1,53,-1,-1,-1,55,57,-1,-1,-1,-1,-1,-1,59,61,63,65,67,-1,69,-1,-1,-1,-1,71,73,-1,75,77,-1,-1,-1,-1,-1,79,81,-1,-1,-1,83,85,87,89,-1,-1,-1,-1,-1,-1,-1,-1,-1,-1,-1,-1,-1,-1],"loss_changes":[1.3356873E4,1.0822341E3,1.7626465E2,8.877156E2,5.8179993E1,9.90918E0,5.9891144E1,7.087666E2,2.75094E1,2.0819946E1,0E0,2.2607422E0,3.035575E0,4.9367905E-2,6.298481E0,6.364221E2,8.22251E1,1.4754395E1,0E0,1.2179352E1,7.6578665E-1,1.2324219E0,1.1274969E1,0E0,0E0,0E0,0E0,2.0346794E0,2.6342125E0,6.847532E2,1.7615518E2,0E0,0E0,3.9536133E0,0E0,3.8475037E0,0E0,0E0,0E0,2.830843E0,7.9589844E-1,0E0,0E0,0E0,0E0,0E0,0E0,4.6253754E2,5.186592E2,7.2730103E0,7.1261597E-1,1.7729492E0,0E0,3.006958E0,0E0,0E0,0E0,0E0,2.4314997E0,3.1493646E2,0E0,5.16927E2,2.4737915E1,0E0,0E0,0E0,0E0,0E0,3.6206055E-1,1.4779663E-1,0E0,0E0,0E0,2.4272714E2,1.8136057E2,4.8077783E2,5.556015E1,0E0,0E0,0E0,0E0,0E0,0E0,0E0,0E0,0E0,0E0,0E0,0E0,0E0,0E0],"parents":[2147483647,0,0,1,1,2,2,3,3,4,4,5,5,6,6,7,7,8,8,9,9,11,11,12,12,13,13,14,14,15,15,16,16,17,17,19,19,20,20,21,21,22,22,27,27,28,28,29,29,30,30,33,33,35,35,39,39,40,40,47,47,48,48,49,49,50,50,51,51,53,53,58,58,59,59,61,61,62,62,68,68,69,69,73,73,74,74,75,75,76,76],"right_children":[2,4,6,8,10,12,14,16,18,20,-1,22,24,26,28,30,32,34,-1,36,38,40,42,-1,-1,-1,-1,44,46,48,50,-1,-1,52,-1,54,-1,-1,-1,56,58,-1,-1,-1,-1,-1,-1,60,62,64,66,68,-1,70,-1,-1,-1,-1,72,74,-1,76,78,-1,-1,-1,-1,-1,80,82,-1,-1,-1,84,86,88,90,-1,-1,-1,-1,-1,-1,-1,-1,-1,-1,-1,-1,-1,-1],"split_conditions":[-2.673782E-1,1.640705E-2,3.0891535E0,2.1457372E0,7.6512355E-1,3.5212646E0,2.1577902E0,1.9974306E1,1.5134811E-1,1.2435093E0,3.8346165E-1,2.618206E0,2.3988712E0,8.612883E-1,6.3044876E-1,-8.162518E-2,1.1943703E0,-9.2223085E-2,4.2862657E-1,4.914874E0,-2.3541927E-1,-1.7395468E-1,7.592582E-1,-1.6664165E-1,1.2895885E-1,2.0652159E-1,5.6422822E-2,1.2184073E0,7.767254E-1,-3.7440988E-1,1.925695E0,1.9670567E-1,1.1676564E0,5.8707256E0,2.2349232E-1,1.8209005E1,-1.7504993E-1,-1.9811337E-1,-3.3148325E-3,3.9634854E-1,3.2475228E0,2.00127E-1,-2.0754722E-1,1.4295927E-1,-1.1508737E-1,-2.1260682E-1,5.9370607E-2,-2.091144E-1,1.8445442E1,1.1986059E0,1.2526523E0,-1.8318221E-1,9.494939E-2,3.2197526E-1,3.644329E-1,1.6380939E-1,-1.3520156E-1,2.1539144E-1,-3.579308E-1,1.0705109E0,2.1479437E-1,4.611582E0,-1.351703E-1,2.329984E-1,-1.4153151E-1,-2.1560091E-1,-2.0850914E-2,-2.4780124E-1,5.053473E0,8.366746E0,-4.0209796E-2,-1.12276584E-1,1.704654E-1,3.5899174E-1,-7.892911E-2,8.43927E0,-5.5280373E-2,-1.2536159E-1,7.1229565E-1,-2.2526515E-1,-4.7762178E-2,2.1551657E-1,5.619796E-2,-4.127854E-2,4.9479578E-2,3.7272054E-1,8.616831E-4,-8.90611E-2,7.330787E-1,2.664041E-1,6.0171807E-1],"split_indices":[772,403,355,408,477,613,327,411,373,185,0,355,4,689,766,140,16,414,0,461,5,575,664,0,0,0,0,94,532,6,365,0,0,270,0,22,0,0,0,43,664,0,0,0,0,0,0,5,496,355,253,6,0,256,0,0,0,0,16,0,0,274,0,0,0,0,0,0,433,192,0,0,0,130,3,400,6,0,0,0,0,0,0,0,0,0,0,0,0,0,0],"split_type":[0,0,0,0,0,0,0,0,0,0,0,0,0,0,0,0,0,0,0,0,0,0,0,0,0,0,0,0,0,0,0,0,0,0,0,0,0,0,0,0,0,0,0,0,0,0,0,0,0,0,0,0,0,0,0,0,0,0,0,0,0,0,0,0,0,0,0,0,0,0,0,0,0,0,0,0,0,0,0,0,0,0,0,0,0,0,0,0,0,0,0],"sum_hessian":[4.6205973E4,3.6376566E4,9.829406E3,3.5890582E4,4.859856E2,9.749803E3,7.960276E1,3.470965E4,1.1809337E3,3.8515494E2,1.0083065E2,9.745376E3,4.427098E0,2.0801985E1,5.8800774E1,3.468433E4,2.5319529E1,1.1792206E3,1.713078E0,3.7992316E2,5.231794E0,9.729822E3,1.5553907E1,3.147907E0,1.2791908E0,1.9801462E1,1.0005226E0,3.5314357E0,5.5269337E1,3.424847E4,4.358585E2,4.818814E0,2.0500715E1,1.1770455E3,2.175094E0,3.7737518E2,2.5479558E0,4.211585E0,1.0202086E0,4.0928116E0,9.7257295E3,1.2959917E1,2.5939908E0,2.4842439E0,1.0471919E0,5.4172813E1,1.0965248E0,1.705465E4,1.719382E4,3.961315E2,3.9726994E1,1.1760294E3,1.0161178E0,3.69105E2,8.270188E0,3.0749435E0,1.017868E0,9.72188E3,3.849707E0,1.673671E4,3.179395E2,1.7158605E4,3.5213882E1,3.9461743E2,1.5140679E0,3.87137E1,1.0132922E0,3.4572696E2,8.303024E2,3.6750378E2,1.601235E0,1.0201375E0,2.8295696E0,1.6519844E4,2.1686664E2,1.706752E4,9.108572E1,1.2147052E0,3.399918E1,8.292217E2,1.0807533E0,3.6643463E2,1.0691409E0,1.5213475E4,1.3063691E3,1.2182883E2,9.50378E1,1.7039402E4,2.811812E1,5.822954E1,3.2856174E1],"tree_param":{"num_deleted":"0","num_feature":"779","num_nodes":"91","size_leaf_vector":"1"}},{"base_weights":[0E0],"categories":[],"categories_nodes":[],"categories_segments":[],"categories_sizes":[],"default_left":[0],"id":43,"left_children":[-1],"loss_changes":[0E0],"parents":[2147483647],"right_children":[-1],"split_conditions":[0E0],"split_indices":[0],"split_type":[0],"sum_hessian":[0E0],"tree_param":{"num_deleted":"0","num_feature":"779","num_nodes":"1","size_leaf_vector":"1"}},{"base_weights":[1.8061824E-2,-2.2105463E-1,1.0387866E0,-2.3846833E-1,1.3000759E0,1.0508546E0,-4.1172904E-1,-2.1123779E-1,-1.1134279E0,1.0143507E0,1.8804108E0,1.051565E0,-3.3413777E-1,2.0233858E-1,-9.062492E-1,-2.3036106E-1,1.60361E0,-1.1178626E0,2.3456322E-1,-1.8377693E-1,1.0380888E0,1.6390458E0,3.0131896E0,1.0522662E0,5.360895E-1,-1.5876399E-1,1.2149694E-1,-9.706036E-1,1.4233173E-1,-1.5188842E-1,-4.7800225E-1,1.094246E0,2.916801E0,3.1254E-1,-1.1253188E0,1.0571047E0,-3.9821294E-1,2.0269679E-1,3.396252E-1,6.594848E-1,1.6679303E-1,1.0525123E0,3.8865E-1,1.9325128E-1,-2.022926E-1,-2.100703E-1,1.02242425E-1,-1.7175108E-1,2.0763636E0,-5.1366377E-1,2.4498897E0,1.1494935E0,-1.941164E-1,3.0327067E0,3.2237077E-1,2.92741E-1,-1.8038023E-1,-2.4294502E-1,-2.2293516E-1,2.1417311E-1,4.635268E-2,-1.7058262E-1,9.170775E-2,4.2472348E-1,1.0527359E0,-1.0147952E-1,1.620325E-1,-1.9694181E-1,7.0229137E-1,1.7191715E0,5.0258822E0,-5.4771256E-1,3.702216E-1,3.6117056E-1,1.0029043E0,1.122577E0,4.724422E-1,3.5200183E0,2.5441248E0,1.5446664E-1,-7.7943794E-2,2.1281485E-1,6.147158E-1,-2.1159418E-1,1.2760969E0,8.281292E-1,-1.0571866E0,2.2934282E0,1.0688971E0,5.5363307E0,3.9582214E-1,-5.8147913E-1,1.8552787E0,1.3002111E0,2.1442954E-1,4.33513E0,2.348462E0,8.4328187E-1,4.5713115E-1,1.7138475E-1,-5.6311075E-2,-2.6463991E-2,-1.05607286E-1,2.1731272E-1,5.1500094E-1,7.780101E-2,2.820067E-1,-2.2604E-1,1.2700899E-1,6.845594E-1,3.532297E-1,-7.9377286E-2,2.2576393E-1,3.6311164E-1,1.2382431E0,-1.24757834E-1,3.2189324E-1,3.324381E-1,4.3366018E-1,2.8399786E-1,2.0057128E-1,3.3914748E-1,1.0492399E0,6.227455E-2,5.002316E-1],"categories":[],"categories_nodes":[],"categories_segments":[],"categories_sizes":[],"default_left":[0,0,0,0,0,0,0,0,0,0,0,0,0,0,0,0,0,0,0,0,0,0,0,0,0,0,0,0,0,0,0,0,0,0,0,0,0,0,0,0,0,0,0,0,0,0,0,0,0,0,0,0,0,0,0,0,0,0,0,0,0,0,0,0,0,0,0,0,0,0,0,0,0,0,0,0,0,0,0,0,0,0,0,0,0,0,0,0,0,0,0,0,0,0,0,0,0,0,0,0,0,0,0,0,0,0,0,0,0,0,0,0,0,0,0,0,0,0,0,0,0,0,0,0,0],"id":44,"left_children":[1,3,5,7,9,11,13,15,17,19,21,23,25,-1,27,29,31,33,-1,-1,35,37,39,41,43,-1,-1,45,-1,47,49,51,53,55,57,59,61,-1,-1,-1,-1,63,65,-1,-1,-1,-1,67,69,71,73,75,-1,77,-1,-1,-1,-1,-1,-1,-1,-1,-1,79,81,-1,-1,83,85,87,89,91,-1,-1,-1,93,-1,95,97,-1,-1,-1,99,101,103,105,107,109,111,113,-1,115,117,119,-1,121,123,-1,-1,-1,-1,-1,-1,-1,-1,-1,-1,-1,-1,-1,-1,-1,-1,-1,-1,-1,-1,-1,-1,-1,-1,-1,-1,-1,-1],"loss_changes":[1.0444366E4,9.1867456E2,1.4260449E2,8.164773E2,6.318622E1,8.277344E0,4.823033E1,1.1541771E3,1.1728394E1,1.3054779E1,3.0151337E1,2.3466797E0,2.5360584E0,0E0,5.9376945E0,6.3926624E2,2.287688E2,1.1368042E1,0E0,0E0,7.5892944E0,1.15271E0,8.972717E0,9.033203E-1,9.334496E0,0E0,0E0,5.517151E0,0E0,1.1061433E3,8.278071E2,2.964914E1,9.919373E0,9.694761E0,4.3249512E-1,3.0508423E-1,1.9612144E0,0E0,0E0,0E0,0E0,6.826172E-1,2.082016E0,0E0,0E0,0E0,0E0,5.4539923E2,2.2400354E2,6.256306E2,1.5006372E2,5.2210083E0,0E0,1.1864197E1,0E0,0E0,0E0,0E0,0E0,0E0,0E0,0E0,0E0,1.5431882E0,6.25E-2,0E0,0E0,5.198204E2,1.545252E2,7.166852E1,2.5692627E1,6.2671875E2,0E0,0E0,0E0,1.2688293E0,0E0,2.9135986E1,1.2297852E1,0E0,0E0,0E0,1.5092075E0,5.976804E2,5.7881622E1,1.6239374E2,5.5251427E0,5.6467102E1,7.1157074E0,3.1931152E1,0E0,5.925591E2,3.014862E0,4.7476196E-1,0E0,4.3834106E1,4.1614E0,0E0,0E0,0E0,0E0,0E0,0E0,0E0,0E0,0E0,0E0,0E0,0E0,0E0,0E0,0E0,0E0,0E0,0E0,0E0,0E0,0E0,0E0,0E0,0E0,0E0,0E0,0E0,0E0],"parents":[2147483647,0,0,1,1,2,2,3,3,4,4,5,5,6,6,7,7,8,8,9,9,10,10,11,11,12,12,14,14,15,15,16,16,17,17,20,20,21,21,22,22,23,23,24,24,27,27,29,29,30,30,31,31,32,32,33,33,34,34,35,35,36,36,41,41,42,42,47,47,48,48,49,49,50,50,51,51,53,53,63,63,64,64,67,67,68,68,69,69,70,70,71,71,75,75,77,77,78,78,82,82,83,83,84,84,85,85,86,86,87,87,88,88,89,89,91,91,92,92,93,93,95,95,96,96],"right_children":[2,4,6,8,10,12,14,16,18,20,22,24,26,-1,28,30,32,34,-1,-1,36,38,40,42,44,-1,-1,46,-1,48,50,52,54,56,58,60,62,-1,-1,-1,-1,64,66,-1,-1,-1,-1,68,70,72,74,76,-1,78,-1,-1,-1,-1,-1,-1,-1,-1,-1,80,82,-1,-1,84,86,88,90,92,-1,-1,-1,94,-1,96,98,-1,-1,-1,100,102,104,106,108,110,112,114,-1,116,118,120,-1,122,124,-1,-1,-1,-1,-1,-1,-1,-1,-1,-1,-1,-1,-1,-1,-1,-1,-1,-1,-1,-1,-1,-1,-1,-1,-1,-1,-1,-1],"split_conditions":[-2.673782E-1,-2.4027353E-2,3.0891535E0,1.8401126E0,1.2099053E0,3.5212646E0,2.7283457E-1,5.74377E-1,1.02814674E-1,-4.3416342E-1,-8.716453E-2,6.2999016E-1,2.3988712E0,2.0233858E-1,2.7592824E0,1.1943703E0,1.1943703E0,7.509718E-1,2.3456322E-1,-1.8377693E-1,5.4146177E-1,1.1943703E0,-1.376922E-1,3.2475228E0,1.651262E0,-1.5876399E-1,1.2149694E-1,-1.5441047E-2,1.4233173E-1,-1.351703E-1,1.5732617E1,7.8171265E-1,-6.652154E-2,8.634654E-1,-1.8318221E-1,1.298985E0,-2.3772189E-1,2.0269679E-1,3.396252E-1,6.594848E-1,1.6679303E-1,-1.7395468E-1,-2.3701274E-1,1.9325128E-1,-2.022926E-1,-2.100703E-1,1.02242425E-1,1.3474572E0,1.4424576E0,1.5121504E1,-9.5389724E-2,1.1999559E0,-1.941164E-1,3.9372977E-2,3.2237077E-1,2.92741E-1,-1.8038023E-1,-2.4294502E-1,-2.2293516E-1,2.1417311E-1,4.635268E-2,-1.7058262E-1,9.170775E-2,1.0754721E0,2.8610253E0,-1.0147952E-1,1.620325E-1,2.9015656E0,1.3736568E-1,-6.2409755E-2,3.0297427E0,-5.551478E-2,3.702216E-1,3.6117056E-1,1.0029043E0,-6.652154E-2,4.724422E-1,-2.4024141E-1,-3.9383337E-1,1.5446664E-1,-7.7943794E-2,2.1281485E-1,-7.842853E-2,2.4982029E-1,1.305297E1,-4.3416342E-1,7.0474563E0,9.198007E-1,4.939365E-1,-4.1870108E-1,3.9582214E-1,-9.245554E-2,-2.5721127E-1,-1.0552296E-1,2.1442954E-1,-3.655744E-1,6.183804E-1,8.4328187E-1,4.5713115E-1,1.7138475E-1,-5.6311075E-2,-2.6463991E-2,-1.05607286E-1,2.1731272E-1,5.1500094E-1,7.780101E-2,2.820067E-1,-2.2604E-1,1.2700899E-1,6.845594E-1,3.532297E-1,-7.9377286E-2,2.2576393E-1,3.6311164E-1,1.2382431E0,-1.24757834E-1,3.2189324E-1,3.324381E-1,4.3366018E-1,2.8399786E-1,2.0057128E-1,3.3914748E-1,1.0492399E0,6.227455E-2,5.002316E-1],"split_indices":[772,359,355,421,477,613,120,246,292,7,6,19,4,0,339,16,16,651,0,0,70,16,4,664,417,0,0,401,0,0,492,355,316,733,6,176,5,0,0,0,0,575,5,0,0,0,0,703,533,491,6,106,0,496,0,0,0,0,0,0,0,0,0,185,355,0,0,668,355,2,0,417,0,0,0,316,0,5,6,0,0,0,3,6,486,7,433,0,129,6,0,274,6,526,0,6,0,0,0,0,0,0,0,0,0,0,0,0,0,0,0,0,0,0,0,0,0,0,0,0,0,0,0,0,0],"split_type":[0,0,0,0,0,0,0,0,0,0,0,0,0,0,0,0,0,0,0,0,0,0,0,0,0,0,0,0,0,0,0,0,0,0,0,0,0,0,0,0,0,0,0,0,0,0,0,0,0,0,0,0,0,0,0,0,0,0,0,0,0,0,0,0,0,0,0,0,0,0,0,0,0,0,0,0,0,0,0,0,0,0,0,0,0,0,0,0,0,0,0,0,0,0,0,0,0,0,0,0,0,0,0,0,0,0,0,0,0,0,0,0,0,0,0,0,0,0,0,0,0,0,0,0,0],"sum_hessian":[4.279019E4,3.4669297E4,8.120895E3,3.4277734E4,3.915638E2,8.0541626E3,6.673261E1,3.324434E4,1.0333914E3,2.642228E2,1.2734101E2,8.0502734E3,3.8888862E0,1.7036184E1,4.9696426E1,3.289856E4,3.4578308E2,1.0318873E3,1.5039899E0,2.766124E0,2.6145667E2,1.06991005E2,2.0350006E1,8.0382974E3,1.1976119E1,2.7309852E0,1.157901E0,4.81689E1,1.5275266E0,2.4983416E4,7.915143E3,2.5046521E2,9.531786E1,5.138779E0,1.0267485E3,2.5830093E2,3.1557505E0,8.064925E0,9.892608E1,1.7824293E1,2.5257123E0,8.0347324E3,3.5650456E0,9.702357E0,2.2737615E0,4.6308475E1,1.8604227E0,2.4763596E4,2.1982022E2,7.820712E3,9.443118E1,2.4433588E2,6.129336E0,8.644356E1,8.874308E0,2.5413244E0,2.5974545E0,2.19447E2,8.073016E2,2.5722726E2,1.0736728E0,2.0778768E0,1.0778736E0,3.5375478E0,8.031195E3,1.0610989E0,2.5039468E0,2.407063E4,6.929634E2,1.9748705E2,2.2333178E1,7.7095566E3,1.1115532E2,7.606862E1,1.8362558E1,2.4082445E2,3.511439E0,4.0171726E1,4.627183E1,2.5331225E0,1.0044252E0,8.0260854E3,5.109458E0,2.3834406E4,2.3622534E2,6.4720465E2,4.5758736E1,1.0353158E2,9.3955475E1,1.8456976E1,3.8762002E0,7.603471E3,1.0608509E2,5.687072E1,1.8395372E2,2.2097233E1,1.8074495E1,4.8032317E0,4.1468597E1,4.0918865E0,1.0175717E0,1.8925979E4,4.9084287E3,2.055968E2,3.062855E1,3.6424527E2,2.8295938E2,4.4480637E1,1.2780977E0,3.2734814E1,7.079676E1,2.7656903E0,9.118978E1,3.0665932E0,1.5390384E1,7.4810625E3,1.2240857E2,6.536318E1,4.072191E1,3.975698E1,1.7113735E1,6.106224E0,1.5991008E1,1.2559216E0,1.6818573E1],"tree_param":{"num_deleted":"0","num_feature":"779","num_nodes":"125","size_leaf_vector":"1"}},{"base_weights":[0E0],"categories":[],"categories_nodes":[],"categories_segments":[],"categories_sizes":[],"default_left":[0],"id":45,"left_children":[-1],"loss_changes":[0E0],"parents":[2147483647],"right_children":[-1],"split_conditions":[0E0],"split_indices":[0],"split_type":[0],"sum_hessian":[0E0],"tree_param":{"num_deleted":"0","num_feature":"779","num_nodes":"1","size_leaf_vector":"1"}},{"base_weights":[1.7568463E-2,-1.8665807E-1,1.0283498E0,-1.6028592E-1,-1.0783434E0,1.0409948E0,-3.3202016E-1,-1.8190749E-1,1.2580855E0,-1.0846891E0,3.0967006E-1,1.0415806E0,-2.1218133E-1,-8.982968E-1,9.584551E-1,-1.954313E-1,1.2809469E0,1.3735241E0,-9.525424E-1,-1.0891135E0,2.5522175E-1,3.0938572E-1,1.0419164E0,-1.4016482E-1,1.1460767E-1,-9.9185795E-1,4.615535E-1,2.0098802E-1,4.405454E-2,-1.24577835E-1,-4.6732625E-1,9.8879933E-1,1.7052809E0,1.0945965E0,1.6305909E0,1.579362E-1,-2.1445009E-1,-1.092935E0,1.4703223E-1,1.5241653E-1,-1.2353423E-1,1.0422118E0,3.4811902E-1,-2.0764321E-1,3.91695E-2,1.396121E-1,-1.0347236E-2,-1.4740305E-1,2.30778E0,-5.501968E-1,5.0648457E-1,2.098622E-1,-5.398146E-1,1.5729485E0,2.1753385E0,1.0995327E0,2.689052E-2,1.6654214E0,1.9847876E-1,-2.2119868E-1,3.1333774E-2,1.0426311E0,6.05874E-1,-1.0687285E-1,1.5642579E-1,-1.5160006E-1,3.4329946E0,1.5213194E0,2.8396602E0,-5.734464E-1,3.2908921E0,1.4766228E0,-2.2590615E-1,1.23425834E-1,-1.8949421E-1,1.7460069E-1,3.2308865E-1,1.3315429E-1,4.5518515E-1,1.1020266E0,5.7079934E-2,1.705185E0,2.037194E-1,2.1075965E-1,4.454103E-1,1.8332148E-1,-1.3509236E-1,-1.0479665E-1,-4.5568827E-1,3.9341934E0,4.4751757E-1,3.1040454E-1,8.870213E-2,3.0903542E0,2.1124017E0,-6.1207813E-1,1.6781013E0,4.2062173E0,-2.0093612E-1,2.066285E0,-2.2598009E-1,1.2261834E0,2.113622E-1,3.1052715E-1,1.7928132E0,1.1808854E-1,1.3378407E-2,-2.3588577E-2,2.1410137E-1,-1.0051951E-1,1.8177338E-1,1.1982984E-1,9.0560025E-1,1.7454809E-1,-1.1473398E-1,4.944053E-1,7.0521396E-1,4.988794E-1,3.388003E-1,-1.3085026E-1,3.6950237E-1,4.4599064E-2,3.4188008E-1,8.86886E-1,1.479498E-1,4.576345E-1,3.4653687E-1,2.6804775E-1,2.02681E-1,3.702689E-1,2.422258E-1],"categories":[],"categories_nodes":[],"categories_segments":[],"categories_sizes":[],"default_left":[0,0,0,0,0,0,0,0,0,0,0,0,0,0,0,0,0,0,0,0,0,0,0,0,0,0,0,0,0,0,0,0,0,0,0,0,0,0,0,0,0,0,0,0,0,0,0,0,0,0,0,0,0,0,0,0,0,0,0,0,0,0,0,0,0,0,0,0,0,0,0,0,0,0,0,0,0,0,0,0,0,0,0,0,0,0,0,0,0,0,0,0,0,0,0,0,0,0,0,0,0,0,0,0,0,0,0,0,0,0,0,0,0,0,0,0,0,0,0,0,0,0,0,0,0,0,0,0,0,0,0],"id":46,"left_children":[1,3,5,7,9,11,13,15,17,19,-1,21,23,25,27,29,31,33,35,37,-1,39,41,-1,-1,43,45,-1,-1,47,49,51,53,55,57,-1,-1,59,-1,-1,-1,61,63,-1,-1,-1,-1,65,67,69,71,-1,73,75,77,79,-1,81,-1,-1,-1,83,85,-1,-1,87,89,91,93,95,97,99,-1,-1,-1,-1,-1,-1,-1,101,-1,103,-1,-1,105,-1,-1,107,109,111,113,-1,-1,115,117,119,121,123,-1,125,-1,127,-1,-1,129,-1,-1,-1,-1,-1,-1,-1,-1,-1,-1,-1,-1,-1,-1,-1,-1,-1,-1,-1,-1,-1,-1,-1,-1,-1,-1],"loss_changes":[8.22416E3,7.792239E2,1.1553955E2,9.8749963E2,1.7430786E1,5.0913086E0,4.648379E1,6.275868E2,1.24694336E2,1.12438965E1,0E0,1.3095703E0,1.8675077E0,6.0440636E0,3.0324745E-1,6.0525195E2,3.4339294E1,3.1192688E1,5.4539776E0,7.3824463E0,0E0,2.288135E0,9.9560547E-1,0E0,0E0,1.9412346E0,4.477371E-1,0E0,0E0,1.384249E3,5.244248E2,1.3771439E1,3.8631897E0,9.150696E-1,3.7251587E0,0E0,0E0,1.923584E0,0E0,0E0,0E0,5.800781E-1,2.0231495E0,0E0,0E0,0E0,0E0,3.716261E2,9.2641235E1,5.3646497E2,8.0508203E2,0E0,3.3795435E0,3.427124E-1,1.2075729E0,1.418457E-1,0E0,4.1314087E0,0E0,0E0,0E0,8.3496094E-2,3.9637268E0,0E0,0E0,3.510359E2,4.1569E1,8.234863E-1,1.8472778E1,5.1864575E2,1.4602188E2,4.913739E2,0E0,0E0,0E0,0E0,0E0,0E0,0E0,2.6409912E-1,0E0,3.451538E-1,0E0,0E0,1.3407248E-1,0E0,0E0,2.9657785E2,1.8612482E2,4.2378815E1,2.7251518E0,0E0,0E0,1.7108582E1,1.8089905E0,5.0558862E2,1.59375E0,1.5729797E1,0E0,1.4276245E1,0E0,8.300018E-2,0E0,0E0,8.753967E-1,0E0,0E0,0E0,0E0,0E0,0E0,0E0,0E0,0E0,0E0,0E0,0E0,0E0,0E0,0E0,0E0,0E0,0E0,0E0,0E0,0E0,0E0,0E0,0E0,0E0,0E0],"parents":[2147483647,0,0,1,1,2,2,3,3,4,4,5,5,6,6,7,7,8,8,9,9,11,11,12,12,13,13,14,14,15,15,16,16,17,17,18,18,19,19,21,21,22,22,25,25,26,26,29,29,30,30,31,31,32,32,33,33,34,34,37,37,41,41,42,42,47,47,48,48,49,49,50,50,52,52,53,53,54,54,55,55,57,57,61,61,62,62,65,65,66,66,67,67,68,68,69,69,70,70,71,71,79,79,81,81,84,84,87,87,88,88,89,89,90,90,93,93,94,94,95,95,96,96,97,97,99,99,101,101,104,104],"right_children":[2,4,6,8,10,12,14,16,18,20,-1,22,24,26,28,30,32,34,36,38,-1,40,42,-1,-1,44,46,-1,-1,48,50,52,54,56,58,-1,-1,60,-1,-1,-1,62,64,-1,-1,-1,-1,66,68,70,72,-1,74,76,78,80,-1,82,-1,-1,-1,84,86,-1,-1,88,90,92,94,96,98,100,-1,-1,-1,-1,-1,-1,-1,102,-1,104,-1,-1,106,-1,-1,108,110,112,114,-1,-1,116,118,120,122,124,-1,126,-1,128,-1,-1,130,-1,-1,-1,-1,-1,-1,-1,-1,-1,-1,-1,-1,-1,-1,-1,-1,-1,-1,-1,-1,-1,-1,-1,-1,-1,-1],"split_conditions":[-2.673782E-1,1.2702647E0,2.8610253E0,8.39536E-1,6.989985E0,3.5212646E0,7.690625E-1,9.954082E-2,1.7113265E0,4.000727E0,3.0967006E-1,-1.7395468E-1,2.3988712E0,2.1116948E-1,6.4690704E0,-7.9004206E-2,1.9647453E0,5.3569146E-2,2.9750147E-1,6.3910704E0,2.5522175E-1,1.5299752E-1,3.2475228E0,-1.4016482E-1,1.1460767E-1,-1.5441047E-2,4.9370434E-2,2.0098802E-1,4.405454E-2,3.1696013E-1,3.0297427E0,-4.3821952E-1,-3.789345E-2,1.9322017E0,-2.3904839E-1,1.579362E-1,-2.1445009E-1,2.821463E-1,1.4703223E-1,1.5241653E-1,-1.2353423E-1,5.689739E-1,-3.579308E-1,-2.0764321E-1,3.91695E-2,1.396121E-1,-1.0347236E-2,6.530399E0,-3.7440988E-1,9.712189E0,1.7976965E-1,2.098622E-1,-7.902923E-2,1.1943703E0,1.1943703E0,2.1871006E0,2.689052E-2,-1.4914012E-1,1.9847876E-1,-2.2119868E-1,3.1333774E-2,1.0469163E1,5.0555706E-1,-1.0687285E-1,