{"learner":{"attributes":{},"feature_names":[],"feature_types":[],"gradient_booster":{"model":{"gbtree_model_param":{"num_parallel_tree":"1","num_trees":"81"},"iteration_indptr":[0,1,2,3,4,5,6,7,8,9,10,11,12,13,14,15,16,17,18,19,20,21,22,23,24,25,26,27,28,29,30,31,32,33,34,35,36,37,38,39,40,41,42,43,44,45,46,47,48,49,50,51,52,53,54,55,56,57,58,59,60,61,62,63,64,65,66,67,68,69,70,71,72,73,74,75,76,77,78,79,80,81],"tree_info":[0,0,0,0,0,0,0,0,0,0,0,0,0,0,0,0,0,0,0,0,0,0,0,0,0,0,0,0,0,0,0,0,0,0,0,0,0,0,0,0,0,0,0,0,0,0,0,0,0,0,0,0,0,0,0,0,0,0,0,0,0,0,0,0,0,0,0,0,0,0,0,0,0,0,0,0,0,0,0,0,0],"trees":[{"base_weights":[-1.6382793E-2,1.657037E0,-9.930862E-1,9.164285E-1,3.4071106E-2,-1.6445003E0,2.8963032E-1,-7.073272E-3,3.17912E-2,-2.1448446E-2,-3.321126E-2,3.3197086E-2,-3.2443583E-2],"categories":[],"categories_nodes":[],"categories_segments":[],"categories_sizes":[],"default_left":[0,0,0,0,0,0,0,0,0,0,0,0,0],"id":0,"left_children":[1,3,5,7,-1,9,11,-1,-1,-1,-1,-1,-1],"loss_changes":[2.585987E2,1.091008E1,8.394811E1,2.2788471E1,0E0,4.7765503E0,1.228994E2,0E0,0E0,0E0,0E0,0E0,0E0],"parents":[2147483647,0,0,1,1,2,2,3,3,5,5,6,6],"right_children":[2,4,6,8,-1,10,12,-1,-1,-1,-1,-1,-1],"split_conditions":[-1.2603487E0,-1.6801775E-1,-1.3812028E-1,-2.3865697E-1,3.4071106E-2,-2.5075623E-1,-2.507355E-1,-7.073272E-3,3.17912E-2,-2.1448446E-2,-3.321126E-2,3.3197086E-2,-3.2443583E-2],"split_indices":[15,2,8,17,0,18,18,0,0,0,0,0,0],"split_type":[0,0,0,0,0,0,0,0,0,0,0,0,0],"sum_hessian":[1.5621222E2,5.7315323E1,9.889689E1,1.7457481E1,3.9857845E1,6.540142E1,3.349547E1,7.3158555E0,1.0141625E1,2.7188866E1,3.8212555E1,1.9201979E1,1.42934885E1],"tree_param":{"num_deleted":"0","num_feature":"40","num_nodes":"13","size_leaf_vector":"1"}},{"base_weights":[3.54123E-2,1.4399451E0,-9.4458544E-1,3.2466542E-2,3.7344804E-1,-1.6683419E0,3.166565E-1,-1.43526355E-2,3.0642236E-2,-3.094091E-2,-1.0162586E-2,3.2652408E-2,-3.182578E-2],"categories":[],"categories_nodes":[],"categories_segments":[],"categories_sizes":[],"default_left":[0,0,0,0,0,0,0,0,0,0,0,0,0],"id":1,"left_children":[1,3,5,-1,7,9,11,-1,-1,-1,-1,-1,-1],"loss_changes":[2.1223283E2,2.7633453E1,8.3452225E1,0E0,3.302571E1,5.474472E0,1.1624565E2,0E0,0E0,0E0,0E0,0E0,0E0],"parents":[2147483647,0,0,1,1,2,2,4,4,5,5,6,6],"right_children":[2,4,6,-1,8,10,12,-1,-1,-1,-1,-1,-1],"split_conditions":[-2.5075626E-1,-8.546532E-1,-1.3812028E-1,3.2466542E-2,-1.3812092E-1,-1.8868646E-1,-2.507355E-1,-1.43526355E-2,3.0642236E-2,-3.094091E-2,-1.0162586E-2,3.2652408E-2,-3.182578E-2],"split_indices":[18,10,8,0,8,17,18,0,0,0,0,0,0],"split_type":[0,0,0,0,0,0,0,0,0,0,0,0,0],"sum_hessian":[1.5220164E2,6.235916E1,8.984248E1,4.4229927E1,1.8129232E1,5.687965E1,3.2962833E1,9.935763E0,8.193469E0,5.1357788E1,5.5218625E0,1.9170012E1,1.3792823E1],"tree_param":{"num_deleted":"0","num_feature":"40","num_nodes":"13","size_leaf_vector":"1"}},{"base_weights":[2.1424214E-4,1.558296E0,-9.421253E-1,7.7543205E-1,3.2975417E-2,-2.958092E-1,-1.3248298E0,-8.082989E-3,3.0763289E-2,-1.4601104E-2,2.9786056E-2,-3.287823E-2,-6.5270714E-3],"categories":[],"categories_nodes":[],"categories_segments":[],"categories_sizes":[],"default_left":[0,0,0,0,0,0,0,0,0,0,0,0,0],"id":2,"left_children":[1,3,5,7,-1,9,11,-1,-1,-1,-1,-1,-1],"loss_changes":[2.3038858E2,1.3813873E1,2.379329E1,2.4302979E1,0E0,4.2143906E1,3.1730133E1,0E0,0E0,0E0,0E0,0E0,0E0],"parents":[2147483647,0,0,1,1,2,2,3,3,5,5,6,6],"right_children":[2,4,6,8,-1,10,12,-1,-1,-1,-1,-1,-1],"split_conditions":[-1.2603487E0,-1.6801775E-1,-2.5075623E-1,-1.1694726E0,3.2975417E-2,3.1373057E0,-2.50748E-1,-8.082989E-3,3.0763289E-2,-1.4601104E-2,2.9786056E-2,-3.287823E-2,-6.5270714E-3],"split_indices":[15,2,18,9,0,12,18,0,0,0,0,0,0],"split_type":[0,0,0,0,0,0,0,0,0,0,0,0,0],"sum_hessian":[1.5491464E2,5.81367E1,9.677794E1,1.8233097E1,3.9903603E1,3.6652195E1,6.0125744E1,8.318646E0,9.914452E0,2.9319502E1,7.3326936E0,3.727811E1,2.2847637E1],"tree_param":{"num_deleted":"0","num_feature":"40","num_nodes":"13","size_leaf_vector":"1"}},{"base_weights":[-9.485794E-3,1.4212534E0,-9.584534E-1,1.6088543E0,-1.0148657E-2,-2.2514918E-1,-1.3214703E0,1.6676767E-2,3.2459535E-2,-1.4547457E-2,2.9301284E-2,-3.232334E-2,-5.6134257E-3],"categories":[],"categories_nodes":[],"categories_segments":[],"categories_sizes":[],"default_left":[0,0,0,0,0,0,0,0,0,0,0,0,0],"id":3,"left_children":[1,3,5,7,-1,9,11,-1,-1,-1,-1,-1,-1],"loss_changes":[2.1369077E2,2.4513039E1,2.4890503E1,7.646179E0,0E0,3.90378E1,3.2808388E1,0E0,0E0,0E0,0E0,0E0,0E0],"parents":[2147483647,0,0,1,1,2,2,3,3,5,5,6,6],"right_children":[2,4,6,8,-1,10,12,-1,-1,-1,-1,-1,-1],"split_conditions":[-2.5075626E-1,4.5915294E0,-2.5075623E-1,-1.8450342E-1,-1.0148657E-2,3.1373057E0,-2.50748E-1,1.6676767E-2,3.2459535E-2,-1.4547457E-2,2.9301284E-2,-3.232334E-2,-5.6134257E-3],"split_indices":[18,14,18,3,0,12,18,0,0,0,0,0,0],"split_type":[0,0,0,0,0,0,0,0,0,0,0,0,0],"sum_hessian":[1.5538551E2,6.17654E1,9.362012E1,5.665414E1,5.1112585E0,3.153624E1,6.2083878E1,1.6998878E1,3.9655262E1,2.4327522E1,7.208718E0,4.0035057E1,2.204882E1],"tree_param":{"num_deleted":"0","num_feature":"40","num_nodes":"13","size_leaf_vector":"1"}},{"base_weights":[-2.5707992E-2,1.537713E0,-9.35852E-1,8.203978E-1,3.1961955E-2,-1.548178E0,2.7786532E-1,-7.1286247E-3,3.0091342E-2,-1.9886414E-2,-3.1222967E-2,3.196998E-2,-3.1235306E-2],"categories":[],"categories_nodes":[],"categories_segments":[],"categories_sizes":[],"default_left":[0,0,0,0,0,0,0,0,0,0,0,0,0],"id":4,"left_children":[1,3,5,7,-1,9,11,-1,-1,-1,-1,-1,-1],"loss_changes":[2.2543681E2,1.073317E1,7.4837494E1,2.1446323E1,0E0,4.5112762E0,1.1373142E2,0E0,0E0,0E0,0E0,0E0,0E0],"parents":[2147483647,0,0,1,1,2,2,3,3,5,5,6,6],"right_children":[2,4,6,8,-1,10,12,-1,-1,-1,-1,-1,-1],"split_conditions":[-1.2603487E0,-1.6801775E-1,-1.3812028E-1,-1.3812092E-1,3.1961955E-2,-2.5075623E-1,-2.507355E-1,-7.1286247E-3,3.0091342E-2,-1.9886414E-2,-3.1222967E-2,3.196998E-2,-3.1235306E-2],"split_indices":[15,2,8,8,0,18,18,0,0,0,0,0,0],"split_type":[0,0,0,0,0,0,0,0,0,0,0,0,0],"sum_hessian":[1.5641914E2,5.730044E1,9.91187E1,1.7701889E1,3.9598553E1,6.569812E1,3.3420574E1,7.729784E0,9.972106E0,2.638936E1,3.930876E1,1.914694E1,1.4273633E1],"tree_param":{"num_deleted":"0","num_feature":"40","num_nodes":"13","size_leaf_vector":"1"}},{"base_weights":[1.0296525E-2,1.4995217E0,-8.8886434E-1,7.7747554E-1,3.149394E-2,-1.5104654E0,3.374656E-1,-7.8310035E-3,2.9729756E-2,-2.7744364E-2,-1.0354824E-2,3.1472627E-2,-3.0127618E-2],"categories":[],"categories_nodes":[],"categories_segments":[],"categories_sizes":[],"default_left":[0,0,0,0,0,0,0,0,0,0,0,0,0],"id":5,"left_children":[1,3,5,7,-1,9,11,-1,-1,-1,-1,-1,-1],"loss_changes":[2.0773244E2,1.1414841E1,7.425156E1,2.2374996E1,0E0,3.6824036E0,1.0389616E2,0E0,0E0,0E0,0E0,0E0,0E0],"parents":[2147483647,0,0,1,1,2,2,3,3,5,5,6,6],"right_children":[2,4,6,8,-1,10,12,-1,-1,-1,-1,-1,-1],"split_conditions":[-1.2603487E0,-1.8450342E-1,-1.3812028E-1,-2.3865697E-1,3.149394E-2,-1.8868646E-1,-1.3811664E-1,-7.8310035E-3,2.9729756E-2,-2.7744364E-2,-1.0354824E-2,3.1472627E-2,-3.0127618E-2],"split_indices":[15,3,8,17,0,17,8,0,0,0,0,0,0],"split_type":[0,0,0,0,0,0,0,0,0,0,0,0,0],"sum_hessian":[1.5313847E2,5.740101E1,9.573747E1,1.8058956E1,3.9342052E1,6.3379852E1,3.235762E1,7.9876757E0,1.007128E1,5.7722847E1,5.657003E0,1.8994965E1,1.3362657E1],"tree_param":{"num_deleted":"0","num_feature":"40","num_nodes":"13","size_leaf_vector":"1"}},{"base_weights":[-6.091477E-3,1.3341787E0,-9.076623E-1,1.5532405E0,-1.2090706E-2,-1.5660909E-1,-1.2684432E0,1.6717581E-2,3.1044332E-2,-1.3095192E-2,2.810356E-2,-3.0983863E-2,-5.940563E-3],"categories":[],"categories_nodes":[],"categories_segments":[],"categories_sizes":[],"default_left":[0,0,0,0,0,0,0,0,0,0,0,0,0],"id":6,"left_children":[1,3,5,7,-1,9,11,-1,-1,-1,-1,-1,-1],"loss_changes":[1.8889998E2,2.8986015E1,2.5124794E1,5.929474E0,0E0,3.4173885E1,2.897213E1,0E0,0E0,0E0,0E0,0E0,0E0],"parents":[2147483647,0,0,1,1,2,2,3,3,5,5,6,6],"right_children":[2,4,6,8,-1,10,12,-1,-1,-1,-1,-1,-1],"split_conditions":[-2.5075626E-1,4.5915294E0,-2.5075623E-1,-1.8450342E-1,-1.2090706E-2,3.1373057E0,-2.50748E-1,1.6717581E-2,3.1044332E-2,-1.3095192E-2,2.810356E-2,-3.0983863E-2,-5.940563E-3],"split_indices":[18,14,18,3,0,12,18,0,0,0,0,0,0],"split_type":[0,0,0,0,0,0,0,0,0,0,0,0,0],"sum_hessian":[1.5432686E2,6.187057E1,9.245629E1,5.604578E1,5.8247933E0,3.0466642E1,6.1989647E1,1.6776014E1,3.9269764E1,2.323581E1,7.2308335E0,3.9535187E1,2.245446E1],"tree_param":{"num_deleted":"0","num_feature":"40","num_nodes":"13","size_leaf_vector":"1"}},{"base_weights":[-1.9490637E-3,1.4711541E0,-8.747472E-1,7.804312E-1,3.0619377E-2,-1.4766873E0,3.3532822E-1,-7.908047E-3,2.9104643E-2,-1.8668083E-2,-2.9939754E-2,3.0964427E-2,-3.0085023E-2],"categories":[],"categories_nodes":[],"categories_segments":[],"categories_sizes":[],"default_left":[0,0,0,0,0,0,0,0,0,0,0,0,0],"id":7,"left_children":[1,3,5,7,-1,9,11,-1,-1,-1,-1,-1,-1],"loss_changes":[2.0055972E2,9.9457245E0,7.1842804E1,2.1124634E1,0E0,4.5262756E0,1.0175616E2,0E0,0E0,0E0,0E0,0E0,0E0],"parents":[2147483647,0,0,1,1,2,2,3,3,5,5,6,6],"right_children":[2,4,6,8,-1,10,12,-1,-1,-1,-1,-1,-1],"split_conditions":[-1.2603487E0,-1.6801775E-1,-1.3812028E-1,-2.3865697E-1,3.0619377E-2,-2.5075623E-1,-2.507355E-1,-7.908047E-3,2.9104643E-2,-1.8668083E-2,-2.9939754E-2,3.0964427E-2,-3.0085023E-2],"split_indices":[15,2,8,17,0,18,18,0,0,0,0,0,0],"split_type":[0,0,0,0,0,0,0,0,0,0,0,0,0],"sum_hessian":[1.5398909E2,5.7036945E1,9.6952156E1,1.763747E1,3.9399475E1,6.459813E1,3.2354027E1,7.57917E0,1.0058299E1,2.5822178E1,3.8775948E1,1.912888E1,1.3225146E1],"tree_param":{"num_deleted":"0","num_feature":"40","num_nodes":"13","size_leaf_vector":"1"}},{"base_weights":[1.2030644E-2,1.4216685E0,-8.465981E-1,7.065169E-1,3.0206466E-2,-1.4476405E0,3.2979864E-1,-8.615619E-3,2.8722808E-2,-1.867634E-2,-2.9412659E-2,3.052181E-2,-2.9639492E-2],"categories":[],"categories_nodes":[],"categories_segments":[],"categories_sizes":[],"default_left":[0,0,0,0,0,0,0,0,0,0,0,0,0],"id":8,"left_children":[1,3,5,7,-1,9,11,-1,-1,-1,-1,-1,-1],"loss_changes":[1.8687401E2,1.165387E1,6.8327156E1,2.2524193E1,0E0,3.8988953E0,9.857865E1,0E0,0E0,0E0,0E0,0E0,0E0],"parents":[2147483647,0,0,1,1,2,2,3,3,5,5,6,6],"right_children":[2,4,6,8,-1,10,12,-1,-1,-1,-1,-1,-1],"split_conditions":[-1.2603487E0,-1.8450342E-1,-1.3812028E-1,-2.3865697E-1,3.0206466E-2,-2.5075623E-1,-2.507355E-1,-8.615619E-3,2.8722808E-2,-1.867634E-2,-2.9412659E-2,3.052181E-2,-2.9639492E-2],"split_indices":[15,3,8,17,0,18,18,0,0,0,0,0,0],"split_type":[0,0,0,0,0,0,0,0,0,0,0,0,0],"sum_hessian":[1.5240155E2,5.7441795E1,9.4959755E1,1.8286293E1,3.9155502E1,6.2696434E1,3.226332E1,8.232509E0,1.0053783E1,2.6257254E1,3.643918E1,1.9064718E1,1.3198602E1],"tree_param":{"num_deleted":"0","num_feature":"40","num_nodes":"13","size_leaf_vector":"1"}},{"base_weights":[1.8181752E-2,1.4462869E0,-8.384468E-1,7.969319E-1,2.9817076E-2,-1.4243815E0,3.039215E-1,-6.9077266E-3,2.8356364E-2,-1.7434634E-2,-2.9098658E-2,3.0090049E-2,-2.928632E-2],"categories":[],"categories_nodes":[],"categories_segments":[],"categories_sizes":[],"default_left":[0,0,0,0,0,0,0,0,0,0,0,0,0],"id":9,"left_children":[1,3,5,7,-1,9,11,-1,-1,-1,-1,-1,-1],"loss_changes":[1.8747964E2,8.382706E0,6.4560074E1,1.8740726E1,0E0,4.8808746E0,9.651816E1,0E0,0E0,0E0,0E0,0E0,0E0],"parents":[2147483647,0,0,1,1,2,2,3,3,5,5,6,6],"right_children":[2,4,6,8,-1,10,12,-1,-1,-1,-1,-1,-1],"split_conditions":[-1.2603487E0,-1.6801775E-1,-1.3812028E-1,-2.3865697E-1,2.9817076E-2,-2.5075623E-1,-2.507355E-1,-6.9077266E-3,2.8356364E-2,-1.7434634E-2,-2.9098658E-2,3.0090049E-2,-2.928632E-2],"split_indices":[15,2,8,17,0,18,18,0,0,0,0,0,0],"split_type":[0,0,0,0,0,0,0,0,0,0,0,0,0],"sum_hessian":[1.5125908E2,5.6454365E1,9.480472E1,1.7354689E1,3.9099678E1,6.2500553E1,3.2304165E1,7.319801E0,1.0034887E1,2.4494802E1,3.800575E1,1.8896809E1,1.3407357E1],"tree_param":{"num_deleted":"0","num_feature":"40","num_nodes":"13","size_leaf_vector":"1"}},{"base_weights":[4.821003E-3,1.4122466E0,-8.347413E-1,2.9200818E-2,6.910781E-1,-1.407625E0,2.7018774E-1,-1.3523803E-2,2.7912663E-2,-1.781074E-2,-2.8709626E-2,2.9689968E-2,-2.8994273E-2],"categories":[],"categories_nodes":[],"categories_segments":[],"categories_sizes":[],"default_left":[0,0,0,0,0,0,0,0,0,0,0,0,0],"id":10,"left_children":[1,3,5,-1,7,9,11,-1,-1,-1,-1,-1,-1],"loss_changes":[1.8165387E2,9.610809E0,6.1335144E1,0E0,2.37378E1,4.150467E0,9.590716E1,0E0,0E0,0E0,0E0,0E0,0E0],"parents":[2147483647,0,0,1,1,2,2,4,4,5,5,6,6],"right_children":[2,4,6,-1,8,10,12,-1,-1,-1,-1,-1,-1],"split_conditions":[-1.2603487E0,-1.5032642E0,-1.3812028E-1,2.9200818E-2,-1.3812092E-1,-2.5075623E-1,-2.507355E-1,-1.3523803E-2,2.7912663E-2,-1.781074E-2,-2.8709626E-2,2.9689968E-2,-2.8994273E-2],"split_indices":[15,15,8,0,8,18,18,0,0,0,0,0,0],"split_type":[0,0,0,0,0,0,0,0,0,0,0,0,0],"sum_hessian":[1.5173506E2,5.643927E1,9.529579E1,4.0517864E1,1.5921407E1,6.2576942E1,3.271885E1,6.143999E0,9.777408E0,2.5716118E1,3.6860825E1,1.8864662E1,1.3854186E1],"tree_param":{"num_deleted":"0","num_feature":"40","num_nodes":"13","size_leaf_vector":"1"}},{"base_weights":[-2.3591295E-2,1.3786905E0,-8.437819E-1,6.9734097E-1,2.9076513E-2,-1.4083562E0,3.601484E-1,-8.410292E-3,2.7642895E-2,-1.8085776E-2,-2.8440077E-2,2.9299963E-2,-2.8354868E-2],"categories":[],"categories_nodes":[],"categories_segments":[],"categories_sizes":[],"default_left":[0,0,0,0,0,0,0,0,0,0,0,0,0],"id":11,"left_children":[1,3,5,7,-1,9,11,-1,-1,-1,-1,-1,-1],"loss_changes":[1.7895602E2,1.0043282E1,6.7224556E1,2.030121E1,0E0,3.8147278E0,8.6719475E1,0E0,0E0,0E0,0E0,0E0,0E0],"parents":[2147483647,0,0,1,1,2,2,3,3,5,5,6,6],"right_children":[2,4,6,8,-1,10,12,-1,-1,-1,-1,-1,-1],"split_conditions":[-1.2603487E0,-1.6801775E-1,-1.3812028E-1,-2.3865697E-1,2.9076513E-2,-2.5075623E-1,-2.507355E-1,-8.410292E-3,2.7642895E-2,-1.8085776E-2,-2.8440077E-2,2.9299963E-2,-2.8354868E-2],"split_indices":[15,2,8,17,0,18,18,0,0,0,0,0,0],"split_type":[0,0,0,0,0,0,0,0,0,0,0,0,0],"sum_hessian":[1.5358376E2,5.64279E1,9.715585E1,1.7713932E1,3.8713966E1,6.602439E1,3.1131458E1,7.794192E0,9.91974E0,2.6642265E1,3.938213E1,1.8799229E1,1.2332231E1],"tree_param":{"num_deleted":"0","num_feature":"40","num_nodes":"13","size_leaf_vector":"1"}},{"base_weights":[-2.580748E-3,1.1704212E0,-8.1988746E-1,3.528226E-1,2.8726755E-2,-1.4325578E0,2.3505414E-1,-9.595023E-3,2.723585E-2,-1.8931E-2,-2.785946E-2,2.8930876E-2,-2.8305823E-2],"categories":[],"categories_nodes":[],"categories_segments":[],"categories_sizes":[],"default_left":[0,0,0,0,0,0,0,0,0,0,0,0,0],"id":12,"left_children":[1,3,5,7,-1,9,11,-1,-1,-1,-1,-1,-1],"loss_changes":[1.466785E2,2.3798355E1,5.8615093E1,2.7369123E1,0E0,1.514473E0,9.235848E1,0E0,0E0,0E0,0E0,0E0,0E0],"parents":[2147483647,0,0,1,1,2,2,3,3,5,5,6,6],"right_children":[2,4,6,8,-1,10,12,-1,-1,-1,-1,-1,-1],"split_conditions":[-2.5075626E-1,-1.6801775E-1,-1.3812028E-1,-1.3812092E-1,2.8726755E-2,-2.5075623E-1,-2.507355E-1,-9.595023E-3,2.723585E-2,-1.8931E-2,-2.785946E-2,2.8930876E-2,-2.8305823E-2],"split_indices":[18,2,8,8,0,18,18,0,0,0,0,0,0],"split_type":[0,0,0,0,0,0,0,0,0,0,0,0,0],"sum_hessian":[1.5099596E2,6.182804E1,8.916791E1,2.3348259E1,3.8479782E1,5.6181725E1,3.2986183E1,1.3671491E1,9.676769E0,2.0326548E1,3.5855175E1,1.8739386E1,1.42467985E1],"tree_param":{"num_deleted":"0","num_feature":"40","num_nodes":"13","size_leaf_vector":"1"}},{"base_weights":[-1.0275695E-2,1.5730006E0,-6.002234E-1,9.513791E-3,2.8391482E-2,-1.3127847E0,5.648451E-1,-1.6738242E-2,-2.7665317E-2,2.8939663E-2,-2.7929133E-2],"categories":[],"categories_nodes":[],"categories_segments":[],"categories_sizes":[],"default_left":[0,0,0,0,0,0,0,0,0,0,0],"id":13,"left_children":[1,3,5,-1,-1,7,9,-1,-1,-1,-1],"loss_changes":[1.4300179E2,1.3710938E0,9.33281E1,0E0,0E0,5.165451E0,1.0435971E2,0E0,0E0,0E0,0E0],"parents":[2147483647,0,0,1,1,2,2,5,5,6,6],"right_children":[2,4,6,-1,-1,8,10,-1,-1,-1,-1],"split_conditions":[-1.3804944E0,-1.8450342E-1,-1.3812028E-1,9.513791E-3,2.8391482E-2,-2.5075623E-1,-2.507355E-1,-1.6738242E-2,-2.7665317E-2,2.8939663E-2,-2.7929133E-2],"split_indices":[10,3,8,0,0,18,18,0,0,0,0],"split_type":[0,0,0,0,0,0,0,0,0,0,0],"sum_hessian":[1.5108778E2,4.0562244E1,1.1052554E2,2.5344183E0,3.802783E1,6.850238E1,4.202316E1,3.1682222E1,3.682016E1,2.8082792E1,1.3940367E1],"tree_param":{"num_deleted":"0","num_feature":"40","num_nodes":"11","size_leaf_vector":"1"}},{"base_weights":[-1.8168971E-2,1.3140153E0,-8.0375916E-1,2.7476255E-2,6.1355823E-1,-1.3447831E0,3.0086565E-1,-1.3626541E-2,2.6599487E-2,-2.4848772E-2,-8.088833E-3,2.8215889E-2,-2.7011504E-2],"categories":[],"categories_nodes":[],"categories_segments":[],"categories_sizes":[],"default_left":[0,0,0,0,0,0,0,0,0,0,0,0,0],"id":14,"left_children":[1,3,5,-1,7,9,11,-1,-1,-1,-1,-1,-1],"loss_changes":[1.6020624E2,9.352837E0,5.794464E1,0E0,2.2725574E1,3.8065262E0,8.138495E1,0E0,0E0,0E0,0E0,0E0,0E0],"parents":[2147483647,0,0,1,1,2,2,4,4,5,5,6,6],"right_children":[2,4,6,-1,8,10,12,-1,-1,-1,-1,-1,-1],"split_conditions":[-1.2603487E0,-1.5032642E0,-1.3812028E-1,2.7476255E-2,-1.3812092E-1,-1.8868646E-1,-1.3811664E-1,-1.3626541E-2,2.6599487E-2,-2.4848772E-2,-8.088833E-3,2.8215889E-2,-2.7011504E-2],"split_indices":[15,15,8,0,8,17,8,0,0,0,0,0,0],"split_type":[0,0,0,0,0,0,0,0,0,0,0,0,0],"sum_hessian":[1.5107106E2,5.5790417E1,9.528065E1,3.9804245E1,1.5986174E1,6.381022E1,3.1470428E1,6.368958E0,9.617216E0,5.804965E1,5.7605724E0,1.8459301E1,1.3011128E1],"tree_param":{"num_deleted":"0","num_feature":"40","num_nodes":"13","size_leaf_vector":"1"}},{"base_weights":[-1.2051699E-2,1.3420798E0,-7.994599E-1,7.414002E-1,2.7767178E-2,-1.3271111E0,2.5041133E-1,-5.626756E-3,2.6385652E-2,-2.447192E-2,-9.555118E-3,2.7879577E-2,-2.683849E-2],"categories":[],"categories_nodes":[],"categories_segments":[],"categories_sizes":[],"default_left":[0,0,0,0,0,0,0,0,0,0,0,0,0],"id":15,"left_children":[1,3,5,7,-1,9,11,-1,-1,-1,-1,-1,-1],"loss_changes":[1.6197931E2,7.141838E0,5.3539856E1,1.5380284E1,0E0,2.9442139E0,8.176877E1,0E0,0E0,0E0,0E0,0E0,0E0],"parents":[2147483647,0,0,1,1,2,2,3,3,5,5,6,6],"right_children":[2,4,6,8,-1,10,12,-1,-1,-1,-1,-1,-1],"split_conditions":[-1.2603487E0,-1.8450342E-1,-1.3812028E-1,-2.3865697E-1,2.7767178E-2,-1.8868646E-1,-1.3811664E-1,-5.626756E-3,2.6385652E-2,-2.447192E-2,-9.555118E-3,2.7879577E-2,-2.683849E-2],"split_indices":[15,3,8,17,0,17,8,0,0,0,0,0,0],"split_type":[0,0,0,0,0,0,0,0,0,0,0,0,0],"sum_hessian":[1.4990807E2,5.4859673E1,9.504839E1,1.7195986E1,3.766369E1,6.3080772E1,3.1967623E1,7.4627934E0,9.733192E0,5.687005E1,6.2107253E0,1.8295357E1,1.3672267E1],"tree_param":{"num_deleted":"0","num_feature":"40","num_nodes":"13","size_leaf_vector":"1"}},{"base_weights":[-5.1840465E-3,1.1669314E0,-7.9490817E-1,1.511921E0,3.0685654E-1,-1.372717E0,2.533316E-1,1.399187E-2,2.7475134E-2,-1.16803385E-2,2.5511865E-2,-2.5692137E-2,-6.5533086E-3,2.7591329E-2,-2.6920745E-2],"categories":[],"categories_nodes":[],"categories_segments":[],"categories_sizes":[],"default_left":[0,0,0,0,0,0,0,0,0,0,0,0,0,0,0],"id":16,"left_children":[1,3,5,7,9,11,13,-1,-1,-1,-1,-1,-1,-1,-1],"loss_changes":[1.399104E2,1.758995E1,5.5041428E1,6.2377167E-1,2.2004406E1,5.183647E0,8.085563E1,0E0,0E0,0E0,0E0,0E0,0E0,0E0,0E0],"parents":[2147483647,0,0,1,1,2,2,3,3,4,4,5,5,6,6],"right_children":[2,4,6,8,10,12,14,-1,-1,-1,-1,-1,-1,-1,-1],"split_conditions":[-2.5075626E-1,-8.546532E-1,-1.3812028E-1,-1.6801775E-1,-1.3812092E-1,-1.8868646E-1,-2.507355E-1,1.399187E-2,2.7475134E-2,-1.16803385E-2,2.5511865E-2,-2.5692137E-2,-6.5533086E-3,2.7591329E-2,-2.6920745E-2],"split_indices":[18,10,8,2,8,17,18,0,0,0,0,0,0,0,0],"split_type":[0,0,0,0,0,0,0,0,0,0,0,0,0,0,0],"sum_hessian":[1.4914651E2,5.9845562E1,8.930095E1,4.2171864E1,1.76737E1,5.736872E1,3.1932224E1,4.4717884E0,3.7700073E1,9.804616E0,7.8690853E0,5.177941E1,5.5893097E0,1.8430012E1,1.3502213E1],"tree_param":{"num_deleted":"0","num_feature":"40","num_nodes":"15","size_leaf_vector":"1"}},{"base_weights":[4.7067762E-3,1.1395797E0,-7.7399695E-1,1.3248229E0,-9.471679E-3,-1.3556898E0,3.191392E-1,1.297265E-2,2.7184019E-2,-2.5367655E-2,-7.284424E-3,2.7278235E-2,-2.6412904E-2],"categories":[],"categories_nodes":[],"categories_segments":[],"categories_sizes":[],"default_left":[0,0,0,0,0,0,0,0,0,0,0,0,0],"id":17,"left_children":[1,3,5,7,-1,9,11,-1,-1,-1,-1,-1,-1],"loss_changes":[1.315877E2,1.9597183E1,5.658693E1,6.2469254E0,0E0,4.656975E0,7.403264E1,0E0,0E0,0E0,0E0,0E0,0E0],"parents":[2147483647,0,0,1,1,2,2,3,3,5,5,6,6],"right_children":[2,4,6,8,-1,10,12,-1,-1,-1,-1,-1,-1],"split_conditions":[-2.5075626E-1,4.5915294E0,-1.3812028E-1,-1.6801775E-1,-9.471679E-3,-1.8868646E-1,-2.507355E-1,1.297265E-2,2.7184019E-2,-2.5367655E-2,-7.284424E-3,2.7278235E-2,-2.6412904E-2],"split_indices":[18,14,8,2,0,17,18,0,0,0,0,0,0],"split_type":[0,0,0,0,0,0,0,0,0,0,0,0,0],"sum_hessian":[1.4690231E2,5.9591293E1,8.731102E1,5.3870594E1,5.720699E0,5.6829853E1,3.0481169E1,1.654496E1,3.7325634E1,5.1011887E1,5.817965E0,1.8246569E1,1.2234599E1],"tree_param":{"num_deleted":"0","num_feature":"40","num_nodes":"13","size_leaf_vector":"1"}},{"base_weights":[-1.0391611E-2,1.1032759E0,-7.739145E-1,2.6185924E-2,2.0701587E-1,-1.3374513E0,2.4403548E-1,-1.29828155E-2,2.517087E-2,-2.5046708E-2,-7.1541863E-3,2.6980497E-2,-2.6344929E-2],"categories":[],"categories_nodes":[],"categories_segments":[],"categories_sizes":[],"default_left":[0,0,0,0,0,0,0,0,0,0,0,0,0],"id":18,"left_children":[1,3,5,-1,7,9,11,-1,-1,-1,-1,-1,-1],"loss_changes":[1.2730111E2,2.131594E1,5.127255E1,0E0,2.4335655E1,4.5613937E0,7.641723E1,0E0,0E0,0E0,0E0,0E0,0E0],"parents":[2147483647,0,0,1,1,2,2,4,4,5,5,6,6],"right_children":[2,4,6,-1,8,10,12,-1,-1,-1,-1,-1,-1],"split_conditions":[-2.5075626E-1,-9.050352E-1,-1.3812028E-1,2.6185924E-2,-1.3812092E-1,-1.8868646E-1,-2.507355E-1,-1.29828155E-2,2.517087E-2,-2.5046708E-2,-7.1541863E-3,2.6980497E-2,-2.6344929E-2],"split_indices":[18,10,8,0,8,17,18,0,0,0,0,0,0],"split_type":[0,0,0,0,0,0,0,0,0,0,0,0,0],"sum_hessian":[1.4770714E2,5.9896973E1,8.781016E1,4.106782E1,1.8829153E1,5.6318424E1,3.1491734E1,1.0862637E1,7.9665155E0,5.0501976E1,5.8164473E0,1.8142904E1,1.3348829E1],"tree_param":{"num_deleted":"0","num_feature":"40","num_nodes":"13","size_leaf_vector":"1"}},{"base_weights":[1.0972585E-2,1.2524514E0,-7.3520607E-1,6.1916584E-1,2.6643928E-2,-1.2474085E0,2.542076E-1,-7.7268737E-3,2.54326E-2,-1.4406611E-2,-2.6113888E-2,2.6692044E-2,-2.6022492E-2],"categories":[],"categories_nodes":[],"categories_segments":[],"categories_sizes":[],"default_left":[0,0,0,0,0,0,0,0,0,0,0,0,0],"id":19,"left_children":[1,3,5,7,-1,9,11,-1,-1,-1,-1,-1,-1],"loss_changes":[1.3570557E2,8.57254E0,4.669133E1,1.6874166E1,0E0,5.100067E0,7.3505684E1,0E0,0E0,0E0,0E0,0E0,0E0],"parents":[2147483647,0,0,1,1,2,2,3,3,5,5,6,6],"right_children":[2,4,6,8,-1,10,12,-1,-1,-1,-1,-1,-1],"split_conditions":[-1.2603487E0,-1.6801775E-1,-1.3812028E-1,-2.3865697E-1,2.6643928E-2,-2.5075623E-1,-2.507355E-1,-7.7268737E-3,2.54326E-2,-1.4406611E-2,-2.6113888E-2,2.6692044E-2,-2.6022492E-2],"split_indices":[15,2,8,17,0,18,18,0,0,0,0,0,0],"split_type":[0,0,0,0,0,0,0,0,0,0,0,0,0],"sum_hessian":[1.4449852E2,5.399091E1,9.050761E1,1.7260067E1,3.6730843E1,5.946358E1,3.1044025E1,7.8179073E0,9.44216E0,2.3595642E1,3.586794E1,1.8010662E1,1.3033362E1],"tree_param":{"num_deleted":"0","num_feature":"40","num_nodes":"13","size_leaf_vector":"1"}},{"base_weights":[-7.3433844E-3,1.103602E0,-7.5973773E-1,1.2972867E0,-9.600992E-3,-1.3119018E0,2.6649335E-1,1.3142707E-2,2.638744E-2,-1.6857825E-2,-2.5758278E-2,2.6418371E-2,-2.5727987E-2],"categories":[],"categories_nodes":[],"categories_segments":[],"categories_sizes":[],"default_left":[0,0,0,0,0,0,0,0,0,0,0,0,0],"id":20,"left_children":[1,3,5,7,-1,9,11,-1,-1,-1,-1,-1,-1],"loss_changes":[1.2349645E2,1.9818848E1,5.0261234E1,5.1155853E0,0E0,1.8230896E0,7.084526E1,0E0,0E0,0E0,0E0,0E0,0E0],"parents":[2147483647,0,0,1,1,2,2,3,3,5,5,6,6],"right_children":[2,4,6,8,-1,10,12,-1,-1,-1,-1,-1,-1],"split_conditions":[-2.5075626E-1,4.5915294E0,-1.3812028E-1,-1.6801775E-1,-9.600992E-3,-2.5075623E-1,-2.507355E-1,1.3142707E-2,2.638744E-2,-1.6857825E-2,-2.5758278E-2,2.6418371E-2,-2.5727987E-2],"split_indices":[18,14,8,2,0,18,18,0,0,0,0,0,0],"split_type":[0,0,0,0,0,0,0,0,0,0,0,0,0],"sum_hessian":[1.457431E2,5.8660835E1,8.708226E1,5.2702454E1,5.958381E0,5.643761E1,3.0644651E1,1.6128107E1,3.657435E1,2.0276928E1,3.616068E1,1.7930332E1,1.2714319E1],"tree_param":{"num_deleted":"0","num_feature":"40","num_nodes":"13","size_leaf_vector":"1"}},{"base_weights":[-1.3203412E-2,1.4446882E0,-5.4650104E-1,6.7038364E-3,2.6137874E-2,-1.2005382E0,5.760489E-1,-1.4929318E-2,-2.5627479E-2,2.6652908E-2,-2.54022E-2],"categories":[],"categories_nodes":[],"categories_segments":[],"categories_sizes":[],"default_left":[0,0,0,0,0,0,0,0,0,0,0],"id":21,"left_children":[1,3,5,-1,-1,7,9,-1,-1,-1,-1],"loss_changes":[1.1472015E2,1.6084747E0,7.9995224E1,0E0,0E0,5.073471E0,8.0253174E1,0E0,0E0,0E0,0E0],"parents":[2147483647,0,0,1,1,2,2,5,5,6,6],"right_children":[2,4,6,-1,-1,8,10,-1,-1,-1,-1],"split_conditions":[-1.3925939E0,-1.6801775E-1,-1.3812028E-1,6.7038364E-3,2.6137874E-2,-2.5075623E-1,-2.507355E-1,-1.4929318E-2,-2.5627479E-2,2.6652908E-2,-2.54022E-2],"split_indices":[10,2,8,0,0,18,18,0,0,0,0],"split_type":[0,0,0,0,0,0,0,0,0,0,0],"sum_hessian":[1.455364E2,3.8521114E1,1.0701529E2,2.194184E0,3.632693E1,6.7574524E1,3.944077E1,3.1281996E1,3.6292526E1,2.7037622E1,1.2403148E1],"tree_param":{"num_deleted":"0","num_feature":"40","num_nodes":"11","size_leaf_vector":"1"}},{"base_weights":[2.500683E-2,1.226797E0,-7.0177966E-1,6.378302E-1,2.589619E-2,-1.2001342E0,2.5996375E-1,-6.3827056E-3,2.4814535E-2,-2.2178251E-2,-7.0051732E-3,2.5880784E-2,-2.4796374E-2],"categories":[],"categories_nodes":[],"categories_segments":[],"categories_sizes":[],"default_left":[0,0,0,0,0,0,0,0,0,0,0,0,0],"id":22,"left_children":[1,3,5,7,-1,9,11,-1,-1,-1,-1,-1,-1],"loss_changes":[1.2476539E2,7.173256E0,4.2985146E1,1.4715679E1,0E0,2.7749634E0,6.617912E1,0E0,0E0,0E0,0E0,0E0,0E0],"parents":[2147483647,0,0,1,1,2,2,3,3,5,5,6,6],"right_children":[2,4,6,8,-1,10,12,-1,-1,-1,-1,-1,-1],"split_conditions":[-1.2603487E0,-1.8450342E-1,-1.3812028E-1,-2.3865697E-1,2.589619E-2,4.5915294E0,-1.3811664E-1,-6.3827056E-3,2.4814535E-2,-2.2178251E-2,-7.0051732E-3,2.5880784E-2,-2.4796374E-2],"split_indices":[15,3,8,17,0,14,8,0,0,0,0,0,0],"split_type":[0,0,0,0,0,0,0,0,0,0,0,0,0],"sum_hessian":[1.4085721E2,5.282295E1,8.8034256E1,1.7067015E1,3.5755936E1,5.78235E1,3.0210752E1,7.715559E0,9.351455E0,5.2630703E1,5.1928005E0,1.7556654E1,1.2654099E1],"tree_param":{"num_deleted":"0","num_feature":"40","num_nodes":"13","size_leaf_vector":"1"}},{"base_weights":[-2.6576053E-3,2.5103388E-2,-5.2886486E-1,4.3235727E-2,-1.0347929E0,-8.1307385E-3,2.6856985E-2,-2.5913235E-2,-4.264291E-3],"categories":[],"categories_nodes":[],"categories_segments":[],"categories_sizes":[],"default_left":[0,0,0,0,0,0,0,0,0],"id":23,"left_children":[1,-1,3,5,7,-1,-1,-1,-1],"loss_changes":[1.09716644E2,0E0,3.0734442E1,3.9292294E1,1.9631123E1,0E0,0E0,0E0,0E0],"parents":[2147483647,0,0,2,2,3,3,4,4],"right_children":[2,-1,4,6,8,-1,-1,-1,-1],"split_conditions":[-1.3925939E0,2.5103388E-2,-2.5075623E-1,-1.8868646E-1,-2.50748E-1,-8.1307385E-3,2.6856985E-2,-2.5913235E-2,-4.264291E-3],"split_indices":[10,0,18,17,18,0,0,0,0],"split_type":[0,0,0,0,0,0,0,0,0],"sum_hessian":[1.4277364E2,3.774294E1,1.050307E2,4.9721E1,5.53097E1,3.76071E1,1.2113899E1,3.4713608E1,2.0596092E1],"tree_param":{"num_deleted":"0","num_feature":"40","num_nodes":"9","size_leaf_vector":"1"}},{"base_weights":[1.2381855E-2,1.2189685E0,-6.990099E-1,2.5667388E-2,5.594937E-1,-1.1911806E0,3.3012763E-1,-1.2032478E-2,2.4238767E-2,-1.3719647E-2,-2.4965478E-2,2.5672484E-2,-2.4711391E-2],"categories":[],"categories_nodes":[],"categories_segments":[],"categories_sizes":[],"default_left":[0,0,0,0,0,0,0,0,0,0,0,0,0],"id":24,"left_children":[1,3,5,-1,7,9,11,-1,-1,-1,-1,-1,-1],"loss_changes":[1.2252633E2,7.9357224E0,4.588362E1,0E0,1.771735E1,4.772766E0,6.14441E1,0E0,0E0,0E0,0E0,0E0,0E0],"parents":[2147483647,0,0,1,1,2,2,4,4,5,5,6,6],"right_children":[2,4,6,-1,8,10,12,-1,-1,-1,-1,-1,-1],"split_conditions":[-1.2603487E0,-1.5032642E0,-1.3812028E-1,2.5667388E-2,-1.3812092E-1,-2.5075623E-1,-2.507355E-1,-1.2032478E-2,2.4238767E-2,-1.3719647E-2,-2.4965478E-2,2.5672484E-2,-2.4711391E-2],"split_indices":[15,15,8,0,8,18,18,0,0,0,0,0,0],"split_type":[0,0,0,0,0,0,0,0,0,0,0,0,0],"sum_hessian":[1.407527E2,5.194153E1,8.881117E1,3.6738293E1,1.5203235E1,5.9972633E1,2.8838535E1,6.131623E0,9.071611E0,2.3796007E1,3.617663E1,1.7539314E1,1.1299221E1],"tree_param":{"num_deleted":"0","num_feature":"40","num_nodes":"13","size_leaf_vector":"1"}},{"base_weights":[-1.3566096E-3,1.3914152E0,-5.1139396E-1,6.276257E-3,2.5224503E-2,-1.1358322E0,4.8726076E-1,-1.3634986E-2,-2.4657398E-2,2.5841875E-2,-2.4846846E-2],"categories":[],"categories_nodes":[],"categories_segments":[],"categories_sizes":[],"default_left":[0,0,0,0,0,0,0,0,0,0,0],"id":25,"left_children":[1,3,5,-1,-1,7,9,-1,-1,-1,-1],"loss_changes":[1.01465096E2,1.5766449E0,6.574871E1,0E0,0E0,5.2336884E0,7.968648E1,0E0,0E0,0E0,0E0],"parents":[2147483647,0,0,1,1,2,2,5,5,6,6],"right_children":[2,4,6,-1,-1,8,10,-1,-1,-1,-1],"split_conditions":[-1.3925939E0,-1.6801775E-1,-1.3812028E-1,6.276257E-3,2.5224503E-2,-2.5075623E-1,-2.507355E-1,-1.3634986E-2,-2.4657398E-2,2.5841875E-2,-2.4846846E-2],"split_indices":[10,2,8,0,0,18,18,0,0,0,0],"split_type":[0,0,0,0,0,0,0,0,0,0,0],"sum_hessian":[1.4083333E2,3.728639E1,1.03546936E2,2.20284E0,3.5083546E1,6.3625725E1,3.9921215E1,2.9511366E1,3.411436E1,2.641851E1,1.3502705E1],"tree_param":{"num_deleted":"0","num_feature":"40","num_nodes":"11","size_leaf_vector":"1"}},{"base_weights":[-1.1385782E-2,1.1805568E0,-7.0295E-1,2.4872202E-2,5.03776E-1,-1.1774058E0,2.9662234E-1,-1.2360466E-2,2.3634266E-2,-2.1966284E-2,-4.7773425E-3,2.5195055E-2,-2.4324527E-2],"categories":[],"categories_nodes":[],"categories_segments":[],"categories_sizes":[],"default_left":[0,0,0,0,0,0,0,0,0,0,0,0,0],"id":26,"left_children":[1,3,5,-1,7,9,11,-1,-1,-1,-1,-1,-1],"loss_changes":[1.1773149E2,7.9331665E0,4.3209377E1,0E0,1.6844667E1,4.1279984E0,5.988698E1,0E0,0E0,0E0,0E0,0E0,0E0],"parents":[2147483647,0,0,1,1,2,2,4,4,5,5,6,6],"right_children":[2,4,6,-1,8,10,12,-1,-1,-1,-1,-1,-1],"split_conditions":[-1.2603487E0,-1.2040848E0,-1.3812028E-1,2.4872202E-2,-1.3812092E-1,-1.8868646E-1,-2.507355E-1,-1.2360466E-2,2.3634266E-2,-2.1966284E-2,-4.7773425E-3,2.5195055E-2,-2.4324527E-2],"split_indices":[15,10,8,0,8,17,18,0,0,0,0,0,0],"split_type":[0,0,0,0,0,0,0,0,0,0,0,0,0],"sum_hessian":[1.4081844E2,5.144446E1,8.937397E1,3.7011253E1,1.443321E1,6.0485893E1,2.8888077E1,6.018094E0,8.415116E0,5.5181145E1,5.3047466E0,1.7298927E1,1.1589149E1],"tree_param":{"num_deleted":"0","num_feature":"40","num_nodes":"13","size_leaf_vector":"1"}},{"base_weights":[-1.5844213E-2,1.1980538E0,-7.0303863E-1,2.460307E-2,6.170655E-1,-1.1616305E0,2.2893858E-1,-9.888959E-3,2.3575818E-2,-1.4132133E-2,-2.4270704E-2,2.497231E-2,-2.430498E-2],"categories":[],"categories_nodes":[],"categories_segments":[],"categories_sizes":[],"default_left":[0,0,0,0,0,0,0,0,0,0,0,0,0],"id":27,"left_children":[1,3,5,-1,7,9,11,-1,-1,-1,-1,-1,-1],"loss_changes":[1.1878793E2,5.435898E0,3.912138E1,0E0,1.419618E1,3.788086E0,6.1979538E1,0E0,0E0,0E0,0E0,0E0,0E0],"parents":[2147483647,0,0,1,1,2,2,4,4,5,5,6,6],"right_children":[2,4,6,-1,8,10,12,-1,-1,-1,-1,-1,-1],"split_conditions":[-1.2603487E0,3.6294868E0,-1.3812028E-1,2.460307E-2,-1.3812092E-1,-2.5075623E-1,-2.507355E-1,-9.888959E-3,2.3575818E-2,-1.4132133E-2,-2.4270704E-2,2.497231E-2,-2.430498E-2],"split_indices":[15,13,8,0,8,18,18,0,0,0,0,0,0],"split_type":[0,0,0,0,0,0,0,0,0,0,0,0,0],"sum_hessian":[1.4039047E2,5.047871E1,8.9911766E1,3.5993225E1,1.4485483E1,6.0094868E1,2.98169E1,5.6275783E0,8.857904E0,2.5408617E1,3.468625E1,1.7193237E1,1.2623664E1],"tree_param":{"num_deleted":"0","num_feature":"40","num_nodes":"13","size_leaf_vector":"1"}},{"base_weights":[2.6719768E-2,1.1283417E0,-6.472056E-1,2.404133E-2,4.5171976E-1,-1.1451639E-1,-9.71834E-1,-1.25185205E-2,2.3189578E-2,-8.483058E-3,2.2394264E-2,-2.4831606E-2,-3.8832421E-3],"categories":[],"categories_nodes":[],"categories_segments":[],"categories_sizes":[],"default_left":[0,0,0,0,0,0,0,0,0,0,0,0,0],"id":28,"left_children":[1,3,5,-1,7,9,11,-1,-1,-1,-1,-1,-1],"loss_changes":[1.02073204E2,8.146202E0,1.4644291E1,0E0,1.6820602E1,1.796731E1,1.7524662E1,0E0,0E0,0E0,0E0,0E0,0E0],"parents":[2147483647,0,0,1,1,2,2,4,4,5,5,6,6],"right_children":[2,4,6,-1,8,10,12,-1,-1,-1,-1,-1,-1],"split_conditions":[-1.2603487E0,-1.2040848E0,-2.5075623E-1,2.404133E-2,-2.3865697E-1,3.1373057E0,-2.50748E-1,-1.25185205E-2,2.3189578E-2,-8.483058E-3,2.2394264E-2,-2.4831606E-2,-3.8832421E-3],"split_indices":[15,10,18,0,17,12,18,0,0,0,0,0,0],"split_type":[0,0,0,0,0,0,0,0,0,0,0,0,0],"sum_hessian":[1.3550517E2,5.117631E1,8.4328865E1,3.6678387E1,1.4497924E1,3.244386E1,5.188501E1,6.290408E0,8.207516E0,2.614697E1,6.2968874E0,3.1855465E1,2.0029545E1],"tree_param":{"num_deleted":"0","num_feature":"40","num_nodes":"13","size_leaf_vector":"1"}},{"base_weights":[-1.680886E-2,1.11778E0,-6.804211E-1,5.0690144E-1,2.4424573E-2,-1.1360035E0,2.4623166E-1,-7.1988422E-3,2.3169229E-2,-1.3783433E-2,-2.383412E-2,2.4705693E-2,-2.3969254E-2],"categories":[],"categories_nodes":[],"categories_segments":[],"categories_sizes":[],"default_left":[0,0,0,0,0,0,0,0,0,0,0,0,0],"id":29,"left_children":[1,3,5,7,-1,9,11,-1,-1,-1,-1,-1,-1],"loss_changes":[1.0549329E2,8.163727E0,3.759432E1,1.4002663E1,0E0,3.638153E0,5.8603912E1,0E0,0E0,0E0,0E0,0E0,0E0],"parents":[2147483647,0,0,1,1,2,2,3,3,5,5,6,6],"right_children":[2,4,6,8,-1,10,12,-1,-1,-1,-1,-1,-1],"split_conditions":[-1.2603487E0,-1.6801775E-1,-1.3812028E-1,-1.3812092E-1,2.4424573E-2,-2.5075623E-1,-2.507355E-1,-7.1988422E-3,2.3169229E-2,-1.3783433E-2,-2.383412E-2,2.4705693E-2,-2.3969254E-2],"split_indices":[15,2,8,8,0,18,18,0,0,0,0,0,0],"split_type":[0,0,0,0,0,0,0,0,0,0,0,0,0],"sum_hessian":[1.3810077E2,5.0712452E1,8.738831E1,1.6856077E1,3.3856377E1,5.843381E1,2.8954498E1,8.1813135E0,8.674765E0,2.5002165E1,3.3431644E1,1.6889256E1,1.2065243E1],"tree_param":{"num_deleted":"0","num_feature":"40","num_nodes":"13","size_leaf_vector":"1"}},{"base_weights":[-2.3081083E-2,2.4048558E-2,-5.097441E-1,-1.0933738E0,4.864915E-1,-1.3594972E-2,-2.3660691E-2,2.4871854E-2,-2.3885192E-2],"categories":[],"categories_nodes":[],"categories_segments":[],"categories_sizes":[],"default_left":[0,0,0,0,0,0,0,0,0],"id":30,"left_children":[1,-1,3,5,7,-1,-1,-1,-1],"loss_changes":[9.539373E1,0E0,6.0913704E1,4.3632736E0,6.9861374E1,0E0,0E0,0E0,0E0],"parents":[2147483647,0,0,2,2,3,3,4,4],"right_children":[2,-1,4,6,8,-1,-1,-1,-1],"split_conditions":[-1.3925939E0,2.4048558E-2,-1.3812028E-1,-2.5075623E-1,-2.507355E-1,-1.3594972E-2,-2.3660691E-2,2.4871854E-2,-2.3885192E-2],"split_indices":[10,0,8,18,18,0,0,0,0],"split_type":[0,0,0,0,0,0,0,0,0],"sum_hessian":[1.3796133E2,3.5111324E1,1.0285001E2,6.479395E1,3.8056065E1,3.1203499E1,3.3590454E1,2.542799E1,1.2628073E1],"tree_param":{"num_deleted":"0","num_feature":"40","num_nodes":"9","size_leaf_vector":"1"}},{"base_weights":[-1.6484044E-2,1.1261808E0,-6.716985E-1,2.3560164E-2,4.3891636E-1,-5.4491156E-1,-2.4730928E-2,-1.1576651E-2,2.2328459E-2,-1.5457961E-2,4.9162615E-4],"categories":[],"categories_nodes":[],"categories_segments":[],"categories_sizes":[],"default_left":[0,0,0,0,0,0,0,0,0,0,0],"id":31,"left_children":[1,3,5,-1,7,9,-1,-1,-1,-1,-1],"loss_changes":[1.0348318E2,7.127655E0,7.518856E0,0E0,1.3636571E1,1.4976538E1,0E0,0E0,0E0,0E0,0E0],"parents":[2147483647,0,0,1,1,2,2,4,4,5,5],"right_children":[2,4,6,-1,8,10,-1,-1,-1,-1,-1],"split_conditions":[-1.2603487E0,-9.050352E-1,1.882595E-3,2.3560164E-2,-1.1694726E0,3.1860223E-1,-2.4730928E-2,-1.1576651E-2,2.2328459E-2,-1.5457961E-2,4.9162615E-4],"split_indices":[15,10,31,0,9,15,0,0,0,0,0],"split_type":[0,0,0,0,0,0,0,0,0,0,0],"sum_hessian":[1.3620853E2,4.9377525E1,8.6831E1,3.6554916E1,1.2822611E1,7.5675446E1,1.1155558E1,5.636722E0,7.185889E0,4.714E1,2.8535442E1],"tree_param":{"num_deleted":"0","num_feature":"40","num_nodes":"11","size_leaf_vector":"1"}},{"base_weights":[-8.976129E-3,1.1298352E0,-6.569793E-1,5.9072113E-1,2.3887252E-2,-1.1049364E0,2.6589167E-1,-5.243905E-3,2.2699978E-2,-1.3034552E-2,-2.3369052E-2,2.4347702E-2,-2.346962E-2],"categories":[],"categories_nodes":[],"categories_segments":[],"categories_sizes":[],"default_left":[0,0,0,0,0,0,0,0,0,0,0,0,0],"id":32,"left_children":[1,3,5,7,-1,9,11,-1,-1,-1,-1,-1,-1],"loss_changes":[1.0120248E2,5.574978E0,3.6423824E1,1.1129009E1,0E0,3.9380798E0,5.521537E1,0E0,0E0,0E0,0E0,0E0,0E0],"parents":[2147483647,0,0,1,1,2,2,3,3,5,5,6,6],"right_children":[2,4,6,8,-1,10,12,-1,-1,-1,-1,-1,-1],"split_conditions":[-1.2603487E0,-1.8450342E-1,-1.3812028E-1,-2.3865697E-1,2.3887252E-2,-2.5075623E-1,-2.507355E-1,-5.243905E-3,2.2699978E-2,-1.3034552E-2,-2.3369052E-2,2.4347702E-2,-2.346962E-2],"split_indices":[15,3,8,17,0,18,18,0,0,0,0,0,0],"split_type":[0,0,0,0,0,0,0,0,0,0,0,0,0],"sum_hessian":[1.3513353E2,4.873764E1,8.639589E1,1.5994848E1,3.2742794E1,5.803076E1,2.8365128E1,7.344159E0,8.650688E0,2.4529655E1,3.3501106E1,1.6755236E1,1.1609892E1],"tree_param":{"num_deleted":"0","num_feature":"40","num_nodes":"13","size_leaf_vector":"1"}},{"base_weights":[-9.768374E-3,1.0907959E0,-6.453172E-1,5.096614E-1,2.3715956E-2,-1.0860221E0,2.3608515E-1,-7.1139405E-3,2.2523738E-2,-2.0445313E-2,-3.1360672E-3,2.4141585E-2,-2.335874E-2],"categories":[],"categories_nodes":[],"categories_segments":[],"categories_sizes":[],"default_left":[0,0,0,0,0,0,0,0,0,0,0,0,0],"id":33,"left_children":[1,3,5,7,-1,9,11,-1,-1,-1,-1,-1,-1],"loss_changes":[9.49751E1,7.0289993E0,3.3687927E1,1.2874195E1,0E0,4.211731E0,5.5086823E1,0E0,0E0,0E0,0E0,0E0,0E0],"parents":[2147483647,0,0,1,1,2,2,3,3,5,5,6,6],"right_children":[2,4,6,8,-1,10,12,-1,-1,-1,-1,-1,-1],"split_conditions":[-1.2603487E0,-1.6801775E-1,-1.3812028E-1,-2.3865697E-1,2.3715956E-2,-1.8868646E-1,-2.507355E-1,-7.1139405E-3,2.2523738E-2,-2.0445313E-2,-3.1360672E-3,2.4141585E-2,-2.335874E-2],"split_indices":[15,2,8,17,0,17,18,0,0,0,0,0,0],"split_type":[0,0,0,0,0,0,0,0,0,0,0,0,0],"sum_hessian":[1.3377667E2,4.871017E1,8.50665E1,1.6260994E1,3.2449177E1,5.6556072E1,2.8510426E1,7.694324E0,8.566669E0,5.1453148E1,5.102924E0,1.6565123E1,1.1945302E1],"tree_param":{"num_deleted":"0","num_feature":"40","num_nodes":"13","size_leaf_vector":"1"}},{"base_weights":[-8.404575E-3,1.0821556E0,-6.395317E-1,2.2893643E-2,4.9079573E-1,-1.0808852E0,2.8418127E-1,-1.068376E-2,2.2250323E-2,-1.2253052E-2,-2.3068659E-2,2.3945583E-2,-2.2998033E-2],"categories":[],"categories_nodes":[],"categories_segments":[],"categories_sizes":[],"default_left":[0,0,0,0,0,0,0,0,0,0,0,0,0],"id":34,"left_children":[1,3,5,-1,7,9,11,-1,-1,-1,-1,-1,-1],"loss_changes":[9.274608E1,6.0411873E0,3.5101257E1,0E0,1.4063738E1,4.350914E0,5.1211514E1,0E0,0E0,0E0,0E0,0E0,0E0],"parents":[2147483647,0,0,1,1,2,2,4,4,5,5,6,6],"right_children":[2,4,6,-1,8,10,12,-1,-1,-1,-1,-1,-1],"split_conditions":[-1.2603487E0,-1.5032642E0,-1.3812028E-1,2.2893643E-2,-1.3812092E-1,-2.5075623E-1,-2.507355E-1,-1.068376E-2,2.2250323E-2,-1.2253052E-2,-2.3068659E-2,2.3945583E-2,-2.2998033E-2],"split_indices":[15,15,8,0,8,18,18,0,0,0,0,0,0],"split_type":[0,0,0,0,0,0,0,0,0,0,0,0,0],"sum_hessian":[1.3274458E2,4.839884E1,8.434573E1,3.4018467E1,1.4380376E1,5.695992E1,2.7385815E1,6.064029E0,8.316346E0,2.3603916E1,3.3356003E1,1.639714E1,1.0988674E1],"tree_param":{"num_deleted":"0","num_feature":"40","num_nodes":"13","size_leaf_vector":"1"}},{"base_weights":[-2.3912312E-3,9.684908E-1,-6.5004E-1,2.2713248E-2,2.1605474E-1,-1.1282502E0,2.0915219E-1,-9.553491E-3,2.1587757E-2,-2.158701E-2,-2.995272E-3,2.3763547E-2,-2.3056531E-2],"categories":[],"categories_nodes":[],"categories_segments":[],"categories_sizes":[],"default_left":[0,0,0,0,0,0,0,0,0,0,0,0,0],"id":35,"left_children":[1,3,5,-1,7,9,11,-1,-1,-1,-1,-1,-1],"loss_changes":[8.3912865E1,1.3065525E1,3.3126076E1,0E0,1.4341671E1,5.1133575E0,5.369883E1,0E0,0E0,0E0,0E0,0E0,0E0],"parents":[2147483647,0,0,1,1,2,2,4,4,5,5,6,6],"right_children":[2,4,6,-1,8,10,12,-1,-1,-1,-1,-1,-1],"split_conditions":[-2.5075626E-1,-8.546532E-1,-1.3812028E-1,2.2713248E-2,-1.3812092E-1,-1.8868646E-1,-2.507355E-1,-9.553491E-3,2.1587757E-2,-2.158701E-2,-2.995272E-3,2.3763547E-2,-2.3056531E-2],"split_indices":[18,10,8,0,8,17,18,0,0,0,0,0,0],"split_type":[0,0,0,0,0,0,0,0,0,0,0,0,0],"sum_hessian":[1.3145E2,5.240097E1,7.904903E1,3.5847534E1,1.6553434E1,5.058256E1,2.8466461E1,9.734918E0,6.818517E0,4.5193153E1,5.389409E0,1.6301865E1,1.2164596E1],"tree_param":{"num_deleted":"0","num_feature":"40","num_nodes":"13","size_leaf_vector":"1"}},{"base_weights":[-5.38274E-3,1.0812708E0,-6.2913865E-1,2.3070853E-2,4.387979E-1,-1.0545776E0,2.2896773E-1,-1.0961083E-2,2.17649E-2,-1.2307191E-2,-2.2658719E-2,2.3571769E-2,-2.2795593E-2],"categories":[],"categories_nodes":[],"categories_segments":[],"categories_sizes":[],"default_left":[0,0,0,0,0,0,0,0,0,0,0,0,0],"id":36,"left_children":[1,3,5,-1,7,9,11,-1,-1,-1,-1,-1,-1],"loss_changes":[8.983934E1,6.8694E0,3.0981323E1,0E0,1.3388948E1,3.8849945E0,5.1172256E1,0E0,0E0,0E0,0E0,0E0,0E0],"parents":[2147483647,0,0,1,1,2,2,4,4,5,5,6,6],"right_children":[2,4,6,-1,8,10,12,-1,-1,-1,-1,-1,-1],"split_conditions":[-1.2603487E0,-1.2040848E0,-1.3812028E-1,2.3070853E-2,-1.3812092E-1,-2.5075623E-1,-2.507355E-1,-1.0961083E-2,2.17649E-2,-1.2307191E-2,-2.2658719E-2,2.3571769E-2,-2.2795593E-2],"split_indices":[15,10,8,0,8,18,18,0,0,0,0,0,0],"split_type":[0,0,0,0,0,0,0,0,0,0,0,0,0],"sum_hessian":[1.3054057E2,4.7338337E1,8.320224E1,3.370037E1,1.3637963E1,5.5471283E1,2.7730957E1,5.972815E0,7.6651483E0,2.4334219E1,3.1137064E1,1.6094227E1,1.163673E1],"tree_param":{"num_deleted":"0","num_feature":"40","num_nodes":"13","size_leaf_vector":"1"}},{"base_weights":[-1.2896672E-2,1.0694231E0,-6.2726426E-1,5.150741E-1,2.3092035E-2,-1.0489355E0,2.5499955E-1,-5.5836053E-3,2.1761514E-2,-1.2083806E-2,-2.253526E-2,2.3398397E-2,-2.2535855E-2],"categories":[],"categories_nodes":[],"categories_segments":[],"categories_sizes":[],"default_left":[0,0,0,0,0,0,0,0,0,0,0,0,0],"id":37,"left_children":[1,3,5,7,-1,9,11,-1,-1,-1,-1,-1,-1],"loss_changes":[8.807556E1,6.044094E0,3.1696426E1,1.0570021E1,0E0,4.052128E0,4.888444E1,0E0,0E0,0E0,0E0,0E0,0E0],"parents":[2147483647,0,0,1,1,2,2,3,3,5,5,6,6],"right_children":[2,4,6,8,-1,10,12,-1,-1,-1,-1,-1,-1],"split_conditions":[-1.2603487E0,-1.6801775E-1,-1.3812028E-1,-1.3812092E-1,2.3092035E-2,-2.5075623E-1,-2.507355E-1,-5.5836053E-3,2.1761514E-2,-1.2083806E-2,-2.253526E-2,2.3398397E-2,-2.2535855E-2],"split_indices":[15,2,8,8,0,18,18,0,0,0,0,0,0],"split_type":[0,0,0,0,0,0,0,0,0,0,0,0,0],"sum_hessian":[1.3044714E2,4.6966488E1,8.348066E1,1.5666124E1,3.1300365E1,5.635656E1,2.71241E1,7.576832E0,8.089293E0,2.4302732E1,3.2053825E1,1.6015068E1,1.1109032E1],"tree_param":{"num_deleted":"0","num_feature":"40","num_nodes":"13","size_leaf_vector":"1"}},{"base_weights":[-1.9409342E-3,1.0463753E0,-6.0969293E-1,4.806288E-1,2.2940816E-2,-1.0315242E0,2.416474E-1,-6.7767077E-3,2.1719525E-2,-1.1172488E-2,-2.2394422E-2,2.3230106E-2,-2.2416431E-2],"categories":[],"categories_nodes":[],"categories_segments":[],"categories_sizes":[],"default_left":[0,0,0,0,0,0,0,0,0,0,0,0,0],"id":38,"left_children":[1,3,5,7,-1,9,11,-1,-1,-1,-1,-1,-1],"loss_changes":[8.2910065E1,6.590946E0,2.9831705E1,1.1686778E1,0E0,4.6114616E0,4.837074E1,0E0,0E0,0E0,0E0,0E0,0E0],"parents":[2147483647,0,0,1,1,2,2,3,3,5,5,6,6],"right_children":[2,4,6,8,-1,10,12,-1,-1,-1,-1,-1,-1],"split_conditions":[-1.2603487E0,-1.6801775E-1,-1.3812028E-1,-2.3865697E-1,2.2940816E-2,-2.5075623E-1,-2.507355E-1,-6.7767077E-3,2.1719525E-2,-1.1172488E-2,-2.2394422E-2,2.3230106E-2,-2.2416431E-2],"split_indices":[15,2,8,17,0,18,18,0,0,0,0,0,0],"split_type":[0,0,0,0,0,0,0,0,0,0,0,0,0],"sum_hessian":[1.2813199E2,4.675765E1,8.1374344E1,1.5901315E1,3.0856333E1,5.4271614E1,2.7102734E1,7.6661243E0,8.23519E0,2.2573198E1,3.1698416E1,1.5889991E1,1.1212742E1],"tree_param":{"num_deleted":"0","num_feature":"40","num_nodes":"13","size_leaf_vector":"1"}},{"base_weights":[1.9778127E-2,1.0887427E0,-5.96115E-1,2.3098305E-2,4.614996E-1,-1.0144073E0,2.3876184E-1,-9.863891E-3,2.1304596E-2,-1.0929357E-2,-2.2197692E-2,2.3057971E-2,-2.2244604E-2],"categories":[],"categories_nodes":[],"categories_segments":[],"categories_sizes":[],"default_left":[0,0,0,0,0,0,0,0,0,0,0,0,0],"id":39,"left_children":[1,3,5,-1,7,9,11,-1,-1,-1,-1,-1,-1],"loss_changes":[8.3953674E1,6.229145E0,2.850302E1,0E0,1.1741416E1,4.6012535E0,4.7198883E1,0E0,0E0,0E0,0E0,0E0,0E0],"parents":[2147483647,0,0,1,1,2,2,4,4,5,5,6,6],"right_children":[2,4,6,-1,8,10,12,-1,-1,-1,-1,-1,-1],"split_conditions":[-1.2603487E0,-1.2040848E0,-1.3812028E-1,2.3098305E-2,-1.3812092E-1,-2.5075623E-1,-2.507355E-1,-9.863891E-3,2.1304596E-2,-1.0929357E-2,-2.2197692E-2,2.3057971E-2,-2.2244604E-2],"split_indices":[15,10,8,0,8,18,18,0,0,0,0,0,0],"split_type":[0,0,0,0,0,0,0,0,0,0,0,0,0],"sum_hessian":[1.2553206E2,4.56071E1,7.992496E1,3.2409645E1,1.3197459E1,5.3103737E1,2.6821217E1,5.7169213E0,7.4805374E0,2.2495232E1,3.0608505E1,1.5712446E1,1.1108771E1],"tree_param":{"num_deleted":"0","num_feature":"40","num_nodes":"13","size_leaf_vector":"1"}},{"base_weights":[-1.1837879E-2,1.10982E0,-6.254896E-1,2.2898313E-2,5.711961E-1,-4.784813E-1,-2.3511956E-2,-7.5577274E-3,2.129841E-2,-1.2487442E-2,8.543577E-3],"categories":[],"categories_nodes":[],"categories_segments":[],"categories_sizes":[],"default_left":[0,0,0,0,0,0,0,0,0,0,0],"id":40,"left_children":[1,3,5,-1,7,9,-1,-1,-1,-1,-1],"loss_changes":[8.8852974E1,4.2041626E0,8.197277E0,0E0,9.770916E0,1.6571331E1,0E0,0E0,0E0,0E0,0E0],"parents":[2147483647,0,0,1,1,2,2,4,4,5,5],"right_children":[2,4,6,-1,8,10,-1,-1,-1,-1,-1],"split_conditions":[-1.2603487E0,3.6294868E0,9.2885554E-2,2.2898313E-2,-2.3865697E-1,6.829755E-1,-2.3511956E-2,-7.5577274E-3,2.129841E-2,-1.2487442E-2,8.543577E-3],"split_indices":[15,13,30,0,17,15,0,0,0,0,0],"split_type":[0,0,0,0,0,0,0,0,0,0,0],"sum_hessian":[1.2708058E2,4.4653156E1,8.242742E1,3.1455309E1,1.3197846E1,6.98476E1,1.2579821E1,5.3095636E0,7.888283E0,5.6335163E1,1.3512443E1],"tree_param":{"num_deleted":"0","num_feature":"40","num_nodes":"11","size_leaf_vector":"1"}},{"base_weights":[-2.3825398E-2,1.0209262E0,-6.1100614E-1,4.6691263E-1,2.2521349E-2,-1.0170511E0,2.3925832E-1,-6.313926E-3,2.1277096E-2,-1.9246783E-2,-2.9765607E-3,2.2922497E-2,-2.209348E-2],"categories":[],"categories_nodes":[],"categories_segments":[],"categories_sizes":[],"default_left":[0,0,0,0,0,0,0,0,0,0,0,0,0],"id":41,"left_children":[1,3,5,7,-1,9,11,-1,-1,-1,-1,-1,-1],"loss_changes":[7.931715E1,6.3253937E0,2.8811869E1,1.0878811E1,0E0,3.8605957E0,4.615556E1,0E0,0E0,0E0,0E0,0E0,0E0],"parents":[2147483647,0,0,1,1,2,2,3,3,5,5,6,6],"right_children":[2,4,6,8,-1,10,12,-1,-1,-1,-1,-1,-1],"split_conditions":[-1.2603487E0,-1.8450342E-1,-1.3812028E-1,-2.3865697E-1,2.2521349E-2,-1.8868646E-1,-2.507355E-1,-6.313926E-3,2.1277096E-2,-1.9246783E-2,-2.9765607E-3,2.2922497E-2,-2.209348E-2],"split_indices":[15,3,8,17,0,17,18,0,0,0,0,0,0],"split_type":[0,0,0,0,0,0,0,0,0,0,0,0,0],"sum_hessian":[1.2727828E2,4.5529835E1,8.174845E1,1.5765675E1,2.976416E1,5.5194218E1,2.655423E1,7.745601E0,8.020073E0,4.9878704E1,5.3155136E0,1.5571632E1,1.0982596E1],"tree_param":{"num_deleted":"0","num_feature":"40","num_nodes":"13","size_leaf_vector":"1"}},{"base_weights":[2.1239916E-2,3.44283E-2,-9.9289256E-1,-4.2910272E-1,-1.3742951E0,-1.46359475E-2,3.2236055E-2,-3.415354E-2,-5.422437E-3],"categories":[],"categories_nodes":[],"categories_segments":[],"categories_sizes":[],"default_left":[0,0,0,0,0,0,0,0,0],"id":42,"left_children":[1,-1,3,5,7,-1,-1,-1,-1],"loss_changes":[6.08671E2,0E0,4.294969E1,7.892828E1,7.3819214E1,0E0,0E0,0E0,0E0],"parents":[2147483647,0,0,2,2,3,3,4,4],"right_children":[2,-1,4,6,8,-1,-1,-1,-1],"split_conditions":[-1.5032642E0,3.44283E-2,-2.5075614E-1,-1.3812084E-1,-2.5075385E-1,-1.46359475E-2,3.2236055E-2,-3.415354E-2,-5.422437E-3],"split_indices":[15,0,18,8,18,0,0,0,0],"split_type":[0,0,0,0,0,0,0,0,0],"sum_hessian":[3.0575775E2,1.0427805E2,2.014797E2,8.215828E1,1.1932143E2,7.0174034E1,1.1984244E1,7.660815E1,4.271328E1],"tree_param":{"num_deleted":"0","num_feature":"40","num_nodes":"9","size_leaf_vector":"1"}},{"base_weights":[-1.3291792E-2,1.030149E0,-5.9274E-1,5.116711E-1,2.218633E-2,-9.8761433E-1,1.9718894E-1,-5.1419083E-3,2.0906135E-2,-1.8791499E-2,-1.2225066E-3,2.2668347E-2,-2.1987608E-2],"categories":[],"categories_nodes":[],"categories_segments":[],"categories_sizes":[],"default_left":[0,0,0,0,0,0,0,0,0,0,0,0,0],"id":43,"left_children":[1,3,5,7,-1,9,11,-1,-1,-1,-1,-1,-1],"loss_changes":[7.600611E1,4.9433365E0,2.5401314E1,9.134026E0,0E0,4.311676E0,4.614974E1,0E0,0E0,0E0,0E0,0E0,0E0],"parents":[2147483647,0,0,1,1,2,2,3,3,5,5,6,6],"right_children":[2,4,6,8,-1,10,12,-1,-1,-1,-1,-1,-1],"split_conditions":[-1.2603487E0,-1.6801775E-1,-1.3812028E-1,-2.3865697E-1,2.218633E-2,-1.8868646E-1,-2.507355E-1,-5.1419083E-3,2.0906135E-2,-1.8791499E-2,-1.2225066E-3,2.2668347E-2,-2.1987608E-2],"split_indices":[15,2,8,17,0,17,18,0,0,0,0,0,0],"split_type":[0,0,0,0,0,0,0,0,0,0,0,0,0],"sum_hessian":[1.2369903E2,4.38887E1,7.981033E1,1.4891489E1,2.8997208E1,5.3044086E1,2.6766249E1,7.105816E0,7.785673E0,4.822245E1,4.821636E0,1.5304974E1,1.1461275E1],"tree_param":{"num_deleted":"0","num_feature":"40","num_nodes":"13","size_leaf_vector":"1"}},{"base_weights":[3.019735E-1,1.4033145E0,-5.3804344E-1,2.727298E-2,5.4032993E-1,-8.0130655E-1,3.1358618E-1,-7.5918986E-3,1.4526506E-2,-1.801385E-2,2.5250612E-2,3.4925923E-2,-2.265915E-2],"categories":[],"categories_nodes":[],"categories_segments":[],"categories_sizes":[],"default_left":[0,0,0,0,0,0,0,0,0,0,0,0,0],"id":44,"left_children":[1,3,5,-1,7,9,11,-1,-1,-1,-1,-1,-1],"loss_changes":[2.4270805E2,1.4667572E1,3.367764E1,0E0,5.798227E0,6.056198E1,1.2096979E2,0E0,0E0,0E0,0E0,0E0,0E0],"parents":[2147483647,0,0,1,1,2,2,4,4,5,5,6,6],"right_children":[2,4,6,-1,8,10,12,-1,-1,-1,-1,-1,-1],"split_conditions":[-1.2603487E0,-1.2178781E0,-2.5075385E-1,2.727298E-2,-8.2600176E-1,-1.3812056E-1,-1.3801537E-1,-7.5918986E-3,1.4526506E-2,-1.801385E-2,2.5250612E-2,3.4925923E-2,-2.265915E-2],"split_indices":[15,10,18,0,10,8,8,0,0,0,0,0,0],"split_type":[0,0,0,0,0,0,0,0,0,0,0,0,0],"sum_hessian":[2.6052982E2,1.12439926E2,1.4808987E2,9.431385E1,1.8126078E1,1.13166084E2,3.492379E1,4.058796E0,1.4067282E1,1.0314001E2,1.0026077E1,1.5035479E1,1.9888313E1],"tree_param":{"num_deleted":"0","num_feature":"40","num_nodes":"13","size_leaf_vector":"1"}},{"base_weights":[-1.52490875E-2,1.0111363E0,-5.8367294E-1,4.9505657E-1,2.1910952E-2,-9.6779376E-1,1.9041838E-1,-5.287546E-3,2.0686282E-2,-1.8455185E-2,-9.637308E-4,2.2312887E-2,-2.1685727E-2],"categories":[],"categories_nodes":[],"categories_segments":[],"categories_sizes":[],"default_left":[0,0,0,0,0,0,0,0,0,0,0,0,0],"id":45,"left_children":[1,3,5,7,-1,9,11,-1,-1,-1,-1,-1,-1],"loss_changes":[7.202799E1,4.910858E0,2.3804688E1,9.030102E0,0E0,4.2684975E0,4.3915222E1,0E0,0E0,0E0,0E0,0E0,0E0],"parents":[2147483647,0,0,1,1,2,2,3,3,5,5,6,6],"right_children":[2,4,6,8,-1,10,12,-1,-1,-1,-1,-1,-1],"split_conditions":[-1.2603487E0,-1.6801775E-1,-1.3812028E-1,-2.3865697E-1,2.1910952E-2,-1.8868646E-1,-2.507355E-1,-5.287546E-3,2.0686282E-2,-1.8455185E-2,-9.637308E-4,2.2312887E-2,-2.1685727E-2],"split_indices":[15,2,8,17,0,17,18,0,0,0,0,0,0],"split_type":[0,0,0,0,0,0,0,0,0,0,0,0,0],"sum_hessian":[1.21446236E2,4.300842E1,7.843781E1,1.4762456E1,2.8245964E1,5.2256687E1,2.6181128E1,7.1036973E0,7.658759E0,4.746814E1,4.788545E0,1.4943975E1,1.1237152E1],"tree_param":{"num_deleted":"0","num_feature":"40","num_nodes":"13","size_leaf_vector":"1"}},{"base_weights":[3.086676E-1,1.3899333E0,-5.223565E-1,2.7038446E-2,5.356506E-1,-7.8545964E-1,3.2645693E-1,-7.4195717E-3,1.435341E-2,-1.7674645E-2,2.4935959E-2,3.4925923E-2,-2.2353036E-2],"categories":[],"categories_nodes":[],"categories_segments":[],"categories_sizes":[],"default_left":[0,0,0,0,0,0,0,0,0,0,0,0,0],"id":46,"left_children":[1,3,5,-1,7,9,11,-1,-1,-1,-1,-1,-1],"loss_changes":[2.3300679E2,1.4408768E1,3.30613E1,0E0,5.6132054E0,5.784974E1,1.1709457E2,0E0,0E0,0E0,0E0,0E0,0E0],"parents":[2147483647,0,0,1,1,2,2,4,4,5,5,6,6],"right_children":[2,4,6,-1,8,10,12,-1,-1,-1,-1,-1,-1],"split_conditions":[-1.2603487E0,-1.2178781E0,-2.5075385E-1,2.7038446E-2,-8.2600176E-1,-1.3812056E-1,-1.3801537E-1,-7.4195717E-3,1.435341E-2,-1.7674645E-2,2.4935959E-2,3.4925923E-2,-2.2353036E-2],"split_indices":[15,10,18,0,10,8,8,0,0,0,0,0,0],"split_type":[0,0,0,0,0,0,0,0,0,0,0,0,0],"sum_hessian":[2.575039E2,1.11611244E2,1.4589267E2,9.346829E1,1.8142956E1,1.1142833E2,3.4464333E1,4.054706E0,1.408825E1,1.0156982E2,9.858515E0,1.4976365E1,1.9487967E1],"tree_param":{"num_deleted":"0","num_feature":"40","num_nodes":"13","size_leaf_vector":"1"}},{"base_weights":[-1.7216103E-2,9.926882E-1,-5.74983E-1,4.7878498E-1,2.1649878E-2,-9.485436E-1,1.837566E-1,-5.4291156E-3,2.047446E-2,-1.8129485E-2,-7.125352E-4,2.1975996E-2,-2.1398345E-2],"categories":[],"categories_nodes":[],"categories_segments":[],"categories_sizes":[],"default_left":[0,0,0,0,0,0,0,0,0,0,0,0,0],"id":47,"left_children":[1,3,5,7,-1,9,11,-1,-1,-1,-1,-1,-1],"loss_changes":[6.827502E1,4.882805E0,2.2300108E1,8.927755E0,0E0,4.2264824E0,4.181101E1,0E0,0E0,0E0,0E0,0E0,0E0],"parents":[2147483647,0,0,1,1,2,2,3,3,5,5,6,6],"right_children":[2,4,6,8,-1,10,12,-1,-1,-1,-1,-1,-1],"split_conditions":[-1.2603487E0,-1.6801775E-1,-1.3812028E-1,-2.3865697E-1,2.1649878E-2,-1.8868646E-1,-2.507355E-1,-5.4291156E-3,2.047446E-2,-1.8129485E-2,-7.125352E-4,2.1975996E-2,-2.1398345E-2],"split_indices":[15,2,8,17,0,17,18,0,0,0,0,0,0],"split_type":[0,0,0,0,0,0,0,0,0,0,0,0,0],"sum_hessian":[1.1919403E2,4.2131004E1,7.706303E1,1.4632853E1,2.7498152E1,5.1471302E1,2.5591722E1,7.100903E0,7.5319495E0,4.6715267E1,4.7560334E0,1.4579448E1,1.1012274E1],"tree_param":{"num_deleted":"0","num_feature":"40","num_nodes":"13","size_leaf_vector":"1"}},{"base_weights":[4.3150428E-1,6.358982E-1,-1.3925378E0,2.967174E-1,1.9560934E0,-1.4162369E0,-2.2899713E-2,-3.3199226E-3,2.000905E-2,3.4925923E-2,-2.2103475E-2,-2.5014745E-2,-2.4132473E-2],"categories":[],"categories_nodes":[],"categories_segments":[],"categories_sizes":[],"default_left":[0,0,0,0,0,0,0,0,0,0,0,0,0],"id":48,"left_children":[1,3,5,7,9,11,-1,-1,-1,-1,-1,-1,-1],"loss_changes":[1.3951425E5,1.5067984E5,7.071094E1,1.10664945E5,1.0664181E5,1.425E1,0E0,0E0,0E0,0E0,0E0,0E0,0E0],"parents":[2147483647,0,0,1,1,2,2,3,3,4,4,5,5],"right_children":[2,4,6,8,10,12,-1,-1,-1,-1,-1,-1,-1],"split_conditions":[9.2885554E-2,6.829755E-1,3.2412343E0,-1.3812049E-1,-1.3808052E-1,-1.8868646E-1,-2.2899713E-2,-3.3199226E-3,2.000905E-2,3.4925923E-2,-2.2103475E-2,-2.5014745E-2,-2.4132473E-2],"split_indices":[30,15,11,8,8,17,0,0,0,0,0,0,0],"split_type":[0,0,0,0,0,0,0,0,0,0,0,0,0],"sum_hessian":[3.742069E5,3.365008E5,3.770611E4,2.6772012E5,6.878067E4,2.9175312E4,8.530795E3,1.7015872E5,9.756142E4,5.8769652E4,1.0011022E4,1.978749E4,9.387823E3],"tree_param":{"num_deleted":"0","num_feature":"40","num_nodes":"13","size_leaf_vector":"1"}},{"base_weights":[7.452575E-1,1.7571595E-1,3.4925923E-2,3.9808455E-1,-2.3603855E-2,9.821776E-4,2.043262E-2],"categories":[],"categories_nodes":[],"categories_segments":[],"categories_sizes":[],"default_left":[0,0,0,0,0,0,0],"id":49,"left_children":[1,3,-1,5,-1,-1,-1],"loss_changes":[6.2709216E2,1.4985355E2,0E0,1.0140862E2,0E0,0E0,0E0],"parents":[2147483647,0,0,1,1,3,3],"right_children":[2,4,-1,6,-1,-1,-1],"split_conditions":[-3.6387973E-2,9.2885554E-2,3.4925923E-2,3.1860223E-1,-2.3603855E-2,9.821776E-4,2.043262E-2],"split_indices":[5,30,0,15,0,0,0],"split_type":[0,0,0,0,0,0,0],"sum_hessian":[5.274642E2,4.3863025E2,8.883393E1,3.8353152E2,5.5098747E1,2.66565E2,1.16966515E2],"tree_param":{"num_deleted":"0","num_feature":"40","num_nodes":"7","size_leaf_vector":"1"}},{"base_weights":[4.350966E-1,6.363356E-1,-1.3778561E0,2.9989827E-1,1.9385728E0,-1.4007772E0,-2.2681043E-2,-3.069148E-3,1.978004E-2,3.4925923E-2,-2.1804703E-2,-2.4695823E-2,-2.3968747E-2],"categories":[],"categories_nodes":[],"categories_segments":[],"categories_sizes":[],"default_left":[0,0,0,0,0,0,0,0,0,0,0,0,0],"id":50,"left_children":[1,3,5,7,9,11,-1,-1,-1,-1,-1,-1,-1],"loss_changes":[1.3538416E5,1.4633408E5,6.535156E1,1.0514161E5,1.0323683E5,8.9296875E0,0E0,0E0,0E0,0E0,0E0,0E0,0E0],"parents":[2147483647,0,0,1,1,2,2,3,3,4,4,5,5],"right_children":[2,4,6,8,10,12,-1,-1,-1,-1,-1,-1,-1],"split_conditions":[9.2885554E-2,6.829755E-1,-2.5075465E-1,-1.3812049E-1,-1.3808052E-1,-1.8868646E-1,-2.2681043E-2,-3.069148E-3,1.978004E-2,3.4925923E-2,-2.1804703E-2,-2.4695823E-2,-2.3968747E-2],"split_indices":[30,15,18,8,8,17,0,0,0,0,0,0,0],"split_type":[0,0,0,0,0,0,0,0,0,0,0,0,0],"sum_hessian":[3.7107797E5,3.3400397E5,3.7074023E4,2.6543038E5,6.857359E4,2.8727361E4,8.34666E3,1.6894019E5,9.649017E4,5.8767523E4,9.80607E3,1.944439E4,9.282971E3],"tree_param":{"num_deleted":"0","num_feature":"40","num_nodes":"13","size_leaf_vector":"1"}},{"base_weights":[3.2672676E-1,1.3836198E0,-5.0239944E-1,2.690581E-2,5.422838E-1,-7.594098E-1,3.1138837E-1,-7.1019223E-3,1.4385999E-2,-1.7057844E-2,2.4175609E-2,3.4925923E-2,-2.204447E-2],"categories":[],"categories_nodes":[],"categories_segments":[],"categories_sizes":[],"default_left":[0,0,0,0,0,0,0,0,0,0,0,0,0],"id":51,"left_children":[1,3,5,-1,7,9,11,-1,-1,-1,-1,-1,-1],"loss_changes":[2.2295038E2,1.3938568E1,3.0116634E1,0E0,5.445792E0,5.2087997E1,1.0972391E2,0E0,0E0,0E0,0E0,0E0,0E0],"parents":[2147483647,0,0,1,1,2,2,4,4,5,5,6,6],"right_children":[2,4,6,-1,8,10,12,-1,-1,-1,-1,-1,-1],"split_conditions":[-1.2603487E0,-1.2178781E0,-2.5075385E-1,2.690581E-2,-8.2600176E-1,-1.3812056E-1,-1.3801537E-1,-7.1019223E-3,1.4385999E-2,-1.7057844E-2,2.4175609E-2,3.4925923E-2,-2.204447E-2],"split_indices":[15,10,18,0,10,8,8,0,0,0,0,0,0],"split_type":[0,0,0,0,0,0,0,0,0,0,0,0,0],"sum_hessian":[2.5262984E2,1.1076639E2,1.4186346E2,9.263574E1,1.813064E1,1.07864525E2,3.399893E1,4.0463004E0,1.4084339E1,9.842785E1,9.436676E0,1.4936837E1,1.9062096E1],"tree_param":{"num_deleted":"0","num_feature":"40","num_nodes":"13","size_leaf_vector":"1"}},{"base_weights":[4.2536238E-1,6.191606E-1,-1.3603163E0,2.912365E-1,1.8817908E0,-1.3819755E0,-2.2444868E-2,-3.0831054E-3,1.9434066E-2,3.4925923E-2,-2.179536E-2,-2.435472E-2,-2.3666356E-2],"categories":[],"categories_nodes":[],"categories_segments":[],"categories_sizes":[],"default_left":[0,0,0,0,0,0,0,0,0,0,0,0,0],"id":52,"left_children":[1,3,5,7,9,11,-1,-1,-1,-1,-1,-1,-1],"loss_changes":[1.28196945E5,1.383641E5,5.7179688E1,1.01961125E5,1.02432125E5,7.6367188E0,0E0,0E0,0E0,0E0,0E0,0E0,0E0],"parents":[2147483647,0,0,1,1,2,2,3,3,4,4,5,5],"right_children":[2,4,6,8,10,12,-1,-1,-1,-1,-1,-1,-1],"split_conditions":[9.2885554E-2,6.829755E-1,3.2412343E0,-1.3812049E-1,-1.3808052E-1,-2.5075614E-1,-2.2444868E-2,-3.0831054E-3,1.9434066E-2,3.4925923E-2,-2.179536E-2,-2.435472E-2,-2.3666356E-2],"split_indices":[30,15,11,8,8,18,0,0,0,0,0,0,0],"split_type":[0,0,0,0,0,0,0,0,0,0,0,0,0],"sum_hessian":[3.7044234E5,3.3417525E5,3.6267105E4,2.652794E5,6.8895836E4,2.8129605E4,8.1375E3,1.6903975E5,9.623966E4,5.9096086E4,9.79975E3,1.905013E4,9.079475E3],"tree_param":{"num_deleted":"0","num_feature":"40","num_nodes":"13","size_leaf_vector":"1"}},{"base_weights":[7.396227E-1,1.7185748E-1,3.4925923E-2,3.8150606E-1,-2.3041852E-2,7.691452E-4,1.9875571E-2],"categories":[],"categories_nodes":[],"categories_segments":[],"categories_sizes":[],"default_left":[0,0,0,0,0,0,0],"id":53,"left_children":[1,3,-1,5,-1,-1,-1],"loss_changes":[6.1656775E2,1.3653581E2,0E0,9.755081E1,0E0,0E0,0E0],"parents":[2147483647,0,0,1,1,3,3],"right_children":[2,4,-1,6,-1,-1,-1],"split_conditions":[-3.6387973E-2,9.2885554E-2,3.4925923E-2,3.1860223E-1,-2.3041852E-2,7.691452E-4,1.9875571E-2],"split_indices":[5,30,0,15,0,0,0],"split_type":[0,0,0,0,0,0,0],"sum_hessian":[5.237196E2,4.340885E2,8.96311E1,3.812387E2,5.2849785E1,2.6438336E2,1.1685534E2],"tree_param":{"num_deleted":"0","num_feature":"40","num_nodes":"7","size_leaf_vector":"1"}},{"base_weights":[-2.4519097E-2,9.7368085E-1,-5.809425E-1,4.455689E-1,2.1444244E-2,-9.2019737E-1,1.2611811E-1,-5.4466957E-3,1.992126E-2,-9.798987E-3,-2.0818667E-2,2.114047E-2,-2.1209288E-2],"categories":[],"categories_nodes":[],"categories_segments":[],"categories_sizes":[],"default_left":[0,0,0,0,0,0,0,0,0,0,0,0,0],"id":54,"left_children":[1,3,5,7,-1,9,11,-1,-1,-1,-1,-1,-1],"loss_changes":[6.540319E1,5.1143227E0,1.8245832E1,8.397385E0,0E0,4.330414E0,3.8378128E1,0E0,0E0,0E0,0E0,0E0,0E0],"parents":[2147483647,0,0,1,1,2,2,3,3,5,5,6,6],"right_children":[2,4,6,8,-1,10,12,-1,-1,-1,-1,-1,-1],"split_conditions":[-1.2603487E0,-1.6801775E-1,-1.3812028E-1,-2.3865697E-1,2.1444244E-2,-2.5075623E-1,-2.507355E-1,-5.4466957E-3,1.992126E-2,-9.798987E-3,-2.0818667E-2,2.114047E-2,-2.1209288E-2],"split_indices":[15,2,8,17,0,18,18,0,0,0,0,0,0],"split_type":[0,0,0,0,0,0,0,0,0,0,0,0,0],"sum_hessian":[1.1573567E2,4.1155167E1,7.4580505E1,1.4270907E1,2.6884258E1,5.0195E1,2.438551E1,7.093469E0,7.1774383E0,2.295341E1,2.724159E1,1.3534364E1,1.0851145E1],"tree_param":{"num_deleted":"0","num_feature":"40","num_nodes":"13","size_leaf_vector":"1"}},{"base_weights":[-2.6772445E-2,9.665841E-1,-5.8023214E-1,4.4044223E-1,2.1333236E-2,-9.120795E-1,1.1490482E-1,-5.37647E-3,1.980004E-2,-1.7524917E-2,1.9031501E-4,2.0959763E-2,-2.1130716E-2],"categories":[],"categories_nodes":[],"categories_segments":[],"categories_sizes":[],"default_left":[0,0,0,0,0,0,0,0,0,0,0,0,0],"id":55,"left_children":[1,3,5,7,-1,9,11,-1,-1,-1,-1,-1,-1],"loss_changes":[6.410781E1,5.061962E0,1.7371916E1,8.230142E0,0E0,4.2977676E0,3.7510628E1,0E0,0E0,0E0,0E0,0E0,0E0],"parents":[2147483647,0,0,1,1,2,2,3,3,5,5,6,6],"right_children":[2,4,6,8,-1,10,12,-1,-1,-1,-1,-1,-1],"split_conditions":[-1.2603487E0,-1.6801775E-1,-1.3812028E-1,-2.3865697E-1,2.1333236E-2,-1.8868646E-1,-2.507355E-1,-5.37647E-3,1.980004E-2,-1.7524917E-2,1.9031501E-4,2.0959763E-2,-2.1130716E-2],"split_indices":[15,2,8,17,0,17,18,0,0,0,0,0,0],"split_type":[0,0,0,0,0,0,0,0,0,0,0,0,0],"sum_hessian":[1.14585594E2,4.07323E1,7.3853294E1,1.4188687E1,2.6543612E1,4.9777985E1,2.4075308E1,7.0914316E0,7.0972557E0,4.5210293E1,4.567691E0,1.3286021E1,1.0789286E1],"tree_param":{"num_deleted":"0","num_feature":"40","num_nodes":"13","size_leaf_vector":"1"}},{"base_weights":[7.466331E-1,1.804351E-1,3.4925923E-2,3.8659266E-1,-2.2818752E-2,9.2473096E-4,1.9738179E-2],"categories":[],"categories_nodes":[],"categories_segments":[],"categories_sizes":[],"default_left":[0,0,0,0,0,0,0],"id":56,"left_children":[1,3,-1,5,-1,-1,-1],"loss_changes":[6.0642883E2,1.3300374E2,0E0,9.431041E1,0E0,0E0,0E0],"parents":[2147483647,0,0,1,1,3,3],"right_children":[2,4,-1,6,-1,-1,-1],"split_conditions":[-3.6387973E-2,9.2885554E-2,3.4925923E-2,3.1860223E-1,-2.2818752E-2,9.2473096E-4,1.9738179E-2],"split_indices":[5,30,0,15,0,0,0],"split_type":[0,0,0,0,0,0,0],"sum_hessian":[5.2126105E2,4.3117853E2,9.008251E1,3.7933252E2,5.1846016E1,2.6259677E2,1.1673573E2],"tree_param":{"num_deleted":"0","num_feature":"40","num_nodes":"7","size_leaf_vector":"1"}},{"base_weights":[-2.9017795E-2,9.595137E-1,-5.794117E-1,4.3525454E-1,2.1224078E-2,-9.038134E-1,1.037832E-1,-5.309663E-3,1.9680195E-2,-9.4914045E-3,-2.0593522E-2,2.0785308E-2,-2.105444E-2],"categories":[],"categories_nodes":[],"categories_segments":[],"categories_sizes":[],"default_left":[0,0,0,0,0,0,0,0,0,0,0,0,0],"id":57,"left_children":[1,3,5,7,-1,9,11,-1,-1,-1,-1,-1,-1],"loss_changes":[6.2824833E1,5.012062E0,1.6525242E1,8.067805E0,0E0,4.358303E0,3.666968E1,0E0,0E0,0E0,0E0,0E0,0E0],"parents":[2147483647,0,0,1,1,2,2,3,3,5,5,6,6],"right_children":[2,4,6,8,-1,10,12,-1,-1,-1,-1,-1,-1],"split_conditions":[-1.2603487E0,-1.6801775E-1,-1.3812028E-1,-2.3865697E-1,2.1224078E-2,-2.5075623E-1,-2.507355E-1,-5.309663E-3,1.9680195E-2,-9.4914045E-3,-2.0593522E-2,2.0785308E-2,-2.105444E-2],"split_indices":[15,2,8,17,0,18,18,0,0,0,0,0,0],"split_type":[0,0,0,0,0,0,0,0,0,0,0,0,0],"sum_hessian":[1.1344766E2,4.0308502E1,7.313916E1,1.4106215E1,2.620229E1,4.9372612E1,2.3766542E1,7.0894265E0,7.0167875E0,2.2680079E1,2.6692535E1,1.3038949E1,1.0727593E1],"tree_param":{"num_deleted":"0","num_feature":"40","num_nodes":"13","size_leaf_vector":"1"}},{"base_weights":[4.3104166E-1,6.1397606E-1,-1.3216634E0,2.9378405E-1,1.8287916E0,-1.3413767E0,-2.1864751E-2,1.465361E-2,-6.7927563E-3,3.4925923E-2,-2.150328E-2,-2.3608375E-2,-2.30354E-2],"categories":[],"categories_nodes":[],"categories_segments":[],"categories_sizes":[],"default_left":[0,0,0,0,0,0,0,0,0,0,0,0,0],"id":58,"left_children":[1,3,5,7,9,11,-1,-1,-1,-1,-1,-1,-1],"loss_changes":[1.16250125E5,1.27699875E5,4.534375E1,9.67418E4,9.801983E4,4.4726562E0,0E0,0E0,0E0,0E0,0E0,0E0,0E0],"parents":[2147483647,0,0,1,1,2,2,3,3,4,4,5,5],"right_children":[2,4,6,8,10,12,-1,-1,-1,-1,-1,-1,-1],"split_conditions":[9.2885554E-2,6.829755E-1,-2.5075465E-1,-2.5075614E-1,-1.3808052E-1,-1.8868646E-1,-2.1864751E-2,1.465361E-2,-6.7927563E-3,3.4925923E-2,-2.150328E-2,-2.3608375E-2,-2.30354E-2],"split_indices":[30,15,18,18,8,17,0,0,0,0,0,0,0],"split_type":[0,0,0,0,0,0,0,0,0,0,0,0,0],"sum_hessian":[3.625643E5,3.2829947E5,3.426482E4,2.5981945E5,6.848002E4,2.6687543E4,7.577278E3,1.4444636E5,1.1537309E5,5.890107E4,9.578953E3,1.8078451E4,8.609092E3],"tree_param":{"num_deleted":"0","num_feature":"40","num_nodes":"13","size_leaf_vector":"1"}},{"base_weights":[-3.3340286E-2,9.4516575E-1,-5.7597053E-1,4.187008E-1,2.105236E-2,-8.954459E-1,1.0284411E-1,-5.449921E-3,1.9485997E-2,-1.7250465E-2,5.804377E-4,2.0620795E-2,-2.0839127E-2],"categories":[],"categories_nodes":[],"categories_segments":[],"categories_sizes":[],"default_left":[0,0,0,0,0,0,0,0,0,0,0,0,0],"id":59,"left_children":[1,3,5,7,-1,9,11,-1,-1,-1,-1,-1,-1],"loss_changes":[6.0455578E1,5.064739E0,1.5967556E1,7.9785185E0,0E0,4.3124313E0,3.5396206E1,0E0,0E0,0E0,0E0,0E0,0E0],"parents":[2147483647,0,0,1,1,2,2,3,3,5,5,6,6],"right_children":[2,4,6,8,-1,10,12,-1,-1,-1,-1,-1,-1],"split_conditions":[-1.2603487E0,-1.6801775E-1,-1.3812028E-1,-2.3865697E-1,2.105236E-2,-1.8868646E-1,-2.507355E-1,-5.449921E-3,1.9485997E-2,-1.7250465E-2,5.804377E-4,2.0620795E-2,-2.0839127E-2],"split_indices":[15,2,8,17,0,17,18,0,0,0,0,0,0],"split_type":[0,0,0,0,0,0,0,0,0,0,0,0,0],"sum_hessian":[1.1183412E2,3.9629616E1,7.220451E1,1.3977062E1,2.5652554E1,4.8880436E1,2.3324076E1,7.0935607E0,6.8835015E0,4.439984E1,4.480595E0,1.2782389E1,1.0541686E1],"tree_param":{"num_deleted":"0","num_feature":"40","num_nodes":"13","size_leaf_vector":"1"}},{"base_weights":[3.4666434E-1,1.3679153E0,-4.750652E-1,2.664955E-2,5.3531134E-1,-7.307567E-1,3.2064688E-1,-6.967747E-3,1.4174463E-2,-1.6390374E-2,2.3431541E-2,3.4925923E-2,-2.1560999E-2],"categories":[],"categories_nodes":[],"categories_segments":[],"categories_sizes":[],"default_left":[0,0,0,0,0,0,0,0,0,0,0,0,0],"id":60,"left_children":[1,3,5,-1,7,9,11,-1,-1,-1,-1,-1,-1],"loss_changes":[2.0782616E2,1.3710831E1,2.8218494E1,0E0,5.2692804E0,4.6226315E1,1.02096825E2,0E0,0E0,0E0,0E0,0E0,0E0],"parents":[2147483647,0,0,1,1,2,2,4,4,5,5,6,6],"right_children":[2,4,6,-1,8,10,12,-1,-1,-1,-1,-1,-1],"split_conditions":[-1.2603487E0,-1.2178781E0,-2.5075385E-1,2.664955E-2,-8.2600176E-1,-1.3812056E-1,-1.3801537E-1,-6.967747E-3,1.4174463E-2,-1.6390374E-2,2.3431541E-2,3.4925923E-2,-2.1560999E-2],"split_indices":[15,10,18,0,10,8,8,0,0,0,0,0,0],"split_type":[0,0,0,0,0,0,0,0,0,0,0,0,0],"sum_hessian":[2.458759E2,1.09332306E2,1.365436E2,9.118047E1,1.8151833E1,1.03399254E2,3.314435E1,4.0424128E0,1.4109421E1,9.447316E1,8.926089E0,1.4800961E1,1.8343386E1],"tree_param":{"num_deleted":"0","num_feature":"40","num_nodes":"13","size_leaf_vector":"1"}},{"base_weights":[-3.5363782E-2,9.2815316E-1,-5.681222E-1,4.034071E-1,2.0831823E-2,-8.7805104E-1,9.7135305E-2,-5.587259E-3,1.9307982E-2,-9.033708E-3,-2.0243732E-2,2.0361422E-2,-2.0589408E-2],"categories":[],"categories_nodes":[],"categories_segments":[],"categories_sizes":[],"default_left":[0,0,0,0,0,0,0,0,0,0,0,0,0],"id":61,"left_children":[1,3,5,7,-1,9,11,-1,-1,-1,-1,-1,-1],"loss_changes":[5.7318718E1,5.0443916E0,1.4902195E1,7.8964176E0,0E0,4.3832436E0,3.3756012E1,0E0,0E0,0E0,0E0,0E0,0E0],"parents":[2147483647,0,0,1,1,2,2,3,3,5,5,6,6],"right_children":[2,4,6,8,-1,10,12,-1,-1,-1,-1,-1,-1],"split_conditions":[-1.2603487E0,-1.6801775E-1,-1.3812028E-1,-2.3865697E-1,2.0831823E-2,-2.5075623E-1,-2.507355E-1,-5.587259E-3,1.9307982E-2,-9.033708E-3,-2.0243732E-2,2.0361422E-2,-2.0589408E-2],"split_indices":[15,2,8,17,0,18,18,0,0,0,0,0,0],"split_type":[0,0,0,0,0,0,0,0,0,0,0,0,0],"sum_hessian":[1.0963509E2,3.8772022E1,7.086307E1,1.3848516E1,2.4923508E1,4.8123516E1,2.273955E1,7.089892E0,6.758625E0,2.2323584E1,2.5799932E1,1.2421984E1,1.0317567E1],"tree_param":{"num_deleted":"0","num_feature":"40","num_nodes":"13","size_leaf_vector":"1"}},{"base_weights":[7.934833E-1,2.1528666E-1,3.4925923E-2,4.1599807E-1,-2.224539E-2,1.3682082E-3,2.0276666E-2],"categories":[],"categories_nodes":[],"categories_segments":[],"categories_sizes":[],"default_left":[0,0,0,0,0,0,0],"id":62,"left_children":[1,3,-1,5,-1,-1,-1],"loss_changes":[5.929752E2,1.2604089E2,0E0,9.319966E1,0E0,0E0,0E0],"parents":[2147483647,0,0,1,1,3,3],"right_children":[2,4,-1,6,-1,-1,-1],"split_conditions":[-3.6387973E-2,9.2885554E-2,3.4925923E-2,3.1860223E-1,-2.224539E-2,1.3682082E-3,2.0276666E-2],"split_indices":[5,30,0,15,0,0,0],"split_type":[0,0,0,0,0,0,0],"sum_hessian":[5.0774472E2,4.1892502E2,8.881971E1,3.6980267E2,4.9122364E1,2.5524516E2,1.14557495E2],"tree_param":{"num_deleted":"0","num_feature":"40","num_nodes":"7","size_leaf_vector":"1"}},{"base_weights":[7.9955053E-1,2.230229E-1,3.4925923E-2,4.2031488E-1,-2.2057235E-2,1.5125942E-3,2.0121112E-2],"categories":[],"categories_nodes":[],"categories_segments":[],"categories_sizes":[],"default_left":[0,0,0,0,0,0,0],"id":63,"left_children":[1,3,-1,5,-1,-1,-1],"loss_changes":[5.833697E2,1.2283393E2,0E0,9.002198E1,0E0,0E0,0E0],"parents":[2147483647,0,0,1,1,3,3],"right_children":[2,4,-1,6,-1,-1,-1],"split_conditions":[-3.6387973E-2,9.2885554E-2,3.4925923E-2,3.1860223E-1,-2.2057235E-2,1.5125942E-3,2.0121112E-2],"split_indices":[5,30,0,15,0,0,0],"split_type":[0,0,0,0,0,0,0],"sum_hessian":[5.054236E2,4.1613525E2,8.928838E1,3.67998E2,4.8137264E1,2.5352574E2,1.1447223E2],"tree_param":{"num_deleted":"0","num_feature":"40","num_nodes":"7","size_leaf_vector":"1"}},{"base_weights":[3.6057854E-1,1.358382E0,-4.5494956E-1,2.6480187E-2,5.354252E-1,-7.1093345E-1,3.3739775E-1,-6.7442884E-3,1.4092034E-2,-1.5965307E-2,2.3121567E-2,3.4925923E-2,-2.123068E-2],"categories":[],"categories_nodes":[],"categories_segments":[],"categories_sizes":[],"default_left":[0,0,0,0,0,0,0,0,0,0,0,0,0],"id":64,"left_children":[1,3,5,-1,7,9,11,-1,-1,-1,-1,-1,-1],"loss_changes":[1.9799103E2,1.3403076E1,2.7462543E1,0E0,5.1052804E0,4.331226E1,9.818902E1,0E0,0E0,0E0,0E0,0E0,0E0],"parents":[2147483647,0,0,1,1,2,2,4,4,5,5,6,6],"right_children":[2,4,6,-1,8,10,12,-1,-1,-1,-1,-1,-1],"split_conditions":[-1.2603487E0,-1.2178781E0,-2.5075385E-1,2.6480187E-2,-8.2600176E-1,-1.3812056E-1,-1.3801537E-1,-6.7442884E-3,1.4092034E-2,-1.5965307E-2,2.3121567E-2,3.4925923E-2,-2.123068E-2],"split_indices":[15,10,18,0,10,8,8,0,0,0,0,0,0],"split_type":[0,0,0,0,0,0,0,0,0,0,0,0,0],"sum_hessian":[2.415515E2,1.08336044E2,1.3321545E2,9.018156E1,1.815449E1,1.0076426E2,3.245119E1,4.0354934E0,1.4118997E1,9.211244E1,8.651814E0,1.4627592E1,1.7823599E1],"tree_param":{"num_deleted":"0","num_feature":"40","num_nodes":"13","size_leaf_vector":"1"}},{"base_weights":[7.9225487E-1,2.2323133E-1,3.4925923E-2,4.158939E-1,-2.1864139E-2,3.4137615E-3,2.62513E-2],"categories":[],"categories_nodes":[],"categories_segments":[],"categories_sizes":[],"default_left":[0,0,0,0,0,0,0],"id":65,"left_children":[1,3,-1,5,-1,-1,-1],"loss_changes":[5.675572E2,1.1832391E2,0E0,8.7744835E1,0E0,0E0,0E0],"parents":[2147483647,0,0,1,1,3,3],"right_children":[2,4,-1,6,-1,-1,-1],"split_conditions":[-3.6387973E-2,9.2885554E-2,3.4925923E-2,6.829755E-1,-2.1864139E-2,3.4137615E-3,2.62513E-2],"split_indices":[5,30,0,15,0,0,0],"split_type":[0,0,0,0,0,0,0],"sum_hessian":[5.041796E2,4.134679E2,9.07117E1,3.6634317E2,4.7124725E1,3.055816E2,6.0761562E1],"tree_param":{"num_deleted":"0","num_feature":"40","num_nodes":"7","size_leaf_vector":"1"}},{"base_weights":[4.4513637E-1,6.1709857E-1,-1.2798859E0,3.0144772E-1,1.7907561E0,-1.2976432E0,-2.1226056E-2,1.4311349E-2,-6.3455882E-3,3.4925923E-2,-2.0982092E-2,-2.2826508E-2,-2.2307219E-2],"categories":[],"categories_nodes":[],"categories_segments":[],"categories_sizes":[],"default_left":[0,0,0,0,0,0,0,0,0,0,0,0,0],"id":66,"left_children":[1,3,5,7,9,11,-1,-1,-1,-1,-1,-1,-1],"loss_changes":[1.0384742E5,1.1793502E5,3.4710938E1,8.640868E4,9.09867E4,3.1054688E0,0E0,0E0,0E0,0E0,0E0,0E0,0E0],"parents":[2147483647,0,0,1,1,2,2,3,3,4,4,5,5],"right_children":[2,4,6,8,10,12,-1,-1,-1,-1,-1,-1,-1],"split_conditions":[9.2885554E-2,6.829755E-1,3.2412343E0,-2.5075614E-1,-1.3808052E-1,-1.8868646E-1,-2.1226056E-2,1.4311349E-2,-6.3455882E-3,3.4925923E-2,-2.0982092E-2,-2.2826508E-2,-2.2307219E-2],"split_indices":[30,15,11,18,8,17,0,0,0,0,0,0,0],"split_type":[0,0,0,0,0,0,0,0,0,0,0,0,0],"sum_hessian":[3.500768E5,3.1834284E5,3.1733984E4,2.5087278E5,6.7470055E4,2.48597E4,6.8742856E3,1.4099717E5,1.0987562E5,5.830546E4,9.16459E3,1.6878445E4,7.981254E3],"tree_param":{"num_deleted":"0","num_feature":"40","num_nodes":"13","size_leaf_vector":"1"}},{"base_weights":[7.8113335E-1,2.1725279E-1,3.4925923E-2,-1.6159914E-1,9.61176E-1,1.0811208E-2,-2.2124972E-2,3.3309672E-2,-2.1897096E-2],"categories":[],"categories_nodes":[],"categories_segments":[],"categories_sizes":[],"default_left":[0,0,0,0,0,0,0,0,0],"id":67,"left_children":[1,3,-1,5,7,-1,-1,-1,-1],"loss_changes":[5.6056165E2,1.1679469E2,0E0,2.3815282E2,2.953994E2,0E0,0E0,0E0,0E0],"parents":[2147483647,0,0,1,1,3,3,4,4],"right_children":[2,4,-1,6,8,-1,-1,-1,-1],"split_conditions":[-3.6387973E-2,-1.3812049E-1,3.4925923E-2,-1.3812098E-1,-2.4914914E-1,1.0811208E-2,-2.2124972E-2,3.3309672E-2,-2.1897096E-2],"split_indices":[5,8,0,8,18,0,0,0,0],"split_type":[0,0,0,0,0,0,0,0,0],"sum_hessian":[5.0433588E2,4.1285437E2,9.148152E1,2.740658E2,1.3878856E2,1.6088011E2,1.1318569E2,9.734317E1,4.1445393E1],"tree_param":{"num_deleted":"0","num_feature":"40","num_nodes":"9","size_leaf_vector":"1"}},{"base_weights":[-5.238922E-2,9.004296E-1,-5.7560325E-1,3.710604E-1,2.0532249E-2,-8.6406183E-1,5.7144005E-2,-6.032087E-3,1.9024938E-2,-1.6744578E-2,1.5318135E-3,1.9906985E-2,-2.0470846E-2],"categories":[],"categories_nodes":[],"categories_segments":[],"categories_sizes":[],"default_left":[0,0,0,0,0,0,0,0,0,0,0,0,0],"id":68,"left_children":[1,3,5,7,-1,9,11,-1,-1,-1,-1,-1,-1],"loss_changes":[5.4171246E1,5.1808815E0,1.2841089E1,7.9155073E0,0E0,4.4331703E0,3.1798403E1,0E0,0E0,0E0,0E0,0E0,0E0],"parents":[2147483647,0,0,1,1,2,2,3,3,5,5,6,6],"right_children":[2,4,6,8,-1,10,12,-1,-1,-1,-1,-1,-1],"split_conditions":[-1.2603487E0,-1.6801775E-1,-1.3812028E-1,-2.3865697E-1,2.0532249E-2,-1.8868646E-1,-2.507355E-1,-6.032087E-3,1.9024938E-2,-1.6744578E-2,1.5318135E-3,1.9906985E-2,-2.0470846E-2],"split_indices":[15,2,8,17,0,17,18,0,0,0,0,0,0],"split_type":[0,0,0,0,0,0,0,0,0,0,0,0,0],"sum_hessian":[1.0662272E2,3.753933E1,6.908339E1,1.3647458E1,2.3891872E1,4.72001E1,2.1883287E1,7.0927052E0,6.5547523E0,4.2917885E1,4.282215E0,1.1673945E1,1.0209342E1],"tree_param":{"num_deleted":"0","num_feature":"40","num_nodes":"13","size_leaf_vector":"1"}},{"base_weights":[-5.5786595E-2,8.8711196E-1,-5.732339E-1,3.5068613E-1,2.039938E-2,-8.528257E-1,5.0389845E-2,-6.105787E-3,1.8752683E-2,-1.6553715E-2,1.65327E-3,1.9658126E-2,-2.0224065E-2],"categories":[],"categories_nodes":[],"categories_segments":[],"categories_sizes":[],"default_left":[0,0,0,0,0,0,0,0,0,0,0,0,0],"id":69,"left_children":[1,3,5,7,-1,9,11,-1,-1,-1,-1,-1,-1],"loss_changes":[5.210868E1,5.2989845E0,1.2055174E1,7.6923656E0,0E0,4.3812294E0,3.0244204E1,0E0,0E0,0E0,0E0,0E0,0E0],"parents":[2147483647,0,0,1,1,2,2,3,3,5,5,6,6],"right_children":[2,4,6,8,-1,10,12,-1,-1,-1,-1,-1,-1],"split_conditions":[-1.2603487E0,-1.6801775E-1,-1.3812028E-1,-2.3865697E-1,2.039938E-2,-1.8868646E-1,-2.507355E-1,-6.105787E-3,1.8752683E-2,-1.6553715E-2,1.65327E-3,1.9658126E-2,-2.0224065E-2],"split_indices":[15,2,8,17,0,17,18,0,0,0,0,0,0],"split_type":[0,0,0,0,0,0,0,0,0,0,0,0,0],"sum_hessian":[1.04759636E2,3.686656E1,6.789308E1,1.3447275E1,2.3419285E1,4.662291E1,2.1270168E1,7.09392E0,6.353355E0,4.236952E1,4.2533894E0,1.1291555E1,9.978614E0],"tree_param":{"num_deleted":"0","num_feature":"40","num_nodes":"13","size_leaf_vector":"1"}},{"base_weights":[4.3872386E-1,6.0353535E-1,-1.2615074E0,2.958175E-1,1.7371594E0,-1.2785796E0,-2.0929579E-2,-2.3175494E-3,1.8915044E-2,3.4925923E-2,-2.0787198E-2,-2.2479776E-2,-2.2003183E-2],"categories":[],"categories_nodes":[],"categories_segments":[],"categories_sizes":[],"default_left":[0,0,0,0,0,0,0,0,0,0,0,0,0],"id":70,"left_children":[1,3,5,7,9,11,-1,-1,-1,-1,-1,-1,-1],"loss_changes":[9.665018E4,1.0968411E5,3.1246094E1,8.343906E4,8.690967E4,2.2578125E0,0E0,0E0,0E0,0E0,0E0,0E0,0E0],"parents":[2147483647,0,0,1,1,2,2,3,3,4,4,5,5],"right_children":[2,4,6,8,10,12,-1,-1,-1,-1,-1,-1,-1],"split_conditions":[9.2885554E-2,6.829755E-1,3.2412343E0,-1.3812049E-1,-1.3808052E-1,-2.5075614E-1,-2.0929579E-2,-2.3175494E-3,1.8915044E-2,3.4925923E-2,-2.0787198E-2,-2.2479776E-2,-2.2003183E-2],"split_indices":[30,15,11,8,8,18,0,0,0,0,0,0,0],"split_type":[0,0,0,0,0,0,0,0,0,0,0,0,0],"sum_hessian":[3.4490747E5,3.1442903E5,3.0478447E4,2.4730131E5,6.712771E4,2.3964508E4,6.51394E3,1.6014084E5,8.716047E4,5.8134043E4,8.993669E3,1.6275547E4,7.68896E3],"tree_param":{"num_deleted":"0","num_feature":"40","num_nodes":"13","size_leaf_vector":"1"}},{"base_weights":[8.0712146E-1,2.3471503E-1,3.4925923E-2,-1.3423084E-1,9.663097E-1,1.1038634E-2,-2.184288E-2,3.3195984E-2,-2.157221E-2],"categories":[],"categories_nodes":[],"categories_segments":[],"categories_sizes":[],"default_left":[0,0,0,0,0,0,0,0,0],"id":71,"left_children":[1,3,-1,5,7,-1,-1,-1,-1],"loss_changes":[5.5293823E2,1.0950381E2,0E0,2.3203726E2,2.821231E2,0E0,0E0,0E0,0E0],"parents":[2147483647,0,0,1,1,3,3,4,4],"right_children":[2,4,-1,6,8,-1,-1,-1,-1],"split_conditions":[-3.6387973E-2,-1.3812049E-1,3.4925923E-2,-1.3812098E-1,-2.4914914E-1,1.1038634E-2,-2.184288E-2,3.3195984E-2,-2.157221E-2],"split_indices":[5,8,0,8,18,0,0,0,0],"split_type":[0,0,0,0,0,0,0,0,0],"sum_hessian":[4.9500372E2,4.042111E2,9.079264E1,2.6924594E2,1.3496516E2,1.5992073E2,1.0932519E2,9.484036E1,4.0124813E1],"tree_param":{"num_deleted":"0","num_feature":"40","num_nodes":"9","size_leaf_vector":"1"}},{"base_weights":[-5.6477193E-2,8.811272E-1,-5.723618E-1,3.421139E-1,2.0324204E-2,-8.42766E-1,3.7195344E-2,-5.9803175E-3,1.856234E-2,-8.427962E-3,-1.9745106E-2,1.9460913E-2,-2.0115528E-2],"categories":[],"categories_nodes":[],"categories_segments":[],"categories_sizes":[],"default_left":[0,0,0,0,0,0,0,0,0,0,0,0,0],"id":72,"left_children":[1,3,5,7,-1,9,11,-1,-1,-1,-1,-1,-1],"loss_changes":[5.100232E1,5.3085766E0,1.1231638E1,7.4208717E0,0E0,4.339611E0,2.9257105E1,0E0,0E0,0E0,0E0,0E0,0E0],"parents":[2147483647,0,0,1,1,2,2,3,3,5,5,6,6],"right_children":[2,4,6,8,-1,10,12,-1,-1,-1,-1,-1,-1],"split_conditions":[-1.2603487E0,-1.6801775E-1,-1.3812028E-1,-2.3865697E-1,2.0324204E-2,-2.5075623E-1,-2.507355E-1,-5.9803175E-3,1.856234E-2,-8.427962E-3,-1.9745106E-2,1.9460913E-2,-2.0115528E-2],"split_indices":[15,2,8,17,0,18,18,0,0,0,0,0,0],"split_type":[0,0,0,0,0,0,0,0,0,0,0,0,0],"sum_hessian":[1.03400345E2,3.644844E1,6.6951904E1,1.3300567E1,2.3147875E1,4.611317E1,2.0838736E1,7.0911417E0,6.2094245E0,2.1675879E1,2.4437294E1,1.0966675E1,9.872061E0],"tree_param":{"num_deleted":"0","num_feature":"40","num_nodes":"13","size_leaf_vector":"1"}},{"base_weights":[8.161046E-1,2.4337867E-1,3.4925923E-2,4.252481E-1,-2.126118E-2,1.6153489E-3,1.9881682E-2],"categories":[],"categories_nodes":[],"categories_segments":[],"categories_sizes":[],"default_left":[0,0,0,0,0,0,0],"id":73,"left_children":[1,3,-1,5,-1,-1,-1],"loss_changes":[5.4240735E2,1.0689585E2,0E0,8.457539E1,0E0,0E0,0E0],"parents":[2147483647,0,0,1,1,3,3],"right_children":[2,4,-1,6,-1,-1,-1],"split_conditions":[-3.6387973E-2,9.2885554E-2,3.4925923E-2,3.1860223E-1,-2.126118E-2,1.6153489E-3,1.9881682E-2],"split_indices":[5,30,0,15,0,0,0],"split_type":[0,0,0,0,0,0,0],"sum_hessian":[4.9062723E2,3.9938528E2,9.124196E1,3.557996E2,4.358567E1,2.4338576E2,1.1241384E2],"tree_param":{"num_deleted":"0","num_feature":"40","num_nodes":"7","size_leaf_vector":"1"}},{"base_weights":[3.744619E-1,1.3286706E0,-4.3162906E-1,2.604847E-2,5.0483847E-1,-6.865175E-1,3.4417644E-1,-6.9310544E-3,1.3462292E-2,-1.4659618E-2,3.0673934E-2,3.4925923E-2,-2.0631347E-2],"categories":[],"categories_nodes":[],"categories_segments":[],"categories_sizes":[],"default_left":[0,0,0,0,0,0,0,0,0,0,0,0,0],"id":74,"left_children":[1,3,5,-1,7,9,11,-1,-1,-1,-1,-1,-1],"loss_changes":[1.803667E2,1.3651001E1,2.5441193E1,0E0,4.919602E0,3.7449265E1,8.789383E1,0E0,0E0,0E0,0E0,0E0,0E0],"parents":[2147483647,0,0,1,1,2,2,4,4,5,5,6,6],"right_children":[2,4,6,-1,8,10,12,-1,-1,-1,-1,-1,-1],"split_conditions":[-1.2603487E0,-1.2178781E0,-2.5075385E-1,2.604847E-2,-8.2600176E-1,-1.5870416E-1,-1.3801537E-1,-6.9310544E-3,1.3462292E-2,-1.4659618E-2,3.0673934E-2,3.4925923E-2,-2.0631347E-2],"split_indices":[15,10,18,0,10,17,8,0,0,0,0,0,0],"split_type":[0,0,0,0,0,0,0,0,0,0,0,0,0],"sum_hessian":[2.3274693E2,1.0628453E2,1.2646241E2,8.80549E1,1.8229631E1,9.527515E1,3.1187258E1,4.041314E0,1.4188317E1,9.027938E1,4.9957705E0,1.438922E1,1.6798038E1],"tree_param":{"num_deleted":"0","num_feature":"40","num_nodes":"13","size_leaf_vector":"1"}},{"base_weights":[8.0733216E-1,2.4301949E-1,3.4925923E-2,4.2055893E-1,-2.1103818E-2,1.6106835E-3,1.9566411E-2],"categories":[],"categories_nodes":[],"categories_segments":[],"categories_sizes":[],"default_left":[0,0,0,0,0,0,0],"id":75,"left_children":[1,3,-1,5,-1,-1,-1],"loss_changes":[5.269312E2,1.03080315E2,0E0,8.156293E1,0E0,0E0,0E0],"parents":[2147483647,0,0,1,1,3,3],"right_children":[2,4,-1,6,-1,-1,-1],"split_conditions":[-3.6387973E-2,9.2885554E-2,3.4925923E-2,3.1860223E-1,-2.1103818E-2,1.6106835E-3,1.9566411E-2],"split_indices":[5,30,0,15,0,0,0],"split_type":[0,0,0,0,0,0,0],"sum_hessian":[4.8954257E2,3.9702866E2,9.25139E1,3.5439197E2,4.2636707E1,2.4199992E2,1.1239204E2],"tree_param":{"num_deleted":"0","num_feature":"40","num_nodes":"7","size_leaf_vector":"1"}},{"base_weights":[3.6854556E-1,1.3139435E0,-4.296177E-1,2.580917E-2,4.9416715E-1,1.556223E-1,-7.6264024E-1,-6.8596257E-3,1.3192141E-2,-1.0160878E-2,3.4925923E-2,-2.1068836E-2,-2.8056576E-4],"categories":[],"categories_nodes":[],"categories_segments":[],"categories_sizes":[],"default_left":[0,0,0,0,0,0,0,0,0,0,0,0,0],"id":76,"left_children":[1,3,5,-1,7,9,11,-1,-1,-1,-1,-1,-1],"loss_changes":[1.7570036E2,1.3586685E1,2.4793087E1,0E0,4.7588825E0,7.055718E1,2.6773727E1,0E0,0E0,0E0,0E0,0E0,0E0],"parents":[2147483647,0,0,1,1,2,2,4,4,5,5,6,6],"right_children":[2,4,6,-1,8,10,12,-1,-1,-1,-1,-1,-1],"split_conditions":[-1.2603487E0,-1.2178781E0,-1.3812098E-1,2.580917E-2,-8.2600176E-1,-2.1267231E-1,-1.3812056E-1,-6.8596257E-3,1.3192141E-2,-1.0160878E-2,3.4925923E-2,-2.1068836E-2,-2.8056576E-4],"split_indices":[15,10,8,0,10,17,8,0,0,0,0,0,0],"split_type":[0,0,0,0,0,0,0,0,0,0,0,0,0],"sum_hessian":[2.3109654E2,1.05495E2,1.2560154E2,8.723999E1,1.8255018E1,4.5744587E1,7.985695E1,4.039134E0,1.4215884E1,3.4039127E1,1.1705462E1,4.9696053E1,3.01609E1],"tree_param":{"num_deleted":"0","num_feature":"40","num_nodes":"13","size_leaf_vector":"1"}},{"base_weights":[8.022876E-1,2.4486646E-1,3.4925923E-2,-1.1226914E-1,9.526987E-1,1.0850112E-2,-2.1493174E-2,3.2714203E-2,-2.1345718E-2],"categories":[],"categories_nodes":[],"categories_segments":[],"categories_sizes":[],"default_left":[0,0,0,0,0,0,0,0,0],"id":77,"left_children":[1,3,-1,5,7,-1,-1,-1,-1],"loss_changes":[5.13938E2,1.0027196E2,0E0,2.1759276E2,2.6858014E2,0E0,0E0,0E0,0E0],"parents":[2147483647,0,0,1,1,3,3,4,4],"right_children":[2,4,-1,6,8,-1,-1,-1,-1],"split_conditions":[-3.6387973E-2,-1.3812049E-1,3.4925923E-2,-1.3812098E-1,-2.4914914E-1,1.0850112E-2,-2.1493174E-2,3.2714203E-2,-2.1345718E-2],"split_indices":[5,8,0,8,18,0,0,0,0],"split_type":[0,0,0,0,0,0,0,0,0],"sum_hessian":[4.8882437E2,3.9523468E2,9.358968E1,2.6325247E2,1.3198221E2,1.5925078E2,1.04001686E2,9.2828545E1,3.9153667E1],"tree_param":{"num_deleted":"0","num_feature":"40","num_nodes":"9","size_leaf_vector":"1"}},{"base_weights":[4.4133183E-1,5.9433395E-1,-1.2292968E0,2.9793906E-1,1.6619802E0,-1.2449592E0,-2.0424683E-2,-1.985763E-3,1.8611446E-2,3.4925923E-2,-2.0453587E-2,-2.2058213E-2,-2.1569144E-2],"categories":[],"categories_nodes":[],"categories_segments":[],"categories_sizes":[],"default_left":[0,0,0,0,0,0,0,0,0,0,0,0,0],"id":78,"left_children":[1,3,5,7,9,11,-1,-1,-1,-1,-1,-1,-1],"loss_changes":[8.545394E4,9.6915016E4,2.4769531E1,7.576906E4,7.981075E4,2.4023438E0,0E0,0E0,0E0,0E0,0E0,0E0,0E0],"parents":[2147483647,0,0,1,1,2,2,3,3,4,4,5,5],"right_children":[2,4,6,8,10,12,-1,-1,-1,-1,-1,-1,-1],"split_conditions":[9.2885554E-2,6.829755E-1,-2.5075465E-1,-1.3812049E-1,-1.3808052E-1,-1.3812098E-1,-2.0424683E-2,-1.985763E-3,1.8611446E-2,3.4925923E-2,-2.0453587E-2,-2.2058213E-2,-2.1569144E-2],"split_indices":[30,15,18,8,8,8,0,0,0,0,0,0,0],"split_type":[0,0,0,0,0,0,0,0,0,0,0,0,0],"sum_hessian":[3.343103E5,3.0626238E5,2.8047947E4,2.397151E5,6.654728E4,2.2202828E4,5.845119E3,1.5605234E5,8.366275E4,5.7855867E4,8.691414E3,7.7424053E3,1.4460423E4],"tree_param":{"num_deleted":"0","num_feature":"40","num_nodes":"13","size_leaf_vector":"1"}},{"base_weights":[7.932302E-1,2.3812152E-1,3.4925923E-2,-1.1104416E-1,9.3497014E-1,1.0545461E-2,-2.1374425E-2,3.228032E-2,-2.1255381E-2],"categories":[],"categories_nodes":[],"categories_segments":[],"categories_sizes":[],"default_left":[0,0,0,0,0,0,0,0,0],"id":79,"left_children":[1,3,-1,5,7,-1,-1,-1,-1],"loss_changes":[5.0680078E2,9.5771385E1,0E0,2.098637E2,2.6049615E2,0E0,0E0,0E0,0E0],"parents":[2147483647,0,0,1,1,3,3,4,4],"right_children":[2,4,-1,6,8,-1,-1,-1,-1],"split_conditions":[-3.6387973E-2,-1.3812049E-1,3.4925923E-2,-1.3812098E-1,-2.4914914E-1,1.0545461E-2,-2.1374425E-2,3.228032E-2,-2.1255381E-2],"split_indices":[5,8,0,8,18,0,0,0,0],"split_type":[0,0,0,0,0,0,0,0,0],"sum_hessian":[4.8634958E2,3.9218298E2,9.416661E1,2.6183005E2,1.3035294E2,1.5970064E2,1.0212941E2,9.160843E1,3.8744503E1],"tree_param":{"num_deleted":"0","num_feature":"40","num_nodes":"9","size_leaf_vector":"1"}},{"base_weights":[-7.597597E-2,8.379384E-1,-5.751266E-1,2.7628458E-1,1.9944722E-2,-8.184982E-1,-6.502799E-3,-6.664512E-3,1.7932996E-2,-1.5942657E-2,2.2288002E-3,1.8835066E-2,-1.9776052E-2],"categories":[],"categories_nodes":[],"categories_segments":[],"categories_sizes":[],"default_left":[0,0,0,0,0,0,0,0,0,0,0,0,0],"id":80,"left_children":[1,3,5,7,-1,9,11,-1,-1,-1,-1,-1,-1],"loss_changes":[4.5852478E1,5.7560654E0,8.978483E0,7.209351E0,0E0,4.177967E0,2.6224785E1,0E0,0E0,0E0,0E0,0E0,0E0],"parents":[2147483647,0,0,1,1,2,2,3,3,5,5,6,6],"right_children":[2,4,6,8,-1,10,12,-1,-1,-1,-1,-1,-1],"split_conditions":[-1.2603487E0,-1.6801775E-1,-1.3812028E-1,-2.3865697E-1,1.9944722E-2,-1.8868646E-1,-2.507355E-1,-6.664512E-3,1.7932996E-2,-1.5942657E-2,2.2288002E-3,1.8835066E-2,-1.9776052E-2],"split_indices":[15,2,8,17,0,17,18,0,0,0,0,0,0],"split_type":[0,0,0,0,0,0,0,0,0,0,0,0,0],"sum_hessian":[9.8457375E1,3.4539295E1,6.3918076E1,1.2804495E1,2.17348E1,4.4452797E1,1.9465282E1,7.0856056E0,5.718889E0,4.045012E1,4.0026784E0,9.934014E0,9.531267E0],"tree_param":{"num_deleted":"0","num_feature":"40","num_nodes":"13","size_leaf_vector":"1"}}]},"name":"gbtree"},"learner_model_param":{"base_score":"5E-1","boost_from_average":"1","num_class":"0","num_feature":"40","num_target":"1"},"objective":{"name":"binary:logistic","reg_loss_param":{"scale_pos_weight":"0.00395346479"}}},"version":[2,1,4]}